4
5	8	8	4
-0.2951240539550781	-0.35670366883277893	-0.30334800481796265	1.8513046503067017	-3.1167759895324707	-2.511279582977295	1.935808539390564	-0.8143014311790466
-0.14609408378601074	0.01864725537598133	-0.13491171598434448	-1.281070351600647	-2.733564615249634	-0.04605479910969734	0.8054125905036926	0.12139035016298294
0.3953486979007721	0.612506628036499	0.3116081655025482	-0.3728485107421875
0.59207284	-0.5771658	0.56186146	-0.1533908	-2.5602732	-1.5958921	-3.4220057	-0.7739283	-0.039378006	-1.032059	2.2585742	-1.4729662	-0.07737544	0.01768615	0.15940303	-2.8850803	0.20593551	0.025708977	-0.03164879	0.11285989	-0.7300317	2.521781	1.2189807	0.119617395	-0.45720848	4.2121744	-0.12007299	-0.0102030095	0.006411908	-0.059026834	-1.1847417	-1.0668842	-0.4878307	1.163697	2.744969	1.3333502	-0.39720482	-0.073250905	0.062583625	-0.24803302
0.028270816	-0.26913947	-0.4940743	1.1507323	-0.30091566	0.1573173	0.07344864	0.53192157	-0.12506534	-0.93163556	-0.28363365	-2.6562247	-0.7319401	-3.351389	-0.41422108	-0.60757494	-0.86752903	-3.1219432	0.3967911	1.5400704	0.17814076	0.17738152	-2.3317232	4.3876767	0.13374434	0.38277924	0.26714978	1.4841833	-0.048452187	5.2888827	0.3324435	-0.3533275	-1.9961189	2.4833589	-12.40134	-16.106472	0.6273018	2.5573785	-0.072373606	-1.8802059	-0.12660506	-0.58233595	0.38015682	-1.9274161	0.18749733	-0.578595	-0.016639644	-0.04235209	-0.10755519	-1.0619347	-0.12872742	-0.678108	0.43816984	-4.4055414	-0.1629732	1.1270465	-0.00021188981	0.43962952	-0.62228155	0.52666813	-1.122235	0.03348394	-0.41491258	-0.8194966
2.01619	0.38147128	-0.0066943713	-0.6731757	0.97623473	1.4885753	-1.1277642	0.041279554	-0.09258305	-1.5207093	-0.027807113	-0.06822973	0.30954224	0.5561475	1.794203	0.9092341	1.0660436	0.6091875	0.7207846	-0.6854707	0.837509	0.26220906	-1.1681936	0.25507325	1.9948274	-0.85472786	0.7607974	3.256232	0.14034489	0.48403493	3.8269649	0.3459795
softsign
softsign
relu
