4
5	8	8	4
1.914139986038208	-0.19375815987586975	-2.115257740020752	-3.3708555698394775	1.0463868379592896	0.5596430897712708	-1.834685206413269	-0.16538022458553314
-0.04003920406103134	0.8001746535301208	-0.07301269471645355	-5.348340034484863	0.25207170844078064	0.20604701340198517	0.18791893124580383	-0.5823685526847839
0.07729190587997437	0.30412065982818604	-0.06849277019500732	0.17613163590431213
-3.034423	0.16651444	0.031422768	-0.04471929	0.04329655	0.6154095	0.007178586	0.09754847	-0.07838488	-0.166872	1.3731534	0.6565985	0.51850045	-0.63284045	-0.8712929	0.37156022	2.78419	0.28154573	0.15126634	-1.2437294	0.400023	-0.79134077	-0.40491194	-0.10944448	-0.14626016	0.56084365	-0.31571573	0.08395818	-0.032790583	-0.62232757	-0.024644207	1.3294086	0.5169518	0.080534585	-0.5987471	0.18514481	0.9433895	0.006341944	0.1332591	0.29716492
1.1434089	0.10212731	-0.053227883	0.12459377	0.1916239	-0.08824971	0.4883887	0.4953239	2.0474374	1.4374297	-0.34185478	0.6696977	2.1886775	-2.5008492	-1.2534128	-0.49150354	-1.0631864	-0.31575218	-0.337049	-1.1363039	0.4591102	0.07737152	1.3226666	-0.6458265	-6.5471377	2.762603	0.4048535	-2.0450652	1.1955198	2.8285372	3.3876336	5.150564	1.3302053	-1.4509777	1.0084321	0.30439207	-0.54651105	0.74724233	-0.6195293	0.39126262	-0.1730549	0.03687797	-0.037138876	-0.33511937	-0.5714781	-0.44699782	-0.34363657	-0.57573795	-0.84610206	0.5074786	0.07337383	0.17583704	0.40164116	-0.13821791	-0.019741727	0.27315602	-2.82695	2.0159771	-0.33389434	-0.75698256	0.54430014	-1.2324551	0.8901481	0.17591414
-2.2874997	0.1978268	-2.5758002	-0.009402601	-1.2760454	-1.0460457	-1.2912109	0.007176007	1.3159066	-0.7205789	0.5912117	-0.13217233	-0.514735	0.7265318	1.1355423	-1.81826	-3.7345042	0.39528537	-2.258899	0.0009421438	1.1960529	-1.2376857	-0.047121763	0.0257475	1.0947845	-1.308745	0.444673	-1.1952561	-0.93408114	-1.7860075	-0.55102396	-0.00816483
softsign
softsign
relu
