4
5	8	8	4
0.7017341256141663	-0.5894331336021423	-2.608722448348999	0.8041402697563171	-3.5712592601776123	3.5446722507476807	-0.17099495232105255	-1.8566303253173828
0.6300994753837585	-0.27984920144081116	-1.5259329080581665	0.819642186164856	-0.45298299193382263	-0.12731319665908813	0.0863230898976326	-0.6240829825401306
-0.15067464113235474	0.32512572407722473	-0.030475595965981483	-0.3545733094215393
1.2284639	-1.4668959	-0.12173179	-0.091705255	0.13423015	2.339754	5.6866355	0.41132948	1.0027094	0.735234	2.0735464	1.1961339	0.13102493	0.04528431	-0.18419644	1.2046262	-1.2313492	-0.08275377	-0.10682297	-0.19607536	1.703117	2.1983774	0.025324875	0.10340552	-0.2381949	-2.742532	-1.7633196	-0.1524978	1.2480302	1.2577713	0.6843523	0.23281193	0.064427175	0.16681865	-0.59408224	3.0053015	0.039949194	0.009068533	0.03733882	-0.12372591
-2.990152	-0.20916979	-0.5465602	0.5347563	-1.2887726	0.05872987	0.2882126	-2.2735476	1.9189874	1.4330418	0.84438515	-2.0292645	-0.3364278	-1.7527804	1.3462756	-0.9773479	0.30026272	-0.0064015193	1.3736542	0.46658337	-1.7912236	0.23387915	-0.860783	3.946342	0.115510315	-0.18547395	0.27835885	-0.6287342	-0.12979467	-0.14914575	-0.039745215	-0.95174176	2.4187741	-0.09357597	1.2220733	-0.6849983	-0.07644668	0.052358404	0.6387937	-0.13089144	-0.09031086	0.040380146	-0.31091672	0.49743697	0.23320824	-0.07361143	0.25195628	-0.05741172	-0.60081446	0.04001039	-1.1352386	-0.27573097	0.66234666	-0.06633173	0.39020544	-1.1619346	1.0610774	0.11090797	1.1698099	0.32806227	-0.038890876	0.27376685	0.752574	0.14920437
-1.3573422	-0.15672646	-0.7723019	1.020547	-1.0474887	0.25553828	-0.041061487	0.9225378	0.72974074	0.08747191	-1.1895336	-0.90042806	0.29007044	-0.46867993	-0.60249794	-0.17061439	-1.094713	0.34305635	-0.6176109	0.4170267	-1.0181111	1.6456202	-0.04813517	0.12779793	0.52455	-0.16529135	0.21282925	0.111342944	-2.4249542	2.093611	-0.34350133	1.5029578
softsign
softsign
relu
