4
5	8	8	4
-2.84334659576416	-1.880913257598877	-1.5785375833511353	-12.255878448486328	2.674391508102417	4.5163469314575195	-0.9421861171722412	3.1988348960876465
-0.10453615337610245	3.207733154296875	4.256428241729736	-1.2131304740905762	0.3051581382751465	3.7187116146087646	0.3215039074420929	0.18560723960399628
-0.18465298414230347	0.11578274518251419	1.2173898220062256	0.4765154719352722
3.757766	-0.23764181	0.556643	-0.5651425	-0.47347167	2.2243679	-34.785233	-0.3216735	-0.042937454	0.03792272	2.4139326	-0.19976637	-0.0066054715	0.005510517	-0.014691848	11.515832	3.0936403	0.9719251	0.14831558	0.29207778	0.99164176	0.059120394	-0.11442047	-0.11552289	-3.0239375	-3.4110591	0.1368792	-2.3217678	-0.31739503	-1.0550038	1.5393761	1.3214896	0.030015849	-0.036873437	-0.0686964	1.6101836	-0.05034762	-0.061671503	-0.07749575	-3.938852
-0.03807098	0.057776257	-1.1305444	0.041425865	0.44107524	-0.0098234145	-0.20404848	-0.3623248	-0.96909267	1.8929303	2.2114027	0.36442563	1.5865887	0.060718097	-0.9393303	-2.0520554	-1.396453	2.4326882	-3.4410143	-0.8471875	8.618683	-3.0249145	-3.295611	-7.251744	-0.56510985	3.2295299	-2.7888014	-0.6187205	-3.3471694	-0.31822243	2.5011227	3.9586842	0.12493591	-0.61224514	-0.34680519	0.12487908	0.0054386533	0.08027832	0.18774226	-0.083367586	0.30391726	0.9576402	-0.46047452	-1.0094901	1.925196	-1.906247	-1.5045345	-3.2810318	0.012586345	-0.05687495	-2.1861465	0.14324784	0.7624067	0.003397212	-0.4569261	-0.6893164	0.0531075	-0.091522	-2.049869	-0.10492174	1.7233614	0.020130504	-0.98833454	-1.6219479
-0.19048086	0.39477965	-0.13297887	-0.33835277	-0.011460888	-0.2923976	1.5767236	-1.3287169	-2.1498055	0.055275247	0.055953126	0.27007926	-0.118437186	-0.08292529	3.0764987	-0.0493664	-0.11708774	-1.1665606	-0.17481427	-1.2809963	-2.446173	-0.54483306	0.7778822	-0.39255905	-0.29333696	-0.96546227	0.71225965	-1.373147	-2.230399	-0.8599778	2.226494	-1.7180496
softsign
softsign
relu
