4
5	8	8	4
-3.146742820739746	-1.9509756565093994	-1.6519814729690552	-12.09270191192627	2.734508991241455	4.561311721801758	-0.9220143556594849	3.0726187229156494
-0.1407291293144226	3.1918365955352783	4.225429534912109	-1.0507392883300781	0.3579312562942505	3.739994525909424	0.3357764184474945	0.1650814712047577
-0.17762602865695953	-0.010876760818064213	1.183099389076233	0.5139505863189697
4.218186	-0.19475615	0.5231871	-0.53549284	-0.32200217	2.252744	-35.091568	-0.28926688	-0.00078644307	0.02755457	2.4829803	-0.15539645	0.0045179087	0.0015731995	-0.0062986193	11.627438	3.0358965	0.766844	0.15072832	0.45609128	0.9094472	0.03138899	-0.05383771	-0.10089392	-3.018296	-3.4380813	0.11874429	-2.5508206	-0.3578069	-1.1786294	1.4628351	1.234004	0.012110204	-0.033241346	-0.055144895	1.6961327	-0.042192552	-0.014474667	-0.05144482	-3.902308
-0.05676665	0.01874342	-1.0936725	0.09300078	0.4113431	-0.00993988	-0.13524918	-0.35173965	-1.2010651	1.9609668	2.5454607	0.28875408	1.5258726	0.015813924	-0.9927011	-2.0062573	-1.302501	2.6915846	-3.9321265	-0.9103251	8.783254	-3.0904052	-3.0761006	-7.294706	-0.42525044	3.3049204	-2.8171585	-0.49668056	-3.4870062	-0.079252526	2.8262062	3.8715348	0.12947828	-0.6376822	-0.4287445	0.09844246	0.07572098	0.041700523	0.21452576	-0.12819996	0.46298802	1.0140439	-0.7152969	-1.013847	1.8565499	-1.9210762	-1.5554051	-3.1454024	-0.0066345683	-0.020331364	-2.3162193	0.19897875	0.77590245	-0.00860139	-0.31509024	-0.71581215	0.019741343	-0.06687923	-2.2142005	-0.039377693	1.7116805	0.018113129	-0.91211194	-1.5958145
-0.23244807	0.2777342	-0.11946239	-0.4293314	-0.10970589	-0.25494608	1.531356	-1.2631991	-1.9739983	-0.0029612905	0.037162572	0.046347257	-0.0967345	-0.033985246	2.9325995	-0.13723984	-0.11731828	-1.1222013	-0.13022353	-1.2567073	-2.3668072	-0.47364223	0.83247185	-0.47765914	-0.3121118	-0.92049605	0.66422457	-1.4123232	-2.2374206	-0.8470907	2.1230843	-1.6013352
softsign
softsign
relu
