4
5	8	8	4
-0.05370086431503296	-2.3231523036956787	0.17058610916137695	0.09567568451166153	-1.5776695013046265	-0.8800481557846069	1.5617989301681519	1.2747358083724976
-0.9996410012245178	0.045450109988451004	-1.4583384990692139	-0.7435364127159119	1.1425669193267822	-0.4138433635234833	1.4995059967041016	-0.2512226402759552
-0.24264055490493774	-0.01485839020460844	0.1158868819475174	-0.19422781467437744
1.3430291	-0.80370486	-0.13564506	0.0336053	0.3094802	3.170811	-0.1180046	0.3534647	0.26497036	-0.07077261	-0.061129447	-6.4446254	-0.115029655	-0.009602691	-9.5926036e-05	-0.13577	8.472907	0.124729246	0.031866323	0.09758622	1.6434151	0.37736076	-0.122621015	0.0742955	-0.23053572	-1.4669254	0.7304349	0.14989631	-0.024010995	0.7498011	-2.4291394	0.29350373	-0.14637046	-0.0135284485	0.150524	-1.90465	-0.1835	-0.013871796	0.022052359	-0.029114151
-0.50254935	0.73429817	-1.9735634	-1.269256	-1.8010638	0.47541627	-0.65308976	-3.1074178	-0.9368155	0.06730408	0.093654476	0.14656208	-0.61777705	0.12840559	0.2902482	0.91670865	1.1866128	0.018657325	0.39573473	0.40156943	0.33598012	-1.1727198	-0.49339205	-2.4398143	-2.342847	-1.8549038	-0.22112913	1.3847662	-1.54309	2.3899412	-7.233347	-4.5841217	1.5510622	-0.23370712	-1.0402347	-1.532134	1.289109	1.5438439	-0.7843787	0.98225766	-1.7012502	-0.23003806	2.0600433	2.7813237	-1.0302259	-1.0533159	-0.37700608	0.8079461	-2.5068226	0.18325928	1.2457514	-1.5865649	3.63989	-0.2635005	0.58881056	-4.5234632	1.1120162	0.17540173	-0.6743034	-0.7750238	0.8316133	-0.023583809	0.16849117	-1.8039552
-0.25822705	-0.1658743	-1.3142538	0.13858123	0.40031093	1.7029754	0.35137975	2.227404	0.26219955	-1.6333761	-1.9305457	-0.19524	-0.06224744	0.40859154	0.22553515	-0.5733431	-0.95121294	-0.16880989	-0.49325952	0.49160782	-1.1394793	0.6679531	0.21344033	1.0960305	0.36462048	-0.5048502	-0.14252633	-0.76407766	-0.8488103	1.2669867	0.5172219	0.2759534
softsign
softsign
relu
