4
21	30	30	256
2.2113630771636963	-0.22223763167858124	-1.8790208101272583	0.5451613664627075	-1.227583646774292	1.6528687477111816	-1.0805387496948242	-1.634888768196106	-0.8473663926124573	-1.9252492189407349	-0.5904597043991089	-0.45429039001464844	1.6501957178115845	2.4239070415496826	-1.3083080053329468	0.7330384850502014	0.48382678627967834	0.5495214462280273	0.19701659679412842	-0.5233620405197144	1.275428056716919	0.43473824858665466	0.03421538323163986	1.616235613822937	-1.2911036014556885	-1.3328698873519897	0.3323967456817627	-0.3944094777107239	-1.1164199113845825	1.5567576885223389
0.1378009170293808	0.039643194526433945	-0.13540342450141907	0.6139512658119202	0.064371757209301	0.5819392800331116	0.005062609910964966	0.19696079194545746	0.4731754958629608	0.33054420351982117	0.1653520166873932	0.2085876166820526	0.2806679904460907	0.35852012038230896	0.05885680764913559	0.2218848317861557	0.16140124201774597	0.7743488550186157	0.20989951491355896	0.15005384385585785	0.2784716486930847	0.3459779918193817	0.37495607137680054	-0.0514952652156353	0.19653233885765076	0.6504489779472351	0.11690365523099899	0.24356183409690857	0.2949860990047455	0.5583681464195251
-0.20801296830177307	-0.17570261657238007	-0.14489519596099854	-0.15118928253650665	-0.15429049730300903	-0.1179978996515274	-0.11864546686410904	-0.11951296776533127	-0.15736427903175354	-0.1128629818558693	-0.09297919273376465	-0.05666214972734451	-0.01494456548243761	0.04856207221746445	0.12359948456287384	0.23001837730407715	-0.24809953570365906	-0.24672740697860718	-0.2500256896018982	-0.2647372782230377	-0.23037908971309662	-0.21686848998069763	-0.17508789896965027	-0.1386970728635788	-0.11285892874002457	-0.1162717193365097	-0.1267959028482437	-0.11984087526798248	-0.0760028064250946	-0.0428011380136013	0.11551173776388168	0.21292150020599365	-0.2683485746383667	-0.253423273563385	-0.26215896010398865	-0.2240389585494995	-0.19439488649368286	-0.1336604654788971	-0.09533213078975677	-0.0628896951675415	-0.0751323327422142	-0.09410328418016434	-0.12138789147138596	-0.20717838406562805	-0.20951437950134277	-0.17219817638397217	-0.1380644142627716	-0.0885913074016571	-0.062457822263240814	-0.046207085251808167	-0.07654841244220734	-0.0786745473742485	-0.11101873219013214	-0.11315079778432846	-0.13990536332130432	-0.15148919820785522	-0.1291656196117401	-0.10133642703294754	-0.10121661424636841	-0.10991537570953369	-0.10067389905452728	0.011899027973413467	0.04220189154148102	0.05389956757426262	-0.2593618631362915	-0.260739803314209	-0.24043510854244232	-0.15647056698799133	-0.11563941836357117	-0.06394924968481064	-0.0781312882900238	-0.07579254359006882	-0.06794311106204987	-0.12527361512184143	-0.17468127608299255	-0.19776245951652527	-0.22858740389347076	-0.15162084996700287	-0.09487404674291611	-0.004638133570551872	-0.24101142585277557	-0.21804006397724152	-0.22177524864673615	-0.2533506453037262	-0.23795917630195618	-0.24019461870193481	-0.26019853353500366	-0.2554370164871216	-0.2672939598560333	-0.2560741603374481	-0.24909618496894836	-0.25564104318618774	-0.2562636137008667	-0.21406373381614685	-0.27810171246528625	-0.27033731341362	-0.19025902450084686	-0.13231851160526276	-0.07781952619552612	-0.06452794373035431	-0.026306523010134697	-0.05428104102611542	-0.04507271945476532	-0.04156148433685303	0.06545057892799377	0.12436873465776443	0.11351866275072098	0.09119389206171036	0.12769080698490143	0.09617012739181519	0.02827811799943447	0.017434921115636826	-0.21924073994159698	-0.2323528230190277	-0.22576773166656494	-0.2280501425266266	-0.19604264199733734	-0.1842922568321228	-0.16032887995243073	-0.14144262671470642	-0.14327074587345123	-0.12147534638643265	-0.08985306322574615	-0.05987462401390076	-0.010797498747706413	-0.0013707006582990289	-0.09507528692483902	-0.21990282833576202	-0.2309948354959488	-0.23422768712043762	-0.24115216732025146	-0.24161289632320404	-0.19857138395309448	-0.16277804970741272	-0.17548176646232605	-0.1723400354385376	-0.15500172972679138	-0.15711650252342224	-0.08055392652750015	-0.06616004556417465	0.006257023196667433	0.0580163411796093	0.09801516681909561	0.14882586896419525	-0.2652505040168762	-0.2513355016708374	-0.27616268396377563	-0.25870710611343384	-0.21372725069522858	-0.18861426413059235	-0.20670022070407867	-0.1427760273218155	-0.1007448360323906	-0.11164139211177826	-0.1362815797328949	-0.12160853296518326	-0.1081153079867363	0.010398860089480877	0.038245074450969696	0.06932947784662247	-0.23702728748321533	-0.22614532709121704	-0.2282014638185501	-0.18060576915740967	-0.1752472221851349	-0.16587471961975098	-0.11824747920036316	-0.12442727386951447	-0.16658154129981995	-0.16769443452358246	-0.12491776049137115	-0.1286458969116211	-0.0751083493232727	0.008931130170822144	0.06965211033821106	0.08133017271757126	-0.26381486654281616	-0.25125929713249207	-0.2441542148590088	-0.24689945578575134	-0.279721200466156	-0.2903086841106415	-0.27559012174606323	-0.24189874529838562	-0.24191871285438538	-0.2502243220806122	-0.26653051376342773	-0.25362634658813477	-0.24235153198242188	-0.24030853807926178	-0.26489055156707764	-0.2682824730873108	-0.24452997744083405	-0.2504192590713501	-0.2249654084444046	-0.19843988120555878	-0.20006921887397766	-0.19952145218849182	-0.15117916464805603	-0.0843878835439682	0.1333385556936264	0.010604352690279484	-0.04757261276245117	-0.12953750789165497	-0.19539546966552734	-0.25628021359443665	-0.272144615650177	-0.2968616187572479	-0.08202008157968521	-0.0775858536362648	-0.062282949686050415	-0.0790153294801712	-0.12837310135364532	-0.14440596103668213	-0.10364113003015518	-0.10089097172021866	-0.09544574469327927	-0.009158912114799023	0.010114171542227268	0.0020754768047481775	0.0479811392724514	0.11553949117660522	0.14195077121257782	0.14966131746768951	-0.27384987473487854	-0.2595069110393524	-0.2636774182319641	-0.26330381631851196	-0.26019760966300964	-0.2422916144132614	-0.2637004852294922	-0.26986050605773926	-0.23865993320941925	-0.2633192241191864	-0.2705923914909363	-0.25653690099716187	-0.25895795226097107	-0.30166512727737427	-0.29261985421180725	-0.25443246960639954	-0.26574578881263733	-0.26410168409347534	-0.2534855008125305	-0.24038293957710266	-0.2579675316810608	-0.2436571568250656	-0.21114028990268707	-0.19933663308620453	-0.16329286992549896	-0.11943840235471725	-0.12806689739227295	-0.10287123918533325	-0.04663962498307228	0.08740473538637161	0.2566904127597809	0.0608244352042675
1.1345514	0.10217675	-0.15966344	0.27518895	-0.31075975	-0.03550646	-0.3108805	0.9495182	-1.0835755	0.015473324	-0.1608832	0.09632934	-0.061196238	-0.042502772	-0.04553672	0.10367458	0.08315088	0.04757651	0.223949	2.787912	-3.747054	1.3400322	0.3531195	-1.6056086	-0.030114757	-0.12835467	-0.5669688	0.66800976	0.047187433	-0.15857835	-0.042250957	-0.18734846	-0.2226696	0.28088412	-1.1758556	-0.4023178	0.11158957	0.23013891	-0.4694849	0.06419661	0.24311224	-0.9075378	-0.8927597	1.5044905	-0.7844097	-6.0217934	1.6428176	0.09880189	-0.60910326	0.88947326	-0.2248686	-0.8714023	-0.7922572	0.7890146	2.2282925	0.25380594	0.17242332	0.11224711	-1.668154	-0.35054564	0.24682616	-0.104909435	1.6092274	-2.2418787	-0.45006505	-0.520574	-0.36647603	0.1812313	0.7487782	-0.3101414	-0.8538327	-1.7015433	-0.38065398	-0.36732933	1.003069	0.96877754	-0.71469253	0.41219592	0.04119283	-0.5332543	0.0079864655	0.3684183	0.48226452	-1.1733812	0.37768203	1.3668046	-6.328042	0.04384453	0.7022831	1.5878296	-0.3554759	0.9470524	-0.34289804	0.9541359	-1.0266892	-0.38459405	0.44848582	-0.12900387	-0.19620237	0.8473041	-1.1298335	-0.023661286	-0.2691867	0.47767395	1.0144193	0.69725525	-2.4905834	4.0450897	0.018828206	-1.6094221	-1.0360831	0.00043715182	2.1341243	-1.0715932	-0.562825	1.2238911	0.8312359	-0.2973407	-0.024567494	-0.11914264	0.22183582	0.64088184	-0.41149375	1.5203115	0.09585042	-2.0135357	-1.6192	1.3558261	-2.4401042	-0.061070416	0.42732537	-0.5091095	0.5481223	-1.4145497	0.2462193	0.5984367	-0.59267795	-0.43870598	0.16805796	-0.4926236	-0.083235696	0.33189198	0.25791195	-0.0013433172	-0.0024244506	-0.3038485	1.8228285	-0.34471735	2.2744784	3.1634772	-0.13291553	-0.62504643	-2.3587499	-0.8129916	-0.059393026	0.16548161	-0.7105857	-0.88666177	1.2865701	-1.5405138	1.8236065	0.673885	-1.3261237	-0.4444606	0.86873573	-1.3150787	0.4282589	2.1586874	-1.5183848	1.9440403	2.2279	-0.019399604	-1.0787177	-0.6113352	0.2515007	-1.5254432	0.16322638	0.27396077	0.474823	0.2256401	-0.86430675	-1.166663	0.17971295	0.5845758	0.03782535	-0.10612033	0.3295672	-0.80504656	0.7532775	-0.31485024	-0.45978412	0.41046867	-1.7444016	-0.411594	-0.066985555	0.34366402	-0.53991485	-1.4286549	0.68181306	0.25136963	-0.64250493	-0.5730859	0.017125256	-0.11091834	-0.25163475	0.39749673	0.10434299	-0.0812611	-0.039400466	0.95046556	0.8566625	-0.19401067	-2.2745302	0.111958876	0.85548776	0.48739326	-0.71045583	-0.70946	0.15323317	-1.434279	-0.6747791	-1.1029555	1.2562425	-1.2181578	-1.104402	0.21170446	-1.2386198	0.036036257	0.17463754	-0.34690672	2.7041986	-2.0295377	-0.047448996	2.033672	-0.046893165	-1.0365434	1.2293928	2.4111526	-0.86281705	-0.2589994	-1.373153	-0.21492963	0.04133617	0.24704514	-2.5981922	0.9043168	0.5477405	0.85779536	-0.45997697	0.26553288	0.29658455	-0.48586157	0.35155046	-2.0362275	1.9161859	0.0042515034	1.6461527	2.7293622	0.8989305	0.4643409	-1.834343	-0.39107114	-1.3748387	-0.03258629	-1.2761005	-0.8965895	0.65503335	1.7258353	-0.65673286	2.007802	-1.2030487	0.07306273	-1.6965687	-0.03841183	-0.064430594	3.4609222	0.32140246	0.9286047	0.5297671	-1.4842638	-0.63702196	2.31918	-0.407689	-0.5490991	0.4726426	-1.3064852	0.11964245	1.0635738	-0.5821832	0.9115715	0.4428055	-0.7712677	-0.22276674	-1.4598856	0.98501104	1.0530988	-3.307259	-0.7171985	-0.8879101	0.30130693	0.84790844	0.25156912	0.083992004	0.7832	-0.60409606	0.26521784	0.46329945	0.6991914	-0.34556368	-0.5337996	-0.85282236	-0.43300506	-0.34055716	1.1735607	0.7260373	0.8347814	-0.75508827	0.38138133	-0.14689757	0.058197778	0.023936609	0.15646717	0.5922325	0.69547415	-0.017952345	-0.08514648	-0.16296911	-0.3777901	-0.27571175	0.038376912	0.34143016	-0.024399843	0.007953941	0.20150666	0.29033783	0.47561863	-0.8399355	-1.1521583	-1.0562646	0.05260454	0.911582	-0.77695805	0.7620184	-0.64212614	2.4975772	1.501104	-1.2387891	-1.0105193	-1.1793565	-2.4745867	0.4892743	0.29559925	-0.60807323	0.5656393	-0.20287548	-0.20908469	0.4265047	-0.38345176	-0.8429438	-0.24873787	1.1898863	-0.26209787	0.16786318	0.3338156	0.3412764	-1.0033801	0.40275437	0.19646336	-0.23384967	0.31055996	0.241767	-0.033630162	-0.7177268	-0.005236794	-0.0075138533	-0.29797104	0.67968315	-1.4347355	-2.0754056	-0.29825202	-0.56911343	-0.03555423	0.55316216	1.4623269	-0.30728486	0.0006695721	-0.048560943	0.8567152	-1.372821	1.0453722	1.1084971	1.586078	1.7523857	-2.063333	0.86832404	-0.17277628	-0.2871143	-0.4951447	-0.9220084	0.006571055	1.5577404	-0.97868496	0.057587914	-0.7889895	-1.9969437	-2.9260595	-1.5815619	0.7076171	-0.30190367	1.7153752	-0.551918	1.0540179	2.2028048	0.85270315	1.7554498	0.69518346	1.6522642	1.0758882	0.04419868	-0.99980855	-2.2428513	-1.193663	0.6203552	3.2613053	-1.1082798	-0.122215025	-1.5940708	0.046174716	0.66026515	-0.32770997	-0.6317254	-0.8867091	1.1227013	1.737972	-1.4561101	-0.6785078	1.6705276	1.0078527	-0.21264248	-0.7334734	-1.849831	-1.1591945	1.0932115	1.6083305	-0.576926	2.1971734	0.5429729	0.08426328	-0.8898728	-1.6943419	-0.2881076	0.94895613	0.38603336	1.4645956	0.26593417	0.23468602	-0.41508716	-0.64557105	0.4871722	-1.6215807	1.0502667	0.8974499	-0.38786203	1.0977397	0.5060462	0.053865988	0.678844	0.75060886	-0.64230937	1.2147813	0.15203293	-0.01524157	0.40611723	-0.040450387	0.687704	0.4458573	-0.047698442	-0.7458612	-0.29125947	-0.14398912	-0.69061613	0.6749985	0.45084152	2.3507092	-2.7741244	1.4333082	0.023220627	0.31275868	-0.30164993	0.1827889	2.0774527	-0.026026923	0.013799178	-0.35720748	-0.4355071	0.42592296	-1.8585094	0.073505014	-0.26885155	-0.046090662	-0.2006957	-0.6138019	-0.21338826	-1.7547283	-0.41409498	1.3762335	0.22322173	0.40802628	0.09510626	0.08831589	0.33210668	0.13679051	-0.22432962	0.02333065	0.13789232	0.096011944	0.20447345	0.03841643	0.055086676	-0.32546198	-0.07500518	-0.090605214	-0.1882076	-1.5529122	0.9176056	1.7395039	0.9050962	1.0920602	-0.05616847	0.30775538	0.18358779	-3.0991914	-1.4193708	-0.7193956	0.7051765	0.5984349	-1.0098425	1.1405588	0.44975418	-0.19103324	-0.8586329	-0.68230563	0.16276564	-0.7394348	0.3327927	1.0108254	-1.4996232	1.2870438	0.263918	0.5930656	-0.383004	-0.28212416	0.88383967	0.8879593	-0.14678742	0.6502559	0.08651779	-0.3957476	-0.3264028	-0.08186779	-0.014978763	-0.43998718	0.20384635	0.032778654	-0.044554986	0.80503845	0.47493497	0.27794555	-0.62472516	-1.4510374	-0.08830097	0.6790828	-0.4796709	-1.6546084	0.62905544	1.2058928	-1.1514721	-0.23367748	0.09250571	-0.22552632	2.1155188	-1.2299291	-0.6521504	0.05044071	-0.7771004	-0.9317665	-0.121533796	-0.61042047	0.33194923	-0.01476097	-0.78746927	0.26787487	-2.427642	1.7136489	-0.7767734	0.60174453	-2.593786	1.9570532	0.009933256	-0.6292517	-0.43649092	-1.0996435	-0.19958444	0.84008366	0.6442376	0.36629748	1.8704616	-0.95054877	0.13634907	0.7758329	-1.9364359	3.592361	0.30246633	0.27460745	-0.76796854	-1.8917036	-0.11035095	0.10561945	-1.391484	0.7798291	0.9968855	-0.24400254	0.18751551	0.5263548	-0.16134316	0.20129989	-0.09222505	0.60752565	0.33264878	0.30366713
0.6745326	-0.330467	0.64238554	0.5345691	-0.4758216	-0.21182586	0.50019836	0.1020492	0.35541752	0.1352485	0.29547703	-0.24244705	-0.38084126	-0.2676778	0.16624913	-1.0361526	0.4232301	-0.4081733	-0.00032156927	-0.09426445	0.11726354	0.21307302	0.95172864	0.07778051	-0.6754894	0.1934073	0.08125886	0.20758237	0.31491852	-0.019068152	0.32840967	-0.28859577	0.10217415	-0.23710598	-0.6429373	0.1618161	-0.31051978	0.1793657	0.15475242	-0.97121865	0.06367189	0.24134468	0.22468148	-0.24334055	-0.30608746	1.7583207	-0.35331294	-0.38781977	0.24777134	-0.022754591	-0.1200151	-0.26237762	0.5949971	0.14848939	0.49380806	0.23805639	0.81514585	0.05712109	-0.049673487	0.21226978	-0.04847418	-0.07302663	2.8880923	-0.08746011	-0.12563142	-1.8429543	1.5312573	1.1823117	0.95222664	0.74750215	0.73499066	0.916936	-1.7686534	-1.6021423	0.09492373	-3.5743027	-0.007931401	0.15423779	-0.24549666	-0.0051914714	0.13683099	0.45890176	-0.47385448	-2.433567	-0.8500992	0.40642902	0.0077111744	-0.02143918	0.72845674	-0.36616787	0.71548766	0.58194613	-0.29613972	0.5743615	0.9246363	0.6268683	0.3336712	0.37659842	0.38680303	0.12444522	0.04186974	0.6476414	1.002044	0.93076813	0.29131654	1.6996437	0.62526536	0.5705402	0.7482816	0.34166974	0.36428854	0.17329752	0.44633445	0.69497246	1.2061925	0.67794013	1.0480694	0.6490326	0.0016166139	0.683094	-0.14863299	0.86046135	2.6122	0.43870118	4.445848	-3.7367356	2.219005	1.0531013	-0.013718086	1.271509	2.161153	-0.9567868	-4.221627	-3.9185677	2.4332929	-3.1082542	0.2951926	0.32790896	0.014185597	0.9137161	-0.4672848	-1.9058553	-3.1100433	-3.2225807	-1.7604911	0.6468908	-1.1026115	0.4202404	1.2340202	-2.5595741	0.46032104	0.48680633	0.4589481	0.2563597	0.4081379	0.73232275	0.3197857	0.9438293	0.7068224	0.5366076	0.6701598	0.47936022	1.1736698	0.8230214	0.041690856	1.2193832	0.7884019	0.70639783	0.49210277	0.51767147	0.8020736	0.27925974	0.8771621	0.86117536	0.7272486	0.54208785	0.49905476	0.49842855	0.5858865	0.46563578	0.2703117	-0.1424838	-0.14381997	-0.092783734	-0.36212382	0.15286267	-0.49453545	-0.27547157	0.32637855	-0.1733642	-0.18650475	0.17022887	0.29286924	0.16563205	0.73804826	0.7942565	-0.30855447	-0.78790987	0.19258654	-0.13716795	-0.08950725	0.2037267	-0.5105944	0.17337531	0.87077	-0.024076866	-0.868776	0.25260395	-0.25995222	-0.004789749	0.21857007	-0.425363	0.5964877	-0.28814712	-0.0164981	0.13650067	0.24252364	0.29707778	-0.15457255	0.13535942	0.5615576	-0.16559108	0.24275622	0.010314927	-0.54083115	0.22829382	0.6159436	0.22398911	0.60208774	0.27487543	0.19110169	-0.19700505	-0.1624203	-0.14222716	-0.15389174	-0.11756745	-0.08040968	0.15944992	0.5092848	0.20710245	0.32387394	0.002656028	0.50476176	0.11737826	0.14300306	0.8368527	0.10140332	0.78211284	0.70659137	0.5506495	-0.7301647	0.49017686	0.50742364	0.25072774	0.98391163	1.5996624	0.531582	0.45954713	0.34438273	-0.09212789	0.34093198	0.3342894	1.5380868	0.065306224	-0.17594564	0.7041411	0.48590776	0.27362606	-0.10517867	0.42863303	0.3903089	0.44630882	0.19758031	0.31775495	0.7635202	0.13847154	0.4551378	0.08753282	-0.50589865	0.13466705	-0.064845115	0.15500666	-0.08925868	-0.120910324	-0.24818069	0.7191488	0.1298763	-0.23403087	-0.1940535	-0.16741854	0.178703	0.3746624	-2.0047307	-0.60065615	0.21984021	-0.5121429	-0.11934871	0.21866167	0.09043963	-0.24149896	-0.034062862	0.70362014	-0.011038517	0.4742501	0.9539106	0.4136545	0.58947	0.2765206	-0.14469296	0.14688678	0.29284266	0.082356445	-0.024546988	0.11773051	-0.66456157	-0.4939347	0.5736987	-0.31930432	-0.38200003	-0.030862575	0.37021914	-0.5945926	-1.1446388	-0.33854407	0.9670529	0.052918717	0.22963944	0.32670394	0.44276205	-0.18112464	-0.24668746	0.1535667	0.756828	0.5678647	-1.2217412	0.8034506	0.16609767	0.2421898	0.85142756	1.0775844	0.4049218	-0.06544774	0.4835459	0.2297126	0.018779725	0.050768305	0.1093246	0.23532668	0.52497685	-0.039324135	0.2660137	0.6143232	-0.61833173	0.32546988	0.49443966	0.19238222	-0.5984364	-0.20621811	0.33052048	0.3441468	0.38904583	0.15413089	-2.4150212	0.24732944	0.85929406	0.5351986	0.17968988	-0.14494684	0.0017540014	-0.596463	-0.30878222	0.01896571	0.7652559	0.5577175	-0.22870062	1.6621022	0.21338409	-0.1650324	0.30007586	0.29866892	0.12892656	-0.44782633	1.5269015	0.22297288	1.0413184	0.1735016	0.51398706	-0.079441994	0.15492469	0.13905293	-0.7630624	0.09981627	0.67164165	0.3107666	-0.59921503	0.06854393	-0.26501352	-0.0021961676	0.4868462	1.1120042	-0.116507754	0.4435819	0.25090715	-0.11616228	-0.35664535	0.21757026	-0.3498973	-0.04604637	0.270502	0.013297965	0.42454416	0.35675356	-0.4812472	-0.18810552	-2.0078506	-0.26183048	0.5700731	0.373446	-0.31058773	-0.0030291106	0.1335623	0.8408186	-2.227517	0.12709607	3.2599466	-2.0945385	1.4089545	0.16847266	-1.0749043	-0.74095213	0.83633727	-0.26161054	-0.98939055	-1.618826	0.5914272	-2.2117724	0.12658426	-0.030670563	0.31679773	1.1556857	-0.1281623	-1.4042058	-1.1881827	-1.5873834	1.1354502	-0.51678926	0.124979675	0.2509923	-0.011098726	-1.1194592	-0.34400684	-0.120391525	-0.71790165	0.31349662	-0.34800297	0.39182624	-0.63436615	-0.59833646	-0.18133551	-0.465847	-0.3968527	-0.9949422	0.3313437	0.86720276	0.198848	1.5012738	-0.29102674	-0.19164936	0.014941773	-0.011779233	0.28564534	-0.24372871	0.88393456	1.4139205	-0.44107914	0.06217312	-0.26711902	-0.22989535	-0.31536976	-0.025556656	-0.5212292	0.59040135	-0.05714257	0.54567575	0.25318635	-0.10365957	0.46556923	0.633969	0.085145354	-0.010303026	0.39674923	0.42587993	-0.25628248	-0.49888775	-0.039402276	0.77078617	0.61014605	-1.0286267	0.20098083	-0.0017466906	-0.06292127	0.12604144	-0.4055917	-1.1337806	-0.6755604	0.35744554	-0.74047583	0.36583468	0.5903494	0.0893163	0.7480648	0.4819519	0.020664884	0.43147793	0.73057777	1.1930544	0.4992726	0.5703137	0.41487068	0.29394007	0.28941712	0.7152788	0.89346224	0.80205643	0.20400095	1.1393859	0.9180686	0.4149369	0.4232964	0.7793041	0.49220437	0.21805376	0.14871682	1.2080989	1.2796167	0.99221826	1.2016084	0.5088019	0.6652152	0.53258276	-0.5251338	-0.40043086	0.056388788	-0.34573552	0.8974543	0.08482026	-0.0087059485	-0.359275	-0.09493384	0.027153242	-0.06625767	-0.14211309	0.119396746	0.109161	0.00028300617	0.9154158	-0.17096652	0.3752261	-0.20566691	-0.17712577	0.48611754	-0.34624964	0.9189201	0.42807764	0.2948543	-0.40589714	0.23825721	0.17553793	-0.090471804	0.03498234	-0.39745995	-0.3739535	0.1714529	0.53870595	0.10999229	-0.0646496	0.85768867	0.21738376	0.53786314	-0.10964267	0.5570657	0.25705227	-0.04944862	-0.45044002	0.6396012	-1.1012266	0.06625776	0.94643116	0.044301916	0.12833077	0.0331978	-0.067613155	-1.0504267	-0.65642065	0.24522224	-0.78892255	-0.023781646	0.20190038	0.10857654	0.09526081	0.03833256	0.1802047	1.1362547	0.118179105	0.01670288	0.104203865	0.3461784	0.47239527	0.69510585	0.60199946	0.65401477	-0.56592613	-0.04128716	0.07276374	0.3765486	0.6941318	-0.098276116	0.24048842	-0.33483967	0.2134317	0.45600158	0.12891439	1.6390493	0.07473116	0.9098559	1.0557091	0.23528613	-0.26728076	0.4658217	0.72006243	-0.36558452	0.1359806	0.6644218	0.1106253	-0.39049134	0.2882485	0.91823995	0.363077	0.37809166	0.37241027	0.02629968	-0.2682401	0.060734462	-0.14830606	0.11558851	-0.55604917	0.062947586	0.56708884	0.3673717	0.04851157	0.092507906	0.5226326	0.64293057	-0.3732999	0.39648867	0.7443275	0.39022014	-0.11937471	0.533074	0.09427893	0.35300344	0.19180675	-0.16459113	0.4040696	0.72190803	0.14198346	0.60028833	0.9744666	0.09675905	0.24021468	0.4721466	0.42535657	0.93652815	0.6598504	0.3300002	0.5936133	0.8137171	0.36035872	0.77710426	0.34244865	0.41404456	0.49859065	0.58603	0.48968005	0.03983728	0.5453033	0.72466767	0.65014064	-0.409959	0.50256324	-0.05291382	-0.67472595	-0.42101473	-0.18277939	-3.4530635	3.1094058	-2.257351	-1.23365	-0.019649604	-0.3165472	-1.600143	-0.36143476	2.4564104	3.0257566	-0.83169186	4.0078416	-0.20935482	-0.29881027	-0.12464302	-0.95172834	0.3154779	1.6906445	2.2456903	3.3957157	0.02301779	-0.4293388	-1.0319984	-0.36868247	-0.8505572	1.9505748	-0.26670125	0.38103235	-0.08850353	0.18996365	0.62051004	-0.50733745	0.39389256	0.19761214	0.015880927	-0.15197083	-0.020463858	0.23763862	-0.49048695	-0.074877076	0.63845056	-1.2261819	0.7389322	0.07314691	0.030389475	0.15071319	0.016751459	0.16362052	-1.2724557	-0.68790185	0.43011135	1.1203209	-0.6742701	0.56021154	0.25772583	0.6007142	0.40940082	0.65051633	0.45313227	0.64346373	0.7346617	0.2853779	0.3128479	0.94856036	0.7664622	0.2870608	0.8765777	0.11403825	0.7283443	0.7526543	0.41176775	1.2866144	0.4078719	0.68494105	0.35651255	0.67124814	0.44528216	0.2530998	0.8071316	0.7127101	1.0196874	1.0083709	1.0725697	0.6439607	0.14988142	0.56851274	0.2836302	-0.16658376	0.34465396	-0.27836397	-0.45127437	-0.3423003	0.07204223	0.28291625	-0.070427276	1.0162034	0.19474922	0.015266529	-0.3237395	-0.31683204	0.38761327	0.06491085	-0.055311672	-0.033699244	0.21815108	0.13089164	0.26033992	0.31056777	0.31090966	-0.22754826	0.5210117	0.53203684	-0.27670842	-0.35890472	0.01725593	-0.10619083	-0.1261127	0.1618451	-1.3647429	-0.26501524	-0.011636861	-0.008919341	0.2218335	-0.041543517	0.079212405	-0.75621456	-0.049855407	0.22877842	-0.06853813	0.019819211	0.01602251	0.39449835	0.002711679	0.7811283	-0.15192658	-0.029307364	0.1376952	-0.059337962	0.8821917	-0.20096388	-0.3288471	0.041225016	-0.120317265	-0.051698852	-0.108784094	-0.13661721	0.4514799	0.42686406	0.5787854	1.2025244	0.5926845	0.17367421	0.6684496	1.0277386	0.52844363	0.17965545	0.10710158	0.18060328	1.2663864	0.3751545	0.23513854	0.18711552	0.5442241	-0.08099208	0.7138053	0.04820749	0.5236377	0.6505572	0.53977823	-0.06983825	-0.36579153	0.6684357	0.70506054	-0.082744345	-0.6452769	0.5757382	0.4594308	0.40356818	-0.25037944	0.5602438	0.9740884	0.66312283	0.46295318	0.6569304	0.5546488	-0.09898239	0.42012393	0.43627104	1.0088326	0.31210107	0.39405504	0.8803163	0.62130463	0.52718115	0.6678081	0.27452096	0.5013728	0.41115057	1.3806386	0.64339256	0.79307747	0.6769712	1.200581	0.12883525	-0.3834755	0.51849705
-0.23501587	-0.12412365	-0.18869646	-0.1868532	-0.11793528	-0.28618696	-0.013020109	-0.16145192	-0.38336822	-0.08528927	-0.16894329	-0.10081274	-0.37691435	-0.29005298	-0.21835537	-0.3080723	0.19656093	-0.3234552	-0.21929163	-0.41375124	-0.17837454	-0.22126898	-0.3471839	-0.19500756	-0.11837861	-0.24278234	-0.24658136	-0.21656123	-0.18481936	-0.32744345	-0.31692106	-0.07771923	-0.19701988	-0.1107118	-0.15845034	-0.26300642	0.048675045	-0.16447157	-0.034625288	0.01299321	-0.11198613	-0.21695669	-0.33086908	-0.53052837	-0.37252805	-0.41195786	0.44123113	-0.2819448	-0.24569303	-0.82777727	-0.17903504	-0.18022265	-0.10750547	-0.27414897	-0.31668022	-0.25381777	-0.22715724	-0.18417361	-0.328036	-0.3297256	-0.46308893	-0.04582089	-0.17791532	-0.14599669	-0.16772921	-0.019210542	0.13366936	-0.10260487	-0.13364816	0.12384668	-0.076878965	-0.1486318	-0.15563108	-0.70266116	-0.47061262	-0.513887	0.61090684	-0.26298133	-0.23519365	-1.2269531	-0.28719333	-0.1704864	-0.2226808	-0.31170166	-0.39054635	-0.16233681	-0.23007973	-0.18861263	-0.22241546	-0.28447342	-0.5929259	-0.02942296	-0.18043908	-0.050162707	-0.1879732	-0.22199993	0.23437332	-0.05728146	-0.15249726	0.27742806	0.015616204	-0.102674946	-0.25470275	-0.81767356	-0.5040756	-0.5220822	0.6982944	-0.11069364	-0.20662458	-1.5546135	-0.096021995	-0.07132317	-0.27433237	-0.33364514	-0.45527157	-0.30006564	-0.19691208	-0.16072108	-0.30945536	-0.076592565	-0.55406743	-0.060080774	-0.08338605	-0.29224312	-0.16909021	-0.14164941	0.3610022	0.03580011	-0.1136163	0.48013178	0.14583026	-0.25133654	-0.059908923	-0.9589758	-0.5296336	-0.36960885	0.721216	-0.20521948	-0.14653324	-1.8945969	-0.34061205	-0.0008454335	-0.26833847	-0.3071214	-0.600924	-0.18002582	-0.036962185	-0.06859549	-0.19932182	-0.13093765	-0.48588258	-0.24399652	-0.002594356	-0.18495658	-0.120178744	-0.15599817	0.52043116	-0.08531114	-0.15936299	0.8371641	0.2629082	-0.035177305	-0.049239594	-1.2275295	-0.49478245	-0.05165069	0.62192893	-0.2537668	-0.1629035	-2.4521904	-0.20061524	-0.04403486	-0.13551785	-0.25588235	-0.8366285	-0.14121385	0.12282074	-0.057663903	-0.22630593	-0.23765464	-0.35358682	-0.63178897	0.13741395	-0.22433384	-0.035024054	-0.13809049	0.8354332	0.046544436	-0.15623249	1.4260477	0.20814094	-0.017639944	-0.06385408	-1.4850838	-0.34628513	0.65505594	0.20153596	-0.2037281	-0.052442275	-3.0639648	-0.20528166	-0.13675949	-0.11065741	-0.144682	-0.9158189	-0.21146147	0.27202463	-0.14130792	-0.15437232	-0.18048202	0.06749443	-1.4218572	0.2763611	-0.07868653	0.42143783	-0.047473613	1.1337612	-0.23459044	-0.22375017	2.238612	-0.22681686	-0.24593063	-0.32559446	-1.7345206	0.21063645	2.3728883	-0.833703	0.026831951	0.25168562	-3.4055576	-0.13037656	-0.16459417	-0.15731224	0.26311487	-0.8177057	-0.08055113	0.29895458	-0.62157845	-0.23756424	-0.06423037	1.1752558	-2.0604699	-0.6958343	-0.252333	2.4288373	-0.05023586	1.1941819	-0.61604357	-0.57523406	2.7109585	-1.2296321	-0.2332634	-0.452597	-1.7452666	1.5308509	5.0078773	-1.9836469	-0.23151952	1.3045082	-2.7069488	-0.1646793	-0.013240268	-0.12967981	1.2642543	-0.39951214	-0.16037342	-0.20328328	-1.7929403	-0.049528833	-0.29466224	1.6125375	-2.1754107	-3.1248727	-0.13228634	3.575773	0.01962649	1.0895995	-0.5357882	-0.33002332	2.2406797	-1.1700557	-0.2711022	-0.2773686	-1.6384935	2.3403404	5.5928698	-1.8978903	-0.05903744	1.6073974	-2.1406615	-0.18454783	-0.05839957	-0.22804789	1.3043174	-0.5648928	-0.21585761	-0.32954922	-2.026083	-0.16344641	-0.19326262	1.6264399	-2.2805488	-4.43863	-0.19479162	3.1783483	-0.022764944	0.94307095	-0.44863552	-0.42477214	1.9787166	-0.9596962	-0.05296027	-0.25693482	-1.4356978	2.5553138	5.585193	-1.8223723	-0.10006749	1.6006579	-1.8941048	-0.080664106	-0.024028286	-0.041612983	0.86829674	-0.6746902	-0.12181701	-0.1930145	-1.8928008	-0.03179979	-0.019860346	1.61798	-2.4121442	-5.887857	-0.13102937	1.9825879	-0.12869205	0.82880723	-0.3774478	-0.1509514	1.8325725	-0.5917329	-0.136289	0.21264565	-1.0507511	2.6981375	5.5707307	-1.8725691	-0.10279859	1.5485147	-1.5068628	0.0058416515	-0.07462152	-0.09309458	0.06649533	-0.7186545	-0.16248271	0.34515852	-1.5356604	-0.015694873	-0.040856224	1.2998995	-2.6832151	-6.973588	0.19918509	-0.7303887	-0.06145702	0.60023916	-0.5881623	-0.011743544	1.665813	-0.30843037	-0.051731452	0.4798304	-0.39882633	2.7296872	5.4505963	-2.1093426	-0.11864578	1.4376949	-0.9807158	0.031422008	0.12271058	0.07693086	-1.1277565	-0.4478003	-0.063069165	0.8015857	-0.94958806	0.012340803	-0.0052546747	0.8731063	-2.2224905	-6.3066206	0.07476865	-4.0498137	0.0036300572	0.5036062	-0.8694251	0.00884569	1.59118	-0.30041453	0.22024974	0.79892534	0.3073935	2.7691913	4.670961	-2.0603676	-0.07532072	1.2261151	-0.48739582	0.032969408	0.1499176	0.15423477	-1.7315195	0.2648203	-0.072459295	0.90590566	-0.104693405	0.0078542605	0.15633315	1.1052569	-1.4841598	-3.4200172	0.103750095	-1.2372475	0.2442062	0.15401407	-0.3229519	0.073165596	0.63717157	-0.031928126	0.20598587	0.5662985	0.2717495	1.8302613	2.9537785	-1.0740033	0.1193625	0.78248817	-0.12868516	0.2200251	0.022615897	0.12359911	-0.44595572	-0.25490612	0.27448657	0.37268272	-0.07600708	-0.0048043956	0.13573003	0.7287632	-0.15235168	-0.8732601	0.24646674	-0.6673326	0.2835825	-0.15648878	0.22575448	0.25044072	0.15579645	0.3230634	0.13584694	0.22531146	0.12708859	0.8985579	0.9454844	-0.017943941	0.236021	0.48934737	-0.18861723	0.33839568	0.11591188	0.17160979	0.33545512	-0.43610096	0.18038593	0.08757574	0.23940758	0.22535756	0.18164441	-0.14369683	-0.21952002	-0.15845448	-0.38237637	-0.06306765	-0.2892183	-0.048233807	-0.2508329	-0.17553544	-0.19419558	-0.21835774	-0.33514833	-0.31251612	-0.1392412	-0.09421313	-0.1975488	-0.004519764	-0.37625393	-0.26342458	-0.077607386	-0.22669624	-0.2890178	-0.2875274	-0.11158311	-0.01178667	-0.17616208	-0.26976538	-0.27018362	-0.36253658	-0.17162016	-0.13813664	-0.20097695	-0.14163035	-0.27157414	-0.05594155	-0.3533371	-0.05364258	-0.24895763	-0.38352373	-0.18380253	-0.20488884	-0.27296558	-0.25244635	-0.13374285	-0.0929093	-0.18700553	0.0013557024	-0.23588894	-0.24655862	-0.08013866	-0.24073365	-0.2743373	-0.22942327	-0.10391683	-0.012366234	-0.34320086	-0.25058413	-0.2552291	-0.29555005	-0.31151515	-0.14002135	-0.20088463	-0.124461554	-0.3816056	-0.04380842	-0.3861956	-0.06427152	-0.26946732	-0.29358843	-0.18661252	-0.2078579	-0.25413612	-0.15817636	-0.14665073	-0.0974625	-0.18838228	0.017821983	-0.27739686	-0.24751666	-0.09370334	-0.21148121	-0.29266152	-0.33153182	-0.09521688	-0.025823915	-0.23730458	-0.25242636	-0.26012972	-0.29927808	-0.28872734	-0.15759963	-0.22712025	-0.1631391	-0.16415401	-0.07617535	-0.21623027	-0.058944687	-0.2603213	-0.1664832	-0.19506994	-0.2265153	-0.35241428	-0.28820822	-0.19525927	-0.14129628	-0.22677828	0.04676383	-0.37788004	-0.27599978	-0.1555236	-0.21963239	-0.3176901	-0.25132737	-0.13675956	-0.06174699	-0.19945885	-0.27969745	-0.27165088	-0.14555892	-0.46275902	-0.17085934	-0.23166986	-0.1730088	-0.36780986	-0.09296051	-0.20415504	-0.058814608	-0.24632046	-0.19824244	-0.18416147	-0.22787613	-0.35570702	-0.30950853	-0.23547128	-0.17695074	-0.25069034	0.08389206	-0.29114228	-0.28593835	-0.22661383	-0.1535058	-0.3275104	-0.12861396	-0.1614524	-0.104940206	-0.19554912	-0.2873687	-0.26307088	-0.34846	-0.17363185	-0.17494737	-0.23749349	-0.15355507	-0.22183979	-0.101607	-0.2453695	-0.10109414	-0.25521818	-0.12885088	-0.19797961	-0.23251235	-0.28893465	-0.18525365	-0.29592904	-0.23318635	-0.26862738	0.14562115	-0.11608796	-0.26314995	-0.32188877	-0.35058373	-0.36371714	-0.15171048	-0.18086033	-0.16520028	-0.2831462	-0.27811196	-0.2630438	-0.220602	-0.31836167	-0.12507947	-0.24415007	-0.124681376	-0.29900396	-0.16061854	-0.273323	-0.1285285	-0.1481761	-0.17783289	-0.10963332	-0.15207674	-0.23253666	-0.1612015	-0.440275	-0.37165993	-0.24245091	0.26828825	-0.33450925	-0.20826258	-0.60730124	-0.30127448	-0.30905	-0.06560657	-0.25127628	-0.39578527	-0.23980452	-0.18714654	-0.12218095	-0.17774364	-0.22937842	-0.051883254	-0.45789704	-0.05162026	-0.044930924	-0.2349553	-0.1815534	-0.18104976	0.019621404	0.026314756	0.06286992	-0.049946666	-0.33134207	-0.013634049	-0.74453586	-0.59068465	-0.122807786	0.37188417	-0.13673489	-0.15560026	-1.2892673	-0.22341813	-0.3857483	-0.1334443	-0.34389347	-0.85667104	-0.22463334	-0.08193799	0.017531816	-0.17604838	-0.2991245	0.53130287	-1.5105114	0.31605548	-0.01338204	0.0049140034	-0.18045135	-0.15835077	0.028553018	-0.2107074	1.1705072	0.082313396	-0.09088434	-0.10112539	-0.99574995	-0.1263874	1.660219	-0.7836001	-0.20496169	0.12633222	-2.6649842	-0.12395843	-0.4862302	-0.058491826	0.005773844	-1.4248842	-0.091415554	0.31845245	-0.07027675	-0.19393735	-0.20160717	1.2935206	-2.2895885	0.13433468	-0.22689463	1.2175052	-0.17900702	-0.13223009	-0.42412165	-0.43331984	2.376405	-0.72952867	-0.12436041	-0.3867526	-0.8595458	0.9919257	3.999224	-2.49528	-0.012874739	0.49099568	-2.988995	-0.14060259	-0.36772856	0.0034538545	0.7616349	-0.9626096	-0.04284243	-0.048671324	-0.9456223	-0.00924231	-0.12727973	1.6280012	-2.3262386	-0.52320606	-0.038762037	2.1824384	-0.07571465	-0.17581186	-0.4865083	-0.44159177	2.6685472	-1.062025	-0.0881287	-0.5183719	-0.72816634	1.5213917	4.704982	-2.9831982	-0.15111865	0.70007205	-2.8900628	-0.1786132	-0.3923845	-0.12177486	1.0988451	-0.699184	-0.035086595	-0.27870047	-1.2660207	-0.20521116	-0.051045712	1.7231697	-2.312868	-1.8531358	-0.1935976	3.1478145	-0.03590289	-0.25887957	-0.5868628	-0.38181725	2.8167717	-1.1772608	-0.12558614	-0.5203668	-0.5255945	1.9492645	5.1150427	-3.2331188	-0.043934613	0.9135964	-2.7302816	-0.14002526	-0.26930788	-0.2553921	1.1912525	-0.4677452	-0.025150605	-0.31098062	-1.3430477	0.0020660623	-0.2334584	1.6382463	-2.4536033	-4.1661325	-0.013399726	2.7376623	0.027218396	-0.54669404	-0.84840864	-0.2118881	2.8548853	-1.0297642	-0.20020726	-0.31869003	-0.029231675	2.1575468	5.11842	-3.546918	-0.048260864	1.0193384	-2.3897746	-0.0054781884	-0.17091478	0.03327237	0.41279167	-0.2599831	-0.019037135	0.14531495	-1.1242731	-0.07750443	-0.007456694	1.1754457	-2.3629067	-5.5134387	0.14266399	-1.0207207	-0.15502886	-0.730621	-1.4009762	0.050331324	3.2119927	-1.1641909	0.09285615	0.39813113	0.85500044	1.8737559	4.745508	-4.1539664	0.09325705	1.2863139	-1.7974087	-0.1404101	0.1704115	-0.017857976	-1.3093082	0.8134631	0.0073273065	0.6401689	-0.3699964	-0.012106062	0.28588495	0.78882974	-1.4754133	-3.4485192	0.19562711	-1.6030858	0.018784624	-0.82450604	-1.0611273	0.194626	2.5346932	-0.63016343	0.16649738	0.52335393	1.145141	1.5021077	3.1613722	-3.2833836	0.11933297	0.91204816	-1.6929091	-0.03258566	0.1353192	0.027590334	-0.88149136	0.8313093	0.2372129	0.32744277	0.3077122	0.012293396	0.32295796	0.5491932	-0.09499814	-1.3794888	0.17523082	-1.7899169	0.19065613	-1.0921797	-0.009485098	0.10331354	0.879478	-0.030360842	0.2711297	0.30580583	0.6768137	1.2190773	0.9894254	-1.1929643	0.1603802	0.5643752	-0.99327356	0.30463392	0.047544803	0.31279942	0.33911136	-0.17689219	0.3349067	-0.068622716	0.70414656	0.17529239	0.20263316	-0.16301192	-0.24386753	-0.15300946	-0.3512864	-0.04825334	-0.31660822	-0.070273906	-0.3281068	-0.17299056	-0.23036937	-0.25425947	-0.3383745	-0.21158923	-0.16561599	-0.103389464	-0.22056061	0.008967259	-0.20578897	-0.2954878	-0.08483077	-0.2848517	-0.34866375	-0.24798076	-0.10722241	-0.014367141	-0.28350377	-0.30476537	-0.32011566	-0.16165449	-0.18986818	-0.1418313	-0.20481859	-0.16203263	-0.36470205	-0.066942215	-0.38364145	-0.07098738	-0.2891549	-0.39067754	-0.19100384	-0.21540312	-0.17142424	-0.36461195	-0.14044671	-0.09047608	-0.18621977	0.004879644	-0.3033737	-0.25075135	-0.07861909	-0.18402448	-0.27332413	-0.14068222	-0.113867916	-0.0245572	-0.18003851	-0.25680044	-0.25608808	-0.39371693	-0.21655828	-0.12091683	-0.22215866	-0.15958147	-0.40275824	-0.07606049	-0.21917394	-0.07725909	-0.25232837	-0.40876243	-0.20698428	-0.26874998	-0.16519526	-0.32169566	-0.1516625	-0.11550145	-0.19449712	0.013528936	-0.28556442	-0.23124664	-0.08130858	-0.1553083	-0.29110688	-0.13758941	-0.12803349	-0.05231224	-0.21063866	-0.26788646	-0.24943833	-0.34877247	-0.35167408	0.011537503	-0.25068286	-0.14107619	-0.2761388	-0.09928146	-0.37091598	-0.060566705	-0.1948676	-0.2714452	-0.2801283	-0.44317576	-0.33478227	-0.23943928	-0.2183878	-0.18729708	-0.18956147	0.08067178	-0.27932364	-0.14817739	-0.08370203	-0.34989005	-0.2093015	-0.1564133	-0.16333649	-0.22353998	-0.39794245	-0.24328402	-0.19174697	-0.1441369	-0.14146286	0.32859564	-0.3258019	-0.13164766	-0.18601453	-0.10548566	-0.14139038	0.01122479	-0.16497897	-0.3598607	-0.59975016	-0.9989702	-0.11549121	-0.25577873	-0.36815596	-0.2362711	-0.27888638	0.21898246	-0.12216619	0.07329457	-0.18987925	-0.2085664	-0.059993282	-0.13691598	-0.207919	-0.8210776	-0.10562122	-0.22214556	-0.032088336	-0.19523084	-0.3362667	0.44073904	-0.32696557	-0.007285643	-0.19049573	0.14107764	-0.17771877	0.3362912	-0.13645235	-0.30248865	-1.0419928	-1.0726839	0.028529948	-0.22660366	-0.19119631	0.22246525	-0.34996757	-0.00047474727	-0.12095456	0.16275813	-0.52206063	-0.0023381964	-0.025369013	-0.24445944	0.058554586	-1.4030191	-0.09848091	-0.083070025	0.11612566	-0.23190856	-0.2137111	0.5483974	-0.28588343	0.12822475	0.029342944	0.17884028	-0.19166875	0.71266395	-0.12033321	-0.313102	-1.3410726	-0.6036387	0.027136743	-0.23909463	0.22315142	0.40889648	0.11726443	-0.6528443	-0.2398867	-0.056867164	-0.7762003	-0.23662068	-0.167965	-0.21008475	0.035200518	-1.8327721	-0.047590494	0.17825654	0.27449444	-0.1619775	-0.2022285	0.65239894	-0.02794213	-0.21929891	-0.15939625	0.38811904	-0.17614734	0.9172818	-0.25301075	-0.042956136	-1.3197057	-0.30949125	-0.12968478	-0.04488136	0.6941816	-0.56545794	0.7997984	-1.3949034	-0.21581599	-0.33098233	-0.836296	-0.16277996	-0.3076558	-0.038918223	-0.3462693	-1.9139967	-0.13909417	0.26632464	0.23902655	-0.1931915	-0.098858446	0.17344885	0.4238938	-1.702916	-0.06588079	1.8910327	-0.14990671	0.709791	-0.57518995	-0.05310135	-1.0724373	-0.36783224	0.07011099	-0.18290149	1.1608196	-3.175622	0.56698817	-1.8294207	0.039915785	-0.51418054	-1.2957739	-0.13572957	-0.2488936	0.027546888	0.95132476	-1.6580062	-0.14800434	0.2538006	0.38795477	-0.09090965	0.032112624	-0.36464754	0.3239031	-1.3441936	-0.2044945	-0.7987267	-0.12232568	0.7761485	-0.65575033	-0.020694394	-0.580725	-0.34182316	-0.17439383	-0.22738639	2.113553	-4.095825	0.7099523	-3.1896338	-0.10247211	-0.75004125	-1.6009052	-0.08009673	-0.25639862	-0.103048824	2.6208189	-0.8697341	-0.0016606789	0.19320922	0.6411083	-0.09807024	0.00732073	-0.08828579	0.65380436	-0.7921676	-0.123280056	-3.0480454	-0.22678225	0.8418492	-0.82172906	0.05653057	-0.17992957	-0.91488194	-0.1501473	-0.37421983	2.2712836	-4.5539494	1.056942	-3.6933246	-0.16504255	-0.5660733	-1.1126674	-0.21477404	-0.08207973	0.019207345	2.7750316	-0.2667238	-0.2657746	-0.06948489	0.43645206	-0.19017759	0.043894824	0.12661056	1.0599577	-0.35779163	-0.10839833	-5.0863476	-0.15176566	0.8447545	-1.3377322	0.28084463	-0.019669598	-1.5157094	-0.24538162	-0.3351101	2.390202	-5.137854	1.0584027	-3.9165907	-0.24767217	-0.2986335	-0.46325636	-0.24831542	0.0734651	-0.2994961	3.143757	0.36205488	-0.09289689	-0.37446344	0.27402347	-0.23102833	0.06906343	0.3574144	1.7113129	0.4218315	-0.24674988	-7.562119	-0.21253024	0.72295606	-1.193945	0.16341634	-0.53648543	-1.88522	-0.29203174	-0.55616724	2.5613463	-5.3792562	0.46801788	-3.4700027	-0.08158571	-0.14259398	0.2856262	-0.24347045	-0.009022377	-0.18651766	3.900397	0.6571487	-0.20654605	-0.9785708	0.27336168	-0.21829459	0.14794594	0.26746446	2.5526106	2.2789185	0.0071217967	-9.866595	-0.2285962	0.55121285	-0.8118253	0.18172377	-1.571977	-1.0558866	-0.2154641	-0.59281564	2.676371	-5.64862	-1.3093232	-2.074308	-0.26611188	-0.7658219	0.29724497	-0.30740875	-0.042349257	0.0014556189	4.9008093	0.026820658	-0.1440061	-1.1332142	0.8039952	-0.10410232	-0.045705415	-0.055346206	2.1707768	4.063253	0.00807663	-9.881451	-0.19383696	0.060244594	-0.21522328	0.3368318	-2.5795672	-0.14710343	-0.2001624	-0.3759786	3.2078946	-5.9377193	-2.544953	-1.6570691	-0.1306981	-1.1922574	0.42069978	-0.03475424	-0.23744167	-0.044402644	5.760805	-0.63497317	-0.20666821	-0.8229065	1.2217692	-0.14972991	-0.022956561	0.03576945	0.8821843	0.87615687	0.055503502	-4.0244117	-0.033158645	-0.6297725	-0.2824244	0.06264117	-3.3129375	-0.4729259	-0.025292967	-0.2402974	4.6026917	-4.4526606	-1.066053	-0.8791845	-0.15067045	-1.155427	1.6543916	0.021201735	0.10181988	-0.21373656	4.539596	-0.9192272	-0.22350007	0.11215065	0.8318847	0.025320377	-0.06975505	-0.2097777	0.047284614	-0.06340495	-0.031905472	-0.2691922	-0.0054947063	1.9741671	0.10032422	0.06850844	-1.4675524	0.095200725	-0.06631587	-0.16913131	0.6532586	-0.7590658	0.8755238	-1.665503	0.010815969	-0.23131558	-1.4155465	-0.24063621	-0.15212807	-0.15566663	-1.0847199	-1.6838983	-0.050697714	0.081108235	0.1306046	0.076901816	-0.0045949672	-0.10843745	0.4474987	-0.993137	0.01770896	0.17232643	-0.17661402	2.4678855	0.122595	-0.05617848	-1.2288561	-0.16309507	0.07225349	-0.05080093	0.5237673	-2.9694245	1.5912553	-1.7518387	-0.09088456	0.22874182	-1.0207747	-0.07970947	0.014150601	-0.05297601	-1.8070846	-1.3216647	-0.14020844	-0.016938265	-0.16053866	0.008379137	-0.042703547	-0.59566367	0.5704405	-1.6346409	0.037199862	0.9935504	-0.05110812	2.7007258	0.0071851374	0.07955291	-1.2836868	-0.33990192	0.0045561963	-0.096593045	0.45474198	-3.8408914	1.6018109	-1.4841523	-0.032290418	0.5872254	-0.8981117	-0.096027374	0.22966197	-0.22066902	-1.4972938	-0.9278518	-0.10037283	-0.16350117	-0.4123652	-0.04985376	-0.03691106	-0.5317894	0.54154515	-2.273373	-0.19698644	2.2884107	0.0107867615	2.5565534	-0.048322856	-0.028902156	-1.3644286	-0.2608776	-0.114534795	-0.038831946	0.59746826	-4.2248173	1.5621084	-1.5873941	-0.041359507	0.5445336	-0.8742318	-0.1799286	0.17930216	-0.1737867	-0.48400423	-0.9738593	-0.1664993	-0.13839625	-0.3976099	-0.114046864	0.093084	-0.53076774	0.29418436	-2.993949	-0.014295778	3.3099067	0.03709436	2.6455452	-0.11523771	-0.107584424	-1.431851	-0.18505856	-0.1827624	-0.16642347	0.5872083	-4.497715	1.468515	-1.7556629	-0.12241241	0.33846653	-0.87773716	-0.06245012	0.020863585	-0.014271514	0.72818166	-1.0491781	-0.24619524	-0.07259965	-0.42467058	-0.0052126157	0.0048991893	-0.5600991	0.10023516	-3.536102	-0.23980673	3.4706213	-0.10219989	2.6536858	0.04156041	-0.07652018	-1.556305	0.0064516314	-0.049621854	0.031607706	0.71127427	-4.5983863	1.2724422	-1.8545941	-0.19976261	0.2271606	-0.8769827	-0.09031086	-0.10974527	-0.23206839	2.1383646	-1.1274822	-0.25925604	0.09756879	-0.32126096	-0.093206964	-0.11686382	-0.5017045	-0.14065969	-3.6736586	-0.04324171	1.4235172	-0.016038505	2.6438644	0.013531917	-0.15857041	-1.7392609	0.1017878	-0.16259643	-0.05895168	0.78648514	-4.62401	1.2178458	-1.9687675	-0.030400887	0.11675409	-0.7016821	-0.19189537	-0.25982666	-0.10282808	3.3483	-1.2304517	-0.2918157	0.24134736	-0.30712304	-0.19266073	-0.13187532	-0.3676677	0.17221598	-2.5878162	0.0013051312	-4.812252	-0.112171054	2.624842	0.041470204	-0.22033936	-1.7324929	-0.060921896	-0.16422118	-0.104273476	0.92827934	-4.780948	1.2021416	-1.8678774	-0.24042103	0.2795336	-0.43883452	-0.27040723	-0.07438284	-0.043180216	3.73849	-1.0326709	-0.29240233	0.11021242	-0.38336062	-0.03445035	0.1210853	-0.3090394	0.8856368	0.3658176	-0.12936209	-11.2601595	-0.06321396	2.8365483	0.044379145	-0.008578832	-1.9075248	-0.2860323	-0.08701985	-0.07656972	0.74287695	-4.5724516	1.7653104	-1.2687371	-0.21564624	0.29061276	-0.0963951	-0.3224177	-0.080985315	-0.004149547	4.2737536	-0.8776855	-0.17083469	-0.52611625	-0.23929761	-0.10385155	0.16791122	0.07987208	0.45886758	1.2909714	-0.031901155	-11.87943	-0.10388099	3.0301206	0.2379156	-0.077124365	-2.0521574	-0.22393768	-0.116142444	-0.27717483	0.9368973	-4.175766	2.386569	-1.9125217	-0.19816612	0.30855712	0.56627	-0.06260038	-0.11020434	0.03486805	4.8152323	-0.8294511	-0.121035606	-0.5344635	-0.4937265	-0.13065255	0.07989435	0.47348973	0.56190115	1.8164713	0.04244652	-11.511794	-0.20531504	3.0044794	0.104225636	-0.14853908	-2.203059	-0.48244485	0.002526111	-0.28419134	1.0044081	-4.164392	2.4344096	-2.063955	-0.04463992	0.4545334	1.0869701	-0.045370627	-0.06321873	-0.13594377	5.194651	-0.6690347	-0.09241082	-0.8191023	-0.83299416	-0.0360439	-0.07442206	0.75306016	1.2163317	2.2575877	-0.12126694	-9.624467	-0.04023275	2.9319654	0.21703193	-0.10322698	-2.6503763	-0.76043475	-0.18447097	-0.53266406	1.0197885	-4.074963	1.8227888	-1.5883547	0.024071109	0.38426396	1.6059418	-0.032000102	-0.0715571	-0.12319229	6.1619573	-0.5677961	-0.11889505	-1.4311663	-0.99899405	-0.18719265	0.06931235	0.6641384	1.8429109	1.9641118	0.026149355	-8.743629	-0.052844647	2.6570957	0.33578667	-0.059928585	-3.5627694	-0.13757785	-0.03753017	-0.5962574	1.1869494	-4.0253773	0.47275773	-0.39511672	-0.056194767	-0.15496725	1.8408647	0.008358976	-0.11138524	0.046215344	6.573703	-1.1108917	-0.054745447	-1.4302098	-0.57367975	-0.002394563	0.09037191	0.58856624	2.0087464	3.8019354	0.004228602	-9.141322	0.025118276	2.5282204	1.0493754	-0.0043165814	-4.3655567	0.8525396	-0.019260535	-0.44519138	1.394998	-4.5978703	-0.91891664	0.46949762	-0.02355436	-0.75977194	1.8209887	-0.0068962066	-0.20426391	-0.1014083	6.8443847	-1.8907394	0.017388638	-1.053268	0.05785662	0.08242381	0.060716644	0.7014403	1.5553153	4.0618443	-0.0773099	-8.298127	0.053464804	2.137345	1.0571963	0.09134206	-4.732878	1.0597212	0.1957306	-0.2962982	1.6942917	-4.939173	-1.2578055	0.41829187	-0.03246241	-0.90483814	2.3696368	0.07531114	-0.267028	0.16748285	7.0001006	-2.2249165	-0.05964693	-0.5090508	0.11829499	0.019436633	0.12632044	0.2682775	0.7212521	0.5671302	-0.02307138	-3.5154626	0.080434754	1.624139	0.44601777	0.21376178	-3.798112	0.08475339	0.29027665	-0.14023034	3.1889958	-4.3866982	-0.06509053	-0.012881932	-0.060419198	-0.81875193	2.9524736	0.18270989	0.21661131	0.010260555	4.958838	-0.8205479	0.043788966	0.47129393	0.02881381	0.20750745	0.016307885	-0.16670567	-0.25786301	-0.16857435	-0.30025077	-0.07391221	-0.28319338	-0.060590606	-0.2930417	-0.39559105	-0.2035547	-0.22319767	-0.2591474	-0.35429436	-0.15492134	-0.110572085	-0.21294473	-0.00858943	-0.2728578	-0.2806021	-0.11499488	-0.18423954	-0.20128502	-0.2643742	-0.12636612	-0.036284983	-0.30595264	-0.31272206	-0.27230844	-0.13909043	-0.19308582	-0.15741196	-0.28062046	-0.18073855	-0.22661251	-0.08546412	-0.17175888	-0.12743263	-0.3077196	-0.17967264	-0.26506105	-0.24339744	-0.19298407	-0.39505312	-0.17366146	-0.12702365	-0.22257657	-0.022290505	-0.3329918	-0.24633285	-0.108048	-0.32051373	-0.26146594	-0.27169597	-0.13939828	-0.07958737	-0.16653755	-0.2894667	-0.2807722	-0.31362653	-0.17875822	-0.1023134	-0.3620396	-0.1419988	-0.39278772	-0.099746004	-0.26900962	-0.26991576	-0.2836339	-0.17137314	-0.40243348	-0.23943283	-0.20359218	-0.25363553	-0.18570477	-0.18127653	-0.20308548	-0.08856852	-0.2970181	-0.1259391	-0.09277813	-0.21713895	-0.26641756	-0.2523618	-0.15371658	-0.2539723	-0.12973225	-0.21963498	-0.22120275	-0.15723857	-0.2506058	0.15069118	-0.62219703	-0.0662427	-0.2543169	-0.17007291	-0.27343926	-0.45992056	-0.17743231	-0.24973069	-0.80703455	-0.3773428	-0.255688	-0.25159007	-0.24268883	-0.26797065	-0.14585507	-0.3158406	-0.29382288	0.13790897	-0.08891404	-0.10147936	-0.16936818	-0.12282373	-0.2119605	-0.8445796	-0.06163828	-0.027939662	0.041300673	-0.14445558	-0.1490922	0.36961025	-0.6754515	0.03471061	-0.25355616	0.057460584	-0.091082685	-0.23201762	-0.17940058	-0.23900531	-1.1389763	-0.64754957	-0.03813475	-0.035446484	-0.19117354	0.084203765	-0.23689187	-0.68832093	-0.19911695	0.34760797	-0.37810615	-0.17946531	-0.08094434	-0.087062046	0.0118094385	-1.3548727	-0.13607176	0.10095055	0.06638704	-0.2256224	-0.045284245	0.5580071	-0.76707506	0.12671511	-0.163888	0.09005854	-0.05484271	-0.038939618	-0.08315604	-0.14106241	-1.3546243	-0.5582374	-0.112512	0.08378157	0.08031895	0.22923177	0.089752965	-1.4604487	-0.21819425	0.34042546	-0.566353	-0.15408881	-0.15471558	-0.089787714	0.00038697635	-1.6960468	-0.059617728	0.21723476	0.045759372	-0.14035352	-0.091596775	0.7871752	-0.4849903	0.008643532	-0.07809678	0.33598885	0.019347189	0.29028168	-0.13302569	-0.15170777	-1.3189818	-0.7090696	-0.0038728453	0.21965466	0.37965196	0.10857292	0.4585862	-2.0616226	-0.06534736	0.18177873	-0.76810104	-0.07471563	-0.29229975	-0.19286117	-0.030169128	-1.8126996	-0.16483332	0.09697876	-0.15634578	-0.017446173	-0.04387723	0.822375	0.15410246	-0.6003975	-0.19478199	1.3408488	-0.007060721	0.582182	-0.23047921	-0.117312536	-1.1389426	-0.8081174	-0.10526447	0.028358588	0.7685601	-0.35541022	0.5419854	-2.4183128	-0.016586011	-0.19790605	-1.086151	0.029825535	-0.20150006	0.03481562	0.48544544	-1.7613143	-0.108737305	-0.20399825	-0.18526639	-0.105160154	0.057540208	0.0043140072	0.3196383	-1.5718753	-0.12603778	1.2598389	-0.17794235	1.0449024	-0.3974835	0.117922425	-0.8367144	-0.0118292915	0.049568046	-0.11011031	1.6400309	-1.3619598	0.80367947	-3.1896398	-0.002504601	-1.1849096	-1.783337	-0.2113534	-0.4238272	0.019765731	1.7942998	-1.4820617	-0.10037333	0.034386314	0.47765043	-0.1616037	0.1880401	-0.05148581	0.18251349	-1.4212914	-0.03524757	-3.3905594	-0.07336756	1.0570724	-0.84629583	0.016818613	-0.094797574	-0.35645777	0.06060144	-0.17967013	2.1715953	-3.3378944	1.9197074	-4.136258	-0.079521686	-0.8986556	-1.2598817	-0.1780984	-0.22824438	-0.10829329	1.4952607	-0.7076359	-0.09378346	0.42291453	0.55816656	-0.0037343684	0.14087002	0.16374707	0.3037838	-0.645159	-0.0038740889	-5.7278714	-0.044761974	0.99363196	-1.0924554	0.14341462	0.1643243	-1.0284096	-0.052835252	-0.10300856	2.3138728	-4.2099495	2.1751516	-4.52194	-0.09081686	-0.5903248	-0.7379368	-0.33442605	-0.14494392	-0.046049844	2.0313444	-0.10674164	-0.27043316	0.15545784	0.3191182	-0.10176098	0.04317966	0.40183178	0.75463337	0.49751234	-0.21954022	-7.8506446	-0.30938396	0.8442693	-1.3275154	0.117886536	0.11262614	-1.681746	-0.15149431	-0.3129151	2.5153956	-4.6770635	2.0413594	-4.583237	-0.16544563	-0.3003495	-0.08799853	-0.26996115	-0.0862506	-0.17114927	3.261406	0.47955397	-0.29285812	-0.4400337	0.10048291	-0.1710123	0.2650609	0.3606102	1.4299269	1.1419725	-0.01837336	-10.006299	-0.21740302	0.6845819	-1.2901419	0.24849087	-0.3128638	-1.8395553	-0.24724641	-0.52876	2.8046796	-5.0219855	0.77807164	-4.09806	-0.2476336	-0.3910628	0.21924229	-0.18693063	-0.009421762	-0.12245454	4.1518183	0.7875071	-0.2233516	-0.98702383	0.16894874	-0.08219364	0.17659363	0.09014193	2.0079262	3.5443103	-0.11525855	-11.449846	-0.20230049	0.53466403	-0.92596155	0.17159456	-1.1245034	-1.0240396	-0.08284637	-0.46408644	2.961107	-5.602775	-0.8325685	-3.0109336	-0.265178	-0.8575268	0.071278825	-0.15262961	-0.072082505	-0.043470543	4.938339	0.284393	-0.079697356	-1.0173924	0.85805523	-0.02731601	0.16639142	-0.0872645	1.3608701	4.594825	-0.0315847	-10.656933	-0.18876626	0.57659507	-0.41669998	0.3460337	-1.4878156	-0.235506	0.06880221	-0.25001964	3.0949087	-5.694328	-1.0582852	-3.1992495	0.0120297	-0.86999667	-0.11031404	-0.13734251	-0.17885448	-0.009771988	5.5951552	-0.1901588	-0.23261848	-0.5307756	0.95416427	-0.19849813	0.014159935	0.0877403	0.68451995	0.7369201	0.021384653	-4.141142	0.10254744	-0.20553415	-0.050863504	0.15387288	-2.874713	-0.37487802	0.056772225	0.0039202813	4.0850406	-4.62224	-0.36975443	-1.6834568	-0.09315022	-0.84731394	1.6096958	0.024168927	0.17055583	-0.082536936	4.5591073	-0.8871447	0.05964634	0.26633158	0.5196305	-0.062278237	0.026414417	-0.2066188	-0.23310718	-0.16820908	-0.2073369	-0.055261713	-0.30175847	-0.050129104	-0.27965206	-0.13962278	-0.18555394	-0.25104117	-0.41674095	-0.3412036	-0.14860918	-0.08052966	-0.19766678	-0.0022846353	-0.22592893	-0.30470017	-0.08621888	-0.23188816	-0.17329352	-0.37501642	-0.10704207	-0.022374239	-0.1921731	-0.29941556	-0.30496442	-0.22329003	-0.3755978	-0.17544234	-0.23971309	-0.12530452	-0.307843	-0.038254105	-0.20005044	-0.06496032	-0.35270607	-0.36011568	-0.18667115	-0.21281132	-0.36694545	-0.17414443	-0.15934277	-0.09246267	-0.18179463	0.007734724	-0.33343163	-0.30429316	-0.11166042	-0.3352873	-0.0984861	-0.18163702	-0.09156931	-0.060399808	-0.3229469	-0.30232355	-0.28738743	-0.22242194	-0.28053305	-0.1718786	-0.23737048	-0.13920102	-0.30853537	-0.05201766	-0.32761037	-0.010767622	-0.40170944	-0.25879171	-0.14780182	-0.16849747	-0.37912172	-0.29668134	-0.18090686	-0.09314305	-0.1731234	0.022798954	-0.34659255	-0.33852804	-0.14337969	-0.28740793	0.013465098	-0.16237052	-0.102563456	-0.07765967	-0.25500613	-0.31053802	-0.2632913	-0.38539457	-0.16210586	-0.17757584	-0.21691579	-0.12588885	-0.14493889	-0.04221959	-0.37382963	-0.06995931	-0.39125842	-0.25705373	-0.18046963	-0.19334999	-0.20518962	-0.21551639	-0.1593371	-0.08515325	-0.1712845	0.028010856	-0.2996771	-0.2832552	-0.10916199	-0.27965993	-0.114574976	-0.32064724	-0.090400666	-0.047563218	-0.2268389	-0.28975955	-0.27723935	-0.3352303	-0.42445087	-0.17975342	-0.23880239	-0.14000921	-0.3413228	-0.04054231	-0.18257086	-0.06467787	-0.34970567	-0.2559226	-0.19399987	-0.23192504	-0.32583797	-0.20617186	-0.16276039	-0.0914658	-0.19361517	0.009954851	-0.38694638	-0.30737218	-0.099003434	-0.2133041	-0.20235288	-0.20790741	-0.09655812	-0.03937014	-0.34765378	-0.30498827	-0.30086535	-0.12852384	-0.35038993	-0.17057443	-0.22112629	-0.14700383	-0.2604688	-0.047268383	-0.3896255	-0.049879305	-0.28689578	-0.2945648	-0.18154754	-0.23292077	-0.38825113	-0.25796515	-0.15013497	-0.08463825	-0.1837953	-0.00028011206	-0.12145174	-0.29644242	-0.08319799	-0.2526687	-0.19703832	-0.30737105	-0.09926253	-0.031079417	-0.3149229	-0.27516773	-0.2854912	-0.35279202	-0.1548001	-0.16995409	-0.20027183	-0.1363385	-0.4242975	-0.037814245	-0.30314133	-0.054004952	-0.24460687	-0.2962726	-0.17763937	-0.25106162	-0.41322264	-0.19697544	-0.1460727	-0.07863167	-0.17300981	0.0004644236	-0.30449435	-0.28123307	-0.06450746	-0.32750955	-0.21890311	-0.20327127	-0.09067656	-0.019759929	-0.29780462	-0.2447122	-0.28759962	-0.15793979	-0.23116255	-0.16640253	-0.17011045	-0.15084454	-0.33583635	-0.049817305	-0.30877653	-0.068730414	-0.19150645	-0.4342308	-0.16439883	-0.25495023	-0.28244883	-0.29833105	-0.13003747	-0.068675205	-0.1593545	-0.009724415	-0.18853736	-0.24885724	-0.04918362	-0.3887226	-0.22952394	-0.24156561	-0.097591706	-0.0046683257	-0.2027876	-0.2034053	-0.26636168	-0.19286019	-0.4280707	-0.17522469	-0.18613148	-0.144319	-0.4016979	-0.04477979	-0.36297464	-0.058673993	-0.15141368	-0.4606963	-0.16043487	-0.27017507	-0.37734127	-0.23510812	-0.1178568	-0.070670485	-0.16512804	-0.01987646	-0.23255819	-0.2563838	-0.0431548	-0.17382868	-0.24849075	-0.16639422	-0.09480276	-0.002218463	-0.3589698	-0.22516848	-0.26990944	-0.3006106	-0.20256327	-0.19292438	-0.20450318	-0.16431314	-0.40558022	-0.052434806	-0.23563762	-0.09262874	-0.20958637	-0.43994164	-0.19503573	-0.30401704	-0.22068758	-0.27209017	-0.14144556	-0.082930215	-0.19206542	-0.01301312	-0.3687551	-0.2708554	-0.05608662	-0.335873	-0.32629994	-0.16862062	-0.10911447	0.008132216	-0.13689467	-0.25109294	-0.30974263	-0.13344096	-0.2635479	-0.16833897	-0.17798035	-0.15281267	-0.18081307	-0.051133268	-0.1888221	-0.08636942	-0.19890973	-0.34858558	-0.17976417	-0.27120656	-0.21694618	-0.2882888	-0.13074505	-0.07139852	-0.165762	-0.009321081	-0.3913567	-0.24677052	-0.046270292	-0.40534052	-0.27637744	-0.1836617	-0.09961193	0.0001718071	-0.25803652	-0.213252	-0.2785209	-0.36953652	-0.37799984	-0.1667581	-0.18347	-0.16747741	-0.26338592	-0.06643918	-0.15985714	-0.061594043	-0.14464281	-0.4185652	-0.15616316	-0.25480556	-0.3110252	-0.38200483	-0.11333736	-0.07351685	-0.1617553	-0.023729855	-0.27018356	-0.24385391	-0.045488115	-0.18682507	-0.23264474	-0.40029997	-0.11085458	-0.0043521435	-0.21630204	-0.21823545	-0.25140578	-0.33828032	-0.38833323	-0.18026163	-0.21006663	-0.1527507	-0.19343257	-0.044295	-0.36161196	-0.070979856	-0.22144525	-0.27742285	-0.19031285	-0.27989987	-0.41492942	-0.24062577	-0.13962035	-0.08010987	-0.18113542	-0.007910876	-0.28356925	-0.2821333	-0.049447566	-0.18754119	-0.29237503	-0.27934203	-0.098496035	-0.011584196	-0.23227966	-0.25378087	-0.30077258	-0.19873548	-0.37941706	-0.17218779	-0.19109291	-0.1591375	-0.31858566	-0.052750155	-0.2722954	-0.071487784	-0.18742236	-0.34193838	-0.17351116	-0.2616326	-0.32950234	-0.31817046	-0.120987706	-0.071077675	-0.16837758	-0.01487758	-0.35767922	-0.254221	-0.043577373	-0.14040443	-0.2782314	-0.21746555	-0.10073121	-0.0050094514	-0.2520466	-0.23101513	-0.27178794	-0.34312746	-0.35482216	-0.17825648	-0.19660333	-0.14754997	-0.32978058	-0.038246524	-0.2625338	-0.07504333	-0.21788831	-0.33370757	-0.19284225	-0.27996174	-0.35789168	-0.21176341	-0.13740481	-0.07562996	-0.1828094	-0.0068318686	-0.31673828	-0.26823178	-0.04648603	-0.26436275	-0.32064575	-0.14071128	-0.09340683	0.0028094533	-0.24833797	-0.23919454	-0.30120805	-0.15488546	-0.42711037	-0.2030629	-0.19919536	-0.18043813	-0.25621152	-0.050763898	-0.36658022	-0.07476834	-0.15664281	-0.27815717	-0.18108954	-0.31691593	-0.2619926	-0.33978727	-0.13527673	-0.06524403	-0.19861636	-0.029905487	-0.19628933	-0.27857476	-0.04460648	-0.19554573	-0.3558759	-0.30078575	-0.10675468	0.020074533	-0.172736	-0.24276981	-0.30790168	-0.34396833	-0.28647417	-0.10812003	-0.30740502	-0.17359607	-0.31948093	-0.10191108	-0.2270531	-0.44795766	-0.29725856	-0.29526222	-0.38094378	-0.025733523	-0.2301923	-0.3188997	-0.16558528	-0.15760008	-0.21384063	-0.25771064	-0.2126902	-0.041603092	-0.111703105	-0.2408788	-0.26084563	-0.14942676	-0.14554405	-0.23593906	-0.24100699	-0.15435392	-0.31817737	-0.30189553	-0.20932576	-0.0019563627	-0.46057835	-0.1518016	-0.022830948	-0.16278595	-0.029622527	-1.2724961	-0.31070825	-0.22408219	-0.6818212	0.24644972	-0.22118193	-0.19800234	-0.24891359	-0.24248222	-0.22354704	-0.96892315	-0.2575274	0.40324283	-0.11903604	-0.20366813	-0.21125571	-0.20335123	-0.18009958	-0.58496946	-0.15227468	-0.01837147	-0.48193333	-0.17902543	-0.26710796	-0.06125962	-0.6784289	0.015937366	-0.012258148	-0.20402431	-0.17198123	-2.0720994	-0.042024508	-0.06217802	-0.85257566	0.3769819	-0.28774476	-0.15129998	-0.6168432	-0.38485277	-0.23072168	-2.1124644	0.0024877032	0.70812297	-0.08977924	0.091833584	-0.14671005	-0.22055188	-0.18238075	-0.82876754	0.047477655	0.090408735	-0.32121602	-0.12529863	-0.10319474	-0.5215935	-0.70830804	0.44670135	-0.118955724	-0.05717919	-0.08514494	-2.5289369	0.08582372	-0.09486865	-0.85390794	0.26286072	-0.20814146	-0.029146448	-1.051926	-0.3444202	-0.029574307	-2.9619493	0.061640978	0.7173009	0.010827479	0.09285712	0.034501236	-0.1877142	0.03650884	-0.6694221	0.0029341397	0.02132266	0.21422249	-0.055211388	0.06727516	-0.756568	-0.48481008	0.7620991	-0.12947968	0.18173742	-0.04135946	-2.8068955	0.1220956	-0.075867735	-0.81154054	-0.07348477	-0.11003388	-0.11255638	-1.4046215	-0.15606342	0.3090631	-3.4379332	0.0499287	0.63544375	0.25630814	0.017937558	0.12348512	-0.02947827	0.2927606	-0.43945825	0.05372899	-0.26771262	0.67340636	-0.11980836	0.02733251	-1.0211957	-0.24523063	0.9348068	0.10210792	0.6243342	0.07254279	-2.9838252	0.08554176	-0.009339843	-0.79881054	-0.50627476	0.037993804	-0.034892526	-1.7065059	0.20358856	0.74041545	-3.7411304	-0.13780841	0.44319934	0.5816788	-0.021368362	0.031218322	-0.11346593	0.64682156	-0.1332974	-0.028704803	-0.65804094	1.1266322	-0.15803838	0.104659475	-0.96141976	0.21321365	0.5778289	-0.07997326	1.2201413	-0.07010053	-3.0819159	0.10583171	-0.016753599	-0.84571886	-0.75301826	-0.15044276	-0.29463768	-1.8081775	0.7548572	1.2492942	-3.869788	-0.073602386	0.3158267	1.1766461	-0.028569672	0.18486151	-0.09772366	0.9627233	0.09558441	-0.09369581	-0.99176186	1.5458956	-0.14133497	0.03527404	-0.8253095	0.5085332	-0.8603709	0.008266316	1.7000253	-0.019738603	-3.2447114	0.049476977	0.113874875	-1.3053907	-0.78996354	0.022873133	-0.20193686	-1.8033631	1.2525535	1.247684	-3.7826219	-0.085053764	0.0042886576	1.9120502	-0.14728345	-0.07621599	0.05532767	0.8853602	0.1264496	-0.04716476	-1.196697	1.8847458	0.070406854	-0.01419783	-0.4011578	0.74584967	-3.708805	0.14689362	-2.1494448	0.010030002	-3.2728472	0.39562574	0.38594368	-1.8683487	0.18967545	-0.041748475	1.0233195	-1.565973	0.20682094	0.008275082	-3.359717	-0.0018222525	-0.35096756	2.6463397	-0.11199847	-0.051443703	0.14451902	-2.0325756	-0.3900364	0.00781761	-0.2270362	2.9313326	0.13257296	0.38770998	-0.44142282	0.7867606	-4.301149	0.29563513	-5.733479	0.062947914	-3.520665	0.22297601	0.41852832	-2.306813	0.8617433	0.08287416	1.4912587	-1.0998565	-0.22258294	-0.41470173	-3.0978322	0.075343005	-0.5816561	3.3928964	0.098561	-0.08751665	0.04699934	-3.73646	-0.585672	0.20016465	0.58652943	3.7407813	0.18937863	0.3912449	-0.5477383	0.7014919	-4.150943	0.40001377	-6.3891664	0.08104577	-3.5781367	0.27761504	0.400204	-2.6245255	1.0919955	0.2506939	1.6335852	-0.9781092	-0.099088065	-0.61922634	-2.9098153	0.17176192	-0.79829395	3.530851	0.05941625	-0.02046638	0.049775865	-3.7884402	-0.7280538	0.11603302	0.61332	3.926777	0.14871216	0.3757718	-0.6225014	0.71403724	-3.862999	0.31778836	-6.764663	0.036858298	-3.6836638	0.3359681	0.45575953	-3.0295858	1.2747785	0.237884	1.787898	-0.8919481	0.11281865	-0.7479917	-2.572682	0.09874946	-0.9779631	3.761503	0.18071233	-0.27032635	-0.009458546	-3.625545	-0.92494476	0.28337932	0.65321344	4.1078057	0.25850898	0.3310948	-0.70740324	0.6985368	-3.4988248	0.34084764	-6.9454794	0.067411594	-3.7380373	0.415606	0.5133452	-3.3903804	1.5407017	0.05520235	1.6410975	-0.7440759	0.53221846	-0.7509499	-2.317456	0.0751989	-1.1381766	3.960724	0.052014112	-0.23471937	0.14871445	-3.2358067	-1.0993714	0.17092903	0.7014621	4.31324	0.13306513	0.2659081	-0.8247759	0.7243654	-3.0716615	0.20948733	-7.0624123	0.13564968	-3.8677607	0.5260599	0.41603664	-3.7189906	1.5417225	0.2217092	1.7547866	-0.6519119	1.0047007	-0.74028206	-1.9881064	-0.006062452	-1.2157589	4.1303716	0.06728119	-0.38068503	0.07331576	-2.767395	-1.2135062	0.14196481	0.62453544	4.3009105	0.22282448	0.19045298	-0.7621792	0.48919553	-2.159713	0.12722835	-6.758065	0.05581578	-3.9078257	0.39192155	0.29223013	-3.8848667	1.4446379	0.2095975	1.1934987	-0.37310258	2.646289	-0.21883729	-2.0946019	-0.08991341	-1.2451009	4.1929297	-0.0731403	-0.26213238	0.12795952	-1.1718986	-1.2515782	0.061461512	0.42797744	3.99128	0.068942256	0.15684128	0.48921022	0.3780723	-2.5182137	-0.08924363	-4.275904	-0.09494376	-3.166598	0.018504392	0.22787985	-2.8795528	-0.15383866	-0.12958996	0.5756747	-0.56537837	2.8148975	-0.78915304	-2.406221	0.027690116	-0.37061864	3.7043743	0.10487565	0.08755829	0.018806346	0.99599135	-0.11493727	0.009975934	-0.25698888	2.54332	0.117683426	-0.022036804	-0.34941146	-0.34246832	-0.14917512	-0.1862481	-0.052732658	-0.36665058	-0.14476842	-0.20755671	-0.22999553	-0.18736643	-0.30423072	-0.10655762	-0.14407632	-0.19297257	-0.104700744	-0.2381236	-0.08502993	-0.34195074	-0.37969038	-0.1913032	-0.26589015	-0.034943175	-0.13541685	-0.11783384	-0.04345895	-0.332086	-0.38297555	-0.35712472	-0.20326412	-0.33992693	-0.34935018	-0.3692062	-0.14579839	-0.26974833	-0.053090427	-0.18909979	-0.16274306	-0.14980984	-0.29595444	-0.20038871	-0.25686997	-0.35113388	-0.12653893	-0.19646356	-0.11562656	-0.24010362	-0.15520032	-0.3691582	-0.35863012	-0.19313669	-0.3006867	0.029098023	-0.13431066	-0.117278025	-0.07465396	-0.20263377	-0.3476482	-0.3486022	-0.2840674	-0.2091435	-0.38387388	-0.41056147	-0.16609019	-0.2521594	-0.05186977	-0.15980037	-0.24273334	-0.24429664	-0.23767321	-0.24352011	-0.22770247	-0.28064162	-0.18595384	-0.23563175	-0.12165328	-0.26584804	-0.214865	-0.117259406	-0.36259785	-0.21019706	-0.20471774	0.0006835368	-0.17568086	-0.12066688	-0.11667537	-0.31011784	-0.3477935	-0.38382694	-0.22639745	-0.23884226	-0.3793194	-0.4193727	-0.17301112	-0.29353595	-0.067948006	-0.20906131	-0.30526805	-0.14943306	-0.246007	-0.2555604	-0.15750799	-0.26007542	-0.26685593	-0.24258432	-0.13096331	-0.270488	-0.3325375	-0.26862007	-0.28324774	-0.21186015	-0.35840362	0.033854097	-0.16798517	-0.12816493	-0.13754898	-0.15705276	-0.26906908	-0.34821638	-0.19079186	-0.12182937	-0.40692982	-0.4611475	-0.17171611	-0.34061652	-0.05629615	-0.14549069	-0.44451636	-0.20333841	-0.16267328	-0.29743814	-0.07316273	-0.11149077	-0.26054952	-0.28095052	-0.12510945	-0.28847936	-0.50022125	-0.12753108	-0.22122703	-0.21828297	-0.18386191	0.016790057	-0.29917634	-0.11382332	-0.19039781	-0.3584388	-0.22066411	-0.36907622	-0.12195582	-0.21462858	-0.40903738	-0.5192073	-0.15788159	-0.3017722	-0.052647877	-0.19890134	-0.61588913	-0.21749008	-0.08804363	-0.36725798	0.05528534	-0.3058496	-0.224487	-0.34579656	-0.13296673	-0.29802582	-0.779305	-0.18729992	-0.12905373	-0.1935936	-0.19735983	0.05766309	-0.057986826	-0.1007117	-0.27736998	-0.08621092	-0.12731306	-0.3951083	-0.32164207	-0.1901834	-0.3487019	-0.54453886	-0.14143151	-0.2037704	-0.095789485	-0.18346375	-0.9004542	-0.17278105	-0.16027842	-0.40360707	0.14197639	-0.12478015	-0.2831539	-0.42412975	-0.11770088	-0.26376167	-1.2880487	-0.18192911	0.07349059	-0.08820506	-0.07560858	0.06355692	-0.2749815	-0.10442991	-0.31452	-0.23981494	-0.044467535	-0.45462322	-0.035722673	-0.2505856	-0.10985105	-0.23836142	-0.04612451	-0.21174696	-0.11026691	-0.26674902	-1.3269327	-0.27414584	-0.18133962	-0.47651094	-0.034414906	-0.2315908	-0.07427622	-0.5710526	-0.026128057	-0.17272183	-1.8563248	-0.06694697	0.33011785	0.2950002	-0.17374812	0.12009487	-0.13364564	-0.061114766	-0.23430564	-0.13002968	-0.22551748	-0.71127003	-0.09809795	-0.2462272	0.09831743	1.0154958	-0.45378748	-0.21945181	0.22036648	-0.1799882	-2.01429	-0.31427792	-0.22726932	-0.8999586	-0.45038733	0.04036543	-0.13393122	-0.7260918	0.31996045	-0.60541505	-1.7098653	-0.020375324	0.43265003	0.9490668	-0.251822	0.18637179	-0.19094206	0.07168152	-0.07191766	0.014579575	-1.0599177	-0.86569804	-0.20257278	-0.038325693	0.026891906	1.9661739	-1.6369332	0.00034109942	0.3438621	-0.014857328	-2.2228675	0.08324694	-0.07499403	-1.4712111	-0.07509927	-0.11616037	0.11494741	-0.60537726	0.6987136	-1.593174	-1.0025072	-0.25622126	0.18117732	1.0374092	-0.023466248	0.10710834	-0.22451091	-0.09779799	-0.28682107	-0.017283814	-1.4973184	-0.7588477	-0.16211344	-0.03991737	0.07403435	2.3637247	-2.1217961	0.06919202	0.09627563	-0.11217341	-2.1412578	0.3529607	-0.016788334	-1.508049	0.13481909	0.00772602	0.22468594	-0.6804577	0.74592113	-1.979093	-0.5814227	-0.21146706	0.015400277	0.8589517	-0.18746829	0.09953006	-0.14533257	-0.3526374	-0.50096154	-0.13761139	-1.4695957	-0.70037055	-0.15784161	0.010510343	-0.012147531	2.777188	-2.6837106	-0.11763571	-0.11031594	-0.19107912	-2.338759	0.53502876	0.015935652	-1.5681235	0.6314026	-0.007950736	0.35693607	-0.6480009	0.8072493	-2.4339883	-0.2346644	-0.14488433	0.069691785	0.5146293	-0.1037637	0.16403724	-0.18155448	-0.5522547	-0.8770709	-0.011660963	-1.2662293	-0.776262	0.082427	-0.119571	0.07958871	2.8694677	-3.2054179	-0.06795042	-0.6335291	0.014583153	-2.8223848	0.51630116	-0.06553775	-1.8129846	1.0030537	0.16214357	0.40323064	-0.53793526	0.92275506	-2.715271	-0.1414473	-0.12838139	0.4428155	0.18287347	0.09487448	0.17552459	0.059992045	-0.7950558	-1.2840587	0.106194735	-1.232366	-1.2793517	-0.07412417	0.13167955	0.6516975	3.057827	-3.5708232	-0.100180835	-1.2153579	0.03141992	-3.1338458	0.54187846	0.1261258	-1.7894222	0.7956317	-0.048480436	0.3409523	-0.5214076	1.109614	-2.5355823	-0.18158911	-0.058598876	0.62949485	0.4563261	-0.076380014	0.1988955	-0.05265699	-0.7135668	-1.4863379	0.014244426	-1.0322394	-1.2863959	0.078348964	0.08388567	0.82327545	3.1803918	-3.7895956	-0.0025960202	-2.8584826	-0.14699526	-2.7629473	0.10046233	0.08003446	-1.7995952	0.5229429	0.03707728	0.38945305	-0.3014083	2.1504872	-2.4493306	-0.30583882	-0.15919562	0.065302566	1.327733	0.053283304	0.03321883	-0.03878993	-0.5138882	-1.0432442	-0.013728816	-0.9538812	-1.2170908	-0.0006986457	0.12536013	0.26976866	1.3416642	-2.4665437	-0.15506013	-3.5726829	-0.34191033	-2.1856244	-0.20502345	-0.0040093465	-1.8572947	-0.07487675	-0.35933626	0.11582571	0.2965224	2.4425082	-1.2001816	-0.9001863	-0.20395228	-0.4153576	2.2778418	-0.05995863	-0.20105894	-0.1830084	1.1320575	0.018837964	-0.14897288	-0.9742219	0.19963872	-0.094710104	-0.095126316	-0.5737553	-0.12704307	-0.19761866	-0.24602918	0.005875914	-0.27699897	-0.21738358	0.38877487	-0.13251045	-0.07764761	-0.7223266	-0.3636357	-0.13198157	-0.14770459	0.05015768	-0.12512773	-0.107266285	-0.21152066	-0.44123858	0.025226144	-0.49784368	-0.3093974	-0.1976239	-0.07770495	0.14468633	-0.31302178	-0.12058714	-0.50739956	-0.22112717	-0.4219135	-0.42051187	-0.1796761	-0.16082829	-0.21197505	-0.016374148	-0.37883765	-0.17828791	0.057384808	-0.2877697	-0.13083701	-0.51882696	-0.39097425	-0.08113122	-0.15253833	-0.024610076	-0.14520165	-0.040625293	-0.3474158	-0.39605144	0.005806232	-0.3405963	-0.36575347	-0.2062623	-0.087217025	0.023988033	-0.15295877	-0.20143136	-0.43709353	-0.2657083	-0.16481939	-0.38192362	-0.18034151	-0.17080246	-0.3432283	-0.054371424	-0.2642509	-0.17316929	-0.032289192	-0.32785508	-0.093558185	-0.4155678	-0.1716875	-0.2572678	-0.16117512	-0.04713973	-0.12164403	-0.020553488	-0.41004404	-0.39345127	-0.0124437865	-0.23761596	-0.31588763	-0.3230558	-0.11233107	-0.063116975	-0.19762701	-0.20031156	-0.36758676	-0.11745302	-0.22900796	-0.43293443	-0.16052759	-0.16430283	-0.39823255	-0.06993066	-0.13672225	-0.19161348	-0.16086912	-0.37331313	-0.032297	-0.3624231	-0.14498551	-0.29957795	-0.19658479	-0.057464883	-0.06989616	0.03287574	-0.20819123	-0.45716417	0.019898815	-0.25952432	-0.3240668	-0.124032155	-0.1213742	-0.19937518	-0.26610544	-0.17978628	-0.3725294	-0.13482264	-0.3673573	-0.5255157	-0.093982875	-0.10535853	-0.10376584	-0.05022647	-0.10725696	-0.17111088	-0.31849384	-0.17053618	0.12326218	-0.3005089	-0.2790368	-0.11397216	-0.2605431	-0.050628744	0.043006327	0.12057895	-0.2509407	-0.56643814	0.10320404	-0.3502752	-0.3316239	-0.32846707	-0.09539839	-0.4288496	-0.30881378	-0.10306791	-0.39367786	-0.32507852	-0.3225461	-0.78910977	-0.0012243249	-0.1151852	-0.29661494	-0.08467168	-0.22044387	-0.05137316	-0.41262832	-0.2984101	0.50666034	-0.17778096	-0.18705995	-0.30589917	-0.35107434	-0.04265994	0.16975105	0.18864821	-0.15995072	-0.7632762	0.18675044	-0.14538755	-0.29808122	-0.35103732	-0.11565973	-0.78565234	-0.12890482	-0.015753156	-0.3860456	-0.20430668	-0.2964847	-1.1298841	0.11230648	-0.07838279	-0.3529637	-0.13993369	-0.1295959	0.16551846	-0.52446884	-0.2765287	1.2394191	-0.019874718	-0.14238074	-0.27525368	-0.44102943	-0.12278098	0.4119291	0.24875252	-0.16735822	-0.9297117	0.4669863	-0.16405839	-0.30886868	-0.36426067	-0.15153225	-1.4874322	-0.3291776	0.09499734	-0.3671649	-0.12502785	-0.2500166	-1.4076273	0.017725	-0.17891273	-0.34600243	-0.16148768	-0.2418588	0.9548303	-0.24997064	-0.2793875	2.7126105	-0.034999423	-0.20877127	-0.13245349	-0.5325331	-0.41463783	0.42228395	-0.14852689	-0.23244824	-0.8140016	0.7898846	-0.26600936	-0.39230746	-0.09998122	-0.23043615	-2.4491353	-0.20159292	-0.075680315	-0.42307445	-0.33835614	-0.19581851	-0.88980734	-0.7036037	-0.70679355	-0.18560627	0.42500925	-0.203854	3.2835615	0.7724782	-0.6219745	5.272959	-0.50157106	-0.296982	-0.11676248	-0.28393605	-0.23618482	-0.3952417	-2.3782902	-0.16633815	0.5111811	1.019886	-0.40082803	-0.61334294	-0.31821656	0.15087637	-2.8964446	-0.40129673	-1.3897259	-0.94039613	-0.3060677	-0.20691933	0.2193535	-0.8509866	-2.237615	-0.20137946	1.8665726	-0.042034835	5.625342	0.75349855	-0.511879	6.557887	-0.91905093	-0.33312047	-0.26629728	-0.3176516	0.5007144	-1.8815455	-3.8200426	-0.05167141	2.1145575	0.9242941	-0.5342708	-0.62306035	-0.28516757	0.14311849	-2.5917914	-0.27247986	-2.9396544	-1.5536972	-0.109582454	-0.13282138	0.6560951	-0.7925078	-3.4303327	-0.008237126	2.568737	-0.2237115	6.5555663	0.6904743	-0.4231294	6.584699	-0.64574206	-0.08898952	-0.26680565	-0.62092686	1.1290684	-2.7334707	-4.1858883	-0.100568615	2.501971	0.5128889	-0.51399755	-0.4334186	-0.13144088	-0.3264548	-2.421629	-0.22031902	-3.0023715	-1.5336541	0.0055955597	-0.1525529	0.8995712	-0.90634626	-4.2907815	-0.14089084	3.018395	-0.07493855	6.789266	0.6663938	-0.34060004	6.2431226	-0.33523828	-0.103989646	-0.00016245092	-0.6590451	2.444844	-2.6351085	-4.6241612	-0.014487802	2.6987982	0.42258394	-0.42661327	-0.10598814	-0.05046606	-1.0604546	-2.426674	-0.11205571	-2.843436	-1.5348477	-0.15490012	-0.028274976	0.616584	-0.6880245	-5.153667	-0.12617594	3.687393	0.048072554	5.106838	0.21437374	-0.17573738	5.3386936	-0.07938595	-0.019267987	0.093866214	0.10893462	3.261826	-1.4266065	-4.2370043	0.11308059	2.5265777	0.35894772	-0.3768915	-0.012541371	0.11035279	-1.9142627	-2.3742273	-0.055130087	-2.5684288	-1.0016986	-0.14984307	0.08326506	-0.55811703	-0.720389	-4.9328036	0.14650871	2.6763022	-0.053302385	1.6370628	0.06261946	-0.08966765	4.433088	-0.2361524	0.113574654	0.18551569	1.7781453	2.758004	-0.18054543	-3.9750173	0.13115594	2.1574776	-0.32143784	-0.14594088	0.41604042	-0.0415593	-1.6208333	-1.6443831	-0.024307774	-2.0951264	-0.4558517	-0.111419275	0.22470173	-1.1050045	-0.25332886	-3.6603003	0.23708053	0.6088104	-0.025506169	-0.88532513	-0.26624665	0.08113897	4.1579742	-0.30645907	-0.014940898	0.35434788	2.793265	2.1856291	0.4420203	-3.8154361	0.15121606	1.6089213	-0.8333612	-0.15134412	0.24728394	0.057325155	-0.92205274	-1.5144902	0.09207293	-1.7539521	0.03167908	-0.052881528	0.34014437	-0.95753866	0.12984228	-2.0571775	0.26455364	-1.0520897	0.27078077	-1.2532023	-0.011568817	0.0655008	3.7491717	-0.104655266	0.03663664	0.22360887	1.247424	1.2662123	0.13565452	-1.8671571	0.08183584	0.89197356	-0.23189719	0.11307403	-0.07566387	0.0674837	0.0556536	-3.570263	0.1488562	-2.0508187	0.7338711	0.08741703	0.3328084	-0.1554301	-0.22518373	-0.17787202	-0.14562048	-0.074201055	-0.27337182	-0.060553458	-0.28831664	-0.23139082	-0.20016049	-0.22203161	-0.295672	-0.39367992	-0.15982118	-0.10503388	-0.20743255	0.009181613	-0.31382057	-0.2779929	-0.09738962	-0.20264405	-0.30513525	-0.3340658	-0.12602434	-0.026432522	-0.40349743	-0.27819175	-0.2785187	-0.16386266	-0.17606205	-0.14099704	-0.2032382	-0.15824871	-0.3197287	-0.067093514	-0.21896903	-0.04867529	-0.27362505	-0.16345923	-0.19058989	-0.20121656	-0.36388955	-0.3243473	-0.16554008	-0.10940812	-0.19835012	0.028653253	-0.318715	-0.2613167	-0.10906443	-0.32194138	-0.27046326	-0.27194992	-0.11814579	-0.036808297	-0.24321659	-0.25114366	-0.26279312	-0.17376	-0.36115336	-0.1532859	-0.2233249	-0.16200647	-0.18419266	-0.0761052	-0.32788137	-0.04467434	-0.24465595	-0.4467767	-0.18367311	-0.21513383	-0.38950592	-0.29999214	-0.17464271	-0.13167371	-0.21593787	0.028001599	-0.1771109	-0.2772926	-0.13678534	-0.1575799	-0.28655985	-0.28822893	-0.13362262	-0.05147657	-0.29426497	-0.27447724	-0.26153564	-0.17799428	-0.2063276	-0.16717303	-0.1978746	-0.15532422	-0.19955996	-0.062250692	-0.16852765	-0.055180077	-0.29132935	-0.22623459	-0.18241788	-0.21528259	-0.25311548	-0.24857295	-0.19755001	-0.12792023	-0.22947995	0.06261586	-0.37656954	-0.27184638	-0.16827813	-0.28223664	-0.30499306	-0.23422019	-0.124382794	-0.048990868	-0.28910622	-0.27005482	-0.27942893	-0.1764463	-0.42785054	-0.16463514	-0.24189602	-0.14168005	-0.2587773	-0.062670834	-0.25241086	-0.067623645	-0.27934384	-0.2869971	-0.19655184	-0.23640111	-0.35398138	-0.12461004	-0.22358048	-0.16059653	-0.24014127	0.0648425	-0.35710958	-0.29045647	-0.20149927	-0.20182872	-0.35419384	-0.112707235	-0.1338914	-0.088676535	-0.2983245	-0.2930434	-0.29266447	-0.20507719	-0.25761145	-0.15060422	-0.25312668	-0.17510593	-0.22558469	-0.11760052	-0.25709915	-0.04379073	-0.17883617	-0.14935309	-0.15011947	-0.22526887	-0.3632814	-0.2931405	-0.30438995	-0.23551778	-0.2628794	0.11392178	-0.07474212	-0.2905407	-0.34606817	-0.274764	-0.3525869	-0.32960707	-0.19703765	-0.17310095	-0.22858629	-0.27195683	-0.23778805	-0.073504455	-0.35668993	-0.18004562	-0.2628054	-0.15772428	-0.09955885	-0.13578129	-0.14751267	-0.046187416	-0.16449328	-0.07098025	-0.068958946	-0.21061322	-0.19124436	-0.12152193	-0.47233444	-0.34783566	-0.31025097	0.24702564	-0.35857877	-0.2973194	-0.65791196	-0.14170723	-0.39932716	-0.28751394	-0.24687275	-0.33681062	-0.14025	-0.2673271	-0.21667188	-0.27221024	-0.26373333	-0.110238075	-0.33949792	-0.10208498	-0.11835717	-0.2017028	-0.023500342	0.016298054	-0.048480958	-0.14381868	0.21984921	-0.014393449	-0.2508094	-0.110381044	-0.8324809	-0.555959	-0.17827986	0.43653846	-0.28276974	-0.23495257	-1.4255681	-0.24853685	-0.31628788	-0.054116912	-0.3407738	-0.79556096	-0.20438309	-0.06739407	-0.027166056	-0.12035653	-0.21654491	0.37876332	-1.3658653	0.29249457	-0.15234897	0.036884557	-0.13673548	0.3300587	-0.10271861	-0.20081551	1.4807271	0.17191744	-0.12054607	-0.053928923	-1.256802	-0.107721835	1.5938823	-0.6610927	-0.14490189	0.0209717	-2.92419	-0.08161407	-0.3009446	-0.14997494	0.014029885	-1.322852	-0.10808376	0.42005253	-0.114469275	-0.24863607	-0.2249182	1.27111	-2.269467	0.18429291	-0.0883697	1.0853126	-0.17917866	0.4163384	-0.38491684	-0.38037175	2.5522797	-0.804153	-0.2665887	-0.27762908	-1.1038084	0.97571856	4.0999923	-2.481088	-0.07344223	0.57143193	-2.8776634	-0.11506688	-0.39788964	-0.21481635	0.713863	-0.7593997	-0.1526855	0.046909943	-1.1282178	-0.08236086	-0.15594307	1.5233678	-2.3003702	-0.5356394	-0.08299449	2.1198113	-0.16432308	0.29368258	-0.46726552	-0.52128434	2.6866114	-1.1551362	-0.12534447	-0.60304755	-0.88555485	1.5189803	4.7780075	-2.8824193	-0.23940045	0.823597	-2.5842433	-0.29085723	-0.20290805	-0.077530906	1.076561	-0.4395486	-0.11512961	-0.27409795	-1.3940203	-0.22393698	-0.050232857	1.6483753	-2.3463798	-2.15326	-0.17944811	2.629911	-0.25291136	0.065030135	-0.903323	-0.18486218	2.8541062	-1.4514276	-0.17190193	-0.5347594	-0.4595291	1.745068	4.953706	-3.421587	-0.012727888	1.0483589	-2.0952268	-0.27061158	-0.18995897	0.0016770947	0.8114067	0.06243244	0.030573012	-0.19647105	-1.5263387	-0.2714653	0.008146739	1.3717438	-1.9227918	-3.48669	0.07199297	1.290883	-0.084639125	-0.0794719	-1.3889217	-0.0808037	3.4262588	-1.7261722	-0.0011442387	-0.27194002	0.23007777	1.1023599	4.0925937	-3.873561	-0.06799197	1.2410399	-1.7285148	-0.050118517	0.18884735	-0.23152739	-0.38465002	1.0636494	-0.11210642	0.20248534	-0.9318819	0.0202986	-0.06477054	1.2029312	-1.7792456	-3.1760712	0.0061017787	0.0315248	-0.13303867	-0.22067639	-0.996932	0.015382821	2.5409253	-0.9504389	-0.03122265	0.026474945	0.54569364	0.875886	3.161159	-3.0528924	0.052021377	0.8481361	-1.3332661	0.015242582	0.17159404	0.09561291	-0.78267896	0.6063275	-0.06515744	0.4296558	-0.32969022	-0.020286538	0.13292694	1.2779281	-1.6041801	-2.6278808	0.089750946	-0.32740787	0.12594835	-0.5577706	-0.47917062	0.07364307	1.003701	-0.49118048	-0.017411117	0.22631527	0.7092304	1.1568378	2.6287856	-2.0300372	0.10918851	0.62939346	-0.34924537	0.03206923	0.016840762	0.031270552	-0.44894034	0.047623243	-0.025920367	-0.030186962	-0.27835187	0.022406448	0.08578005	0.6552992	-0.35047483	-1.6138589	0.03996943	-1.0809528	-0.0015133978	-0.68409324	-0.1549406	0.09000254	0.09722764	0.05807148	0.11900823	0.19612002	0.044151943	1.0913539	1.3068218	-0.7486788	0.013140503	0.32638326	-0.1969784	0.118041344	0.016896972	0.17687997	0.21712112	-0.34506473	0.14023499	-0.39692843	0.06966375	0.20608728	0.15567763	-0.16989745	-0.21747091	-0.16086535	-0.2855539	-0.07877169	-0.12766138	-0.08958013	-0.28591776	-0.25584823	-0.19935128	-0.23297097	-0.16456077	-0.27342018	-0.20837906	-0.14968997	-0.23428255	0.065727636	-0.30706072	-0.262169	-0.18178682	-0.27073407	-0.33590108	-0.30547938	-0.14163198	-0.06777136	-0.24974537	-0.2777154	-0.2741497	-0.31980067	-0.21722998	-0.25662518	-0.24842165	-0.20975338	-0.27366525	-0.13589971	-0.16653669	-0.070035756	-0.20506646	-0.1587648	-0.18215035	-0.27902666	-0.23520593	-0.3339869	-0.32604644	-0.2657015	-0.353985	0.17218009	-0.12630275	-0.29034793	-0.4003677	-0.10916897	-0.3902529	-0.16116965	-0.22669879	-0.14018992	-0.24723981	-0.3522168	-0.2949918	-0.21937251	-0.17746653	-0.31416726	-0.09612625	-0.1998163	-0.21498649	-0.10725447	-0.1985396	0.05476474	-0.21115756	-0.13642412	-0.04928269	-0.15502742	-0.22463185	-0.38474306	-0.35952547	-0.22706108	-0.36475024	0.27176023	-0.15806647	-0.2599203	-0.545043	-0.24077818	-0.19222592	-0.25332886	-0.19570142	-0.117783554	-0.3548112	-0.26676762	-0.25307587	-0.16142753	-0.38659233	-0.38752046	-0.12686841	-0.20132798	-0.2211104	-0.13036798	-0.24033128	0.028395804	-0.16919036	-0.26059654	-0.07113049	-0.17847356	-0.26858532	-0.3187703	-0.3913372	-0.28235802	-0.4120284	0.3105066	-0.08739706	-0.23283549	-0.63460785	-0.23525542	-0.21926482	-0.12930872	-0.2260729	-0.1342041	-0.261505	-0.30571368	-0.28155395	-0.12306032	-0.33739248	-0.3930233	-0.09433752	-0.19088987	-0.19000353	-0.12845819	-0.11810946	0.10185517	-0.11518098	-0.2336526	0.021040231	-0.11725578	-0.28185084	-0.30389395	-0.4374657	-0.28988966	-0.4070888	0.3485865	-0.22946617	-0.23010197	-0.77225435	-0.22085984	-0.15450674	-0.16659497	-0.22698514	-0.17590189	-0.31790796	-0.26456326	-0.2461883	-0.2921918	-0.28368318	-0.37603712	-0.1154654	-0.15585387	-0.1956481	-0.12974863	-0.22861303	0.13984048	-0.1324171	-0.21336727	0.117502846	-0.05640829	-0.28067744	-0.12872912	-0.6030155	-0.37187076	-0.39602187	0.4462801	-0.14706631	-0.25732562	-1.0557871	-0.206504	-0.19749483	-0.0914987	-0.25100183	-0.35455668	-0.23954882	-0.20596379	-0.21106046	-0.2599551	-0.29111373	-0.36487186	-0.17579196	-0.08442838	-0.24540141	-0.12298611	-0.20194311	0.3157807	-0.13037984	-0.17806295	0.43590963	0.0966871	-0.14092948	-0.018586056	-0.92179483	-0.46383905	-0.27606463	0.55080414	-0.16131438	-0.29631916	-1.6855762	-0.2833905	-0.16162084	-0.13955131	-0.26892886	-0.63848436	-0.26784492	-0.041009992	-0.08604806	-0.26637322	-0.0795694	-0.25738886	-0.7200684	0.07283044	-0.13892843	-0.10862229	-0.0361266	0.68208313	-0.07489773	-0.18079296	1.145936	0.2874718	-0.16631967	-0.24932182	-1.2963533	-0.33942434	0.50147086	0.095273435	-0.2601538	-0.23944859	-2.6370654	-0.090128854	-0.16075762	-0.101021916	-0.18101262	-0.95930177	-0.031071974	0.2813154	-0.035404053	-0.15557426	-0.27570936	0.6687927	-2.0050497	0.3819817	-0.04297995	0.61231035	-0.1342435	1.0976444	-0.3991512	-0.33374947	2.462696	-0.50613326	-0.2438184	-0.22949274	-1.4508225	0.6856624	3.4676824	-1.8475363	-0.30476084	0.4726749	-2.864526	-0.128606	-0.19003785	-0.31101763	0.52730685	-0.61329937	-0.09443382	0.29905903	-0.9915094	-0.2505937	-0.2151606	1.3646357	-2.362671	-0.8850499	-0.20934065	2.5254672	-0.29718575	1.0023369	-0.6546484	-0.5789883	2.5768137	-1.2925812	-0.101880595	-0.551642	-1.3775425	1.7380329	5.1067176	-2.540635	-0.07275509	1.1055329	-2.2932546	-0.08913388	-0.08262874	-0.06878636	1.2663302	-0.2539153	-0.07788881	-0.38134554	-1.8822083	-0.08045708	-0.29109406	1.5336803	-2.4231548	-2.1567156	-0.22649103	2.9521024	-0.050459728	0.882643	-0.64214814	-0.47307366	2.4678752	-1.3104141	-0.11644993	-0.33133873	-1.1276367	1.9857349	5.239064	-2.705308	-0.1297242	1.3337357	-1.9625216	-0.26352504	-0.09350348	-0.27422413	1.1250286	-0.121886656	-0.08224569	-0.30932534	-1.9696088	-0.21514623	-0.09356021	1.4756254	-2.3039956	-3.4424167	-0.025094353	2.4253395	-0.19490221	0.7665597	-1.0420095	-0.19869515	2.708422	-1.4012319	-0.24780723	-0.28769484	-0.691948	1.860631	5.08446	-2.9995432	0.022087354	1.4569324	-1.4980578	-0.03548042	0.13938536	-0.16528131	0.46730232	0.3508821	-0.24272315	0.046930473	-1.591916	-0.2631569	-0.19179703	1.4568886	-2.1840794	-3.634794	-0.13588679	0.91636914	-0.2146576	0.5930312	-1.1844378	-0.10984959	2.696933	-1.3355078	-0.04893284	-0.014220947	-0.16639926	1.3005644	4.370362	-3.221497	0.08107931	1.429013	-1.0124038	-0.06317734	0.17406712	-0.18701822	-0.4226463	0.7395832	0.02167761	0.3849322	-1.2296667	-0.11416044	0.13985401	1.4719523	-1.9879912	-3.156185	0.1403915	0.40740317	-0.09007757	0.3827955	-0.49026942	0.026272038	1.4344603	-0.50672317	0.11553578	0.1954655	-0.053130973	1.2160939	3.425017	-2.011533	-0.12862518	1.0060401	-0.5871184	0.029462146	-0.05076835	0.06309422	-0.40742433	-0.09586303	-0.008354017	0.4136289	-0.7607797	-0.11386227	-0.022377357	1.4434988	-1.7961521	-2.6013727	0.10041955	0.069190755	0.14836933	0.17318998	-0.10416752	-0.08926265	0.39083546	-0.17533375	-0.009985336	0.07030692	0.07758115	1.5325027	3.060022	-1.2729574	-0.0545593	0.62960494	0.12326202	0.15123574	-0.08953747	0.17358686	-0.0850544	-0.47489664	0.14626607	0.04214919	-0.6178272	-0.033757176	0.12713839	0.7507384	-0.45675194	-1.7344089	0.0594852	-0.82893157	0.05778038	0.017340375	0.23730208	-0.067096405	-0.12024686	0.01290907	0.12362668	0.23151265	-0.39784163	1.1881839	1.583961	-0.32612425	0.02442968	0.23513328	0.37366408	0.14240739	0.02726385	0.10668338	0.3396454	-0.3269203	0.22771509	-0.30941635	-0.1443963	0.11149732	0.01361251	-0.16163133	-0.23054464	-0.16172816	-0.40319118	-0.056750134	-0.27937102	-0.0660152	-0.30553013	-0.31136316	-0.20581952	-0.23137534	-0.2760172	-0.29958147	-0.14783967	-0.0932206	-0.20563306	-0.0015838479	-0.20838135	-0.28369737	-0.07924043	-0.13445334	-0.32210627	-0.38224792	-0.10997158	-0.0129893655	-0.22646883	-0.28989637	-0.29160148	-0.20962192	-0.17646185	-0.13223642	-0.18891616	-0.14504796	-0.17443988	-0.054801233	-0.29648617	-0.06459061	-0.30175275	-0.38182908	-0.19349879	-0.19198729	-0.2428593	-0.3011964	-0.1386326	-0.08331957	-0.17499451	0.007952441	-0.36683798	-0.24831687	-0.070470735	-0.37171355	-0.25995642	-0.23889111	-0.09984235	-0.015796538	-0.1841869	-0.23327717	-0.2583563	-0.34206563	-0.291927	-0.15592389	-0.22029206	-0.17166248	-0.26747864	-0.06518976	-0.21897842	-0.07129691	-0.30637443	-0.22850856	-0.20205037	-0.22293532	-0.20116252	-0.37647507	-0.14705229	-0.08882212	-0.1992533	-0.001346418	-0.28206187	-0.27230158	-0.07889085	-0.20270723	-0.31011894	-0.21111815	-0.11452871	-0.012577196	-0.30784544	-0.27577975	-0.28121904	-0.31291464	-0.36820275	-0.1432266	-0.20622593	-0.16999587	-0.21670501	-0.07253259	-0.36236748	-0.060067464	-0.24824175	-0.29759657	-0.18378642	-0.20977938	-0.18627998	-0.39749005	-0.1310367	-0.08841009	-0.18980512	-0.010212438	-0.3744806	-0.24625768	-0.07512841	-0.21461262	-0.28564113	-0.349596	-0.11729178	-0.00466218	-0.3036125	-0.25527343	-0.25379372	-0.2414216	-0.2134373	-0.14801317	-0.21342856	-0.13715406	-0.21724458	-0.04201508	-0.33308113	-0.070954055	-0.33308813	-0.35884583	-0.21660602	-0.22118917	-0.30272883	-0.19404165	-0.15360436	-0.09221055	-0.19590072	0.01241865	-0.20730242	-0.2748326	-0.075696416	-0.362262	-0.30996668	-0.37341458	-0.09554457	-0.013963162	-0.16365236	-0.26637077	-0.29581752	-0.19742054	-0.23362401	-0.14701238	-0.21154627	-0.14548865	-0.23814826	-0.049825367	-0.35287142	-0.07225284	-0.28166223	-0.18885751	-0.202145	-0.22698215	-0.17843953	-0.24058372	-0.14133275	-0.0879321	-0.19749483	-0.0008921235	-0.34052327	-0.25283462	-0.07516203	-0.29323214	-0.32582715	-0.4367543	-0.10021253	-0.0007227133	-0.2186407	-0.2653889	-0.2804434	-0.23007098	-0.2773334	-0.12374078	-0.17413746	-0.14325714	-0.17462987	-0.059819635	-0.41420484	-0.061370764	-0.2610996	-0.43874723	-0.17583524	-0.18035121	-0.17618021	-0.32161146	-0.12500656	-0.08088533	-0.16561435	0.0019653833	-0.3114736	-0.22319603	-0.068136856	-0.36098722	-0.2421152	-0.40062353	-0.10095697	-0.007978096	-0.24355727	-0.21513996	-0.2339285	-0.2353823	-0.23526931	-0.1560544	-0.21903522	-0.1465768	-0.25365135	-0.04863326	-0.20701602	-0.07214204	-0.30089268	-0.34498534	-0.20425767	-0.22935317	-0.20989397	-0.23377565	-0.14312488	-0.089579366	-0.20108686	-0.0005782328	-0.231229	-0.2692037	-0.07785699	-0.21286373	-0.3219989	-0.3128276	-0.10120614	-0.0063743084	-0.32931626	-0.2781892	-0.28761303	-0.3188206	-0.32903987	-0.15464848	-0.21595263	-0.1403864	-0.332503	-0.045519467	-0.26106277	-0.074486114	-0.2928291	-0.35053796	-0.20295073	-0.2311582	-0.18369938	-0.19923379	-0.14222714	-0.09125506	-0.20126532	0.000116474024	-0.28474128	-0.26058486	-0.07837331	-0.23811279	-0.32829067	-0.37707543	-0.09878851	-0.0009193697	-0.29280022	-0.27518007	-0.28649637	-0.119917996	-0.36010304	-0.14012313	-0.21673265	-0.15815945	-0.36821955	-0.06022617	-0.3516441	-0.051283676	-0.28508362	-0.1328151	-0.20310299	-0.2120182	-0.37127274	-0.32312992	-0.14535864	-0.090823494	-0.19151962	0.002045756	-0.21219741	-0.2699007	-0.0718066	-0.29390696	-0.2826092	-0.14042777	-0.10805155	-0.01773402	-0.16543615	-0.2632233	-0.2762224	-0.36291343	-0.35524547	-0.13976936	-0.20335877	-0.15536512	-0.27078134	-0.06391869	-0.38977858	-0.050835315	-0.23743716	-0.32714048	-0.176054	-0.20240727	-0.24170788	-0.3360869	-0.123617284	-0.08496221	-0.18305406	-0.010604353	-0.2858171	-0.24540988	-0.071324475	-0.14728363	-0.26640153	-0.15975063	-0.10818971	-0.007935112	-0.42556533	-0.25347295	-0.2468405	-0.38926047	-0.23236594	-0.15524948	-0.22363275	-0.13608827	-0.3479509	-0.04195397	-0.16113724	-0.064011954	-0.2791106	-0.28899756	-0.20079519	-0.23350805	-0.2576124	-0.17112708	-0.13871303	-0.09040162	-0.2024565	-0.0034414213	-0.40160584	-0.26772445	-0.07579915	-0.15766555	-0.3257715	-0.22771476	-0.09557432	-0.0037835995	-0.32752407	-0.2842511	-0.2876341	-0.28855473	-0.36228213	-0.14377701	-0.20140669	-0.15540184	-0.3703178	-0.057774276	-0.38761276	-0.06372916	-0.27823195	-0.20969328	-0.1801833	-0.20185499	-0.18543655	-0.33992112	-0.13143727	-0.07848141	-0.1799651	-0.0026003495	-0.21116073	-0.24975652	-0.07062767	-0.11143742	-0.28286308	-0.3800836	-0.102478854	-0.01325853	-0.36711782	-0.25347415	-0.25376457	-0.30782434	-0.293375	-0.12071951	-0.1822198	-0.136614	-0.3427541	-0.057636376	-0.38447782	-0.042355943	-0.20786822	-0.3093044	-0.16457365	-0.18306088	-0.2625406	-0.2814818	-0.11345709	-0.08083467	-0.16634794	-0.008440547	-0.29624915	-0.21957439	-0.06392153	-0.23678297	-0.23757373	-0.25701845	-0.09797395	-0.005243972	-0.38689902	-0.22349724	-0.22527124	-0.3207277	-0.34421977	-0.15359539	-0.21660654	-0.15670383	-0.22512697	-0.05528747	-0.39003596	-0.07804017	-0.31125727	-0.24318604	-0.20958568	-0.22927478	-0.17210443	-0.29017487	-0.14939678	-0.09001613	-0.2015907	0.0025877522	-0.27229366	-0.2659178	-0.07902284	-0.30516905	-0.3265504	-0.14519669	-0.106624424	-0.0060752956	-0.38245982	-0.27249584	-0.2894606	-0.27325946	-0.24222681	-0.14276458	-0.2123138	-0.14259973	-0.16649576	-0.05158478	-0.17995386	-0.05784352	-0.2902462	-0.34847283	-0.204738	-0.21596947	-0.3310561	-0.23561984	-0.14235294	-0.092402525	-0.19305132	0.0030486581	-0.30536	-0.26711527	-0.07279758	-0.30677256	-0.2917971	-0.2710655	-0.101577856	-0.012405341	-0.30643374	-0.26340717	-0.2798356	-0.38316187	-0.21564817	-0.1283185	-0.20011595	-0.13916507	-0.32757849	-0.044314895	-0.1754707	-0.03487708	-0.22900236	-0.33645388	-0.1725575	-0.19918224	-0.26378664	-0.18444319	-0.15578744	-0.091563635	-0.20848222	-0.04549245	-0.37587553	-0.25369748	-0.064895675	-0.20786315	-0.28058007	-0.27998725	-0.09741755	-0.006781811	-0.3116818	-0.235329	-0.26081553	-0.376005	-0.35839355	-0.089639515	-0.17624712	-0.18253165	-0.18345839	-0.033371624	-0.2837381	0.09588434	-0.19163375	-0.33385012	-0.09717583	-0.10531219	-0.33904982	-0.23676363	-0.33363622	-0.11689834	-0.2953727	-0.24177794	-0.39593044	-0.31047973	-0.018569004	-0.23139371	-0.19872138	-0.38485697	-0.10959554	-0.025906965	-0.38357228	-0.08596852	-0.23008695	-0.1222064	-0.40894774	-0.11613404	-0.22983518	-0.30292293	-0.14447321	-0.008390834	-0.120416135	0.31044054	-0.2684652	-0.24403498	-0.031690218	-0.06329492	-0.119777724	-0.33518258	-0.7546497	-0.18695092	-0.5388386	-0.6312979	-0.38781267	-0.51740223	0.066297516	-0.29758385	-0.2660743	-0.2623457	-0.15283285	-0.020519732	-0.09996934	0.090159446	-0.2794943	-0.3534816	-0.23440932	-0.19927633	-0.24540901	-0.33115637	-0.25470123	-0.0023111647	-0.3238649	0.4779689	-0.21742696	-0.13705796	-0.004316556	-0.009538983	-0.03855667	-0.29553118	-1.063927	-0.26001653	-0.6812404	-0.9271777	-0.23855874	-0.5511609	0.21952367	-0.28807363	-0.20197122	-0.16613361	-0.17311768	0.035015784	-0.23030247	0.25730684	-0.23968264	-0.3366319	-0.2140136	0.099483445	-0.11600724	-0.4258955	-0.34642282	-0.07836116	-0.105540045	0.5473315	-0.0715108	-0.21165034	0.08786297	0.096330546	-0.06627628	-0.3742533	-1.3259479	-0.32373938	-0.87266153	-1.2274352	-0.24564658	-0.5737929	0.24299502	-0.19492927	-0.16725183	-0.35601825	-0.25913817	-0.1283863	-0.18254934	0.35733128	-0.28915432	-0.061017074	-0.33531082	0.32266128	-0.06339169	-0.4829678	-0.11890905	-0.10668714	-0.15068235	0.7662736	0.052941207	-0.026028592	0.11832527	0.1257367	-0.20762333	-0.105416335	-1.9070961	-0.43930244	-1.1873338	-1.7318574	-0.23673126	-0.74518496	0.4118662	-0.06446781	-0.24368374	-0.20950069	-0.32482216	-0.25572082	-0.18909584	0.4488589	-0.35572475	-0.17656577	-0.2888606	0.6204178	0.09949087	-0.49076444	-0.024358341	-0.21002907	-0.09441628	0.9984729	0.18920445	-0.08090269	0.027299272	0.13796704	-0.1866596	0.07643853	-2.7665956	-0.5848274	-1.4772718	-2.2705734	-0.26483372	-0.87730926	0.7914492	-0.0346188	-0.24970706	-0.08992957	-0.40692577	-0.44658172	-0.14102335	0.50517	-0.29933116	-0.025941761	-0.25259686	1.5503608	0.62380594	-0.5335122	-0.03192941	-0.37691632	-0.041029092	0.817073	0.72289884	-0.1425099	-0.2532542	0.16831945	-0.02790497	0.15454513	-3.621472	-0.49968475	-1.7918549	-2.752289	0.03803243	-1.1209207	1.0753349	-0.14145102	-0.44705746	-0.12675712	-0.45645535	-1.095102	0.07979701	0.16059925	-0.059053138	-0.16261217	0.00826906	1.5272233	2.3701262	-1.231381	0.19994918	-0.6004735	0.21368222	-7.0206385	0.9585972	0.18711968	-2.6203241	1.2026976	-0.038779356	0.4274836	1.0882407	0.99874455	-1.8277692	-1.6033404	-0.019500164	0.8416337	-0.94960177	-0.054339882	-0.26243863	0.010214568	-0.44970697	-2.7132065	-0.0018841401	-2.3590698	-0.07557098	0.031448178	0.30992484	-4.926291	1.315817	-0.9661591	0.098357804	-0.18743393	0.023408866	-14.501816	-0.4403374	0.06199533	-6.105596	0.87814295	-0.28277543	0.005003238	8.471727	2.8606846	1.6520573	2.3901744	0.11554514	3.5220807	-1.7841876	0.061314102	0.15503424	-0.029427797	0.1892395	-0.31682524	0.029614411	-4.204121	2.3779666	0.08830167	-0.009493564	-6.0091777	-0.18424138	-3.0040276	0.099573396	-0.49444178	-0.0016520936	-10.942071	-1.2013627	0.30258706	-2.9345806	0.91322	-0.2333396	-0.12573604	7.6472073	0.8487574	0.6788198	-0.38797626	0.07491987	2.9108994	-1.5460185	0.02643304	0.5183025	-0.035017066	-1.3923842	1.7417582	-0.047844306	-1.0610133	2.507555	-0.12985249	0.0001746585	-4.8246756	-1.3297398	-4.1775684	-0.026181571	-0.69268084	-0.057779502	-5.112222	-1.1499457	0.23010725	0.4513775	1.0519348	-0.087662354	-0.07834093	5.2843094	-0.3739093	-0.3549072	-2.1422164	-0.16325115	0.6234268	-1.4337219	-0.12860502	0.029909844	-0.21853131	-2.1065733	2.324222	-0.27861115	1.7448775	2.092081	-0.21410838	-0.13504224	-0.9975026	-0.05397987	0.061179664	-0.11488701	-0.0926916	-0.26322475	-1.7617196	-0.43588445	-0.32349318	-1.1781301	-0.17445439	-0.20414741	-0.3331922	0.8162141	0.15458997	0.09153953	0.5233502	-0.3544173	0.6042324	-0.08247928	-0.16489218	-0.053902704	-0.16757572	0.030246576	0.1053422	-0.20550978	-1.0055807	-0.24740188	-0.3341228	-0.34189004	-0.15631379	-0.2112828	-0.18747355	-0.15277211	-0.08623991	-0.36102974	-0.13364445	-0.27608225	-0.32665887	-0.24607064	-0.21164301	-0.38544413	-0.36551234	-0.14952078	-0.108116716	-0.2438457	-0.03709231	-0.16713597	-0.2462814	-0.080737874	-0.16933851	-0.29120126	-0.19975321	-0.13563159	-0.037133195	-0.15537824	-0.31293258	-0.31730586	-0.16481845	-0.40264603	-0.13682565	-0.18641137	-0.13689144	-0.39832935	-0.04878703	-0.17082255	-0.09309928	-0.28287825	-0.18418527	-0.20870797	-0.19384274	-0.24927618	-0.20123751	-0.14876035	-0.08701193	-0.20216948	-0.019956876	-0.41863403	-0.23095737	-0.065067604	-0.2896749	-0.27633518	-0.35430214	-0.09600065	-0.01875855	-0.22301738	-0.2494077	-0.2783946	-0.3096325	-0.29582128	-0.12212923	-0.21194564	-0.1454234	-0.23607564	-0.04671747	-0.28393975	-0.037554033	-0.28616574	-0.17896831	-0.19574343	-0.2069479	-0.41092873	-0.18744344	-0.17291826	-0.100719236	-0.21353197	-0.022219222	-0.168105	-0.2798388	-0.070790134	-0.29590514	-0.28675517	-0.2652909	-0.10279766	-0.025858603	-0.41284257	-0.2529487	-0.29211044	-0.2549684	-0.30377844	-0.65771437	-0.06262517	0.25975418	-0.041081157	-0.23637955	-0.0034144367	2.0009685	0.05170619	-0.090162806	-1.6465918	0.069458134	0.062581874	-0.081703015	0.63300043	0.24251176	0.30872393	-1.2381997	-0.08163261	-0.19791661	-1.408335	-0.11228107	-0.12300469	-0.16235863	-0.5223272	-1.4997158	-0.11568164	0.054784637	0.13395756	-0.18130341	-0.09573044	-0.5722416	0.24892595	-0.8491686	-0.07169636	0.23829937	-0.053584874	1.9371614	-0.08450614	0.108506806	-1.3990908	-0.008437596	0.053658977	-0.07364718	1.0074253	-2.6003387	1.4571264	-1.813736	0.021284442	0.10399585	-1.2246467	-0.036159627	-0.049094554	-0.019342752	-1.4633343	-1.257815	-0.073374346	0.008954318	-0.030545244	-0.07283867	-0.06513816	-0.32914287	0.15874456	-2.451235	-0.038140874	2.6843026	0.0036592179	1.7663394	-0.14430861	0.16506223	-1.059973	-0.22302556	-0.16151972	-0.013674681	1.1368827	-4.466312	1.5344375	-2.3755171	0.057491396	-0.01615355	-1.2974429	-0.24679352	-0.11210178	-0.0736727	0.13377558	-1.1907852	-0.10350494	0.113792256	0.024587575	-0.1808691	0.15374316	-0.21204719	-0.19193256	-3.585097	-0.124549344	3.7849696	-0.14858998	2.2268188	0.13150792	-0.15924013	-1.2479202	0.027397638	-0.103964604	0.027720226	0.8767149	-4.827294	1.3886317	-2.4185607	-0.111637086	0.004509764	-1.302655	-0.23119392	-0.24892455	0.0066764476	2.210929	-1.4196732	-0.1281514	0.2851639	-0.14596367	-0.023413276	-0.07116318	-0.4024455	-0.40765232	-3.9830103	-0.20109081	3.0260797	-0.16789238	2.817993	0.105905674	-0.049449455	-1.5230694	0.13943693	-0.08511908	0.06563662	0.47122303	-4.7786956	1.3897254	-2.0863197	-0.048884388	0.23543909	-1.1686081	-0.08339121	-0.30672213	-0.14679085	3.2463639	-1.4585161	-0.029052582	0.35780302	-0.5284559	-0.17903891	-0.018177975	-0.6214181	-0.3514935	-3.6896317	-0.15717542	0.461201	-0.101626754	2.8840332	0.06642032	-0.28756124	-1.4299766	0.11804202	-0.089911364	0.1344634	0.59050995	-4.768083	1.4461396	-2.0719078	-0.29160717	0.38829815	-1.1161228	-0.20875849	-0.032311156	-0.10297777	3.7258148	-1.2223892	-0.13048208	0.4211863	-0.47115967	-0.044243414	-0.13174942	-0.5541563	-0.080731064	-2.773908	-0.13559861	-4.17801	-0.041343227	2.734445	-0.12510939	-0.14427577	-1.3778412	-0.20142904	-0.050225683	0.2693851	0.6738587	-4.8661256	1.5689003	-2.0393443	-0.11081954	0.39390212	-0.89027864	-0.33546484	-0.17970625	-0.1890113	3.7393925	-1.0095911	0.0077447286	0.24859706	-0.43100578	-0.12703395	0.1808377	-0.38224426	0.33212778	-1.033332	-0.027227554	-9.850667	0.014828137	2.7372146	-0.25872624	-0.007416004	-1.2135053	-0.44868857	-0.05384964	-0.0005205993	0.79549015	-4.9411793	1.9473969	-2.0758548	-0.3313097	0.5289623	-0.5319438	-0.21164522	0.038665984	-0.069195844	3.5744655	-0.70050037	-0.12221269	0.017242309	-0.3241502	0.032270417	0.13940902	-0.13232055	1.2094148	1.390397	0.073356405	-11.776794	-0.14792058	2.848294	0.01974137	-0.1405742	-1.4969391	-0.58305514	-0.16469376	-0.2982982	0.7819599	-4.75939	1.6541263	-1.5122039	0.06593008	0.5379134	-0.31500643	-0.014887082	0.102950394	0.03503163	4.6215353	-0.59336704	-0.12462699	-0.73861855	-0.5425077	0.061014716	0.06838249	-0.47628286	1.5903312	2.2463138	0.16933724	-10.773112	-0.12827152	2.9960978	0.31656054	-0.014267003	-1.9422688	0.09806495	-0.024470445	-0.39441198	0.6711428	-4.494464	1.2025491	-0.6550337	0.14067277	0.06930192	-0.62660795	-0.072884865	0.03658658	0.032880533	5.5300035	-1.0447538	0.0334402	-0.75537914	-0.020797169	-0.039017558	0.116027385	-0.5606362	1.2105031	2.9473352	0.08848999	-10.441625	0.113290526	3.1399167	0.25468114	0.11219472	-1.5694664	-0.044443883	-0.06608619	-0.48332262	0.8392623	-4.539174	1.3980194	-1.4235342	0.1969806	0.10830549	-0.5314021	-0.122714184	0.04938111	0.074149676	5.847909	-0.68126786	-0.052313402	-0.5311895	0.007976845	-0.058680087	0.12955323	-2.3806948e-05	0.77939475	3.7172952	0.036139406	-10.583388	-0.079248525	3.264988	0.13697405	0.18637484	-1.1564023	-0.56849784	0.042053144	-0.59310776	1.0104008	-4.772857	1.9133912	-2.5938885	0.19324528	0.44250306	0.013715397	0.043660842	0.26689908	0.030193927	5.8723707	-0.17952484	0.094206855	-0.650133	-0.58454865	-0.07026947	0.2473069	0.40677625	1.3173809	3.5453434	0.011773275	-9.881657	-0.06095448	3.0037074	0.08124502	0.15627062	-1.9144572	-0.5171951	0.20004264	-0.31665874	1.2433008	-4.6385045	1.3840591	-2.0420773	0.11157436	0.33346307	0.8746157	0.028165031	0.29355377	0.117125	6.24976	-0.2771066	-0.053692997	-1.0334204	-0.56052613	0.10489759	0.08182028	0.7656374	1.3876612	4.1591077	0.13333017	-9.77062	0.13496734	2.6681352	0.969216	0.0014487037	-3.7543254	0.7462926	0.05159055	-0.12829885	1.5227437	-4.448899	0.22510876	-0.645537	0.07531589	-0.56218815	1.7858807	0.13549307	-0.037491675	0.04245559	6.7500415	-1.6605557	0.069063604	-0.83119273	-0.06687024	0.23113573	0.16215889	1.0112282	1.2015593	3.6510398	0.15010181	-8.520913	0.23562223	2.3223653	1.1700485	0.20962764	-4.679414	1.0882885	0.10960341	-0.006618714	1.685354	-4.5301065	-0.