4
21	50	50	256
-0.725555956363678	0.30822888016700745	0.43819284439086914	-1.7977091073989868	1.063022255897522	0.0683441087603569	-1.1561013460159302	4.163437366485596	0.8394657969474792	1.3181897401809692	0.9085147380828857	-1.1039128303527832	1.6728839874267578	-0.8524149060249329	-0.17087231576442719	-0.09872528910636902	1.9703534841537476	1.2417793273925781	2.1431732177734375	0.11905747652053833	-1.7544870376586914	0.8758403658866882	1.9729245901107788	-0.48872414231300354	-0.5814833641052246	2.33864688873291	-1.5778110027313232	-1.2290064096450806	-0.4744449853897095	1.933838963508606	1.6337809562683105	0.9569298028945923	-0.8197939395904541	-1.5035789012908936	0.20157986879348755	0.3259899914264679	0.7245705723762512	-2.155987024307251	-0.2616770267486572	-0.06221717596054077	0.15389332175254822	1.8152376413345337	2.0381648540496826	2.8110733032226562	1.0446850061416626	0.9453898668289185	0.7941001653671265	-2.086787700653076	1.0011191368103027	-0.7847853899002075
0.07303297519683838	-0.3276429772377014	0.3838141858577728	0.4019848108291626	0.1720537394285202	-0.0031630638986825943	-0.07056666165590286	-0.2215302586555481	-0.1856573075056076	-0.31149598956108093	0.19764180481433868	-0.07498491555452347	0.04842856526374817	0.05100639536976814	0.22146444022655487	0.24698805809020996	0.11126259714365005	-0.3820818066596985	-0.12750539183616638	-0.07483945786952972	0.3002106249332428	0.039826590567827225	0.27114197611808777	0.25331127643585205	-0.32178163528442383	-0.033945947885513306	0.20998069643974304	0.2418859601020813	-0.26478540897369385	0.1416611671447754	0.2065255492925644	0.005477980710566044	0.18295824527740479	-0.2262272834777832	0.35311171412467957	-0.37589189410209656	0.25950518250465393	0.051242247223854065	-0.029837895184755325	0.12809108197689056	0.0807245597243309	-0.09273714572191238	0.012431449256837368	-0.03602941706776619	-0.21249271929264069	-0.13905110955238342	0.06923545151948929	0.39980176091194153	0.21570147573947906	0.06294932216405869
0.13887234032154083	0.08413662761449814	0.10802669823169708	0.09059972316026688	0.09698078781366348	0.07269507646560669	0.1405269056558609	0.14873582124710083	0.16822044551372528	0.2206096649169922	0.22014117240905762	0.28746384382247925	0.25168827176094055	0.2635219693183899	0.19440096616744995	0.21685317158699036	0.19271747767925262	0.2186250388622284	0.24870920181274414	0.2266208827495575	0.18866819143295288	0.20357578992843628	0.06303584575653076	0.06212542951107025	0.08556368947029114	0.08378586918115616	0.129876971244812	0.11452817171812057	0.254203200340271	0.23685087263584137	0.18970344960689545	0.13939325511455536	0.060932572931051254	0.12634019553661346	0.09474397450685501	0.10855602473020554	0.10940153151750565	0.20300336182117462	0.2893090844154358	0.29871422052383423	0.32665011286735535	0.4734691381454468	0.5558164119720459	0.7470740079879761	0.757519543170929	0.701305091381073	0.6756256222724915	0.3007242679595947	-0.16754353046417236	-0.17940425872802734	-0.16235603392124176	-0.11409706622362137	-0.10316263139247894	-0.017630206421017647	0.14391526579856873	0.12346718460321426	0.03439018875360489	0.16223852336406708	0.4892369508743286	0.49454015493392944	0.47417402267456055	0.4574243128299713	0.45169100165367126	0.32471856474876404	-0.046409767121076584	0.03047359362244606	-0.026844287291169167	-0.055408213287591934	-0.031346872448921204	-0.04399876296520233	-0.007913125678896904	-0.02034684643149376	-0.03876536712050438	0.15874174237251282	0.2722468674182892	0.1418171226978302	0.13509319722652435	0.05421464517712593	-0.018253440037369728	-0.04582953825592995	-0.10805235803127289	-0.05286639183759689	-0.05543602630496025	-0.08715439587831497	-0.10781972855329514	0.022143801674246788	-0.0030595031566917896	0.05365491285920143	-0.07723153382539749	-0.11989624798297882	0.017484940588474274	0.23139619827270508	0.23217934370040894	0.2373609095811844	0.033431537449359894	-0.11089776456356049	-0.201792374253273	-0.128998264670372	-0.08747569471597672	-0.057421572506427765	-0.06985722482204437	-0.1592368334531784	-0.11704427003860474	-0.050121694803237915	0.10104476660490036	0.06205722689628601	0.12045759707689285	0.15420061349868774	0.3012217879295349	0.35220658779144287	0.19716419279575348	0.021258777007460594	-0.2268684208393097	-0.19921234250068665	-0.17628444731235504	-0.16785211861133575	-0.16294071078300476	-0.13060757517814636	-0.06597569584846497	-0.01908920705318451	-0.022720186039805412	-0.045313868671655655	-0.15076953172683716	-0.29909661412239075	-0.15891171991825104	-0.3322058320045471	-0.5454188585281372	-0.38347718119621277	-0.033917129039764404	0.06935088336467743	0.13325634598731995	0.2542917728424072	0.0977330356836319	0.08456487953662872	0.2006162852048874	0.273421972990036	-0.14645323157310486	-0.3815845251083374	-0.39106711745262146	-0.31074830889701843	-0.12149395048618317	-0.04265305772423744	-0.033437054604291916	-0.11089760065078735	0.2236953228712082	0.21284149587154388	0.17271313071250916	0.16345708072185516	0.18986955285072327	0.1286250650882721	0.10272038727998734	-0.013821287080645561	-0.053654346615076065	-0.011613392271101475	-0.010265788994729519	-0.02832476608455181	-0.10394439846277237	-0.1187073364853859	-0.135342538356781	-0.05959257483482361	0.20896637439727783	0.12625062465667725	0.10600563883781433	0.13949529826641083	0.06522616744041443	0.00954648107290268	-0.008770997636020184	-0.002020459156483412	-0.06531021744012833	-0.05947892367839813	-0.014598594047129154	0.058386996388435364	-0.0007993080071173608	-0.029772141948342323	-0.08958064019680023	-0.02828948199748993	0.037854086607694626	0.02962728776037693	0.11243459582328796	0.1417188197374344	0.16124776005744934	0.16891691088676453	0.12192191928625107	0.10515500605106354	0.09735659509897232	0.08278924971818924	0.07919742912054062	0.11214930564165115	0.08959915488958359	-0.03781058266758919	-0.2049243301153183	-0.11957485228776932	-0.31155064702033997	-0.17396311461925507	-0.08925656229257584	0.026403319090604782	0.08619442582130432	0.08447922021150589	0.008536584675312042	0.04876496642827988	0.0072051589377224445	0.07690075784921646	0.11611273139715195	-0.06911032646894455	-0.20260117948055267	0.6309396624565125	0.5028233528137207	0.32212570309638977	-0.5158215761184692	-0.4331783354282379	-0.09335475414991379	-0.015910038724541664	-0.011026685126125813	0.03528619185090065	0.08764215558767319	0.3413330912590027	0.3094954788684845	0.2902766764163971	0.28420543670654297	0.26362234354019165	0.2751431465148926	0.25152283906936646	0.24909476935863495	0.21365424990653992	-0.6682223677635193	-0.48977044224739075	-0.3567407727241516	-0.3032686114311218	-0.15900462865829468	-0.2002817988395691	-0.1850193738937378	-0.28847742080688477	-0.3004194498062134	-0.4391952157020569	-0.2724388539791107	0.11440279334783554	0.1154254823923111	0.0754036158323288	-0.34548377990722656	-0.2295747548341751	-0.6675924062728882	-0.46012505888938904	-0.21363471448421478	-0.006047394126653671	0.06993389129638672	0.07962828874588013	0.07560604065656662	-0.015887754037976265	-0.05343656241893768	-0.14099529385566711	-0.22690272331237793	-0.17388947308063507	-0.15039971470832825	-0.26421454548835754	-0.3784169852733612	-0.20601867139339447
1.2336414	0.7072842	0.0024617866	-0.3652402	0.042823724	-0.023253147	0.019878177	-0.13457102	-1.4180223	-0.054391738	-0.09002269	0.13392583	0.048161797	-0.15915047	0.04517105	0.18620841	-0.034595925	-0.001662769	0.1945196	-2.5338824	1.9412458	-1.2914459	-0.2158208	0.16284068	0.2106784	-0.25395024	0.38606545	-1.5963254	0.7649822	0.2222114	0.17523551	-1.7850885	1.0308743	-0.1484847	-0.10741946	-0.61729956	1.2903813	-0.92204267	-0.205657	0.790047	0.024306307	-0.2278088	-0.7859151	-0.21462496	-0.3069358	-0.7124551	0.53930944	0.30724093	-0.0009362803	-0.33954346	-0.4076707	-0.14483789	0.59509146	0.24146271	0.32962924	0.10130586	0.26357976	-0.4245884	-0.13314219	-0.015158308	-0.2505391	0.27374408	-0.5026577	-0.07132372	-2.2340484	0.5815519	0.12879504	-0.079541154	-0.07443983	-0.596262	-0.2166467	0.4842708	-0.05263336	-0.07669881	0.34848914	0.37574828	-1.8571469	0.75810575	-0.26727524	-1.2744894	0.49401283	0.5830195	-0.8869965	0.4704037	-0.8236277	1.3373078	-1.0539354	-0.22059183	2.9206035	1.237062	0.1412302	-0.21939592	-0.990232	-0.46615174	-0.41322333	0.73934954	1.0652901	-0.09243134	-0.029667439	-0.7821977	0.13345903	0.49452168	0.16629778	-0.11861127	-0.2549679	-1.0125157	-0.05233261	-0.034913424	0.08182983	0.53404146	-0.010083408	-0.3401177	0.34943944	0.41038865	-0.1683506	-0.28700486	-0.1465915	-0.29054406	0.14962795	0.10930991	-0.050576277	-0.21441747	-0.09164577	-0.06035077	-0.7207695	-0.7168506	0.60562146	-3.498704	-0.050693028	0.4055278	-0.07449339	-1.0788918	0.44057944	-0.085159145	0.06880931	-0.8025033	-0.05756777	6.4521286e-05	-0.04923593	0.538763	-1.3417138	-0.97874933	1.133983	0.30645266	0.5872044	-0.13348629	-0.18065597	-1.5151169	1.0737932	3.2995949	-0.19776887	1.1210071	-0.3769412	-0.7387371	0.5751669	1.3449624	0.43045926	0.8098799	0.22667189	-0.9146714	-1.1754861	0.16557714	1.5043008	0.21475713	-0.56703866	0.7819593	-0.3362748	0.76242656	0.48010373	-0.28719312	-3.0249927	-0.4665337	-0.9815129	-0.23697647	0.55973756	1.1241653	1.1542951	2.6547437	1.7139511	-0.9202948	-0.26807398	-1.3038536	-2.7180123	1.7000395	-1.4144897	-1.1336409	0.92282915	-0.03195885	0.41243455	0.008872815	-1.4519986	1.0726998	-1.4728639	0.25380304	-1.7563428	-0.064777546	0.018369667	-0.2740321	0.53070134	2.337738	0.43059388	-1.4375982	0.80386627	-1.0368708	1.0973899	2.7219124	-0.40360478	0.15482546	0.48276025	-0.16123183	-0.07942195	-0.11613519	0.00998878	0.3963728	-0.46926433	-0.5526552	0.83360535	-0.614083	0.5526437	0.34798667	-0.6745901	-0.677323	-0.18838738	-0.46297693	-0.35936043	0.65734065	-0.29325262	0.23057072	0.8351877	-0.013698564	0.42570534	0.011875326	-3.6136024	-0.41059116	0.07113239	-0.49590656	-0.024785817	-0.60835826	-0.2025901	1.1014776	0.27804095	-0.64844054	-0.30285546	-0.048254095	-0.033587694	0.078146785	0.7175741	0.40996885	-0.2487866	0.011447531	0.53224474	-0.33256194	-0.050761256	-0.17770088	-0.07196738	0.40027177	0.76161337	-0.11699389	-0.036284216	-0.38856024	-0.6485273	0.03135553	0.40645617	-0.08678114	0.49877074	0.23517372	0.07574192	-0.38166225	-0.18756637	-0.03888344	-0.3450293	0.3951711	3.5032716	1.4725705	-2.2069175	0.26783866	0.36002862	-0.5199402	-0.06871856	0.21167305	0.18016413	-0.96741945	-1.2528738	-0.3002479	0.058291636	0.50161517	0.8636134	0.042877953	0.6437081	1.2129776	-1.1087977	-0.61109823	-0.22940901	-0.7930837	-0.048230685	0.11594611	1.4691851	-0.54597366	-0.65492177	-0.7964099	1.6902249	0.72139776	-0.71592224	-0.65766263	-0.31627774	-0.5761567	-2.0329149	1.2073404	-1.5827765	1.0645936	-1.0705066	0.6377213	1.2382072	0.4894652	-0.32121453	-2.0317929	0.10233908	2.6199338	0.34365004	0.32862762	-0.18710712	1.1475832	-1.9528147	-1.5012815	-0.9156746	0.6419303	0.3317472	-0.39023232	0.9779964	0.6251678	1.7358423	-0.55267376	-0.9223085	1.2430466	-0.14231212	0.040630758	0.76663077	2.4826334	0.0085069975	-1.2415917	-0.78065425	-1.4055815	0.7650952	3.25098	0.40573224	-0.726278	-0.49800444	-0.85753363	-0.10141036	-0.907153	-0.18286185	0.9131708	0.52590936	1.1168559	0.70623946	1.2992724	3.855453	0.7260342	4.3911276	-0.71226436	0.039011262	0.8709302	-0.24874356	0.0612694	-0.8726499	0.2892291	-0.6227375	-0.41367418	-0.11214245	0.79161143	-0.086051896	0.96577686	-0.30361685	0.7520734	-0.6156678	0.48460636	-0.6376587	0.5695703	-1.2728821	4.7966704	1.9494468	-0.13623245	0.41847086	-0.0086954385	1.208078	-0.74005276	1.115197	0.20929874	-1.1309229	0.36030632	-0.32468244	-1.3203392	-0.14622435	-0.46676505	0.7693035	0.769651	-0.7648049	-0.07650731	0.18623957	-0.5857989	-2.969649	-0.118766196	-0.28849283	0.23321004	-0.021285702	1.3698426	-0.8862546	0.016532017	0.5360809	1.5931729	0.25537288	0.31272963	0.0414923	0.1018803	-0.5277948	0.7232772	-0.16674373	-0.17269568	-0.53454757	-0.1179144	-1.3137875	-6.225142	0.24924621	3.1107032	-0.122125514	0.8992883	-0.6664798	0.9497499	-0.59710795	0.2568144	-0.054433744	-0.24897484	-0.37908864	-0.25943258	-0.021020941	0.010433038	0.05875303	0.05307268	0.09550952	-1.4865785	-0.23592548	-0.005140183	0.6314412	-0.361807	-0.064083524	-2.013607	0.9243618	1.3241718	0.6151409	-0.52758175	0.29436094	-0.0933189	0.92693174	1.2931588	0.66908103	-1.0201036	0.07123511	0.4468793	0.5977554	-0.7493418	0.045244176	0.15868536	-0.23720446	1.4542822	-0.079960376	0.0058450378	1.7650664	-0.86631167	0.03652098	0.49899384	1.2086536	-1.1089493	-0.44649127	0.35260132	-0.4781015	-0.7471759	-1.637429	0.686232	-0.11015809	1.9165431	-0.22240423	0.06513584	0.26093492	-0.40933448	-3.2568853	-0.5721729	-0.6059383	0.6451683	1.048244	-0.9337889	0.56181693	-0.15594746	0.11730581	0.17958662	-0.92993724	1.152795	-0.080040716	9.051999e-05	0.4820048	0.49214566	0.90895957	-1.0038782	0.27321336	-0.21934365	-0.6344415	-2.7252035	0.1255279	-0.28173646	0.20804015	0.19322734	0.67162335	1.2238057	-0.49569628	0.2600469	0.024578264	0.53648406	-0.41124198	-0.34126276	-0.12887257	0.27497834	0.5392272	-0.06495258	-0.015936308	-0.753225	1.6377285	0.91693074	2.7864141	0.18684955	-0.30403984	0.285215	-0.012214523	-0.40203738	-0.3663084	-0.7311081	-0.036870617	0.22981499	-0.14337988	-0.14838298	-0.40005505	0.14559619	-0.19426636	-0.13976052	0.15330197	0.2363098	1.4704509	-1.3115664	-0.8800396	-0.49052772	-1.0052465	0.36928615	0.41432598	-0.6308941	1.1960434	-0.23017117	-1.8602272	-0.2687182	0.8700304	-0.09940228	-0.058737084	0.9013138	-1.0586857	0.17900744	0.75550616	0.4451362	-0.46500105	-0.11610039	0.3030852	-1.3800507	-0.21546586	-1.051728	0.91189027	-0.74274486	-0.37867913	-0.73321235	-0.2217865	0.6858912	1.02276	0.83727103	-1.2424384	0.1342338	0.03087699	0.057455607	-0.9555531	0.24765263	-0.12213056	0.3747027	-0.47431934	-0.77875483	-0.8935635	-1.3896079	0.29971033	-0.645664	-0.7590179	0.361351	1.318887	-0.17777121	2.1247387	-2.0898368	-0.3927778	1.200594	0.4150563	0.69869953	1.4242473	-1.2202592	0.19332722	-1.0789976	-0.03646439	-0.05981492	0.09209915	0.5243973	3.1366916	-0.9605357	0.4853226	0.9208595	1.5699726	0.31342256	-1.5200386	0.41667703	0.11565492	0.12552637	-0.78295356	0.109543554	0.0374498	0.8054557	-0.012860219	-0.36708215	-0.29919338	-0.39694476	0.015852151	-0.20667525	-0.037520032	5.114069	-0.824959	-0.05533426	-0.37952977	-0.022715626	-1.0370672	0.18505149	0.79703146	-1.3147608	-0.2316887	1.247087	-0.20222992	0.56043655	0.101814136	0.8446283	0.1958355	-0.5166989	0.12403297	-0.07197566	0.16666432	0.09481499	4.388359	0.6013883	0.03077091	-0.84947854	0.2871563	-0.24762267	0.10299536	0.25329766	0.5003224	0.12896496	-1.1225574	-0.8651623	-0.20658782	0.033838805	-0.38029718	0.25830463	0.30711865	-0.090727605	-0.28177235	0.09892355	-0.047080074	-2.5544329	0.109642856	0.055787046	-0.17647533	0.007888326	-0.5375172	0.56409574	0.3717005	0.3316171	-0.30692232	-0.8815972	-0.63721365	-0.28624454	-0.14341989	0.01690687	0.06601361	0.34473616	0.61166245	1.0936226	-1.086258	-1.23754	-2.7165122	-0.29353926	-0.4003173	1.2068381	-0.0052551357	0.42017704	0.5505591	-1.0827231	-1.8714663	-0.50753355	0.31898978	0.6150228	1.714049	-0.08360395	0.15520433	1.2758493	-0.6369839	1.431175	0.024290688	0.59127617	0.788297	-0.09645358	-1.59922	0.0022963563	-0.002805961	0.07011201	0.16053566	-1.3427219	1.5101768	0.3293082	0.5454946	-0.29000232	0.7634643	0.9508398	-0.40911517	-1.0254349	-0.17348483	0.21207047	-0.9912033	-0.45644084	0.05273304	0.78454375	-0.10676476	0.0036526201	-0.26666224	-0.09394603	-0.7171885	-0.24286638	-1.7374988	0.24171597	-0.1896402	-0.09656989	0.67340964	0.3917778	-0.42327008	-0.04751658	0.74861264	-0.06618913	0.05882157	0.4625208	-0.59041804	-1.004293	1.5897111	-1.4619627	-0.5236847	-0.31699422	0.24358451	0.629325	-0.19561793	1.2783918	-0.7676797	1.6318463	-0.05235675	-1.4828817	0.35915518	0.28010356	-0.84710115	-0.3495501	0.22925022	0.23553738	-0.4077349	0.13181207	0.53350914	-0.13394424	0.09487642	-4.166969	0.19726966	1.0546683	0.15736912	-0.21920441	-0.29253897	-0.3738425	-0.6194247	0.11716228	0.22068718	-0.58443904	0.20246014	1.6084386	0.30908552	0.25457302	-0.5399108	0.7081917	-0.034778483	0.052846238	1.4820327	-2.424274	1.1906602	-0.11414653	1.0470314	-1.0446825	-0.7257378	0.4892738	0.7110826	-0.22727342	1.9012737	-0.47645047	0.12704049	-0.44034195	-1.1936045	-0.20584944	-1.697857	-1.9523151	-0.86883384	-0.38019457	-0.07750109	-0.70999897	-0.22146526	0.1562476	-0.58760786	-1.2392104	0.06466036	0.74018157	0.5921456	0.27594903	-1.2734398	1.2474484	0.6214492	-0.045351703	-0.40184778	1.2443548	-1.0247055	1.2405539	-0.050376385	-1.4811785	0.13522856	-0.35165158	0.3432991	-0.8818592	0.13168578	-1.9394867	-0.015316893	-0.15840961	0.06301804	-0.60978913	0.8921154	-0.086206265	-0.37322327	0.32675576	0.15715253	-0.74618185	0.30742565	0.5611968	-0.5935431	0.08396894	0.62794906	0.28180158	-0.53990424	-1.2833608	2.7675414	-0.5484543	-0.33799428	0.6952775	0.75120044	-0.46238136	0.05385808	0.9185242	-1.3738214	1.6477741	1.2843553	0.2519056	0.10503435	0.35917532	-1.0421972	1.1764408	-0.7171807	-0.07592746	0.29296765	0.45683405	0.82000756	5.1332026	1.1520219	-0.017920002	-1.2937931	0.2967606	-0.15402913	-0.3816465	-0.043566603	0.23315038	0.31821316	-0.8724303	1.1609192	-0.036974877	-0.13886493	0.25572687	-1.1754297	0.015625497	0.2823668	-0.07187944	-0.13987564	1.5984658	-1.2992796	3.079089	0.36292535	1.5283785	0.14160286	-0.15707356	0.34581956	-0.21114539	-0.67200124	-0.8666966	0.09451201	-0.5620923	0.013199719	1.3328307	-1.8898332	0.35439578	0.8689268	-0.16088165	-0.030028675	0.20578781	-0.3098217	2.0619717	-1.9138681	0.3374635	1.6990659	-1.6356015	-0.9330377	0.26442045	-0.5452395	0.4941342	-0.019818505	-0.5459352	-0.5421818	0.816791	0.29271957	0.266289	1.0939066	-1.3261375	1.4539553	0.0860001	-0.47283244	-0.06950137	-0.12057428	-0.11843091	3.0143547	-0.13199429	-0.046779487	0.25079015	1.0086161	-1.089134	0.016562395	0.20400783	-0.0157999	0.24521764	0.19302571	0.023183001	-0.37215504	-0.019895608	-0.024201108	-0.19545703	-0.52545345	0.19645874	1.0070995	2.922525	0.9018932	-0.1593109	-1.7807958	-0.060232855	-1.0008991	0.11107864	-0.7363455	0.38600123	0.5281812	-0.08570134	0.36233228	0.032435946	-0.17272465	-0.091908924	-0.015321612	-0.1687924	-0.18970372	0.04275713	1.1562285	-0.4800928	-5.6837783	-0.045421034	0.6589927	0.7172648	0.21089004	-0.29028764	-1.3584415	1.3624003	-0.13345458	-0.3639469	-0.025083981	0.19160666	-0.06216948	-0.11626138	0.53364635	-0.37867102	-0.0063645686	0.115031965	-0.019673254	0.24416943	0.54642266	0.13150482	3.6074526	0.2618733	-1.2463673	-0.8111576	-1.2049636	-0.96364343	-1.8390496	1.0831993	2.2887156	0.67148703	2.0413077	-0.07518217	0.044002905	0.7154134	1.2674872	-1.605939	-0.9350796	-0.20495597	0.04766721	1.9783256	-1.5281413	-0.015007632	-0.35763365	0.77977556	-0.3811399	-0.6604269	-1.7107737	0.6529392	0.54975015	-0.62588614	0.095412076	-0.9732325	0.9964101	-1.0214001	0.38165927	0.040021595	0.6805913	-0.6982771	-0.59286326	0.20393693
-1.2783101	0.059531406	0.5975613	-0.39990377	-0.07353171	-0.09621985	-0.12580223	0.017760534	0.12800899	0.38118848	-0.31400877	0.10223689	0.036431693	-0.24293254	0.26517305	-0.25825384	0.5775299	0.005699352	0.026360735	-0.054324515	-1.1916598	-0.2532352	0.21320167	0.10571772	0.5048946	0.1923539	-0.29577598	-0.35668984	0.26597166	0.15313093	-0.37712505	-0.11833487	1.1462145	0.053145982	-0.22165792	-0.24059859	0.34429348	0.24556807	0.048137937	0.31419888	0.39305428	0.6220211	-0.33825153	0.29267827	-0.056264855	-0.9129642	0.24190348	-0.3436068	-0.067833595	0.2921117	-0.01115162	-0.53421104	-0.82873565	1.0676717	-0.6428401	-0.17958045	1.3499929	-0.2063638	-0.75001097	-0.13151698	-1.1893963	1.6931509	-0.37972924	0.43331015	-0.42822978	0.46984145	0.02589634	-1.4408783	-2.709074	1.0848883	1.1608565	-1.1368678	-0.79944634	1.1175288	1.6398705	-1.4611369	-1.0021642	0.25867304	0.9570388	-1.8092753	-3.2468028	-2.9621673	0.4259336	1.1286576	-0.20617475	0.535936	0.5832573	0.23766631	0.92518485	-0.3441088	0.2724718	-1.5103008	-2.8229284	-0.14695078	-1.9354397	-0.5807794	-0.835245	3.6729121	0.038730536	0.70404947	-1.1321955	0.13407382	-0.72649527	-0.5551538	0.12882522	-0.19277346	0.16839942	0.59290826	-0.6639062	0.2862101	0.35542172	0.06689019	0.14525907	0.4029211	-0.4380664	0.8692248	0.5541823	0.25933802	0.16972679	0.2954051	1.9221562	-0.066104904	0.04886967	0.15784034	0.27817738	-0.32981494	-0.13975014	-0.29197577	0.96605974	0.2144157	-0.002551302	0.19224574	0.38227057	0.7783304	-1.6310186	-0.48094547	0.7983112	-1.5475655	0.10971668	-1.1679132	1.498556	-0.37713838	0.48514858	0.5645299	-0.6176475	-0.06689231	-0.29679254	1.1573161	0.5170506	0.61324066	-1.5858667	0.09091092	1.012402	0.7388672	-0.28356388	-1.1388935	0.24582364	0.8681735	0.26759434	0.56089985	-0.062875114	0.3045005	0.12532672	0.5186118	0.030362917	-0.49123076	0.16054894	0.020301856	-0.18208025	0.3180314	2.9234102	-0.25121537	0.215756	0.2626608	0.37183076	-0.46999905	-0.68556744	-0.21539679	0.6133447	-0.08183176	-0.48197046	-0.58931226	0.7512212	0.4991882	-0.60125744	-0.8383224	0.6603536	0.25962868	0.1497233	0.3346455	1.0165383	-0.46747544	0.0017752615	0.047679927	-0.40506366	-0.48236474	-0.109577954	1.0541726	-0.23688418	0.67977595	0.40721974	1.225731	2.3807464	0.49704474	0.15474625	0.51292056	0.38797903	-0.009374486	0.3224434	0.07424719	0.76008534	-0.10037539	-0.0015497541	-0.11537814	-0.15743567	-0.057829186	-0.18043128	0.16949572	-0.38544124	0.42558178	0.036549963	-0.43519485	-0.46441382	0.07172913	-0.15385385	-0.47914758	1.6698635	-0.42997003	0.07443786	0.1375548	0.000824175	0.21711081	-0.69713384	0.044456232	0.30454046	0.56250554	0.26624474	-0.25376055	0.20697257	0.94270813	0.5300668	-0.3716193	-0.5185221	0.47944486	-0.22536899	-0.491689	-0.27076238	-0.45081055	-0.20160623	0.25631022	0.036932625	0.4112878	0.62482816	-0.06467172	-0.087779514	0.25697672	0.35703102	-0.2610816	0.41397086	-0.0644215	1.0171239	-0.046483062	-0.8364398	0.20037359	-0.19988678	0.045333985	-0.17350443	0.015268829	-0.06684172	0.41140398	0.4825593	0.26452032	-0.21052675	0.009679717	0.0032571547	-0.15915327	0.06772658	0.13750376	0.5138392	0.2449726	-0.3031097	-0.1075571	-0.05008064	-0.2666146	-0.08837218	0.9107195	-0.17481934	-0.060623243	-0.03524001	0.48905155	-0.0067265844	-0.30852246	-0.02597724	-0.07835643	-0.3041516	0.69946116	-0.44833252	0.49820983	-0.38443738	-0.059195008	-0.6436093	-0.25367036	-0.042405173	0.2951011	-0.07022056	-0.22277051	0.28087795	0.021869764	-0.30691668	0.10754897	0.06738599	0.53704375	-0.40948808	0.045536466	0.13231166	-0.1372648	0.49909478	-0.24508663	-0.5335451	-0.022884613	-0.81674707	-0.31365123	-0.21201837	0.2789781	0.10271752	-0.2400256	-0.28615072	-0.08116166	0.49051687	-0.014978044	-0.27797937	-0.7117498	0.115674995	0.21075524	-0.15076989	0.09932791	0.403903	-0.38262922	0.015774654	-0.29725772	0.74019945	0.07794692	-0.30869547	0.03786832	-0.40768218	-1.0454185	-0.05273408	1.0703361	0.18286139	0.1776879	0.016082672	0.112375215	-0.15841588	0.3479891	-0.27208304	-0.7425009	0.6323702	-0.27107835	-0.20981617	-0.18348031	-0.2654765	1.162977	0.41101468	-0.26379165	-0.38747716	0.30003014	0.11953881	-0.5491799	-1.1971006	0.18953586	0.057113923	-1.01632	-0.115996994	0.270349	-0.19472563	-0.14468947	-0.09431738	0.1368292	-0.045661602	-0.8703086	-0.8446403	-0.78630894	-0.17810993	0.39570355	-0.13969332	-0.6164091	0.4285011	0.41531473	0.26048476	0.05185243	0.111836165	-0.33085468	-1.2706325	-0.10490382	-0.9684447	-0.53566295	0.4288272	1.4762943	0.2615995	0.11745627	-0.68988943	1.5270561	0.53912777	-0.091764234	-0.28210777	0.375501	0.34460923	0.8417128	-0.31124574	0.6659004	0.4198561	-0.068499684	-0.46076643	1.5185971	0.44321218	-0.1845423	-0.21415375	0.3216202	-0.43220818	-0.002218441	-1.2184533	-0.07891394	0.029173225	0.37302554	-0.06313545	-0.56067306	0.15786964	0.709142	0.18041192	0.42619506	-0.41747016	-0.48768705	2.3522627	-0.07593234	0.08590952	0.73136705	-0.14943738	0.27316603	0.017416522	0.44498324	0.11887882	-0.70114404	0.123898685	0.77104956	-0.029824428	2.4743967	0.13902494	-0.6153787	0.45660856	0.18934764	-0.6153434	-0.03560026	-0.30996946	1.151817	-0.75026286	-0.6335691	0.9727215	-0.2797458	-0.673138	-0.0035638888	-0.29428276	1.7336962	0.43974072	0.58525294	-0.24587707	0.37806213	-0.6292346	-1.5610044	-2.4899974	0.93573624	1.3749588	-0.9603634	-0.5052155	1.3708575	1.1548611	-1.2797416	-0.42059973	0.75693125	0.97380537	-1.640174	-3.5117269	-2.8617964	0.7725481	0.9834076	-0.346431	0.018230006	0.5034804	-0.034646608	0.89660674	0.032854974	-0.25805834	-1.2931595	-3.004547	-0.23122156	-1.568341	-0.0051887077	-0.73032314	4.0761123	-0.024556274	0.4633633	1.6063282	-0.19302331	-1.0972275	-0.535397	-0.5456556	-1.3177538	-0.83035064	-0.10109937	0.5418361	-0.0014346725	0.8831735	-0.10317673	2.1502652	-0.61217755	0.43713054	0.037215553	0.7926633	1.2915993	1.0922779	-1.2765359	-1.6556307	1.6362772	1.1068228	-0.7008716	-0.531891	2.0217445	-0.32893732	-0.7411558	0.13814971	1.4891807	1.8161714	0.60339373	0.14465827	-0.56544447	-0.44580743	-1.383956	0.55386937	-0.28062114	-1.0815487	-0.7289248	0.24370813	1.6792787	0.77594113	0.60506564	0.81397176	-0.19736597	1.1823392	-0.9029868	0.07862084	-0.49733466	0.19449848	0.20893836	0.3752668	-0.018791806	0.011563653	0.18556504	0.5720013	-0.015178002	-0.39933315	-0.022086333	-0.8203656	0.6874857	-0.9462874	0.27529645	-0.057932436	0.09132766	0.06613295	-0.5978748	-0.34680387	0.16299622	-0.41227442	-0.53721005	-0.24474318	0.3208359	-0.14615463	-0.017468888	-0.009362049	0.20086107	0.095093995	0.13347614	-0.4704285	-0.91625655	0.49703002	0.2502722	-0.077753745	0.6344474	0.24687774	-0.17823276	0.033401717	-0.13135032	0.18169029	-0.55244774	-0.115721315	-0.16099302	-0.32483694	0.5240767	-0.44916332	0.48519075	0.28639776	0.16809142	-1.4064199	-1.0290976	-1.5161797	1.0024931	0.5839496	1.1291914	0.18321268	1.6435522	0.4723423	0.8626216	-1.36722	-1.3677076	0.069176316	2.8763454	0.29862118	-1.0461179	0.018125542	0.9570023	-0.72410595	0.5808591	6.8313375	-0.024261106	0.24268897	1.0892472	-1.629341	-0.25851652	-1.2579623	-2.1183875	1.235406	0.93552977	-0.10566315	-0.25254756	1.3235626	-0.62515706	0.28379107	-0.20470846	1.9469525	1.0965766	0.8107325	-0.7744761	2.4618666	-1.0681684	0.27714002	0.257532	0.117451504	2.9570353	-0.17698091	1.9594471	0.117915176	3.0323508	0.49869242	0.34707138	0.06142071	-0.36366004	1.401642	0.16311134	-0.81710094	1.0749131	-0.30878362	0.9440604	-0.50377995	-0.9926789	0.002746532	1.3399394	0.35171244	0.09194426	0.19293445	0.094473094	1.1001264	0.04277628	-0.04651729	-0.42392164	0.16163096	-0.30680823	-0.810538	0.5933879	-0.96917576	0.18027276	-0.2822717	0.87469786	0.4542399	-0.539791	-0.15684699	-0.48480532	-0.45994288	-0.22515662	-0.4321294	-1.7820452	-0.20140974	-0.2911364	-0.035498414	1.0292593	0.99265325	1.3332739	0.7704581	0.67292035	-0.5195584	-0.35971785	-0.07093547	0.488399	0.24481383	-0.18780607	0.077878594	-0.7101911	0.668082	0.13984463	-1.1136785	0.28067413	0.51765573	0.12123714	0.7343675	-1.611486	0.0036350072	-0.28077203	0.2824053	-0.38737413	0.5126699	1.5047076	2.362133	-0.81202483	-0.8773557	1.0481026	0.88367337	-0.88588244	-1.4151156	1.247476	-0.2184388	-0.38807604	-0.45498216	1.6025053	3.1945508	2.631921	-0.4831627	-0.9531246	0.2805839	-0.46793643	-0.34612575	-0.33166412	-0.86207986	-0.19045949	-0.04620397	1.1739736	2.4243002	0.106320776	1.4525961	0.34156597	0.36916634	-3.1934245	0.10316422	-0.45075393	-0.040933598	0.5654438	0.42685097	0.06269978	0.37423965	-0.6493931	-0.326771	0.25545934	-0.30150467	0.30467287	0.42749935	-0.46137038	-0.5148494	-0.092377245	-0.017216295	0.17495245	0.10273517	0.4023159	-0.19128205	0.15549804	0.5439079	-0.09023193	0.11095346	0.40238458	0.45436463	-0.14834209	0.6103073	-0.22966594	0.6781652	-0.015585656	-0.1312038	0.21908754	0.10461213	0.48979667	0.065077856	-0.021914491	0.028598864	-0.06029987	0.14501797	-0.3640335	-0.12752719	0.09352207	0.1827265	-0.022148453	-0.31428245	-0.36156878	-0.04292306	0.5937781	0.2500381	0.14996803	0.15827008	0.031588472	-0.07560515	-0.069997296	-0.18894371	0.27027804	-0.38834497	0.15657026	-0.085434794	0.14060433	-0.101576075	-0.7228236	0.26576006	0.27995935	0.3239599	0.20895875	-0.3680202	0.20681761	0.5725316	-0.09440166	1.001507	0.35554865	-0.049721055	-0.26737383	-0.21219043	0.017085182	0.06402105	0.3711828	-0.18983607	-0.28339723	0.20562541	0.5190083	0.14131539	-0.06808063	-0.48568982	-0.15568914	-0.03281843	-0.33944908	-0.09353963	0.34616846	0.323746	0.33725098	0.08096218	0.2859253	0.26596802	-0.59638697	0.10380704	-0.3295311	-0.18281247	0.10869746	0.07241603	-0.39507273	-0.57260764	0.61971253	-0.5343822	-0.21154344	0.93764913	-0.6279111	0.03337164	-0.27304906	-0.5227827	0.99574095	-0.28422245	-0.21471325	-0.2504949	0.16080791	0.52307254	-0.5408032	-2.0688353	0.63733906	0.2308675	-0.72628456	-0.30576462	0.8736935	1.0035876	-1.0631338	-0.8932029	-0.36362344	0.48599574	-1.3575191	-2.1265619	-1.7964069	-0.062067084	0.49926755	-0.028477836	-0.035046607	0.36509436	0.95639247	0.5519342	0.14751746	0.3656016	-0.52456355	-2.0253096	-0.43302768	-1.2216526	-0.096158646	-0.09159207	2.4954972	-0.21011956	0.31193587	-0.27521193	-0.17027454	-0.62466836	-0.20941576	-0.24757917	-0.06269137	0.10900224	-0.0017082782	-0.53336334	0.36441454	-0.08841179	-0.057919394	0.104593225	-0.18829949	0.4342695	0.45141724	0.029491488	-0.007937094	0.08515002	0.13102596	0.10196872	0.321437	-0.38433483	0.08890385	0.22476669	-0.06481126	-0.2618109	-0.06737006	0.3015211	-0.059056044	-0.19247949	0.16046081	0.010612354	0.12246152	-0.8750434	0.16443548	0.10602517	-1.2046785	0.018307243	0.041295934	0.28275952	-0.07245645	-0.15434384	0.24588282	-0.2462643	0.004761783	-0.15499616	0.28127483	0.11924232	0.23317882	0.05765764	-0.13256373	0.11413838	-0.19176751	-0.10855418	-0.42914796	-0.5142591	0.09155738	-0.0901349	0.019442523	0.79558355	-0.13128209	0.6750742	-0.4033626	0.19958538	0.050829623	0.23678336	0.16030183	0.19505347	-0.661782	-0.33091328	-0.12278684	0.049171224	-0.09421559	0.04504781	0.5581411	0.027955454	-0.46607998	-0.31897664	-0.045652445	0.46946126	0.76096994	-0.7953902	0.09444192	-0.037629265	-0.6341192	-0.2518587	-0.56093544	0.009796791	-0.094334394	-0.4539656	0.26104677	0.47249892	-0.04930813	0.057444874	0.006872515	0.65869516	-0.6131006	0.3198028	-0.2530108	0.21939716	0.23274365	1.0160254	-0.09273475	-0.04019478	0.55028576	-0.0059216	-0.26824287	0.08139666	0.11026306	0.2532556	0.62919354	-0.69002414	-0.43393445	-0.08616501	-0.26289076	-0.1754645	-0.10388108	-0.11352921	-0.19746971	0.17749946	-0.32934868	0.10762657	-0.2586393	0.06634334	-0.3067562	0.8715535	0.58236134	-0.09766259	0.037473686	0.079293765	-0.033520367	0.2106417	0.097636834	0.47714892	0.21675363	0.07135814	0.25815478	-0.11043183	0.48112518	-0.14493847	0.06837651	-0.1945039	-0.004694209	0.21484697	0.44063425	0.14869611	-0.35573927	-0.23393326	-0.04517656	-1.3806391	0.7094622	1.1619576	0.14156292	-0.15568875	0.26259923	0.22389118	0.034250706	-0.034989737	0.18815233	0.27567947	0.06646009	-0.5525182	0.3854169	-0.24093732	0.17677192	-0.12888592	0.06669443	-0.06847292	-0.15188101	1.887302	-0.021309964	0.034278814	0.04428273	0.038738694	-0.31577086	0.007423252	0.47753316	0.22422233	-0.14485246	-0.12742947	-0.39498517	0.3892398	-0.13825728	-0.42435715	0.9531046	0.22621915	-0.1861424	-0.119781345	0.3506361	-0.11943933	-0.18638562	0.29142204	0.012587726	-0.041404128	2.2385285	-0.22316642	0.9901477	-0.2632718	-0.07709899	1.2888532	-0.054292876	-0.7690191	8.266068e-05	0.4454093	-0.007422952	-0.79881126	-0.16195562	0.66553795	-0.66778785	0.8701848	-1.5207543	1.0440317	0.04820983	0.32097435	0.21303427	0.45559046	1.034712	1.3537818	-0.058229666	-0.62622076	1.5048631	0.38071913	-0.61713034	0.7369405	0.2881755	0.421052	-0.11445223	-0.4327784	0.88234293	1.8368474	2.8852403	-1.1968175	-0.1609239	1.2512845	-0.30197328	-0.5374671	0.2658278	-0.12644523	-0.1323507	-0.905908	0.13378966	1.1444681	0.20527792	0.92636377	0.012114231	0.924149	-2.3393285	-0.14502649	-0.49839115	0.24881694	0.17995319	0.08265462	-0.8523212	0.84053224	0.32299888	-1.0215957	0.10919378	0.86145574	0.012387561	1.0853488	-1.6900187	-0.19827355	0.115144	0.30375677	-0.2659012	-0.16100578	1.1165792	2.2177377	-0.2554664	-0.5544943	1.9330161	0.84411126	-0.93453926	-1.3757533	1.0521896	0.7749314	-0.07054415	-0.42160824	2.1028981	2.27402	2.7051764	-0.39741385	-0.80404115	0.22609802	0.22638147	-0.806804	0.43227154	-0.613005	-0.14757161	-0.936246	0.68385404	1.9995166	0.16073118	1.5690976	0.19554187	0.32031888	-2.6854708	-0.13457084	-0.14609763	-0.28106037	-0.04667968	-0.84670544	0.37057224	-0.44404522	-0.2561138	0.3472436	-0.2867209	-0.36161906	-0.12566914	-0.34591052	0.91890985	0.44652438	-0.102556355	-0.05365792	0.34156594	0.05727468	-0.69479513	-1.4994284	0.5971487	0.24646837	-0.18329032	-0.5850942	0.54088265	0.79000413	-0.10299324	-0.05454036	-0.48676476	0.6740484	-1.0974123	-1.9975742	-1.9709821	0.2517125	0.6684553	-0.32724524	-0.014613881	0.21014391	-0.28063974	0.60919464	0.27821708	0.41140202	-0.51469994	-1.8865471	-0.5931717	-1.1021343	-0.05873394	-0.2718787	2.6828732	-0.21425137	0.18261546	-0.113027416	0.23644838	-1.4812212	-0.1758351	0.48701566	0.8153838	-0.2682124	4.417966	-2.1347637	1.5085366	-0.06381305	-1.2075068	0.045689005	0.39839333	2.0398872	2.8826106	0.9035384	-1.3551012	0.43156165	0.36439848	0.021609312	0.053572144	0.54831403	-0.9288671	-0.076769404	0.7560925	-4.4529405	-1.2222573	1.4571568	0.546112	-1.2137877	-0.18865594	0.47279063	-0.27340204	-2.162837	1.435602	-0.1525609	-7.129585	1.320843	-1.3883387	0.5820401	0.10204435	1.7078811	5.991003	-1.2017329	-0.5446806	-0.25647175	0.2079135	3.5233982	0.55152935	-0.27351317	0.2787689	-0.47467145	0.13833232	-1.0381247	-0.59033144	0.076615594	0.16399984	-0.42274323	0.5519111	0.370387	-0.43564084	0.7479861	0.067406386	0.13230199	0.1349714	0.08542242	-0.076943025	0.13577609	-0.020581024	-0.013528834	0.37940127	0.53495115	-0.107486516	-0.18477541	0.15938826	0.511429	0.18176596	-0.3068927	0.039966937	0.17307761	-0.023243058	0.043692127	0.16005461	0.3132108	-0.23755148	0.17321207	0.108569294	0.16882125	0.279457	0.7499562	0.07500697	-0.078478076	0.2388068	-0.07840375	0.41434288	0.20715441	0.49450576	0.032428175	-0.034840077	1.0039711	0.26533586	-0.29367027	0.561766	0.36175555	1.2164887	0.44294867	0.80673844	-1.1247015	-0.34294608	0.5209527	0.9015626	-0.4611778	0.9562855	0.24364153	1.2519559	0.43961748	-0.17180505	-0.39105618	0.44100723	0.9435907	0.15556256	0.2524085	-0.15304208	-0.4460897	0.48822534	-0.7481602	-0.16565727	0.04618957	0.074097015	-0.36823794	-0.21694794	-0.035853866	-0.08282578	-0.65965015	1.2366768	0.6233396	-1.8983984	-0.0483787	-0.40021825	-0.915967	0.08396527	0.16017091	0.2641803	-0.506402	1.1583806	-0.30768526	0.2078901	0.88211447	0.045521777	-0.069759265	0.21003239	-0.099922925	0.39085692	-0.31417784	0.2164739	0.9096233	-0.332272	-0.45951357	0.02735328	-0.6258576	1.3446089	-0.8497406	0.09279045	-0.5078883	0.21311739	0.18534781	-1.3255159	-1.8498871	0.89574426	0.21534395	-1.1572347	-0.58522916	0.8880023	0.4254224	-0.65320367	-0.19259776	-0.0114825675	0.5641428	-0.9996366	-2.7013464	-1.9158554	0.7438012	0.74283445	-0.12395634	0.5877897	0.19832116	0.19928251	0.82375896	0.19900529	0.26063895	-0.99119586	-2.4165092	-0.6259874	-1.1935824	-0.7935227	-0.6415411	2.5918126	0.12389944	0.37257862	1.4374658	-0.1888021	0.05795508	-1.3989323	0.74911714	-0.17454268	-1.2639817	0.26203984	0.7868664	-0.1538453	1.1586072	-2.2852862	0.6004156	-1.0743521	0.37930813	-0.28182462	0.775096	2.3679364	3.2506723	-1.3694938	-2.384912	1.5941317	0.7121341	-1.440292	-2.0816329	2.2337692	0.10605058	-0.62379485	-0.7277275	2.3238673	4.7170153	3.077127	-1.0517937	-1.5504267	0.2869497	-1.0091043	-0.27807307	-0.7481228	-1.1732932	-0.34107292	-0.47566947	1.9965907	3.6641273	0.3790939	1.8732148	-0.25760892	1.4971172	-4.1839104	0.25022492	-0.3203746	1.7530844	-0.35003808	-0.7230009	-0.76542556	0.36319917	-0.44447798	-1.5743935	0.20736773	0.83611554	0.09199088	1.0388687	-2.5217059	0.74911135	-1.1155175	0.6426784	-0.39227805	0.9638125	2.7161193	3.1434846	-0.7666699	-1.6078832	1.8565389	0.96785396	-1.1883845	-2.1225078	1.7845986	-0.5383875	-0.9572941	-0.6367613	1.9428364	4.4476395	3.5016677	-1.3741971	-1.2536945	0.6667314	-1.4125386	-0.30058601	-0.31871894	-1.1388979	-0.43088686	-0.47094658	2.1853988	2.6682718	0.14717816	1.9290205	0.14215751	1.3300467	-3.8995156	0.041604236	-0.36510837	-0.56996316	-0.21019979	-0.37097993	0.21007147	-0.1665806	-0.58225584	0.11549825	0.7697962	-0.48694903	0.24165241	0.7778932	0.62329817	1.6950804	-0.53552514	-0.007144466	0.47425598	0.5414317	0.35919195	-0.6472131	-0.5996639	-1.3511453	0.22086775	0.06938378	0.20543818	0.93031037	0.33562618	-1.2509824	-0.046433225	0.5939385	0.20706514	0.45891622	-0.068710476	-0.04999499	0.28003967	-0.54703665	-0.33543253	0.37933385	-1.4472336	-0.007974748	-0.4204213	0.053815093	0.15668653	-0.43880674	0.7806197	-0.8147545	-0.15269056	0.05501356	0.4378979	0.42006108	0.34014627	-0.36520436	0.23593509	-0.098544784	-0.41688272	-0.20985694	1.2908586	-0.039262023	-0.4226509	0.24261828	0.25306153	-0.156551	0.027203547	0.11733148	-0.13430558	0.05923356	-0.0061617643	0.23841304	0.21881029	0.19600138	0.14360273	-1.0005723	-0.17934178	-0.53350335	0.405607	0.2407658	-0.13321505	0.17664261	0.21255329	0.36989835	-0.32814455	0.66233927	0.1329711	0.5619977	0.31844535	-0.06779157	1.0380355	-0.0018516209	-0.064493254	-0.05439659	0.34683096	0.9635208	-0.57366884	0.028586863	-0.3188438	-0.45742536	1.6106085	0.16792633	0.4616739	-0.18435946	0.14190593	0.086076796	-0.44824192	0.4702145	-0.40473816	-0.341983	0.03519081	-0.015362406	-1.1020536	1.1629539	-0.018968616	-0.25098702	0.112751335	-0.04360824	-0.084691994	-0.964113	-1.4509546	0.27258453	0.15356606	-0.17259514	0.30319604	-0.046337094	-0.30440474	-0.52753764	0.16201048	-0.23928015	-0.026374476	1.3025174	-0.089958176	0.00030963938	0.09145596	-0.46333566	-0.04695929	-0.07337509	-0.07913187	1.1489638	0.11609079	0.010834821	2.030331	0.03629054	-0.22169907	0.11215468	0.0460159	-0.28821358	-0.5998339	0.32536745	0.2439242	-0.0288654	-0.45127916	-1.1650872	0.17404227	-1.012916	-0.21857356	-0.7506413	-0.18608211	-0.039372377	-1.000843	0.013687583	0.10895325	-0.19797046	-0.26363006	0.1188028	0.04309818	0.66741353	-0.021190632	-0.12940483	0.05516147	-0.15926975	0.066582106	0.1110481	-0.31152955	0.39741486	0.10536778	0.24053752	-0.22935939	-0.025795799	-0.027141623	-0.11353894	0.09502146	-0.25134477	0.19546784	-0.07029446	-0.34514105	-0.06446642	-0.24615386	-0.48439717	-0.45425355	-0.22087617	0.120838724	-0.1567814	-0.33106422	-0.8933309	0.037036754	0.23494159	-0.042566646	0.22674392	2.149427	-0.020025998	0.62006795	0.009227803	-0.29499716	0.66847515	-0.12910905	1.0445905	0.45108774	-0.01569327	0.34696412	0.23876393	-0.3409043	0.062327743	0.06338286	0.30534682	-0.33684576	0.08401872	0.007594984	-0.23745957	-0.19246788	0.06499975	-0.08013835	-0.29210177	0.045774687	0.14826158	-0.56900007	-0.41846266	0.40259415	0.52772164	-0.7179514	0.11455948	0.0064171064	0.33870867	-0.18122211	-0.15291177	0.0033020682	-0.45690778	0.35313347	0.52701837	0.18906128	-0.12178455	-0.19814269	0.23450372	-0.12637311	0.53375727	-0.31721237	-0.09875543	-0.12685274	-0.31747898	-4.9463086	0.12442332	-1.0762271	0.06697091	0.5424594	-0.39676577	0.8448431	1.2301568	-0.18732409	-0.047433868	0.10341805	0.15314712	0.0031498526	0.32373774	0.058123887	0.57129884	0.38676953	-0.31325343	-0.26521435	0.23580661	-0.094840236	0.93077755	-0.13601473	0.22635749	0.20083843	-1.2700162	-0.06346961	-0.25163183	-0.10455935	-0.20658596	0.24667917	0.16059211	-0.42009714	-0.18771161	0.22834085	0.0034924897	-0.054916255	0.0383029	-0.0059598987	-0.34352866	0.044531666	-0.12701578	-0.15384993	-0.062257715	0.9897291	0.24643698	0.32859138	-0.09003673	-0.19294347	0.053166803	-1.5379599	0.026380578	0.06693721	-0.19704422	-0.16607101	-0.11331225	0.6638195	1.2738837	-0.0074335206	0.12034035	1.6660511	0.06881495	-0.38719976	0.25004253	0.08919164	1.0899707	-0.12188386	-0.68771225	0.19187705	-0.1395682	-0.10934468	-0.11499128	-0.45768866	-0.080039516	-0.029992245	6.988143	-0.29650372	-0.5854598	0.40477952	0.52887785	0.07398937	0.7726529	0.37834042	0.2071884	-0.2281309	-0.50143427	-0.12059813	-0.007062475	0.23076744	-0.20708051	1.7418776	0.4824945	0.082496434	0.37282816	0.6265942	0.69468355	-0.15672529	-0.32891685	0.06617965	-0.19374698	2.2512271	-0.14410993	1.4253124	-0.12572011	0.5998563	-1.5175426	-0.5889235	-0.6091044	3.81547	0.04487596	0.4337645	-0.87106675	0.6558658	0.35804856	0.48528656	0.24458873	-1.9736743	-0.123528846	-1.2281147	0.23928875	-0.41694742	-0.25870803	0.515835	-0.72754073	4.018902	3.3888886	-0.39337435	0.19201757	1.6625725	1.4147565	-0.32683328	-0.7897595	-1.2179376	0.76001275	0.89093566	-0.02025458	-0.6146489	1.3174242	0.51187706	0.93146485	0.57113093	0.78929543	-0.82564443	0.47493458	0.6494363	1.4659188	-0.7163867	0.06542229	0.697763	-0.24929805	4.4909477	-0.17644748	-1.1023518	0.09748721	0.33654967	-0.34041414	-0.123229325	0.054144483	0.34340566	0.21961437	1.2922325	0.32630554	-0.11681316	0.41991434	0.21160942	-0.5308848	0.62217176	-0.69937974	0.122949235	-0.06269954	-0.20666766	0.070652485	-0.022412995	-0.22313468	0.38173178	1.0660033	0.20317829	0.17565258	0.101021074	0.115779385	-0.36143026	-0.045705713	-0.105418295	0.39220604	0.0545999	-0.47037157	-0.26714882	0.55980617	0.010594847	0.18417625	1.1752989	0.13111416	0.8030469	0.10358656	0.15438305	0.5027818	-0.19426437	-0.10804982	-0.0887876	-0.010000104	2.4436939	-0.52000535	-0.039580535	-0.32603335	0.27113095	-0.45655	-0.19858125	-0.7364277	-0.12513351	0.18492387	-0.44028586	-0.3120716	0.11168004	0.5044661	0.20996651	0.03564558	-0.19931692	0.851633	-0.21782258	-0.07280524	-0.1130495	-0.30653322	0.55479187	0.5017471	0.13289715	0.8218763	0.6108357	0.29842046	-0.42669111	0.021973314	0.28348568	-0.38216904	-0.32677105	0.3103627	0.621877	0.40120962	0.2182629	-0.35830238	-0.14211096	0.13637789	-0.49809808	0.2481652	0.19569579	-0.22724187	-0.11381218	0.35239446	0.19013251	0.50078535	-0.11663653	0.22478636	0.9789262	0.23012336	-0.3874523	-0.46080232	0.08972189	0.4488353	-0.15944977	-0.32797933	0.307891	0.28330725	0.016255926	0.18531826	-0.031972565	-0.37457204	-0.06471075	-0.084304534	-0.16491003	-0.43657747	0.39602268	-0.23531635	0.34918323	-0.30023044	-0.13201237	-0.114907846	0.3013995	2.850121	0.24213907	0.045244392	0.0046336926	-0.0052643586	-0.5797518	-0.01837284	0.64861435	0.17283686	-0.19437502	-0.18356974	0.265411	-0.15648796	-0.093058184	-0.06400005	0.0747397	0.10650818	-0.39261693	0.2886156	-0.26610416	-0.041035406	-0.65241486	0.00024101514	0.030903794	0.052513972	4.3204527	-0.19892865	0.005752637	0.11054701	0.25065595	-0.078104354	0.47657913	0.7863614	0.37417296	-1.1752284	0.032496538	0.55714566	-0.6283979	0.14009568	-0.45587757	0.62549096	0.7467507	-0.45997557	-0.63438654	-0.033302177	0.02809355	-0.1999819	0.13673528	-0.573345	-0.12137785	0.014735339	0.099255085	-0.25921065	-0.14565507	-0.07362426	-0.48983774	0.21532129	0.088357575	-0.6597858	-1.1910467	0.25574142	0.21336554	-0.43629304	0.3030284	0.37095132	-0.7626554	-0.54159427	0.54790723	-0.27863458	1.0958904	-0.416539	-0.35540262	0.23485951	-0.24370305	-0.35793874	-0.9101965	-0.1366639	0.1813487	0.14768744	-0.5157651	1.2189139	-0.31289187	0.5538014	-0.46320787	-0.8189907	-0.34346503	-0.38742918	0.2150687	0.020009384	-0.45703968	0.27904543	-0.43179852	2.6564777	-1.0681669	0.007221279	0.031944226	0.39594844	1.1219398	0.592772	-1.2360443	-0.9997892	-0.7098877	0.37667227	0.066610985	0.8058498	0.7275922	-0.20344606	-0.47975987	-0.42499143	-0.20852013	1.6759671	0.44643363	-0.2559855	0.28451133	0.6593984	-0.76731074	0.6077703	0.08187498	-0.50073546	-0.18104011	-0.4356345	1.7340056	0.33362707	0.12686796	0.024028983	0.08033808	2.252294	-0.90879524	-0.15092544	0.14095318	-0.18758437	0.26917747	0.12668662	1.2756453	-0.57845217	0.093628794	1.396656	-0.6409683	-0.58478373	-0.21133402	-0.9484482	1.9912932	-0.9516271	0.74388343	-0.21175697	0.47339937	-0.39985335	-1.8006368	-2.8374217	1.501215	1.498057	-1.2456076	-0.9920384	1.3874215	1.5420835	-1.7004075	0.22748849	0.41409963	0.8441808	-1.8729842	-3.7552493	-2.852149	0.3793387	1.2177738	0.01583023	0.55567455	0.44785845	0.2924986	1.0914445	0.17920509	0.10007138	-1.8025786	-2.8701398	-0.403374	-1.7549027	0.09366241	-1.0716612	3.2832363	-0.18450981	0.47011247	-0.07840444	0.087296456	0.47641617	0.6477887	0.004924505	0.39600012	0.28932938	-0.26174608	-0.17731243	0.094908565	-0.3152356	0.66500103	0.17155471	0.32282764	-0.31036004	-0.10136127	-0.355601	-0.28432298	-0.23862714	0.09565288	-0.108751945	-0.3936418	-0.0738187	0.048169475	0.0986646	0.43205175	-0.11455409	0.16832142	0.17964803	-0.33339435	-0.096133776	-0.31608835	0.26163873	0.16416517	0.48365265	0.20699044	0.30105245	-0.08750542	0.29043975	-0.1837568	-0.35348523	-0.075721845	-0.05638071	-0.023180028	-0.17995146	0.072510295	0.26884496	0.32878327	0.035157196	0.1951784	1.0416329	-0.30570105	-0.76855546	-0.32460806	0.5900522	0.25892094	-1.0421153	0.709121	0.28790152	0.21730779	-0.21394661	-1.4860705	1.402708	-0.28106084	0.32478246	-0.3862902	-0.3985151	1.2759567	1.9027013	-1.0654415	-0.7184708	0.6301419	0.5188284	-1.0151731	-0.353875	1.2945653	0.11142558	0.2958933	-0.58174664	0.93752795	2.9075103	1.7763418	-0.5645713	-0.526156	0.044396892	-0.5664268	-0.046230916	-0.65988517	-1.0393382	-0.5101596	-0.6021875	1.2002523	2.0057106	0.64199877	1.1746525	1.1515113	0.5100277	-2.6878579	0.052037608	-0.3658375	-0.28477648	-0.33237433	-0.3906382	-0.16155656	0.27403885	0.4337547	-0.14594889	0.06720912	-0.030254468	-0.1717044	-0.35329574	-0.44433606	-0.8670031	0.40533796	0.22067203	0.035509594	-0.35540748	0.06136939	0.13261497	0.13601457	0.37462708	0.36986896	0.17999844	-0.051393274	-0.4285724	-0.16744551	-0.31838438	0.07551349	-0.21067779	0.19246931	-0.12169722	0.2992738	-0.14911729	-0.28009963	0.1319692	0.49440438	-0.30441022	0.025515758	0.058070097	-0.20928012	0.02291456	-0.19336736	0.5407758	0.09472961	0.23547854	0.14325434	-0.3234234	-0.6050566	0.21947756	-0.20711477	0.5152222	0.49261147	1.1359979	0.9647432	-0.34923267	1.5613188	1.6049343	-0.05584649	0.14117493	0.3955682	-0.3442705	0.3287838	-0.44960037	-0.12512396	-0.08678795	-0.1666267	0.4956799	0.37357432	-0.05148019	-0.061454993	1.7695475	-0.40009403	-0.26806307	0.37901834	-0.10623499	-0.10896022	-0.6779525	3.4098146	0.17805052	-0.27608955	-0.026279934	0.09277777	-0.36946464	-0.079490036	0.17549153	0.8188536	0.32489634	-0.22099127	0.04458497	1.0930283	0.16135669	0.1426831	0.017970817	0.1575504	0.187973	-0.59072244	0.14825122	0.77711636	-0.3732949	0.35489568	1.1811374	0.17005043	0.46817982	0.22689386	-0.16267815	1.8888984	0.013541892	-0.38821915	0.17338917	-0.13187425	0.62524515	0.062355056	-0.51256454	-0.13558611	-0.194	0.06452041	-0.05656201	0.027293995	0.0091708	-0.07831635	-0.087330416	-0.019004371	-0.20076986	-0.035984773	0.055919908	-0.15602645	0.86547166	0.7224404	-0.04309159	-0.043647233	0.17715704	0.059655685	-0.21472797	-0.01604117	0.6134403	1.5051054	-0.12759396	-0.19339988	-0.03493933	0.31754676	-0.28096256	0.003226199	0.14339483	0.058762837	0.004382757	0.21471567	-0.062754035	0.54302144	-0.09230554	-0.07787476
-0.9437402	-3.6400836	-0.015922105	-0.33897263	0.34315518	-0.49226338	-1.254387	-0.72332263	-0.3522266	-2.9649954	-0.68528605	-0.81755906	-0.1263725	0.17505455	1.3418943	0.12774114	0.20593028	-1.2491443	-0.12211759	0.41667256	-0.44041398	-0.86089545	0.91940504	0.56565183	-1.3606439	0.00061800925	0.20398216	0.030679993	-2.0306566	1.009359	0.5531417	-0.46646503	0.20455897	0.06516385	1.2087419	0.058867216	-1.4063818	-0.4217352	-0.21251732	-0.32725197	0.28578004	-0.5613212	-0.24274747	-0.63042516	-2.8595157	0.2915964	0.93260944	-0.0004205208	0.18518734	-0.20160428	-1.2316965	-4.4623404	0.03992258	-0.23582193	0.42668194	-0.31523156	-1.4767613	-0.53181875	-0.37640324	-3.1665084	-0.37257874	-0.71808076	-0.12012303	0.19432922	1.3198236	0.20992272	0.24303395	-1.6186135	-0.028903037	0.3506997	-0.35006303	-0.9358028	1.056202	0.71725994	-1.0010476	0.005659677	0.18108608	0.032760646	-1.8141131	1.6798769	1.239316	-0.7638439	0.10924717	0.039592937	1.4717169	-0.014268736	-1.6897367	-0.3021779	-0.15825117	-0.40592512	0.24258538	-0.8955078	-0.36061186	-0.5933675	-3.3345416	0.50479114	0.9363225	0.08421721	0.24665831	-0.42804483	-1.3264195	-4.627586	0.053687114	-0.18218122	0.45324224	-0.23864289	-1.5458658	-0.4240406	-0.3654913	-3.3357387	-0.1687696	-0.6867072	-0.08930335	0.24088407	1.3219787	0.23648751	0.25523803	-1.853548	-0.013520005	0.33371556	-0.31129456	-0.9765984	1.0654466	0.8577005	-0.8493903	-0.015544685	0.19961637	0.03128904	-1.7190723	1.8573679	1.5240498	-0.8493548	0.07642906	0.022072833	1.5907751	-0.03289084	-1.7813597	-0.2571829	-0.13219415	-0.45335042	0.20283344	-1.0205923	-0.38789883	-0.50031894	-3.3465066	0.5865313	0.8789385	0.1004583	0.21933062	-0.55181223	-1.3851582	-4.9003077	0.067018755	-0.15710106	0.47276282	-0.20631382	-1.6285616	-0.43177816	-0.3681874	-3.3417265	-0.0011674298	-0.66053146	-0.091771305	0.22432697	1.3649858	0.23867655	0.25160027	-1.9242563	0.010418621	0.28188828	-0.30571422	-0.9875358	1.0661632	0.889142	-0.7749563	-0.010466934	0.19818404	0.021188851	-1.6207168	2.1492965	1.6898108	-0.91629416	0.07842084	0.0026584729	1.6379812	0.010823182	-1.9093602	-0.23479116	-0.11825222	-0.45531029	0.16538961	-1.0752578	-0.46679625	-0.43644908	-3.2881153	0.63965434	0.84665173	0.16273555	0.23399755	-0.57673335	-1.4441484	-5.1225305	0.08947584	-0.12204049	0.42976844	-0.16431001	-1.7038643	-0.37196034	-0.3954163	-3.4274886	0.21913968	-0.62911123	-0.0746238	0.26479146	1.3181626	0.22854777	0.25260216	-2.0850346	0.04366163	0.23690459	-0.28845	-0.9747038	1.0551512	0.9312414	-0.7260484	-0.011285284	0.11947053	0.021965444	-1.4122872	2.3176544	1.9021974	-0.97806185	0.087715186	-0.004178153	1.7149965	0.019259986	-1.9490601	-0.18975125	-0.079789266	-0.45077252	0.1634959	-1.1846616	-0.49143144	-0.35480762	-3.2478406	0.70550305	0.79054976	0.30044702	0.2936987	-0.62952226	-1.4679663	-5.301127	0.08873424	-0.11010629	0.4142301	-0.13830706	-1.753579	-0.41356647	-0.38439816	-3.4682655	0.45134014	-0.5754255	-0.05190849	0.24483016	1.3474035	0.21183228	0.25739992	-2.2489889	0.052894335	0.18398438	-0.26432264	-0.9770981	1.0680584	1.0017924	-0.6414292	-0.008409638	0.21056013	0.034439273	-1.206129	2.5334988	2.0425923	-1.0325603	0.13117397	-0.026911262	1.7282393	0.05980945	-2.0474758	-0.1566764	-0.075472705	-0.44560006	0.15867004	-1.2326851	-0.5536333	-0.28043583	-3.127014	0.7476894	0.74971056	0.4370077	0.23983267	-0.6333494	-1.4762683	-5.4454546	0.11721637	-0.10402609	0.3290477	-0.14083959	-1.8136933	-0.4248124	-0.46168318	-3.4370434	0.59372306	-0.53137386	-0.028056696	0.30351332	1.2855874	0.17377448	0.25641012	-2.3144674	0.085597984	0.10693873	-0.25021583	-0.94554865	1.1018025	1.0016092	-0.6440888	-0.0055960007	0.1682232	0.062763944	-1.053826	2.6407518	2.2110732	-1.0835974	0.23896945	-0.013893289	1.7526283	0.08049243	-2.0369735	-0.11948753	-0.0493331	-0.3655725	0.16533147	-1.2944019	-0.57658666	-0.19135761	-3.0971775	0.7829065	0.7439715	0.7035919	0.36895046	-0.64315915	-1.4311969	-5.493939	0.120099045	-0.07178836	0.16298404	-0.1641684	-1.8216214	-0.5971903	-0.51102805	-3.2835093	0.74934715	-0.40909544	0.036026306	0.33522373	1.2340996	0.124355055	0.25444424	-2.4080002	0.12888199	-0.0064453655	-0.14446387	-0.86619425	1.0534875	1.0578172	-0.6667728	-0.029916063	0.24057385	0.13770607	-0.982344	2.7548459	2.3375947	-1.1758772	0.41194594	-0.0037848703	1.7460234	0.064364895	-1.950547	-0.042739283	-0.013705568	-0.2852768	0.19390357	-1.3643258	-0.6226371	-0.10135008	-3.1203866	0.8362803	0.7022369	1.2764447	0.32995477	-0.58572805	-1.3574804	-5.4968123	0.1463764	-0.028831925	-0.070315644	-0.20777233	-1.8491198	-0.8316399	-0.65969414	-3.1319125	0.77991146	-0.2141168	0.098221466	0.3893087	1.2426	0.049790792	0.25630677	-2.4710104	0.22810303	-0.2095896	0.019051574	-0.77932334	0.9815695	1.1169099	-0.7883899	-0.046051484	0.26818207	0.24951616	-0.80212337	2.863062	2.4062018	-1.2899959	0.7187224	0.04619473	1.774967	0.07306575	-1.7679338	0.10845082	0.020610262	-0.1438415	0.2313736	-1.4379872	-0.68948895	-0.089702725	-3.1522813	0.92789197	0.64335966	2.243604	0.43637884	-0.4939433	-1.2822362	-5.034542	0.17681918	0.00984016	-0.24748778	-0.2574311	-1.8136327	-0.9564146	-0.7196258	-2.9723103	0.73614824	-0.029348785	0.15605852	0.4280535	1.2240278	-0.009909599	0.27749416	-2.475226	0.25845668	-0.30635282	0.122180104	-0.73939776	0.88301533	1.257475	-1.0462017	-0.046384305	0.20072256	0.3213352	-0.9485943	2.9545085	2.3569024	-1.3926623	0.90003395	0.09307367	1.774052	0.029337645	-1.4899641	0.19466123	0.037330914	-0.071994156	0.30637544	-1.3975879	-0.6738699	-0.14567158	-3.2018757	0.9616144	0.71429974	2.8416636	0.48112953	-0.41970775	-1.2831869	-4.9019775	0.21049757	0.071452215	-0.2858953	-0.17719175	-1.7945334	-0.9732694	-0.77101326	-3.0360115	0.69377655	0.10141615	0.18625921	0.45195174	1.2662547	0.022207556	0.32399693	-2.6664066	0.26943785	-0.327038	0.20047452	-0.868042	0.8096488	1.3552125	-1.1469817	-0.04706451	0.31349355	0.3286473	-0.86616296	2.9746614	2.373706	-1.4173459	0.94932544	0.10548361	1.8103356	0.041005608	-1.46637	0.20950428	0.035851024	-0.09583445	0.37352663	-1.3857944	-0.61282134	-0.24265373	-3.22401	1.0087717	0.57657844	3.0117483	0.5853533	-0.47118026	-1.2490219	-4.837341	0.20070113	0.04604113	-0.36761907	-0.28118742	-1.7666677	-1.0651782	-0.7995323	-2.9325597	0.55192745	0.10244287	0.17948498	0.47449705	1.317732	-0.04562478	0.332453	-2.514532	0.28207144	-0.39231375	0.23635183	-0.72592044	0.7306552	1.329981	-1.1959473	-0.04265196	0.28683484	0.3931944	-0.93714714	3.027557	2.3145664	-1.4620421	1.0535754	0.1462269	1.8217298	0.022043591	-1.2519649	0.28592023	0.0224974	-0.011471831	0.3569187	-1.3840401	-0.6218392	-0.3474788	-3.1768467	0.97317654	0.76253057	3.343308	0.56760377	-0.4160889	-1.1746591	-4.5274563	0.20723706	0.07774072	-0.49344784	-0.30923304	-1.7613136	-1.2698791	-0.81399035	-2.784554	0.5762946	0.24683633	0.19138668	0.431107	1.2463187	-0.08163234	0.3023164	-2.4947948	0.32686117	-0.471448	0.3383905	-0.6869824	0.7426655	1.3771222	-1.3303477	-0.04839197	0.18526016	0.43306813	-0.9826517	3.160059	2.2361226	-1.5712469	1.1712596	0.15649581	1.8163282	-0.0657382	-1.1041787	0.3645738	0.06979445	0.006886343	0.35888588	-1.3687027	-0.66439176	-0.3540551	-3.347643	1.036732	0.7878818	3.8066525	0.5003833	-0.35481033	-1.1653131	-4.133066	0.22267675	0.11064002	-0.5621198	-0.30735886	-1.6465657	-1.2813001	-0.8146611	-2.831689	0.4648935	0.3321274	0.24929188	0.44124597	1.4203526	-0.06673177	0.35834408	-2.6130583	0.30798557	-0.461614	0.42213225	-0.7649093	0.4963499	1.5505738	-1.5592227	-0.033503793	0.26427433	0.46783677	-1.0751473	3.1238072	2.1518874	-1.5777522	1.2502046	0.18994915	1.8329222	-0.08120562	-0.90310425	0.39697894	0.062434226	0.020517074	0.41986912	-1.2734838	-0.56696475	-0.54340917	-3.2406623	1.0315064	0.7323338	4.0469956	0.5181725	-0.35877663	-0.97246623	-3.3704093	0.2099007	0.08656619	-0.72006536	-0.47424725	-1.492751	-1.4998602	-0.75468135	-2.4882336	0.49693233	0.4112481	0.21168764	0.5037932	1.4863691	-0.21087824	0.37858474	-2.4462106	0.17970307	-0.39911345	0.38064694	-0.6727272	0.49340242	1.6846441	-1.9215541	-0.076578304	0.10410767	0.51337254	-1.4776026	3.0915115	1.8548589	-1.4468217	1.3446529	0.2731228	1.7015985	-0.20672141	-0.46752796	0.32972726	0.05609675	0.14039205	0.32895333	-0.9610404	-0.4766982	-0.5137848	-2.9580417	0.8266387	0.97528845	4.0960727	0.47817448	-0.30529946	0.13355727	-2.0163937	0.13616107	-0.008217317	-0.8193718	-0.7767097	-0.6399197	-1.8396839	-0.5237358	-2.1375377	0.39364892	0.3055074	0.24240775	0.36871317	1.6268201	-0.34820813	0.45696518	-1.608556	-0.14961137	0.3468677	0.2690352	-0.3637855	0.58254975	2.0587983	-1.9241502	0.09252461	0.19449088	0.3476189	-1.0892202	1.6814624	1.1959493	-0.6080201	0.85182273	0.5125636	0.8775835	-0.7248472	0.13936521	-0.19219722	-0.12890047	0.52577424	0.1595199	-0.2342709	-0.306574	-0.234396	-1.6389484	0.10618995	1.1720158	3.536631	0.2734403	-0.2950389	0.031985715	0.68098783	-0.1850086	-0.5971846	-0.019784573	-0.5582498	-0.549975	-1.4589138	-0.47323164	-1.7819318	0.014027537	-0.86045563	-0.56595707	0.21471055	0.81524926	0.2531194	0.21336555	-1.1934305	-0.4103606	0.7422713	-0.2693958	-0.46583673	-0.09710059	0.12940913	-2.4423976	-0.040492967	0.34974986	-0.09488806	0.36238	0.034948774	-0.5832626	0.28855923	0.103428274	0.050225176	0.7773179	-0.32232013	-0.13617338	-0.6744914	-0.5595571	-0.75607955	0.24150649	-0.19691642	0.6515052	0.037703305	0.29706708	-0.18826547	-0.20602448	-0.11216115	0.085938446	-0.09045571	-0.14394721	-0.032187406	-0.13660254	-0.41669154	0.057507332	-0.60177076	-0.5316897	-1.0599599	-0.5033463	-2.6344523	-0.1839694	-1.0628368	-0.4347034	0.16243121	1.2760478	0.20755753	0.19681628	-1.7116275	-0.35336128	0.8029743	-0.26106662	-0.42470354	0.17206173	0.4484005	-2.4840057	-0.012456563	0.3469824	-0.14310774	-0.476004	-0.34220666	-0.6260878	0.25252277	-0.010168555	0.0682384	1.0164641	-0.3777363	-0.19296336	-0.61948526	-0.52377945	-0.6823053	0.26761588	-0.32618293	0.5099434	0.03146108	0.017651012	-0.17376564	0.15560459	-0.16542135	0.11189653	-0.32418206	-0.4268025	-1.6264094	-0.06738897	-0.2243071	0.14106528	-0.5657486	-0.69346184	-0.592159	-0.5063256	-3.187734	-0.6748488	-1.0497733	-0.2870748	0.1321407	1.5525743	0.18710107	0.21675633	-2.0145833	-0.25996146	0.7397693	-0.2448642	-0.48560366	0.54478145	0.66664976	-1.9181228	0.022423467	0.29274374	-0.13287571	-1.6635807	-0.32461938	-0.2753323	0.035839427	-0.07353179	0.098886795	1.2371558	-0.4299652	-0.34390974	-0.53279614	-0.4436679	-0.6319115	0.3330345	-0.54148763	0.28332227	-0.18071094	-0.9446356	-0.038837243	0.6812421	-0.1300373	0.14457071	-0.49040478	-0.7301107	-3.1580815	-0.028937383	-0.19877507	0.25289422	-0.5053742	-0.9772311	-0.48539516	-0.46286806	-3.139132	-0.9797436	-0.9030067	-0.23419054	0.21347152	1.5354632	0.2078741	0.2708572	-1.8319166	-0.18226218	0.5934838	-0.26432747	-0.6008896	0.79886854	0.6554071	-1.3561946	0.018202668	0.25657323	-0.057246905	-2.252104	0.3568055	0.23936483	-0.26807284	-0.025954435	0.11781983	1.339726	-0.34795508	-0.72559124	-0.45964488	-0.35582978	-0.5595297	0.3868045	-0.7024251	0.15488572	-0.4941706	-2.131844	0.14855954	0.9982234	-0.035129793	0.13573425	-0.4924623	-0.9196145	-3.9826798	0.043358322	-0.076516956	0.305557	-0.4238454	-1.1438482	-0.41928127	-0.51518935	-3.1170378	-1.0167502	-0.80745506	-0.17420286	0.21487164	1.3762561	0.21729448	0.29466164	-1.8840245	-0.102953516	0.50938797	-0.2155105	-0.61799335	0.9361887	0.6708197	-1.06165	0.031230412	0.25684083	-0.057357132	-2.2621007	0.8928803	0.70787424	-0.5049451	-0.05236168	0.114342295	1.4958276	-0.36823678	-0.94598657	-0.41646144	-0.31528878	-0.5517851	0.3852946	-0.91288465	0.03895963	-0.6213548	-2.816092	0.27291763	1.0840995	0.09112092	0.22020455	-0.5996744	-1.1018217	-4.56027	0.079642884	0.029819196	0.2968482	-0.3347503	-1.2900873	-0.3137277	-0.4904905	-3.0580564	-0.899721	-0.7413432	-0.11982672	0.23149006	1.3455302	0.23300345	0.28018087	-2.1026216	-0.042141303	0.47026134	-0.15243392	-0.65016	0.94053453	0.7953917	-0.7097045	0.03092573	0.124927975	-0.038961146	-2.2477913	1.4479622	1.1404574	-0.7592433	-0.09407863	0.10161452	1.6636115	-0.53078175	-1.0064219	-0.31839538	-0.23585589	-0.5932874	0.30902538	-1.1611792	-0.06329007	-0.66089314	-3.2622466	0.44185174	1.133584	0.20554076	0.16069612	-0.7661463	-1.2624928	-5.1794243	0.11535768	0.08375635	0.29590973	-0.25103888	-1.4734999	-0.44749823	-0.51244974	-2.9944046	-0.33675346	-0.65634155	-0.10247962	0.18022797	1.2296064	0.22722845	0.25462517	-2.2337987	0.027296355	0.3414668	-0.105147175	-0.6800261	0.9258028	0.8267105	-0.5513631	0.022279792	0.13660544	-0.010098171	-1.9349624	2.135875	1.63075	-1.0125602	-0.034476608	0.050668623	1.7895021	-0.5287987	-1.3123558	-0.21646637	-0.18519528	-0.5711315	0.17127733	-1.3468343	-0.27797174	-0.57939935	-3.5737562	0.5871608	0.98244995	0.46981162	0.20303504	-0.8140874	-1.352766	-5.460878	0.14048325	0.12216424	0.24951501	-0.17662235	-1.5923107	-0.46835658	-0.5225508	-3.086307	0.34420148	-0.5933307	-0.052650165	0.20798458	1.1805738	0.21452583	0.21963967	-2.4699974	0.092160024	0.25915214	-0.05630122	-0.7020868	0.7984673	0.92778724	-0.5177655	0.00013142283	0.026797231	0.01021112	-1.6067001	2.4551103	1.9777044	-1.1598731	0.021995878	0.01798442	1.9035748	-0.5097855	-1.4787507	-0.10628105	-0.12789865	-0.57233596	0.103954546	-1.490227	-0.38955206	-0.37271476	-3.5837588	0.73039466	0.7322399	0.78865147	0.22647266	-0.8404363	-1.3373572	-5.6136827	0.1655852	0.15535866	0.072236925	-0.16121016	-1.6520706	-0.60506344	-0.607445	-3.0406125	0.86077434	-0.44393572	0.009195929	0.23251984	1.2053858	0.1569864	0.21248066	-2.6750946	0.17162023	0.11651225	0.06012323	-0.6387495	0.68744266	1.0097758	-0.5702073	0.00087993813	0.033047836	0.07963308	-1.3066432	2.6391387	2.147737	-1.2901533	0.22396035	0.02317706	1.9593792	-0.45575848	-1.4552965	0.02595591	-0.0831965	-0.48584017	0.15010695	-1.6084714	-0.47634795	-0.18472648	-3.5430083	0.8425061	0.57146055	1.5067502	0.28369045	-0.8037839	-1.2748214	-5.260227	0.182776	0.1939057	-0.11767428	-0.23853339	-1.6181738	-0.81567335	-0.6500252	-2.8031032	0.9831341	-0.31026587	0.06929854	0.26093346	1.2586528	0.09142457	0.21022208	-2.5839036	0.18423903	-0.0032388521	0.14820169	-0.5611315	0.55073726	1.1003836	-0.78662807	-0.027667485	0.009091022	0.15854172	-1.5553327	2.8518455	2.1382644	-1.4073638	0.4316007	0.04982865	1.9524457	-0.5175653	-1.189889	0.09232456	-0.049959105	-0.40741387	0.15204474	-1.5638885	-0.51374775	-0.11497255	-3.3968549	0.85794944	0.7179095	2.0918622	0.27704522	-0.69808507	-1.2409273	-5.244037	0.17655692	0.20091522	-0.14637639	-0.18733926	-1.613303	-0.88984704	-0.67721236	-2.8166263	0.99894685	-0.19683573	0.07259528	0.318715	1.289458	0.10776961	0.27030644	-2.7142642	0.18966742	-0.040466513	0.2157322	-0.6231473	0.5596628	1.1364851	-0.8244841	-0.020206265	0.15845494	0.19052115	-1.388156	2.8560984	2.128139	-1.4132664	0.5276448	0.07014118	1.987555	-0.46338004	-1.1885147	0.11462756	-0.057674304	-0.38037536	0.21898778	-1.5793592	-0.4514127	-0.1692173	-3.4551322	0.91002727	0.60130405	2.311114	0.27277318	-0.75478035	-1.287409	-4.907367	0.18781668	0.22749744	-0.207345	-0.24717593	-1.5090096	-0.8659194	-0.6773006	-2.777649	0.9768266	-0.17553386	0.09057284	0.24875927	1.412213	0.15589851	0.27182695	-2.685713	0.22571206	-0.044962	0.30618826	-0.6333787	0.36616537	1.2419405	-1.0009034	-0.004160573	0.03531295	0.22863439	-1.5048376	2.886803	2.0821826	-1.4966129	0.5829411	0.08922399	2.0148582	-0.56357384	-0.9445871	0.19467974	-0.029291898	-0.38553244	0.30516577	-1.5082662	-0.4348385	-0.20053107	-3.425038	0.9339369	0.68036693	2.62797	0.28988883	-0.63695145	-1.2206489	-4.9748826	0.22334127	0.19609813	-0.27787623	-0.24060012	-1.5762488	-0.8091364	-0.7783223	-2.7459896	0.8518766	-0.104453415	0.14960724	0.417252	1.4378414	0.05636796	0.3182594	-2.7056339	0.20121445	-0.07923546	0.24741936	-0.65214133	0.4434443	1.2618288	-1.0280623	-0.011755802	0.18147992	0.26734328	-1.3503734	2.9656148	2.0281212	-1.4527229	0.6881695	0.13444886	2.0124426	-0.42427155	-0.93024045	0.17554565	-0.059346046	-0.26234972	0.36631697	-1.4900132	-0.34232116	-0.31863993	-3.3505602	0.87651163	0.7619921	2.654549	0.49609986	-0.69862664	-1.229528	-4.605945	0.2171056	0.23050462	-0.3595277	-0.29260316	-1.4241878	-0.99201643	-0.7664184	-2.6552527	0.8155775	-0.010487411	0.1705027	0.35268974	1.452713	0.11684302	0.38292143	-2.720472	0.19747974	-0.12718199	0.36470217	-0.7112759	0.2767247	1.3762414	-1.3128419	-0.009484354	0.2645398	0.32502976	-1.4263854	3.0081043	1.9858652	-1.5002455	0.8431861	0.15531544	2.037345	-0.494837	-0.6773823	0.20957449	-0.04024504	-0.23027565	0.4443519	-1.3534844	-0.32947055	-0.39633965	-3.3337996	0.88794196	0.75858843	3.0438144	0.45632142	-0.5617891	-0.97493124	-3.7786758	0.20695479	0.15328296	-0.6193064	-0.49137005	-1.327998	-1.3843243	-0.7621073	-2.2857528	0.8512728	0.11495697	0.25953227	0.35698062	1.4514654	-0.13855298	0.32335946	-2.5482914	0.13331372	-0.17233735	0.36323872	-0.5549315	0.36308712	1.53967	-1.714705	-0.03793055	0.17903692	0.42227557	-1.5243695	3.0230052	1.7832373	-1.4303944	1.1312649	0.22509328	1.8709489	-0.5821395	-0.29632077	0.23652409	-0.02867262	0.0010071724	0.28389063	-1.076104	-0.36275664	-0.35813802	-3.0993218	0.7372026	1.0496347	3.5458965	0.37816998	-0.45242175	0.045897637	-1.9870436	0.14107029	-0.019989865	-0.852035	-0.7946178	-0.59825975	-1.8304313	-0.46440595	-2.0535352	0.72654927	0.12922092	0.2563322	0.43846235	1.5915203	-0.3594601	0.3611863	-1.6873702	-0.14443107	0.36008722	0.26050508	-0.3075423	0.34286797	2.041717	-1.8966299	-0.042616747	0.23172164	0.3117177	-1.1319163	1.8791413	1.151581	-0.7822332	0.8887028	0.40978792	1.1175566	-0.9859545	0.31052074	-0.21718246	-0.08027052	0.49131796	0.16132984	-0.32155982	-0.2042313	-0.077466436	-1.8252063	0.1469346	1.1823568	3.3430521	0.046975296	-0.29947883	0.07782263	0.29874682	0.094436094	-0.6553207	-0.18115313	-0.37722474	-0.5972248	-1.3932649	-0.2765197	-0.9488853	-0.012589636	-0.32248917	-0.5678931	0.029192155	0.08350735	0.15612483	0.28883648	-0.30083153	-0.43529302	0.54378647	-0.35689542	-0.4235243	-0.16793714	-0.083282	-1.6192434	0.11994687	0.19717905	0.18985	0.8353199	0.2273693	-0.17685926	0.26083785	0.00986163	-0.03495807	0.49402037	-0.26958677	-0.14315075	-0.6584053	-0.46670878	-0.79486006	0.076432794	-0.22962837	0.29358885	-0.04690735	0.20382111	-0.15732281	-0.43087554	-0.19510977	-0.000116147225	-0.029500796	-0.01081861	0.32126632	-0.21761984	-0.3712505	-0.09071822	-0.43237266	-0.47198504	-1.1325091	-0.3798903	-1.235854	0.07605791	-0.6710976	-0.38093904	0.08998303	0.25742862	0.20882899	0.0776266	-0.42034572	-0.12831958	0.5632473	-0.23146024	-0.50966626	-0.08593122	0.1973024	-2.1752033	0.052513253	0.1945516	0.15937486	0.6941378	0.08483832	-0.24675757	-0.025296463	0.18116939	-0.1920032	0.67549783	-0.4053189	-0.037128005	-0.65189075	-0.5178754	-0.78379333	0.031624526	-0.2391139	0.03819185	0.11209725	0.20796387	-0.10287109	-0.4017879	-0.14273371	-0.020427708	-0.3184054	-0.15361664	-0.133403	-0.23791407	-0.24590841	-0.040532447	-0.52769643	-0.21182516	-0.77113706	-0.46615863	-1.5561713	0.11487758	-0.84505385	-0.3308956	0.024038574	0.45317677	0.15036494	0.008289185	-0.53185326	0.13784526	0.6096488	-0.19938472	-0.49848634	0.08147706	0.5349685	-2.4000807	0.11710198	0.104218684	0.114771545	0.3876272	-0.1800028	-0.28021204	-0.32168356	0.047391172	-0.35210827	0.8042517	-0.49736685	-0.0029995155	-0.46364835	-0.48423916	-0.75449866	0.0735284	-0.18195446	-0.2592904	0.2559646	0.047463313	-0.08046911	-0.21968402	-0.16278327	0.059754893	-0.62515324	-0.22287124	-1.4491916	-0.2147387	-0.1940249	0.028403224	-0.6057372	0.009845843	-0.67157006	-0.49668938	-1.5454979	0.04085007	-0.5235428	-0.25977558	0.20176122	0.41642877	0.1929808	0.2567749	-0.16667138	0.3163835	0.7048135	-0.41924113	-0.37257478	0.21324086	0.5699783	-1.6418854	0.12635145	0.08534741	-0.1478233	0.1194086	-0.2339272	-0.01860493	-0.69818765	-0.27646568	-0.54356194	0.8978217	-0.5401643	-0.22100855	-0.4129844	-0.40958348	-0.5840825	0.1562695	-0.23103873	-0.29892322	0.21607623	-0.48482102	-0.098151214	0.030539239	-0.3180059	0.14865044	-0.58972734	-0.1209053	-1.0300642	-0.22959265	-0.15344885	0.09113994	-0.6678907	0.18253686	-0.6960436	-0.45946968	-1.276829	0.2633744	-0.17556205	-0.16351995	0.6205984	0.44818184	0.27523932	0.56286186	-0.7613186	0.38794664	0.8987007	-0.6722472	-0.16424815	-0.12623788	0.09686296	-0.21625736	0.105530605	0.16806535	-0.38568708	-0.5442265	0.0407542	-0.24466248	-0.5408264	-0.51800543	-0.59833765	0.80689687	-0.41501263	-0.47048822	-0.5861695	-0.3771802	-0.3892354	0.2387461	-0.2488433	-0.12760593	0.1589992	-0.6810077	-0.20636316	0.1449925	-0.47820187	0.13902336	-0.4256915	0.008214646	0.68379277	-0.4010248	-0.091713764	0.061086286	-0.72805256	0.27989358	-0.6932014	-0.5157175	-0.8364783	0.3177313	-0.15016599	-0.12209732	0.72774374	0.5813949	0.22946545	0.48817903	-2.1069455	0.45093095	0.93066037	-0.6915845	-0.15028253	-0.36160976	-0.3813996	0.49585944	0.13556308	0.17125134	-0.42211145	-1.7316968	0.30454576	-0.49822116	-0.0032406102	-0.36154452	-0.6037033	0.5457921	-0.3541951	-0.28826228	-0.61386484	-0.47945026	-0.4164951	0.21885617	-0.1185888	-0.15265356	0.21523297	-0.36438859	-0.2884553	0.4688387	-0.38531017	0.165939	-0.52603644	0.010671904	0.41005707	-0.5734619	-0.15328859	0.09159432	-0.7458202	0.26814768	-0.4721033	-0.56456316	-0.8605818	0.29552576	-0.22591004	-0.055424526	0.9685164	0.5247356	0.21127793	0.42514315	-2.0059948	0.6311734	0.85607004	-0.64505416	-0.08792681	-0.31647143	-0.2449351	0.5152727	0.08280553	0.24151237	-0.6284613	-1.643777	0.26222372	-0.52706456	0.4593014	-0.16829999	-0.7985216	0.50687814	-0.33624965	-0.32175374	-0.6056026	-0.5293881	-0.26928166	0.2841914	-0.099015795	-0.14517316	0.21553443	-0.4829886	-0.21210758	0.5110347	-0.113512404	0.14204946	-0.6705523	0.13059177	0.26427606	-0.6887176	-0.32536086	-0.08568636	-0.82071775	0.3471921	-0.8367188	-0.630817	-0.34882212	0.28021035	0.03801888	-0.14281121	1.1005715	0.5696547	0.12220632	0.638321	-2.781058	0.41941035	0.85297817	-0.7039191	0.3495753	-0.18033576	-0.67475635	0.87343127	0.05865631	0.30534	-0.8157965	-1.8089645	0.25286815	-0.43325123	1.2031159	-0.28472498	-0.6339071	0.19424652	-0.24486034	-0.33486304	-0.56303823	-0.49593663	-0.1370443	0.41959226	-0.17744958	0.077159934	0.2956218	-0.2457113	-0.34227058	0.78678423	0.30291522	0.14297733	-0.6967935	0.30249703	1.1592289	-0.54129076	-0.2589094	-0.5084743	-0.73019654	0.2602662	-1.9317939	-0.63881356	0.061474297	0.1638858	0.8586753	-0.049128156	0.77607775	0.8479493	0.30998114	1.0004748	-3.5587254	0.07537448	0.76104593	-0.65166885	0.4111106	-0.3886969	-1.0474297	1.2230829	0.090224266	0.5372192	-0.7674136	-2.2765517	0.4323182	-0.4297112	1.6651592	-0.30678493	-0.3983252	0.09331873	-0.40130824	-0.113921665	-0.4759058	-0.4349492	-0.110172465	0.37224403	-0.4731387	0.30959278	0.0065873014	-0.482532	-0.31943265	0.7626249	1.1063846	0.28097394	-0.3659497	0.26578602	3.0805492	-0.5314874	0.0044031893	-0.6266063	-0.69090384	0.26322752	-2.2265859	-0.7914544	0.069475874	0.20609406	0.88332266	-0.04432392	0.37657687	1.5074396	0.44702697	0.93525803	-4.3488445	0.13538621	0.74269694	-0.430461	0.10052362	-0.86871123	-0.9925502	1.1538479	0.188027	0.5985529	-0.6417932	-1.7443273	0.8402269	-0.7467354	1.4576869	0.04271084	-0.33021477	0.25224286	-0.63170546	0.2122183	-0.40494078	-0.4460252	-0.1885663	0.23996808	-0.5598485	0.20831798	-0.36313227	-0.59904575	-0.14757413	0.7749359	1.8242044	0.46573648	-0.17097215	0.118172005	3.506672	-0.60549176	-0.024125721	-0.52109337	-0.7078684	0.4011589	-1.8028712	-0.91166466	-0.29544255	0.14392246	0.6325975	-0.07499177	0.3792179	1.7691207	0.45278147	0.92202324	-4.733411	0.24510135	0.74526787	-0.2894946	-0.006626676	-0.94742113	-0.7516276	0.94924116	0.17674527	0.64735806	-0.6278988	-1.2417139	0.80222833	-1.0166599	1.4642835	0.14137068	-0.29577017	0.37001345	-0.65182453	0.32464656	-0.27989602	-0.49308556	-0.1935898	0.37793055	-0.44099888	0.16146354	-0.52890867	-0.6470783	-0.096893765	0.7986719	1.9691287	0.60477436	-0.36484194	0.08365276	1.9809184	-0.52206004	-0.24210007	-0.56912315	-0.8380625	0.53907925	-1.2926074	-0.9978663	-0.18132646	-0.13915746	0.48924825	-0.12701379	0.9405024	1.6966293	0.20631234	1.0261877	-4.8997774	0.16256262	0.81604064	-0.39094794	0.31760383	-0.8373989	-0.75610954	1.2953469	0.13440934	0.67665946	-0.80632514	-0.77177477	0.5806764	-0.958067	1.9083751	-0.061807197	-0.20058048	0.13999675	-0.40315023	0.21241167	-0.24007493	-0.49092504	-0.0039676353	0.48745942	-0.32176584	0.43459117	-0.60636425	-0.12282473	-0.3341084	1.0268507	1.9370157	0.75873417	-0.52881485	0.24375224	0.2001702	-0.26809576	-0.45198855	-0.64843804	-1.0478199	0.68696773	-1.5290977	-0.99487597	0.60316426	-0.2689516	0.650079	-0.08254535	1.4202341	1.1935008	-0.027207717	1.2391037	-3.7854958	0.08963205	0.9659745	-0.6552498	0.87640214	-0.5024315	-1.1215725	1.8792061	0.1687487	0.7365534	-1.1769204	-0.08759451	0.56664836	-0.5010588	1.8923616	-0.3772624	-0.29832432	-0.12767555	-0.079902984	-0.17037871	-0.4198741	-0.38894197	0.32769608	0.5761422	-0.2933067	0.7749403	-0.4852655	-0.073436104	-0.57604563	1.3467075	1.8646162	0.60554	-0.29307505	0.3293969	-0.090481505	-0.16647476	-0.53526306	-0.6516812	-0.97080016	0.6023532	-1.9331778	-0.81902117	0.9066402	-0.15836433	1.1281055	-0.13392022	1.5937184	1.1462542	0.19535069	1.5999897	-3.001608	-0.110589124	1.1111037	-0.91234165	1.013485	-0.50695395	-1.1919065	2.2605753	0.15306406	0.7881284	-1.2871178	0.40572098	0.56329393	-0.13132542	1.7917819	-0.5819174	-0.30440816	-0.17528927	-0.02795553	-0.51266927	-0.62795067	-0.26606983	0.54548496	0.41446277	-0.6477709	0.85496545	-0.48153746	-0.13582517	-0.6134486	1.2141423	1.7498969	0.55809313	0.13919535	0.49703297	0.9615253	-0.012747811	-0.37549078	-0.8923505	-0.92803895	0.21924204	-1.8256761	-0.8541657	1.0955484	-0.11741137	0.8757374	-0.11562768	1.4171767	1.1363589	0.18085465	1.3533759	-2.9862561	-0.0274115	1.1439474	-0.7576209	1.1740605	-0.699825	-1.3857367	2.0324645	0.25810713	0.5423176	-1.0495839	-0.3594188	0.8916718	-0.14199825	1.5185063	-0.22366977	-0.15979281	-0.13770996	0.02881543	-0.37059766	-0.82437944	-0.18529062	0.72498643	0.12483482	-1.1881689	0.45070422	-0.45930952	-0.34470305	-0.55680025	1.3426527	2.5544248	0.5464353	0.5261802	0.2154407	0.8957322	-0.3035665	-0.5910205	-0.5834756	-0.6113917	0.08841718	-1.2792171	-0.8255521	0.19214626	0.27637932	0.8610746	-0.013694439	0.96622175	0.56801826	0.14899138	1.2095591	-0.964537	0.71753806	0.9258257	-0.26813397	0.53139323	-0.6521028	-0.6180134	0.15665638	0.49745676	0.3450783	-1.1656004	-0.6313352	0.8206648	-0.25767636	1.4980373	0.102941185	-0.4374178	0.49071908	-0.22035007	-0.13923326	-0.42046452	-0.16406448	0.97150606	0.18723223	-1.4835905	-0.26578748	-0.017152738	-0.35091567	-0.11087817	0.74974924	3.0353186	0.43066183	0.23733155	-0.14922082	-0.03871086	0.20116043	-0.074560806	-0.043103933	-0.8148938	0.5819341	0.20167007	0.04612302	-0.0143772075	0.4740332	-0.178807	0.068665914	0.3671134	-0.056831375	-0.042444807	0.005610186	-0.33582535	1.3211988	0.5888034	-0.96642596	-0.2917689	0.041815232	-0.07564161	0.43664628	1.3174082	-0.009068843	0.3461776	-0.9064649	-0.21633527	-0.2871925	0.68203914	-0.28632236	-2.0583048	-0.18673581	-0.058560684	-0.6542257	-0.441227	-0.30018762	-0.24933743	-0.11624505	0.40722063	-1.4030848	0.61739975	-0.017775869	-0.25037158	0.08566823	-0.90806973	-0.15324384	-0.69928133	-0.20632383	0.13457495	0.4253683	-0.104811035	-0.19141331	-0.8530947	0.5315043	0.010013373	0.19313273	0.032289676	0.39243314	-0.06674587	0.13781512	0.15247855	-0.04704562	-0.062325217	0.010053485	-0.2055236	1.3153062	0.50485307	-0.9929748	-0.32763135	0.12201611	-0.12168781	0.37018296	1.5693029	-0.05620221	0.5679345	-0.89349216	-0.18171847	-0.21791534	0.76719034	-0.28701085	-2.0655034	-0.32587746	0.0044329483	-0.7051376	-0.36905813	-0.16086708	-0.17082381	-0.15491432	0.42863634	-1.5395324	0.5863737	-0.061567523	-0.23316306	0.166266	-0.7150694	-0.18031052	-0.48821235	-0.24901153	0.33945212	0.48647827	-0.10975601	-0.1434495	-0.87989163	0.52168065	0.014461578	0.21744916	-0.051383395	0.27567878	-0.055797517	0.16114768	0.09541061	-0.0963368	-0.057474077	0.003637851	0.015935838	1.361971	0.442449	-1.0248568	-0.42212203	0.21503896	-0.12551236	0.17417824	1.6330273	-0.042080615	0.5682449	-0.8698395	-0.12618148	-0.11366737	0.7593125	-0.26210195	-2.1192992	-0.37429264	0.1814489	-0.8225043	-0.3853483	-0.16168866	-0.15331975	-0.09887549	0.57198703	-1.6309952	0.62210345	0.11904724	-0.23619458	0.21220042	-0.73586035	-0.124519095	-0.3276668	-0.22530808	0.24686359	0.4873951	-0.078825034	-0.15821622	-0.88286936	0.5438256	0.033193864	0.13305086	-0.05032523	0.28075615	-0.03179126	0.14594308	0.13548346	-0.091697074	-0.07616658	0.022022156	-0.0019396836	1.3925937	0.4253889	-0.97954255	-0.35000312	0.19144952	-0.07753932	0.15996893	1.6430845	-0.013683422	0.5074601	-0.6649773	-0.09182893	-0.1287794	0.7704952	-0.2349167	-2.1224487	-0.32983738	0.19578794	-0.7924018	-0.3815875	-0.17712346	-0.14476709	-0.036237925	0.5388699	-1.5971869	0.63419604	0.18630058	-0.2167553	0.22135985	-0.53266627	-0.09155999	-0.3488991	-0.20502745	0.1787159	0.5300102	-0.05156887	-0.24997479	-0.8733178	0.53284377	0.0033279113	0.09764488	-0.0136196455	0.2717087	0.03161903	0.17279199	0.1347504	-0.06607562	-0.0870944	0.03808395	-0.09460513	1.4048107	0.39809886	-0.94896525	-0.337948	0.1882587	-0.062421236	0.20966624	1.6992285	0.027834576	0.59197015	-0.5135678	-0.08593977	-0.119150534	0.7784332	-0.1798377	-2.0942955	-0.3115779	0.15724927	-0.72659427	-0.35327968	-0.14930852	-0.10914846	-0.0106370635	0.47388923	-1.5885749	0.6122105	0.15200296	-0.19418395	0.22083934	-0.33774564	-0.041504916	-0.35400686	-0.21280733	0.08830628	0.4928971	-0.07122103	-0.2684047	-0.8948904	0.54278547	0.025146216	0.085808225	0.07208694	0.23445743	0.04737947	0.19537431	0.1873545	-0.05812639	-0.07692822	0.041100815	-0.05659971	1.4439256	0.3587896	-0.93969035	-0.37212226	0.15830918	-0.02220434	0.1591598	1.6860921	0.036687862	0.6239776	-0.4020766	-0.041516766	-0.12927072	0.7743998	-0.073715664	-2.0958369	-0.32843128	0.19851811	-0.67578727	-0.3293276	-0.15549733	-0.06007406	0.056108	0.5106258	-1.5944438	0.593875	0.19010445	-0.1753336	0.24997172	-0.18007165	-0.009610768	-0.27724883	-0.1460215	-0.059026744	0.50551987	-0.06992626	-0.32072794	-0.91306394	0.4852234	-0.059761085	0.05141937	0.13132887	0.17285298	0.11223589	0.21892609	0.25763956	-0.099146664	-0.1246341	0.07310783	0.05874357	1.4280561	0.29494965	-0.9969106	-0.33474207	0.30041724	-0.10401748	0.17313358	1.7127404	0.16003235	0.7013607	-0.22925264	0.053849984	-0.15114824	0.8219584	0.03733539	-2.0784261	-0.33732173	0.28032467	-0.7268116	-0.3771028	-0.16381612	0.030227346	0.100008726	0.49874875	-1.579088	0.5725281	0.22790554	-0.19946094	0.34375903	-0.10251785	0.03565571	-0.23184755	0.01157939	-0.1765944	0.57516193	-0.0722772	-0.6332158	-0.95799226	0.36509976	-0.25549322	-0.036027916	0.3681152	0.30090848	0.24860723	0.21202464	0.22405477	-0.21905892	-0.2935374	-0.02761703	0.0051092273	1.5082608	0.13011692	-0.92946243	-0.10273979	0.38133657	-0.09653265	0.2600823	1.7484022	0.056607787	0.861484	-0.14061438	0.047670133	0.046832982	0.7670984	0.26424235	-2.063584	-0.42760783	0.21307214	-0.63453037	-0.25412995	-0.09115585	0.18733351	-0.021931985	0.3241812	-1.825977	0.8031735	0.30793473	-0.14552142	0.3879271	0.70014036	0.07790365	-0.15198885	0.09118391	0.09480069	0.6364562	0.04948979	-0.9419782	-0.9621311	0.3850471	-0.6592499	-0.19472916	0.5991779	0.17175533	0.64424735	0.21261896	0.12520559	-0.3073969	-0.27175254	0.006981949	0.019186068	1.7016844	-0.13223168	-0.6147711	-0.031428028	0.19429675	0.0032662684	-0.06978618	1.7676399	-0.028891781	1.0274278	0.120914586	0.16086441	0.0661696	0.51341546	0.57684416	-2.0055785	-0.3791218	0.09946063	-0.29114297	0.016181076	-0.064549126	0.2646741	0.08169745	0.17132336	-1.9500259	0.6246043	-0.14473283	0.057964083	0.2683532	2.1940553	0.24396332	0.065868	-0.2554816	1.01277	0.8211486	0.3204386	-0.6856609	-0.7579607	0.65674174	-0.46532005	-0.16198365	0.017412422	-0.101830594	0.8990795	0.2788026	-0.055267777	0.15883121	0.17801465	0.33751953	-0.19327104	1.7126243	0.0214707	-0.3802833	-0.54897815	-0.102416426	0.2792769	-0.4474099	1.937479	0.113159075	1.0043699	0.5449963	0.31380287	-0.2395521	0.38248095	0.1393539	-1.9262381	-0.04182668	-0.041704506	-0.10611986	0.0878399	-0.09961988	-0.102694765	0.48902184	0.2504779	-1.5265816	0.119982235	-0.43915287	0.20300545	0.12565659	1.9397935	0.46906757	0.013041526	-0.2791488	0.1776938	0.78122705	0.13451028	-0.6597574	-0.8191102	0.56104887	-0.15887843	-0.14796385	-0.082559556	-0.33016768	0.6552139	0.2837657	0.199851	0.24551652	0.045706827	0.36263222	-0.217137	1.6026896	0.09039345	-0.61425024	-0.4743235	0.04958426	0.24046764	-0.013540059	1.946596	0.31938007	1.0664146	1.1648655	0.3577701	-0.26496735	0.6471534	0.24850097	-1.9030315	-0.076706044	0.1653334	-0.28503743	-0.030168612	-0.06848182	0.124717556	0.4699861	0.25549677	-1.4450444	-0.017198639	-0.03256662	0.068186484	0.35651812	1.4516304	0.45974693	-0.09156908	-0.17598766	0.07870271	0.76097244	0.09036217	-0.7037362	-0.91269857	0.5525425	-0.3470084	-0.13040748	0.23598787	-0.33197835	0.6786568	0.30859935	0.20900775	0.024477012	-0.025237262	0.35591203	0.0065761604	1.5627232	0.05079094	-0.7062853	-0.3582622	0.23075381	0.02314328	-0.059801664	1.9552834	0.33622995	1.1028441	0.912533	0.45769185	-0.18154803	0.67545706	0.32348922	-1.8977518	-0.20077385	0.20707494	-0.29228377	-0.10822524	-0.068813056	0.21238355	0.5457534	0.3291539	-1.4155189	0.10572319	-0.010648181	-0.011784802	0.5683566	1.4420811	0.39274412	0.055686764	-0.16795824	0.22983767	0.7503536	0.06660025	-0.7414646	-0.90363246	0.5242074	-0.4234984	-0.12579751	0.2844848	-0.1705401	0.74268204	0.303995	0.17974529	0.059681118	-0.025385227	0.3191738	-0.0011484202	1.6057019	-0.018663	-0.6759228	-0.41343486	0.19722205	0.09617958	-0.16130881	1.9276476	0.2818404	1.1217707	0.7854445	0.41143808	-0.14532234	0.64350766	0.4014801	-1.9132352	-0.25823987	0.2689238	-0.33014002	-0.049443312	-0.049339242	0.22462736	0.49981996	0.36341456	-1.5470462	0.24806419	0.037080903	0.039458033	0.45355055	1.6736457	0.42047572	0.1433117	-0.15034002	0.25510308	0.74227035	0.05512337	-0.7761278	-0.92912424	0.506903	-0.47816136	-0.1617973	0.3174024	-0.309871	0.78099924	0.32864305	0.2395526	0.019079546	-0.04542031	0.33956054	0.08767588	1.6114817	-0.07262779	-0.6781181	-0.39452705	0.25261736	0.038561966	-0.21492264	1.8923855	0.35045493	1.14534	0.8455567	0.5027912	-0.14272662	0.6224657	0.48783657	-1.8989259	-0.2574049	0.3190782	-0.31793284	-0.047558025	-0.065318	0.28446403	0.5435942	0.37722954	-1.5225078	0.16066028	0.006833599	0.02382177	0.5279805	1.7905761	0.472759	0.17457035	-0.15827297	0.35684612	0.72840625	0.04881782	-0.79628646	-0.95887834	0.5269162	-0.46480232	-0.17620975	0.33940658	-0.45313337	0.79751855	0.36342102	0.37221402	-0.014101504	-0.04534698	0.37093642	0.087754436	1.6035384	-0.09815548	-0.6594884	-0.41198307	0.21487603	0.036680505	-0.2517436	1.8219817	0.3814844	1.1652571	0.7729377	0.57334477	-0.17308576	0.5871874	0.56077564	-1.8678123	-0.2243085	0.34627974	-0.2369193	-0.04128266	-0.08614528	0.31640175	0.5976836	0.42504156	-1.4260505	0.030345153	-0.061899938	0.00362143	0.57323045	1.8530784	0.5087189	0.16371393	-0.128296	0.46606576	0.7151792	-0.021789534	-0.6649601	-1.0012658	0.6648934	-0.5336205	-0.1761109	0.29029182	-0.45762148	0.7600152	0.41878462	0.63855577	0.120695725	-0.0071058692	0.46490636	-0.26212037	1.5102221	-0.06074704	-0.60772824	-0.3841886	0.057254564	0.13255529	-0.19217554	1.6611571	0.42491126	1.2491851	0.37607667	0.43496427	-0.07270988	0.7733352	0.60030836	-1.7006087	-0.20104629	0.40653816	-0.329779	-0.07397008	-0.09345546	0.32079014	0.511161	0.5393151	-1.2538798	0.04393929	0.14404991	-0.044397853	0.30121082	1.8596609	0.3910687	0.009735277	-0.0070628207	-0.23770311	-0.32753453	-1.1722687	-0.35559168	-0.014407718	-0.16289191	-0.20264345	-0.32790637	-0.0722915	-0.029957127	0.13793215	-0.6856233	0.07095458	-0.23308647	-0.028571103	0.10510646	0.077768	-0.13729843	0.045784675	-0.13064528	-0.036401708	-0.029183181	-0.20148668	-0.05171387	-0.0695359	-0.0681968	0.12357202	-0.05458308	0.007715836	0.0834644	0.10664804	-0.12970388	-0.026509775	0.007226337	-0.0482934	0.003735911	-0.42762566	-0.54458565	-0.54141974	-0.026905319	-0.008764864	-0.42435184	-0.01595782	0.03981809	-0.042555816	-0.16024588	-0.11299295	0.1035373	-0.10278575	-0.042576063	-0.21036957	-0.4953489	-0.9767174	-0.3655853	-0.0149218505	-0.04154561	-0.2632083	-0.34429374	-0.09918542	0.045549616	0.16687584	-0.62372774	0.079440534	-0.19320375	-0.016916798	0.24948955	0.22338577	-0.10772062	0.2214411	-0.079951346	-0.07960874	0.011169998	-0.11861135	-0.34172556	-0.07690054	0.042635042	0.29531923	0.16196316	-0.040447444	0.07175485	0.05318388	-0.05512296	-0.021837821	0.083358705	-0.042295247	-0.01173283	-0.29752317	-0.520874	-0.77081877	0.025252206	0.088186905	-0.52372277	-0.056916494	0.033291034	-0.04027374	-0.12816592	-0.18437201	-0.009414869	-0.8197754	-0.07369069	-0.62695545	-0.5831391	-0.73518866	-0.4452453	-0.14114462	0.22436881	-0.37077898	-0.32311398	-0.12269615	0.10964929	0.31342116	-0.49254075	0.07203309	-0.12068503	0.0017748775	0.56940114	0.49743757	-0.08890782	0.56228095	-0.24248873	0.0042263702	0.025267724	-0.13669269	-0.42730868	-0.005809379	0.11835213	0.46254453	0.3087623	-0.36169004	0.22687103	-0.14246511	-0.14241923	-0.06704165	0.26134396	-0.10928256	0.050704207	-0.09486698	-0.42847463	-0.81249285	0.084199555	0.09353321	-0.615913	-0.045338497	0.13386008	-0.12552547	-0.014314341	-0.37301925	-0.10227903	-1.5242622	-0.06846125	-0.49917662	-0.36957344	-0.27940896	-0.43959603	-0.46184605	0.54140306	-0.4350653	-0.1769538	0.04029734	0.41905108	0.29332688	-0.27291512	0.094297834	0.10322007	0.098800175	0.6200488	0.020806452	0.3586576	0.91065675	-0.6014044	-0.14951676	-0.33857256	-0.2748817	0.15402435	0.18701103	-0.07422582	0.72823715	-0.89025325	-0.36877105	0.070445076	-1.0403264	-0.27118665	-0.5241881	0.49295747	-0.4310213	0.20526941	-0.10347611	-0.2921291	-0.6223281	-0.024004318	0.03098207	-0.90338343	0.23845251	-0.022083987	-0.22479483	0.044462413	-0.69759536	-0.10932777	-1.3566656	-0.03957728	-0.31104314	-0.2171436	-0.103414044	-0.0456526	-0.7404925	0.6934389	0.023729328	-0.25146398	0.12610392	0.6261402	-0.06285205	-0.14866309	0.52142787	0.0076101148	-0.016537208	0.29123497	-0.40431222	1.0416746	0.8665454	-0.7912229	-0.04841765	-0.14333163	-0.25425544	0.5500223	0.385075	-0.079689614	0.26426864	-0.82303834	-0.1053694	-0.38043836	-0.9212944	-0.40475485	-1.2714685	0.32556617	-0.28190026	-0.27057517	-0.37352923	-0.364924	-0.39797238	-0.0066670347	0.19825573	-1.03301	0.50947773	-0.28026968	-0.31863338	0.14139813	-0.86844605	-0.08519619	-1.0006968	-0.030207036	-0.39941326	0.009226382	-0.037190124	-0.025262805	-0.8057547	0.7086012	0.07039352	-0.22993839	0.13567902	0.6126003	-0.15734603	-0.0653796	0.60329413	0.021486301	-0.07058892	0.2188716	-0.6844862	1.1075242	0.8672943	-0.84671295	0.033726126	-0.2609489	-0.24110937	0.7760188	0.6806022	-0.019718427	0.09262594	-0.8687778	-0.122311264	-0.45973885	-0.2812451	-0.49045262	-1.5514678	0.20320936	-0.24360548	-0.38850716	-0.4668935	-0.35676455	-0.318802	-0.05873652	0.16184698	-0.97196037	0.5089972	-0.23441644	-0.36763605	0.16263257	-0.8222203	-0.08387249	-0.9292399	-0.049291443	-0.55583465	0.09835031	-0.01376066	-0.11252528	-0.85009784	0.6912651	0.23201863	-0.19899336	0.23842055	0.659458	-0.30201682	0.032958016	0.63250417	0.049033586	-0.119521126	0.03528691	-0.6765595	1.2758464	0.7672037	-0.84180415	0.0354149	-0.21696055	-0.17586131	0.8261103	0.9356199	-0.018613426	0.09252137	-0.8194957	-0.20692086	-0.44919333	0.20122486	-0.4022686	-1.8330086	0.04011445	-0.2956358	-0.39401555	-0.44576287	-0.35240543	-0.2617355	-0.17320661	0.16830628	-1.1345767	0.5846807	-0.21093105	-0.3483986	0.16497207	-0.7187244	-0.077297725	-0.9398586	0.018588634	-0.79370636	0.0674823	-0.010559994	-0.28737357	-0.89718395	0.6508528	0.23251346	-0.25846216	0.431907	0.7323676	-0.31851435	0.09064034	0.6768285	-0.017743794	-0.18241236	-0.09965116	-0.54022115	1.432156	0.59510684	-0.772027	0.11638827	-0.20606858	-0.11948643	0.7398192	1.0132614	-0.024539286	0.09497048	-0.74590087	-0.28235218	-0.38813087	0.52593637	-0.1395723	-1.9884323	-0.07727868	-0.29538938	-0.30744928	-0.38416246	-0.3669096	-0.15849915	-0.21314892	0.14824785	-1.3137301	0.7089504	-0.15831335	-0.29096028	0.119449645	-0.18485616	-0.037587006	-0.9055946	0.08987453	-0.43400136	-0.11883592	0.11242043	-0.48430622	-0.8870812	0.6913719	0.030277764	-0.38971993	0.70669454	0.7045668	-0.019258257	0.11291357	0.70009786	-0.107179575	-0.060527287	-0.17912528	-0.28366417	1.7537574	0.29009125	-0.45626986	0.06924343	-0.3014107	0.0020778074	0.1662515	0.9462361	-0.15174827	0.097283244	-0.72519743	-0.23699312	-0.3440941	0.37115481	0.23327336	-2.0838132	-0.06507438	-0.47018042	0.07818934	-0.15707806	-0.44414678	-0.14278357	-0.09177542	0.120109804	-1.4905428	0.6947859	-0.4886499	-0.06144471	-0.015544962	1.0967027	0.12477392	-0.73898697	-0.1767092	-0.2825934	0.1528234	0.24640061	-0.5130436	-0.7510348	0.7463121	0.33806208	-0.4125222	0.2813998	0.51726127	-0.0012278568	0.17385149	0.62450767	0.25197637	0.08516269	-0.08607547	-0.6782639	1.8217413	0.3167066	-0.30744365	-0.30797908	-0.5698623	0.3600679	0.15272723	1.1785338	0.006185087	0.27788356	-0.03093982	-0.17304729	-0.48776075	0.3386751	0.17472038	-2.0696511	0.11626804	-0.41331032	0.08173256	-0.057821356	-0.36782658	-0.22368424	-0.052006684	0.118207835	-1.5211668	0.3216778	-0.5392785	0.04279172	-0.27979922	1.1233797	0.41061574	-0.8065812	-0.088173956	-0.6643317	0.17973235	0.16788821	-0.6322072	-0.8937801	0.6658241	0.23993844	-0.317675	0.5052519	0.2152708	-0.05355249	0.23970707	0.686882	0.09383176	-0.041077834	-0.096011505	-0.282612	1.7609044	0.26376566	-0.47393864	-0.103599876	-0.37252754	0.0813529	0.28688657	1.2566643	0.049186684	0.47847298	-0.038124036	-0.02285192	-0.54799783	0.40125492	0.3052149	-2.0476863	0.0073411646	-0.31725186	0.13626911	-0.14749776	-0.33960488	-0.03187506	0.0025739754	0.10919196	-1.4647304	0.18156093	-0.5455243	-0.08601204	0.13566718	1.045457	0.29122353	-0.6758502	-0.02837658	-0.48442256	0.27829075	0.18891485	-0.75256866	-0.8927814	0.6279934	0.010502542	-0.23262045	0.7231201	0.40454182	0.06556673	0.26426843	0.5275905	-0.007510202	-0.045207545	-0.12635891	-0.30486372	1.7506716	0.21030924	-0.45762086	-0.088258415	-0.31810096	0.017740494	0.21724744	1.3160838	0.030820904	0.62030464	-0.33541697	0.015929338	-0.41391286	0.34923327	0.32676062	-2.0603032	-0.07978591	-0.38139722	0.117561884	-0.1298986	-0.294428	-0.004866647	-0.06538674	0.080614105	-1.6282071	0.3743482	-0.57207894	-0.073654324	0.0724763	1.2287478	0.22809754	-0.55473274	-0.02836168	-0.3223155	0.29623476	0.22145757	-0.79067004	-0.8771273	0.60102946	0.042590134	-0.23175699	0.69325024	0.35853842	0.13815154	0.29508996	0.6105529	-0.019954748	-0.012571589	-0.12170688	-0.2768942	1.7997098	0.14403068	-0.41284484	-0.17235178	-0.34664497	0.07559556	0.0993199	1.2239261	0.016625548	0.6617733	-0.32812804	0.009866619	-0.3894183	0.2917716	0.41244805	-2.0503821	-0.05714929	-0.34477055	0.16334713	-0.08277071	-0.34215125	0.01629433	-0.055607136	0.08849085	-1.6613413	0.3500596	-0.60942554	-0.047819875	0.024689581	1.44943	0.35614458	-0.50021356	0.11404042	-0.21701744	0.12410003	0.22765829	-0.92231995	-0.9350869	0.6032801	-0.021107862	-0.3596212	0.9927079	0.4055842	0.1468924	0.31295377	0.7831094	-0.15555534	-0.077364594	-0.26022232	-0.21317364	1.9511281	0.0014062402	-0.26289842	-0.09387892	-0.38750067	0.08158975	-0.068387456	0.9769617	0.008557482	0.6226418	-0.50952166	0.058059547	-0.28285596	0.09699031	0.81632644	-2.0982625	-0.06966345	-0.38870013	0.38769063	-0.020755589	-0.46085846	0.124999315	-0.06493182	0.11596476	-1.8003345	0.4727771	-0.6057959	-0.012154696	0.05886398	2.1531284	0.41807067	-0.46963006	0.12269012	0.035019513	0.19434775	0.2500665	-1.1324575	-0.97895175	0.6580964	-0.36933827	-0.38823697	0.9852683	0.25132808	0.3523092	0.3536066	0.75762844	-0.27048832	-0.121240914	-0.20918864	-0.33864123	1.9974737	-0.14148076	-0.10919442	-0.055104043	-0.5500471	0.13500585	-0.28262493	0.97092706	-0.013715436	0.75360125	-0.19611782	0.14249493	-0.23489235	0.024182262	1.0494667	-2.0304406	0.021934118	-0.42605555	0.59701455	0.12782805	-0.39895818	0.21856275	-0.012528685	0.10885574	-1.8309894	0.29138508	-0.75223964	0.078912824	-0.017946286	2.9549978	0.4294721	-0.35304332	0.19795498	0.13354027	0.23149924	0.23112671	-1.1298763	-0.96855384	0.80973387	-0.82647586	-0.15640573	0.30501735	0.04505104	0.7901319	0.36834857	0.7708299	-0.02585069	-0.3019006	0.1953323	-0.46820113	1.7640209	-0.096274324	-0.111483544	-0.080616966	-0.73873657	0.2520447	-0.41130796	1.0981672	-0.06718786	0.85477215	0.025956295	0.16525277	-0.5045833	0.50138676	0.98333687	-1.7296661	0.2097041	-0.46405	0.5450976	0.14414887	-0.28483963	0.35413864	0.11040021	0.38894552	-1.3215297	-0.13292056	-0.35626173	-0.0005875509	-0.09625724	3.0293384	0.039348964	-0.5838389	-0.018677123	-0.20167056	-0.28333375	-0.88219875	-0.35498342	-0.066694565	-0.24386486	-0.13486134	-0.24476635	-0.07814898	-0.005322616	0.010935829	-0.62132967	-0.15974239	-0.19050613	-0.13757159	-0.20224616	0.0407057	0.17874217	-0.093018495	-0.038729675	0.15613963	-0.027940447	-0.10812836	-0.18972467	0.060241945	-0.20072973	0.1046646	-0.10265233	0.0065012746	0.021903576	0.014363656	-0.35897037	-0.04441977	-0.044436682	-0.014524443	-0.03609482	-0.48492476	-0.6092193	-0.20480976	-0.15728512	-0.090423554	-0.52456254	0.02743784	-0.031509556	-0.11987285	-0.17781745	-0.119850785	0.027992649	0.16719732	0.00839415	-0.11051592	-0.27280232	-0.98482615	-0.38691634	-0.070210025	-0.26889798	-0.08591631	-0.23453906	-0.032902736	0.00081479823	-0.04144763	-0.6221492	-0.07442993	-0.23319016	-0.09314768	-0.22067624	0.16067676	0.1363384	-0.09266153	-0.058946703	0.12555425	-0.08268617	-0.11136991	-0.04561074	0.021327985	-0.19073197	0.118019626	-0.0935619	0.0006915709	0.023918383	-0.004458041	-0.26790622	-0.051831696	-0.058067787	-0.06820362	0.045361154	-0.48352185	-0.57244486	-0.2780327	-0.16185887	-0.106584966	-0.5071893	0.026354712	-0.04539658	-0.05554014	-0.15936226	-0.06438593	-0.034449153	0.18464522	-0.022865785	-0.030220997	-0.2764256	-1.044356	-0.3815453	-0.039353196	-0.22845803	-0.0825028	-0.26946506	-0.18592139	0.021592813	-0.024502527	-0.59330183	0.019412117	-0.3603627	-0.029518807	-0.14946198	0.24406324	0.05084112	-0.119867414	-0.07433962	0.095517516	-0.1124036	-0.078016676	-0.06228079	-0.029774413	-0.06177428	0.11488684	-0.17311442	-0.0071743457	0.041500177	-0.025539976	-0.23258978	-0.0637666	-0.017823063	-0.062126875	0.012934422	-0.4749374	-0.5680493	-0.32447904	-0.1623867	-0.11312326	-0.46966597	-0.024844734	-0.09267871	-0.039197944	-0.11982773	-0.05847001	0.03362096	0.13130099	-0.012900092	-0.107353814	-0.31007224	-1.1139948	-0.37865862	-0.027412353	-0.19930395	-0.14094947	-0.29464313	-0.11721071	0.00025585105	0.042136952	-0.6319582	0.0032205728	-0.25547096	-0.0350364	-0.072694734	0.063350655	-0.02466251	-0.07499698	-0.06853207	0.07386957	-0.12296932	-0.1203812	-0.025142305	-0.029630082	-0.044136703	0.12462415	-0.28783914	-0.0039256527	0.07321679	0.044571146	-0.23588102	-0.04002018	-0.016944695	-0.040764943	0.01861813	-0.43004504	-0.5675005	-0.33252406	-0.15559855	-0.06700543	-0.48266107	-0.0071528587	0.023919018	-0.06317309	-0.13030556	-0.07735751	0.06299918	0.0120586315	-0.027207045	-0.14954585	-0.34333545	-1.1542891	-0.3998479	-0.015765768	-0.17019112	-0.15990782	-0.31459707	-0.06960204	-0.0014624748	0.11891248	-0.64925843	-0.00060683565	-0.20122898	-0.041746087	0.013659449	0.020905418	-0.083330564	-0.030042402	-0.04236354	0.065090105	-0.120797776	-0.13583075	0.0530438	-0.033976033	-0.031433523	0.14818716	-0.31604803	0.012435441	0.076656945	0.08481991	-0.23521446	-0.014983408	-0.035190627	-0.03544232	0.022191022	-0.35933223	-0.55140954	-0.370716	-0.14604639	-0.04736124	-0.5008661	-0.017463457	0.058056105	-0.09110338	-0.09458148	-0.08303085	0.07329612	-0.15996188	-0.02702077	-0.13445488	-0.40657195	-1.0771941	-0.42212966	0.008960833	-0.13699998	-0.2242177	-0.34191903	-0.0732442	0.018689992	0.21733348	-0.6649791	-0.009485219	-0.20551103	-0.0737927	0.09543787	0.067149445	-0.13047409	0.031101953	-0.0037796712	0.09260888	-0.1282819	-0.1325733	0.085927114	-0.033318587	0.010707801	0.17505252	-0.36499614	0.046194922	0.054283842	0.10713634	-0.25065333	0.0043306653	-0.039098963	-0.010475262	0.0075855586	-0.35776424	-0.55583805	-0.4368041	-0.1475663	-0.017031714	-0.54064715	-0.05357499	0.098340385	-0.13932247	-0.012383542	-0.1233583	0.060957834	-0.42149925	-0.006910723	-0.06897966	-0.51849794	-0.7210668	-0.4125582	0.00619408	-0.11675132	-0.2606654	-0.3723	-0.07543738	0.0633067	0.2142512	-0.6418638	-0.06911106	-0.22499886	-0.092210166	0.15541728	0.13904573	-0.118115515	0.105325565	0.086087234	0.12149444	-0.11614694	-0.1226951	-0.048089847	-0.0101330485	0.046008296	0.1985033	-0.28971693	0.072889924	0.032276172	0.14121209	-0.17644326	0.026839938	-0.0008078235	-0.012203811	0.05370053	-0.42936224	-0.56968546	-0.62057084	-0.14969522	0.047852308	-0.6427736	-0.047338754	0.1789373	-0.14763834	0.07538305	-0.02595854	-0.055832595	-0.81338984	-0.0108530475	-0.3532028	-0.6492231	-0.5162619	-0.43692547	-0.07885542	-0.079340056	-0.30914232	-0.48775512	0.0042239646	0.10976406	0.21078566	-0.60903263	-0.14775975	-0.27517855	-0.124550186	0.27055573	0.4230734	-0.09480587	0.27680808	0.078287736	0.11549256	-0.09834699	-0.031151313	-0.31804246	0.019191004	0.018698538	0.16396707	0.03902223	-0.058089342	0.14271079	0.17739946	-0.11742831	0.012727041	0.010148771	-0.05928134	0.15098308	-0.20711035	-0.6208164	-0.7680247	-0.12524234	0.10689561	-0.7571954	-0.0038704665	0.24791285	-0.13627143	0.16556184	0.17513074	-0.01656292	-1.3324456	0.118411876	-1.496623	-0.30047342	-0.7195241	-0.57010263	-0.35718313	0.35208553	-0.91488594	-0.58222485	-0.24510539	0.0797717	0.6474092	-0.47303906	-0.15258083	-0.49159753	-0.16459076	0.96587265	0.90323496	-0.3529702	0.8354469	-0.35766098	0.6396538	-0.3293904	-0.0015800954	-0.5059481	0.0636025	0.182172	-0.38898465	0.04128623	-0.53497773	0.40021762	0.2235937	-0.7673045	-0.020295288	0.31493536	0.03525143	0.075707145	-0.22652623	-0.35612938	-0.31482962	0.23695382	0.024033971	-0.43286803	0.14164044	0.59995615	-0.40788144	0.12454549	0.014202917	0.1518129	-1.2886988	0.38395184	-2.090598	0.016165715	-0.3301495	-0.5467855	-0.6147626	0.28049877	-1.2589158	-0.4581163	-0.44336143	0.08734599	0.93380624	-0.42191094	0.052353833	-0.29074323	0.038916573	1.2958769	0.014670374	-0.6397825	1.0176834	-0.92948127	0.7628343	-0.83337206	-0.17966267	0.89640945	0.051486462	0.25069284	-0.7761787	-0.81458724	-0.35810968	0.37286317	0.12217571	-0.64596707	-0.09132345	0.57653016	-0.08841988	-0.15924764	-0.96494627	-0.1608546	-0.100907475	0.12878117	-0.3621113	-0.08783112	0.24767584	0.93886614	-0.65265286	-0.035005912	-0.03370694	0.059075147	-0.1540248	0.5073556	-2.0158129	0.04342428	0.0015308356	-0.60605496	-0.70002156	-0.10417765	-1.4303988	-0.4393762	-0.50433916	0.07937918	0.8750893	-0.36928645	0.21656477	-0.11648403	0.03281087	1.296797	-0.8345286	-0.71815145	0.90308696	-1.0222325	0.8400797	-0.95498043	-0.7846993	2.001609	0.018506432	0.2635489	-0.6642974	-1.03006	0.00089177955	0.32677007	0.124438345	-0.49085593	-0.016374385	0.64707804	-0.14596994	-0.25019285	-1.159372	-0.19834489	-0.045892086	-0.121690996	-0.66210645	0.04833791	0.18298703	0.99133337	-0.7430837	0.09269533	0.27155873	0.054281473	0.21977678	0.4835838	-0.50269467	0.04659634	0.24389641	-0.7316368	-0.7312805	-0.39131364	-1.8652074	-0.4772983	-0.1740586	0.08621615	0.5608116	-0.21366857	0.2151893	0.051532872	-0.016545748	1.1409209	-2.1942346	-0.7374126	0.7635571	-0.8436318	0.79988456	-1.1876493	-1.8259448	2.8490696	0.0626627	0.34789053	-0.3763402	-0.64415646	1.0067796	0.08461923	0.03903734	-0.2536669	0.13091412	0.5940242	-0.16955826	-0.21727775	-1.1234173	-0.247352	-0.09699911	-0.08898437	-1.0091343	0.3351787	-0.07057758	0.7825365	-0.6843107	0.42531642	0.76818573	-0.010011191	0.13075162	0.5574397	0.89904255	0.005265543	0.38531968	-0.7786791	-0.8717964	-0.5752111	-2.1674104	-0.5491801	0.14898941	0.11808758	0.26494792	-0.25704256	0.037101533	0.085841306	-0.09343448	0.91949254	-3.3700752	-0.60714585	0.61285776	-0.6522356	0.84403545	-1.131631	-2.3489008	2.905869	0.12758118	0.3072859	-0.25602493	-0.9865756	1.4214416	-0.10013485	0.03799196	-0.005881282	0.17215745	0.45246977	-0.18003319	-0.027068894	-1.0881493	-0.33816913	-0.037099287	-0.101453714	-1.1681038	0.41223145	-0.03361714	0.5885644	-0.67438954	0.70356	1.4431262	-0.020627968	0.17463522	0.6343364	3.7931476	-0.06776512	0.4478107	-0.9360666	-1.0427833	-0.5190305	-2.6637635	-0.6540199	0.5994046	0.26211837	-0.2807982	-0.14551365	-0.3050974	0.038323287	-0.19570711	0.56052715	-4.4325314	-0.44370362	0.50148714	-0.28569135	0.9721531	-1.1429046	-2.7748458	1.7378522	0.19507092	0.17745389	-0.08346275	-1.3815186	2.0605936	-0.73023236	0.1739833	0.09548517	0.2764125	0.2413478	-0.29660472	0.47412932	-0.9445434	-0.42510822	-0.1153398	0.08457983	-1.1882038	0.5379149	0.06435565	0.48507208	-0.6423994	1.038801	2.0500572	-0.12494535	0.031598013	0.65389264	4.2446384	-0.221092	0.4554087	-0.84652585	-0.93988	-0.48451406	-2.607551	-0.7746095	0.2567708	0.51689184	-0.6520322	-0.111384556	-0.577798