4
21	40	40	256
-3.2218141555786133	3.7906301021575928	-2.361895799636841	5.5599894523620605	-2.089648962020874	-1.185254454612732	-1.2699214220046997	0.42939573526382446	-2.4329311847686768	-3.032097101211548	-1.4626144170761108	2.5869014263153076	-5.176700115203857	2.7045657634735107	-1.9186843633651733	-2.7830681800842285	0.33925697207450867	0.5420502424240112	3.9679641723632812	-0.7740756273269653	-1.5913825035095215	2.7791850566864014	3.0653412342071533	2.5801734924316406	3.844205379486084	0.7355513572692871	0.21925991773605347	-2.6571176052093506	-0.9689106941223145	0.38150447607040405	0.23679661750793457	3.1454856395721436	1.7623393535614014	-2.8304359912872314	2.2980997562408447	-2.406581163406372	0.42749571800231934	-1.7565134763717651	-1.7347558736801147	-1.5559098720550537
-1.5535955429077148	0.4201973080635071	-2.495392322540283	0.5567378997802734	0.4240581691265106	-1.1447314023971558	-0.4650000035762787	-0.15697908401489258	-1.5080301761627197	-0.6081218123435974	0.27515149116516113	0.5518902540206909	0.4454019069671631	-0.836879551410675	-0.3786095380783081	-0.17056064307689667	-0.6020978689193726	-1.1088371276855469	0.8264845609664917	0.8358893990516663	1.195441484451294	-0.760761022567749	-0.8058620095252991	0.40928637981414795	-1.1185001134872437	0.10975782573223114	-0.6401513814926147	-0.6996498107910156	-0.3087572753429413	-0.8339014053344727	0.5947882533073425	-2.347135543823242	-0.2648112177848816	1.3197685480117798	-1.0191481113433838	0.18860667943954468	-0.6288877725601196	-1.8817570209503174	0.026883389800786972	-0.11918917298316956
0.8504214286804199	0.8665942549705505	0.8867211937904358	0.8453611731529236	0.7934240698814392	0.6943790912628174	0.6653687953948975	0.5147879719734192	-0.3374605178833008	-0.7447105646133423	-0.7665336728096008	-0.6886863112449646	-0.790913462638855	-0.39049214124679565	-0.05949420854449272	0.9678142666816711	0.9872841835021973	0.9796343445777893	1.0036213397979736	1.0753620862960815	1.0320515632629395	1.0659681558609009	0.9070393443107605	0.7228994369506836	0.5288224816322327	-0.09735918045043945	-0.4962979555130005	-0.8747095465660095	-1.152058482170105	-0.852156937122345	-0.5287405848503113	0.24902482330799103	0.3248349726200104	0.40623557567596436	0.29032713174819946	0.2557414472103119	0.4198623299598694	0.6578527688980103	0.5716794729232788	0.8666132688522339	1.2494769096374512	1.027816653251648	0.5301933884620667	0.09760139882564545	-0.04345173388719559	0.5479281544685364	1.0789774656295776	1.5300946235656738	-0.49870240688323975	-0.31411367654800415	-0.09784682095050812	0.36593499779701233	0.5388067960739136	0.5635755062103271	0.380952924489975	-0.19875109195709229	-0.7883513569831848	-0.512420654296875	-0.5026075839996338	-0.6414474248886108	-0.5962710380554199	1.0979077816009521	1.687316656112671	2.0091121196746826	0.18632565438747406	0.3655202388763428	0.5814147591590881	0.24275419116020203	-0.08128034323453903	-0.21019664406776428	-0.25677263736724854	-0.07604009658098221	0.32584354281425476	-0.24997824430465698	-0.46209990978240967	-0.8366092443466187	-0.9948707818984985	-0.30777791142463684	-0.44919922947883606	-0.35833314061164856	-0.3146727681159973	-0.13691554963588715	-0.11264364421367645	-0.0993817001581192	-0.0643661841750145	-0.046852439641952515	-0.007547454442828894	0.02703113853931427	0.13592378795146942	0.23928330838680267	0.21581636369228363	0.1858891397714615	-0.05644998699426651	-0.019374679774045944	-0.08077368885278702	0.16852107644081116	-0.1412109136581421	0.13040943443775177	-0.02621285803616047	-0.5224378108978271	-0.9813582301139832	-1.405910849571228	-2.0033111572265625	-2.5336334705352783	-2.2060821056365967	-1.073875904083252	-0.5125551223754883	-0.055463939905166626	0.42810195684432983	0.3836948871612549	0.14764602482318878	-0.1797342300415039	-0.6329089403152466	-0.6076006889343262	-0.5296877026557922	-0.4969007074832916	-0.4306333661079407	-0.4059816896915436	-0.28530779480934143	-0.030121851712465286	-0.15859147906303406	-0.2309281826019287	0.02627425827085972	0.08655445277690887	0.6831576228141785	0.5380309820175171	0.38109225034713745	0.3600378930568695	-0.9976900815963745	-0.30139854550361633	0.535128653049469	1.0499632358551025	1.158112645149231	1.0889267921447754	1.0131690502166748	0.46881917119026184	-0.05501319095492363	-0.1708313673734665	0.4189455509185791	0.9115720987319946	0.7287578582763672	0.1953648030757904	-0.22555819153785706	0.09623804688453674	0.5333552956581116	0.6349843144416809	0.6341530680656433	0.6708272099494934	0.6963943839073181	0.7328329682350159	0.5687535405158997	0.5213203430175781	0.2863313853740692	-0.450432687997818	-0.8875417113304138	-1.3016307353973389	-1.3387991189956665	-0.7986948490142822	-0.655680239200592	-0.8758038878440857	0.7627555727958679	0.8313651084899902	0.9511500000953674	0.8529745936393738	0.7776824235916138	0.645412266254425	0.5415017008781433	0.41146165132522583	-0.031296078115701675	-0.770869255065918	-1.1456665992736816	-1.1812440156936646	-0.8198044896125793	-0.42982321977615356	-0.7148412466049194	-0.5869687795639038	-0.7744364142417908	-0.5604656338691711	-0.3795894384384155	-0.03824600204825401	0.17410507798194885	0.45416927337646484	0.807558000087738	0.8479621410369873	0.7791739106178284	0.8189436793327332	0.8394898176193237	0.9045900702476501	1.0684722661972046	1.3713505268096924	1.5656386613845825	1.620700478553772	-1.3979235887527466	-1.2469446659088135	-1.2632169723510742	-0.8246526718139648	-0.047691356390714645	0.7368490099906921	1.2565239667892456	1.5533314943313599	1.6869406700134277	-0.40389734506607056	-1.4604026079177856	-1.816361904144287	0.07081156224012375	0.9610340595245361	1.1176669597625732	1.4511789083480835	-1.149681806564331	-0.6327316164970398	0.27957800030708313	0.5387836694717407	0.41968807578086853	0.2282538115978241	-0.19780008494853973	-0.5174785852432251	-0.4597901701927185	-0.4330996572971344	-0.6826257109642029	-0.7626035213470459	-0.589474618434906	0.3023470938205719	0.6941572427749634	0.7923151850700378	-2.61466383934021	-2.328667402267456	-2.0079336166381836	-1.746659755706787	-1.275111436843872	-0.7111908793449402	-0.1992015391588211	-0.06637974828481674	-0.34863725304603577	-0.5329933166503906	-0.4013479948043823	-0.26840418577194214	-0.14603327214717865	0.10075068473815918	0.23342028260231018	1.382678747177124	-2.280444383621216	-1.7487963438034058	-1.3189889192581177	-0.7567055821418762	-0.45608848333358765	-0.1246473491191864	-0.05013451352715492	-0.24103322625160217	-0.6122211217880249	-0.5034324526786804	-0.5315770506858826	-0.4652402698993683	0.07675281167030334	0.7375661730766296	1.1965488195419312	1.4064431190490723
0.03590854	-5.8620605	-0.09611983	0.5090889	0.014386029	-0.050269764	-0.005248589	-0.16774411	-0.14515905	0.018153626	-0.03524592	0.01429842	-0.0062613823	-0.016798088	-0.003441802	-0.017790718	0.0034644979	-0.008070747	0.044169344	-0.5425301	0.04306722	0.48338997	-0.4164997	-0.6162761	0.18798967	0.5118124	0.860735	1.4982754	0.6038851	0.34779885	-0.19143882	-0.32109967	-0.15720819	-0.2681224	-0.2718215	0.0652675	0.089333914	0.08769604	0.0013353254	0.21595809	-0.0012843212	-0.026086064	0.12037914	-5.033327	0.01008273	-0.67643416	0.38467917	0.0018291514	0.21591416	0.18602999	0.19346265	-0.03543121	-0.0070012216	-0.058294065	0.15989542	0.059926912	-0.055685636	0.038982145	-0.11390373	-0.025242977	-0.07146392	0.044706084	-0.0155940335	-6.608267	1.1087973	-0.28671262	-0.7461929	-1.0448567	-0.44779828	0.5785465	-6.7557807	-6.6243567	-0.5495802	-0.0539068	0.4577574	-0.27508408	-0.1981292	0.19234093	0.12941356	0.1955873	-0.07643371	0.31080598	-3.8827236	4.011262	0.19793518	-4.420701	0.07009633	-0.29694045	-0.33437836	-0.010573042	0.008895593	0.10551477	0.0710748	-0.115096785	0.020382958	0.074272305	-0.045293007	-0.042886484	0.03419093	0.019460106	0.01493053	-0.013995638	0.0075556985	0.41566026	-0.07198756	0.04412382	-2.0973272	0.3188872	0.023427887	0.34250453	0.07201545	-0.015836416	-0.3032849	0.20029245	-0.017397422	0.09905162	-0.02348689	0.11678141	0.11987692	-0.032710046	-0.04549252	-0.04907049	-0.04262008	-0.10782423	0.041893724	0.16498178	-0.80688983	0.495399	0.07508643	0.034408793	-0.045939956	-0.61773795	3.304829	-0.44810006	-0.5953592	-0.25096005	-0.3517943	0.28643072	-0.24304594	-0.3652595	0.11386589	0.47146395	-0.009038819	0.03781545	0.44144484	0.02929076	-2.6676874	-0.1996732	-0.5353565	0.053070527	-0.29633886	-0.09591425	-0.012502618	0.01524304	0.24187566	-0.27226087	-0.025901379	0.029019525	0.028994141	0.014770334	0.01180177	0.008404577	-0.0006626883	-0.031797554	0.00798714	-0.0064380667	-0.13474299	-0.12809503	0.16670755	-0.06721598	-3.8822062	0.02403335	-0.51786655	-0.17315689	0.3619248	0.2001075	0.24638575	-0.40946895	0.14438766	-0.2442403	0.47287157	0.84209716	0.36279806	0.2664269	-0.4427189	0.3849807	0.10641978	-0.06679719	0.13897812	-0.14599083	-5.4556656	-0.07040897	0.14957769	-0.29818368	0.019586908	-0.3404185	-0.004446336	0.06156644	0.07819126	-0.07250296	-0.111074686	0.115675904	-0.005818061	-0.025527498	-0.024099436	-0.05071233	-0.00681516	-0.024717415	0.0002144342	-0.4935248	-0.20950478	-0.50824976	-0.052025687	0.0892147	-0.020191163	-0.09509929	-1.3802747	0.19920528	0.0919355	-0.0009769655	-0.015186258	0.021409987	-0.076242864	-0.002211572	0.022109197	0.07225806	-0.010520219	0.055274952	0.08696371	1.1939127	-0.320298	0.22606999	4.1618342	0.1019494	-0.67823124	0.34384874	0.003238092	0.12093707	0.064150415	0.6845672	0.009871276	-0.035256125	-0.038364816	0.048007537	0.010818265	-0.04396642	0.036025442	-0.031398304	-0.028158648	-0.025910897	-0.7476449	3.2754774	-21.57226	-5.6626406	0.050213784	-0.24922228	0.94403666	1.0673406	-1.2934262	-21.754019	-21.821344	0.013394106	0.64762497	-0.33557096	0.3898438	-0.1272676	0.30500078	-0.635117	-0.1065971	0.40453342	-0.19884202	-0.1692105	-11.044239	0.7207313	-2.794258	2.3735976	-0.28470817	0.14166038	0.5336342	-0.6977754	0.8773616	0.84728473	0.110838816	-0.03652632	0.099370286	-0.1930806	-0.10006818	0.07348802	-0.46344325	0.5496777	0.10328292	-0.44245845	0.33207408	0.13229391	-0.05903724	-0.9947839	-0.06289625	-0.28843588	-0.12440707	-0.16917826	0.1661969	-0.10800322	-0.052684505	0.030654162	0.10149338	-0.039664254	0.07070234	0.09088051	-0.01873793	-0.061141666	-0.042171083	-0.00023402067	-0.06699403	-0.56408715	-4.2614727	0.28619	-4.3379936	0.0672198	0.26991233	0.06407906	0.10942646	0.421202	0.31411174	0.20838912	-0.0056718695	-0.12524097	0.09324739	-0.28083786	-0.24948592	0.040058237	0.08747464	0.1784165	0.0004100775	0.12727666	-1.4684353	2.2681553	0.15440443	-8.315724	-0.15443152	7.3522296	-0.30331552	-0.012570912	0.035746742	0.135637	-0.10682535	0.030945271	-0.0824781	-0.022259355	-0.059761427	-0.057232976	0.0058843903	-0.028469954	0.09971474	0.007870175	0.070059836	-0.6501087	-0.6171548	-0.096901126	-0.1942284	-0.44871983	-0.20167132	0.06850899	0.038296618	0.05380063	-0.03180121	0.1338498	0.12624562	0.02479076	-0.089083746	-0.04017991	0.0275591	0.009224554	-0.15734592	0.11030453	0.04926373	-0.051153846	-0.029796842	-0.20794532	0.39022115	-0.58250785	-0.4030258	0.11636228	0.27848646	-0.042252995	0.31679925	0.63260806	0.5082819	0.19619039	0.022975434	-0.31500554	0.25799033	0.47974333	-0.17691949	0.1051061	-0.17476101	0.1389454	0.1421427	-0.64560604	1.7966535	-0.13484368	1.0270641	-0.010003374	1.0888164	-0.15711136	-0.058524255	-0.30428222	-0.006477201	-0.1378725	-0.027820747	-0.061845012	0.014091976	-0.1032186	-0.054781597	0.014922304	0.12376039	0.022006284	0.03571453	0.08434803	0.20911776	-2.967055	-0.19016747	0.11296577	0.08029682	0.7518311	0.19483212	0.008550088	-0.24218063	0.028124986	-0.11645457	0.03065097	-0.020781253	-0.03954257	0.039291073	0.0016110273	-0.015554037	0.051367886	-0.055354025	0.0031569863	-0.0054963217	-1.3305659	-0.95494145	0.63891524	-1.4820812	2.1552649	1.93285	0.19891186	-1.1073993	-1.9511125	0.48735157	0.47786418	-0.660073	0.4147644	0.1594054	0.434351	-2.2248704	2.6485555	-0.45164576	0.6968976	0.788652	-0.9277718	-0.6422702	0.71183115	0.7232998	-0.6638893	-0.034644675	-0.11010604	0.17870118	0.44369632	-0.4802388	0.4870781	0.84119904	0.072342105	0.3458384	-0.042764142	-0.20889588	0.14277826	0.07339228	-0.35152927	0.20108762	0.06778693	-0.17673378	0.6732793	0.9498524	-0.34133992	1.4878322	0.27560565	2.7550142	-0.18689533	0.0605693	0.01758202	0.111676104	0.0033828986	0.01598376	0.11386901	0.027609102	-0.07760349	0.07581633	-0.00064221583	-0.12967499	0.10516084	0.03977998	-0.092616305	0.08788966	0.17218696	0.33985633	0.67761135	2.901824	0.0053113117	0.3236545	-0.053854533	0.09239631	0.0051248325	0.06996322	0.047022063	0.106927805	0.13627797	-0.47789904	-0.18472937	0.14545763	-0.23967063	0.2943565	0.16977222	-0.069709934	-0.23041238	0.11468642	1.354776	0.16377449	-2.7640808	0.26807356	0.2591638	-1.2434642	-2.6748765	1.5354828	1.6676462	1.5861603	0.13578351	-1.3519195	0.68771	1.0881408	-1.3684341	-0.59262335	-0.16371119	-0.74373287	0.36397442	-0.18753697	0.08382837	0.070418045	0.18976323	-0.050623454	-0.10948812	-0.11700187	-0.04088475	-0.09175559	0.17293948	-0.005809733	0.032742035	-0.059199784	-0.0030980236	-0.08920972	-0.05146489	-0.0065582707	0.031748913	0.05158576	0.0070393574	0.06769601	-1.3026195	0.5305797	-0.09006247	-5.9535007	0.083509564	0.6264324	-0.06272739	-0.035656296	0.1063743	0.120978534	-0.07946652	0.02112018	-0.123160444	0.03394304	-0.19926825	-0.14424607	0.014912795	0.16711529	0.084028944	0.037530866	0.14227653	0.15385795	0.15270424	0.0692695	-6.0376987	0.22529654	3.1912787	-0.102427326	0.024282992	0.06779101	0.1068142	-0.17612977	-0.01447537	0.0673278	6.768838e-05	0.01716117	0.09579404	-0.039796766	-0.035779797	-0.00076908804	0.009364535	-0.05791957	0.098190896	-0.03489415	-0.12032804	-0.0014023056	0.040533282	0.93527967	-0.09194777	-0.028257424	-0.04499493	0.2871684	0.13578984	-0.04002329	-0.07994762	0.04404739	-0.16023365	-0.105781935	0.0068636276	0.13595824	0.050474744	0.021276208	0.09257896	0.077061445	-1.2865374	-0.36008534	0.45038065	0.0028605545	0.7737119	-0.36756217	0.00038742815	0.7877499	-0.28949845	-0.26015255	0.16439928	-0.09428454	-0.045795538	-0.10301571	-0.112064734	0.006852152	-0.06203046	0.08925083	0.04843064	0.04867379	0.37805602	-1.5316788	0.15564418	4.8005557	-0.14670816	0.914801	0.041896798	-0.04274019	0.09625909	0.04352774	-0.21491873	0.025174793	-0.05147776	-0.03177788	0.019929936	-0.029172786	-0.010561565	0.050660208	-0.03998618	-0.0022120357	0.037611924	-0.038102437	0.26565617	0.24614537	-1.1096514	0.389762	1.6446668	0.17212604	0.08300105	0.16716437	0.0138717	0.4631251	-0.007220661	0.13727154	0.010841417	0.11329287	0.11579112	0.0048180316	-0.13377196	-0.03575916	-0.023574851	-0.11258576	0.15903047	-0.24990882	-0.20726427	-5.797115	-0.12627026	1.1228945	0.023837274	0.041775074	0.11290681	0.06187377	0.05034686	0.06175255	-0.04449466	-0.053600542	0.03191908	-0.014199502	-0.0101662455	-0.018378656	-0.012249149	-0.00056178845	-0.0031272974	-0.5538754	0.5438904	0.79073113	-1.4154518	0.96630406	-1.694503	0.8607819	-0.032200024	-0.14301181	0.5423181	0.80881834	-0.13853438	0.22326337	0.24037595	-0.2857756	-0.24647886	0.16010082	0.006730018	0.17263275	0.012878087	-0.13894974	0.15978965	0.5117269	-0.16932921	-5.2473516	-0.3014142	-0.19349417	0.13170478	-0.031369913	0.050027408	-0.026456522	-0.08878554	0.025787747	0.11115071	0.03147425	0.013085749	0.06944537	0.006502505	-0.097466886	0.0036666933	-0.0075227544	-0.026540505	0.19024359	-0.21403182	0.44487587	-0.36577532	-5.189086	0.04758537	0.15591349	2.040727	3.1518924	0.714757	0.7946095	1.7527086	-1.8067571	0.50041795	-0.35876366	-2.667903	-1.610588	0.5615266	-0.2114374	-2.4718516	-0.5513482	-0.057489492	0.41024238	-0.040041726	-0.2279668	-2.1245253	-0.032972425	0.23585781	-0.547348	-0.38905784	-0.029413912	-0.10455283	-0.11477776	0.35694438	-0.36536857	0.3187155	1.0133346	0.88221717	-0.2695183	-0.55436236	1.192971	0.5006523	-0.05454276	-0.45123821	0.32603452	-5.1233087	-0.109879375	1.2402724	0.050752345	-0.04992806	-0.096242614	-0.032948356	-0.25446978	-0.0020050262	0.09787996	-0.009195601	0.04801246	0.04688857	0.024329746	-0.063410796	-0.032469768	0.0021144515	-0.06566625	0.5134171	-0.194164	-0.09253822	0.25907144	-0.87887824	0.17348938	0.42344233	0.1481314	0.06499684	-0.54476327	-0.13359962	0.077736065	0.32412755	-0.06294175	0.25650072	0.21712701	0.005035604	-0.38422295	-0.07452986	-0.0325457	-0.25053862	-0.7655933	-0.3521316
1.2703781	-0.22955517	0.8577144	0.0018162949	1.4461942	0.8675422	-3.9709594	0.1568984	-0.41909274	1.8692381	1.3240834	-2.4378982	0.24880897	-0.21892925	-0.20710602	0.63154894	0.46644637	-0.26106578	-1.1810852	-0.31905958	-0.45257348	0.036930367	-1.103634	-1.170101	-0.018009502	-0.011208066	0.47876492	1.9316602	1.2253715	-0.47819352	-2.1484854	-3.6858404	0.089382686	2.2970157	-0.11850199	1.5757833	-0.44781393	0.18119577	0.91824543	0.049648754	0.4192298	0.15071729	0.28800708	0.07615827	0.5784559	0.65784025	0.11485495	1.0937549	0.6453819	1.1352613	-0.23292698	-1.501897	0.13347352	-0.048757214	0.8802815	0.06238328	0.22448023	1.0812914	-0.54993904	-1.1308222	0.98992723	-0.035964146	-0.1669153	0.33063227	-1.3601638	0.20127307	1.213507	-0.7537445	-0.059462458	-1.1071366	-0.29883486	1.1859878	-0.16030166	0.80119705	-0.3066326	0.5608783	0.09007053	0.0027309689	-0.42510307	0.033391636	5.4357677	-0.9822939	4.4701576	0.56551766	4.4962797	2.0370889	-0.41922784	-0.3333134	-1.4800249	5.3784304	0.9624278	-4.8774867	-0.18633485	-0.64861494	1.2273555	3.5293512	0.3438647	-1.6616942	-2.7172666	-1.6506821	-1.1084005	-0.5455473	-2.4962084	-2.6097631	-1.3419005	-0.4823157	-0.026122121	6.417191	2.8042438	-0.30557096	-0.51393646	-9.896334	-0.7723252	5.224658	-1.3203826	4.714041	-0.17024983	0.69779825	3.3963482	1.0626317	-0.2995836	2.289814	0.094964124	-0.5539314	1.170214	-0.29809606	-0.15771453	0.025703706	1.2831441	0.30326432	1.3053889	-2.4175024	-1.3754278	0.85919756	-1.338188	-1.0541124	0.52612185	-0.20912817	2.753905	-0.7328964	-1.5683079	-0.7144827	1.8401023	-0.019611532	0.538558	-0.047037177	1.2976432	0.86031365	-0.9613766	-0.8405093	0.56652194	0.6348496	0.020800203	-0.16388282	0.08859286	-0.48024386	0.5407368	-0.689272	-0.57292926	-1.9930214	-0.56965804	-0.046658684	0.0129389465	-0.116168916	-0.22059602	-0.37770805	-0.07298806	-2.039766	0.12250532	-0.15983804	-0.23102957	-0.10574042	-0.18436533	-0.05050286	-0.81462824	-0.030784857	0.6510544	-1.247958	-0.23071615	1.8477347	0.27999005	0.07079986	-0.47257462	1.068864	0.11047091	-0.0074671456	0.1886538	-0.21218045	1.4210896	0.95178604	0.6892544	2.5842586	-0.20808111	-0.4039735	-0.6381913	-0.1009167	0.018275047	-0.058091737	0.7895892	0.78108704	2.0868342	-0.34908342	1.3421153	0.13633789	1.8233143	1.9977453	-0.050833695	0.211022	-0.9862288	1.184637	-0.13042559	-0.91949517	0.33743373	0.14503776	0.62019116	0.8216372	0.17990927	-0.08834987	-1.6640594	-0.26845425	0.77781254	0.09089177	-0.95167947	-2.0643182	-0.4990826	-0.18609335	-0.42186868	2.038736	1.0258332	-0.93965065	-0.21926562	-4.2083964	0.64090997	1.7701242	0.054142494	1.111581	-0.116903596	0.28015462	1.6638681	-0.3106516	1.8325058	0.09309514	0.2849486	-0.011118226	-1.0278534	1.9211696	0.17033325	0.34653544	-0.034733526	0.4227769	0.3218042	-1.1850328	0.06468345	0.13016163	0.09445693	0.09062487	-0.37407938	0.39592382	-0.6350583	0.13961482	-0.86521286	-0.08050814	0.6315915	-0.7532155	0.86327606	-0.012271028	0.39376807	-0.71413296	-0.1639238	0.8553392	-0.25373894	-1.6639711	1.3049902	0.14236397	0.6474079	-0.7614576	0.012998645	0.024208525	1.0011547	-0.57727915	0.11819724	-3.4772382	0.8453216	0.22467539	0.8568347	-0.05515501	0.79384464	0.535226	3.9092247	0.7504003	1.0669237	-2.5060976	0.7112194	-4.3696923	0.27436414	-0.45926017	0.056848057	-0.17155017	-1.6294822	1.2236928	0.23903306	-1.3399957	-2.0672233	-1.2757212	-3.6436384	2.5040853	0.012392203	0.053816304	-0.178349	0.5723111	0.44766012	-1.0523393	-2.1357553	-0.93171203	-3.1820745	0.8279733	1.6204375	1.9093642	0.9240781	0.636525	1.2862775	-0.22447804	2.5623891	-0.17434233	1.6841092	0.37471312	-0.17294419	-0.04244174	-0.21368057	0.9855706	0.43646652	-1.9140571	-0.07625435	-0.0045872796	0.24858755	0.22130595	0.9279768	0.37545782	-1.7133709	-0.7708781	-1.032873	-0.497787	-1.6813049	-1.1843771	-0.5174212	-0.1784624	0.8398494	2.328064	1.8666047	-0.14460154	-0.8560169	-4.5294385	-0.3059361	2.4171185	0.0408379	2.261044	-0.021032812	0.15398443	1.1099131	1.2547386	0.89719224	0.07166798	0.16024852	0.023729468	-0.1749677	0.59206384	0.043213956	1.0334411	0.34771562	0.43159303	-0.17665818	0.108135596	0.020084754	0.44303325	0.40804955	0.04352583	0.19920404	0.765967	-1.1909702	0.7322565	0.43127894	0.013135803	-0.17886923	-0.73057747	-1.5380237	0.04514514	0.19276392	0.32192275	-0.03995318	1.5870798	0.16197771	-0.9451576	0.7894129	0.461972	0.41571185	0.47113264	0.10690284	0.041812718	-0.77400464	1.2726314	-0.29805735	-0.033636525	0.0023945158	-0.05371964	1.0655998	-0.213231	0.12202059	1.6982787	-0.45832232	0.81465393	-0.073656	-0.035100583	0.05506773	-0.00030620059	0.19699337	-0.16572548	-0.40281644	-0.100613594	-1.4687114	0.15338711	0.22963558	-0.021526614	-0.58712155	-0.0836045	-0.079659365	-0.13644381	0.9385218	0.45486793	-0.59512186	0.25253093	-0.109974205	-0.10219197	-0.29486147	-0.00821151	-0.05475093	0.45589906	0.0023738807	0.031265922	-0.79305226	-0.22159426	0.40958762	-0.49673343	0.27318975	0.14251867	-0.09233682	-0.8805439	0.26328465	-0.39277214	0.6684781	1.1740209	0.0043912954	-1.3637006	0.1404203	-0.84395057	-0.34615362	0.9492376	0.69588697	1.1074871	-1.1772045	0.8246971	0.9712968	0.18575922	0.419736	-0.15630935	-1.9707689	0.16714807	1.0324026	-0.7604111	0.084341	1.3902789	0.25044468	-0.49012884	-0.11084984	0.13073114	-0.28939652	0.91379094	0.0005315419	-0.14910018	-0.8951408	-0.053187344	2.1369064	0.060158208	-0.33855256	0.11770089	0.3388988	1.5710541	0.29308057	0.4847773	-1.1145642	0.9983212	0.30333814	-2.2752843	0.15694246	0.7863143	0.49125373	0.36335018	0.23906288	-0.14307928	-2.125544	-1.0563602	1.9196609	-0.143842	-0.7533462	-1.4822291	1.6845231	-0.40372702	1.09185	1.3295615	0.74449867	-0.18187106	-0.24633904	-0.16321614	1.6314591	-0.6651453	-0.24130647	0.018081458	-0.13897774	0.05334875	-0.93545395	-0.9119623	2.4595058	-1.208154	1.3395612	0.5824099	1.1398271	0.4863458	-0.81677175	0.48727623	-1.1956083	2.2082264	1.9461925	-3.5055091	0.39526603	-0.5817375	1.8331981	3.2109025	2.059761	-0.30083773	-2.0680277	-0.93562794	-0.30364883	0.08392531	-1.9603431	-1.5281672	-0.66467196	-0.2878315	-1.1920826	0.7001213	0.97570664	0.37478188	1.4246447	-2.3276334	0.5871447	1.6135885	-1.1043252	1.4230955	-0.3517514	0.29882884	1.6290665	0.5605532	3.8071363	-0.11370032	0.51622266	0.04205426	0.24749763	-0.5430741	-0.08055354	2.6985133	0.062422838	-0.09238245	0.06954767	-0.53094363	0.02744781	0.13118534	1.0963187	0.0010417983	0.46181732	1.7363598	-0.5412184	0.62441087	2.7122214	0.0411103	-0.5597559	-0.5443016	-1.5747598	-0.06162349	2.1398356	-0.29337806	0.09151629	1.1934534	0.7086689	-0.32975382	0.30634186	-0.8521557	0.9068886	0.7906504	-0.10741232	-0.16930851	-0.1052083	0.2437224	0.02687655	2.0100245	-1.0011832	-0.26470512	-0.9426907	0.42041823	0.22682896	-0.15064569	-6.916821	-0.9658313	-1.2199013	5.427962	-0.54113793	4.9165444	-0.29025137	3.8520038	0.81663543	-0.74132836	1.2080745	-0.41442055	-0.61020774	3.7014616	0.6577161	3.1916134	5.7089753	-4.863531	-0.5384436	0.13861746	1.3253161	0.45407447	-0.19857958	1.1039721	3.4497905	0.9377639	2.989587	-0.7580885	-8.335143	-3.1560354	-0.5211649	-2.232582	-0.53654486	-1.8583038	-0.096132785	-0.21545224	-0.2797095	-0.89997286	-0.5419614	-0.5563576	2.8110867	0.100441076	0.17885558	0.49933842	-0.3745673	-0.3260785	0.13701636	0.11068751	-0.3807208	0.82724905	-0.9221319	0.6126373	-0.6175829	-0.21610707	0.35125476	-0.274859	-3.610206	2.1021023	0.10536834	-0.35554782	0.030910207	0.3227617	0.15210542	-0.28818396	0.19534907	0.43818355	-0.08585653	0.42315874	1.5005376	0.71324205	-0.015605374	1.8654608	1.3224574	-0.2936324	2.8765829	0.18196383	1.5537822	-0.46613654	-0.24240763	-0.5458674	-0.192829	0.8195856	0.18709831	-0.8194446	0.24838078	-0.7757864	0.27283546	0.49863467	-0.82592773	1.2678314	-0.47748157	-0.05521746	-0.023242915	-0.2270406	-0.6116093	-0.9961002	-0.16210663	-0.16059352	-0.6290033	2.3893971	0.91574687	0.17579614	-0.3903999	-3.7258918	-0.6926572	1.8192418	-0.11287285	2.3965056	-0.09150154	0.029002564	0.5942939	1.0924088	-0.045799807	-0.9210501	-0.13180368	0.03946703	-0.9698969	4.147741	0.5815042	1.2244186	0.4769435	-0.541183	1.1490028	0.55122435	-3.2862184	0.21057084	0.5039504	-0.95300955	-1.4932048	-0.01662647	1.1627511	-0.3885677	-0.7089854	-0.46866733	1.4560211	0.6603726	0.3721881	1.8328367	-0.74674875	-0.0013848783	-0.76801515	-0.42026758	-0.060901307	0.39694822	-0.17473172	-0.7820536	0.21315649	1.6118988	-1.3325841	0.18800375	0.51741254	0.8071735	1.6291656	-2.3424027	3.1228988	0.91639626	2.173259	0.39917699	1.4163839	2.1726537	0.31447983	1.7327652	-0.053419743	-1.8931148	0.05490473	0.43425617	1.7828182	0.12154892	-5.0300126	2.4765174	-0.69093525	-0.4341763	-1.1976576	-2.0258741	-1.064103	-5.63926	-0.1386614	0.78540605	2.2582703	-0.4821822	-5.6562843	-0.7062826	-0.78110933	-3.6327298	-4.6399856	-1.7777864	2.614471	2.1880586	-0.57497865	2.0959182	-3.837761	1.0640119	2.9195085	1.8892652	2.349073	-0.15672216	0.12512255	1.1338986	0.7196079	0.81270546	-0.49725708	3.266567	3.4642463	-0.18994763	0.26756856	-0.9541454	1.715166	-0.75468266	0.8595184	-0.3485073	-0.34335783	0.031973932	-2.9326935	1.2854155	0.7525333	1.5884633	0.11499843	0.19858591	-6.800779	1.833554	-0.4840991	-1.3505815	-1.0799807	1.6024519	-0.36671236	-1.8180062	-0.18155128	0.28908235	0.8016905	-0.3683998	-1.1240079	0.21808277	2.1065385	-0.36785558	-0.36702704	-0.06944705	0.030738082	0.7150157	-0.07712659	2.1653416	0.18176079	1.6106597	0.8191524	-0.75928015	-0.06588677	0.12763047	1.230086	-0.04000038	-0.23542494	1.6291459	-0.64685583	1.0380613	-2.320716	0.021289198	-0.33224747	0.27903324	-1.1720883	0.03686383	0.17047894	-0.037545666	0.2972743	2.4097013	0.4241433	-0.11584666	-0.21693054	-0.63591653	0.343693	-1.0728074	-0.113701575	-0.28010234	1.1111195	-0.6968483	0.61880887	-0.07737877	-0.026575414	0.02018786	1.0633514	2.112557	-0.08583244	1.9575893	-1.3367633	0.34395736	0.0032997876	-1.545957	0.07581057	0.05950632	0.17332825	-0.2704022	-0.19493051	-1.7415578	-1.1858038	-0.27583537	-0.96126235	0.031699143	0.22866137	0.17067671	2.9568226	-0.31864518	1.3056139	0.58748776	3.0227387	0.827399	0.13591327	-0.7931534	0.61843884	-0.14597264	0.6135496	-2.2968311	-0.14149006	0.17178616	-0.20801169	1.3881904	0.79476607	0.36748135	-1.1453481	-0.07228383	-1.5028216	2.0274563	-0.08407317	2.7727187	1.1595558	-0.16347666	0.23512924	-0.16702269	-1.1455207	0.024759548	-0.19242303	3.3201559	-0.3431957	1.5740749	0.37938794	0.6557921	-0.12513728	0.41800964	0.6692147	-0.4446576	-0.2577461	0.3443873	0.7254714	-1.1223943	-1.2959489	-0.09399534	0.18119223	0.18015963	-0.66215444	0.13895842	0.34605256	0.72069716	0.19237642	-0.016638776	-1.8081675	-2.4357882	-2.4324129	-2.9106994	-1.1628059	-0.7242042	1.3178921	-6.138915	1.2409198	-0.73402315	0.78012484	0.7441332	1.6331255	-6.01838	10.52638	0.45255944	7.620113	2.8464484	2.133561	4.2529716	-3.73512	-0.69937325	2.23718	-0.3889991	-1.9043711	-0.6113703	-1.8281192	0.10495988	0.2085942	-0.9984199	0.20848581	3.61533	-3.636472	-0.010563084	-2.5756505	0.50635254	-0.3826454	2.4296446	1.088982	0.19583368	1.2616476	-2.3691173	0.98414785	0.152464	-1.212403	-0.12359474	10.804402	2.26353	0.10890479	2.1202512	-0.005680654	4.098855	0.42067325	-0.20457877	-0.12889917	-0.11673374	3.343912	-0.23836894	1.0252571	1.9147316	0.7574037	-0.004549823	-1.1201164	0.02821774	0.83443993	-1.9682629	0.43210897	-0.10889543	-1.447134	-6.1169925	-1.9500837	1.5839262	-0.8774441	-0.46219352	0.66866624	6.350052	-0.28211224	-10.375333	-0.004896735	-0.20542856	2.0189083	-3.825827	-0.60589755	2.1503618	-0.52694315	-0.93082756	-0.8555383	-0.30508566	-4.15111	-0.9855396	0.7986691	-0.7155011	-0.40659696	0.91210246	-1.0752707	3.4206164	-0.6149716	3.6659687	0.9587865	0.21639946	3.326813	-0.80730975	-0.37229535	0.5298063	4.959619	0.12618072	0.4569815	1.8334024	0.7438419	-0.75034034	1.0245019	-0.3314538	-1.0289465	0.33386403	0.9147698	0.691596	-1.121624	-1.1184528	2.5607882	0.5868418	-0.36281285	-1.8652169	3.2830715	0.14518075	-0.15644236	0.0005914417	1.084651	1.0635489	0.062562674	1.9263946	-0.02411034	0.56418234	0.092505336	-0.5528115	0.018262582	-0.25124165	0.91376024	0.060229834	-0.031375263	1.465849	-0.3429486	-0.5621274	0.05085609	-0.004284906	0.447216	-0.25887194	-0.12645325	-0.051643655	-1.651053	1.2912688	-0.36419526	1.2927017	-0.21701947	0.06873211	0.16505294	-0.8273498	-0.42413685	-0.28068766	0.047470577	-0.021085666	-0.6368208	1.5079519	1.6369437	-7.5539517	-0.33364227	-0.467237	0.8414706	1.0869792	-5.948255	0.026565872	-1.0269966	1.8386165	3.6026473	-3.2160683	0.23504339	-1.0031439	1.087062	0.20255208	-0.6718281	-0.12505116	-3.7407515	1.247264	1.1288185	1.826251	-0.12755819	-0.54820687	-1.1221298	4.178548	2.2400305	1.0628483	-0.8774118	0.76720273	-2.2393818	-2.9997203	-1.512021	-0.17753042	-0.2699501	1.0077957	-3.0728498	0.5151276	1.3452753	1.4732385	-0.4691089	0.4673222	-0.20488964	0.67742693	0.22510387	1.5842061	-0.00086809526	-0.34757778	-0.7986318	-0.24520291	0.6846999	-2.5744262	3.4539156	0.1600698	0.78198963	0.14832556	0.22606109	-0.12858818	-2.3810222	-0.107292846	1.0118297	-0.76549274	-1.9792025	-0.94322807	0.6964063	-0.40429926	0.19037287	-0.24694502	0.17002812	1.6115533	0.049927615	-1.0184277	0.02391304	-0.01313206	0.050625544	-1.2787113	0.20583843	0.0576828	0.07369007	-0.9600475	-0.2811786	-0.3102897	0.19386317	0.1710755	0.5703063	-0.92913	0.12456246	-0.83952934	-1.1322668	-0.30331987	0.6520866	-1.9648731	0.35725537	-0.020836517	-0.6898893	0.13054219	-1.0987818	-0.02221963	0.37539822	1.4706424	1.8106254	-0.14250293	0.7413227	-0.31995082	1.176859	-0.30496868	0.23816408	-0.8727581	-1.4106408	0.40458453	0.8447473	1.2813166	0.44521528	0.05291747	-0.15431589	0.781938	-0.17725149	0.09328107	-1.0601012	0.1227074	3.168921	0.075663984	3.717885	-0.05460527	2.247213	1.0726556	-0.3376266	-0.857545	-0.27901414	2.2461479	-0.3320066	-2.9677737	0.9666753	-0.40185988	1.5013394	1.1072254	0.6888031	-0.61431235	-1.9635003	-3.174725	0.45621538	-0.07971856	-1.8865128	-2.3968122	-1.10467	-0.024312764	-0.37903228	3.4950216	1.8990796	-0.07518788	-1.0177873	-7.101385	0.98432046	4.0941787	-0.2254703	2.890007	-0.009626351	0.31861392	2.7021022	-0.04567983	0.7183067	-0.046444237	0.55468464	0.74492663	-0.65658873	-1.0603634	0.01579523	0.1474172	0.043689717	0.47534695	0.4687387	-0.6013051	1.4638374	-0.26289853	0.7424707	0.08243635	0.25375083	0.42438757	-1.6408308	1.0521828	-0.16068424	-0.6077028	-1.150999	-0.3906931	-1.1114305	-0.15537278	-0.08167155	-0.29355326	0.15633497	0.23539416	0.27611598	-0.4764181	-0.69620144	0.5015106	-0.025588859	0.48097524	0.028243115	-0.060803548	-0.18470609	0.873627	1.868817	0.4354721	2.036939	-0.07056435	2.7778337	-1.0967839	0.8068331	1.464221	0.44096127	0.9761765	3.5280626	-0.6278895	-2.8453887	-0.33830884	-2.1441221	0.16217403	-1.3591129	1.9179584	1.5080099	1.3297951	0.81380326	0.69392306	0.63352674	1.8245969	1.9063215	-0.50569993	-5.0304856	-0.25468466	-1.2894796	-2.1141105	-1.3234409	-0.3287326	-1.5317901	2.4579418	-0.1665112	1.834751	0.34579095	-0.6306735	-1.9812857	-1.5929611	-4.168039	-0.0022394466	4.1922264	0.32325557	-2.9726994	-2.928479	-0.5735751	-3.9175344	1.354459	-1.3399044	0.10556016	-0.8166892	0.15534928	0.72812283	14.866509	0.4703337	16.462011	-0.47382122	0.19854231	-0.051069483	-3.4831872	-0.3158104	1.6302521	-3.6397982	2.9369705	0.81886435	1.0587826	1.436132	2.340263	2.81969	2.277691	-0.9312262	4.3086514	0.6139383	2.0462203	-4.0125256	0.07637322	0.16019851	7.9300604	-6.391443	0.19728705	0.49265677	-0.087180495	-0.25698158	-0.7453449	0.9703228	0.07531177	-0.17940135	0.45511737	0.1871799	0.780998	2.9489741	-0.573282	0.09694325	-0.32944423	2.3654041	0.49886367	-1.0860646	0.6203188	-0.43842483	-1.6884826	0.27522498	0.17126276	0.31164998	0.590086	0.1005982	-0.3958367	0.9833964	0.3041894	-0.10974837	-0.4115768	0.70533407	0.6958683	-0.49884504	0.13259274	-0.578156	0.15925343	0.28958327	0.7003319	-1.4491479	1.2160532	0.15973227	0.1444624	0.086059146	-0.29846665	1.493745	0.22553408	0.9775551	-0.4879025	1.8442187	0.19738317	0.031560622	0.14326772	0.11319471	1.0481384	-0.21997291	-0.07133733	0.09932838	-1.2867866	-0.35304278	-1.1038033	0.10439589	-0.30896086	-0.59327406	-0.256877	-0.19017164	-1.8395505	0.17542677	-0.8682343	2.6955802	0.01971696	-2.4404466	0.69499373	0.7128766	-0.08576425	0.8224874	0.016282778	0.051697534	-0.49184278	0.50629324	2.6138358	-0.1139991	3.4452212	-0.14046898	3.3541	0.8497122	0.15593807	0.0793137	-0.0008418879	3.398176	0.47246122	-2.4934974	0.6063736	-0.31517765	-0.08746952	1.3364512	0.96165293	-0.4575048	-2.324363	-0.02926054	-0.72014135	-0.16462712	-2.3980985	-1.7855655	-1.4263806	-0.14453945	-0.34618017	4.52588	2.0336149	-0.8406887	-0.9899672	-6.3569684	-0.29498214	4.0792656	-0.21420649	2.9459143	0.16375029	0.14328898	1.7637326	-0.3788651	0.659448	0.24872388	-1.3579087	0.053470235	0.24223399	2.0288785	0.2705867	2.8832803	0.43508717	0.012174614	1.0132186	0.28546315	0.9689186	0.2689134	-1.1950449	-1.0368559	-1.0765214	0.9363258	0.03120259	-0.5350632	0.8497293	-0.20682526	-0.0074772905	-0.3438275	0.39857364	-0.043619886	1.3503649	-0.5481067	0.0024746233	0.6027672	-0.3502956	-0.17164317	0.40561444	-0.91418153	0.44570783	-1.267837	0.27644464	-0.0122061195	0.7599224	-1.0265535	-0.3870303	3.5402591	-0.79269916	-0.35921443	-0.49473372	-0.5644337	-2.3334332	-0.76027536	-0.7873158	-0.58042896	-0.13678485	0.32245326	-1.0342945	2.738429	-0.4032853	0.41126072	-1.3191189	0.32618695	2.57428	-1.0858171	-0.86603487	1.5052615	3.5197475	0.5515084	1.230869	0.71821845	-0.07369621	-0.31266606	0.0358499	-0.35303307	-0.9527343	0.18482076	0.4773544	1.1159437	2.6530719	-0.62256515	0.07924131	-0.64730775	-0.6241169	0.054600146
-0.16469385	0.040403865	-3.824127	-0.1981447	0.6173193	-0.69460326	-0.09946409	0.17959304	-0.39105082	-1.0270792	0.23394383	1.4807417	-0.25452214	2.1600373	-0.32342297	0.3087697	0.17465028	-1.0560744	0.2434055	0.42318538	-0.111412995	-1.0691706	-0.5301681	-0.14732227	-0.022584746	-0.65038186	0.10985232	-1.7406673	-0.052868973	0.6917723	0.91201115	-1.3633374	1.7178897	0.26986867	-0.12269082	0.28392228	-0.9543182	-1.6014729	1.0921131	0.031654336	0.03265473	0.0714048	-4.8634157	-0.27358884	1.0266392	-0.12230743	-0.17780098	0.031157142	-0.64004	-1.3533528	0.11202656	2.0360296	-0.44390526	1.8887544	-0.42744026	0.2565379	0.30362862	-0.9654181	0.16551045	0.45846063	0.37487492	-1.1351328	-0.37197834	0.014140637	0.04800316	-0.5418443	0.06295828	-1.0779291	-0.14570452	0.75636667	1.1914064	-2.1239069	1.8160951	0.39067557	0.14276624	0.37868702	-1.2936928	-1.7929565	0.8849497	-0.06686864	0.14468087	0.13902667	-5.2511206	-0.2978198	1.2796935	0.20565693	-0.34069207	-0.12355965	-0.79268444	-1.4913392	0.05381555	2.2855127	-0.5357158	1.7239761	-0.5885141	0.1769621	0.3984433	-0.856785	0.09151443	0.41996124	0.5660613	-1.1509155	-0.26456538	0.12643415	0.115067795	-0.35066196	-0.038876824	-0.751508	-0.16613895	0.6986737	1.2991047	-2.4508193	1.6593921	0.43866146	0.32340178	0.4969782	-1.4085982	-1.9405913	0.84957284	-0.1721913	0.2693151	0.28857076	-5.550916	-0.3016746	1.5402393	0.51631176	-0.45124173	-0.21035257	-0.95137435	-1.5248284	0.07270647	2.553093	-0.53435487	1.5221819	-0.64109	0.12959778	0.47801736	-0.75482565	0.0046584574	0.42735383	0.7123498	-1.2031679	-0.18674695	0.19478182	0.19047788	-0.20587757	-0.13309532	-0.64529115	-0.18582088	0.61244243	1.4026905	-2.8345757	1.5098094	0.4604717	0.4369491	0.62494	-1.4958303	-2.0282075	0.7325509	-0.23678698	0.40488824	0.4073951	-5.727028	-0.21934976	1.8711807	0.7037225	-0.63563466	-0.3750046	-1.1404028	-1.4643345	0.097831964	2.7645566	-0.4422503	1.1956083	-0.6751379	0.029800871	0.58338237	-0.62378085	-0.0897602	0.37906218	0.8456499	-1.2243124	-0.18314117	0.2390329	0.27401063	0.024621846	-0.2190885	-0.59188837	-0.17609353	0.5328724	1.5689088	-3.2194326	1.3032548	0.44839218	0.57148886	0.71905637	-1.5400431	-2.1625981	0.6731255	-0.31795198	0.5407214	0.6129175	-5.6197515	-0.07113622	2.2285817	0.6844419	-0.7969755	-0.53576463	-1.4409302	-1.2325771	0.2129677	2.9759707	-0.20615217	0.7259947	-0.7340485	-0.081890166	0.6988808	-0.58417416	-0.18761182	0.2544041	1.1319944	-1.1426791	-0.14394127	0.2742272	0.4425092	0.04536078	-0.32141128	-0.5702577	-0.14597912	0.40712434	1.7221249	-3.6296358	1.0799824	0.41203648	0.62220824	0.8377819	-1.6353735	-2.503298	0.62310725	-0.3441208	0.7097342	0.6715732	-5.257599	0.18191521	2.4460218	0.42156342	-0.75127625	-0.51724076	-1.8087157	-0.9144964	0.27230433	3.1238186	-0.00078575616	0.22598357	-0.73636043	-0.09792193	0.7130605	-0.61978394	-0.3067659	0.22940466	1.3594466	-1.0142337	-0.214539	0.36469615	0.6640749	-0.07039547	-0.3150093	-0.62892294	-0.15190576	0.16758487	1.8070375	-3.8059072	0.7402056	0.29931453	0.6195019	0.83396995	-1.5872207	-2.8090448	0.61374694	-0.12364028	0.90951866	0.3579806	-4.2967744	0.7101665	2.3803518	-0.2719273	-0.6062813	-0.08314917	-2.098545	-0.7240256	0.17455564	2.9346955	0.16233492	-0.49355355	-0.43921906	0.09848585	0.57356554	-0.77893347	-0.42824984	0.52760136	1.2751356	-0.9010877	-0.43403807	0.4746119	0.8226057	-0.21021448	0.034092173	-0.7339323	-0.26406246	-0.23853666	1.8395066	-3.095203	0.10466209	0.036738027	0.5638896	0.39297995	-1.2463812	-2.8392482	0.5147749	0.9784391	0.89357793	-0.098149456	-3.4638705	1.0720568	1.9164805	-0.84316546	-0.22032945	0.3748281	-1.776223	-0.2864374	-0.33825272	2.0118093	0.23603085	-1.2159188	-0.2579637	0.4177734	0.8483234	-0.9705791	-0.47097734	1.386647	0.5979885	-0.6035028	-0.62372	0.3673659	0.9736317	-0.44359574	1.8404793	-0.8934674	-0.6742867	-0.604279	2.0796368	-1.9240907	-0.66022915	-0.14794973	0.40317765	-0.9627526	-0.92854196	-2.2503676	-0.2687947	4.1332593	0.5532918	-0.37905094	-2.8949	1.0583256	1.6401803	-1.1023681	0.02833321	-1.1904815	-1.4976431	0.30921575	-0.65489995	0.7025443	0.21598488	-1.6030601	-0.3100813	0.03882095	1.6638498	-0.6920546	-0.35951504	0.5085278	0.18016157	-0.32382384	-0.7273937	0.29956695	0.9267376	-0.54652476	4.4997916	-1.0458907	-0.63642067	-0.50065815	2.423171	-1.3059325	-1.0015067	-0.19995789	0.29816276	-1.8500137	-0.5310038	-1.8014915	-0.71498764	5.0067115	0.26046237	-0.47160405	-2.6966438	1.0179185	1.5827496	-1.1545275	0.06649403	-2.2616398	-1.6332964	0.46434164	-0.42816332	0.3781229	0.14796144	-1.3599775	-0.41717306	-0.2963652	2.1153946	-0.55041	-0.2618746	-1.3403144	0.0015011799	-0.30429885	-0.71213883	0.18825004	0.8178619	-0.54440403	5.782097	-1.0994929	-0.44884557	-0.4023687	2.4176219	-1.2343413	-1.0572442	-0.23629999	0.34250748	-2.109603	-0.20096758	-1.8574353	-0.6393162	4.8331804	-0.0057248683	-0.7621998	-2.5909612	1.1186326	1.613561	-1.2152703	0.10057492	-3.4582133	-1.6881939	0.7258251	-0.043005716	0.1648328	0.025567831	-1.0036256	-0.3457946	-0.77622104	2.50036	-0.41681343	-0.2555368	-4.576751	-0.09000367	-0.2773642	-0.7291981	0.117761925	0.70398945	-0.5572465	7.2140236	-1.1274209	-0.091274895	-0.15498894	2.3673227	-1.1534557	-0.93341315	-0.26008004	0.24533112	-2.2670324	0.013437287	-2.07352	-0.5871542	4.344522	0.03651449	-0.91039056	-2.4862611	1.6079707	1.8398001	-1.2245133	0.25917226	-4.333082	-1.3234924	1.0281695	0.41486552	0.2342765	-0.143177	-1.1166999	-0.29109806	-1.2127383	2.672053	-0.5252426	-0.46531767	-9.23576	-0.14046213	-0.2936115	-0.79226166	0.12609167	0.42586067	-0.47164163	8.518153	-1.17782	0.3693426	0.27655333	2.4023685	-1.3521985	-0.35154834	-0.44456255	0.23289631	-2.3721974	0.32093936	-2.2284284	-0.8229924	3.765138	-0.15184793	-1.0173901	-2.7682543	1.3398126	1.9787586	-1.1084862	0.3447869	-5.7101493	-1.2675202	1.1036224	0.7747689	0.3726585	-0.24612346	-0.68570983	-0.18127231	-2.274878	3.4749727	-0.5808748	-0.18830675	-15.642521	0.11090241	-0.3854683	-0.74395853	0.4608687	-1.6385093e-05	-0.43800563	8.432877	-1.3130275	0.80280906	0.80552185	2.4448597	-1.466509	0.55699646	-0.48946986	0.29361418	-2.0578501	0.7291789	-2.250488	-0.5982491	3.4422727	-0.15346548	-0.7621578	-4.7527514	1.0883706	2.7521205	-0.13368188	0.54023844	-3.4335246	-0.9906032	0.7168355	0.5400741	1.9622458	-0.4043051	0.18847267	0.3493956	-1.6845872	2.121618	-0.6475349	-0.124194935	-5.6322207	0.8213453	-0.6461591	-0.8419367	0.12137692	-0.30269074	-0.5198628	5.891529	-0.94133914	1.5745772	1.0397491	2.832236	-1.8775446	1.529802	-0.3012331	0.5702807	-0.8931554	0.4796419	-2.8737075	0.29641834	1.6746824	0.13902844	-0.9211715	-5.7749834	0.71755326	3.051739	-0.17947458	0.767782	-1.3809726	-1.5669175	0.6728571	0.6044077	2.7839897	-0.64952505	0.73417306	0.613143	-0.39472407	1.04175	-0.8252631	0.23369317	-1.8133038	1.0877111	-0.7836303	-1.1002516	0.43618867	-0.5330039	-0.6454365	3.3003864	-0.7623018	0.16483338	1.0730519	2.8474784	-1.521413	2.0347803	-0.11493133	0.7301313	-1.3312006	1.1834785	-2.5536745	1.2254374	0.7254464	-0.17935412	0.11419086	-0.18481934	0.021322068	0.2236899	-0.7910418	-1.1176064	0.17321482	0.78168035	-0.608978	-0.022010125	0.12975417	-0.39730477	0.082753435	-1.1711167	0.13702682	0.058073595	-1.1463362	0.12364274	0.06046095	-0.10917289	-0.45599088	-0.33501342	0.022009524	0.0004865885	-0.8222034	-0.3382539	-1.6266509	0.032624863	0.0269296	0.85015523	0.82301825	0.17433551	0.03562835	-1.1506875	0.28351665	0.3165335	-0.8677333	0.5619204	0.3027006	-0.26793602	-0.014690722	-0.62774456	-0.11099447	0.24435283	-1.2432971	-0.7709856	0.120537534	0.4590893	-1.0644594	0.004008776	0.17038281	-0.5516185	0.80512196	-1.2326049	0.14904788	0.057786677	-1.1906666	0.20128374	0.061069593	0.06969765	-0.62757856	-0.47588593	0.08195434	-0.08740981	-0.79312146	-0.20349835	-1.2320122	0.041332893	0.2391026	0.7445561	0.82784057	0.631058	0.07520221	-0.8073548	0.25128287	0.24870348	-1.3158412	0.76221156	0.27931327	-0.30724663	-0.1682697	-1.7170813	-0.28521213	0.34358475	-1.4710848	-0.4580142	0.14820606	-0.019001914	-1.473314	-0.058077935	0.45607233	-0.66687953	1.8727453	-1.0368958	0.19656652	0.02008066	-1.0642208	0.26537803	0.18240654	0.32278225	-0.80887675	-0.5702768	0.13952774	-0.14848006	-0.79555815	0.016272157	-0.9610748	0.009837725	0.5570143	0.6354276	0.13357656	1.2484752	0.09017712	-0.46082145	0.2167495	0.15175632	-1.7582375	0.86524373	0.25467205	-0.26562417	-0.21730928	-3.0447042	-0.35580137	0.47105798	-1.2318429	-0.32765576	0.26980627	-0.31162724	-1.5056653	-0.0868949	0.97798693	-0.6175676	2.505819	-0.68028057	0.2942301	-0.0035146526	-0.9818893	0.2867395	0.39320812	0.3692023	-0.9332942	-0.56542045	0.09310815	-0.121191755	-0.8168577	0.1691696	-1.0822871	-0.052451048	0.7656086	0.69310355	-0.9029306	1.6948744	0.12507355	-0.354458	0.21907079	-0.16554523	-1.8217698	0.97879165	0.22176963	-0.19293632	-0.3116003	-3.925467	-0.40565088	0.60209036	-0.9654631	-0.2515427	0.32048127	-0.47294948	-1.5552856	-0.19255145	1.3613632	-0.6923995	2.6837575	-0.6061112	0.33406672	-0.021262744	-0.93944436	0.27900335	0.4996305	0.482849	-0.98351914	-0.54905576	0.12506118	-0.09508396	-0.79299504	0.24972916	-0.9173373	-0.111975804	0.8769123	0.787961	-1.5585706	1.9404824	0.16270168	-0.18575679	0.20394348	-0.33383998	-1.8212864	1.0375546	0.19115533	-0.069505475	-0.44334656	-4.779052	-0.48742792	0.7915328	-0.6700564	-0.20056522	0.33724597	-0.6374447	-1.7085226	-0.37296373	1.6874087	-0.9088367	2.7445426	-0.6702135	0.35377288	-0.028490065	-0.86472994	0.24324389	0.5959069	0.7937401	-0.9784181	-0.45750275	0.24195987	-0.069963194	-0.6561685	0.30588374	-0.5763926	-0.1957016	0.9654167	0.91668236	-2.1605418	2.1229496	0.20330915	-0.037144903	0.17404324	-0.3897949	-1.8076582	0.83110446	0.1830322	0.13569139	-0.345661	-5.572709	-0.4614631	1.1904408	-0.079362504	-0.25381064	0.17290072	-0.7441878	-1.6224962	-0.49105525	2.1548142	-0.9148444	2.1446009	-0.77482575	0.28742293	0.13316388	-0.8199934	0.14936204	0.5625779	1.1253874	-0.9016287	-0.3463913	0.2957415	0.043613855	-0.41058758	0.22593607	-0.4018764	-0.2597	0.96790224	1.2438198	-2.929816	2.1053798	0.3025195	0.16179061	0.18330455	-0.6914378	-1.7481142	0.5954627	0.097125575	0.38715947	-0.0011803462	-5.97941	-0.24982971	1.851327	0.4733113	-0.6027723	-0.28089866	-0.92343855	-1.5847129	-0.64919364	2.49839	-0.7394567	1.287211	-0.8894265	0.08750159	0.4780758	-0.5928828	-0.030016955	0.34245118	1.3144516	-0.79893607	-0.26020813	0.3291286	0.22499886	0.00068603276	-0.0071145496	-0.26014915	-0.23205483	0.8057847	1.6872714	-3.6636584	1.5676169	0.35432804	0.4735311	0.18908311	-0.80450505	-1.8428626	0.54860294	-0.11586127	0.8285575	0.4615661	-5.4581437	0.66805416	2.7678685	-0.026752679	-1.0067174	-0.5870847	-1.8365031	-0.87077767	-0.51764256	2.6255033	-0.096241124	0.17765316	-1.0107684	-0.08633907	0.7087022	-0.4219035	-0.31144783	0.17766942	1.3856909	-0.60169405	-0.28876936	0.21507265	0.67728895	0.17683427	-0.0391528	-0.1735145	-0.12671441	0.28307432	2.1788461	-4.2251215	0.64368445	0.12888665	0.64259166	-0.10722441	-0.50082284	-2.4683685	0.39818797	0.1406902	0.9398547	0.21511583	-4.357405	1.3707498	2.6034234	-0.8089959	-0.7379466	0.08570849	-2.1706567	-0.71849376	-0.5756147	2.3380425	-0.06075975	-0.460494	-0.6422117	0.22266318	0.60604966	-0.68638927	-0.37037537	1.0479599	1.2791573	-0.5090857	-0.39292848	0.012942581	0.85035557	-0.14591476	0.8957115	-0.31718296	-0.32080767	-0.23267366	2.1163113	-3.170869	-0.020876514	-0.09215544	0.42670566	-0.9918777	-0.04620145	-2.5713484	0.065679826	2.2320673	0.8526768	0.086929165	-4.047127	1.469868	2.4185853	-0.9478168	-0.52189887	-0.0030162274	-2.013167	-0.7711956	-0.7240369	2.106119	-0.09057292	-0.5589508	-0.555197	0.22686929	0.8131063	-0.8190046	-0.3471262	1.6499959	1.2325011	-0.45500994	-0.43937257	-0.10268154	0.93096393	-0.30806136	1.7761046	-0.3286021	-0.4229196	-0.3566186	2.142131	-2.79608	-0.25429648	-0.11147429	0.35618386	-1.4155625	0.11580764	-2.5121753	-0.29680446	3.3145754	0.6934685	-0.12276809	-3.79908	1.5199896	2.1970344	-0.96694106	-0.33392474	-0.70934725	-1.705154	-0.6529878	-0.9277884	1.7517312	-0.21274933	-0.7186771	-0.3806027	0.057459287	1.1693751	-0.91893876	-0.26869565	2.1602669	1.1810119	-0.3450956	-0.4321333	-0.10259246	0.9918532	-0.4040493	3.2121646	-0.47559977	-0.42991057	-0.34269148	2.181686	-2.5364306	-0.4207137	-0.13332047	0.13882552	-1.708229	0.270031	-2.2289321	-0.7307551	3.9732096	0.40542918	-0.5075295	-3.2896821	1.8121598	1.9536057	-1.1636395	-0.06491189	-2.0748594	-1.5883878	-0.45527047	-0.9560208	0.9334808	-0.37848413	-1.029985	-0.32180384	-0.117638506	1.5516841	-0.4752775	-0.029780522	0.993841	0.8518196	-0.30554447	-0.51906747	-0.09055797	0.7863894	-0.47162622	5.621402	-0.59410965	-0.18158449	0.12571801	2.1399436	-2.2321563	-0.2922546	-0.27765527	0.011538066	-1.9847311	0.3910781	-1.6675445	-0.9205838	3.5612733	-0.04519186	-0.93915904	-2.8639922	2.269734	1.8435528	-1.2525072	-0.030984046	-4.0185184	-1.6596143	0.24058384	-0.23379003	-0.10010456	-0.5134417	-0.93013877	-0.32831296	-0.8386772	2.6034806	0.06282119	0.26046062	-6.1198583	0.5991953	-0.2945751	-0.5394512	-0.24752465	0.12447073	-0.4067699	7.2791963	-0.77714354	0.3340251	1.100326	2.261162	-1.9127418	0.23142228	-0.62137955	-0.10812353	-2.0420835	0.50220037	-1.5522106	-0.8070603	2.9426656	-0.22457549	-0.9891258	-3.4718037	2.555726	2.184979	-0.7874325	0.16200337	-4.5722294	-0.9812566	0.60353494	0.074066766	0.39844668	-0.40579754	-0.4230961	-0.13071457	-1.3105083	3.1710093	-0.33177838	0.20174253	-4.2473717	0.8447996	-0.4060638	-0.602396	-0.12727931	-0.24262376	-0.44509482	6.520231	-0.84173685	1.3088845	1.6675513	2.5370336	-2.0495758	1.232286	-0.5043488	0.234618	-1.8656398	0.45696482	-2.3369396	-0.4223796	2.4308736	0.048460796	-1.0004127	-5.468743	1.6322377	2.8825269	-0.26521382	0.49477014	-2.1025481	-1.1143575	0.65404665	0.24333145	2.137324	-0.6712763	0.5117571	0.42783132	-1.0687419	1.3559947	-0.7583618	0.21764211	-5.276636	1.2454569	-0.6135126	-0.96864116	-0.1019768	-0.41053787	-0.6067093	4.427731	-0.5569961	0.8477091	1.1455882	2.8230612	-1.9581146	2.091325	-0.2318509	0.67954385	-1.0347496	0.97232103	-2.4531233	0.6905037	0.9668552	-0.014128158	-0.22377884	-0.13254629	0.08800734	-0.036131117	-0.3033929	-1.5021883	0.5949064	0.8209118	0.05758977	-0.1805895	0.21834598	-0.18962274	-0.07452783	-1.1284615	0.1123748	-0.36786565	-0.8541173	0.037949998	-0.022121832	0.060885374	-0.21520399	0.20547295	0.053598266	0.02803407	-0.783135	-0.2878726	-1.8551931	-0.008878839	-0.048162416	0.6209549	0.43602535	-0.035342596	-0.016719762	-1.1208237	0.29252177	0.33475024	-0.40237266	0.16434996	0.30537403	-0.06304002	-0.17011397	-0.108611345	0.012064913	0.15158953	-0.4925054	-0.96121633	0.19425997	0.67265624	-0.58559155	-0.15457566	0.23877129	-0.29598507	-0.099196985	-1.3451372	0.033474553	-0.02412485	-0.84990054	0.05197792	-0.066395946	0.017442865	-0.35417506	0.34782857	0.082565546	0.014059258	-0.87870044	-0.2969163	-1.3369929	-0.005683281	-0.0017096006	0.68626356	0.55153394	0.026708448	0.0027917596	-1.0419472	0.20114484	0.41932166	-0.6250309	0.2041396	0.2565519	-0.08412156	-0.36762598	-0.23785727	-0.11280566	0.21713267	-0.7793179	-0.5761413	0.07671038	0.40592444	-1.170457	-0.17245671	0.19417691	-0.16525492	0.14937341	-1.4178334	-0.011208336	0.047580015	-0.8087388	0.09089361	-0.112994194	0.2692235	-0.448255	0.53092206	0.20276189	-0.039764795	-0.9700751	-0.21851835	-0.9239605	-0.032986894	0.11279008	0.60334426	0.6052619	0.2941851	0.02656691	-0.9696729	0.16014487	0.46722332	-0.85216165	0.18933517	0.2327888	-0.09853256	-0.79746026	-0.6433937	-0.23524839	0.29034168	-0.67853564	-0.5452755	0.0011656061	0.21025613	-1.7778904	-0.39761406	-0.019340018	0.4759036	0.5435597	-1.1315095	-0.033888582	0.12669452	-0.7605594	0.12378213	-0.061504133	0.58266693	-0.4837498	0.38825783	0.37406603	-0.042823505	-0.9470245	-0.1203887	-0.691465	-0.09131471	0.19231513	0.50132585	0.12617761	0.57614607	-0.0037717735	-0.8879704	0.12290427	0.60508084	-0.91880864	0.24687286	0.21047683	-0.16727307	-1.09444	-0.66842335	-0.25382993	0.32438603	0.18673553	-0.73289657	-0.29046762	0.20948346	-2.0804873	-0.5266351	-1.2205064	1.1392212	0.6982613	-0.98084396	-0.054292087	0.47332737	-1.1444067	0.15890154	0.074378535	0.69644	-0.4306622	0.28076416	0.52139205	0.04373639	-0.88501036	-0.03890264	-0.49053967	-0.14211518	0.029269729	0.52660483	-0.24445373	0.52261645	0.02280921	-0.6850314	-0.008266424	0.5239455	-0.5828082	0.31275615	0.010726283	-0.24129625	-1.1518378	-0.1998377	-0.27552405	0.4010751	0.985222	-0.6583489	-0.31709617	-0.033769567	-2.0152311	-0.39009243	-2.2890418	1.1877972	0.57585466	-1.1313732	-0.02028601	0.6095994	-1.531796	0.21927363	0.21442525	0.712874	-0.371389	0.381552	0.6280928	0.148942	-0.88869935	0.18389498	-0.2861584	-0.14272882	0.16939454	0.5290617	-0.16319527	0.078975484	0.1396399	-0.5999605	-0.1764446	0.22827853	-0.62358725	0.262864	-0.22727531	-0.21052597	-1.1933948	-0.3043269	-0.2118677	0.55944014	0.9384504	-0.3557073	0.58723426	-0.50517654	-1.9078462	-0.23802081	-2.8252954	1.2787006	0.7926458	-1.159127	0.15704001	-0.24323554	-1.2942511	0.27907655	0.542887	0.7968232	-0.28614923	-0.0073904297	0.6513605	0.078009345	-0.8520154	0.6658439	-0.21482998	-0.092478454	0.6739783	0.5650904	-0.06138884	-0.62872815	0.11310351	-0.5470851	-0.3069375	0.062057626	-0.5775715	0.19024554	-0.22560553	-0.11689826	-1.6031985	-0.11347235	-0.098845705	0.62525785	0.9694301	-0.11528614	1.9975916	-0.6137089	-1.2779895	-0.005878201	-2.807405	1.1724117	0.5064426	-0.90833014	0.21369545	-2.291015	-1.4381889	0.20506556	0.59478027	0.77274257	-0.089797184	-1.3075519	0.349404	0.13727388	-0.725745	1.0121533	-0.2877664	0.06075972	0.73854584	0.52369833	0.014205688	-1.16703	0.13872144	-0.40756327	-0.34922668	-0.14951676	-0.56899536	0.42468154	0.49512345	-0.10580552	-1.7315332	-0.088203	-0.12417269	1.16298	1.231794	-0.21939261	-1.6342707	-0.3135654	-0.3358595	0.052894965	-2.418823	0.72128266	0.1891422	-0.47277427	-1.4230565	-4.6311274	-1.8230692	0.031195821	-0.34629047	0.8764335	0.16993733	-2.3805978	0.121783845	0.34817955	-0.3209218	0.7365746	-0.48172462	0.66999125	0.44748807	0.87024915	-0.07834055	-1.871425	0.1926492	0.1475965	0.1918642	0.52069986	-0.8754556	1.1560618	1.2175604	0.017664928	-1.2057022	-0.2741905	0.33185118	1.8406253	1.4448708	0.16364913	-6.236376	-0.7693008	-0.38146907	0.5254253	-2.0504851	-0.05074949	0.29276857	-0.52601933	-0.7571166	-5.5275655	-2.1143045	0.045330603	-0.3665891	0.71670586	0.11923125	-2.19501	0.083820105	0.22067216	-0.28778866	0.016295321	-0.44361657	0.9857502	0.5024418	0.8832	0.35712102	-2.1199605	0.0043092933	0.11279116	0.52215385	1.5376045	-1.0504773	0.943225	1.1540174	-0.059984334	-0.9424757	-0.43010643	0.3000948	1.8228514	1.2429786	0.42213216	-6.5124774	-0.90691584	-0.7081588	0.6109966	-2.0000196	-0.23981142	0.7702181	-0.6618549	0.73282623	-5.77758	-2.0612414	0.1361949	-0.16911691	0.5860749	0.12774083	-2.0560138	-0.10279657	0.084036335	-0.40720877	-0.5271696	-0.53537136	0.81549495	0.6046527	0.62765056	0.34079838	-1.9921595	-0.211474	-0.059814803	0.47262457	2.0242748	-1.0278864	0.6922747	2.1096106	-0.29868367	-1.2341669	-0.2399359	0.11624781	1.5073348	0.95407146	0.72691005	-7.0772414	-0.73928386	-0.8064878	0.6549754	-2.2589514	0.0087155	1.1101322	-0.5795763	2.4504044	-5.900597	-1.6769922	0.34174585	0.6659134	0.5221799	0.18105367	-2.4534886	-0.285457	-0.09598171	-0.526541	-0.86279887	-0.7945373	0.5650982	1.016315	0.50604075	-0.062010687	-1.5967141	-0.40479797	-0.16685498	0.5736826	1.9854258	-0.8146411	0.28431815	3.0594041	-0.88126194	-1.8637118	-0.10699312	-0.44762322	1.1591343	1.4343748	0.9012155	-9.1599045	-0.32598597	-0.41949782	0.7347149	-2.7764874	0.5278131	1.1085024	-0.5021119	4.241986	-4.7653604	-1.6039802	0.7792534	1.0186527	0.5102398	0.15494108	-2.6891055	-0.60993594	-0.08999137	-0.6542433	-1.7232773	-0.93833685	0.18313417	1.5424619	0.5968364	-0.52043265	-1.1979529	-0.22292289	-0.2597178	0.3971824	1.1915284	-0.5470134	0.17792644	3.7823784	-1.0159599	-1.8746434	0.07851346	-0.91200244	1.3083602	1.9324952	0.62016964	-10.596519	0.097730055	-0.43548685	0.5927569	-2.7663214	0.8756383	0.6910619	-0.2650165	6.7773333	-4.007754	-1.9359244	1.1525667	1.9772843	0.2707975	0.07124788	-2.8779006	-0.55948097	-0.19175282	-0.4999882	-4.28987	-1.042361	-0.4387197	1.8837378	0.71132356	-0.4361838	-0.6884918	0.27630246	-0.14756234	-0.0021128382	1.2563862	-0.8475642	0.3461309	3.4167116	-0.8874469	-2.1283717	-0.097189665	-0.7399867	1.7070038	2.2297583	0.8457514	-9.91253	0.5135701	-0.25513643	0.6858886	-2.3555727	0.45237136	0.27876157	0.16789663	8.98789	-4.4771757	-2.0389535	1.0072426	4.0111547	0.21560666	0.078257635	-3.315579	-0.67894346	-0.2298924	-0.63250345	-6.8778496	-0.7444462	-0.37795874	2.035303	1.2419763	0.054872654	-0.25705886	0.68881416	0.32708323	-0.38315058	0.7415101	-1.2949865	0.9799848	2.1156185	-1.1476623	-2.302851	-0.20210434	-0.6971819	1.7982569	2.314915	1.165158	-9.568816	1.21269	0.09291407	1.1240817	-2.3574057	0.14024508	0.3713089	0.2767467	8.833932	-4.379001	-2.215235	0.8822312	4.6818733	0.2591997	0.03693685	-3.4221418	-1.1963133	-0.28698635	-0.8794715	-6.6912966	-0.5392189	0.3746756	2.1649113	1.470185	-0.093340285	0.1140992	0.7541552	0.38227472	-0.07222906	0.27190775	-1.4852318	1.4236778	1.1439849	0.120409146	-1.4710962	0.46403342	0.14917344	0.06380432	1.5000702	-0.068645164	4.556362	-1.0442604	-1.6581688	0.5121123	-2.856518	2.012617	0.19087337	-1.9088024	0.43408003	-3.9698732	-0.97021675	0.022057312	0.6553332	-0.15361734	-0.019669894	2.3496196	0.34409812	0.28482684	-0.36428493	1.1917102	-0.6430946	0.028799672	0.58168966	-0.063961305	0.033717856	-2.0651731	-0.0387295	-0.21276045	0.07900072	-0.9815814	0.023305248	-0.46079835	0.4531114	0.3148237	-1.4787349	0.44407356	0.056243334	0.06173362	1.5595804	0.3571374	5.331344	-1.121746	-1.2286288	0.9210344	-1.9782947	1.6307464	-0.099064566	-1.6817474	-0.07825727	-6.158243	-1.1415168	-0.19298768	0.097622216	-0.3605618	0.014343246	2.0763779	0.116025746	0.30920887	-0.3290819	1.2511415	-1.0407773	0.05714761	0.31882054	-0.2443157	0.04413637	-2.5773318	-0.16388841	0.023293654	0.28582206	-1.073569	0.0626953	-0.35766605	1.8975757	0.40738183	-1.4058696	0.4162986	-0.15569405	0.08836082	1.5876145	0.57886237	4.512724	-1.3321928	-1.098873	1.3337317	-1.5051863	1.6718233	-0.22796303	-1.5745099	-0.7239978	-6.907117	-1.123661	-0.28848907	-0.20086212	-0.6785253	-0.07041075	1.9334646	0.19717506	0.27505076	-0.3310151	1.3201576	-1.286348	0.104568	0.24357444	-0.33652034	0.3021053	-2.6177056	-0.104703024	0.055313963	0.69330907	-1.362214	-0.004713293	-0.10014857	2.4069128	0.40253744	-1.4639982	0.4008165	-0.19053166	0.23077837	1.5034853	0.6426709	2.5073245	-1.3085415	-1.0601462	1.3752896	-1.3672945	1.7085258	-0.3365644	-1.5230497	-1.6620944	-7.2721148	-1.0556691	-0.33860895	-0.61336327	-0.5818707	-0.11518095	1.6784304	0.077849574	0.2763145	-0.35268927	1.4314334	-1.0952811	0.30460086	0.22730082	-0.19861431	0.33334213	-2.6713512	-0.04506036	0.16218115	0.76560026	-1.3312232	-0.040653124	0.21144085	2.571985	0.38986063	-1.4974923	0.3675766	-0.17735793	0.42021173	1.4416034	0.6668037	-0.046861146	-1.2310445	-1.0042967	1.4319612	-1.3051152	1.6783186	-0.42822173	-1.3866462	-2.5254774	-7.587942	-1.0086493	-0.39508998	-0.9275215	-0.36009952	-0.11798901	1.6449276	0.07565111	0.2225632	-0.3990255	1.564672	-1.0055195	0.54223204	0.19546215	-0.031912044	0.32735738	-2.6172416	-0.10240489	0.31162512	0.95157546	-1.2502052	-0.08945039	0.4804374	2.5962477	0.32142064	-1.4193102	0.3690951	-0.13854876	0.65180993	1.4739279	0.6464259	-3.2959988	-1.1680669	-0.9827658	1.5400556	-1.3748482	1.7676328	-0.48632005	-1.1642468	-2.936044	-7.6292753	-0.8657207	-0.41997182	-1.1917261	-0.20104006	-0.1860253	1.6461458	0.09489638	0.15493135	-0.38681093	1.6911509	-1.0288285	0.81301945	0.2074433	0.15540522	0.2733084	-2.431432	-0.11859489	0.35088402	1.1636857	-1.2409816	-0.1493937	0.54080886	2.3816526	0.17541663	-1.500943	0.2562966	-0.07607102	0.735893	1.5382366	0.6809731	-6.818569	-1.0478972	-0.8689774	1.5551786	-1.5687464	1.788297	-0.3312222	-1.0105151	-2.2219324	-7.3683076	-0.8062473	-0.40121496	-1.8674023	-0.07823057	-0.27082232	1.7473223	0.1539267	0.10840453	-0.40036708	1.5825971	-1.1171397	1.0425496	0.25516477	0.22721726	0.21455851	-2.1790586	-0.17788552	0.36319333	1.2335762	-1.1829565	-0.12003834	0.5366606	2.1622827	0.22957924	-2.0691175	0.2726738	-0.23024178	0.61301416	1.3805349	0.8704594	-9.213008	-0.7708396	-0.18790683	1.5205265	-1.841196	1.6536996	-0.26159954	-0.8844493	1.0004069	-6.7262826	-1.019003	-0.332335	-3.4695342	-0.26667324	-0.17169207	1.739941	0.21245469	0.038728315	-0.38215497	0.5848828	-1.3559748	0.8025685	0.34676448	0.2529323	0.25329214	-2.1525946	-0.1693525	0.30690596	0.932593	-0.5954407	-0.09651913	-0.119719684	2.6399338	0.36092103	-2.6098714	0.42442513	-0.82506025	0.43022284	1.2607932	1.1053873	-10.177798	-0.6656764	0.8028661	1.3388596	-2.0126832	1.627408	-0.020429555	-0.9451695	5.7755237	-5.021051	-1.6343995	-0.18768412	-3.8200395	-0.75023615	0.18455282	1.8005732	0.23124732	0.4578819	-0.44060114	-2.099096	-1.6662194	-0.4687555	-0.062568456	0.5217755	0.3944372	-2.692958	-0.012012772	-0.012272966	0.09674582	0.45215264	-0.12986356	-0.9148618	4.529418	0.35135022	-2.0265582	0.36874896	-0.655947	0.5260257	1.1734691	0.58986306	-10.045808	-0.76295054	0.23395348	1.349881	-1.8055742	1.6487727	0.22263807	-1.1990184	7.616081	-5.30727	-1.8141657	-0.13831306	-2.1827486	-0.54442257	0.15670724	2.1661336	0.04359256	0.29081	-0.36324146	-4.0587196	-1.4480715	-1.0504925	-0.018886445	0.4688495	0.8202538	-2.6181667	-0.39802572	0.10917128	0.16127226	0.93995684	-0.3271249	-0.66673434	4.784496	0.34091794	-2.0721488	0.34413323	-0.68442863	0.44289201	1.2064701	0.70956415	-9.537907	-1.0636153	-0.02411303	1.399483	-1.6444451	1.618944	0.3212834	-1.0442128	8.538401	-5.6880136	-1.54878	0.014406963	-0.716347	-0.46594995	-0.013555907	2.1314876	0.0106646605	0.08510038	-0.32725894	-4.573751	-1.567494	-1.3769109	0.37433356	0.32883924	0.7600226	-2.156171	-0.42521298	0.17688398	-0.18200268	0.64515746	-0.26934278	-0.6790992	5.2302456	0.010455285	-2.2455082	0.28774717	-1.0087519	0.44134578	1.4198315	0.67352504	-9.692218	-0.9039507	0.36758628	1.4488432	-1.8546613	1.7128652	0.2853084	-0.94374895	8.365091	-5.410197	-1.507764	0.18426524	1.8686165	-0.4889642	0.005233477	2.149305	-0.14292802	-0.07123006	-0.29995123	-4.5673895	-1.7285578	-1.0741572	0.8080729	0.3946699	0.731966	-1.5411942	-0.23158045	0.1500861	-0.07265542	0.09016333	-0.34860173	-0.42930996	5.648408	-0.28717488	-2.2779434	0.06055811	-1.2437171	0.62492335	1.4717715	0.7356527	-9.30474	-0.54618335	0.7421517	1.9229517	-2.0391824	1.7469769	0.49965486	-0.86640507	7.8903666	-5.3901052	-1.4684596	0.21654008	3.0424337	-0.5160546	-0.012166627	2.063924	-0.35776246	-0.35393444	-0.24585141	-3.352409	-1.9098289	-0.245851	1.1452707	0.4625878	0.80303943	-1.1358157	-0.022757279	0.16271366	0.31665188	-0.18505713	-0.44471636	-0.06915153	4.2427197	-0.37290028	-2.2660685	-0.036196817	-1.2056997	0.81547743	1.5383831	0.9236886	-8.178325	-0.51857316	0.77959675	2.012478	-1.5442011	1.690056	0.40996823	-0.75476116	6.9717526	-6.2278614	-1.5377742	0.3119518	5.273573	-0.44319564	-0.06676001	1.8758868	-0.12873192	-0.5635462	-0.43812212	-3.9042332	-1.8606822	0.2969814	1.5020645	0.46515825	0.8282724	-0.4683215	0.19519365	0.2509008	0.4141222	-0.18698213	-0.5442809	1.2497973	2.0239842	-0.40565264	-2.2353923	-0.05643298	-1.1664852	0.88828474	1.5434222	1.0349268	-7.685215	-0.54543185	0.7430537	2.0028327	-1.3420963	1.6658133	0.39820683	-0.6979777	7.3700976	-6.5185924	-1.577292	0.396659	6.483795	-0.41512325	-0.104099646	1.7922827	-0.076100536	-0.7003942	-0.51627576	-4.4591913	-1.8537308	0.394731	1.7966794	0.47414494	0.8164197	0.03290643	0.23723912	0.27792066	0.17339933	-0.05805952	-0.5605319	1.6418333	1.205914	-0.5099492	-2.215672	-0.12672293	-1.3306297	0.9241999	1.5641925	1.0670551	-7.720048	-0.4143251	0.7537953	2.0500176	-1.357655	1.6553056	0.49208093	-0.6919606	7.4432592	-6.502863	-1.5995929	0.48601866	6.6861997	-0.38421625	-0.12700899	1.7861606	-0.10730757	-0.80384356	-0.5549917	-4.608776	-1.8468196	0.44007024	2.0197642	0.49297935	0.7895304	0.35820663	0.3474407	0.2990355	0.09944695	-0.03196319	-0.5817431	1.8490057	0.7417443	-0.059290964	-0.2838885	-0.16190477	0.07994618	-0.12359402	0.03895195	-0.87017804	0.05142318	0.19551066	0.3180104	-0.19700259	0.041116677	0.21946062	0.16536915	-0.5303411	-0.047168564	-0.07778404	-0.09107802	0.05278476	-0.081699856	-0.14565943	0.21819115	0.24772689	0.0150925955	-0.021780932	-2.3345606	-0.08301737	-1.0573051	0.03595104	0.07301446	0.028470933	-0.049026728	-0.13283159	-0.061550688	-1.8577278	0.08767969	0.15707842	0.016932745	0.49165982	0.055019423	-0.09217946	-0.359531	-0.12359002	0.079396	-0.05796224	0.025542725	-0.76904327	-0.13947643	0.17453885	-0.19506165	-0.21553199	0.16288531	0.29040354	0.082122214	-1.1446706	-0.08416362	0.13061538	-0.12934147	0.06009388	-0.13658145	-0.35232854	0.24597448	0.56616944	-0.012897961	-0.0136343	-2.018877	-0.16140965	-0.8453163	0.04464266	0.05101492	0.015164301	-0.03294275	-0.27181867	-0.08097762	-1.6948617	0.018778408	0.27257994	0.026725125	0.6419712	0.04334271	-0.06874908	-0.9000501	-0.07367669	0.054537997	-0.031914867	0.025754884	-0.58748955	-0.18618819	0.09652716	-1.110962	-0.30402464	0.42072198	0.49117452	0.011036615	-1.6112101	-0.06772759	0.26212698	-0.28138995	0.041023716	-0.19361264	-0.4716264	0.1661677	0.83034885	-0.0016215517	-0.00925561	-1.5994688	-0.23453575	-0.352494	0.021520814	-0.025312286	-0.07626738	-0.04704183	-0.4511984	-0.11210378	-1.3923507	-0.122219205	0.5409709	0.11289304	0.83326524	0.03766856	0.08525429	-1.629461	0.20076652	-0.03151607	0.037565913	0.49629322	-0.64067304	-0.06274528	0.032666694	-2.3276353	-0.6265203	-0.03365873	1.0275953	-0.1972536	-1.4185634	-0.06700829	0.32234272	-0.910749	-0.025536763	-0.22101212	0.09627385	-0.14735848	1.7733628	0.2517758	0.13383979	-1.2088972	-0.285489	0.09558796	-0.09802137	-0.23694852	-0.015187615	-0.4860175	-0.24773438	-0.13505894	-1.0635952	-0.26656377	0.9618454	0.21749356	0.4625337	0.05046147	0.056092314	-1.7105302	0.32160816	0.09172354	0.10290576	1.0992514	-0.6335592	0.25168404	-0.43056035	-2.4962022	-0.49187797	-1.8848312	2.0085618	0.029186448	-1.4977201	-0.05097288	0.07011013	-1.0557495	0.05939589	0.06417858	0.3080712	-0.17393488	2.1378543	0.45545846	0.12864687	-0.96050316	0.14183204	0.08777822	-0.10019522	-0.09828379	0.1918845	-0.30265567	0.278776	0.0009032693	-0.84157693	-0.25648516	0.13237497	0.15858452	-0.18750757	-0.31933707	0.14836389	-1.7599052	0.31212074	0.2516407	0.06347961	1.15395	-0.73160905	1.2803268	-0.8036156	-2.2641387	-0.56651884	-2.8609266	2.1730924	0.2853713	-1.6508161	0.143236	-0.8639039	-1.0249205	0.06453149	0.35254404	0.4076417	-0.116567016	2.087903	0.51060015	0.054369908	-0.64354587	0.5311338	0.032489795	-0.056876693	0.18623413	0.2654779	-0.0990102	0.08980587	-0.029851437	-0.44518614	-0.340659	-0.03867494	0.21538375	-0.57691574	-0.30715495	0.16319503	-1.7768866	0.24861293	0.29374766	0.13171925	1.1380941	-0.55390173	2.198278	-1.0886043	-2.0845912	-0.42482355	-3.5429685	2.2099342	0.46215072	-1.7911019	0.21800393	-1.9006788	-0.80139923	0.044797264	0.6112892	0.42216438	-0.02476749	2.1748545	0.31388322	0.037055485	-0.47864714	0.8391728	-0.010270448	-0.0033504262	0.43709907	0.26551536	0.105715856	-0.5258139	-0.020643359	-0.20396028	-0.38273585	-0.30846998	0.20295206	-0.74785906	0.057721663	0.107676	-1.873841	0.28887963	0.14843565	0.3917737	1.0957699	-0.15064143	1.647737	-1.0941051	-1.7266301	-0.16045152	-3.734374	2.1530576	0.3424605	-1.7228237	-0.32198295	-2.9037907	-0.6090257	-0.044492044	0.62880677	0.43924657	0.034835264	1.8922619	-0.13502343	0.13927063	-0.5061925	1.0024782	0.013580973	0.1735722	0.49780566	0.40264723	0.1672124	-1.4952334	0.059173055	-0.08223864	-0.19161901	-0.3891423	0.133211	-0.29761407	0.5130771	0.1191961	-1.920638	0.46854717	0.38756666	1.0571933	1.0130739	0.49967724	-2.4775653	-0.9296841	-1.215191	0.38852644	-3.1453846	2.0009103	-0.1609637	-1.4561319	-1.2838084	-4.4438443	-0.66924167	-0.14984527	0.16256775	0.57775176	0.17961521	1.1471707	-0.40032452	0.3529083	-0.60915554	1.2216475	0.09836245	0.75174695	0.5119079	0.75076646	0.10208414	-2.7228947	-0.120372795	-0.18281265	0.49197766	0.19925082	-0.07963717	0.21997516	0.008948103	0.4291805	-1.8278323	0.19810204	0.84802693	0.99455625	0.63934743	0.67774653	-4.726804	-1.2647548	-1.3587554	0.8305841	-2.4791248	1.6998677	0.1628371	-1.3716753	0.2791858	-5.86927	-0.6971589	-0.18767582	-0.9782535	0.53054726	0.158027	1.2195867	-0.3266073	0.14410752	-0.4322169	0.79569006	-0.31229615	0.96188384	0.7022167	0.57642543	0.11208513	-2.9108448	-0.54737836	-0.045126572	0.7892918	0.91574347	0.37544307	-0.16206414	0.2838263	0.28174788	-2.2160504	0.154799	0.8862348	0.61944294	0.7320683	0.7365193	-5.6475606	-1.0417722	-0.9845286	0.67195195	-2.3659358	1.5994684	0.3642567	-1.2047921	1.7581717	-6.2313056	-0.7509095	-0.11435624	-1.1799209	0.3366187	0.21231008	1.3245467	-0.5086605	0.12220731	-0.40483588	-0.026441757	-0.6647603	0.9840143	0.82368094	0.4714934	-0.16274789	-2.449874	-0.56542766	-0.14894287	0.6690789	0.6914159	0.4386191	-0.31618983	1.2871237	-0.0752563	-2.4047756	0.124902055	0.56866574	0.3299194	1.0118674	0.9395193	-7.3899984	-0.6646673	-0.5388867	0.5264653	-2.6631277	1.4225246	0.41611317	-1.2253771	3.6463394	-5.752419	-0.9812183	0.14236338	-0.4264973	0.18204232	0.26477432	1.61264	-0.7409097	0.06379485	-0.5534159	-1.2908144	-0.9153613	0.72360027	0.9774935	0.44467208	-0.2540586	-1.929688	-0.45145717	-0.29692176	0.40916517	0.59732497	0.53616416	-0.681515	2.6745849	-0.52606225	-2.6144044	0.14025444	0.021384394	0.08643486	1.196372	1.174859	-10.013324	-0.46865076	-0.15182497	0.7365124	-3.0585198	1.3388302	0.9000267	-1.2709931	5.369138	-4.5885305	-1.0970231	0.64932114	0.25362018	0.13105792	0.14601915	1.769085	-0.87403077	-0.2859647	-0.60115266	-2.3456185	-1.2481941	0.25555888	1.4940091	0.39182135	-0.3490481	-1.3233094	-0.32066116	-0.541987	0.27195257	0.8059584	0.48140725	-0.8098114	3.2055714	-0.31602025	-2.6216123	0.08250469	-0.2440134	0.63276386	1.1237108	1.2194408	-10.743061	-0.30519277	0.08252878	0.7370544	-2.8611908	1.4920964	0.5672572	-1.1154109	7.6084723	-4.515053	-1.135457	0.8215046	1.8806522	0.19128911	0.12463917	1.5992066	-0.7040126	-0.2928128	-0.49934566	-5.7287292	-1.1411844	-0.40903613	1.7796916	0.6654134	-0.20338507	-0.8545344	0.055136412	-0.5272592	0.12717468	0.98209286	0.1543341	-0.5677026	2.5043097	-0.107845075	-2.652526	0.009970457	0.015001823	1.2466395	0.9630163	1.2851595	-9.552588	-0.54268	0.40627635	0.971665	-2.5888267	1.4596978	0.3367544	-0.85496753	8.517648	-5.2520223	-1.1101154	0.4845429	3.400006	0.27984336	0.19486466	1.4191673	-0.4638283	-0.25567603	-0.5168537	-6.8977294	-0.92818654	-0.029149322	1.4609444	1.0342561	0.46893525	-0.99057704	0.0045532905	-0.2958149	0.13119094	1.3240418	-0.18983486	-0.35050726	1.7066522	-0.5058997	-2.73696	-0.20739855	-0.17664044	1.5611322	1.0200833	1.4148544	-9.640057	-0.09820209	0.7002679	1.3208591	-2.679836	1.39845	0.70404065	-0.7685624	6.874428	-5.198809	-1.083414	0.569264	2.921849	0.45340228	0.16019168	1.3176368	-0.6512206	-0.60955954	-0.578507	-5.611443	-0.8197467	0.6229809	1.8991362	1.2957122	0.45318303	-0.21034048	-0.09067791	-0.15456064	0.357308	1.5346746	-0.42956233	0.15150067	0.93913513	-0.052549824	-0.2239339	-0.040506918	0.0485855	-0.14416057	0.04172099	-0.48069468	0.036720846	0.16630107	0.43277326	-0.07274223	-0.100230515	0.07931419	0.11034439	-0.3510571	-0.023732485	-0.026912581	-0.098205745	0.040179625	-0.023539659	-0.06746886	0.216321	0.36645865	-0.01697034	0.03374044	-2.4820232	-0.03689327	-0.58402514	0.017245963	0.06785877	0.049506832	-0.014300385	-0.0016367589	0.005455804	-1.7274536	0.056039903	-0.08726262	-0.08189658	-0.13063842	0.050086528	-0.07305245	-0.28130272	-0.098194115	0.07672805	-0.1665567	0.068207785	-0.642843	0.014972652	0.217685	0.48733938	-0.1654848	-0.13058881	0.0633326	0.16732205	-0.34234706	-0.039111998	-0.028259924	-0.06370335	0.04310714	-0.035875015	-0.07023999	0.21639352	0.3991822	-0.010345719	0.027122322	-2.4554644	-0.04961678	-0.69052637	0.03345273	0.0798643	0.041012503	-0.034301896	-0.08635948	-0.020945732	-1.7610749	0.03810508	-0.025274625	-0.021037824	-0.04093594	0.052041993	-0.104213044	-0.29107404	-0.113633215	0.078966446	-0.17658341	0.07785957	-0.69117963	-0.00011780133	0.21032724	0.5077375	-0.18700516	-0.05669486	0.08649562	0.1780476	-0.3659253	-0.056111608	-0.046083316	-0.09581576	0.06261335	-0.06225335	-0.071443126	0.21418603	0.35009912	0.013036764	0.005381958	-2.4770913	-0.04914208	-0.7526776	0.044980895	0.09048504	0.0060199876	-0.014517059	-0.08581753	-0.03269989	-1.782974	0.054617003	0.0032345713	-0.038751636	0.12654442	0.0485461	-0.07215698	-0.28616884	-0.1055858	0.053042803	-0.1609299	0.037422802	-0.67137855	0.049098138	0.18155971	0.45852765	-0.19715239	-0.031344507	0.108113974	0.16397752	-0.3810724	-0.032403618	-0.07640293	-0.09281431	0.05175807	-0.061548326	-0.09463058	0.19945791	0.26489088	0.0239825	-0.003038983	-2.5107255	-0.050056305	-0.76956797	0.029392894	0.07793986	0.011624449	-0.031517174	-0.06418844	-0.026212094	-1.8093383	0.06254337	0.06074895	-0.02250032	0.28968167	0.05049682	-0.057080273	-0.30638003	-0.09472102	0.048237212	-0.1458433	0.04678634	-0.67102826	0.044511124	0.17297608	0.38042513	-0.22496212	0.008517924	0.116000675	0.14617123	-0.43728697	-0.042102855	-0.08286775	-0.0818526	0.043357234	-0.08091917	-0.087433524	0.20985746	0.22733893	0.027618308	-0.009105084	-2.4858787	-0.056630872	-0.7753399	0.028280247	0.07197171	-0.0028185768	-0.06355076	-0.07664405	-0.039860547	-1.8003377	0.054442376	0.1257014	-0.026062282	0.40693378	0.04399152	-0.070512176	-0.32852063	-0.07311805	0.03252365	-0.14911306	0.086482525	-0.61991626	0.032178033	0.19298413	0.27633294	-0.26895568	0.068772465	0.1244425	0.109096564	-0.6407753	-0.03274443	-0.05671801	-0.11166327	0.04635779	-0.08218559	-0.11671418	0.23499013	0.22348212	0.03079248	-0.0025591787	-2.4659703	-0.06630145	-0.68167144	0.025730537	0.058769234	-0.01733321	-0.1099417	-0.08608265	-0.043041747	-1.7546495	0.036758102	0.16358174	-0.032790836	0.5376695	0.04898888	-0.07983525	-0.34727174	-0.02546028	0.039594173	-0.09652945	0.11009717	-0.5087554	-0.08160975	0.19692422	0.16299325	-0.20438726	0.05787922	0.10061057	0.03508841	-1.1615137	-0.058658518	0.05703662	-0.116731614	0.035909954	-0.081953466	-0.22289568	0.29793218	0.2788472	-0.01915944	0.021550078	-2.1752117	-0.09227992	-0.5100179	0.0377861	0.02412076	0.01699601	-0.1127712	-0.115755275	-0.039061334	-1.5383333	0.017213782	0.1174685	-0.05683267	0.47213233	0.02535823	-0.030069932	-0.48808384	-0.0032619848	0.021382116	0.11035638	0.009205169	-0.283243	-0.16384554	0.04288931	-0.17695877	-0.0024538115	0.087877564	0.15316688	-0.08037276	-1.6844469	-0.0573207	0.16554677	-0.022211937	0.004984865	-0.0052587427	-0.28714186	0.29160178	0.14062394	-0.047586724	0.006109599	-1.6740433	-0.09427421	-0.34860346	0.02141007	-0.033474024	0.088978015	-0.013791768	-0.15965459	-0.04324805	-1.2901194	0.018315814	0.16190818	-0.07493115	0.32600984	-0.009627822	0.06464471	-1.4641056	-0.005987557	-0.090631686	0.07718425	-0.39787433	-0.34168124	0.19746237	0.04288415	-0.63406783	0.059594147	0.043909237	0.6834573	0.019874854	-1.4941711	0.036619887	-0.12409426	-0.23382613	-0.04336691	0.013402417	-0.07071988	0.14335378	-0.9224829	0.043757103	-0.08526872	-1.3092245	-0.09931483	-0.18191731	-0.030700931	-0.2866154	0.073998496	0.15313822	-0.033449616	-0.0878007	-0.7342737	0.14190756	0.49592748	0.12604724	0.80005014	-0.0032766508	0.18773067	-2.2580972	-0.09618214	-0.21644928	-0.025898043	-0.21485528	-0.90048164	0.61743206	0.29779407	-0.57030183	-0.037717223	-0.3281888	1.028013	0.28049502	-0.82189816	0.14441207	-0.42631423	-0.86390495	-0.14779855	0.05330118	0.49392208	-0.118955836	-1.7166673	0.17117454	-0.11635783	-0.69133365	-0.23042148	-0.64563525	-0.10853697	-0.8706519	0.10139862	-0.20893428	0.42374983	-0.15846069	-0.23246072	0.32567656	0.97939175	0.36793533	0.78518325	0.16992621	0.19494212	-2.452074	-0.06606356	-0.19199628	0.04974746	0.40631765	-0.94910616	0.7603331	0.52741593	-0.32389587	-0.032563332	-0.40725315	0.7790448	0.1243822	-0.62654614	0.18208565	-0.51634634	-1.2640913	-0.21510062	0.15101431	0.72004783	-0.17635386	-1.8996366	0.13966191	-0.063756	-0.51976573	-0.25798452	-0.70253235	-0.12115585	-1.2596172	0.28714198	-0.5555487	0.7602896	-0.13475934	-0.07705188	0.34181398	0.9283927	0.31412062	0.4799946	0.23029563	0.15436463	-2.4066892	0.06152933	-0.15336728	0.21521482	1.7134309	-0.65819454	0.8191304	0.9915228	-0.15191917	-0.19731955	-0.12937352	-0.05705512	-0.3969876	-0.7024237	0.20277391	-0.47303045	-1.8888284	-0.33143598	0.17037356	0.980856	-0.31573597	-1.754257	0.063583784	0.08493522	-0.45850012	-0.35465845	-0.46052572	-0.12701818	-1.7941593	0.5468309	-1.1504103	1.044784	-0.057904195	0.1228328	0.19228669	0.8426848	0.08771024	-0.02284727	0.37425113	0.10871658	-2.4737475	0.36085486	-0.05978751	0.46622622	2.3431296	-0.3004265	0.7751166	1.0462997	0.24387974	0.09340264	-0.29338545	-0.6036196	-0.8914646	-0.6868186	0.1632664	-0.49527267	-2.3038037	-0.36504406	0.24380282	1.1081961	-0.3604579	-1.8029655	-0.014545128	0.048386984	-0.48372495	-0.30638275	-0.29358426	-0.09708045	-2.214696	0.8772184	-1.039012	1.5490278	0.049780376	0.103453234	0.1851656	0.49101317	-0.16544504	-0.2615697	0.30663988	-0.007597963	-2.3934684	0.8790599	0.06631495	0.59929	2.8977597	0.06273769	0.61936504	1.3495611	0.76784915	0.25222653	-0.5024499	-1.4374657	-1.5724638	-0.9729884	0.09402518	-0.4259619	-2.9123228	-0.37247714	0.2036305	1.1055677	-0.35624915	-1.5852075	-0.113083355	0.05304645	-0.6615144	-0.34101754	0.07367262	-0.031962752	-2.5767405	1.218238	-0.6934036	1.9449917	0.18463689	0.09174062	0.10861852	0.09516342	-0.50986695	-0.46461317	0.27580208	-0.032766066	-2.1056492	1.6394955	0.062191375	0.7524367	2.422669	0.17844057	0.33814362	1.1535068	1.2108026	0.48218462	-1.2038466	-1.8441074	-2.053571	-1.2985718	-0.049167734	-0.39196542	-3.200211	-0.31425616	0.03285899	1.1395733	-0.25565973	-1.3760384	-0.0020912064	-0.07239283	-0.79024345	-0.34871402	0.2050027	-0.0023226305	-2.654413	1.3782315	0.085194156	2.4253836	0.26890066	0.08408117	0.1695379	0.07378603	-0.87841344	-0.58893615	0.18300001	-0.060490496	-2.1677485	2.1577525	0.107841395	0.9251145	1.8109992	0.30879557	0.27407444	0.8995031	1.6509832	0.6981114	-1.7827058	-1.9517683	-2.3018768	-1.5285984	-0.06695372	-0.44530076	-3.1111124	-0.26875374	0.08689748	0.7720808	-0.089023896	-1.4808326	-0.020295143	-0.17058325	-0.8636849	-0.25902173	0.4068318	0.05019221	-2.6185858	1.484951	0.51779133	2.6983945	0.27251208	-0.010358391	0.20086107	0.049152095	-1.1151484	-0.45213732	0.0037324016	0.051524922	-0.3211743	-0.115200356	0.07804327	-0.16817014	0.060564514	-0.40062094	0.07247782	-0.067689255	0.22478913	-0.22622968	-0.008303531	0.062010746	0.21032432	-0.44729096	0.03260224	0.025114862	-0.14709935	-0.0111305965	-0.13026676	-0.075747654	0.27562746	0.4741786	-0.059768546	0.025118448	-2.1966076	-0.14173959	-0.38889554	0.01984537	0.019916492	-0.07406021	-0.060698666	-0.09584279	0.01653662	-1.4352814	-0.10985773	-0.0018244911	0.13967551	-0.6005982	0.07811035	0.20336968	-0.26896778	-0.15563281	0.13498655	0.028520575	0.10034825	-0.13648838	0.2590015	-0.67982507	-0.1799654	-0.7135577	0.11219292	0.10589733	0.14015847	-0.5282853	0.19502676	0.04769231	-0.122155786	-0.060952	-0.17304425	-0.13974594	0.3112629	0.4447219	-0.06522153	-0.08302002	-2.2526665	-0.26680928	-0.081186876	-0.0026497303	0.0050542816	-0.09208481	-0.026659667	-0.07136508	0.024198115	-1.4175273	-0.369095	0.20569928	0.44727436	-0.7643542	0.1456698	0.37603787	-0.12298756	-0.23322126	0.18497702	0.44622687	0.24758893	0.0011810646	0.56449014	-1.2982858	-0.43991944	-1.5021592	0.18643196	0.15963946	0.104058444	-0.47854033	0.3605478	0.10207709	-0.15963179	-0.13043629	-0.1619306	-0.05600734	0.3769172	0.63061976	-0.04808016	-0.23656465	-2.1266053	-0.6213131	0.107662484	-0.04363549	0.022637414	-0.054852568	-0.039873976	-0.003629964	-0.011197066	-1.3652295	-0.5094377	0.19610812	0.8109624	-1.1243588	0.37918904	0.49273866	0.13675585	-0.32804778	0.12574519	1.0265634	0.42942193	0.23722807	0.84763306	-1.6693496	-0.62690276	-2.2176952	0.25589135	0.21171907	0.083973065	-0.39308733	0.37616336	0.12364526	-0.23966028	-0.21169311	-0.10224719	-0.015871326	0.4383827	0.77291787	0.006057535	-0.33297703	-1.9667475	-1.0116653	0.25163144	-0.10677517	0.023107095	-0.050948564	0.06973587	0.09318461	-0.0072258296	-1.2744775	-0.43488964	-0.058896504	0.93758816	-1.4478687	0.7472422	0.49740276	0.28196055	-0.3885288	0.044449255	1.4525605	0.57830685	0.42267957	1.0707611	-1.777135	-0.65376663	-2.6796265	0.25440606	0.27588058	0.1106226	-0.3573105	0.33623758	0.19254147	-0.33879673	-0.28845948	-0.005563825	-0.017850991	0.4750044	0.89617056	-0.16553403	-0.34561998	-1.8488771	-1.2331643	0.34743118	-0.16841984	-0.050743558	-0.029387776	0.23882325	0.069838375	0.0075677084	-1.2255384	-0.38994625	-0.3455177	0.9213128	-1.5409286	1.2696592	0.46469527	0.37847948	-0.5587717	-0.04606772	1.7963948	0.52958715	0.39405513	1.007559	-1.7614369	-0.53990465	-3.0644672	0.15613726	0.33411467	0.3501217	-0.43770114	0.13288388	0.26912874	-0.39548543	-0.34593463	0.210707	-0.05448128	0.57823265	1.0888675	-0.33584964	-0.34710503	-1.6759238	-1.231486	0.41499662	-0.2178462	-0.073597066	0.021899499	0.5395189	-0.05177063	-0.017822566	-1.1269013	-0.2402469	-0.5346596	0.8831098	-1.668093	1.7299097	0.308664	0.4201683	-0.69119585	-0.19088644	1.9932537	0.6833233	0.15694498	0.76001364	-1.4122726	-0.23256443	-3.424961	0.11868067	0.33499894	0.5747787	-0.72445107	-0.11374473	0.39164448	-0.62738484	-0.36633182	0.47035822	-0.11126801	0.70228153	1.3826861	-0.6998784	-0.28240436	-1.4350303	-0.8703397	0.4351207	-0.28980562	-0.13805266	0.09643455	0.5177995	-0.060634024	-0.07075826	-0.9413729	-0.13779972	-0.605636	0.7412776	-1.6347454	2.3267152	0.09780158	0.50318736	-0.8627267	-0.39166978	2.2116036	0.7001489	0.039266326	-0.17710622	-0.9985169	-0.105113454	-3.551506	-0.041206416	0.42160973	0.91428405	-1.0683544	-0.40115	0.646046	-0.76799905	-0.29744762	0.3789969	-0.121801876	0.7682269	1.587501	-1.0456886	-0.3429163	-1.1270542	0.22375955	0.37054706	-0.3692751	-0.012519093	0.2111058	0.5107494	0.16448651	-0.1429496	-0.9229428	-0.00412892	-0.5272084	0.6073107	-1.8414562	2.4632416	-0.17643848	0.44025517	-1.1771356	-0.5193348	2.274524	0.37871635	0.1963253	-1.2677817	-0.63349533	-0.20969184	-3.3039217	-0.23021905	0.83839035	1.4551809	-1.5760814	-0.24248523	0.523465	-0.85816854	-0.013502091	-5.5901666	-0.07302309	0.87865245	1.0106436	-1.16281	-0.6956881	-1.1214454	1.7051694	0.41148913	-0.2987485	0.51092356	0.32466552	0.7473559	1.0411928	-0.15316153	-0.8690898	0.2811747	-0.5592199	0.65121126	-1.7173209	0.73858196	-0.38216764	-0.07715073	-1.488538	-0.5613856	1.8791145	0.058383137	-0.30996478	-0.6258041	-0.16556107	0.373847	-3.2833562	-0.19252798	1.3443643	1.9272455	-1.5908145	-0.21145786	-0.33443215	-1.2322047	0.20207089	-13.040482	-0.004497037	1.0519087	-0.101613574	-1.2253445	-0.9667983	-1.1355078	1.7050655	0.16845402	-0.09399508	0.8577943	0.34175447	1.0069578	1.7705064	-0.0828498	-0.37298673	0.4078876	-0.8026435	0.79601914	-0.6465583	-0.50708896	-0.443031	-0.3278339	-1.6904683	-0.60543627	1.780442	0.073259264	-0.69945496	-0.29216596	0.07106475	0.6270632	-3.332187	-0.08537986	1.4916921	2.1485407	-1.5799962	-0.12600796	-0.60796034	-1.3158839	0.24584621	-14.655938	-0.0042104325	1.0780603	-0.41480494	-1.2739309	-1.0172464	-0.88214356	1.5505012	0.0016932102	-0.027970836	0.975957	0.37008765	0.9123437	1.8524833	-0.05959563	-0.2551868	0.3928563	-0.859482	0.80086046	-0.32810947	-0.84323233	-0.54743445	-0.61983985	-1.7431244	-0.69444597	1.4138298	0.13066588	-1.6659547	0.004179899	0.54395986	1.0162863	-3.7361162	0.034894865	1.718993	2.3683863	-1.6270844	-0.07533183	-0.8955676	-1.7294322	0.33495826	-15.923755	0.12621424	1.1555433	-0.5448547	-1.1772565	-1.0048196	-0.5646772	1.3168849	-0.19189376	0.018875701	1.1515647	0.30361542	0.7279135	1.9774791	-0.018243864	-0.047991898	0.3614581	-0.7584082	0.72861266	0.18235587	-0.99143296	-0.67514557	-0.56128544	-1.7991917	-0.7309444	1.1850678	0.7493217	-2.4413886	0.40931466	1.425372	1.1184297	-4.2989416	0.5616918	1.3832785	2.2651267	-1.8958553	0.12126519	-1.0137366	-2.3623588	0.33864632	-16.649628	0.1942023	1.1227322	-0.47486612	-1.217395	-0.84913474	0.013165699	0.97166467	-0.44083038	0.054805715	1.1162161	0.40228152	0.13131689	1.7849935	-0.06450301	0.55333245	0.20058395	-0.3843491	0.55436903	0.25472108	-0.9615609	-0.78919965	-0.40776044	-1.921561	-0.85799843	1.5201691	1.7426116	-2.2577038	0.42808267	2.326981	0.8956277	-4.3296375	1.2841166	0.40320924	1.7133855	-1.9177964	0.16001135	-0.74566853	-2.961976	0.22132538	-17.08294	0.5364078	0.8618399	-0.29297486	-1.4265338	-0.58498853	0.23891751	0.5814476	-0.013703437	0.11811741	0.7693851	1.0061834	-0.19573009	1.314003	0.04167985	0.9040687	0.118735455	-0.43253946	0.24426872	0.0035192424	-1.0805066	-0.8273211	-0.4201663	-2.1664855	-0.81490356	1.9558517	1.453884	-1.248488	-0.16277914	2.2445943	0.5421663	-3.4368427	0.9442139	-0.54228735	1.5824878	-1.8300599	0.10823345	-0.25780514	-3.187027	0.21792975	-17.168152	0.8645891	0.6216151	-0.34337655	-1.6106945	-0.66690826	-0.30753413	0.51602226	0.8548871	0.13778824	0.4463451	1.8170503	1.1684173	1.1403518	0.15283544	1.3131025	0.045428716	-0.86500067	0.25204414	-0.26764846	-1.5838434	-0.6510432	-0.86871094	-2.2071698	-0.7453352	2.159942	0.82384497	-0.89245117	-0.13670808	1.7060932	0.89212215	-2.9449387	0.5038062	-0.88041	1.6033562	-1.5651433	0.12908304	-0.36492035	-3.1020207	0.20953603	-17.25699	1.0028127	0.63410616	-0.49957767	-1.5531759	-0.9184651	-0.57325816	0.6258152	1.1447152	0.056338586	0.51746035	1.970137	2.2376275	1.5384411	0.12097393	1.2740167	-0.020365167	-0.95042187	0.2978669	-0.49303052	-1.3997393	-0.0022842973	-0.198998	0.023257332	-0.025143754	-0.12505966	0.051603064	0.07002713	0.19068287	0.1118949	0.24737373	-0.107073925	-0.11832482	0.005925929	0.042951904	-0.22568932	0.05886093	-0.11645023	-0.13161477	0.01695766	0.040409178	0.14937095	0.079859436	0.09726028	0.050986413	0.07357263	-2.2349453	0.0125981085	-0.1949761	-0.046860576	-0.016503353	0.037905846	-0.06140027	0.029426051	0.0427762	-1.4056647	-0.032542277	-0.09309586	0.017834252	-1.007108	0.052462745	0.002866809	-0.23530528	0.011727683	-0.003740458	-0.17034954	0.0644159	0.022151925	0.17826034	0.13108079	0.29323986	-0.19633974	-0.12588118	0.02393465	0.06507134	-0.37854403	0.060632583	-0.1084938	-0.16959108	0.013724613	0.036908947	0.09841531	0.12986398	0.16316465	0.056541532	0.059976812	-2.1952958	-0.0018811983	-0.20571448	-0.035959963	-0.0040657273	0.055263065	-0.08197752	0.05452422	0.04325815	-1.3644423	-0.03923946	-0.113739006	0.039619837	-0.899842	0.035977606	0.0023312825	-0.27314472	-0.011752986	0.012753624	-0.19921748	0.0692238	-0.024221705	0.13991532	0.09910523	0.3180954	-0.2813049	-0.11665137	0.025573397	0.10399891	-0.52016276	0.046310168	-0.095860004	-0.17990066	0.015842605	0.014863959	0.056772854	0.1647924	0.211052	0.06853582	0.039243735	-2.121144	-0.016351545	-0.22181861	-0.021693667	0.013588493	0.042428736	-0.098583505	0.056604654	0.030058425	-1.3107322	-0.050554946	-0.09243603	0.07693963	-0.83141667	0.011369216	0.030691156	-0.28589836	-0.029252078	0.030181639	-0.19730982	0.06756309	-0.017661288	0.14890285	0.029295038	0.32162014	-0.37365603	-0.09533273	0.04387388	0.09999653	-0.62588215	0.04241538	-0.13075373	-0.1831338	0.011120775	0.009074776	0.051625237	0.17032522	0.1425226	0.10056503	0.00961081	-2.0439174	-0.01426544	-0.23835665	-0.018470325	0.029778654	0.054398622	-0.10286847	0.094948426	0.01680791	-1.2278922	-0.05472734	-0.062402938	0.12226724	-0.80442715	-0.025140107	0.047415998	-0.37927267	-0.0717085	0.07162603	-0.26544636	0.05014192	-0.13483216	0.1873393	-0.03504649	0.41842046	-0.5363145	-0.088966295	0.08080926	0.16018157	-0.77718884	0.056597896	-0.18881701	-0.22015516	0.018990098	0.012903742	0.043558303	0.19078659	0.09821577	0.1387201	-0.04882557	-1.9529588	-0.016445816	-0.28790864	-0.0012823096	0.07895004	0.0547253	-0.061394908	0.15411389	-0.0059380927	-1.1213783	-0.053866103	-0.051710274	0.18661591	-0.68679553	-0.052697014	0.107891455	-0.4109336	-0.061189942	0.1381678	-0.24695553	0.08150896	-0.21656725	0.16231182	-0.18624082	0.45483568	-0.76219004	-0.034232106	0.09640855	0.08719364	-0.9931698	0.0398229	-0.20891061	-0.22195053	0.0017706545	0.015379346	0.05977286	0.19091605	0.034070037	0.18778394	-0.121611	-1.7436063	-0.030139498	-0.35829103	0.020261925	0.15771909	0.10815752	-0.02743977	0.24519786	-0.05156898	-0.95933896	-0.06202578	0.011109492	0.19006246	-0.6242869	-0.08833994	0.21316147	-0.42092466	0.016308796	0.21341343	-0.18549664	-0.021017859	-0.3456289	0.28996518	-0.44160852	0.45316282	-1.0542064	-0.03871457	0.18153721	-0.06405184	-1.2976254	0.10059853	-0.2679076	-0.22041988	-0.029810075	0.07714545	0.09755553	0.18130228	-0.10096455	0.21951121	-0.24012944	-1.4481325	-0.076924294	-0.4675227	0.020221163	0.27084816	0.1968631	0.14092205	0.4086813	-0.13233486	-0.8580948	-0.059461415	0.1429192	0.17572626	-0.58265257	-0.0066080415	0.28398538	-0.59657335	0.081240505	0.14747821	-0.29033348	-0.29190558	-0.92543167	0.9014327	-0.52562773	0.539845	-1.6498705	-0.09477006	0.4775005	-0.08811492	-1.5314806	0.32991874	-0.4708291	-0.42815316	-0.058821496	0.13627657	0.2698098	0.15813133	-0.48175228	0.12807502	-0.3982885	-0.9220465	-0.23843807	-0.86211985	-0.05660724	0.40206197	0.2683979	0.3421152	0.66410613	-0.24877164	-0.60283315	-0.013032531	0.47392568	0.079197206	-0.37962353	0.54970473	0.23248816	-0.7351487	0.08035013	-0.2318966	-0.034087602	0.17055406	-1.2368144	0.8489428	0.07203758	0.34423184	-2.2174861	0.15087816	0.22713046	-0.6930707	-1.4908628	0.24514215	-0.12981007	-0.9244592	-0.22008877	0.27132934	0.8062742	-0.1119588	-0.8025889	-0.47173062	-0.41892317	-0.18506198	-0.28980333	-0.9943916	-0.16105653	0.3639311	0.91458046	0.7456982	0.7655224	-0.13237596	0.1646607	0.13295932	0.5514678	-0.6980657	-0.59142596	1.2461425	0.025047466	-1.1486058	0.22449201	-0.45403725	0.27885425	0.51728535	-0.7540126	-0.26622474	0.6887102	0.2927989	-2.063613	0.24250205	-0.39571816	-1.4522637	-1.3098029	-0.09654962	0.32295907	-1.279431	-0.29182458	-0.05606061	1.0561361	-0.3559926	-0.9391005	-0.97017205	-0.40128326	-0.27214053	0.28474352	-0.30533835	-0.039196115	0.30083406	1.6044555	2.0287156	0.7441369	0.19183347	0.3940474	0.39708668	0.045630995	-1.6292377	-0.41301972	0.57474196	-0.15075026	-1.3819295	0.33044285	-0.51659006	0.28986064	0.3368549	-0.7571799	-0.704571	0.8673436	0.40490368	-2.000509	0.19188322	-0.57577175	-1.4751065	-1.1641257	-0.19284119	0.42226052	-1.3840714	-0.22234721	-0.5626706	0.93229216	-0.39371178	-0.88923323	-1.0863695	-0.323469	-0.4231355	0.43418252	-0.04976083	0.037682645	0.3079076	1.7618053	2.713251	0.61044323	0.31989765	0.39037403	0.53712976	-0.1929835	-2.0730174	-0.07150037	0.06981947	-0.272121	-1.3971865	0.48038152	-0.61423236	0.3202945	-0.10255277	-0.8731176	-1.3351055	0.56482846	0.29824713	-1.9413574	0.10453393	-0.62498224	-1.3343266	-1.1089072	-0.38693753	0.49800685	-1.4168565	-0.13518287	-1.3104119	0.94235426	-0.38311523	-0.75630367	-1.0138359	-0.23796426	-0.5517972	0.6196502	0.103211366	0.15293834	0.40836388	1.7568378	3.5894163	0.6351998	0.49142042	0.4152333	0.7380237	-0.21507895	-2.683704	0.34827524	-0.520003	-0.3178147	-1.0729836	0.49127883	-0.73655057	0.33174136	-0.64136404	-0.71724916	-1.5875769	-0.09433581	-0.3650034	-1.8502436	-0.10471887	-0.62921077	-0.81905186	-1.07951	-0.21491012	0.53626406	-1.2423774	-0.08787821	-1.9433376	1.1907866	-0.5045219	-0.7068605	-1.0374972	-0.079456165	-0.6443963	0.72726744	0.034053445	0.19511709	0.41006392	1.5863227	4.303845	0.7361053	0.58907825	0.5463001	0.84387785	-0.09525499	-3.3094883	0.24351929	-1.0151327	-0.4819415	-1.5023359	0.12503539	-0.9270317	0.8438743	-1.4377306	-0.48255116	-1.7438209	-1.015781	0.06328823	-1.5419046	-0.5031384	-0.68741095	0.20144911	-0.67485136	0.39840123	0.69076586	-0.44778192	0.032334074	-2.065378	0.96137595	-0.2983043	-0.8141056	-1.4857554	0.12310031	-0.7759704	1.1879964	-0.039300147	0.15441507	0.8850177	1.6165966	3.7539115	1.4203006	0.6451679	0.53673613	0.76474386	-0.3191739	-4.4533815	0.31059262	-1.0266855	-0.34082416	-2.265971	-2.0520105	-1.526919	1.2009848	-1.620247	-0.5117862	-1.2240987	-1.4419425	1.2680401	-1.1592395	-0.46569276	-0.8544888	1.9422617	-0.2472497	1.4363323	0.6618828	-0.07999119	-0.01297891	-4.2054877	1.219922	-0.061221182	-0.9821032	-1.8077217	0.0030390432	-0.2895844	1.5719339	-0.79640776	-0.11726211	1.0530177	1.702928	1.6780128	2.4265018	0.36548874	0.46400213	0.97163033	0.2759965	-4.346564	-0.01380324	-1.0418981	-0.29018906	-2.5231102	-3.6807542	-1.9639958	1.3041039	-1.809953	-0.54437643	-1.3918087	-1.3519409	1.8897817	-0.61435056	-0.75789773	-0.95625335	3.1380386	-0.1931178	2.8085783	1.193452	-0.13967152	-0.19113153	-4.6142125	1.4023464	-0.06415157	-0.97479045	-2.1177456	-0.3353225	-0.022675952	0.5696472	-1.2344378	-0.061625395	0.6607769	1.8117553	0.9237992	2.5300288	-0.025728298	0.29856378	1.6299243	1.1436055	-3.477445	-0.051424786	-0.9488395	0.1361826	-0.37079483	0.40241393	0.02692411	-0.24033107	0.1629687	0.16218273	0.27370054	0.60129434	0.26353213	-0.5981197	-0.2388666	0.20665297	-0.28213078	-0.5967181	0.027570324	-0.24833651	-0.24342094	-0.054932408	0.033685356	-0.31500113	0.12997961	-0.15836711	0.039951336	0.06890304	-2.2168255	0.006545395	-0.3185106	-0.030547611	0.0014466037	0.27992576	-0.1833965	0.21716413	0.04387451	-1.1376811	-0.025262685	-0.05811859	-0.4076386	0.59219813	-0.102861844	0.13944204	-0.57607234	0.15321426	0.12734184	0.19694644	-0.17561579	0.12083401	0.20150885	0.48476964	0.3982498	-0.58867216	-0.33453423	-0.15712659	-0.17274597	-0.6875575	-0.022470575	-0.26779202	-0.058681212	-0.14687797	0.09308933	-0.83725166	-0.756549	-0.48295042	-0.0008117837	-0.01141897	-1.5797988	-0.0013906967	-0.0352725	0.04909776	-0.08848314	0.40534517	-0.22797035	0.060293708	-0.08003226	-0.6190929	-0.10557866	0.49623755	-0.2728982	0.65240395	-0.20161796	0.1187588	-0.84154916	-0.18287332	0.049029786	0.2437176	-0.664563	0.75660133	0.3338845	0.6730762	0.14232196	-1.1513927	-0.18382947	-0.6721798	0.119160526	-0.56701225	0.041372515	-0.38475457	-0.103484385	-0.24422081	0.07265205	-1.1460599	-1.3291417	-0.6876606	0.08328762	-0.08695813	-1.4630592	0.022203583	0.08951616	0.09852828	-0.04849362	0.40023723	-0.45185485	-0.052123323	-0.15816452	-0.3404109	-0.33625218	1.1511128	-0.23544446	1.2585762	-0.25511506	-0.0116775	-1.1061189	-0.58395714	-0.009951996	0.39752153	-0.9992888	0.36478037	0.3034635	0.7595427	0.40535676	-1.1435387	-0.46501195	-0.54021144	0.46384794	-0.13932341	0.08306649	-0.26652652	-0.17293574	-0.21385063	0.19830903	-0.88517857	-1.7121315	-0.783783	0.17611757	-0.16908927	-1.2085927	-0.028971208	-0.011769477	0.13935973	0.071425766	0.61163104	-0.27885047	-0.008584751	-0.13490622	-0.7248365	-0.19651325	1.127468	-0.3572527	0.9283248	-0.14573702	-0.4469729	-1.1670573	-1.0529557	-0.049060415	0.5326574	-1.0944681	-0.4463476	0.15697467	1.0174733	0.7598184	-1.2427611	-0.8347232	-0.24808498	0.8047646	0.013832494	0.060727775	-0.06577671	-0.30547574	-0.061495733	0.2861472	-0.6388861	-1.9342308	-0.7361285	0.29957885	-0.1998042	-0.7636549	-0.1092747	-0.06102431	0.24756552	0.21477276	0.88952297	-0.23265864	-0.06521013	-0.1375272	-0.7378348	0.023582073	0.99897295	-0.45159677	0.327573	-0.009170808	-1.1728631	-1.2465103	-1.512272	-0.018699136	0.54946834	-1.1068124	-1.6195606	0.08085863	1.58146	1.4726403	-1.4237508	-1.311858	0.2655341	1.1508651	-0.10151858	-0.0039413553	0.061050586	-0.53978044	0.09044232	0.32199767	-0.536153	-2.0394864	-0.73080045	0.37724087	-0.17892025	-0.16037346	-0.22709101	-0.056647986	0.48985308	0.3109373	1.2318217	-0.3487235	-0.21075022	-0.1601955	-0.59019107	0.40344357	0.6597894	-0.49173298	-0.022539455	0.0998724	-2.0134084	-1.1919038	-1.9783406	0.10507867	0.6012945	-0.91406935	-2.433165	0.1961291	2.3670976	1.894826	-1.7901329	-1.481778	0.53891265	1.4042542	-0.40388355	-0.1325652	0.01180025	-0.80344534	-0.18061751	0.097630925	-0.5996149	-2.0861118	-0.7223963	0.36324832	-0.15678021	0.4011078	-0.47370875	0.13813789	0.9400458	0.1089468	1.5381424	-0.766717	-0.5958022	-0.17884886	-0.21465145	0.7981695	0.5652501	-0.5524628	0.24146508	0.18209489	-3.6026587	-0.79005826	-2.1659975	0.5850706	1.0237422	-0.24569115	-2.3322263	-0.0110392	2.4377923	1.3737698	-1.592515	-0.9722976	0.37915578	1.0552381	-1.1087134	-0.38952133	-0.12623432	-0.97482795	-0.47271335	-0.27511278	-0.7055672	-1.790308	-0.9191767	0.36574954	-0.23639165	0.4960604	-0.5618394	0.8276893	1.4630121	-0.25140035	1.9531622	-0.04107634	-0.90658265	-0.11677709	0.49811426	1.1590854	-0.095051736	-1.2047035	0.47479305	-0.0065531516	-5.668585	-0.40680605	-1.8427335	1.5404243	1.8177247	0.9129184	-0.62267077	0.15640706	1.1501256	-0.3152912	-1.0532871	0.5587051	-0.7271487	0.41544747	-1.2367134	0.08531092	-0.51350677	-0.4248967	-0.7399381	0.42005417	-1.0349392	-0.74150753	-0.79410905	0.25332114	-0.4468096	-0.58367413	-0.490537	1.4683281	0.3888623	-0.3707894	2.202097	1.3040996	-0.38002363	-0.19938469	0.34459394	0.8927897	-1.2464881	-3.3656077	0.614861	0.33827394	-7.2217917	-0.5133585	-1.9954855	1.4511387	2.435849	1.707953	0.5512036	-0.29652444	-1.5249797	-1.439086	-0.9260257	1.9361613	-1.5066941	0.62679327	-0.9337087	0.4136812	-0.5665952	0.99848324	0.60202134	1.1635265	-1.7574695	0.98205656	-0.7294105	0.78266454	-0.29922253	-0.8671386	0.06896467	0.3483692	-4.019687	0.7869957	1.7178197	1.5654857	1.0465808	-0.4601508	0.07501969	-0.041542444	-1.6586305	-5.3274913	-0.10020418	1.2808211	-7.623333	-0.24535981	-2.969191	0.906615	2.582185	1.2309197	0.26875654	-0.9687638	-2.326302	-2.1014886	-1.3806467	2.015158	-0.9134056	1.0619438	-1.0194275	0.07742665	-0.45373243	1.59679	2.0814128	0.8496079	-2.221902	1.1341541	-0.9817834	1.2899985	0.37921444	-0.3215232	0.082795	-0.24128689	-7.5261097	1.2872981	1.4206735	-0.27429336	0.9579325	-1.359049	0.40355286	-0.24966675	-0.20684135	-3.794029	0.20573965	1.089092	-6.790108	-0.36139932	-3.3599744	0.5201361	2.6426978	0.46645412	-0.021372482	-1.5826113	-3.0348773	-1.978175	-1.793363	2.0890088	-0.4253122	0.8304081	-0.7327407	-0.9114738	-0.6962313	1.5371614	3.655403	-0.95906067	-1.581665	0.65608805	-1.3375583	2.0644875	0.57414925	-0.018670676	-0.24420704	-0.3065832	-12.608187	1.8728573	1.5378021	-1.476215	1.5225003	-2.148924	0.650354	-0.7632053	1.2500341	-2.2973156	0.255939	0.82364607	-5.5120683	-0.2615473	-3.8836691	-0.20670938	2.821349	-0.26221108	-0.19482116	-2.6554196	-3.4311476	-1.5675012	-2.4777684	2.1689506	-0.14320385	-0.008556993	-0.25943887	-2.8989575	-0.89363784	1.0358602	4.9065948	-3.064862	-0.72536725	0.015746716	-1.3829347	2.8078206	1.2292777	-0.023968417	0.5290395	-0.15150788	-15.924189	2.0556026	2.070654	-3.102662	2.0070426	-2.161499	0.4917087	-1.1789191	3.0624568	-0.2686707	0.12455356	0.69429034	-4.281714	0.015641583	-3.990863	-0.6507458	2.689723	-0.65409344	-0.043222338	-2.6896663	-3.0686483	-1.1347082	-3.4023716	2.002323	-0.2230163	-0.53163636	-0.35036993	-2.8319545	-1.2148411	0.20784226	4.161742	-3.615122	-1.010598	0.24254687	-1.3113554	2.7892785	2.1695743	-0.3462202	1.8187262	-0.141595	-12.501437	1.2811852	2.4229224	-3.5120807	2.3013833	-0.7270276	0.43820786	-0.8269452	3.8675263	-0.04249806	-0.07852816	0.43501046	-3.3001482	0.049301386	-3.5739264	-0.66735	2.2401354	-0.92615134	0.20752306	-1.577394	-1.9920677	-0.71684617	-3.7921216	1.7223011	-0.4217219	-0.7548095	-0.2742671	-1.2681302	-1.3332202	-0.6383986	2.5544918	-2.7861066	-0.94022906	0.30227816	-1.2879694	2.0196807	2.6559806	-0.69858474	1.9993818	-0.19067745	-8.164588	0.10370663	2.6826267	-3.7053726	2.1854048	0.57668114	0.515256	-0.09603373	3.9010632	-0.40158767	-0.22983266	0.61987185	-2.1933117	-0.0363913	-3.1729426	-1.3548645	1.9367127	-1.5209705	0.4286968	-0.9393985	-1.6775659	-0.07070641	-4.8928704	1.8859043	-0.053073663	-1.4042126	-0.22399524	-1.4424831	-2.3983943	-1.7338861	1.2830275	-2.6782954	-1.8086735	0.5408234	-1.7831156	2.9444833	2.352911	-0.97315884	1.2835214	-0.17479204	-10.812892	-0.42473894	3.2244318	-3.5024838	3.3951504	2.4902828	0.88114727	0.013838605	4.6741114	-0.3557409	0.24583241	0.9941612	-0.22433943	0.14112088	-1.1332502	-0.19185801	0.31025705	-1.367198	-0.24117163	0.050590508	0.072802894	-1.1350214	0.19332126	0.27437988	-0.47750565	1.2869009	-1.1039077	0.118125394	0.08178779	-1.05348	0.19369608	0.08088882	0.18587829	-0.7830141	-0.59971064	0.030499645	-0.10335557	-0.5402063	-0.07077847	-1.4775598	0.024525566	0.3333482	0.64753187	0.3954739	0.97450393	0.095864736	-0.14856814	0.24014716	0.065255605	-1.3913655	0.40022224	0.18391375	-0.2395453	0.04475441	-1.9016867	-0.27852917	0.4109179	-1.4115605	-0.14179833	0.081391886	-0.19585547	-1.3427619	0.16045275	0.5232612	-0.52997935	1.8869507	-0.95631117	0.16223735	0.069518246	-0.97814846	0.23093969	0.18923952	0.27263024	-0.8739705	-0.6326974	0.052985936	-0.13477	-0.6105247	0.05067103	-1.3223677	-0.00087625335	0.51515794	0.6472221	-0.089134894	1.3170115	0.1060054	-0.09173486	0.237649	-0.011679992	-1.621108	0.5609917	0.16696103	-0.23723689	0.025638606	-2.595559	-0.3205937	0.49525672	-1.3113625	-0.09267754	0.115308896	-0.35824752	-1.4405992	0.123999126	0.8166217	-0.5283962	2.2311301	-0.79335755	0.19847408	0.06912878	-0.9500119	0.25450024	0.27692136	0.30388263	-0.9515541	-0.61109275	0.041166108	-0.13144752	-0.6660993	0.1313897	-1.2903103	-0.026650202	0.639841	0.68528575	-0.6180759	1.5672865	0.116363555	-0.053483315	0.23742092	-0.13456291	-1.7038239	0.7473515	0.1489902	-0.19714545	-0.0391403	-3.2387385	-0.37555462	0.59183294	-1.1749793	-0.057694096	0.17264885	-0.51322716	-1.468448	0.0953873	1.095427	-0.5541443	2.495461	-0.69418645	0.23818174	0.05060115	-0.90077186	0.25501832	0.38029033	0.3686881	-0.9902958	-0.6184979	0.05485712	-0.123260945	-0.6802861	0.20219788	-1.2322407	-0.06899434	0.7279128	0.739615	-1.1087283	1.7653402	0.12570916	-0.039576918	0.2538039	-0.20135175	-1.7528378	0.78451353	0.13977289	-0.12699158	-0.040772505	-3.9930618	-0.41969213	0.71907383	-0.9407015	-0.016052594	0.19996056	-0.6551808	-1.6274488	0.0033691383	1.4272225	-0.62286085	2.607712	-0.58610404	0.27138078	0.05341068	-0.8785239	0.25329083	0.47306907	0.558105	-1.0480062	-0.5553484	0.10488034	-0.10940664	-0.70598596	0.26497734	-1.1081039	-0.12966831	0.82227767	0.8343679	-1.6415591	1.9639839	0.14407422	-0.004290591	0.23438771	-0.28047907	-1.717315	0.73421985	0.1442684	0.0007333101	-0.07858048	-4.8488803	-0.44621578	0.9651913	-0.54347914	0.018763999	0.1749675