4
21	40	40	256
-1.5789134502410889	2.9006597995758057	1.3345921039581299	-0.11416663229465485	-0.40569478273391724	-1.1678085327148438	-2.501124143600464	0.09103935956954956	2.5442044734954834	-1.7375224828720093	-3.2497293949127197	-0.9690931439399719	3.009753704071045	-1.8593521118164062	-1.7544974088668823	-0.28836867213249207	3.2164978981018066	-0.30827850103378296	-1.9255777597427368	-1.4127637147903442	2.1427345275878906	0.8162245154380798	-2.664205312728882	-3.3834428787231445	0.25779426097869873	0.7860548496246338	2.4404869079589844	-2.7558059692382812	-0.6015745401382446	0.6067717671394348	-0.582284688949585	-0.37497392296791077	0.6153256893157959	-2.053333044052124	2.2648539543151855	-3.3395822048187256	0.9408474564552307	1.796549677848816	1.7478855848312378	2.9760329723358154
0.23510006070137024	-0.5544971227645874	-0.2101576030254364	-0.43118685483932495	0.08902573585510254	-0.3827833831310272	0.8892986178398132	0.002065771259367466	0.1372898817062378	0.172679603099823	0.2076644003391266	-0.2456735372543335	0.6954095959663391	-0.02808237634599209	0.03691165894269943	0.15232416987419128	-1.040764570236206	0.09987127035856247	0.00636947201564908	0.19310230016708374	0.18978510797023773	-1.7470624446868896	-0.32628729939460754	0.027344319969415665	0.17645323276519775	0.035714421421289444	0.5423105359077454	0.2760341763496399	0.30763471126556396	-0.044159043580293655	0.12151003628969193	-0.3924719989299774	-0.016531910747289658	-0.47090959548950195	-0.8687979578971863	-0.014612101018428802	-0.49340298771858215	0.49148648977279663	0.2252153903245926	-0.5402374863624573
0.1421971619129181	0.4136279821395874	0.4991249144077301	0.5748593211174011	0.6946574449539185	0.8320663571357727	0.8061137795448303	0.6859573125839233	0.5493930578231812	0.5657117962837219	0.524926483631134	0.5315012335777283	0.5341182947158813	0.5309520959854126	1.0639441013336182	1.2511789798736572	0.3841971755027771	0.4539877474308014	0.34257999062538147	0.15684740245342255	0.20945605635643005	0.3252408504486084	0.47018587589263916	0.7065055966377258	0.7760054469108582	0.6523779034614563	0.6232747435569763	0.6262557506561279	0.719728946685791	0.6680519580841064	1.0117803812026978	1.225803017616272	0.10818900913000107	0.3223074674606323	0.3737952411174774	0.3007405400276184	0.30935174226760864	0.5051424503326416	0.3897383511066437	0.5051963329315186	0.7656850814819336	0.42848047614097595	0.12130984663963318	-0.2980712056159973	-0.43340349197387695	-0.1577017456293106	0.4479290843009949	0.913451611995697	-0.04456409066915512	-0.061114098876714706	-0.008807291276752949	0.11085162311792374	0.1473727971315384	0.06845521926879883	-0.14745306968688965	-0.5063140392303467	-1.0338058471679688	-1.0529427528381348	-0.9681872129440308	-0.8379083871841431	-0.4596344828605652	-0.05002247542142868	0.14015093445777893	0.4276190400123596	-0.15414997935295105	0.040450502187013626	0.17109376192092896	0.18049593269824982	0.17403337359428406	0.11223350465297699	0.11709801852703094	0.16654406487941742	0.024652469903230667	-0.44151392579078674	-0.8238456845283508	-1.029247522354126	-1.080277919769287	-0.6948473453521729	-0.34437820315361023	0.26975318789482117	-0.3589477241039276	-0.27383875846862793	-0.14567697048187256	-0.18046967685222626	-0.15652288496494293	-0.12788690626621246	0.005966889671981335	0.1956537514925003	0.33615851402282715	0.3762323558330536	0.5549643635749817	0.7455259561538696	0.7800758481025696	0.882369875907898	0.8164599537849426	0.4684169888496399	-0.4467500150203705	-0.22247514128684998	0.030755992978811264	0.2769671678543091	0.33734631538391113	0.3465045690536499	0.3896588385105133	0.54683518409729	0.8768006563186646	0.7581220865249634	0.7708463072776794	0.8294652700424194	0.8721944689750671	1.092169165611267	1.177348017692566	0.6100403666496277	-0.3081546425819397	-0.2802335023880005	-0.2951653301715851	-0.2459820657968521	-0.1781795471906662	-0.06398261338472366	0.02698456309735775	0.035081107169389725	0.4789579212665558	1.181284785270691	1.3129830360412598	1.3959167003631592	1.3336251974105835	0.9937506914138794	0.4002220034599304	0.09956704080104828	-0.019538115710020065	0.05051514878869057	0.22767052054405212	0.19361992180347443	0.23315414786338806	0.1671612560749054	0.23164339363574982	0.6267325282096863	1.118895411491394	1.1705652475357056	1.2053861618041992	1.1920325756072998	1.0958607196807861	1.1302227973937988	1.0115548372268677	0.867862343788147	0.23180557787418365	0.17950372397899628	0.15109609067440033	0.05502517893910408	0.12654736638069153	0.22682708501815796	0.36704373359680176	0.6751480102539062	0.6549109816551208	0.4823455810546875	0.4471888840198517	0.4310101270675659	0.5175769329071045	0.6978664994239807	0.8586747646331787	0.7955811619758606	0.16092267632484436	0.21540533006191254	0.21167831122875214	0.26787129044532776	0.35800814628601074	0.48051854968070984	0.6751940250396729	0.8044594526290894	0.5224263668060303	0.3988003730773926	0.3829839527606964	0.42280349135398865	0.5539138913154602	0.731645941734314	0.8148745894432068	0.7576537728309631	-0.16418693959712982	0.04311631992459297	0.1352284997701645	0.20409904420375824	0.2626819312572479	0.3257582485675812	0.4384051561355591	0.6799299120903015	0.9062376618385315	1.0627108812332153	1.0991721153259277	1.042633056640625	0.9402909874916077	0.8655921220779419	0.9633506536483765	1.1130369901657104	-0.6413743495941162	-0.4300675690174103	-0.2699257433414459	-0.12940150499343872	0.012302132323384285	0.15448983013629913	0.23147998750209808	0.08853145688772202	0.656690239906311	0.8455638289451599	1.1058844327926636	1.139151930809021	0.8186614513397217	0.6611316204071045	1.0514421463012695	1.2156113386154175	-0.2103230506181717	0.027605518698692322	0.22179047763347626	0.20943213999271393	0.01593162678182125	-0.12358549237251282	-0.46827083826065063	-0.9430400133132935	-0.6873612999916077	-0.350342333316803	-0.3033415377140045	-0.36707043647766113	-0.2607153356075287	0.10207169502973557	0.23136426508426666	0.389141321182251	-1.354882836341858	-1.1811615228652954	-0.9421096444129944	-0.784942626953125	-0.5713684558868408	-0.37874460220336914	-0.215365931391716	-0.0733170360326767	0.24286313354969025	0.5550430417060852	0.4179009795188904	0.2935909628868103	0.311786949634552	0.49342161417007446	0.5347743034362793	0.4309086501598358	-1.172891616821289	-0.7724452018737793	-0.4967535734176636	-0.31389155983924866	-0.12195059657096863	-0.05508481338620186	0.08370256423950195	0.32268381118774414	0.5964841842651367	0.9088173508644104	1.0393465757369995	1.1736477613449097	1.3125275373458862	1.4266188144683838	1.2554231882095337	0.5786051154136658
0.13078037	-0.73929906	-3.2294908	-0.36013776	-0.026067084	0.64847386	-0.030364947	-0.4960187	-0.34944594	1.2654824	-0.67138875	-0.43927234	-0.16725294	1.3628044	-1.1378901	0.29724646	-1.1672086	1.1253785	1.3552302	-0.14858723	0.1457887	-0.52849865	-1.0863383	3.178559	-0.002666716	-0.082556695	0.4688455	-0.48964286	1.2544972	1.3147706	0.11982528	-0.061238263	-0.4643898	-0.99967724	0.8596551	-0.91347855	0.91717654	0.14136451	0.62172717	-0.79707736	0.12301434	-0.115493394	0.123230934	-0.44816676	0.07697759	1.8813386	-0.038057648	0.06520376	-0.012786093	-1.3581313	1.1411675	0.08613108	0.03920798	-0.09135511	0.050888732	-0.0730784	0.039959814	0.028611485	-0.111167274	-0.008546185	0.037950214	1.4403648	-1.3060278	0.80012256	-0.5025249	-0.63231605	-0.00955016	-0.8272132	-0.13854857	0.5390418	0.45523188	0.27055153	-0.80649865	0.045875788	-0.9524329	-0.29890877	0.49451098	-0.4637625	1.0322875	1.7265102	-0.6286287	-0.44027472	-0.20099837	0.09174547	-0.34224087	-0.11574197	-4.088248	1.9080449	2.0614736	-0.35399017	0.96504694	1.391187	-1.5555847	-0.28857285	-0.8016731	-0.13410681	-0.26616675	0.29033995	0.24511062	0.15376341	-0.23200132	-0.2574392	0.28386995	-0.22115386	0.14823559	0.70038396	-2.6600306	0.7681972	2.4928236	-0.7935813	-1.1246241	1.3124766	-1.2517196	-1.2415518	-1.7948227	0.9204211	1.0085356	-0.7288811	-0.27195874	-0.24559726	1.4945045	-0.31624883	0.24706604	-0.06532706	-0.48341638	-0.38354546	-0.24686067	-5.274689	-0.93492913	0.040525615	0.0005742045	-0.45801178	0.14350787	0.65848774	-0.29786828	1.196451	-0.70382965	0.5327156	-0.12534131	0.44444513	0.36719283	-0.622702	-0.16894825	0.5994749	-0.24263658	-0.096799016	-0.058296163	-0.093617275	-0.4014513	0.22436006	-0.4300269	-0.65226215	0.64295053	-0.25521508	0.33952725	-0.37375903	0.42107403	-0.31827357	0.011172515	0.47663942	-0.60983145	0.036349125	-0.08385606	-0.7359484	0.32131273	0.41993135	-0.6083157	-0.08210136	-0.9812477	3.6862214	-0.05216438	-0.59953654	1.4594574	0.7652487	0.17003867	0.9552893	0.19490619	-0.55782044	0.49924344	0.14898725	0.5025724	0.019868502	-0.7558334	-0.44247863	-0.47726914	0.31530643	-1.3723648	0.16421996	0.19559671	1.6669347	0.095683515	-0.090777226	-0.0140530355	-0.5526811	0.29479608	0.955837	-1.0275242	-0.2670926	-0.22769365	-2.165467	0.2797503	0.06656011	0.22763118	-0.21363088	-1.4618905	-0.4967819	0.3978439	0.5815635	-0.2086881	-2.794529	0.71450466	-3.0001335	-0.15323897	1.2994971	-0.769353	0.20378487	0.16684256	0.23834558	-0.4184123	-0.06626629	0.06919765	0.09993817	0.08022955	0.14144225	0.14746399	-0.52011615	0.1443622	0.008647356	-0.10465407	-0.4140151	-4.089303	-1.0543873	-0.47332978	-0.19028917	0.20756467	-0.42418647	-0.114688575	-0.005399892	1.518532	-0.46465006	-1.6258212	0.6897881	0.61824477	0.7554841	0.8773912	0.5545102	-0.901079	-0.027914938	-0.16577329	-0.9778946	-0.47178948	-0.35045764	2.0669618	-0.24782681	-1.5802795	-0.24636237	-0.2698977	1.3339252	0.58084565	0.5708305	0.6284729	-0.9316939	0.896339	-0.08142175	-0.37756324	-1.1797678	0.9050536	-1.4451118	0.86806697	0.9502427	-0.6351675	0.013767968	-0.006726946	0.5527322	-4.880849	-0.23178665	-0.22504663	0.35319102	0.69154847	-0.9906149	-0.065742426	0.05122125	-0.9313979	1.0058613	0.20595548	-2.3069203	-0.17935057	-0.2787261	0.4878459	1.5380594	-0.0077582044	-0.59754926	0.10161299	-0.27352914	0.42089275	-3.5205193	0.38898486	-0.9992531	0.6749979	-0.9296577	0.30380306	-0.27048466	-0.6787778	0.14432809	-0.436903	-0.08056881	-0.9173052	-0.5233666	-0.12258839	1.2477399	-0.036045276	-0.020227795	0.3937236	0.29147327	0.34044245	0.43526965	0.09567271	0.02214082	-0.48057374	-0.34463894	-0.19300482	0.046521477	0.17969176	-0.6386035	0.11696109	-0.37148607	0.22166301	-0.39533633	-0.22965802	0.15255369	0.13555136	0.11332557	-0.07118802	0.27114463	-0.5642382	-1.0971264	0.10071079	6.04134	0.5215557	-0.3474259	0.3827622	-1.186899	0.6955485	-1.0747392	0.7189147	0.21679205	-0.7484038	-0.23353612	-0.8585806	-0.73229074	-0.13067767	0.90904474	0.18156794	0.03357265	0.57889146	0.03458139	0.13891855	0.34065074	-0.7187461	1.1336535	0.1493864	0.9538191	-0.9172963	-0.16314675	2.3813581	0.94986564	1.3618314	-2.8063378	1.0937006	-1.1417058	0.4853181	-0.7063641	-0.44230422	-1.0486634	-2.4299293	-0.84391737	-0.37062985	0.43022943	-0.99447584	-6.008897	0.66587245	-0.15275015	1.3798118	1.4424027	0.44368488	-0.74858326	0.29480764	-0.012425876	-0.24619383	-0.8041106	0.51654243	-0.37763798	0.3022882	-0.074851304	-0.86682826	0.23497452	-0.21695626	0.21355227	-0.28808326	0.20849146	-1.3138816	-1.4904068	-4.4900355	0.6117717	0.68986464	1.4763924	-0.28985268	-0.8139829	0.013425949	0.9086004	0.93363607	1.2592238	-0.025617367	1.0033801	0.22084145	0.35000512	-0.83879524	-1.3544306	0.022137003	0.79227614	0.44348797	5.6248755	0.031399377	-1.0680797	1.4808793	-0.931737	0.05668046	-1.7109573	0.1992479	-0.025757069	-0.2847914	0.11265664	0.23159145	-0.15275824	-0.006802402	0.7201895	-0.56417215	-0.1743799	0.2528414	0.39085835	-0.7137844	0.42257634	-1.0359432	0.13449204	1.7977672	0.697957	-0.66130966	0.46196714	-1.0899884	-0.06654423	0.24014379	0.09478258	0.35161787	0.27715307	-0.118710816	0.28395852	-0.66034496	-0.38895628	0.2515986	0.156843	-0.38200253	0.24216698	1.0156943	-6.080752	-0.06791788	-0.12637135	-1.0609857	-0.8136515	1.1316018	0.14161693	-0.9445299	-0.72826964	-0.1831258	0.84783614	0.9978845	-0.7171741	0.7098362	-1.0126942	-0.20096916	0.017839827	0.8517423	0.23467475	-0.36222884	-1.048685	-0.002565269	-0.2829292	0.6813392	-0.22616774	0.3940753	-0.34388998	-1.6659011	-1.611647	-0.013207962	0.23137243	-0.015248266	0.46322572	0.27340755	0.04858489	-0.56232363	-0.097601324	-0.05139996	-0.3311231	-0.55209374	-4.827586	-0.59837455	-0.20336169	-0.67053264	0.107309975	0.4789967	-0.12357282	0.051625866	0.16440019	0.043947864	0.15384288	-0.70013726	-0.20943521	0.31987175	-0.38661838	-0.49954864	0.17692217	-0.12998098	-0.023748932	0.5048151	-0.1943843	-0.5569387	-0.17843784	0.5262635	0.41735217	-0.11992531	-1.0177897	1.318095	-0.9179658	1.1403615	0.55350107	-1.4272106	-0.893681	0.6639366	-0.012031338	0.14986181	-0.9284683	0.65753347	-0.1559432	1.0865915	0.5089611	0.012718472	0.24950178	-0.8432196	0.17642218	3.3031695	-0.19211023	1.1392254	0.44964123	1.0830203	-0.122633986	-0.3987566	-0.60076505	-0.59908974	0.13852316	-0.105107784	-1.4315225	0.33537534	0.31653115	0.5443784	-1.3339162	0.2642588	0.0832448	-0.019795591	-1.290693	-2.1912997	0.19720972	1.0803132	-0.34411684	0.10163766	0.028753178	-0.47743785	-0.20593262	0.41380242	-0.09814723	-0.38632452	-0.7164097	-0.21636151	-0.22248942	0.20328392	0.31077445	0.048300795	-0.015233775	-2.93235	-0.75281703	0.5603699	-0.1228559	-0.18124828	0.09164535	-0.12972108	0.17200528	-0.39139235	-0.4367247	-0.454119	-0.30327168	-0.22873239	0.4166745	0.120501235	0.0048935013	-0.019565001	0.15111664	-0.13005814	-0.1623709	-0.014983822	0.04633217	0.06117195	-1.11436	0.58800983	4.245461	0.12651303	-0.49995422	-0.16511168	1.6704593	-1.9497514	0.1651049	-2.3124464	-0.63067937	1.1839224	0.76452255	1.2074867	0.8342792	-0.5434523	0.37277886	0.4160399	-0.5014883	-0.003998198	-0.2970333	0.17109117	-4.069729	-0.27284816	-0.05441123	-1.1961011	-0.5271084	1.3621111	0.21173929	0.14294359	0.34680668	0.30423486	-0.3858165	-0.70498884	0.76441205	-0.61232597	0.4938252	0.45923325	0.015502649	-0.4520472	0.33735865	-0.6417801	1.0675676	-0.5277973	0.16202143	-1.282575	1.8758836	-0.09661614	0.0049208403	-1.0476086	-1.158114	0.43923143	-0.0028499255	-0.7727877	0.36604902	0.18117101	-0.13560222	-0.120162144	-0.6298415	-0.03133354	-0.24663168	0.23060752	-0.06057867	0.06054291	5.6546063	0.6461479	-0.18339299	-0.22363693	0.20606841	-0.833843	0.54883975	-0.6517295	-0.47659323	-0.6152112	-0.10040163	0.05124339	-0.92853415	0.7419251	-0.24894308	-0.5117515	0.4443276	0.27071962	0.25444213	-0.33978742	-0.22323872	0.34625286	-2.7610004	0.08346125	-0.49752906	0.66659766	0.73583657	-0.39250094	0.4154062	1.3978885	-0.70295167	-0.7648377	-1.3755653	-0.5008154	-1.8153676	2.3844135	0.7100028	-1.0523096	-0.5310042	0.2607029	-0.152667	1.9076781	3.1748693	-0.32803124	0.28076246	-0.55660635	0.37007093	1.062848	-0.82099634	-0.01673088	0.04520964	0.6439676	-0.2630931	-0.2641072	0.6049251	-0.13663164	-0.54318416	0.4856246	-0.18601151	-0.627495	-0.12737416	0.21129252	-1.3569312	-3.581272	-0.06967304	0.49607116	0.2663604	-0.8428747	-0.0016950631	0.37654543	1.7548138	-0.3900436	-0.7424394	0.6920637	-0.25928232	-0.16882214	-0.19769035	0.7037814	0.21838328	-0.2152159	0.29762468	-1.2532175	1.4972596	1.6944674	-0.14959842	-0.049248483	0.039059885	-0.9194034	0.11257378	0.5402243	-0.17790265	-0.02578115	0.22188853	-0.8544148	0.41414788	0.39075613	0.046778876	0.24273705	-1.3322313	-0.24442214	0.037511066	0.27749854	0.3119004	2.0258577	0.46232328	4.582425	-0.4039345	-0.025801213	-0.5306347	0.07904449	0.8292909	-0.46754733	0.15092675	1.2848455	-0.19845384	0.85262215	-0.9134256	0.6007935	0.510382	-1.0156022	0.16141708	-0.8966335	0.079675905	-0.10366613	0.14475268	-1.7944204	2.1560395	0.31832716	1.492824	-0.04722183	0.20173444	-0.05675387	1.1423126	-0.30821532	0.26892775	-0.02984152	-0.46195397	-0.6634835	-0.26216155	-0.04986833	0.3637238	0.104644544	0.15156347	0.118959546	-0.30910316	0.05225914	-0.25505158	-0.8774694	0.1892923	0.0031117264	-0.39626187	-0.33258528	-0.20266391	0.6750943	0.055582978	0.9799364	2.2063606	0.18379168	-0.49894083	0.103784405	0.4046368	0.14466238	0.6764247	0.33253098	0.5410751	-0.07974202	0.13101162
-0.0044036857	0.6227681	2.8340483	1.21283	0.46234894	0.98749125	0.847445	0.4968099	-0.55278486	-0.029971961	4.881817	0.018169913	0.737104	0.48908848	-0.12892158	-1.2928917	-0.49627408	1.209189	0.90160185	0.19590606	-0.7495061	1.1570361	0.17212929	4.43272	-1.0268687	0.9504529	0.3315634	8.748049	-0.9195693	-0.8260843	-0.8723094	1.1201291	-0.1670753	-0.78341997	0.8053434	1.2965481	0.029554129	-0.56446695	-3.2914007	1.6316985	0.2855645	0.034862533	1.0042377	1.0470946	-0.034481104	-0.082861364	0.16858535	1.6204123	-0.23338106	0.12534234	1.5504352	0.7997101	0.2513556	0.3466457	-0.014959305	0.21151859	-1.2994758	0.7830301	0.2416896	0.19877002	-0.22566468	0.74666524	0.39918905	0.42389178	-0.2521186	0.29357958	0.041083474	-0.73864603	-0.35893017	-0.16996685	0.42272082	0.9697261	0.107388675	-0.22422837	-0.75190926	0.63966805	-0.5206998	-0.043064762	-1.3780501	0.96976864	0.13793735	0.55879253	-1.1065353	0.73768795	-0.025918994	-0.16158353	0.16442111	1.614645	0.19015186	-0.007453331	4.5652056	1.866813	0.16042346	0.279937	-0.16542326	3.3091226	-0.68093926	0.10558758	0.06320909	0.016907748	0.3475513	0.6467264	0.88035995	-4.1681633	2.334017	-0.5965754	-0.13456582	6.515636	1.0880165	0.054911327	0.5045661	-0.25954592	-0.23608243	-0.31213433	-0.4747205	-0.040000513	-1.0909119	-0.081054956	0.8306141	0.42572632	-0.05139855	-0.32533345	0.26136872	-0.6333114	-0.15363374	0.16522044	0.22150354	-0.13732691	-0.28449702	1.0209063	0.7195367	-0.02181117	-0.5723319	0.4220119	-0.85301137	0.47710374	-0.5738021	-0.4419799	0.54967535	-0.18107176	0.09690969	-0.21385697	0.13580981	0.5181583	0.70021755	-0.67571247	0.10681813	-0.036042128	0.6465469	0.25209618	0.31819063	-0.56779265	-0.5903633	0.046396855	-0.31839854	-0.09636856	-1.778802	-0.14473619	-0.7228477	-0.7697228	0.043789085	-0.72285795	-0.40646306	0.035824675	-0.038656883	0.033384357	-0.20230569	0.82708657	0.26542118	-0.10923669	0.6106377	-0.3822806	-0.36299345	0.042133074	0.6053095	0.818349	1.2380904	-0.5751724	-0.4621988	-0.026181307	0.6818744	-1.0677243	-0.32507113	0.19909024	-0.159394	0.24826872	0.23027645	0.109340504	0.7489594	0.19378754	-0.10770209	-0.3706248	0.8852639	0.028880617	0.59861964	-0.27983412	-0.1293679	0.9140601	0.5630042	-0.62818927	-0.15150431	-0.6446786	0.57153445	0.09963527	-0.2812994	0.5004299	1.6248467	-0.25226733	-1.6679937	0.05371159	0.8787802	-0.6031576	-0.41295993	2.254481	1.7238016	-0.41259828	-3.796738	1.0757183	3.0966148	-0.33693266	-3.7254527	1.2787759	2.76222	1.0613589	-0.18376592	-0.5805185	-0.36485153	0.42291525	-0.6421865	-0.11295152	1.1658	0.8448444	-3.4408128	0.22628579	-1.5263128	1.5907028	0.02785877	-3.2851639	-1.7798603	-0.015077633	0.72487646	0.9779365	0.93291426	0.21838191	0.9132012	0.48866314	0.09463942	0.12849623	1.1555251	0.049200993	0.54577875	0.31340843	0.7502373	0.3845655	0.18653406	0.1745439	1.0699863	0.5069521	0.63136005	0.12649687	0.42340955	0.82574505	0.34864995	0.33073756	0.11177179	1.0092306	0.7315097	0.43599838	0.38496968	0.74188066	0.6174559	0.5083461	0.32412422	0.54827595	1.0731766	0.5356307	0.7466822	0.6734474	1.4330672	0.94147307	2.340171	-3.2021782	-0.13692284	0.57717836	0.42904082	0.034888536	0.12715036	0.59209085	-1.4408723	0.9034057	0.17617524	0.68430847	-2.050039	-0.02815718	-0.06920665	0.5177708	-0.88907343	-0.4624247	-1.1635243	2.0355952	0.33924308	-1.068371	0.9384864	0.5212499	0.8425807	-2.0074155	-2.6702263	0.09576038	1.0706725	0.47909164	0.08186021	0.49690455	1.1961912	2.7043316	-1.6937548	-0.344441	-0.9455154	-1.1254187	-0.9458815	-2.963548	0.1369639	0.15584454	0.15764028	0.3816724	-0.054636773	-0.46059996	-0.13649078	0.5289711	0.15950532	-0.3093409	-1.4687523	0.55163723	-0.05079356	0.29002044	1.0188768	-0.03261774	-0.19918852	0.13786978	-0.033248566	0.08875644	-0.2772996	0.164865	0.36523697	-2.0925212	0.06892098	0.047474213	-0.013821458	-0.96174634	0.5963916	-0.09923929	0.2468963	0.6558834	0.025612129	-0.13182794	-0.42816043	-0.23859969	0.7219671	-0.11042917	-0.46720973	0.22626393	-0.20749834	-1.1428242	-1.2719531	0.2693867	-0.014791806	0.6081863	0.53582895	1.3476135	-1.4612339	0.19106156	-0.123629734	0.41354603	-0.086312845	0.6891736	-0.19691259	1.3414891	-1.8612245	0.2504654	1.2863438	-0.08939045	-0.6133299	0.4176907	0.9384015	1.4978406	0.41247553	-0.49270368	-0.6278495	1.5555673	-0.0027532182	0.5024851	0.55616957	0.48844808	-1.3731676	0.755628	-0.8955857	1.6913252	-0.73757464	-1.3111806	-0.30646566	-0.74036866	0.36991832	-0.573818	0.9590533	1.3699238	-0.6870946	0.9745101	0.108625114	1.7222857	0.07084608	-0.06582997	2.0368502	2.7321875	0.28907582	6.927863	2.7700527	1.9311634	-0.11247144	0.18998592	-0.45110926	0.48948845	0.12287464	-0.1706972	9.4525795	-1.1892617	0.08368932	0.024386121	-0.2924593	3.8983102	0.16665505	-0.008331532	4.1198225	1.8956947	0.32628602	-0.010917618	-1.0670682	1.6205047	-0.44932422	0.45936733	-0.79755795	-0.22788657	-0.08518841	-0.49298304	0.1769903	0.36142474	0.27224267	0.7453685	1.8887157	-0.59651554	-1.4548731	-0.27651572	0.39138642	-0.601022	-0.32072493	1.5703672	1.5366747	-1.4471985	-2.8121035	0.84193754	2.203375	-0.13567781	-2.930119	0.76958734	2.163315	2.4242268	-0.29954746	-0.4635668	-0.13237418	1.0003612	-0.21538293	-0.049234178	1.2219048	0.34540364	-1.9297804	-0.3673133	-1.0163758	0.8361354	0.5211941	-2.5611532	-1.3160324	-0.09386736	-0.2367071	0.39925653	0.633135	0.14109023	-0.24902439	0.4084306	0.23848046	-0.47520497	-0.19817835	-0.46988213	1.1372093	0.24826272	-0.09360374	0.5669864	-0.9646739	0.654409	-0.24012573	0.24094543	-0.045299646	-0.12433315	-0.18550502	0.6695133	-0.11104508	2.1498032	0.73471695	-0.3264308	-0.51395	0.22050294	1.6936928	-0.0061170533	-0.017189924	0.74488056	0.16850768	-0.20396996	-1.1327298	-0.2991558	0.19087574	-0.31211987	-0.46862462	0.6446635	0.4163451	0.4143207	1.6921699	0.5630929	0.5673988	0.6127526	-0.00012557162	0.51473254	-0.39093006	0.17432033	3.2911892	-0.19318861	0.7518644	0.103108265	0.008245333	1.2657269	-0.6104089	-0.11878303	0.23340699	0.18991804	-0.81190896	0.29920298	0.38099658	-2.3677046	-0.18221126	0.09562852	0.15162124	0.43617943	1.6506399	0.14650156	0.030862417	0.2877674	-0.039861917	0.1902639	0.058359426	0.6167633	-0.6946413	-0.058446266	-1.2065489	0.098305464	0.61855805	-0.5574251	-1.2197566	0.13627575	-0.17476521	-0.4027027	-0.2613439	0.43453863	0.4931792	-0.249505	-0.73056	0.20871493	0.6824852	-0.5386722	1.0324153	-0.0058789453	0.63259673	0.0019186026	-0.40905967	0.308115	0.89976615	-1.5096301	-0.2886288	-1.0874176	-0.48650548	0.62100565	0.3730249	0.525902	-0.6441975	0.084005296	-0.4039765	0.6188279	0.38618213	0.3947471	-0.05695576	-0.6998642	0.24795592	0.5166799	-0.122804284	-0.13843752	-0.36678877	0.12234676	0.3017054	-0.29782802	0.5333944	0.31413516	-0.6708578	-0.533784	0.0876655	0.085049726	-0.19233802	-0.6831469	0.70348144	-1.0902071	-0.78990006	-0.33949843	0.6966099	-0.6035624	-0.55229634	-0.15224776	0.81712615	-0.12910208	-1.1799192	1.6212194	-0.02826942	0.4819039	0.05066844	0.7586011	0.25759345	0.24780749	-0.8105092	-0.9642287	0.7728758	0.24230886	1.0330359	0.47041053	0.16457655	1.2601892	1.7382202	-0.08983089	-0.10842781	-0.49580374	0.53784865	0.38671544	-0.10125476	0.6279463	2.6710105	0.035238285	-2.4156384	0.707921	0.87379014	0.20422618	-0.88814884	3.0831413	2.5109205	1.2424743	-5.723641	1.5953087	4.6980715	-0.17288876	-6.6117086	1.9371995	4.688928	1.3861341	0.24652165	-1.354435	-0.5039326	0.5636647	-1.0181009	0.14434324	2.54331	1.5626111	-5.615582	-0.15062325	-4.0550184	1.8036554	-1.3887557	-4.5238385	-3.453086	0.08567246	0.44539398	-0.17698944	-0.13393496	0.23805001	0.10281343	-0.056638084	-0.27394372	-0.010880495	0.12731838	0.1661403	0.38708076	0.45811626	0.4333658	0.04423552	0.10291978	-0.06548901	-0.14588408	0.1374997	-0.21549378	0.047934044	0.11359084	-0.13170347	-0.1680388	0.0004975687	0.9782378	-0.6528598	-0.5078822	-0.15689802	0.5600454	-0.43739074	-0.023219233	-0.3924105	0.14691499	0.22743067	-0.20345192	0.028634956	-0.008980694	-0.25723463	-0.033661284	-0.27851146	0.58388984	-0.37715256	-0.118518926	0.7521448	0.17358765	-0.06387706	0.22102788	0.82751733	0.012380268	0.28280857	0.5040241	0.6077133	0.03258909	0.2880161	0.033752184	0.4119771	-0.33524424	0.19146237	0.04375479	0.2318564	-0.28669527	0.53035605	0.7097346	0.814849	0.27688932	-0.6362628	-0.5138929	-0.13151303	0.5983939	-0.4031894	0.21517406	-0.23021719	-0.2560695	-0.18124935	0.28465778	0.59932977	-0.6151834	-0.305302	-0.22120385	-0.32778153	0.065680295	0.33399898	0.13217218	0.3155156	-0.9061388	0.777904	-0.17389655	1.4670511	-0.86288285	0.28096858	0.6640694	0.41837355	-0.7376763	0.35704058	0.098491125	0.6448724	-0.52731806	0.50511515	-0.20382057	0.29576167	-0.29075804	1.1967347	0.82562125	-0.7078257	-0.17588133	0.78890723	1.0389129	1.3772655	-2.0043356	0.33155608	0.31271672	0.7866951	0.33515722	-0.6803317	0.48800948	0.2312094	-0.23649116	-0.3190966	-0.50260675	0.52515805	-5.948359	6.7411246	1.016781	-1.6874747	-4.547484	0.16740221	-1.0174919	-0.89611626	1.8661718	-1.6982642	-0.83400375	-0.6798106	-0.8997345	-0.13116366	-0.9759124	-0.6040334	0.47941303	-0.61950046	0.558218	-3.749979	-1.0036646	2.9268277	-0.080790885	-0.89459157	-0.778828	2.9607475	5.9895234	-0.20855032	-0.7308967	5.432001	-0.08709772	-0.88736874	-1.3951789	-5.8893385	4.240615	5.934901	3.0106633	0.4348331	2.5124328	5.828517	0.98932177	-1.8406466	-0.46021518	-2.5484197	-0.4965578	2.0607564	-0.23832658	0.23321037	-0.94458985	6.2998037	0.78572017	-1.8602585	-3.9939075	0.3131011	1.8103944	2.7515788	-0.40114865	-1.6418288	0.33525428	0.26696134	1.8631736	-1.350263	1.7588372	16.20726	5.0154324	-4.8350086	-0.8476315	0.9211751	3.4457357	2.5824244	1.3593374	0.27750638	0.7655272	0.92506427	-6.697128	-6.0554743	-10.497346	1.0872246	-1.0706878	-1.740767	1.2682316	-2.6190329	-0.20930858	0.9377636	2.3932204	0.13607411	0.7624174	-0.71430874	0.13470778	-0.95323485	-0.2896968	1.342505	0.2787996	0.20258385	0.1969265	-0.034421198	-0.30700868	-0.66320026	-0.52871144	0.95339024	0.0032880548	-0.80273664	0.07609489	-0.5455286	0.123679	-1.3976631	-3.516066	-0.008973211	0.9162672	-1.259899	0.19267423	-0.054185223	0.4339723	2.9256837	-0.3365663	-0.06023207	-0.043497942	0.19741158	-0.9712134	-1.812008	0.2612731	-0.44709197	-0.68293744	0.40616274	-0.04812219	-0.022056092	-0.06629737	0.43829292	-0.04344666	-0.0024367278	0.6348313	0.16520204	0.2808484	-0.09420017	0.46301815	0.8155441	0.078628056	-0.31651947	-0.101002656	0.084788956	0.17875281	-0.48041552	-0.10129864	-0.23514229	0.017613262	-0.1595333	-0.19267683	-0.1683071	1.652479	0.11485596	0.043767285	0.553696	-0.010397372	0.38759235	-0.65143865	-0.053849287	0.009081634	0.35073134	0.15999323	-0.4313615	-0.3894092	0.5312473	1.7843735	0.6112652	0.055449102	0.3870706	0.33315757	0.1056212	-0.2258716	-0.21780574	0.24635611	-0.43503767	0.14903109	-0.2290006	-0.88016945	-0.5940624	0.083915055	0.3337379	0.63024336	-0.18485707	-0.9776188	1.3157834	-0.21605375	-0.31977317	0.11803152	-0.1658033	-0.066532135	-0.2076931	1.7415473	-0.103160776	0.25380215	0.5890035	-0.44240695	-0.14486797	0.2049607	0.3765117	0.46025246	-0.006160162	1.2218794	0.8223147	-2.763613	4.900557	0.090825	-1.0751555	-3.1312916	-0.38686275	-0.2871996	-0.30464616	0.168307	-0.60432667	0.0020218925	-0.011049571	-0.4033378	0.20991012	0.21617645	-0.20386618	1.0335268	1.3351673	1.5599134	1.2315531	-0.30676726	1.262636	-0.6536421	0.25048125	-0.33673048	2.3483007	3.8991456	0.14126226	-0.72902673	0.6316465	-0.18220443	-0.76636976	-1.1583768	-4.478982	0.6394852	-1.1694086	0.22674175	-0.15748265	0.716774	3.4788976	-0.27398193	0.85722774	-0.2775096	-0.15557492	0.099612065	0.004552219	-0.38120675	-0.1740269	0.43805423	-0.7176533	-0.41737497	-0.18101612	0.09755502	-0.34976885	-1.2151285	-0.9720732	1.9599311	-0.17611694	-1.5842544	0.028254524	1.5319115	-0.3443436	-1.3002847	-0.21011065	-0.33938423	0.7745715	0.60099936	0.41841105	0.19766831	0.0449792	-0.46567535	-0.51140827	1.7017702	-0.41282398	0.3702955	-1.4600997	1.1593393	1.0090048	0.55210483	0.46258384	0.0734343	-0.6775319	0.99839544	0.34291622	-0.4577192	-0.16646247	-0.05920215	0.7020231	-0.08987359	0.45750335	2.4700954	0.505428	-0.4375748	0.11106876	0.4120674	1.2831825	-0.2638445	0.1686836	-0.13112646	0.18632832	-0.13687837	0.25326616	0.42447567	0.044627503	0.50993854	-0.031054396	-0.21929131	-1.1400149	0.76864326	0.30689713	0.42834264	0.23041281	0.13200393	0.06196658	-0.6398619	0.09848856	-1.0139494	0.09339409	0.053409375	-0.1412686	0.35352492	0.70999527	0.36488152	1.6696123	-0.6270141	0.46509296	-0.15113889	-0.29709795	-0.28895497	-0.9700209	-0.63694465	0.12325253	1.8914384	-0.4569278	-0.6171578	-0.7814501	0.66163933	1.3867192	0.005949646	-0.8412282	-0.22922164	0.39472577	-0.14434533	-0.29230538	-0.89046186	1.2602772	-0.25235468	-0.4086667	-0.21870393	-1.534753	0.13529202	-0.08989304	-1.2010489	-0.027303789	-0.18006644	-0.6073157	3.0309048	-0.5733395	1.7543603	1.5693879	0.07343318	0.05080716	0.71069306	0.097081035	-0.083430976	-0.28212577	-0.008749721	0.32899863	0.1341688	0.49415383	0.667013	0.15617394	-0.07167991	0.15007071	0.23129642	1.5938765	-0.57212144	0.09178163	0.11434871	0.010849015	-0.06438323	-0.07206106	0.5851993	-0.63567394	0.23199642	-0.066738605	-0.22275266	-0.087648556	-0.5009729	0.009581179	0.06419547	0.535968	0.035144214	0.36706564	0.38928822	0.15932776	-1.2311212	0.040534448	-0.931232	0.088125825	0.15729974	0.19919074	-2.1014726	0.9513629	0.60986847	0.20032276	0.21452355	0.9662584	0.13846575	0.1670029	0.18235642	0.9213798	0.05147307	-0.12081889	-1.1004434	1.4789331	0.45926723	-0.16131471	0.36039507	0.069033705	0.5883802	0.05128177	0.12509978	0.67492825	0.81549746	-0.88266146	-0.46545708	0.09532405	2.1016781	-0.10424411	0.008929536	0.1870126	-0.116246134	0.45852295	0.49972758	0.6041616	-0.35466853	0.122703806	1.3940208	0.14184363	-0.037897266	-0.34495267	0.9061302	0.32282275	0.2464206	0.70307344	0.42821044	0.28658804	-0.47697073	-0.015016971	3.4623182	0.114363186	0.03556727	0.40984216	-1.3658463	1.1827674	-0.68089	0.24822511	0.32166824	0.0027241886	-0.7070606	1.2593567	0.30926383	0.7538401	0.80501026	-0.18862271	0.2505934	1.0297805	-0.7039334	0.048118122	0.4170121	-0.7407844	-0.23151524	-0.4134583	-0.43014178	0.9174758	-0.41415384	-0.43749797	0.80004483	0.4105979	-0.6798134	1.5897577	0.24849992	-0.33334625	0.05610444	-0.22993928	-0.12982364	-0.27061015	-0.21424332	-0.5245191	-0.6718034	0.0038071114	-0.059043363	-0.42424345	0.26663467	-0.3171421	0.65514946	0.37195718	0.041087348	0.31949568	-0.4666843	0.5489638	-0.22645387	-0.49433905	-0.83698034	1.2428395	1.0712463	-0.20026448	-0.63686347	0.5179175	-0.23466492	0.21213144	-1.1083341	-1.0741122	-0.27251908	-0.13031906	1.6013799	-0.3108994	0.44282475	1.4515376	0.3949969	-0.73188615	0.21360458	0.5998568	-0.08296849	0.49368894	2.2255228	-0.07772339	-1.3607415	0.17414895	0.87221265	0.11905805	-0.6843696	2.5080733	1.7388724	0.50643516	-4.172636	1.2170427	2.7581925	-0.0009255037	-3.5671933	1.1610082	3.271365	0.69047356	0.30260304	-1.1558455	-0.3600652	0.45246923	-1.3115528	-0.20262738	1.7914418	1.0149041	-2.7891686	-0.30098888	-2.2740428	0.9520457	-0.59488356	-3.400463	-2.6360767	-0.2456259	-0.031022094	0.70518947	-0.5463036	-0.0032431807	0.0014066505	0.1598583	0.13061033	0.30464432	-0.106487826	-0.18088117	-0.48626763	0.40104362	-0.29122835	0.2860559	-0.37891623	-0.20827526	-0.21162662	0.3863454	0.010328462	0.05727107	-0.4524838	0.4590309	-0.122438304	0.15823537	-0.019743545	-0.006678856	0.15337032	-0.1498573	-2.2648938	0.031686455	-0.113557704	-0.09450536	-0.15622199	-0.7116743	-0.45127165	0.39048547	0.2729221	-0.2888042	-0.12844852	0.56572264	-0.17434736	0.46895292	0.16452591	-0.19415198	-0.09474324	-0.061575778	0.34001875	-0.0357506	-0.17143172	0.13571477	0.8080861	-0.22867902	-0.6395079	0.631399	0.24786772	0.16337666	-1.0275722	0.18024006	0.4539193	0.030551426	-1.1246096	0.72006327	0.98324865	1.270985	0.15487233	-0.09557652	0.3886878	0.8558944	-0.88392025	0.09460652	0.58298576	0.77995735	-0.44190913	-0.49206614	-0.029631361	0.11860282	-0.3846053	-0.62794137	-1.2541763	0.4111638	-0.17265986	-0.28572235	0.21203533	0.170159	0.03334905	0.24498989	1.3587292	0.24347822	-1.0751944	0.4580317	0.33695254	0.23433806	-0.8311941	1.459553	1.5327493	0.35332096	-2.6738904	0.37126055	2.2237685	0.018794147	-2.3112767	0.81068045	2.1096692	0.00090691814	0.030567883	-0.7106428	-0.071639456	-0.44815335	-0.88212895	0.18360195	1.4725908	1.0936353	-2.3132339	-0.5245496	-1.4471195	0.8273404	-0.5527327	-1.7625608	-2.5783267	-0.011318723	0.18392226	0.6881879	-0.73988646	-0.39254695	0.014414757	-0.4806064	-2.4644542	-0.35300702	2.6551964	-0.36347845	-0.79534316	0.099514194	0.48088223	-2.6774194	-2.6266866	-0.27839366	5.895442	-1.3285782	-4.4403815	0.20988671	5.318731	-1.4740275	-4.0870643	-1.0547087	0.26538554	1.0655868	0.48445827	-0.6807009	0.69774616	-0.33948347	-2.2519372	-1.0676785	5.0025644	0.033734437	2.510433	-2.5986285	0.59873015	4.740301	2.807143	0.5470584	0.3686886	-0.4985355	-0.10582015	0.6556652	-0.060996007	-0.1099251	-0.44237983	1.8206213	0.2173325	-0.37220776	-0.71670574	0.55266964	0.39460823	-0.3478899	0.2343172	1.1901735	0.6579938	-0.09009428	0.56696796	1.8587762	-0.13048057	-0.21669987	-0.5084798	-1.0150383	-0.65108085	0.6419988	0.2787373	-0.3070353	-0.52562547	0.34959528	-0.5804591	0.33220413	-0.4413773	-0.5485345	0.5441365	3.6972928	0.3511609	1.1872717	0.38476014	0.21318181	0.3390408	-0.7038984	0.53269446	0.71133864	-0.013707959	0.05076982	0.2404826	0.27474222	-0.530118	0.23436256	0.34803358	0.69615304	-0.41423818	0.6878796	1.523937	0.78446037	-3.4039757	0.6763563	0.16982087	0.087911695	-1.4209911	0.21761912	0.6285544	0.32372436	0.43483257	-0.6984805	-0.39989674	-0.28225818	-0.38573748	0.31738693	0.4670901	0.64759296	-0.15066187	-0.7812165	-2.922525	1.3551706	-0.40919444	-1.3304392	-0.6475642	0.3182409
-0.41304666	-0.3960869	-0.31137142	1.0254265	0.4003575	-1.2236732	0.1300682	0.20834401	-1.9596137	1.1762	-0.34725213	-0.6390095	-0.28254226	-0.6629588	-1.2450995	1.252789	-0.60306805	0.39032245	-0.0457898	-0.08833816	0.020038037	-0.0074719763	-0.025174245	-0.11639301	0.25978366	0.15960659	-0.31538782	-0.8031621	0.16759843	-0.8712958	0.40541252	-1.0857008	0.18038265	-1.1379887	0.6702728	-0.5381658	-1.3452353	3.533016	0.075622305	-0.03610779	-0.3902241	-0.4283763	-0.43256167	0.71729684	0.37726372	-1.0523164	0.41302958	0.25369042	-2.2563531	1.7460605	-0.3311266	-0.64994216	-0.19359225	-0.57439095	-1.4629077	1.5274565	-2.0558403	0.46324986	-0.019642428	-0.014283805	0.055499755	-0.049202833	0.058609396	-0.19709545	0.33461738	0.20003645	-0.018108863	-0.6756353	0.15435661	-0.9649071	0.40864694	-1.43434	0.086254574	-1.3102996	0.44025382	-0.27542976	-1.3124195	4.033397	0.2082634	-0.034014326	-0.3504315	-0.43245476	-0.5262345	0.35131624	0.3641204	-0.9570048	0.5240957	0.27133894	-2.345286	1.9669907	-0.35694587	-0.7255929	-0.14871931	-0.5321278	-1.5191538	1.6281866	-2.6405156	0.48477206	-0.01008479	-0.00032686137	0.07566972	-0.086668365	0.09911532	-0.22789025	0.6072211	0.21899082	0.11273952	-0.6183643	0.17045842	-1.0178576	0.41227183	-1.5871961	0.046192802	-1.337982	0.31912056	-0.15182811	-1.2910428	4.124277	0.28055808	-0.028928755	-0.34834874	-0.41837507	-0.5287819	0.025957989	0.37400094	-0.89609915	0.64526576	0.29134834	-2.452607	2.1413224	-0.34247088	-0.7629353	-0.13481323	-0.5028645	-1.5424783	1.7031733	-3.1107054	0.52047396	-0.016284976	0.011902425	0.09729568	-0.12114815	0.104014896	-0.27721906	0.6276569	0.23405147	0.15988736	-0.60182995	0.19554605	-1.0368258	0.4564708	-1.5803123	0.025781684	-1.332537	0.33359125	-0.10194943	-1.2772598	4.209357	0.31731692	-0.050388183	-0.3159409	-0.40981644	-0.53784513	-0.31617397	0.35786822	-0.85799986	0.5950991	0.3464215	-2.5931196	2.3295777	-0.36875296	-0.84914905	-0.10109651	-0.45808604	-1.5403564	1.7638211	-3.5966496	0.59359396	-0.0659858	0.02928593	0.14001699	-0.15060864	0.111409	-0.41428098	0.6989705	0.27084398	0.36889905	-0.53657055	0.3037028	-1.0425992	0.45194763	-1.5841688	-0.030263143	-1.2502264	0.19811355	-0.047828242	-1.2019937	4.2674446	0.4167068	-0.10021551	-0.33573458	-0.34445658	-0.4652209	-0.9065	0.29715577	-0.8263446	0.6108217	0.37475237	-2.7860482	2.5439453	-0.3506377	-1.0294356	-0.110864155	-0.45448047	-1.5194263	1.793489	-4.0288963	0.6778888	-0.116272904	0.03870482	0.14727987	-0.16123661	0.07954501	-0.5881638	0.88005245	0.29981905	0.54127216	-0.46478042	0.47610232	-1.109815	0.48104966	-1.5013909	-0.072454534	-1.1360493	0.08670633	-0.040920965	-1.108012	4.2882485	0.5285182	-0.20318827	-0.31420544	-0.2948962	-0.3700108	-1.6318194	0.21919423	-0.8962833	0.67844796	0.4628533	-3.0448885	2.7226226	-0.34742394	-1.1328456	-0.12203106	-0.4266168	-1.4303242	1.7704606	-4.285245	0.82233775	-0.23115262	0.045506015	0.12575237	-0.11049287	0.017018227	-0.86740625	0.84771425	0.43041122	0.6678065	-0.35159424	0.9605698	-1.0569353	0.48852473	-1.3734034	-0.043477736	-1.0531114	-0.038623568	-0.106017224	-1.0231464	4.3017344	0.6806496	-0.28439012	-0.30829144	-0.20187914	-0.15247825	-2.345971	0.083269656	-1.1666272	0.72935545	0.41265395	-3.4873872	2.8247757	-0.34155378	-1.34875	-0.13955316	-0.41429007	-1.2572021	1.6656094	-4.349921	1.0407686	-0.4696126	0.028971499	-0.13574538	-0.0025270975	-0.101720236	-1.3413455	0.71071154	0.6900371	0.6669173	-0.10134545	2.092331	-0.9017548	0.45225942	-1.068761	0.15071678	-0.91544324	-0.3386176	-0.30795875	-0.86850315	4.2431555	0.9180759	-0.28159127	-0.32950175	-0.10042674	0.11121625	-2.0579948	0.12981066	-1.7856535	0.52834284	-1.1414939	-4.1239457	2.6601646	-0.31839365	-1.5794761	-0.12451675	-0.39646462	-0.9300651	1.5113194	-3.8381555	1.533297	-0.90945333	0.12598966	-1.1805423	0.040324524	-0.1525685	-1.8188624	0.449015	0.7696898	0.5012626	0.11361828	4.3128343	-0.51564294	0.29792413	-0.42839018	0.6396589	-0.8593034	-0.5385357	-0.5711166	-0.5423764	4.195281	1.2023883	-0.08995806	-0.29677927	-0.1471213	0.20685649	-1.3869994	0.44088218	-1.8655823	0.5846118	-3.401289	-4.492656	2.3721683	-0.39568344	-1.6584198	-0.055253424	-0.32790464	-0.7511985	1.4911821	-3.5100257	1.7679161	-1.0944773	0.19362551	-1.3888624	0.0071290517	-0.30542257	-1.8361624	0.6651465	-0.25998962	0.5599096	0.13300589	5.3457546	-0.09197544	0.10351731	-0.021438781	0.84887594	-0.6861282	-0.35769153	-0.6743347	-0.413784	4.37575	1.1960527	0.044650678	-0.18507624	-0.1526162	0.1553268	-1.0852801	0.6546918	-1.7950323	0.68275183	-4.2489405	-4.6043363	2.253831	-0.44327348	-1.7666298	-0.010931143	-0.33342016	-0.822002	1.5334479	-3.3484523	1.7689241	-1.0920892	0.18640949	-0.9857376	-0.02564278	-0.40429455	-1.7051101	0.69332725	-0.9851492	0.5720154	0.065161295	5.5522504	0.011876933	0.023803795	0.09319672	0.93566185	-0.54242295	-0.2766032	-0.63217956	-0.36475635	4.580504	1.0768641	0.10425695	-0.21989776	-0.24021135	0.27260965	-0.7038917	0.887455	-1.7387264	0.7578503	-4.897989	-4.728371	2.1558065	-0.4853733	-1.6154011	0.05208008	-0.2654485	-0.8538457	1.5038866	-3.0861254	1.7278335	-1.1347871	0.16311513	-0.034407303	-0.022732664	-0.6072948	-1.6287154	0.60249364	-1.9186472	0.485179	0.03309751	5.6229415	0.437393	-0.17989072	0.15617275	1.0512254	-0.51199114	-0.14645228	-0.7557198	-0.43892008	4.9411573	0.8290707	0.1680998	-0.12069769	-0.31304333	0.33949146	-0.19887546	1.1413393	-1.6855565	0.5243985	-4.782559	-4.769312	2.0846841	-0.603193	-1.5814425	0.041540094	-0.25268972	-1.0493367	1.466325	-3.0618355	1.6474924	-1.2049764	0.0509699	1.6333115	0.010665946	-0.90953356	-1.5278428	0.7504141	-2.7979653	0.25108486	0.040544063	5.5468335	0.99598575	-0.31738213	0.31620333	1.2093135	-0.49157283	0.07076262	-1.0200171	-0.5313842	5.085343	0.42074412	0.23153834	0.017396038	-0.2726212	0.33571857	0.3520649	1.4317341	-1.757723	0.5807103	-3.5270624	-4.6311817	1.9408569	-0.72644544	-1.6606008	0.055956103	-0.27446258	-1.3804157	1.345239	-2.4631517	1.4122704	-1.1848271	-0.119917236	3.3652031	-0.029641531	-0.96171486	-1.3972586	0.7096415	-2.929409	-0.14080495	-0.08960041	5.0941253	1.2635247	-0.39348617	0.37193036	1.2844045	-0.5148923	0.12782893	-1.1933913	-0.6076073	5.316956	-0.112786695	0.27841127	0.025860798	-0.37163097	0.2155853	1.4458704	1.2567203	-1.8812444	1.1597022	-1.8345041	-4.578647	1.6922534	-0.8052533	-1.6825013	0.052801136	-0.22274116	-0.8645039	1.4272996	-2.4635942	1.7591814	-1.3824023	0.042860396	1.6676315	0.034876984	-0.8067129	-1.6860799	0.98555934	-1.3380542	0.9314202	0.114442356	3.355238	1.278813	-0.088917285	0.7609048	0.5092452	-0.20056199	0.17378213	-1.0728661	-0.4193078	4.818289	0.22016133	-0.101760454	0.38142124	-0.61361593	-0.51306564	1.7472306	0.81308144	-1.559794	1.2882121	-0.21247216	-3.2497597	0.2076133	-1.2219852	-1.6887056	0.16642387	-0.35513768	0.5401869	1.4398311	-1.0105584	1.8653709	-1.6811987	0.018999862	1.3644835	0.35628867	-0.2775425	-1.6874188	1.2896094	0.2232315	1.2348294	0.33546513	1.4524946	1.6428976	0.59372145	1.3970954	0.03955396	-0.29628104	0.18062803	-0.86830163	-0.75971633	3.110057	0.26998457	-0.23039158	-0.9226842	-1.2864643	-0.8439311	0.16914093	0.37374774	-0.6375634	0.5003417	0.18167047	-0.48437896	0.011436556	-0.71888876	-1.5653259	0.043720912	-0.4209927	-0.55350286	0.7415665	0.4641838	0.12752424	-0.13995121	-0.15915996	0.035702154	-6.242111e-05	0.13654213	-0.14844054	0.27931836	0.1536968	0.061030727	-0.3328949	0.18072198	-0.6771509	0.25144634	-0.78615195	0.010101053	0.41585293	-0.014710217	-0.74962854	-0.061244275	0.103524685	0.09669748	0.044884607	-0.74642867	-1.1112765	-1.0662819	0.6227479	0.3599701	-1.1919223	0.4372159	0.05713593	-0.59686923	0.070533864	-0.759398	-1.3265734	0.103675865	-0.28324297	-0.6316065	0.8516558	1.0102785	0.101502806	-0.121819995	-0.22075279	0.0015856666	0.013307758	0.13733667	-0.23525344	0.554448	0.08555638	-0.085835926	-0.34202567	0.24470112	-0.7676338	0.2476164	-1.1721121	0.08627867	-0.02849669	-0.1642378	-0.6494895	-0.65118194	0.77094215	0.16517481	0.12473707	-0.53684825	-0.9451982	-1.097762	1.090979	0.31727216	-1.6250643	0.5147157	-0.12824583	-0.98772806	0.29502037	-0.707336	-0.74596035	0.12930582	-0.2491689	-0.7819598	0.9942973	1.3513727	0.119525924	-0.09478023	-0.22896062	-0.05822179	0.026951429	0.116512015	-0.30612436	0.42329407	-0.034511324	-0.24748069	-0.34722486	0.2477364	-0.7981387	0.21506606	-1.519679	0.1802719	-0.7352051	-0.296848	-0.4796533	-1.2517089	2.2238564	0.23268616	0.21049796	-0.5118791	-0.8048985	-0.88910496	1.2621846	0.32553312	-1.6138171	0.29044098	-0.099171385	-1.5116355	0.70510095	-0.5608239	-0.3314519	0.05748945	-0.3283828	-1.0011258	1.194244	0.7787603	0.22813356	-0.0721151	-0.15708165	-0.06435488	0.030989025	0.089987576	-0.2929273	0.3405768	-0.027121231	-0.28322372	-0.3963694	0.20334662	-0.81385744	0.24559797	-1.591423	0.20755196	-1.1891407	-0.11770898	-0.391	-1.445716	3.5237586	0.23138613	0.18639281	-0.42062026	-0.7801432	-0.91896373	1.2500226	0.31832117	-1.5503579	0.36927575	-0.105084114	-1.8298782	1.0402402	-0.54043776	-0.13356581	0.09401805	-0.27050075	-1.1351421	1.3415941	0.012873496	0.27353358	-0.069781825	-0.13968284	-0.07042234	0.041146982	0.05630264	-0.36640158	0.2821781	-0.044601522	-0.20547715	-0.33237043	0.15805574	-0.77011806	0.24073534	-1.7580081	0.17555277	-1.3907474	-0.17987134	-0.29691646	-1.4775523	4.166315	0.26565275	0.20382123	-0.3359567	-0.76204103	-0.98783475	1.2166821	0.31101006	-1.4755428	0.27690217	-0.07117255	-2.120523	1.3137661	-0.55905974	-0.000996505	0.18012738	-0.21139373	-1.2557397	1.4848287	-0.8545917	0.34234446	-0.116381444	-0.10002782	-0.047516327	0.044200886	0.10189253	-0.47023404	0.36929408	-0.030180525	0.041758306	-0.23604742	0.1763973	-0.73968625	0.16551404	-1.9966908	0.12322202	-1.4866693	-0.4602791	-0.1443723	-1.4193373	4.6716228	0.37217343	0.2472629	-0.33063325	-0.67342746	-0.888066	0.95592254	0.30122012	-1.2568532	0.52360654	0.005182736	-2.4625163	1.7432716	-0.53409547	-0.17883073	0.17300129	-0.19557707	-1.3905817	1.6326518	-2.4369152	0.47240508	-0.19776852	-0.055014875	-0.0002512378	0.022461602	0.09375631	-0.64864415	0.48850033	0.010008129	0.43461296	-0.18558154	0.14336047	-0.72423834	0.1853444	-1.9175653	-0.023718558	-1.3307364	-0.54760426	-0.111056544	-1.2597556	4.748735	0.46738687	0.14186423	-0.31049174	-0.54453164	-0.8127055	0.30628875	0.21380967	-1.049707	0.5887044	0.046625793	-2.7369266	2.06393	-0.5632846	-0.54853916	0.15837097	-0.19524248	-1.4126183	1.7213881	-3.648392	0.6498446	-0.33703452	-0.012362934	0.055414975	-0.045773458	0.07903925	-0.9390378	0.8442331	0.02165533	1.0495532	-0.06845154	0.17006764	-0.8251042	0.25305024	-1.7290077	-0.23415658	-0.98313713	-0.80610484	-0.08057881	-1.0240774	4.620889	0.6350142	-0.063979775	-0.32528606	-0.35540098	-0.5609856	-1.1595523	-0.0717056	-1.1341242	0.60940903	0.28791505	-3.3643107	2.3950922	-0.5017791	-1.0966381	0.11619539	-0.17858179	-1.2258155	1.6681261	-4.186194	1.0196857	-0.63673145	0.050741404	0.026811153	0.019584002	-0.07217718	-1.6875942	0.66877973	0.2633696	1.8727992	0.2817254	1.1112226	-0.9279809	0.32758135	-1.2612109	-0.35503307	-0.43790898	-1.3704481	-0.20350291	-0.6097809	4.589753	0.8645451	-0.4645991	-0.3506745	-0.272885	-0.32117808	-1.5062937	-0.2525509	-1.6776197	0.5841965	-0.05613661	-3.7665823	2.434957	-0.4704701	-1.2822515	0.046173543	-0.22231412	-0.9818454	1.5057418	-3.9188955	1.3647323	-0.9611868	0.0826875	-0.6212635	0.13248006	-0.16819158	-2.146865	0.5401355	0.6961652	1.8840569	0.56003064	2.9209354	-0.7384574	0.28727132	-0.8187384	-0.00067563925	-0.38448256	-1.637581	-0.45775717	-0.4096835	4.4030995	0.82852113	-0.55447984	-0.35901147	-0.22664553	-0.351734	-1.3667101	-0.19077587	-1.8960308	0.5640577	-0.73643327	-3.9277656	2.3543317	-0.4411437	-1.3775481	0.07069132	-0.22505273	-0.9396293	1.4616598	-3.7192297	1.512003	-1.0933992	0.12224364	-1.0607977	0.14458582	-0.109354995	-2.2170038	0.60064715	0.7083634	1.8595939	0.5778943	3.7500808	-0.66291404	0.2894335	-0.6678002	0.18573673	-0.34002665	-1.6926442	-0.46114093	-0.28057683	4.36713	0.7426881	-0.52830225	-0.3676741	-0.23927869	-0.21271436	-1.1673391	-0.045521982	-1.9946212	0.7479461	-1.8184309	-4.0390964	2.19906	-0.4733205	-1.3567754	0.07503642	-0.24657783	-0.91627413	1.4511143	-3.3749924	1.5273513	-1.1349461	0.11885277	-1.3119915	0.13211791	-0.16776663	-2.1656008	0.664128	0.3473678	1.7268381	0.61424625	4.465154	-0.47804758	0.15755388	-0.5065402	0.362344	-0.30635068	-1.6370333	-0.55632174	-0.25510702	4.565557	0.5748977	-0.44769058	-0.2517627	-0.23469709	-0.23601775	-0.63165677	0.25275356	-1.9996414	0.88832885	-2.9237113	-3.984747	2.0962234	-0.5690522	-1.1145418	0.09364739	-0.26482442	-1.0274246	1.3982608	-3.0627563	1.523053	-1.1902226	0.07305034	-0.59137946	0.12931402	-0.29508626	-1.945078	0.74262035	-0.6124376	1.533106	0.3792774	4.935007	-0.1697317	0.04049342	-0.45358935	0.60294694	-0.37672484	-1.3695619	-0.60477746	-0.38683975	4.8852296	0.17428268	-0.39261678	-0.17814021	-0.2147345	-0.056411814	-0.058335584	0.6720105	-2.0269988	0.85457844	-2.3873198	-3.7308345	1.987546	-0.69780767	-1.0706624	0.055888537	-0.33643997	-1.5020797	1.2560557	-2.4697826	1.2467808	-1.2157023	-0.16328944	1.6281353	0.15400858	-0.4840858	-1.7010176	0.6339574	-1.3283522	0.7045895	0.17301176	5.272423	0.33690742	-0.19741978	-0.23601623	1.0333018	-0.5722136	-1.1523775	-0.9941454	-0.6133535	5.251467	-0.57079643	-0.21274869	-0.03925921	-0.27352732	0.013561199	0.62084985	0.7604342	-2.064139	1.0519891	-0.84278524	-3.7722244	1.8173047	-0.9138293	-1.2160367	0.010536291	-0.29812667	-1.196749	1.2007786	-2.2838838	1.50504	-1.4748482	-0.15675803	1.8051893	0.21302707	-0.51296145	-1.9510591	1.1368322	-0.6031054	1.1547686	0.2629546	4.0663886	0.8518769	-0.06936012	0.33621997	0.636316	-0.4596402	-0.8604971	-1.2081071	-0.5652328	4.9011784	-0.6953289	-0.45532024	0.31639785	-0.584732	-0.5855662	1.3367834	0.622814	-1.433813	1.169978	-0.1440902	-2.8311753	0.38363272	-1.21323	-1.6298203	0.13034463	-0.3761817	0.18140079	1.2741039	-1.1967616	1.730095	-1.7290705	-0.13075227	1.9690593	0.46557438	-0.19148073	-1.9602985	1.1532717	0.42783767	1.3719263	0.4678488	2.1524372	1.4868308	0.6404196	1.1768208	0.1352568	-0.41721502	-0.37676096	-1.0260457	-0.7415162	3.2264667	-0.56903476	-0.53403425	-0.93628305	-1.4213974	-0.5812625	-0.21154708	0.3031692	-0.17963876	0.15253721	0.2916394	-0.41225463	0.028532684	-0.7282838	-1.2666732	0.019927572	-0.48659128	-0.46813568	0.44754264	-0.0028020025	0.041008297	-0.18744718	0.35769084	0.043892864	-0.012520781	-0.25181237	-0.06197793	0.21132013	0.106375724	-0.07359844	-0.38763073	0.15052953	-0.40704185	0.0023523762	-0.44732738	0.018825814	0.56897753	-0.013390275	-0.61381793	0.19216736	-0.045207564	-0.047016777	0.065777384	-0.75320584	-0.8673075	-1.0759249	-0.016632695	0.23563294	-0.5357468	0.24675694	0.072754666	-0.39251232	0.064487144	-0.5638229	-1.1682286	-0.028462216	-0.67975515	-0.4696593	0.5030166	0.16570961	-0.016874265	-0.3700568	0.1717575	-0.009786027	0.004920533	-0.2377045	-0.17874819	0.361309	-0.02597818	-0.08953299	-0.29466116	0.0956625	-0.4327358	0.1674464	-0.6266134	0.010473964	0.55881613	-0.24512838	-0.52639514	-0.123277515	0.087111816	0.043117486	0.103228316	-0.6661645	-0.46717736	-1.3352926	0.22386819	0.23598246	-0.96371835	0.41094783	-0.06384276	-0.3349848	0.0006450634	-0.46209142	-0.8520283	-0.038662575	-0.72720397	-0.45844382	0.57887834	0.42363462	-0.17179517	-0.5299543	0.11194824	-0.058275055	0.0054534837	-0.43414026	-0.30563462	0.37021348	-0.13260241	-0.2798518	-0.24644336	0.12599401	-0.47669533	0.14464729	-0.81013125	-0.008342291	0.5436925	-0.31647548	-0.26997817	-0.6023037	0.50348943	0.062570736	0.15731892	-0.5383241	-0.3409083	-1.3084507	0.34236833	0.23560834	-1.1530921	0.31394428	-0.17324184	-0.3809491	-0.11946239	-0.4879251	-0.3380177	-0.10978449	-0.6386862	-0.43320906	0.7279269	0.42201737	-0.22634247	-0.9187929	-0.13342057	-0.11148959	-0.018784024	-0.5686596	-0.43404412	0.40838405	-0.21283244	-0.22415756	-0.03391401	0.09574419	-0.56609267	0.0789995	-0.9053157	-0.17405294	0.48375642	-0.06570745	0.29620695	-0.71347094	1.2071594	0.13269575	0.073364064	-0.36212274	-0.38933122	-1.1999093	0.08960786	0.16815485	-0.5806239	0.42153186	-0.14806409	-0.28204954	-0.27682704	-0.5893332	-0.37000924	-0.19364229	-0.41681567	-0.36043867	0.7180897	0.25455663	-0.31351915	-1.2227495	-0.3684848	-0.13046901	-0.08455208	-0.8021767	-0.72018504	0.26881844	-0.31922174	0.95641965	0.21631938	0.14009559	-0.8650151	0.053666756	-0.84283	-0.776849	0.058411393	0.20811848	0.6610577	0.22905971	0.9311528	0.46431693	-0.16064513	-0.26355445	-0.27887896	-1.146909	-0.16734485	0.03687011	0.023882106	0.48716486	0.05587131	-0.29549384	-0.1471408	-0.47952715	-0.7380654	-0.32147554	-0.45600915	-0.22941735	0.5493821	0.11860123	-0.5754692	-1.0822736	-0.5944002	-0.03768204	-0.086770765	-1.1329818	-1.0219222	0.38447577	-0.5286249	2.2873294	0.37824917	0.29259902	-0.94220847	-0.06672816	-0.83219683	-1.0941502	-0.4939985	0.26800257	0.49893272	1.0671159	0.24158911	0.771792	-0.31875873	-0.1708853	-0.15187545	-1.2387137	-0.12341997	0.009520663	-0.080665216	0.2975939	0.092869125	-0.43125325	-0.19744696	-0.38318917	-0.61497396	-0.3352467	-0.45303187	-0.09587817	0.5301248	0.03745452	-0.7788021	-0.9913567	-0.8994736	-0.026034055	-0.07144182	-1.3478259	-1.3336633	0.4400217	-0.74408305	2.9524858	0.5649119	0.3848612	-0.8952057	0.01533577	-0.7324576	-0.7105763	-0.26909637	0.28770486	0.46976906	1.1431144	0.28604802	0.90787804	-0.47631028	-0.19886579	-0.4294426	-1.0098565	0.026209839	-0.030575538	-0.18308333	0.64788437	-0.29275823	-0.50090593	-0.08144051	-0.53452116	-0.5908617	-0.38882652	-0.26831576	0.06770089	0.49941015	-0.16234258	-0.5093153	-1.198294	-1.3248067	-0.33064458	-0.0060853176	-1.3893389	-1.6462549	0.4037875	-0.3414758	3.446064	0.8426457	0.42855632	-0.50482666	-0.21549466	-0.54223734	0.025737029	-0.4372094	0.41254166	0.2654416	1.3572049	-0.15850359	0.85354304	-0.6423572	-0.03057318	-0.9750269	-0.40469635	-0.7195653	-0.0011982713	0.014346126	0.6815741	-2.403774	-1.1208276	-0.059505705	-0.8678078	-1.3652225	-0.34220108	0.03335332	0.007241566	0.47048533	0.21561211	-0.26683456	-1.3661777	-1.5533847	-0.8192338	0.07078829	-1.1390463	-2.0768654	0.54286355	1.4348544	3.982342	1.2210517	-0.14036486	-0.020701187	-0.56231797	-0.18215549	0.53350806	-0.3785099	0.2773352	-0.16004898	2.1981833	-0.11271754	0.46730885	-0.85509825	0.14460175	-0.88672805	-0.12143037	-1.4722725	-0.03316469	0.068138406	0.45628715	-2.521334	-1.770351	0.045329764	-0.8159344	-2.150668	-0.41893873	-0.03268483	-0.30608246	0.23989566	0.4597057	-0.48634708	-1.2874538	-1.8027686	0.9178969	0.16122003	-0.9750904	-2.3222544	0.26982027	2.9766986	3.9310346	1.476295	-0.34243113	0.25876158	-0.6139603	-0.28847387	0.93311155	-0.15551277	0.046788678	-0.7190006	2.878132	-0.22814496	-0.09162715	-0.9814182	0.079884015	-0.62618345	-0.1978222	-1.1249264	-0.021723589	-0.2861489	0.052048806	-2.1422038	-1.786685	-0.019722007	-0.6790702	-2.131272	-0.43233213	-0.16190153	-0.4127239	0.1278705	1.0221028	-0.57779497	-1.2756014	-1.9157137	1.7579088	0.18410769	-0.792067	-2.338101	-0.0920851	3.7123039	3.4777634	1.4354844	-0.0014227808	0.23456977	-0.5895315	-0.36144122	1.251451	-0.316874	-0.09399022	-0.8113184	2.8637373	-0.13988164	-0.24043445	-0.87926644	0.07676718	-0.63487774	-0.07052375	-0.31838548	0.1359856	-0.96369433	-0.31043547	-1.975728	-1.4657006	-0.13512382	-0.85440713	-1.363879	-0.41033384	-0.06264625	-0.33925903	-0.037399292	1.7304844	-0.66358536	-1.3513724	-2.2311795	2.5994427	0.19370244	-0.9374826	-2.3899517	-0.19322404	4.409778	2.8340452	1.2479724	0.28079548	0.2924546	-0.7744473	-0.29734114	1.5353228	-0.5904751	0.017277477	-0.8039547	2.3969862	0.027817696	-0.4082217	-0.7427988	0.2666713	-1.0079769	0.1835146	0.69340616	0.2792433	-1.1604125	-0.31188706	-1.7595799	-1.1029544	-0.15554088	-1.2135725	-0.6190246	-0.48381478	0.23379263	-0.25308874	-0.08496547	1.054694	-0.73055255	-1.5446079	-2.5300796	3.6676645	0.18658167	-1.2607584	-2.3508892	-0.45421287	5.0295825	2.517801	1.2012988	0.05713723	0.5837292	-0.96403885	-0.23513453	1.4217733	-0.45774665	0.71760696	-0.70903563	2.0679696	-0.24176843	-0.6106157	-0.8132754	0.37533844	-1.5828147	0.4086055	1.0884124	0.23335974	-0.85184926	-0.13601865	-0.93432105	-1.102279	-0.09162103	-1.4449103	-0.90807176	-0.4897705	0.5122623	-0.22410773	0.1010796	0.19396897	-0.63535225	-1.6374865	-2.5427191	4.784524	0.004525337	-1.0719562	-2.2469745	0.0027980232	5.4959126	3.3182423	1.2876853	-1.8215078	0.712058	-0.9410698	-0.2585041	0.7322103	-0.0013007991	1.155467	-0.45933726	2.4446304	-0.805643	-0.64675474	-1.1944679	0.6320599	-1.8832603	0.5501759	1.5260717	-0.013235515	-0.7643318	0.5604483	-0.19365123	-1.3396313	0.19418089	-1.7910987	-0.9301136	-0.41430414	0.73121446	-0.059941743	0.042724844	0.24362183	-0.6037856	-1.6704813	-2.3997638	4.8432574	0.06480719	-0.7807621	-2.6868765	0.3811313	5.7137256	4.320817	1.3732443	-3.9219704	1.1319823	-0.6939339	-0.17116731	0.0057491586	0.01353366	0.78672904	-1.0543964	2.6731172	-0.6505614	-0.38969153	-1.475643	0.49739853	-1.3279567	-0.4232436	2.7180207	0.62604594	-0.9346913	0.7826091	-0.3583014	-0.5249757	-0.31713706	-1.2923306	-0.77262336	-0.055463415	0.30714923	-0.8811944	0.3181767	1.1363039	-1.2894561	-1.8983226	-2.3996706	3.4624147	0.016023919	-1.0176848	-1.7356235	0.84006584	3.9308617	3.1703718	0.20460826	-3.4906287	1.4679911	0.16910762	0.34724298	1.0204641	0.030661423	0.21823686	-0.3458369	1.396533	0.38276318	-0.9542943	-0.51881886	-0.017014733	0.45375732	-1.2314556	-1.2241448	-0.070979856	0.12085811	0.07049157	0.7656241	0.43075892	-0.13801171	0.10199156	0.044558376	-0.6150261	-0.8951409	-0.017508121	0.18014053	-0.33024603	-1.8597707	-0.9352761	1.0459425	-0.2707384	-0.0046319114	-4.722826	-0.9179237	-0.1565218	-0.8082998	1.2951634	0.32666403	1.1744831	-0.851592	-0.05034847	-0.54410404	0.7710733	-0.13964179	1.3129587	0.81298983	0.39295045	-0.42614335	0.34146604	-0.25901714	0.037747078	0.42713198	-0.88089114	-1.477385	0.017797085	0.07879065	-0.1590877	-0.20247304	0.28951827	-0.02253762	0.04553053	-0.05551649	-0.6958053	-0.93272215	-0.03838013	0.13371812	-0.1900793	-1.7014928	-1.0353225	1.3478633	-1.0648147	0.010517395	-5.0789294	-0.861824	-0.05377425	0.107028835	0.47684926	0.26708004	1.4534245	-0.59589326	-0.14961742	-0.3898021	1.7038676	-0.38192677	1.6687639	0.5994945	0.30477998	-0.39782193	0.30204886	-0.077526554	0.047815852	0.4478007	-0.7664643	-1.7847824	0.15242726	0.09697775	-0.117869064	-1.0175749	0.32719216	0.073785596	0.069669716	-0.08595731	-0.7784063	-0.9871285	-0.05215064	0.1680817	-0.12930894	-1.7762736	-0.9496976	1.3568462	-1.499594	0.002936287	-5.1842456	-0.6426509	0.09156791	0.6835818	-0.28570178	0.14160635	1.4825275	-0.50613576	-0.07917082	-0.3141971	2.051405	-0.5861899	2.2170875	0.53862906	0.12498534	-0.42984834	0.2196877	0.08825953	0.052316945	0.4180892	-0.82308024	-1.678858	0.17527077	0.023756804	0.029581204	-2.0869322	0.25248906	0.034988757	0.05709341	-0.081831686	-0.7406314	-0.9148215	-0.0038217392	0.16337685	-0.11247864	-1.7716198	-0.99016887	1.2844726	-1.8631827	0.0067220107	-5.1137724	-0.7602564	0.008106264	1.2654057	-0.11341748	0.22259091	1.419952	-0.4354863	-0.06850256	-0.25526297	1.9967577	-0.43333334	2.1524677	0.5366449	0.16962355	-0.4121048	0.15925726	0.04641565	0.10103591	0.39868587	-0.76628256	-1.649542	0.20019919	-0.023401717	0.17080039	-3.262718	0.11602855	-0.019864779	0.017180957	-0.09405408	-0.7033726	-0.8804976	0.02188458	0.1235519	-0.08479766	-1.7732289	-1.0267297	1.332118	-1.9799451	0.015029171	-5.125263	-0.88505703	-0.03489834	1.759005	-0.013488949	0.25261164	1.3463128	-0.30777752	-0.14240944	-0.20502214	1.9466017	-0.33039626	2.05106	0.47095668	0.2196208	-0.364796	0.21384853	0.06446624	0.084933385	0.4835678	-0.65285635	-1.5634784	0.23941745	-0.06541288	-0.07100098	-4.379226	0.0029729535	-0.06417579	0.053697143	-0.08459803	-0.733789	-0.94162625	0.07293564	0.09728455	-0.020378144	-1.7833143	-1.05449	1.3110157	-1.5478519	0.00983432	-5.0842476	-0.9282514	0.06504622	2.1595366	0.094761156	0.22730476	1.1305015	-0.25604346	-0.13741958	-0.04026609	1.8420355	-0.20462635	2.1000543	0.4204332	0.22855163	-0.31909376	0.2097276	0.030773148	0.11432357	0.4651407	-0.57348615	-1.403988	0.23847437	-0.108992286	-0.14304794	-5.052043	-0.06396543	-0.015168576	0.07459433	-0.059683822	-0.7515212	-0.9263134	0.08283846	0.04221863	-0.1310074	-1.8155754	-1.0482394	1.336685	-0.13662711	0.058911264	-5.1718154	-1.0345359	-0.27497637	2.4399483	0.12257634	0.19176833	0.9172848	-0.10977295	-0.14188877	0.023014931	1.72675	-0.16960475	2.1888156	0.31121644	0.20546965	-0.39219165	0.21154901	-0.0030550235	0.18478891	0.32851514	-0.23325458	-1.3312219	0.27456993	-0.3618521	-0.35205212	-4.5170603	-0.39874944	0.048856314	-0.0189406	-0.14540978	-0.77013683	-0.8156658	0.13804774	-0.19899741	-0.38768393	-1.8190172	-1.20114	1.3378507	2.817416	0.0077474187	-5.4895444	-1.4266022	-0.60620755	2.6066513	-0.056385886	0.31077442	0.71622735	0.59761345	-0.4442924	0.32831657	1.7335937	-0.16256112	2.1772838	-0.21095236	0.16067895	-0.7669838	0.020617854	0.058644813	0.15057804	0.30062217	0.24755363	-1.7618575	0.38251203	-0.54700005	-0.93076056	-3.2092705	-1.4664394	-0.08735148	0.03662865	-0.7636211	-0.68723994	-0.67253494	0.35694593	-0.4060029	-0.021986421	-1.787763	-1.4019217	1.2677984	5.291429	0.058464758	-5.7364473	-2.0747733	-0.8859647	2.9875991	-0.22290124	0.71969575	0.632849	1.2808758	-0.68099433	0.9480667	1.7539293	0.2810589	1.9753983	-0.7158359	0.47637862	-0.62324446	0.010168365	0.13394816	0.17525376	0.35353988	-0.018240523	-1.5832187	0.3207387	-0.62656164	-1.0320997	-2.5721424	-1.5977921	-0.26005188	0.108931996	-1.3389059	-0.5431185	-0.7344708	0.1924161	-0.18515874	0.56874096	-1.8839267	-1.2205206	1.4291257	5.4699006	0.1221216	-5.5876045	-1.7767056	-0.928673	3.3560488	-0.4905467	0.8526266	0.72588533	0.584372	-0.4681431	0.5892954	1.9430116	0.38456658	1.612102	-0.1911443	0.8573092	-0.41902107	0.23047203	0.29652554	0.16924374	0.48924127	-0.004638143	-0.78998035	0.2968216	-0.91886264	-0.9717387	-2.2209318	-1.4643178	-0.2304343	0.13802305	-0.92733294	-0.57766235	-0.79427147	0.25964785	-0.30745977	0.7412214	-1.7596587	-1.2731534	1.5413624	5.190589	0.14788504	-5.4425864	-1.6879816	-0.94894683	3.8749542	-0.59193957	0.5544224	0.85853165	0.3861303	-0.52729577	0.4466317	2.0296066	0.03755928	1.6462435	-0.10321546	0.76237285	-0.48863873	0.33223507	0.32793587	0.108398445	0.4432249	0.077711664	0.23456615	0.34807	-0.94198793	-0.7216438	-2.20465	-1.3276833	-0.2776533	0.12709221	-0.7868057	-0.6549088	-0.79711634	0.37557802	-0.33880055	0.39295453	-1.649334	-1.3362997	1.6126612	4.283244	0.12657078	-5.25886	-1.6508042	-0.7525929	4.6553903	-0.383877	0.42968452	0.7944606	0.5564347	-0.5438818	0.6604216	1.8266591	-0.026479403	1.9838598	-0.23539004	0.73874605	-0.83962125	0.34239358	0.26580593	0.1539224	0.38878405	0.08903	1.039229	0.57379407	-0.64895576	-0.46305338	-2.6373298	-1.3296947	-0.38795134	0.07591677	-0.9139271	-0.67792684	-0.819785	0.38947403	-0.21543086	0.054763276	-1.5793821	-1.3465581	1.7106376	4.165225	-0.05862035	-5.206044	-1.4562796	-0.4954539	4.395791	0.2816598	0.2957412	-0.18822122	0.76111966	-0.51113456	0.95443475	1.4025443	0.30853647	2.366185	-0.18639523	0.8167196	-0.9502264	0.24426892	0.09011775	0.17645353	0.36573344	0.0942746	1.2616347	0.4489693	-0.49267888	0.021527046	-1.4903487	-1.5460007	-0.29263878	0.060005914	-0.98838776	-0.70734435	-0.8067782	0.57667994	-0.10222192	-0.15317339	-1.4836196	-1.3413961	1.7790375	4.291171	-0.05227341	-5.2254453	-1.5804441	0.0020530564	4.572521	1.0959659	0.3946381	-2.2916818	0.770288	-0.37846193	1.0605758	0.74701864	0.607933	2.4562323	-0.118641295	0.99580073	-0.89338154	0.38127226	-0.26121694	0.22352502	0.3442457	0.07777696	1.8151828	0.32045522	-0.48024535	0.19209431	-1.3764333	-1.5220716	-0.23019825	-0.024753146	-0.9331418	-0.70934033	-0.81354296	0.64011943	0.04833724	0.022301007	-1.3966621	-1.4383572	1.81215	4.1150317	0.032728583	-4.843099	-1.6824946	0.2289553	4.5329967	1.615751	0.44147393	-3.5679045	0.75616	-0.22952652	1.1320318	0.41023615	0.8144623	2.4001539	0.016136017	1.1104318	-0.5741099	0.63474876	-0.5003638	0.5381477	0.31950095	-0.51454836	2.5252483	0.700978	-0.650861	0.476231	-1.5351473	-0.66702205	-0.25016764	-0.48982626	-0.6527636	-0.38743696	-0.63478816	-0.16491385	0.3363323	0.69998604	-1.862106	-1.62103	1.6085409	3.3223917	0.03492634	-3.3726666	-1.2523409	0.46179715	4.0546722	0.97963744	-0.08853276	-3.5116787	1.0231531	0.18255661	1.1163551	0.7918798	0.41360778	2.2622015	0.41159672	0.670015	0.034982614	0.2645689	-0.21042648	-1.4106187	-0.84330434	-0.0075318194	-0.02397958	0.0016664504	0.014844047	-0.08036463	0.019295963	-0.24155101	-0.019218035	-0.83973235	-0.27171084	-0.1760006	-0.7323141	-0.10780206	-0.083735585	-0.111256845	0.008314231	-0.06041316	-0.060038503	0.007956248	-0.008559917	-0.037924424	0.020152349	-0.17714109	-0.005344988	0.02307793	-0.19535166	0.030552845	0.02075918	-0.3819546	0.2101307	0.008803988	0.1344093	0.00370035	-0.06742472	0.016600985	-0.12162068	0.0053044423	-0.005527299	-1.1834873	-0.6939903	-0.63710403	-0.07467037	0.044915322	-0.011559192	-0.046808235	0.082496874	-0.19153987	-0.018224431	-0.5521485	-0.3195874	-0.19392325	-0.8818757	-0.14795619	0.025971746	-0.118409485	-0.015916048	-0.16928767	0.042124577	0.02830825	-0.019300414	-0.12608244	-6.336625e-05	-0.12974764	-0.0093407035	-0.011699021	-0.08550692	0.039705727	-0.13869931	-0.629353	0.10881814	0.005472094	0.29682165	-0.036492098	0.032336645	-0.005839341	-0.027248688	0.0029899506	0.008025133	-0.888613	-0.48864925	-1.1397082	-0.10184997	0.10607109	-0.23080663	0.29295725	0.09257981	-0.13287872	-0.08897296	-0.33221653	-0.1947209	-0.2206242	-0.8621118	-0.14260821	0.1089012	-0.10365297	-0.06783197	-0.5606685	0.11224344	0.047015134	-0.02959227	-0.2879684	-0.21976416	0.03701932	-0.07019372	-0.035070874	0.08403492	0.03850329	-0.34700143	-1.1001182	-0.12402602	-0.058452707	0.6233226	-0.104247235	0.26300624	-0.105456285	0.10409086	0.04181015	0.004078358	-0.66095924	0.07158637	-1.2564387	-0.15019742	0.015622777	-0.4128973	0.1479494	-0.006820371	0.039734572	-0.39116043	-0.20483848	0.05148365	-0.3357672	-0.8231131	-0.08119378	0.14794946	0.24143972	-0.24555737	-1.4710672	0.5786043	0.0051134974	0.020513996	-0.90337217	-0.79866344	0.2819687	-0.34978977	0.4495858	0.3147276	0.06082823	-0.8365291	-0.96433014	-0.3492239	-0.50723547	0.6234371	-0.22081363	0.6846066	0.11897706	0.3254925	0.30641267	-0.063809276	-0.42233464	0.43311363	-1.5076125	-0.2716408	-0.2209939	-0.23521627	0.28217077	0.26004675	0.444434	-0.32295978	-0.0950442	0.2725403	-0.5063087	-0.79151356	0.021356655	0.21785592	0.12197516	-0.95138854	-1.6091655	0.5010379	-0.019035123	0.010458671	-2.2696462	-1.1055831	0.12232679	-0.6008089	1.0533282	0.5714931	0.36142248	-1.089719	-0.16091746	-0.53475547	-1.0530436	0.07753442	0.32989565	1.0029852	0.37816647	0.03745977	0.42142358	-0.22706982	-0.21345139	0.37339878	-1.5101297	-0.30138212	-0.3613026	-0.16414388	0.14794897	0.6056316	0.46148255	-0.32665226	-0.17988425	0.18378364	-0.45278946	-0.62046593	0.13115449	0.18920483	0.061903603	-1.2782671	-1.4844673	0.53478044	0.00477139	0.041633997	-3.2224872	-1.3713237	0.15314646	-0.7342841	1.6322731	0.6712113	0.7747716	-1.2158557	-0.015621799	-0.6238192	-0.9322998	-0.06589516	0.22034222	0.9823457	0.62157017	-0.20017403	0.5067162	-0.2613957	-0.039984174	0.45696932	-1.5031742	-0.23995571	-0.44895342	-0.24009039	0.16143174	0.6324786	0.4665727	-0.30966285	-0.14101957	0.25162303	-0.47270218	-0.7000807	0.18037117	0.11726798	-0.14021176	-1.5482483	-1.3659239	0.67756927	-0.18706578	0.037595693	-3.988437	-1.511056	0.004615114	-0.6406074	2.069683	0.7127752	1.2284008	-1.1019769	0.0025301452	-0.656227	-0.5618081	-0.08871729	0.19625492	0.9175319	0.70809853	-0.4391712	0.45091543	-0.33556062	0.04955732	0.5141042	-1.4016353	-0.15565792	-0.40801203	-0.44769484	0.20046134	-0.26902634	0.28144133	-0.347992	-0.11022368	0.3487285	-0.51060605	-0.7658316	0.2808222	-0.0039784024	-0.22958495	-1.6743053	-1.3762318	0.62077373	-0.6705578	0.0045352154	-4.2635264	-1.7648494	0.080078244	-0.165521	2.5043187	0.80944717	1.4307468	-0.6616985	-0.054551773	-0.4004455	-0.14867553	0.17872912	0.25758395	0.662102	0.7658382	-0.5449444	0.20425472	-0.5023901	0.0033113325	0.58526045	-1.2032084	-0.84190226	-0.2086902	-0.54223526	-0.038147576	-2.16419	-0.29585192	-0.4477224	0.027287962	0.19148451	-0.55630094	-0.853825	0.31784487	-0.04144873	0.23720631	-1.6881915	-1.5962284	0.30491754	-0.15536764	0.096379615	-4.304495	-2.1622384	0.020734914	0.38995603	2.575129	1.2382218	0.7802675	0.15855022	-0.06675657	0.1589005	0.67605597	0.9045642	0.38435835	0.31589326	0.8337128	0.110723816	-0.2872983	-0.7580336	0.18642934	0.8249235	-1.0938207	-1.3291898	-0.13698353	-0.8281051	-0.4531982	-2.1197975	-0.39347637	-0.42863792	0.011262669	0.04037635	-0.5377876	-1.0095334	-0.053057294	-0.2005734	1.1792533	-1.7878336	-1.6565713	0.47564077	1.788602	0.21658419	-4.590256	-2.06253	-0.4952223	1.2557425	1.4977801	1.1133188	0.6445341	-0.06217969	-0.101214774	0.036152214	1.6245972	0.7450306	0.07416827	0.3262971	0.7746187	0.6023283	-0.6921677	-0.58040893	0.13551138	0.82142043	-0.829262	-0.9657814	-0.22460486	-1.1553553	-0.79748404	-1.7380303	-0.320113	-0.30293936	0.04401144	0.44086304	-0.6133966	-1.0330406	-0.043055013	-0.42719758	1.452172	-1.840833	-1.6918691	0.583516	2.7437434	0.31014124	-4.6896744	-2.2194643	-0.8410891	2.3381467	0.9881482	1.0280663	0.715861	0.20853679	-0.23180301	-0.028112844	1.7900752	0.35266855	0.13682054	-0.0050216503	0.59328693	0.65978855	-0.8622753	-0.533605	0.15188204	0.7394597	-0.6068904	-0.34157678	-0.2174479	-1.3229349	-1.0518215	-1.2042725	-0.2067304	-0.26041022	0.007745303	0.2782096	-0.66655916	-1.0178363	-0.17814012	-0.59026706	1.0081537	-1.9573017	-1.6980616	0.6738464	3.6601954	0.3564508	-4.636359	-2.305277	-1.1496571	3.770729	0.71606946	0.9338412	0.8088546	0.4579468	-0.3493641	0.14166461	1.73861	0.24664079	0.20821896	-0.34429187	0.5254245	0.0026201734	-1.0514202	-0.46713954	0.16724263	0.72976494	-0.51272076	0.29333097	-0.1043676	-1.3837556	-1.0450432	-1.1078982	-0.18563706	-0.2887826	0.015581633	0.15084898	-0.67587763	-1.0466657	-0.28055176	-0.66233176	1.1495925	-2.0859654	-1.6592596	0.65595186	4.7237415	0.19991812	-4.4077935	-2.288403	-1.2314582	4.3845396	0.7012535	0.8113123	0.12217716	0.6422623	-0.39299962	0.28360876	1.5110009	0.25829312	0.33066952	-0.48972234	0.5780951	-0.073112756	-1.3316915	-0.5149929	0.13524905	0.7961246	-0.46122622	0.43666226	-0.2034723	-1.3311821	-0.5944729	-0.03715556	-0.55883455	-0.25780758	0.052683145	0.016659781	-0.7220214	-1.0500053	-0.039835423	-0.66634	0.907043	-1.968351	-1.8239564	0.5185938	5.262173	0.21681367	-4.132046	-2.6998413	-0.8368898	4.885027	1.5481206	1.0398405	-1.9536667	0.9701251	-0.30978367	0.68446773	0.8099605	0.63176477	0.30558118	-0.66546416	0.77454615	-0.1386234	-1.2158362	-0.8667761	0.19363901	0.73801035	-0.19765618	-0.035339832	-0.36706626	-1.4572297	-0.16916049	0.13688482	-1.1706412	-0.15847133	-0.07004442	-0.4421058	-0.6770739	-0.9524445	0.17152366	-0.56973773	1.2517357	-1.7315919	-2.0624845	0.6326379	4.9240813	0.342647	-3.9474745	-3.197589	-0.35470974	4.899089	1.9512693	1.3322963	-3.1687584	1.2115474	-0.28239566	1.13081	0.5606047	0.96579677	0.08128674	-0.74385685	1.1259452	0.09821294	-0.850166	-1.0694934	0.5603701	0.22811776	-0.880996	1.7349765	0.35653082	-1.235388	0.2681783	-0.8265934	-0.49745375	-0.2661619	-0.51543	-1.0093985	-0.2518365	-0.532697	-0.7973212	-0.07495628	1.5628091	-1.9499379	-2.106351	0.7557242	3.397004	0.4181916	-2.8116362	-2.444125	0.15256208	4.0621133	1.5755246	0.66034955	-3.1690536	1.7053517	-0.16528326	1.3167826	0.98926556	0.6900294	0.45222518	-0.11749141	0.81213826	0.18920602	-1.0546356	-0.8707051	-1.403581	-0.39367124	0.03419715	-0.005540178	-0.11160552	-0.033426505	-0.46400246	-0.11187851	-0.1617444	0.0037503634	-0.9733665	-0.070347466	-0.13357943	-0.5495903	0.01566974	-0.09490588	0.0044137365	-0.167028	0.02276342	-0.036542963	-0.035893496	0.0022236	-0.04637778	0.005560441	-0.293402	-0.060280327	-0.07158636	-0.124128915	-0.023980547	0.14468108	-0.17116365	0.26484013	-0.02244725	-0.0036320225	-0.05816733	-0.20922507	-0.09654471	-0.04948252	-0.011545341	0.022427177	-1.3940496	-0.54171944	0.09174826	-0.04876388	-0.10777299	0.08477408	-0.33680695	-0.11650861	-0.17111576	-0.025555335	-0.9766939	-0.10911695	-0.14503384	-0.6059628	0.013847108	-0.1530588	-0.021103716	-0.14789	0.044428572	-0.00413611	-0.0395299	0.0050537284	-0.045785327	-0.023134924	-0.28422758	-0.059789702	-0.013878354	-0.1332552	-0.03975816	0.17044015	-0.237758	0.22473745	-0.038825832	0.026657691	-0.10301874	-0.22046582	-0.04494653	-0.067747846	0.0020206182	0.0051431363	-1.3998688	-0.6408166	0.11080412	-0.09215838	-0.082548074	0.17137076	-0.29832688	-0.094481505	-0.20071574	0.025371047	-0.95736325	-0.22056605	-0.14659648	-0.61420316	-0.029912243	-0.15604818	-0.04553714	-0.14138804	0.081089295	-0.04172548	-0.035676125	-0.0012661638	-0.027210454	-0.013360774	-0.25380245	-0.039801188	-0.056347787	-0.17365791	-0.05448545	0.17009649	-0.304644	0.2057338	-0.01985831	0.0022437908	-0.08208952	-0.16884463	-0.062313337	-0.035337556	-0.009706473	0.006571875	-1.4410467	-0.66722524	0.11421288	-0.025027279	-0.066892855	0.074236214	-0.26373887	-0.0609275	-0.2227004	-0.005112088	-0.95266384	-0.19968753	-0.14501809	-0.60432464	-0.02823767	-0.1359511	-0.029501425	-0.076129705	0.023586987	-0.06545125	-0.019508393	-0.00091524754	-0.037054725	0.007205062	-0.2212099	-0.036167912	-0.0025945592	-0.20875002	-0.0043412787	0.13154739	-0.37270376	0.26628157	-0.0036754862	0.0031576075	-0.08247154	-0.1564955	-0.041314177	-0.08002153	0.006025308	0.015760975	-1.4173429	-0.7051749	0.08957995	-0.0050038546	-0.06880946	0.03962341	-0.26147065	-0.021569164	-0.26418778	0.002666101	-0.9236459	-0.21248543	-0.14683892	-0.6254408	-0.039461892	-0.12594905	-0.070981756	-0.04740977	-0.013270723	-0.09050698	-0.004842436	-0.0023740213	-0.04341765	0.033170618	-0.12321776	-0.025850324	0.040799703	-0.21645604	0.029315565	0.107192785	-0.49897137	0.28143063	0.004726927	0.01588579	-0.10981052	-0.13580775	-0.0038567502	-0.10351437	0.017223658	0.024239006	-1.356539	-0.7086597	-0.12518802	-0.031211983	-0.07073195	0.034837812	-0.062220376	-0.018866234	-0.27425337	0.012800083	-0.87077445	-0.2164322	-0.12764008	-0.61472213	-0.043691594	-0.09788545	-0.09572778	-0.054433234	-0.033256903	-0.122143164	-0.0067349593	-0.0070297695	-0.06972643	0.044899013	-0.15167312	-0.03451723	0.035136975	-0.18186954	0.03332852	0.08016902	-0.59771365	0.27220595	0.004183011	0.009044714	-0.13749589	-0.10555364	0.026032945	-0.08981957	0.017533714	0.04287926	-1.1272506	-0.6160462	-0.6874872	-0.073602885	-0.052264128	0.015566269	-0.090122275	-0.041606512	-0.2624243	0.021518666	-0.7259363	-0.1952099	-0.10248841	-0.63034916	-0.014566852	-0.08733917	-0.119464256	-0.0783859	-0.076790005	-0.14360201	-0.025188284	-0.0109052565	-0.17615424	-0.0016294649	-0.005010001	-0.069308355	0.01158697	-0.03863758	0.027308026	0.062467862	-0.62122804	0.23670915	-0.0099591855	0.025178198	-0.1854639	-0.16343628	0.02672869	-0.10244608	0.0153689375	0.0748825	-0.9360266	-0.39061433	-1.0918199	-0.06830912	0.051683113	-0.10644786	0.17699204	-0.0682335	-0.33798414	0.011927597	-0.4671141	-0.1548793	-0.14545524	-0.7690597	0.0031299237	-0.12378702	-0.19824517	-0.100262314	-0.3181119	-0.2942449	-0.036090888	-0.03060823	-0.22701328	-0.11774434	0.17222525	-0.08554763	-0.0639446	0.037012957	0.050609123	0.068265006	-0.82105994	0.22923483	0.013838826	0.2407575	-0.26112747	-0.26803818	-0.087964036	-0.098096095	0.011383059	0.11680581	-0.63805944	-0.8666587	-0.8855179	0.14732237	0.38308257	-0.70919824	0.44391292	-0.06609119	-0.21894673	-0.38597932	-1.0896137	0.21941128	0.012873436	-0.068794444	0.13069375	0.101661965	0.00019313561	0.028901761	-1.0210087	-0.7887139	-0.031833306	-0.11272949	-0.15043813	-0.4033982	0.29559633	-0.01071712	-0.19382879	0.08695807	0.17478488	0.056070495	-1.2469083	0.17421067	-0.0072873756	0.71011746	0.04665225	0.07309039	-0.32945216	-0.011254237	0.023991756	0.1157773	-0.17180729	-1.6375415	-0.55646104	0.31893334	0.43904632	-1.0179596	0.44649053	-0.20986106	-0.3403425	-0.8096366	-1.535943	0.28524303	0.04903967	0.48657826	0.1636836	0.14007351	0.4239251	0.39487463	-1.7557925	-0.86473763	-0.07847557	-0.2653817	0.09744928	-0.6727573	0.4566058	0.04484596	0.14515992	0.21240883	0.19923316	-0.009615594	-0.98953724	0.08937731	-0.26110873	0.34461597	0.29188702	0.38242507	0.04946655	-0.15936863	0.20822951	0.031832077	-0.07015133	-1.8482726	-0.4875083	0.20158517	0.36322877	-0.7881409	0.5135867	-0.26059482	-0.61001426	-0.6536779	-1.5874314	0.1556998	0.04762613	0.6635126	0.12129602	0.008111688	0.42098558	0.6086151	-2.0106637	-0.7570435	-0.113174945	-0.36382097	0.08253177	-0.8692084	0.5442881	0.06516641	0.46678513	0.32135397	0.17901862	0.16327092	-0.80454105	-0.020207766	-0.46188688	-0.2824694	0.22512634	0.13271938	0.5958768	-0.27000457	0.29703325	0.015040781	0.060123183	-1.8728995	-0.49973738	-0.38735718	0.18720122	0.0003504979	0.73677665	-0.18594153	-0.998683	-0.008801759	-1.6145629	-0.2815563	0.0117618805	0.66224587	-0.10171017	0.047893554	0.0045351195	0.87248135	-2.0098712	-0.54053724	-0.15789992	-0.50808436	-0.124742985	-1.0814395	0.6687301	0.09943805	1.1274998	0.41302612	0.112108245	0.52514267	-0.9180688	-0.47842982	-0.81684023	-1.181847	-0.0707222	-0.39936242	1.9375513	-0.2695851	0.39371365	0.03425629	0.00022967969	-1.8504335	-0.49397162	-0.53891784	0.10840902	0.30016032	0.87352794	-0.1286618	-1.206824	0.36853847	-1.6189665	-0.4755461	-0.0016327648	0.7476868	-0.0060734944	0.044327408	-0.058881722	0.97944736	-2.0634534	-0.4835546	-0.16968732	-0.67413646	-0.38835916	-1.3770707	0.79762423	0.14991286	1.514334	0.5927099	0.16316584	0.9593717	-0.8355655	-0.55487126	-1.1112015	-1.8632774	-0.09092303	-1.0523648	2.5480878	-0.47848925	0.42864844	0.040366814	-0.07842836	-1.7625127	-0.623546	-0.7850556	0.020685859	0.80239725	0.9536137	0.046857227	-1.2457049	0.69867176	-1.7307566	-0.9339492	0.063207515	0.7880349	0.17186691	0.19965923	-0.18244134	0.9937951	-1.7975855	-0.40535697	-0.1482154	-0.8153091	-0.7581241	-1.6352627	0.7944809	0.24105465	2.0906942	0.7596774	0.29238802	1.4075879	-0.93210024	-0.68965536	-1.4740903	-2.3618019	-0.2434485	-1.8918417	3.3366027	-0.8817443	0.4888657	0.08826292	-0.08063617	-1.5915961	-0.7850844	-0.4393973	0.0029113586	0.592517	0.91077656	0.038419843	-1.0373601	0.4854901	-1.803591	-1.1505278	0.1822232	0.7295835	0.43083948	0.22907428	0.29524913	0.600286	-1.5355476	-0.5742545	-0.16298378	-0.9144089	-0.75776464	-1.820812	0.6923326	0.34505403	2.3312306	0.81574744	0.5909793	1.6316391	-0.6852794	-0.52493155	-1.6874667	-2.2507732	-0.5236249	-2.379675	3.0635483	-1.1847348	0.60666347	0.21286348	-0.042513885	-1.326723	-0.958962	0.1876957	0.29407302	-0.3011325	0.5770568	-0.031290933	-0.9764762	-0.11788547	-1.3790714	-0.9813308	0.2115844	0.5724825	0.112913616	0.3261243	0.6399046	-0.25016063	-1.7059842	-1.1372557	0.012855894	-1.1162093	0.17423193	-1.5704044	0.5028063	0.024687398	1.5497507	0.436334	0.64055884	1.7044275	-0.16756469	-0.07621733	-0.96946055	-0.3962316	-0.66495097	-1.9731313	1.5267142	-0.21282552	0.51378864	0.5086788	-1.2342284	-0.26028058	-0.01684377	-0.04750194	-0.18168253	-0.08034459	-0.47413296	-0.09661985	-0.123466514	-0.013477065	-0.9322188	-0.08358918	-0.13756204	-0.45634305	-0.024340367	-0.07746246	0.043712266	0.016077682	-0.030592727	0.068325855	-0.014759253	0.0010276255	-0.10042519	-0.26718476	-0.3360177	-0.10694987	0.11756407	-0.019737076	-0.06715793	-0.11497205	-0.3226382	0.26249897	-0.07879396	0.029836727	-0.24437097	-0.12224008	0.039311003	-0.10388144	0.062260266	-0.028945852	-1.4196262	-0.0022703328	-0.071710505	-0.13504714	-0.41027507	-0.18527015	-0.21039636	0.039698146	-0.25032064	-0.0027951137	-0.8082924	-0.23463503	-0.1292789	-0.20648852	-0.024849106	-0.0031855963	0.07031432	0.10678906	-0.15432186	-0.092193425	0.010868439	-0.0062283985	-0.12570189	-0.78213894	-0.17035311	-0.041570403	0.20414679	0.0013336907	-0.009738104	-0.59474546	-0.4949292	0.5524813	-0.16334443	0.15690145	-0.59641623	-0.18205152	0.21357651	-0.1307789	0.11774744	-0.07846189	-1.4966615	0.21102457	-0.08291415	-0.275735	-0.8334777	-0.3076149	-0.10473514	0.3636024	-0.26650617	0.05160482	-0.6240402	-0.36346704	-0.24661449	-0.039017405	-0.30681252	0.19530848	0.03329406	0.13429666	-0.24601988	-0.2313886	0.041063696	-0.037560426	-0.07118691	-1.5051692	0.08686048	0.21920747	0.11669594	0.09424438	0.16687505	-0.9744788	-0.3863633	0.82379633	-0.2625125	0.19209225	-0.9314338	-0.40466687	0.30250508	-0.2598484	0.23862237	-0.115498886	-1.4758528	0.31953	-0.0075307107	-0.51653546	-1.1354699	-0.35102332	0.13867876	0.8048501	-0.2352104	0.16535915	-0.43656054	-0.5369236	-0.41369784	0.103629194	-0.9061375	0.49002364	-0.25635594	0.0037893548	-0.1980491	-0.47081327	0.013940639	-0.087917715	0.029194959	-2.000165	0.23911162	0.66844124	-0.30317968	0.024261475	0.54153436	-1.033953	-0.3145994	0.9525684	-0.2584224	0.17352228	-0.94098145	-0.66195095	0.24168701	-0.44993803	0.247957	-0.057023488	-1.477523	0.34868664	0.024113718	-0.51667494	-1.3098998	-0.3608675	0.30348307	0.9956042	-0.21551484	0.2640128	-0.2783713	-0.7199475	-0.5503591	0.20754094	-1.3644865	0.71929574	-0.46109563	-0.074477	-0.13389082	-0.5865291	-0.14490539	-0.12555735	0.117146805	-2.3355591	0.26981544	1.0740823	-0.5863808	-0.029585352	1.0685225	-0.9583336	-0.2941793	1.0111411	-0.24526633	0.15891495	-0.81257904	-0.8579697	0.25388634	-0.6050636	0.19768342	-0.040937997	-1.3836389	0.2817536	-0.004184837	-0.4341528	-1.4188229	-0.36180627	0.38846368	0.94996536	-0.19090867	0.2888895	-0.1915328	-0.8983865	-0.6350287	0.19485058	-1.7980148	0.9494896	-0.58029914	-0.22680137	-0.003060053	-0.64709574	-0.35950842	-0.13096309	0.15332471	-2.516838	0.3486736	1.34187	-0.88891864	-0.020282026	1.7028557	-0.75269365	-0.34456348	1.0186402	-0.149442	0.2652199	-0.76563436	-1.0219941	0.14311866	-0.6885616	0.1249975	0.033098422	-1.1788685	0.05204437	-0.2713465	-0.051039077	-1.4890565	-0.24963877	0.27488023	0.35426098	-0.22002734	0.3440215	-0.12752703	-1.0895007	-0.6649176	0.13623598	-2.1527874	1.206743	-0.60562086	-0.21905144	0.06296317	-0.51052666	-0.68029344	-0.13147238	0.15670477	-2.560931	0.39685205	1.3056322	-1.0088898	0.09608208	2.3458614	-0.46720904	-0.3760867	0.9915376	-0.03989328	0.178234	-0.7316133	-1.0811294	0.28633657	-0.58810925	0.041654468	0.11961887	-1.0562855	0.07125727	-0.6058306	0.7100262	-1.4308522	-0.07966573	0.5679073	-1.0617324	-0.29401305	0.22930123	0.1314037	-1.2024635	-0.75417745	-0.21365505	-2.440698	1.3978269	-0.45957178	-0.22983663	0.0007932724	-0.4641127	-0.7814275	-0.17036954	0.07896401	-2.3894324	0.50544393	0.5448615	-1.0646247	0.16050795	2.7029848	-0.15606162	-0.43744197	1.0328363	0.097338334	0.279267	-0.6685565	-1.0866734	0.33760574	-0.2956952	-0.08273305	0.20831144	-1.1360052	0.15712619	-0.94561577	1.6501461	-0.9648997	0.25087065	0.84735996	-2.114491	-0.18856175	0.030094627	0.03766106	-1.0801047	-0.76799023	-0.31213415	-2.8552265	1.671379	-0.14732255	-0.36807525	-0.21743676	-0.92687076	1.2244582	-0.25449035	-0.3747773	-1.9634625	0.9887031	-1.5365862	-1.327399	0.067100756	2.0452278	0.15194046	-0.68213814	1.0435551	0.30110884	0.7356376	-0.24278103	-0.94572306	0.08990779	0.610684	-0.5316842	0.22503412	-0.7901599	-0.93611634	-0.94870526	2.489953	-0.57121766	0.30207562	0.7473412	-1.1075692	-0.067263916	-0.103011824	-0.70438427	-1.059214	-0.5246972	0.42075354	-3.124442	2.013023	-0.4382535	-0.37553045	-0.26918462	-1.2941339	3.259715	-0.3038908	-0.66104776	-1.6140407	0.7972201	-2.2577412	-1.4842244	0.12717523	1.606589	0.4824928	-0.77769035	0.8172599	0.41321778	0.9948902	0.4759229	-0.568086	-0.17870796	0.68455243	-0.90946925	0.16318873	-0.66437644	-1.390848	-0.9858201	2.7095823	-0.5161702	0.34401816	0.74492747	-0.89526224	-0.18834008	-0.12481462	-0.75361335	-1.0712084	-0.48169172	0.58909863	-3.1978996	2.0564334	-0.64242977	-0.32370722	-0.3325683	-1.297494	3.684109	-0.32854727	-0.6514828	-1.5334784	0.9435223	-2.425149	-1.4010644	0.22044207	1.2959119	0.5827677	-0.72199035	0.68502164	0.37366644	1.0859741	0.624634	-0.45934263	-0.16860394	0.69343716	-0.92764676	0.11717513	-0.40545937	-2.203781	-1.0765196	2.9473362	-0.62723696	0.4402474	0.86452556	-0.79937404	-0.14035735	-0.07971684	-0.8990657	-1.2827988	-0.37567395	0.7847913	-3.3168519	2.2235174	-0.83403933	-0.2729351	-0.3182931	-1.1948487	3.9498847	-0.30489054	-0.59356165	-1.3723755	0.9590558	-2.5773604	-1.1251736	0.42428252	0.9372147	0.59944344	-0.56353915	0.36629376	0.25450075	1.0387549	0.60581267	-0.07211235	-0.10879434	0.5699274	-0.8384832	0.061938398	0.19079036	-2.6885667	-1.2531142	2.832756	-0.72782165	0.925889	1.1237462	-0.58876836	-0.42087233	0.09405119	-1.0135185	-1.8317857	-0.32858044	0.6059218	-3.5722864	2.3070657	-1.3084924	-0.18689358	-0.31299266	-1.0805073	4.1590943	-0.31595674	-0.5080424	-1.177822	1.0823004	-2.6176794	-0.63035554	0.57706803	0.7008086	0.64656717	-0.43424273	-0.18345505	0.11988755	1.0694745	0.24726403	-0.0706762	0.53239787	0.45641235	-0.71677756	0.079539716	0.3693247	-2.6278973	-1.33484	2.4918032	-0.6098645	1.3254906	1.228302	-0.3580149	-0.94305307	0.27145344	-0.989204	-2.2564301	-0.2956525	0.63051474	-3.7116077	2.3046892	-1.8389037	-0.12895767	-0.25200072	-0.93785965	4.306684	-0.40842745	-0.62082344	-1.344448	1.1859266	-2.548733	-0.07309992	0.73212266	0.6571169	0.9279045	-0.38859078	-0.66591287	-0.16343111	1.2443594	-0.039115064	-0.94427603	1.4551622	0.29033884	-0.63472813	0.12691319	0.5497941	-1.8970922	-1.3585355	2.8626845	-0.3314873	0.9469494	1.1584767	-0.14968035	-1.2656571	-0.017831499	-1.3169324	-2.2500753	-0.20199677	0.6466659	-3.3627205	2.009894	-1.506155	-0.2940046	-0.45023263	-1.0892969	4.45237	-0.46982163	-0.6893282	-1.7836374	1.0998394	-2.3083856	0.21730301	0.85565346	1.0740218	1.2487737	-0.07771607	-0.75789964	-0.30848894	1.6790192	-0.4509468	-2.0585806	1.189591	-0.09272634	-0.50891286	0.2512267	0.17037895	-1.3225015	-1.0498229	3.0905974	-0.19804654	-0.09795939	0.48460388	-0.7188077	-1.5337312	-0.8315714	-0.8513085	-1.1481746	-0.14999636	0.14538555	-2.7320638	1.5537381	0.16053885	0.07447981	-1.2344018	-0.9176283	3.6965957	-0.40963814	0.18955779	-2.1299708	0.51144135	-0.24552983	-0.10819707	0.57831717	1.3546449	1.6364273	0.26895818	-0.122476704	-0.320426	1.0036297	-1.0186411	-2.040192	0.62324363	0.20002286	-0.7505337	0.58448	-1.2562736	0.033421624	0.09853582	-0.16294877	-0.16289957	-0.03264439	-0.36122477	-0.16432445	-0.2483073	-0.05491959	-0.8904127	-0.09313099	-0.089834735	-0.28817764	-0.008189444	-0.12918907	-0.12115839	-0.35872006	0.03923891	-0.23688461	-0.0644621	-0.028866796	-0.08796282	-0.052521493	-0.40618283	-0.073309764	-0.15311776	-0.27515212	-0.06465429	0.08901336	-0.21386458	0.28375116	-0.07678472	0.12131485	-0.19675294	-0.2665127	-0.11299081	-0.12523253	-0.015732275	0.0506636	-1.1926436	-0.0060431296	-0.0754694	-0.16508727	-0.23313788	-0.10663284	-0.36798495	-0.15825927	-0.23573598	-0.06468847	-0.885432	-0.048377562	-0.07112863	-0.29038778	0.0039835637	-0.074141525	-0.09521305	-0.36988592	0.03294256	-0.19704925	-0.055168122	-0.03308931	-0.10137734	-0.07255344	-0.39291447	-0.08231814	-0.13841178	-0.20922592	-0.06696953	0.081745744	-0.181691	0.29745716	-0.10115287	0.12860225	-0.20433441	-0.29446563	-0.08436462	-0.11686396	0.0016523623	0.039366435	-1.1152768	-0.057669945	-0.21456027	-0.17549211	-0.28159994	-0.10055429	-0.38632786	-0.13253468	-0.23326924	-0.0589038	-0.85744303	-0.043362357	-0.0678432	-0.31678957	0.019686468	-0.051925633	-0.060278527	-0.35529554	0.035793837	-0.17186902	-0.040077362	-0.0336312	-0.12229672	-0.10239746	-0.29971364	-0.0867305	-0.12708129	-0.16227211	-0.072722346	0.073241465	-0.21218617	0.30131236	-0.10387045	0.10177148	-0.23849525	-0.29366168	-0.07346599	-0.09123219	0.017517438	0.037501	-1.05794	-0.087716326	-0.3112881	-0.20869322	-0.31483838	-0.10257226	-0.20923641	-0.10485802	-0.2610069	-0.058830414	-0.8335611	-0.06168759	-0.04318527	-0.279602	0.02139999	-0.033552244	-0.07207728	-0.3539927	0.0024882217	-0.20766352	-0.021109624	-0.032172054	-0.13712402	-0.16018246	-0.41057706	-0.08892404	-0.14783116	-0.1706698	-0.06682262	0.03707054	-0.20056397	0.32245725	-0.09992415	0.119373515	-0.29544806	-0.2898821	-0.06632723	-0.07993507	0.028476164	0.05193441	-0.97277814	-0.22465728	-0.456822	-0.24180615	-0.38277444	-0.11852809	-0.25258154	-0.043663803	-0.2504591	-0.03834752	-0.88745016	-0.08524671	-0.012296735	-0.21585472	0.03923997	0.017200382	-0.059043385	-0.34708118	-0.009843899	-0.22185157	0.0049329596	-0.027644616	-0.16783015	-0.25527474	-0.245655	-0.07990763	-0.18069144	-0.12422219	-0.06053604	0.012690015	-0.16125274	0.28188258	-0.10149114	0.12114259	-0.34471235	-0.26316625	-0.058050483	-0.07179483	0.042222917	0.06128652	-0.8057098	-0.30401918	-0.67159724	-0.26546627	-0.5194909	-0.111053266	-0.18677922	0.022171017	-0.30974635	0.035153616	-0.8255216	-0.17380747	-0.020482115	-0.2554537	0.07377978	0.029017432	-0.09122051	-0.35899988	-0.05610231	-0.30972576	0.035393566	-0.0025631378	-0.22040677	-0.3950349	-0.054115027	-0.07446306	-0.21719362	-0.057520032	-0.02716656	-0.018581493	-0.092243284	0.26072863	-0.100695565	0.12410842	-0.48825827	-0.3016557	-0.042802375	-0.07697493	0.080302484	0.08352619	-0.7302716	-0.35216004	-0.9091395	-0.17564228	-0.68233925	-0.15310127	-0.0074041905	0.17437588	-0.31804925	0.111018136	-0.69575256	-0.3269964	-0.03561782	-0.35293937	0.1289331	0.10225356	-0.10384001	-0.36233878	-0.17448807	-0.47627062	0.07499072	0.04674644	-0.28015047	-0.61126125	0.049703315	-0.005275614	-0.30061617	0.022564251	0.15190674	-0.08879678	-0.010315995	0.25322324	-0.051367708	0.19323224	-0.7163169	-0.33454505	-0.06471293	-0.10347429	0.13168718	0.14034519	-0.55219334	-0.8834352	-1.0776566	0.26072624	-0.816364	-0.2771044	-0.12546705	0.45078	-0.23401256	0.07440786	-0.78627414	-0.5911463	0.03131737	-0.24558243	0.19881365	0.4298053	0.036995042	-0.24304977	-0.35814863	-0.66504484	0.056630533	0.07431003	-0.20715816	-0.81599975	0.06498256	0.28169325	-0.45301294	0.13861653	0.6552949	-0.21879676	0.042786583	0.1160298	0.091806	0.25852853	-0.7960728	-0.14171709	-0.019878339	-0.026233692	0.12272873	0.20927349	0.014259285	-1.448799	-1.2309363	0.8333134	-0.7993671	0.044671502	0.5953462	-0.14262095	-0.77404225	0.28438082	-1.0095717	-1.6988744	0.113828175	0.1083279	0.20266983	0.68306816	-0.6044739	0.02136073	-0.49719194	-0.6362403	-0.27855396	0.0071052695	-0.115895115	-1.1321483	0.3045632	0.3199738	-0.24624777	0.32611212	1.1540159	-0.27058434	0.14389473	-0.46564892	0.019163352	0.33654281	-0.7865679	-0.47326177	0.8007231	-0.33594468	-0.076323286	0.21161027	0.10208368	-1.4332398	-1.2057548	1.2012239	-0.6761085	0.45147333	1.2855637	-1.3952571	-1.134482	0.51847064	-1.3191463	-2.515437	0.16488518	0.33456454	0.5308882	0.7589734	-1.2786626	0.13704473	-0.55381763	-0.6028859	-0.26472554	-0.017489742	-0.4330049	-1.3149567	1.1967609	-0.49582714	0.270613	0.5253444	1.0531282	0.30630547	-0.14161345	-0.8204482	-0.19551094	0.5758693	-0.6587983	-1.2673577	1.3277588	-0.9726245	-0.31987786	0.0914311	0.116683155	-1.4554799	-1.1445123	1.3360548	-0.6666506	0.5009587	1.3084793	-1.7404408	-1.1457049	0.48402575	-1.4618686	-2.6788366	0.1824837	0.31238195	0.73657036	0.8651917	-1.164734	0.12067877	-0.4821115	-0.58273536	-0.0716772	0.020575542	-0.592672	-1.2510827	1.3660749	-0.86643237	0.45500988	0.6017914	0.99890125	0.5864011	-0.2745768	-0.8624317	-0.22946902	0.6519546	-0.5848042	-1.4991367	1.19163	-1.1020685	-0.3820913	0.037383135	0.17499018	-1.5065978	-1.1829525	1.5346286	-0.69806564	0.26553944	1.567912	-2.0868392	-1.1461394	0.40506113	-1.4785864	-2.911445	0.19729769	0.2860853	0.92235655	0.94321173	-0.6676271	0.05271267	-0.34730974	-0.5688539	0.18969342	0.14548267	-0.65656763	-1.1559979	1.3283379	-1.2415189	0.5143333	0.6863765	0.9607529	0.53717583	-0.2993963	-0.84075814	-0.20175788	0.6326834	-0.5582126	-1.5057862	0.76454383	-1.1342671	-0.47743595	-0.054924507	0.24163608	-1.3168153	-1.3359985	1.8862433	-0.75804645	-0.1358722	1.4611971	-2.2517264	-1.1711692	0.31427675	-1.4241196	-3.1443295	0.19617108	0.14180852	0.9903075	1.0304912	0.12382101	0.21153896	-0.30517504	-0.41634458	0.5669224	0.34724402	-0.48873812	-0.9882159	1.2007917	-1.5533237	0.64171284	0.5354647	1.0943867	0.02632388	-0.10053917	-1.0303242	-0.07116201	0.3799911	-0.6278515	-1.1189884	0.42796278	-0.9497997	-0.47841108	-0.1449925	0.26574975	-1.2726185	-1.0069475	3.2473052	-0.7470241	-1.2456363	1.1755228	-2.7492356	-1.7412658	0.5711284	-1.3217006	-2.211396	0.18565191	0.12580645	1.1343904	0.85110456	1.2010263	0.38872218	-0.50616944	-0.4133357	1.0086291	0.60462564	-0.54087216	-1.4950298	0.875506	-1.8908124	0.56210756	0.6099068	1.4465032	0.48920828	-0.2510816	-0.61670756	0.12124421	-0.6471111	-0.8916723	-1.3526188	-0.8171912	0.5492309	-0.51091343	-0.014301818	0.27554694	-1.113799	-0.5371521	4.341034	-0.1787774	-1.7922693	0.40445346	-2.6513617	-3.0808299	0.6322093	-1.1797937	-1.4131924	0.38793075	0.18870412	0.7252465	0.82086194	0.6362331	0.4750055	-0.8476382	-0.42074704	2.1935883	0.54315877	-0.42636198	-1.7574608	0.53033334	-2.2751586	0.1956186	0.49969015	1.8704592	1.2785356	-0.68686855	-0.056080885	0.38479248	-1.2772292	-1.1429545	-1.5890584	-1.1899384	2.4997327	-0.6747595	0.5783438	0.28444564	-0.7035626	-0.82637614	3.650112	0.3375734	-1.6232902	0.079339705	-1.8166884	-2.9877484	-0.094801724	-1.0466554	-1.714834	0.19075035	0.09545171	-0.06364432	0.9321923	-0.22782886	0.4200826	-1.0735716	-0.50248563	2.8475947	0.53415626	0.07425952	-1.5250881	0.1916889	-0.09833776	-0.4011739	0.4420707	1.7104442	1.4228671	-0.26657426	0.09675811	0.11594022	-0.84582925	-0.73301303	-1.7459285	-0.76301646	2.0603027	-1.329405	0.70295846	-0.84991246	-0.20223957	-0.3934726	0.0069089322	-0.7415816	-1.1424989	-0.15696308	-0.19010463	-0.5429321	-0.16831926	-0.94489706	0.20935737	-0.0991978	-0.27092052	0.054016605	0.19240011	-0.34052756	-0.59857464	-0.2856279	-0.29788756	-0.025440317	-0.056680683	0.14782542	0.389199	-0.07035134	-0.0801723	0.035246123	-0.23294258	0.11409781	0.3131164	-0.15997805	0.43428317	-0.17132609	0.38102365	0.010873844	-0.5427839	0.24569945	-0.5962195	0.025947005	0.04413342	-0.4863066	-0.56478953	-0.7681991	-0.06256583	-0.5301291	-0.76505893	0.14921698	-0.2511173	-0.42794222	-0.08749953	-0.8411383	0.022068743	-0.45104977	0.017732644	-0.010998392	0.21071778	-0.11409307	-0.4304548	-0.39945653	-0.22514759	-0.06877807	-0.025106033	-0.0013470716	0.06265775	0.008007336	-0.16207524	0.14651988	-0.569724	0.0426148	0.49719778	-0.28155115	0.24164258	-0.13323201	0.3139012	-0.5442008	-0.44026983	0.15695477	-0.21075371	0.10732567	0.1405629	-0.28511617	-0.68861014	-0.9401503	0.21330766	-0.45650536	-0.8407061	0.327082	-0.3217152	-0.51529163	-0.45536247	-0.7345582	0.1043936	-0.49308658	0.3486714	0.15969074	0.24909511	0.48837018	-0.21384408	-0.5968544	-0.09377425	-0.0299518	-0.004181816	0.05064955	-0.09261494	-0.013085031	-0.26146644	0.24084483	-1.2048175	0.036836173	0.7767879	-0.8554926	0.23046191	0.040286735	0.25046033	-0.91408306	-0.41249093	-0.18511198	0.20641698	0.20854606	0.17541043	-0.50672466	-0.93140894	-0.6773998	0.053191803	-0.37323728	-0.7654415	0.10213851	-0.43325514	-0.29968658	-0.6902772	-0.6235553	0.13840184	-0.70636725	0.10666136	0.1996117	0.6447549	0.6904627	-0.3380992	-0.43273428	-0.1641935	-0.11375802	-0.06888325	-0.022989761	-0.40902844	0.116371535	-0.2713352	0.32600734	-0.9782467	-0.06996788	0.97000855	-0.49303403	0.038985427	-0.18031693	0.4622079	-0.9129688	-0.47226736	-0.056014884	0.68270767	0.2711865	0.10594139	-0.52723986	-1.0760367	-0.5399891	-0.20081398	-0.19236235	-0.783219	0.3333941	-0.42295954	-0.36151037	-0.99635684	-0.64840424	-0.010689763	-0.56422144	-0.10129275	0.47965744	0.981664	0.74538475	-0.41611394	-0.19391091	-0.3021582	-0.07685584	-0.15958504	-0.05669627	-0.6412619	0.34614316	-0.29086798	-0.055593196	-0.7848104	-0.18498123	0.9782226	-0.36659354	-0.19802739	-0.12868321	0.3136502	-0.9691525	-0.205157	-0.02494689	0.6798773	0.22746494	-0.036481958	-0.39509478	-1.2890782	-0.8310822	-0.72880197	0.13634126	-0.58018994	0.24828632	-0.3672634	-0.3445871	-1.3661696	-0.6485131	-0.21025956	-0.38448003	-0.246935	0.704931	1.5360855	0.7278311	-0.5343339	0.17929181	-0.46732348	-0.046026364	-0.28354055	-0.10688538	-0.9007289	0.22140385	-0.25684047	-0.65615207	-0.36205384	-0.35394734	0.807769	0.32840484	-0.41388577	-0.09764725	0.1449151	-0.8554756	0.26239386	0.1873019	0.9003273	0.18382908	-0.3349062	-0.30138686	-1.3225573	-1.022029	-1.0188062	0.29584742	-0.28703323	0.18178941	-0.35659394	-0.62667346	-1.655979	-0.66532356	-0.41478282	-0.14437269	-0.30415604	0.70862955	1.8129692	0.70274055	-0.43281856	0.21046561	-0.5091412	-0.03474057	-0.43402833	-0.07449394	-0.9478906	0.41029528	-0.20787244	-1.1187747	-0.17580593	-0.43938515	0.6679781	0.44867653	-0.42856124	0.031905223	-0.07453946	-0.8515302	0.42924154	0.5729346	1.2676554	0.39784014	-1.099145	-0.08331456	-1.221901	-1.2029902	-0.9740294	0.3281503	0.032390486	0.68829995	-0.23908792	-1.187424	-1.2736428	-0.8473745	-1.0734942	0.10425314	-0.18684095	0.13477749	1.7093542	0.2723868	-0.21561968	-0.06508471	-0.55428207	-0.02306507	-0.60315216	-0.10049447	-0.8888249	0.5991718	0.036294088	-1.6191353	0.12622346	-0.17165774	0.3742201	0.47938234	-0.58147025	0.1514367	-0.26446465	-0.6629946	-0.09545003	1.0704652	1.3570632	1.0145673	-2.6943007	0.058807235	-1.154505	-0.7930244	0.9645318	-0.21974322	-0.41931564	1.3433756	0.1420598	-1.9557014	1.6071674	-1.1258857	-2.2669642	-0.040702943	0.046768453	-1.0313485	0.9288183	-0.026836054	-0.12079132	-0.29806685	-0.75149214	0.09218623	-0.6135994	-0.5669093	-1.0385168	1.0434915	0.4712336	-2.4316924	0.6823198	1.547446	0.51438344	0.1569689	-1.7139292	0.1875305	-1.3815025	-0.06771533	-1.4660927	0.745119	1.5515748	2.4047692	-5.317568	-0.03429614	-1.4607481	-0.3269943	3.087414	0.0010507831	-1.4663779	1.194422	-0.61848587	-3.326963	3.6229672	-1.1210191	-2.0204	0.25393263	0.70319384	-0.9427601	0.33902177	-0.12882718	0.17342375	-0.4508904	-0.7966742	-0.09503763	0.048419792	-0.9747412	-1.4217138	1.0548689	-0.35868242	-3.843688	0.93143404	3.3552046	0.9193241	-0.3528939	-2.2496614	0.7280775	-2.8797417	0.65471125	-1.9194053	-0.090341106	2.9985943	3.3509185	-6.8072295	0.023244094	-1.4274986	-0.20816775	3.4748013	-0.051989347	-1.4158007	1.3037822	-1.2168877	-3.4715762	3.8225214	-1.1809771	-2.1047666	0.32096967	0.7620912	-1.0466022	0.2792474	-0.29044062	-0.062273316	-0.45224044	-0.9006221	-0.15502699	0.37294632	-1.0017303	-1.369279	1.0154791	-1.3375802	-3.6753638	0.8505908	3.9821782	1.0051135	-0.4276647	-2.1536188	0.66116416	-2.62162	0.652097	-2.1401587	-0.33818835	3.5131414	3.7968383	-6.586794	0.068534285	-1.3299433	-0.12924403	3.770916	-0.22915411	-1.2916703	1.0751177	-1.5362875	-3.7244315	3.6843553	-1.3118776	-2.0017333	0.4174098	0.8435864	-0.9398365	0.28842208	-0.19450268	-0.13755251	-0.63029337	-0.9456059	-0.11190126	0.554747	-1.0400262	-1.4105961	1.188134	-2.739987	-3.2173975	0.84846926	4.5652204	1.145562	-0.42508388	-1.862432	0.6909714	-2.214728	0.5107938	-2.3805642	-0.45496798	4.193105	4.106092	-6.17101	-0.078612186	-0.99201065	0.059744794	3.4816115	0.26823702	-1.0466774	1.1036849	-2.010309	-4.2973323	2.7984226	-1.3233925	-1.2424383	0.68260944	0.8593137	-1.024553	0.50545955	-1.3292302	0.33110666	-1.167076	-0.71059567	-0.47466353	1.161572	-0.7888255	-1.3750457	1.1096505	-3.5824442	-2.4720106	0.6503865	4.732458	1.0391213	-0.5151002	-1.0939318	1.0847218	-1.6046546	0.19184186	-2.1679225	-0.26264396	4.89636	3.285407	-5.8464828	0.04175971	-0.94528615	-0.009438515	2.9314363	0.2162603	-1.3397483	1.1687069	-1.8743308	-4.386903	2.6718376	-1.3014443	-1.0403637	0.5112352	0.6544473	-1.3460883	0.67027545	-1.7571392	0.5938278	-1.4291387	-0.55379236	-0.10150876	1.3202348	-0.6034507	-1.4890102	0.9689566	-2.7170377	-0.60636455	0.7232961	4.099364	1.3213423	-0.39541265	-0.7181296	0.76576936	-0.87120944	-0.16853973	-2.115285	-0.1979856	5.2547817	1.5458065	-5.1659303	0.08414448	-0.6615521	0.11698592	2.3331604	0.056519445	-1.8540697	0.9973587	-1.0357577	-4.1915274	2.3430378	-1.3073776	-1.0233698	0.40307006	0.3502911	-1.4427868	0.6994708	-1.7487261	0.7005539	-1.6851307	-0.4873319	0.6437023	1.1967919	-0.28701293	-1.7341557	1.0512742	-1.199938	0.7577144	0.6392789	3.678475	1.1162753	-0.23189116	-0.10971495	0.31835058	-0.38909397	-0.9120675	-2.018399	-0.11267799	5.0989447	0.10899016	-4.5612264	0.1100792	-0.6744565	-0.56169677	0.6668683	0.33165318	-1.059457	0.7566632	-0.78348213	-3.0435352	-0.00814378	-0.96221364	-1.2479657	0.5379459	-0.03187096	0.1888589	0.8975493	-1.0941594	1.1174558	-1.9652923	-0.28547582	1.2312365	0.640869	-0.3693301	-1.8730844	0.9285615	0.16881977	0.23098066	0.5237679	3.0584862	1.2735616	0.3738891	0.84734327	-0.1296305	-0.55693287	-0.97746956	-1.0448526	-0.27662253	2.7420719	-0.4553745	-3.5187967	-0.30247673	-0.593597	-0.9322396	0.8991612	0.37388274	-1.3843817	0.28449342	0.020194706	-0.89929616	0.14623393	-0.6766974	-1.1062303	-0.019679505	-0.46746153	-0.7692687	0.8073688	1.1349692	0.15114254	-0.17279339	-0.25554642	-0.025776867	0.00316909	0.058218993	-0.15087767	0.40782982	0.04406118	-0.2585697	-0.69817954	0.27413166	-0.89141047	0.31483176	-0.9821287	0.19357345	-0.34215602	-0.044215318	-0.5842607	-1.0047834	1.3981279	0.14102888	0.12630482	-0.26584786	-0.60201514	-0.9161588	1.1260319	0.3681837	-1.5820006	0.2919489	-0.050348166	-1.1797415	0.34124765	-0.6449755	-0.76172465	0.0015799967	-0.42499402	-0.86776197	0.93443984	1.1888307	0.17681094	-0.14212044	-0.23814228	-0.046929516	0.0059393635	0.05442135	-0.20770785	0.30552885	-4.1498497e-05	-0.32857618	-0.6347265	0.27188373	-0.8849452	0.29005727	-1.1829798	0.23018296	-0.74177957	-0.07585016	-0.5054496	-1.2933747	2.3314376	0.17184587	0.16572636	-0.25674435	-0.54461026	-0.81695163	1.2312424	0.36281386	-1.5981085	0.17158778	-0.047091454	-1.4649675	0.5869471	-0.57744044	-0.57228374	-0.024013918	-0.46944886	-0.99537367	1.0518955	0.9184942	0.22879274	-0.12526904	-0.19919741	-0.053543866	0.011554176	0.054339908	-0.20732321	0.30113366	-0.005209664	-0.34202805	-0.6324137	0.24891637	-0.90570974	0.2817443	-1.2857945	0.25116038	-1.0187881	-0.0477499	-0.44310397	-1.4116621	3.0405366	0.18339665	0.16818084	-0.2549036	-0.5582975	-0.814318	1.2588995	0.37455338	-1.6110379	0.18657498	-0.06938587	-1.7179121	0.81296754	-0.5360374	-0.3761724	0.0037635881	-0.42826113	-1.0849787	1.1715386	0.5904334	0.26222417	-0.116089106	-0.17923819	-0.066606015	0.015088369	0.04103562	-0.25531265	0.2547664	-0.027537014	-0.3478899	-0.5724939	0.21799637	-0.8653929	0.28349543	-1.3799943	0.25313136	-1.2144921	-0.054157875	-0.38010257	-1.4698083	3.6622283	0.19049294	0.1912041	-0.2663768	-0.52559495	-0.7976941	1.2615272	0.3764594	-1.5365642	0.08973474	-0.032121