4
21	40	40	256
1.4029381275177002	-1.2282156944274902	-2.294965982437134	3.670536994934082	2.967876434326172	1.5180355310440063	-4.103140830993652	2.4655401706695557	0.202400341629982	1.3715803623199463	2.1941914558410645	-1.3850570917129517	3.2251174449920654	-1.461000919342041	0.38495197892189026	-2.0529258251190186	-1.3093514442443848	-2.0895094871520996	-0.7074882388114929	0.013543762266635895	-1.5965701341629028	5.224295616149902	2.7026000022888184	-2.125958204269409	-1.389388084411621	-2.3386120796203613	-2.684054374694824	4.188488483428955	1.610194206237793	0.11492019891738892	-0.7077298164367676	1.711881160736084	-1.6952348947525024	-1.2776542901992798	0.15582165122032166	-1.433972716331482	-0.9893801808357239	2.7867648601531982	-0.10579928755760193	-1.295005202293396
0.7965319156646729	-0.48183685541152954	0.04035425931215286	-0.4876164197921753	0.8273173570632935	0.7480651140213013	-0.41559138894081116	0.0015078388387337327	-2.2326791286468506	1.1439288854599	0.060211580246686935	-0.13877429068088531	0.08863071352243423	-1.1071034669876099	0.22121597826480865	-0.4646879732608795	-0.046503566205501556	-0.3092235326766968	0.7832241654396057	-0.8555684089660645	1.370182991027832	-0.15821191668510437	0.1387646645307541	-0.086620032787323	-0.21990643441677094	-0.2347843199968338	-0.04148321598768234	0.2136785238981247	0.479962557554245	0.12887193262577057	0.02615189179778099	-0.6096413731575012	-0.5763049125671387	-0.09019932150840759	-0.2980346381664276	-0.37602126598358154	0.5256207585334778	0.24278640747070312	-0.7974127531051636	-0.6223994493484497
0.35946759581565857	0.5149142146110535	0.5494364500045776	0.5135100483894348	0.6352527141571045	0.6148895025253296	0.6649037599563599	0.6809684634208679	0.7466925978660583	0.8205826878547668	0.9334704279899597	1.060539960861206	1.190933108329773	1.3746728897094727	1.3559879064559937	1.2350817918777466	0.32806333899497986	0.3254169225692749	0.2846589982509613	0.3362189531326294	0.42116978764533997	0.5290464162826538	0.6458427309989929	0.6669412851333618	0.6731409430503845	0.7426921725273132	0.7229436635971069	0.7405738234519958	0.9478000998497009	1.2212532758712769	1.2627627849578857	1.1432380676269531	0.16641905903816223	0.2825416624546051	0.1719750016927719	0.15518231689929962	0.22870907187461853	0.3283355236053467	0.4792602062225342	0.5564216375350952	0.3221316635608673	0.2911738157272339	0.42901790142059326	0.5358446836471558	0.6041865944862366	0.6731392741203308	0.7187989950180054	0.7782799601554871	0.3550388813018799	0.26041194796562195	0.184510737657547	0.047020718455314636	-0.03923790901899338	-0.026339873671531677	0.08516325056552887	0.328346312046051	0.33104461431503296	0.5830322504043579	0.7786881327629089	0.809770941734314	0.9003145694732666	0.9142206907272339	0.8980308175086975	0.9247192144393921	-0.06754674762487411	-0.009268284775316715	0.0595567561686039	-0.0010454062139615417	0.11765407025814056	0.22187384963035583	0.3249402940273285	0.2690168619155884	0.07692359387874603	0.08948046714067459	0.22336886823177338	0.2289663702249527	0.3166937530040741	0.280411958694458	0.2555130422115326	0.34842798113822937	-0.16908319294452667	-0.17891989648342133	-0.10168896615505219	-0.11661860346794128	-0.14454692602157593	-0.1231449693441391	-0.07432454824447632	-0.01710084266960621	0.0336138978600502	0.05431929975748062	0.0001289086794713512	0.05259047821164131	0.11548914760351181	0.29484912753105164	0.3459644019603729	0.2915200889110565	-0.16383658349514008	-0.04293942078948021	0.05210437625646591	0.1073041632771492	0.06921287626028061	-0.012216126546263695	-0.0973738580942154	-0.12533608078956604	0.2172357589006424	0.3862147033214569	0.47263103723526	0.42971891164779663	0.555519163608551	0.6656332612037659	0.7592499852180481	0.5972918272018433	-0.25479161739349365	-0.245300754904747	-0.22238603234291077	-0.23614473640918732	-0.18528765439987183	-0.08150622248649597	0.007799378130584955	0.16323266923427582	0.2786734402179718	0.31372520327568054	0.29276835918426514	0.2783660888671875	0.3184812068939209	0.23921789228916168	0.4318247139453888	0.3816787004470825	-0.08535569906234741	-0.0476316399872303	0.1301487386226654	0.17543216049671173	0.2773014307022095	0.2642013728618622	0.3759602904319763	0.4140130877494812	0.4879489541053772	0.4550146758556366	0.48814207315444946	0.6736153364181519	0.7385507822036743	0.7212510704994202	0.6940215826034546	0.4335741102695465	0.21524649858474731	0.23673303425312042	0.28018757700920105	0.30002349615097046	0.382379949092865	0.48991748690605164	0.6151794195175171	0.6530337333679199	0.5626663565635681	0.6808905601501465	0.6883324384689331	0.7464324235916138	0.916495680809021	0.9679456353187561	1.090415596961975	0.8426914215087891	0.2576872706413269	0.30266156792640686	0.341047078371048	0.38413557410240173	0.5065367221832275	0.6087129712104797	0.6053442358970642	0.5413687825202942	0.7460036277770996	0.670120120048523	0.7881641983985901	0.8390253186225891	1.0461615324020386	1.0740625858306885	1.1093348264694214	0.9703320264816284	-0.09945691376924515	0.033484961837530136	0.08726954460144043	0.16727343201637268	0.2449762523174286	0.24198856949806213	0.30742377042770386	0.473358690738678	0.7056795954704285	0.8396572470664978	0.8433458209037781	0.8833703994750977	0.9130629301071167	0.9339161515235901	0.9760931730270386	0.9669331312179565	-0.3984868824481964	-0.284842848777771	-0.14536915719509125	-0.018400825560092926	0.2233789712190628	0.39694249629974365	0.5265401005744934	0.6550265550613403	0.5486623644828796	0.15899960696697235	0.2699982821941376	0.7266470789909363	0.39921048283576965	0.5856924653053284	0.702034056186676	0.725498378276825	0.1970740556716919	0.2122984230518341	-0.03000487945973873	-0.06766904145479202	-0.024670321494340897	0.1464305967092514	0.21733346581459045	0.5451053380966187	0.678511917591095	0.6022497415542603	0.6167380213737488	0.7294808626174927	0.8246513605117798	0.9548323154449463	0.9790552258491516	0.9140464663505554	-0.5338799953460693	-0.4805316925048828	-0.48084756731987	-0.39818501472473145	-0.35302120447158813	-0.28613850474357605	-0.30809128284454346	-0.3366389870643616	-0.19110187888145447	-0.02531912550330162	-0.011821991764008999	-0.08687753975391388	-0.049737598747015	-0.12385618686676025	-0.16132794320583344	0.03717781603336334	-0.6063335537910461	-0.4163413345813751	-0.2822257876396179	-0.13154447078704834	-0.024996882304549217	0.11459735780954361	0.1313781589269638	0.19697800278663635	0.3881925940513611	0.604228675365448	0.637711226940155	0.6326957941055298	0.7738308906555176	0.6485211253166199	0.5930584073066711	0.5244897603988647
-0.03315205	-0.5387118	0.24937297	0.05641618	0.5511848	0.110553734	-0.007760892	0.06787698	-0.013103404	-0.09449451	-0.08002498	0.040549435	-0.096684545	-0.08253774	0.05065545	0.08656548	0.1361049	-0.009373259	0.04005168	-0.92883384	-0.26398802	0.14614938	-3.1743119	-0.1386841	-0.28351158	0.091594726	-0.05496008	0.17312369	-0.21949819	0.10116368	0.08922838	-0.05030537	-0.092707455	0.09277007	0.013017244	-0.06238986	0.009575732	-0.060024492	-0.014553856	0.028312609	0.07219358	-0.28825888	0.014763089	-3.208139	0.0057746153	0.04146378	0.09958054	0.013652138	0.22074208	0.05304977	0.1767081	-0.04631298	-0.004012545	-0.028042905	-0.09246922	-0.053043608	0.022180464	0.012921126	0.06661301	-0.0035220718	0.008804121	-0.9288051	1.1212645	1.2051663	-0.4242887	0.013577361	0.23279977	0.7328055	-0.7008878	-1.0754559	0.9289546	1.3921927	-0.38355324	0.3486592	0.25433898	0.2400586	-1.0251819	1.5152149	-0.36784545	0.16250663	0.4161988	-0.6356069	-0.19382635	0.1749826	0.7568922	-0.59438384	-0.28422478	0.013520878	-0.13608687	0.12597124	0.035060782	0.743611	0.5459589	-0.016066458	-0.077325344	0.047683556	0.11916332	0.095042	-0.023419203	0.07170898	-0.11500299	-0.016473712	-0.01540896	0.29260528	1.8009083	-0.08663114	-0.21272829	-0.41767567	-0.10648385	0.14235777	-0.0118368175	0.0963694	0.29070708	0.107365675	0.10682239	0.08232738	-0.064353205	0.044029288	0.09897113	-0.05052323	-0.07115931	-0.077435926	0.0061700866	-0.07573818	-0.26768878	-0.14649677	-0.41839746	-5.23346	-0.097442545	0.66915584	0.024580231	-0.02854131	-0.26751453	-0.4473573	-0.3062007	0.064417586	-0.1364211	-0.042519398	0.078887545	-0.058973808	-0.0002465244	0.1306333	-0.11836445	0.021195093	0.0796587	-1.034015	-0.19242668	0.2944646	0.13446137	0.38753328	-0.49225318	0.3867422	0.11510617	-0.2095644	0.43064934	0.2795272	-0.031895183	0.22991501	-0.06549486	0.1250144	0.21050319	-0.05337457	-0.23041853	0.052105483	-0.07719836	-0.20474996	0.021657337	-0.15098116	0.026570274	0.0853078	-0.0009799097	0.5195041	-0.05992776	-0.0020673012	-0.011621054	0.14763594	-0.1892268	-0.015025584	-0.00040560414	0.018328132	-0.03826606	-0.01691737	0.013075944	0.0016142704	0.023795923	0.0033229163	0.0049401773	0.004219113	-1.3634455	-0.018598698	-0.37494045	0.012417566	0.20776165	-0.110608175	-0.024439543	-0.0074790632	-0.038612746	0.016165674	-0.0022852158	-0.03764977	0.0010522645	0.03749071	-0.0239803	-0.0059522474	0.023126874	-0.028344752	-0.0052109775	0.03290421	-0.32683027	-0.14397271	-0.098898955	4.427349	-0.08796279	-0.0869124	-0.1995413	-0.12072607	0.12509522	0.213211	0.26855305	0.010333147	0.027705789	0.07039278	-0.02616565	0.017535094	0.080357194	-0.09784671	0.07011347	0.04244017	0.008957443	0.071429215	0.17403573	0.09526092	-5.300462	-0.00187435	1.639399	0.12318584	0.020108435	-0.1456303	-0.32129246	0.24701339	0.0093343165	-0.06707233	0.0013337908	0.005184216	-0.034615405	-0.03578063	0.0969699	-0.029964121	0.0011527655	0.06655368	0.07170344	-0.11347706	0.07628627	-0.23909754	0.033485778	4.2301407	-0.06428035	0.023030026	-0.036026977	-0.22852044	-0.2021912	0.009600088	0.0049685217	-0.013312663	-0.018594323	0.008959107	0.0045499243	-0.026207332	0.03076168	0.0029245745	-0.0072929417	-0.09070611	-0.18562439	0.07623837	0.20231466	0.084846415	-0.6562103	-0.3864047	-0.047694612	-0.00033745306	0.19833437	0.19592656	-0.025968526	0.005429691	0.021697277	-0.0963728	-0.05087758	0.028673757	0.010546034	0.05766307	0.015094419	0.026281757	-0.899364	0.653061	0.13931932	-0.060694303	0.13417213	-0.3804563	0.045519188	-0.011846272	-0.62164825	0.36692238	0.13021247	0.008165636	0.22384432	-0.03731704	0.11870501	0.25897926	-0.01560014	-0.18791762	-0.01953945	-0.026065275	-0.10999179	-0.6847061	0.31262788	-0.79255176	0.64117664	0.13241935	-0.29751903	0.22843422	0.05907811	0.1086483	-0.6778624	-0.78501177	-0.023291564	0.03905833	0.008137964	0.072118975	0.047837228	0.008657762	-0.035654344	-0.02824569	-0.024158934	-0.03313785	0.012567692	-2.8640127	-0.3208956	0.2624655	-2.2386522	-0.0023354527	0.10178018	0.0020574704	-0.0029123556	0.0323239	0.08178893	0.017530818	0.024678359	-0.059101216	0.071353115	0.035263624	-0.018982997	-0.005630096	-0.052807055	0.008417228	-0.014136089	-0.09677492	-0.1329087	0.12548499	-4.5035763	0.019879451	0.24415536	0.0153024	0.017574193	-0.11817129	0.012757467	-0.2750484	0.032460194	0.05480456	0.046345063	0.09076757	0.09544061	0.067042634	-0.12695114	-0.015536116	0.029729508	-0.047591884	0.29990858	-0.02349155	-0.1035598	-0.314545	0.94216424	-0.16950761	0.086816706	-0.02112415	-0.030774739	-0.35642728	0.12861389	0.031558778	-0.024065817	-0.03199281	0.06913482	0.009518628	-0.022741955	0.02746138	-0.07451585	0.0033828362	0.008382884	0.10406495	0.09104938	-0.28745905	-0.06684291	-0.058871422	-0.118145496	-0.01186866	0.033806607	-0.0033314403	-0.46041656	-0.075755894	-0.052033693	-0.030463118	0.03608649	-0.0461464	-0.044509012	0.0339839	0.02830833	0.059136353	0.0036278071	0.009413861	0.12874658	-0.08489822	0.15329686	-3.7900574	0.10374072	0.33064666	-0.13396862	-0.06683614	0.2869824	0.09676585	0.12520663	0.006732239	-0.0054309485	-0.004769095	-0.07645888	-0.044061206	0.025786769	-0.023576658	0.06910394	0.014524342	0.021827342	0.14619716	0.01612116	0.0014038483	-0.031865522	6.409031	0.041577354	0.24931233	-0.12299104	-0.25300643	-0.05968413	-0.022769675	-0.06821561	0.18051893	0.2614353	-0.6379407	-0.4658291	0.08271021	-0.1779641	0.22700426	0.3421578	0.22508597	-0.15288396	-0.21566722	0.13575199	5.123704	0.051725842	-0.6992106	0.13886406	-0.07543207	-0.09336604	0.005775987	-0.022440134	0.03178729	-0.028584817	-0.034411587	0.07575116	0.024336291	-0.033201754	0.08525394	-0.09389467	-0.006561107	-0.0033643725	0.74147624	-0.18445475	-0.9697948	-5.2986307	-0.024589445	0.7917869	-0.6181821	0.27160382	0.007411311	-1.3617592	-1.1627299	0.093376964	0.20090273	0.017842257	-0.015323585	-0.022062311	0.09501235	-0.5072458	0.14274198	-0.022484792	-0.08804652	3.4189575	-9.044248	-0.12761196	-0.49153653	-0.051404566	0.1961233	0.14077242	-0.012452854	-0.053898852	0.3612077	0.22452457	0.04497858	-0.051415708	-0.039740544	-0.03168617	0.0071943444	-0.039017327	0.12068028	-0.022194846	0.0027854496	0.04470529	-0.9552596	0.24251327	0.21739052	-5.305555	0.04786559	-0.88038474	-0.22631139	-0.003930393	0.24064843	-0.1543497	-0.06366973	0.031893566	0.05689269	-0.05181318	0.12821402	0.04884776	-0.0011191226	-0.13424857	-0.0653614	-0.024422484	-0.0979537	0.48387247	-0.14986189	0.16702393	-0.24203604	-0.10076088	0.25858694	-0.013597188	-0.024304563	0.0064736386	-0.19788392	0.09472095	0.074515946	0.06232597	-0.05941724	0.12534714	0.098410875	-0.03788614	-0.088658206	-0.08329873	-0.0061937324	-0.054623164	-0.44053248	-5.0199885	0.8603437	-0.16522415	0.14860871	0.15535216	0.43431357	0.3052006	0.507532	0.6119929	0.884947	0.21497653	-0.22402397	-0.06607653	-0.08089539	-0.024193823	-0.30026406	0.13619317	0.074341685	-0.08908981	0.10186365	-0.18168831	0.1934243	-0.33659345	2.569462	0.10765988	0.17884073	0.06438216	0.21086568	0.4757559	0.07261379	-0.079218045	0.013922655	0.01350106	-0.015197012	0.049359042	-0.004029303	-0.030486247	-0.10061531	0.0067235585	-0.03752984	-0.014987229	-0.102874115	-0.026186435	0.3211018	-0.71541864	0.033408433	0.22856113	-0.15394838	-0.017551957	-0.016028881	0.38156518	0.3666018	0.029939605	0.05144118	-0.02955006	0.0035725983	0.03760429	0.010083678	-0.057977892	-0.0019032498	0.005532851	-0.047363594	1.1125128	-0.05281763	0.5887037	-1.0808686	0.02226134	-2.3926783	0.31330854	0.03954347	-0.07041326	1.0119656	0.8319326	0.004756388	0.12104254	-0.027752848	0.03550627	0.09756714	-0.0429549	-0.08295758	0.025221776	-0.017650524	-0.07508432	0.83352697	1.4127681	-0.17830312	0.5519967	2.3476043	0.009126952	-0.046042394	-0.0679182	-0.038277134	0.2331124	-0.18240483	0.072418265	-0.07196191	0.010022352	-0.2820114	-0.16234162	-0.010448417	0.09147195	0.14102197	0.048692536	0.08163939	0.006602306	0.107645385	0.26450682	-3.4433093	-0.023869049	-0.48110822	0.21733393	-0.020317698	-0.11207996	-0.109983034	-0.30860755	0.0131119825	-0.09979517	0.013126468	-0.1142943	-0.107157744	-0.03506083	0.16010642	0.024425963	0.008109802	0.12430941	-0.117313415	-1.1125059	0.066449896	-0.7657696	-0.48848468	1.0602014	-0.9023644	-0.27261358	0.01857102	-0.39035407	-0.35004142	-0.12517631	-0.10161661	0.0008966096	-0.016321976	-0.115958974	-0.12200191	0.19666645	-0.117298685	-0.0861462	0.029071236	-0.47053543	-0.6980387	0.7252741	0.107077755	-2.0944746	0.14037386	0.039584465	-0.4486176	-1.1908355	0.67432255	0.7527322	0.6556769	0.5722076	-0.7995323	0.8954433	0.953704	-0.49755752	-0.2545488	-0.84724003	-0.23828354	-0.031159436	-0.36306316	0.2548642	0.13023713	-4.5293026	0.008564346	-0.2872266	-0.2853095	-0.03561143	-0.0032954044	0.049830344	-0.30457315	-0.019508338	0.053013567	0.11382411	0.0262563	0.04778517	0.027935512	-0.03537594	-0.0071309702	0.010500641	-0.018085843	0.7027941	-0.11833881	0.089893	-1.2870482	0.013319173	-1.2286222	0.030392602	-0.0030715952	-0.05694543	0.2147838	0.28109005	0.019630983	-0.006844288	-0.031714953	-0.027832689	0.021554418	-0.039665755	0.07806895	-0.025081774	-0.005408882	0.015739527	0.343831	-0.1840287	0.5365846	0.42585322	0.3588261	-0.008116907	0.045955162	-0.10692567	-0.19490515	0.7251215	0.5649862	-0.044110216	0.022241347	0.019562658	-0.037834607	-0.0745656	0.023466608	-0.0089815045	0.030867446	0.014136556	0.040949676	0.76915467	1.4531806	0.042206153	-1.2409503	0.079539485	-0.28691772	0.0013529749	0.02981442	0.06421912	-0.039921865	-0.11237744	-0.026460726	0.032474574	0.024791805	0.010809861	0.01252081	0.02111231	-0.06723362	0.022453543	-0.002794318	-0.017459478	-0.3386146	-0.24036174	-0.3184576	-4.3056545	-0.16664287	-0.059839386	0.16882457	-0.029327873	0.11006512	-0.2673266	0.23863731	-0.06392644	-0.014453117	0.11268025	-0.018661058	-0.0143448105	0.072159454	-0.03248763	0.09144651	0.021738458	0.013400393	0.7498959	-0.026233424
0.7193114	0.17073771	0.32646903	0.62543094	1.2634513	0.45711035	0.40411422	1.0140718	0.10278927	0.57614034	0.74391454	0.43812975	0.25317806	-0.027379943	0.6634561	0.23531553	0.80802083	0.4404024	0.43178332	0.28395733	0.63301075	0.5527545	0.83789366	0.61229444	0.35871255	0.16793235	0.43026766	0.7895918	1.2613947	0.429401	0.28965846	1.1070141	0.35793585	0.53125	0.30501664	0.22301798	0.19776769	0.89273876	0.30657873	0.58079994	0.34407887	3.2677193	0.014600925	0.08651527	-0.68347055	1.1086159	1.548581	-0.1408207	2.1622388	2.7179666	-0.9330721	1.0194706	-0.2833433	-0.011578431	0.20579489	4.342943	0.38118201	-3.1449828	0.23493391	1.4341903	-1.5791111	0.2872213	-0.6841162	0.18240659	-0.69589263	2.1124394	13.264341	0.17746426	-0.8791118	1.2528435	0.8183756	-0.47633535	3.236529	3.20074	-0.0065415236	0.6464451	0.51746964	-0.7284657	1.8448671	0.5587127	0.006720225	1.6640493	0.08159722	-0.008721532	-0.39496297	1.262823	0.30045786	-0.49642706	1.7501441	1.8886712	-0.43766546	-0.4423987	-0.2247313	0.7422161	-0.30704406	-0.9188766	0.12589054	-0.27310917	-0.38826486	1.146744	-1.013184	-0.1761438	-0.515523	0.45644486	1.2153004	0.39782658	1.0556625	0.24670295	0.2668351	0.25017327	0.17803757	-1.0686684	-0.6015533	1.0080664	0.08642662	-0.5280842	-0.31776658	-0.6618145	0.54965836	0.38517404	-0.040404465	1.568972	1.1210631	-0.0044823457	-1.3962104	-0.32435876	0.96831244	-0.9675986	-0.43342698	0.53880125	-2.611757	0.15129997	-1.2454219	0.72865325	0.00060639717	0.86755264	-0.73263365	1.5115597	0.657105	0.37408495	2.080381	0.524521	-2.0827332	0.01660221	0.37467477	0.5023821	0.63091046	-0.11295883	-1.4514394	0.9537812	0.020778874	-0.3981416	0.9227752	0.016348798	0.060337435	1.8751062	0.9554078	-1.3367101	0.92793083	1.0699036	0.56333286	0.48560014	0.5466292	0.53187627	0.73763776	0.52841336	0.38385034	1.2100338	0.50530124	0.58769315	0.7722311	0.19037509	0.5775441	0.21904182	0.4405186	0.23869948	0.9997704	0.11939471	0.5354605	0.6113986	0.17462224	0.66307724	0.95810264	0.4607884	0.14540042	0.051821705	0.42177832	0.574573	1.256961	0.5497236	0.67106444	1.0772818	0.2801359	0.5451577	0.34549618	0.59090114	0.3450189	0.8904394	0.6073612	0.1384131	0.4705604	0.09805556	0.6019071	0.795672	0.9334454	0.5351772	0.29926184	0.69851404	0.16738169	0.3888586	0.7829475	0.61599004	0.41228065	0.24028735	0.33161443	0.43400407	0.8527745	0.59151065	0.39781377	0.45857584	0.39865437	0.43838263	0.954685	0.5206253	0.5747968	0.22905123	0.44532928	0.85752946	1.095814	0.44482112	0.7234966	1.0557148	0.3875876	0.27965334	0.70702094	0.36347613	0.43919736	0.7301575	0.4664097	0.5350667	0.24202627	1.8255458	0.007872753	1.2148328	-0.6350033	0.9503292	3.26361	-0.16487232	0.2960071	0.86727333	-1.0392351	-0.7105552	0.44810894	-0.9516911	1.160535	1.4960916	0.36788234	1.4096096	0.33617857	0.62671113	-1.265438	-0.14434184	-0.9420362	-1.3972974	-0.7998432	-0.56057876	2.1989014	-0.2909078	-1.3650496	1.1825738	0.47172686	-0.4135605	-0.61315393	0.54282546	0.19988042	-0.4992275	0.45262346	-0.52597535	1.2616255	-0.4505939	-1.8275117	0.3394361	0.1913072	-1.5168036	-2.3356814	-0.56761855	-0.006090202	-1.5101191	0.7516999	0.1792171	-0.37762573	-0.5013354	-0.49950922	0.026979432	-0.46911427	1.4301478	0.9189716	0.39829928	-0.06535344	1.0547048	0.4183761	0.9988758	-0.74115723	0.47036693	-0.045887195	0.40699327	0.9928812	-2.1702106	-0.4071419	-0.6211203	-0.13721682	0.9446179	0.42601633	0.53974146	0.028589603	0.45617783	0.6176204	-1.8269857	-0.4983045	-0.08375732	-0.5124694	4.743846	7.206878	-1.650123	-3.1580572	-1.4725542	5.588755	-1.9338646	-0.6298202	-1.4980772	-12.272887	6.32313	-0.86476165	0.6871317	-0.7744436	-2.4273927	-3.6237183	6.615978	0.56398135	-4.0212555	5.7912664	-1.0099907	-10.485493	2.3810103	2.830644	7.4083705	0.52678466	-0.37075347	-7.2924924	1.2424583	0.44257125	-2.661546	5.0475583	-0.3423174	-0.16471556	6.3028665	2.4371614	-2.6571634	1.1814208	5.326308	-5.6649265	-2.3765378	-1.1479164	1.3103511	-10.168956	0.13160951	11.615656	-1.788332	-3.0792503	1.3881849	2.6787846	-0.17446826	-0.36386302	6.859379	0.57377595	27.802776	-2.6402688	5.414823	-1.2468264	10.538078	-4.1780014	-2.6422868	4.1174235	4.6095705	-8.598771	0.48090827	5.587295	-1.8550171	-3.0831947	-5.179601	4.5021806	0.74322486	-4.937752	4.265464	1.3838333	3.922263	-8.387429	-3.513035	-3.038821	1.3262643	-0.7693498	-0.07735216	0.98104626	0.6963032	-0.11307635	-0.90575695	4.1160526	0.19784419	-0.7138624	-0.41556725	-0.006253077	0.75391626	-0.9521916	-2.1201606	-0.26767144	-0.8099632	-0.9398877	-0.7853234	0.3638268	0.4722457	-0.83015794	-0.24188788	-0.8520403	2.0180058	-1.6355287	-0.25982684	-0.37670386	1.0342529	0.57483906	2.5088046	0.5997053	-0.08061537	2.082759	0.5988675	0.18146233	-0.48118427	1.4343408	0.020060211	0.6239562	-0.071185894	-0.6019436	-0.64871454	-0.48704886	-0.07846684	-0.61459816	0.40521967	2.2443123	-0.26643074	2.9892054	1.1543096	0.02579586	0.2796295	0.20426853	0.17665936	-0.09064277	3.367138	-0.08166106	0.37909642	-0.22594161	1.8562292	1.0164217	-0.5952971	-0.577098	-1.7175152	0.54566973	-0.10371309	2.212764	-0.56289	-0.09763981	-0.45926768	0.4201047	0.012773381	-0.088822626	0.43772364	-0.02825915	-0.03963407	0.62622094	-0.58033335	0.6981093	-0.30922	-0.021432577	0.5633711	0.028804028	-0.1348778	-0.819632	0.07983177	-0.11742014	-0.4437642	0.036321435	0.793552	-0.8734072	-0.4274031	-0.7581008	0.81427	0.21433175	0.30527982	-0.3425821	0.55161124	0.3391241	1.2348161	-0.007605831	-0.25193474	0.22451285	-0.2136375	-0.794074	0.19637257	0.3735681	-0.50577646	-0.13955615	0.3159425	0.5716152	0.32081383	0.24401851	0.18162069	-0.014442641	0.31166255	0.7308439	-0.1858869	0.6590348	-0.5622919	0.24164397	0.96113455	2.2246919	0.39474767	-2.543015	-0.06963581	2.5179307	-0.15444158	0.098904714	-1.3852212	-2.714496	3.3344195	0.3557581	0.22265099	-0.21425349	0.6886977	-1.144263	1.2497768	-0.09080228	-0.3403252	0.7262406	-0.62857664	-2.3725526	1.0490899	-0.8288797	2.9407647	1.5042783	0.23839901	-2.0374982	1.257397	0.03313488	-1.132857	1.2871404	-0.7117913	0.014552219	1.934058	0.8380425	-2.0440714	-0.6299926	1.1000377	0.5625368	-0.26779258	0.43849692	0.6529357	1.1519796	-0.01822561	-0.35983965	0.70951974	-0.35453853	-0.107089505	0.24021548	-0.8960919	-0.49986982	-1.3876309	0.4788613	-0.07134579	-0.11355645	-0.20609236	-0.32424638	-0.40400985	0.40324426	-0.07325994	0.6843142	0.14194842	0.47086388	-0.34428933	-0.26848754	1.2579409	0.30781454	0.43181705	2.522278	0.49887368	-0.10187307	-0.039948918	0.017591247	-0.30635735	0.8979183	0.7695067	0.00121097	0.17524111	-0.6136449	1.2916808	1.9598978	-0.11924576	-0.93347067	0.12692438	1.7406108	-0.2382854	-0.8843509	0.2090131	-2.10729	1.3105731	-0.36638126	0.39245233	0.5039342	-0.07574382	-0.7061558	1.2644415	0.21391438	-0.88633543	1.7799877	-0.7522418	-1.5980811	0.91832405	0.26251912	0.7416325	-0.52061963	-0.38076174	-0.77817804	0.91561943	-1.283835	-0.67129827	-0.12302567	0.37770322	-0.03308904	2.1411624	0.07514213	-0.37584642	0.075246714	1.2444636	-0.19129379	-1.1097248	0.5626739	1.4165722	0.009418561	-0.8405063	2.3660686	0.50841165	0.5721913	-0.8072002	-1.1451548	0.9835275	-0.44445533	-1.4357764	-0.80138	-0.3024519	0.41660687	1.5701416	-0.2560263	-1.5026495	1.1665468	-1.0019261	-1.3104463	1.1090689	-1.4294524	1.2511282	0.098895185	2.496033	-0.9313311	2.883423	0.15295874	0.95878226	-1.1188371	0.22468798	0.20769346	-0.43148538	2.9365473	-0.02628934	2.0344868	-0.80563664	0.014678797	0.7142049	0.053432893	-0.33440042	-0.24205826	0.80947715	-0.34869447	-0.30965638	0.7575353	0.31997362	-0.40212935	0.065217674	-0.23693255	-0.113235235	-0.33965093	0.231859	0.03719511	0.49243864	-0.7444107	0.4238814	0.21429035	-0.43287826	-0.5133369	-0.2237043	0.024295252	-0.07607016	0.045479693	0.22946708	-0.40722492	-0.09866773	1.0833837	-0.3701522	0.52055866	-0.31872764	0.005592239	0.479	0.78206855	-0.51798993	0.010804566	0.35247737	0.34936467	0.24147195	0.33395496	0.64941514	1.1419616	0.55473447	0.28824893	0.97021085	0.60133916	0.53438246	0.7408163	0.024794674	0.3016705	0.40358916	0.7179001	0.30907857	0.5359112	0.25988922	0.37929845	0.59297556	0.31805447	0.6383222	0.7088666	0.3908778	0.5207796	0.249894	0.6355569	0.93050706	0.85227025	0.12849773	0.6974922	0.6838197	0.2948358	0.3468952	0.8570605	0.08635199	0.27767837	1.1735193	0.5749846	0.49410737	-0.26352233	1.1362612	1.0661976	0.0136137	-1.2999442	-0.28731352	0.8105097	-0.8015018	-0.40813142	0.39391848	-3.4395669	1.1721476	0.064002685	0.65992725	1.2120196	-0.29883167	-0.77353215	2.2212121	0.7109691	-0.5905004	0.9345888	0.024104081	-1.465422	-0.05706114	-0.4460828	0.42719513	0.3961812	-0.9427909	-3.5028186	0.9389146	-0.55036783	-0.68073225	0.027260588	0.22948556	0.6752234	1.997687	1.0978779	-0.682821	0.508239	1.1941983	-0.47991088	-3.1759336	-3.4943268	0.14246742	1.7298392	0.72892874	-1.5039866	1.2780911	1.1190041	0.38235047	8.096904	-2.482137	0.79902273	-0.31181654	0.5207312	0.73258716	1.6779426	-3.9282525	-0.2661117	0.7542911	-3.398424	-0.18131906	6.4632273	-0.8936155	-0.24387449	-3.1606007	-0.21622589	-0.4906521	4.2469597	-1.5815958	0.12892798	1.7720909	-2.3171756	0.06278053	0.12215305	-4.232729	-1.447345	1.4161029	-0.64954525	-2.9206734	-0.30075404	0.3666269	0.9802851	-0.34369266	-0.117687084	-0.60100883	1.2724712	-0.28775623	1.2106522	0.71095043	-0.45234528	0.3939654	0.2725021	-0.7706114	-0.0642611	0.063461356	-1.6111621	0.41355327	0.5128919	1.1147146	-0.64667785	1.9151099	-0.82819927	-0.078591265	0.23868339	0.1119192	0.08145325	-0.19047262	-0.1901738	0.69531834	0.7181596	0.07048173	-0.4094221	-0.14620396	-0.013359384	-0.33087975	1.2894113	-0.84218895	0.86534375	0.26082453	0.30432954	-0.09881668	0.8325262	0.72263175	0.52689433	-0.10399635	0.57416904	0.14687048	0.2051019	-0.3977862	0.3965086	1.3881699	0.7131813	-1.4993778	-0.68859243	-0.4348792	0.041953523	0.12705593	-0.2564164	-0.88689667	0.16947633	-0.04463398	-0.21116982	-0.4415642	-0.029525742	-0.5154058	-0.015893143	1.0798686	0.4663012	0.47345597	0.44250554	0.21758905	-0.6282758	-0.08372309	-0.15345493	-0.15220463	-0.72670656	0.47618294	-0.06710287	0.24792564	-0.059034202	0.50842804	0.3459767	-0.08302832	-0.24036077	1.1560614	-0.47966513	-0.10578435	-0.29444757	0.6676111	-0.2940692	-0.1333654	-0.19380298	-0.2763763	0.12625141	-0.1486344	1.2589128	-0.07857636	-1.093627	0.96351784	-0.44747767	-0.023904951	0.02170227	-0.3246929	-0.2776565	0.13345605	0.68396074	0.16792497	-0.16364087	0.2097208	0.10417604	-0.71381897	-0.0760348	-0.021497676	0.02889648	0.15119818	0.21346645	-0.10303857	-0.099039905	-0.280511	0.22756638	0.24596168	-0.03475155	0.113530345	-0.9042036	-0.49304038	1.0145458	-0.003387169	0.40313998	0.2391911	-0.96756995	-0.00797061	-0.014392641	0.02771616	-0.22025122	1.2526021	-1.2971046	0.30108055	0.9104304	-0.22197595	0.4066351	1.2913353	-0.7147592	-0.062469337	-0.21529372	0.09040934	1.5671	0.33086982	-0.18690047	0.36595812	0.23038499	0.6143323	-0.15961976	0.65107286	0.05070675	0.124633364	0.98945296	-0.86685073	1.4688709	-0.30294344	0.08478234	1.0546048	1.2788256	-0.14896773	-0.98696285	0.44859537	0.4703949	-0.6996788	0.81810814	0.60740995	-1.5079325	0.37257543	-0.6343547	0.5390164	-0.044710137	0.33124614	0.92608315	1.2721237	-1.051309	0.010912233	0.78638226	-1.7708886	-1.0164421	-0.21747105	0.38521963	0.69386697	1.0472703	-0.03574419	-0.40459672	0.34496176	-0.03693628	-0.34457138	1.1010184	0.5596834	0.09235111	0.9607069	0.82250273	-1.2451906	0.51939	0.18962161	-0.30461785	1.106957	-0.14135772	-0.09248858	-0.84108585	0.637575	0.029447732	0.16199273	0.34269965	2.3123817	-0.5023731	0.5929556	1.0356894	2.1429265	0.35494664	1.2716023	-0.24812244	-0.50362927	-0.10991726	0.10295708	-0.12408811	-0.17220062	0.5392644	-0.63461083	0.08448509	-0.11029911	0.024192275	-0.9510722	-0.4643485	-0.33167595	0.1196681	-0.26376963	-1.1876966	2.0038958	0.031987365	0.55161226	-0.2842237	-0.43868735	-0.0039893207	-0.623661	0.6049231	-0.4250687	-0.042936012	0.18482484	1.3132505	0.5149234	-0.45097598	0.5284069	-0.8204588	-0.012954443	0.7957203	-0.38722697	0.045468926	-0.13722256	0.41759738	-0.75290316	0.29011503	-0.6636835	-0.053895783	-0.31749812	-0.39243189	0.28818697	0.77497596	-0.6436838	0.36650956	-0.2701269	-0.7672883	0.38500848	1.1420206	-0.58422893	0.19741239	0.13270408	-0.620385	-0.3169322	-0.16351138	-0.020870257	-0.45089027	1.2495522	0.27753827	-0.58402574	-2.2289693	0.9516752	-1.3654306	-4.3399553	-1.6093009	1.805667	1.1711195	-2.4917598	0.703418	1.0400964	0.49314812	0.39077187	-3.3119986	1.0781553	-0.1634773	1.2480255	4.207756	0.78860897	-1.7565893	1.2382256	0.2690061	-8.1412	-0.020003818	0.8144263	0.6354409	0.7469228	1.6327999	-4.114157	0.7520559	0.37909248	-0.1619306	-5.1591516	0.17676353	2.0128314	4.2808733	0.74674344	1.1749746	-2.4240437	0.16876055	-0.29863435	0.36065853	-0.063089736	0.8282387	0.17205225	0.40007618	0.08243553	0.42444614	0.20720074	-0.18886484	0.34611756	0.17725807	-0.04877656	0.08979929	0.26978335	0.39065793	-0.09238811	0.5548376	-0.16769476	-0.7108449	-0.0028994554	0.09770875	-0.06314737	-0.026058914	-0.10459261	0.86900413	-0.34962013	0.17140332	0.19971763	0.5763907	0.24152422	0.27520174	0.46928307	-0.24893506	-0.020145457	0.8988428	-0.22574382	0.30710593	0.40294623	0.31046927	-0.08690421	-0.5387977	0.47729215	0.055283297	-0.12747937	-0.39991596	-0.27512094	0.9751783	-0.079067305	2.3907225	0.27378556	0.052123744	0.36388958	0.6919152	-0.42542952	-0.17717257	0.21076404	0.45407724	-0.64971685	-0.15178213	0.5723759	0.14145184	-0.3663742	-0.09472811	-0.17456207	-1.513945	-0.081086345	0.93729025	-0.29158762	-0.032215696	0.5771118	0.45560572	0.6867302	-0.49491993	0.6911025	0.00931833	0.72016096	1.6038032	-1.010143	-0.6619777	-0.44795263	1.8007419	-0.7608502	-0.7116472	3.0017688	-0.87492996	-2.006944	-1.0962029	2.0607622	-0.5699207	-0.46655238	-1.1870522	0.099423535	1.2068354	0.69793445	-0.04433378	-0.556697	-3.1648505	-0.11740105	1.1809062	-0.5497679	-0.3836975	5.1319957	-0.6268552	-0.35502774	-1.4070153	-0.21352588	-0.6672226	3.8400693	-0.7307066	0.91915345	0.024079403	3.6930492	-0.022288917	-1.1387011	-2.84407	-0.60172987	-0.7413205	1.1097718	0.04201578	-0.67003083	0.27639645	0.49774987	0.25421512	0.29199982	-0.10555701	-0.3475484	-0.2922774	-0.6393003	-0.0682564	0.6916108	-1.6884915	0.28273195	0.29527125	-0.85973233	0.098736	-0.7819377	-0.7142905	0.2980506	0.32995087	-0.36260936	0.43524134	0.16982475	-0.54159623	-0.4164575	-0.38127774	-0.5618991	-0.39228588	0.355276	-0.28979075	0.41632402	0.7547704	-0.3681592	0.026657727	-0.17003772	0.0014265076	0.26585403	0.38727257	0.440804	0.80609167	0.06457023	-0.42821175	0.31450263	-0.2038607	-0.14085457	1.3862967	1.0081547	0.0716301	-0.5741429	0.279363	0.38010672	-0.05208037	0.39518118	-0.6853694	0.55140084	-0.1005432	0.4007711	2.33217	-0.49330008	-1.4332411	0.32552502	-0.24669346	-3.3157995	-0.2574352	-0.08521108	0.11760228	0.13886492	0.17130639	-0.87475693	0.03697957	0.0700177	0.17511946	-2.1474984	0.04967317	0.2800688	1.3267598	0.09531488	-0.16328447	-0.31272504	-0.19861029	0.16642044	0.3066431	0.040004037	0.052981056	0.12621704	-0.34924072	0.28595784	1.8715254	-0.04336208	1.9446216	0.5334742	-0.7179089	0.32337713	-0.20066924	-0.37734967	-0.093026556	3.3009686	0.19762224	-0.045383252	-0.44978368	-0.4113608	0.28157565	-0.52758735	-0.6452165	1.9273037	0.54471743	0.065165915	3.0156274	0.6540907	-0.024877721	0.5937894	0.9423868	-0.7440772	0.51911485	-0.54314053	-0.009216326	-0.19647075	0.4443028	-0.6800063	1.63143	0.080652714	0.14366204	-0.09311963	1.2538185	0.32454738	-0.66352195	0.69268125	-0.027368896	-0.35755172	-0.4435124	1.1678112	-0.49349552	-0.37847137	0.471811	-0.77696806	-0.28713223	0.9049018	0.3657734	-0.054701593	-0.4908831	0.7949073	0.28748974	-0.5495935	-1.0889729	0.17196639	0.17308804	0.55869126	0.12507257	0.95744085	0.017538633	1.0941162	0.552451	-0.1929655	-0.12840888	-0.32037395	-0.03042482	-0.41446593	0.83649796	-0.5669454	1.7380478	0.3014318	0.0008728445	0.27158248	-0.74422634	-0.5018816	-0.030302564	0.18584546	-0.20040585	0.6888234	-0.07591123	0.15769583	0.8892795	-1.166579	-0.16533633	2.0046797	-0.72353715	0.22003958	0.4368294	-0.08572231	-0.6534602	0.2423889	0.25512016	-0.62104005	0.030121101	-0.092357345	-1.1603417	-0.019479405	-0.0616079	-0.8402352	0.6036965	2.7021606	-0.50954473	0.1131831	1.0649908	-0.17076978	-0.33945936	0.5851932	0.18529893	1.4346207	0.3273424	0.60385793	-0.04288882	-0.29370996	-0.64450294	-0.4587627	0.18371886	0.0850404	-2.2434552	-0.2801126	3.4351609	1.2461153	-0.429579	-0.07204791	-1.5114378	0.811491	0.39157912	1.582307	1.0286351	1.6902617	-0.5135273	0.86814076	0.940366	-0.99003834	0.29016685	0.7597195	-0.12163321	0.34162998	0.6480498	-0.892965	-0.09665404	-0.7632095	0.5720827	0.92612964	1.1570822	-0.30612794	-0.18392049	0.2494191	-0.7950654	0.4466731	0.3642329	-0.41703647	0.3005742	1.0246502	1.73452	-0.26553842	-0.6438608	-0.44607905	-0.62137455	-0.53483766	0.6965514	0.5997483	-1.8860031	0.7931469	0.044364236	-0.034439072	-0.35701707	0.26785636	-0.97188	0.63255686	0.16171624	-0.6292891	1.1797826	-0.42595503	-1.5221757	-0.07808636	0.40451443	0.6945672	0.46683073	-0.0042829444	-1.1412009	0.30698687	0.75483423	-0.9294328	1.3410139	0.05277849	-0.14445329	1.1045457	0.91360646	-1.4067228	0.99317694	0.818827	0.82178396	2.5829723	0.773825	0.83596987	-0.9922489	0.92937887	1.59025	0.39601287	1.8324811	1.571635	-0.86052144	3.8699613	0.05025822	-0.67276216	-0.03350606	8.21456	-0.9914044	-2.4972801	0.27405295	-0.3548738	0.038589023	1.0332655	-1.1785606	0.3811573	-1.2056956	-1.1522493	-1.6082615	1.5003109	-1.3211911	0.8474114	1.304654	-0.62481993	6.6015496	-1.3194416	-4.9785525e-05	-1.3791308	1.2961822	-0.974983	2.0848677	1.3651713
0.4982275	-0.5363394	-0.06930282	-0.7957844	0.41221905	0.2577106	-0.26011205	0.27789018	-1.7895651	0.044819746	0.20931308	-0.9134743	-0.6144115	0.7792867	0.31839582	-0.08228779	0.17210692	-0.7972198	0.40894786	-0.38107926	2.3931136	-0.0038753222	0.22428131	-0.27908593	-0.47262973	-0.29102945	0.30897522	-1.1101457	-0.024441635	0.21434933	-0.76148546	-0.004785688	-1.7303665	0.11749014	-0.3551183	-0.3733459	0.25093552	0.13412985	-0.76279753	-0.59840566	0.53271574	-0.6368668	-0.11816067	-0.86850446	0.5592915	0.44635144	-0.21948649	0.39784205	-2.3210738	0.028070873	0.30954364	-0.98116595	-0.6369038	0.08192828	0.37709352	0.08157093	0.13066736	-0.74412686	0.58598757	-0.3377134	2.2789247	-0.0003435014	0.31913772	-0.27372006	-0.48415935	-0.31163365	0.25835958	-0.73649496	-0.006684583	0.35759062	-0.5247892	-0.004663129	-1.7373413	0.12307139	-0.50595844	-0.26857105	0.2740202	0.1555771	-0.7924168	-0.56740785	0.51546675	-0.7292419	-0.13529578	-0.8558327	0.44298214	0.5025387	-0.18816763	0.5565049	-2.452512	0.006117693	0.38452095	-1.0422319	-0.6366582	-0.26026487	0.5060628	0.109005846	0.1209787	-0.7325093	0.47963676	-0.30515632	2.2215352	0.010452521	0.46832913	-0.26415536	-0.49081206	-0.2971191	0.2307731	-0.36221433	0.02030198	0.5068465	-0.38808647	-0.0011277125	-1.7347776	0.15198608	-0.61288804	-0.18677133	0.2913088	0.17695497	-0.8281968	-0.5284975	0.614855	-0.7230448	-0.14561003	-0.8106897	0.5303557	0.59382135	-0.19343731	0.576451	-2.6068685	-0.023231326	0.39908543	-1.0201639	-0.704245	-0.4481487	0.4989112	0.06331379	0.16327724	-0.7423905	0.5109138	-0.29871172	2.131326	0.027195372	0.49560475	-0.26877266	-0.4807116	-0.26695347	0.27135953	-0.060637843	0.019618535	0.43133774	-0.41564047	-0.016546717	-1.7394773	0.1549666	-0.5813994	-0.19014783	0.31648937	0.19109741	-0.8573468	-0.54661244	0.6519932	-0.74917275	-0.14882018	-0.73291636	0.7277668	0.5017189	-0.17259985	0.5433284	-2.7204115	-0.04211533	0.41514435	-1.0660889	-0.82773167	-0.739159	0.51823026	0.0033947853	0.1677133	-0.7329687	0.40454423	-0.28674033	2.0279248	0.030287035	0.4855981	-0.30326337	-0.4565888	-0.22342102	0.2428377	0.2993274	0.009300207	0.45451868	-0.28063	-0.031229539	-1.7659332	0.15703379	-0.57180893	-0.18900317	0.36949423	0.2649128	-0.9117689	-0.48708728	0.5926637	-0.77704	-0.122435026	-0.6079342	0.62264204	0.5296038	-0.1567053	0.4213151	-2.858512	-0.036021076	0.45465812	-1.0715034	-1.0130343	-0.9051871	0.59650326	-0.14578195	0.16530691	-0.7761372	0.6489293	-0.29325408	1.9116185	0.03363776	0.4737577	-0.3371724	-0.40628013	-0.14992523	0.28897792	0.8633585	0.040836465	0.35263512	-0.2520402	-0.037149794	-1.7592508	0.17473975	-0.5582607	-0.1645178	0.44438094	0.35553557	-0.97884643	-0.4460833	0.5296274	-0.7477461	-0.12520918	-0.41628665	0.654934	0.6211169	-0.16230142	-0.1603593	-3.015074	-0.0029379532	0.4542396	-1.0930444	-1.3251421	-0.9685071	0.7347889	-0.33470443	0.20798425	-0.7771255	0.49261317	-0.3228521	1.7876151	0.050258234	0.20197964	-0.43366256	-0.35421842	-0.06896932	0.30127257	1.4903065	0.038776677	0.5423272	-0.14804673	-0.034783836	-1.8040007	0.16627924	-0.42427433	-0.2154826	0.5461326	0.50832355	-1.0957018	-0.362999	0.69516605	-0.79193944	-0.013363798	-0.28138366	0.7244688	0.6016708	-0.13354419	-1.862133	-3.1733577	0.042154886	0.49773264	-1.106555	-1.7217829	-0.8975366	1.0473435	-0.63508296	0.20087391	-0.95419544	0.6429433	-0.3235989	1.7196726	0.057419024	-0.38760602	-0.46039897	-0.1694431	-0.022470845	0.18778971	1.9428773	0.40369925	0.40539488	0.072253324	0.20955789	-1.8414768	0.23659419	-0.17715427	-0.37539992	0.5392005	0.77468127	-1.0517182	-0.16250007	0.7569672	-0.8070422	0.13857518	-0.347624	0.6925212	0.7956419	-0.1107193	-5.7358203	-3.1383877	-0.022677463	0.41111594	-1.0896709	-1.8529205	-0.8141499	1.0595598	-0.95328885	0.21763466	-1.2302582	0.8467562	-0.24215743	1.7770755	0.06759596	-0.71014774	-0.39271405	0.1910715	-0.11544955	-0.07748949	1.366112	1.409384	0.72997695	0.37484646	1.082484	-2.1643603	0.44999397	0.44955686	-0.8444474	0.4285531	1.0331779	-0.6614311	0.091369025	0.84010947	-0.799309	0.2042374	-0.628206	0.9703813	0.6746777	0.032595832	-7.7876697	-3.0557683	-0.029410006	0.27790698	-1.0524224	-1.5202826	-0.76473105	0.17792913	-1.0000867	0.19617264	-1.2843401	0.9411526	-0.130978	1.8780556	-0.039886348	0.92050755	-0.4748942	0.36231643	-0.102920964	-0.19652998	0.981117	-0.30010518	0.89992136	0.6021148	0.65567046	-2.678975	0.3476708	0.8822418	-1.1515446	0.6118534	1.128996	-0.2840229	0.19476049	1.1420387	-0.8140885	0.26511452	-0.74052745	0.85701	1.0357536	0.102524504	-8.279052	-3.0109136	-0.04154549	0.19737494	-1.0104275	-1.1919984	-0.53452283	-0.16340482	-1.0375894	0.20532894	-1.2759612	0.88665026	-0.13621958	1.9478525	-0.24775273	1.7899204	-0.48458502	0.42946133	-0.05375961	-0.24195246	0.78270876	-2.3936317	0.8880308	0.6809972	0.033042964	-2.7842972	0.22658426	0.98770905	-1.3045368	0.6677508	0.9658417	-0.17116447	0.24018075	1.1554576	-0.7999265	0.2785764	-0.7653364	1.010387	1.1502668	0.17441268	-8.284518	-3.0040133	-0.03068242	0.21712823	-1.0995073	-1.2483901	-0.56193644	-0.2284509	-1.094876	0.16233322	-1.3340319	1.0767092	-0.08939404	2.0130525	-0.106441125	2.2092311	-0.61820984	0.43106446	0.0010818572	-0.2812361	0.44707206	-6.1416087	1.055687	0.8502117	-0.80454814	-3.1204872	0.114923745	1.2027682	-1.3042002	0.7649055	1.2424473	-0.071259394	0.2092065	1.1776997	-0.7510172	0.35589394	-0.93308806	1.3908807	1.1931345	0.2169528	-7.732994	-3.022161	0.0018395776	0.14239752	-0.9752204	-1.2077668	-0.49156207	0.28694522	-1.2329808	0.18057683	-1.401539	1.3293368	-0.050801087	2.0288649	-0.20306168	2.359389	-0.6688214	0.5219753	0.035133746	-0.41906703	-0.1628369	-11.004092	1.3423494	0.9997269	-1.8015182	-3.2380667	-0.028040674	1.4605641	-1.5479405	0.78821486	1.2761501	0.19570896	0.29817024	1.4519134	-0.82440764	0.48232654	-0.9009867	1.3244874	1.5016422	0.27511358	-6.0628734	-2.955196	-0.043537434	0.080842495	-0.97044796	-1.0709841	-0.09891814	0.6189469	-1.4058223	0.13047102	-1.5106366	1.3966941	-0.09375946	2.1757598	-0.34064558	2.480661	-0.6642847	0.5900133	0.12391774	-0.5419206	-0.77597296	-13.262521	1.405049	1.126615	-2.2976663	-3.1875598	-0.081604935	1.5537403	-1.6643686	0.8419993	1.2210474	0.2132643	0.42557654	1.4159979	-0.77679724	0.5195345	-0.8468605	1.5470088	1.4766436	0.23973326	-3.3537636	-2.9574132	0.011526142	0.082857415	-0.9197561	-1.2101835	-0.0869968	0.963998	-1.5687983	0.1632355	-1.6545968	1.4108272	-0.11905751	2.157731	-0.22863546	1.9430604	-0.6144969	0.63303596	0.09391526	-0.627759	-1.4714557	-6.5030146	1.2979854	1.1129543	-1.1698884	-3.185835	0.08099387	1.792402	-1.8421223	0.83660984	1.3133307	0.29000667	0.44440824	1.3592757	-0.7376391	0.41930434	-0.8204512	1.3442897	1.1528931	0.1453344	-0.39320883	-2.408475	0.21262248	0.41071877	-0.49848342	-1.3139963	-0.11624776	1.0737462	-1.6710993	0.16912006	-1.7307587	1.2940195	-0.2278472	2.4608457	-0.371257	1.3760184	-0.29495618	0.75024456	-0.115752414	-0.80055606	-1.7629882	-1.475039	1.1390456	1.0804267	0.23412599	-2.8536868	0.3496057	2.0622349	-2.395764	0.73912597	1.2321869	0.2631792	0.74828804	0.40503815	-0.5432271	0.14341111	-0.41470122	0.34170273	0.38886565	-0.25094077	0.27124518	0.1453257	0.011942893	-0.033616394	-0.64986795	-0.4308296	0.23411106	0.336135	-1.2305902	-0.2781336	-0.5904877	0.39654863	-0.16584735	0.352545	0.23401701	0.25631836	-0.33211726	-0.9151062	-0.07698277	-0.2345301	-0.71291673	0.06814537	0.22994228	0.15883397	0.089558	-1.2528654	0.27196875	-1.1696737	-0.6783063	0.115640655	-0.1057768	-0.26516494	-0.9730494	0.38198268	-0.6678778	-0.044560995	-0.489291	0.2637988	0.39123443	-0.18569279	0.24392541	0.12356056	0.023211142	0.069238104	-0.9974865	-0.31695294	0.40409213	0.30242047	-0.8209444	-0.12365622	-0.48644426	0.25223804	-0.2901588	1.2927978	0.34551093	0.2929953	-0.361538	-1.0205718	-0.1556468	-0.31396145	-0.88655597	0.06862954	0.24354568	0.4189709	0.07917637	-1.446551	0.23949671	-1.0856347	-0.41508505	0.100579865	-0.06060784	-0.6734651	-0.98417974	0.27818894	-0.7516719	-0.1881944	-0.5939811	0.38552207	0.35084638	-0.13472028	0.15637936	-0.4450902	0.025525508	0.30740133	-1.205747	-0.27795753	0.86750513	0.19791062	-0.26735353	-0.029778177	-0.43025994	0.23014641	-0.39707956	2.3890872	0.2890424	0.26439676	-0.34342024	-0.9777824	-0.2891337	-0.3193786	-1.0592355	0.048192043	0.122150086	0.4985326	0.042182036	-1.6125884	0.15443224	-0.9578596	-0.24122958	0.104993775	0.015026031	-0.9722169	-0.87673646	0.40485406	-0.70641524	-0.23115489	-0.7465517	0.3667857	0.28593704	-0.15488373	0.15634222	-1.3385715	0.026657416	0.39952242	-1.1526264	-0.38443282	1.092492	0.2260356	0.053190567	-0.0077462792	-0.480332	0.41565636	-0.4141753	2.7279258	0.2129396	0.23252748	-0.35181567	-0.8391693	-0.38423923	-0.15230891	-1.1330965	0.023440825	0.12769413	0.2083706	0.024687178	-1.7764058	0.11944419	-0.7775855	-0.19771944	0.1493525	0.11637511	-0.9799152	-0.80169374	0.30057022	-0.7758921	-0.27682394	-0.8422063	0.40933603	0.36336875	-0.13007711	0.20805936	-1.9152867	0.037523918	0.4503703	-1.1801033	-0.426776	0.92473596	0.3079463	0.20305297	0.06940278	-0.49697593	0.48684615	-0.3922563	2.7028658	0.25026038	0.26142368	-0.34441355	-0.8218323	-0.43684363	-0.18302378	-1.0813638	0.023438025	0.2746364	0.29333067	0.01621692	-1.8656127	0.10327287	-0.7147035	-0.1663328	0.16912746	0.17109327	-0.93260455	-0.7593444	0.49303955	-0.91573864	-0.28876892	-0.9514577	0.38824022	0.5292498	-0.059573695	0.19623402	-2.429415	0.037899777	0.61333805	-1.3234025	-0.44140422	0.5818764	0.3013746	0.31759313	0.04402067	-0.4700163	0.5503069	-0.35727143	2.559398	0.20233366	0.2478911	-0.33579805	-0.78790367	-0.49999234	-0.28589883	-0.9600736	0.022299564	0.33016002	0.60023135	0.0086118905	-1.8913319	0.07775218	-0.792837	-0.09883803	0.17582259	0.25432023	-0.89405066	-0.63393474	0.5228891	-0.9586838	-0.23267253	-1.0474067	0.5160517	0.6922539	-0.039862152	0.2616276	-2.9199224	0.03684449	0.6596308	-1.2985909	-0.6216422	-0.13746335	0.36591828	0.27548692	0.062617585	-0.5634828	0.69901747	-0.28346673	2.182648	0.17640957	0.2383858	-0.32082862	-0.6645114	-0.51251256	-0.26810572	-0.7354096	0.019933697	0.45129785	0.6580653	0.006779538	-1.8766562	0.089578	-0.7013998	-0.17474079	0.25382867	0.35417494	-0.74687856	-0.5454258	0.6986999	-1.0498773	-0.10411879	-1.0014597	0.6350662	0.60091186	0.014696324	0.326611	-3.1577873	-0.012365481	0.70163053	-1.3216302	-0.9070643	-0.76338106	0.44930232	0.116613105	0.039069165	-0.697725	0.6393905	-0.20264862	1.8994119	0.14837018	0.24793562	-0.33720484	-0.53146505	-0.43387014	-0.28257686	-0.1390546	0.03344589	0.522337	0.7946722	0.012998898	-1.7773443	0.1484983	-0.71584463	-0.21604483	0.42933273	0.50945777	-0.7209656	-0.3943108	0.66298795	-1.1365553	0.12455142	-0.506376	0.5644181	0.57704175	0.09240881	-0.84919834	-3.4349391	0.030217921	0.78397065	-1.3622175	-1.6957422	-0.8040921	0.7255736	-0.4925707	0.015928252	-0.9337328	0.5865182	-0.24214318	1.6446109	0.20150541	-0.2815783	-0.51784587	-0.37537244	-0.18985589	-0.31120545	1.0060365	0.19129969	0.5862341	1.0591536	0.11144695	-1.6118879	0.24514958	-0.6127135	-0.2841735	0.90060663	0.914703	-0.99884737	-0.17067447	0.6988577	-1.1966753	0.22815266	-0.39570445	0.7664772	0.6401708	0.10874299	-4.0430636	-3.472386	0.02613	0.8144738	-1.245194	-2.099772	-0.78951555	1.2943236	-0.8135291	0.022087727	-1.1357145	0.56411785	-0.23350552	1.6294222	0.20802425	-1.0238094	-0.52815014	-0.16549882	-0.1905426	-0.4314895	0.67042047	1.1186146	0.70072305	1.1949509	0.7082646	-1.6500407	0.3440108	-0.3375651	-0.47805157	1.2011051	1.1515832	-0.88080484	0.044292923	0.69206583	-1.1613208	0.22289228	-0.34818575	0.70491046	0.79259074	0.10385772	-5.513133	-3.4029086	-0.001224964	0.72413737	-1.2282786	-2.0451105	-0.6745118	1.1979636	-0.9597729	0.059882026	-1.1489941	0.7224053	-0.23829685	1.6484202	0.22584742	-0.92752045	-0.5081991	-0.12868229	-0.20075887	-0.48875707	0.35586047	1.4974241	0.77042985	1.2426037	1.0942117	-1.7384573	0.42321116	-0.15116714	-0.6259539	1.3122959	1.1036637	-0.8200643	0.0364044	0.71238285	-1.2607708	0.36261022	-0.67924696	0.7751178	0.8074627	0.20092659	-6.836809	-3.3828619	-0.007988396	0.6821981	-1.1709936	-1.781407	-0.56330997	0.91606176	-0.86917824	-0.080406144	-1.3191915	0.78488386	-0.16732855	1.7232581	0.13627048	-0.28567612	-0.4318188	0.028790968	-0.25528067	-0.6357808	0.09939367	1.0477555	0.6645979	1.3372991	1.170333	-1.8549755	0.46408957	-0.036454707	-0.77047914	1.4297181	1.1566467	-0.5043085	0.19583493	0.88127804	-1.0996333	0.25877923	-0.67143774	1.0350078	0.9905649	0.24106574	-7.7700057	-3.3098927	-0.023818523	0.5349393	-1.2532277	-1.4974072	-0.58402157	0.8007153	-0.82119066	0.027261237	-1.1390487	0.8759047	-0.16765727	1.7839084	0.02446652	0.97869736	-0.57297766	-0.014467484	-0.17315315	-0.5448047	-0.4207363	-2.7649064	0.90916145	1.330889	-0.0694073	-2.2141137	0.1943827	0.23162119	-0.90679044	1.6542698	1.0894288	-0.5314231	0.12781325	1.2191415	-1.080667	0.36112174	-0.87702274	1.1137081	1.1718786	0.2809996	-7.2748003	-3.3142145	-0.041983955	0.43661046	-1.0943745	-1.3014389	-0.3519351	1.8167471	-0.91739976	-0.0132864695	-1.2308829	1.2011672	-0.17049167	1.8387038	-0.13194725	1.29383	-0.5920169	0.08831506	-0.11821716	-0.63766015	-1.3112705	-9.130816	1.1883155	1.375582	-1.4218329	-2.3093407	-0.0062156464	0.47338277	-1.1148585	1.7022185	1.050739	-0.29697472	0.22017907	1.2657142	-0.9718765	0.4439277	-0.7543215	1.4003752	1.1358117	0.28602377	-4.629645	-3.2432098	0.022529159	0.34593463	-1.0054165	-1.5634557	-0.35906112	2.083769	-1.2830192	0.055423725	-1.419543	1.3180975	-0.16670227	1.8568887	-0.14380848	1.2030004	-0.608602	0.30434546	-0.07463812	-0.72696126	-1.7359985	-6.8164773	1.0132428	1.4274725	-0.9891923	-2.496811	0.06659061	1.0195394	-1.5132877	1.7860616	1.2693137	-0.16097847	0.41165283	1.177739	-0.7152742	0.38726157	-0.7559412	1.2435601	1.1231085	0.14453132	-1.3489939	-2.562323	0.2648481	0.37149101	-0.3800835	-1.6400528	-0.34254986	1.2275863	-1.5815276	0.1623232	-1.502943	1.1373539	-0.22483128	2.3008208	-0.35305122	1.3133988	-0.36127263	0.5764336	-0.18666133	-0.869364	-2.0282414	-2.6692572	1.0361838	1.3648919	0.6214381	-2.3666532	0.35702148	1.6521704	-2.3788385	1.4868886	1.0883305	0.0069932546	0.67709976	0.03377516	-0.7346258	-0.042710125	-0.25447494	0.19235648	0.28422812	-0.36527297	0.20211592	0.032251287	0.002874719	0.22795823	-0.21973968	-0.42215386	0.12710913	0.32851797	-1.1572247	-0.69888514	-0.5910194	0.12644869	-0.056229774	-0.13857482	0.35609022	0.18902977	-0.14715765	-0.6596669	0.019036751	-0.13550945	-0.48841065	0.0017148963	0.21406507	-0.040681917	0.005744001	-0.8236246	0.16485405	-0.9836142	-0.979296	0.12166608	-0.1921033	0.11002501	-0.31917542	0.19774522	-0.44686446	-0.053047046	-0.38713357	0.351087	0.16837516	-0.24416175	0.13857172	0.052770823	0.015547401	-0.09079123	-0.5532549	-0.3289925	0.10900688	0.19265796	-0.9514477	-0.34089747	-0.43499863	0.2257269	-0.093079515	0.13939852	0.07057416	0.16691422	-0.23241274	-0.14112556	0.02245219	-0.41215184	-0.48238248	0.045894198	0.15876041	0.32219625	0.041810628	-0.9256931	0.16226436	-1.1371151	-0.87093085	0.079002425	-0.3254582	-0.0959766	-0.7724304	0.21994253	-0.3575688	-0.39710692	-0.4766641	0.052988242	0.16600867	-0.2561301	0.11212388	0.022237284	0.027512664	-0.001807405	-0.7942722	-0.19224213	0.15538764	0.1595865	-0.6680369	-0.33058897	-0.41306552	0.2806437	-0.16609833	0.5855004	-0.1168959	0.18393438	-0.18026564	0.3161442	-0.043543927	-0.5234548	-0.55902	0.032092404	0.24310632	0.48448205	0.020148367	-0.87777996	0.11288688	-1.1255572	-0.64428896	0.05628175	-0.212186	-0.31561995	-0.7768555	0.1736286	-0.30319014	-1.1722419	-0.22174424	0.041257177	0.065662116	-0.42057434	0.12039619	-0.290745	-0.002956017	0.26706007	-0.72704285	-0.25888905	0.33266705	0.13854791	-0.4463151	-0.3490583	-0.69423795	0.19229224	-0.1950441	0.9851114	-0.36155874	0.15745673	-0.02989466	0.5183045	-0.5179119	-0.3780697	-0.575463	0.030941056	0.09206543	0.5049811	-0.008087875	-0.7343855	0.06459353	-0.91720194	-0.20289388	0.10719217	0.10519337	-0.20203032	-0.6453874	0.18214272	-0.47745168	-1.248555	0.34536052	0.1327249	0.20312284	-0.48815292	0.1619646	-0.34957126	-0.07643559	0.33155167	-0.5988174	-0.1943791	0.26358256	0.15060401	-0.60359806	-0.13417941	-1.2190255	0.2447429	-0.21589004	0.48894557	-0.40162596	0.076364376	-0.07756313	0.38475114	-1.6613578	-0.34932935	-0.3431428	-0.013568301	0.21202925	0.56635267	-0.04871323	-0.19284381	0.124202475	-0.877226	-0.05061133	0.20601524	0.17515837	0.22435144	-0.5899146	0.24277474	-0.54567647	-0.57070225	0.6190951	0.35500318	0.37533152	-0.2927755	0.08081934	-0.06436789	-0.07765548	0.20429748	-0.8242909	0.078137755	-0.08410892	0.09200154	-0.7291703	0.30219072	-1.5215349	0.2663178	-0.20971878	0.16340856	-0.40476108	0.07315649	-0.7122191	0.029185256	-2.0445888	-0.5046373	0.044489104	-0.053625353	0.36225402	0.7285635	-0.25761503	0.2827209	-0.09328451	-0.952463	-0.09192462	0.35317737	0.13328807	0.30958918	-0.94982094	0.3842794	-0.2255064	-0.11020937	0.5560518	0.46674827	0.47920415	-0.07577045	-0.4337867	-0.22381122	-0.09741142	0.25027922	-1.0275029	0.19183949	-0.11554349	-0.10998758	-0.5975094	0.60332197	-1.382046	0.5373683	-0.17054659	0.19122148	-0.8432863	-0.04323078	-1.6241885	-0.31667438	-1.6155124	-0.60665494	0.42275375	0.06420128	0.52518624	0.93114996	-0.5831757	0.5281673	-0.9681421	-0.936045	-0.050076444	0.55144256	0.16301738	0.057554066	-1.3662149	0.66420233	-0.077273265	-0.23476192	0.55156106	0.6686807	0.5505584	0.011514793	-1.2555056	-0.089089	-0.08629415	0.56999505	-0.8794503	0.21620433	-0.64420444	0.05415937	-0.5913417	0.63354826	-1.4226863	0.3629119	-0.12387429	0.15397905	-1.2490336	-0.10348322	-2.2529538	-1.2589526	-1.3438728	-0.5453978	0.37908965	0.8472594	0.6538533	1.1329736	-0.4139558	0.4967585	-2.240507	-0.36234435	0.1573698	0.72172576	0.40168372	-0.032379527	-1.4468172	0.10901722	-0.29441497	-0.05091491	0.64290625	0.2758341	0.20369217	0.12388707	-1.1012688	0.025053	-0.070545465	0.47373262	-0.5081573	0.015629347	-0.16655281	0.24864884	-1.3366568	0.5875471	-1.576339	0.27062458	-0.057006087	0.02569054	-1.2916543	0.048477653	-2.8374555	-2.2866101	-1.2200159	-0.6291681	0.505042	2.1324449	0.15079498	1.592133	2.243103	0.59849495	-2.8549569	0.12014354	-0.0039572273	1.1133589	0.5101045	0.21532118	-0.9041272	0.17895062	-0.3405269	0.5515104	0.8793644	0.2585688	0.19556981	0.37147	-0.864251	0.11915327	-0.037966654	-0.08177254	-0.59914184	-0.38381177	0.276564	1.4093565	-2.0336375	1.0054549	-1.4310647	0.2011067	-0.045621026	-0.112361975	-1.4136363	-0.31041622	-3.617928	-2.5087233	-0.96298707	-0.6684418	0.24737905	-1.8091849	-0.116051145	2.191357	3.0387769	0.48784798	-3.321425	-0.07076702	0.01934819	1.542368	0.4222268	0.2868518	-1.0789028	0.43994617	-0.14327288	0.6573736	0.90902853	0.42965493	0.27666172	0.35059765	-1.2325622	0.24109682	-0.052425213	-0.31909907	-0.6450423	-0.19298281	0.6451692	1.9857477	-2.040789	1.1269815	-1.2909257	0.3345909	-0.17522484	0.048178248	-1.5435029	-0.7263102	-3.6377704	-2.513033	-0.921435	-0.80662394	-0.37514615	-3.4489942	0.07628321	2.2597578	3.1693301	0.6950084	-3.4493632	-0.051191967	-0.17221795	1.3559513	0.17556448	0.12579887	-1.2954609	0.49749187	-0.07513127	0.2349778	1.1771096	0.4113936	0.5132211	0.15126128	-1.2503641	0.23391862	-0.09396231	-0.16377673	-0.74202824	0.029990006	0.76514316	2.55479	-1.8980864	1.1025449	-1.3495792	0.50178003	-0.35395196	0.09838711	-1.6021447	-0.9311923	-3.4495735	-2.7282672	-0.9241872	-0.6986256	-1.0822937	-5.562727	0.15572283	2.1186984	3.2433906	0.65822923	-3.6390572	0.4686894	-0.17906548	1.1855495	0.27645993	-0.21824515	-1.2274173	0.5910249	0.1897119	-0.67510104	1.270246	0.66065294	0.58821946	-0.18866411	-0.7749647	0.15984477	-0.0680421	0.10567692	-0.47875077	-0.041099135	0.1580311	2.33479	-1.6619135	1.1196728	-1.3604703	0.7695075	-0.31601915	-0.09777825	-1.4893825	-0.68793744	-3.3381965	-3.0682108	-1.010354	-0.47109962	-1.7026635	-7.246726	0.19108014	1.67514	3.186833	0.27528986	-3.9492688	1.1453243	-0.110616215	1.1783093	0.7568014	-0.035372395	-0.9398991	0.69303834	0.08584282	-0.97641164	1.7276325	0.8189449	0.5747263	-0.2701716	2.2038605	0.24227008	-0.1804019	0.0724778	-0.19085859	-0.41576755	-0.08884799	2.1202114	-2.109056	0.98149437	-1.7183664	0.829126	-0.23237535	-0.25477397	-1.0139081	-0.616871	-3.3381367	-3.6829302	-1.0430994	-0.34390697	-1.9801648	-7.595697	0.3836342	1.511191	3.3903341	0.22606893	-3.7520828	1.4026943	0.12527403	1.4374278	0.95027447	0.13895099	-0.69232243	0.8716443	-0.17185597	-0.5146937	1.9651405	0.6551489	0.6783756	-0.14790818	5.03527	0.3598716	-0.094772175	-0.15302329	-0.5700493	-0.79020953	-0.5345196	2.1514423	-2.3677235	1.1992598	-1.5735515	0.8461138	-0.22248025	-0.34435353	-0.3958951	-0.95267	-3.6389396	-3.9763532	-1.1728591	-0.44551393	-2.123391	-5.5775785	0.5760018	2.0911214	3.7200747	-0.42511848	-3.5868526	1.7308421	-0.3114116	1.532786	1.0583624	0.088060625	-0.48856342	0.82501155	-0.46959668	0.5798004	0.87944305	0.8172651	0.911556	0.17944922	4.2532983	0.5883057	0.004277189	0.20513792	-0.38181043	0.15582329	-0.49128515	1.0555979	-1.8086588	0.8712255	-2.160072	0.8919704	-0.18078609	0.27880925	-0.87662685	-0.3017567	-2.9181426	-3.0156128	-1.4332716	-1.2113624	-3.0045044	-1.9328337	0.73841673	1.8922234	3.4356024	-0.32203877	-3.920464	1.7373468	-1.3017778	1.5947909	0.94285554	0.66843873	-0.17450292	0.3140504	-0.32398912	-0.48420858	0.49197367	0.357207	0.22423744	-0.35336488	-1.9850059	-0.053982567	-0.010202933	0.15808915	-0.68125606	0.7403263	-0.5165517	0.034692105	0.017380228	0.20288488	-0.9134297	0.15786026	-0.042882558	-0.28714696	0.13016947	0.13072634	-2.351955	0.9776386	-0.916896	0.057886425	1.6520189	0.7133568	0.40135795	-0.09896753	-1.4823526	1.2135986	-3.5666578	-1.0204207	-0.11745211	0.42102402	-0.28950584	-0.096206956	-0.37678826	0.18326792	-0.36662805	-0.51575047	0.27528247	0.28894916	0.06010004	-0.38879848	-2.92873	-0.023757491	-0.023400078	0.07170916	-0.54844797	0.8660978	-0.50901926	0.31303382	0.047253672	0.077665836	-0.8761245	0.1458341	-0.005561324	-0.2159032	0.23780605	0.05064711	-2.520491	0.8634191	-0.67006624	0.19945377	1.8154527	2.4090447	0.09636442	-0.29072356	-0.28001085	1.0553452	-4.265193	-0.61336416	-0.26336473	0.1251147	-0.33577633	0.045141287	0.08874449	0.03390966	-0.26287416	-0.5313003	0.2070495	0.19197707	-0.05223865	-0.48150316	-3.0150561	0.09520282	-0.005199085	-0.12404363	-0.3794393	1.0614498	-0.447038	0.30857217	0.083946325	0.2118034	-0.90886325	0.06826021	0.0048886174	-0.06557416	0.28492892	0.15850809	-2.5080695	0.93036735	-0.55898666	0.3295175	2.080486	3.1936338	-0.1297141	-0.7023939	0.65564597	0.9194729	-4.330034	-0.41279036	-0.34842917	-0.16722773	-0.47060013	0.15574016	0.04694641	0.0409245	-0.24086197	-0.50470954	0.2853156	-0.016748447	-0.07442658	-0.46347806	-3.0498714	0.11105681	-0.0019282892	-0.16068591	-0.3656872	1.0237134	-0.42089888	0.110399924	-1.9589628e-05	0.3137403	-0.9522103	-0.17293224	0.0029108333	-0.049237214	0.335581	0.24419817	-2.5529037	0.8851081	-0.5163328	0.22891194	1.9482211	3.7783654	-0.14424962	-0.60142046	1.7588992	0.88703096	-4.2710066	-0.34203064	-0.40546572	-0.058932606	-0.4122474	0.120184615	-0.059846237	0.0049801557	-0.33073747	-0.44985658	0.24977629	-0.23923497	0.005712922	-0.4084583	-3.186228	0.08361836	-0.0022958796	-0.13253818	-0.45273155	1.0098898	-0.3867527	-0.18403889	-0.054893333	0.24789822	-0.9691262	-0.20071192	0.018664084	-0.066550754	0.36569023	0.25535718	-2.593574	0.93671346	-0.53262603	0.14396696	1.9564348	3.603603	-0.14804727	-0.4355883	2.7203689	0.8024551	-4.2098513	-0.23406021	-0.48820618	-0.061314847	-0.33678365	0.19340122	0.10347974	-0.14257039	-0.3199591	-0.33462507	0.26924092	0.00015964876	-0.1567817	-0.3740179	-3.0613384	0.049643148	-0.0050096554	-0.15536886	-0.48645917	1.0169252	-0.2969011	-0.47646937	-0.1383164	0.21945985	-1.0612881	-0.16107951	0.01946236	-0.080774	0.29936013	0.39834362	-2.6200602	1.0804715	-0.49661162	0.13013221	1.9229745	2.0755324	-0.16428761	-0.47175494	3.3616836	0.7313762	-4.145572	-0.15161134	-0.5273705	-0.039925594	-0.25399268	0.20652895	0.13153131	0.077123225	-0.27649447	-0.3793102	0.2586408	-0.06506059	0.1244968	-0.4222135	-3.0344076	0.029631665	0.024877302	-0.12924486	-0.5254464	0.89706707	-0.38768125	-0.4088818	-0.16971995	0.2962661	-1.0355136	0.0116694085	0.025762118	-0.12974532	0.38816965	0.09211788	-2.7189271	1.0697612	-0.469994	0.22293709	1.6944122	-2.1956303	0.20509888	-0.52243805	3.3413575	0.5962023	-4.1913886	0.07130567	-0.5932125	-0.023287714	-0.1787741	0.26329187	0.13909358	0.38821688	-0.1675787	-0.37808463	0.17771937	0.44787332	0.22292395	-0.42217687	-2.644667	0.11556371	-0.0395807	-0.18464229	-0.5529323	0.6755887	-0.68935025	0.1665237	-0.3406721	0.28378525	-1.1016028	0.34987456	0.08890144	-0.11507254	0.50206274	-0.31977853	-2.7630641	1.1663189	-0.41206044	0.04063671	1.3477831	-8.8719845	0.19697164	-0.20001037	2.4827738	0.37284654	-4.4008904	0.7457152	-1.128302	-0.026684538	0.060079947	0.5002857	0.41928354	0.42469397	-0.29657346	-0.027457625	0.37354988	0.48574176	0.3372732	-0.25193506	-1.8484435	0.058121562	0.018525243	-0.20736997	-0.50362843	0.19856715	-0.07977404	0.71303725	-1.1808563	0.16435838	-1.4992173	0.36747807	0.10115785	-0.05378531	0.59083426	-0.52269137	-2.9403148	1.5580547	-0.29747626	-0.27387643	1.406423	-12.42182	0.3708827	0.36081946	1.9545656	-0.021300182	-4.3651237	1.30529	-1.4720182	0.015349787	0.57696736	0.8267112	0.7114239	0.7707298	-0.8966901	0.1362583	0.4671678	0.72830015	0.45490843	-0.1972982	-2.0048442	0.09200128	0.030679246	-0.11367167	-0.22208494	0.48046482	0.9196668	1.4886662	-1.450596	-0.06801827	-1.7095888	0.5121005	-0.060556665	0.23838641	0.49822184	-0.86258847	-2.741996	1.4913967	-0.35324362	-0.29214475	0.7237193	-12.362152	0.7143392	0.38394943	1.8555993	0.488575	-4.390007	0.5062024	-0.9739013	-0.21359389	0.18513678	0.88709426	0.91024595	0.90498537	-0.722272	-0.067277834	0.5894046	0.9114907	0.6696901	-0.3296904	-2.2067134	0.092928015	0.019891977	-0.21438116	-0.5353936	0.65422654	0.70892733	1.5433785	-1.1179475	-0.015532422	-1.4881684	0.8063677	-0.14689332	0.18276152	0.5713987	-1.224708	-2.760681	1.3574475	-0.38608572	-0.18076283	0.20728683	-11.269533	0.9903988	0.23553427	2.175612	0.34815425	-4.361129	0.7249864	-0.960863	-0.35975203	0.103860475	0.5973872	0.8596284	0.91179293	-0.5629089	-0.15353313	0.2830717	0.9531912	0.9322656	-0.3439318	-1.9064156	0.09621875	0.03675139	-0.2864888	-0.48037395	0.80390626	0.2859452	1.1770282	-0.8894126	0.036692105	-1.4314233	0.7188492	-0.06867338	0.10835375	0.61328626	-0.81815207	-2.762152	1.368787	-0.44926533	-0.17622869	-0.3057933	-8.47823	0.9628967	0.029984646	2.8865478	0.11213363	-4.2873363	0.990202	-1.1315919	-0.38284233	0.12960976	0.85296535	0.82932085	0.87783563	-0.5445889	0.021268712	0.2177969	1.0263306	0.9307984	-0.27310017	-0.34363663	0.21645293	-0.045937154	-0.39745122	-0.3997005	1.0063665	0.1907492	0.39804325	-0.9976435	0.0049571656	-1.6107092	1.089272	-0.030153815	0.17975843	0.509863	-0.05821297	-2.7375505	1.4840716	-0.35275552	-0.22938454	-0.62398976	-8.361273	0.94369847	-0.06659711	2.823313	0.08905481	-4.2757416	1.152806	-1.3403548	-0.27677226	0.10361704	0.98057216	0.88732386	1.0642731	-0.5359411	0.052561775	0.4199157	0.92220104	0.9806006	-0.27822468	2.5640686	0.2344461	-0.0005385266	-0.38654196	-0.46163636	0.74665356	0.19610243	0.7026572	-1.1740044	0.044411495	-1.653405	0.92059827	-0.055528253	0.21717872	0.5718524	-0.34566846	-2.8778605	1.489537	-0.25678357	-0.14726654	-0.7690512	-6.8766522	1.057096	-0.07096087	2.7706532	0.0022981684	-4.24187	1.2199669	-1.2569332	-0.15308361	0.24908195	0.9161324	0.8708052	0.96605253	-0.5308655	0.023039281	0.5296078	0.969426	0.9448478	-0.288682	4.0112033	0.18892811	0.06410227	-0.37158513	-0.50193626	0.61358833	0.26190314	0.9095016	-1.2691754	0.054698106	-1.6323704	1.056829	-0.09772256	0.17857501	0.5800065	-0.49595103	-2.9421394	1.5227984	-0.26115808	-0.0855505	-1.1485745	-5.3500285	1.1613122	-0.05033503	2.9957495	-0.109833755	-4.218766	1.2540585	-1.1838562	-0.15655994	0.3273594	0.88262856	0.86426806	0.8305507	-0.57811004	0.04368424	0.1697453	1.0088041	0.8044816	-0.21481523	3.9648168	0.3894734	0.05848379	-0.12768072	-0.4344015	1.0866715	0.149947	0.7158988	-1.059345	0.076649375	-1.8969469	0.79419255	-0.053308673	0.39893416	0.56051433	0.134475	-2.7007234	1.5245619	-0.28123993	-0.20085098	-1.7329035	-2.3935816	1.016576	-0.25168988	3.1166615	-0.18082277	-4.255021	1.4020394	-1.4148664	-0.01110788	0.40412566	1.1871446	0.89496106	0.031870876	-0.3963967	-0.21262711	0.043341346	-0.097988665	-0.14348714	-0.450171	-0.08091676	-0.036177617	0.0026927576	0.14559299	0.10430206	-0.16780339	0.1842693	-0.12142803	-0.25130352	-1.1978372	-0.02064776	-0.069808364	-0.025398767	-0.042109236	-0.61262363	-0.032039195	0.009176058	-0.029216332	0.047424164	0.06686636	-0.092896245	-0.025713919	-0.06852277	-0.19326127	-0.033248138	0.040111605	-0.06466142	-0.19256179	-1.0859962	0.000542591	0.006049102	0.1515337	-0.680961	-0.063687675	-0.14772533	-0.5883482	-0.05354908	-0.01362823	-0.021223372	-0.5080742	-0.07919206	-0.03940974	0.00026454852	0.0059497994	0.13898446	-0.11730127	0.1962987	-0.14834088	-0.2402923	-0.9634361	-0.10721519	0.08511663	-0.038319852	-0.056876	-0.6378228	-0.05483588	-0.0008330224	0.18304582	0.14719667	-0.10633395	-0.094451055	-0.01237979	-0.031884406	-0.046537258	-0.0120530985	0.09553449	-0.027353575	-0.38597447	-1.0837781	0.004914501	-0.15804534	0.11182648	-0.7395611	-0.02393564	-0.00918471	-1.4741404	-0.00030791966	0.032052137	-0.06827662	-0.6405527	-0.051443912	-0.011339516	-0.006558243	-0.035307314	0.040041476	-0.11404695	0.052932516	-0.12516937	-0.22939843	-0.67437875	-0.38412282	0.12279288	-0.071692705	-0.073382445	-0.52264154	-0.0708384	0.03959899	0.3979865	0.11022106	-0.24872896	-0.10855939	-0.022102602	-0.034897853	0.34915704	-0.032213304	0.13780718	-0.013858586	-0.45498705	-0.7001133	0.042956233	-0.17351833	0.0018672388	-0.67919385	-0.1404833	-0.22354773	-2.008478	0.36736676	0.07414019	0.023478325	-0.67880315	0.026303826	-0.07227646	0.02544549	-0.03819049	-0.4397061	-0.11319646	-0.11634576	0.13000807	-0.20872763	-0.7960469	-0.92979485	-0.018415611	-0.15321769	-0.14918745	-0.3307018	-0.07492387	0.0030267038	1.3461761	-0.89451855	-0.36070606	-0.14644547	-0.050782282	0.060823023	0.94056034	-0.059025433	0.38482872	0.095015995	-0.72405785	-0.22365986	0.11621167	-0.08250682	0.03737487	-0.15009	0.23133306	-0.24950026	-1.5573869	1.0348519	0.035916094	-0.035855457	-0.6862981	-0.15382047	-0.036921825	0.022963988	0.16470964	-0.58368814	-0.20678571	-0.39233103	0.13379207	-0.34635675	-0.21494853	-1.3099135	0.08535527	-0.22467686	-0.3263565	0.010402463	-0.20923233	-0.38817906	1.8800286	-1.896521	-0.22332105	-0.11359917	-0.17215815	0.04271837	0.51328105	-0.34170756	0.79492605	-0.17719223	-1.0967002	-0.1103698	0.27857178	0.11302143	0.09038553	-0.5651072	0.34108916	-0.5161296	-1.1061746	1.2808893	0.31648818	0.21805444	-0.5465187	-0.7573547	-0.05470104	0.03332177	0.37163594	-0.71509147	-0.15347262	-0.48813477	0.041723467	-0.47110888	-0.022345105	-1.4219065	0.1282716	-0.27059457	-0.45789307	0.27340186	-0.32320106	-0.8679565	1.4286577	-1.9582652	-0.29725108	-0.057009988	-0.10750456	0.23337491	0.58235127	-0.7385247	1.1845126	-0.99955887	-1.2320548	-0.10586754	0.44693246	0.1371918	-0.12950972	-0.44357836	0.21706517	-0.46743912	-0.75109464	1.2185869	0.40285495	0.31134817	-0.42693424	-1.4949746	-0.122008584	-0.0132150315	0.4078167	-0.88563573	-0.011303087	-0.6404316	-0.04003143	-0.3741342	0.14395867	-1.2469883	0.41180032	-0.24104598	-0.54045177	0.33850047	-0.32577643	-1.4686393	1.2441094	-1.7259731	-0.33107919	0.12544894	0.37200248	0.36613938	0.6033063	-0.81406903	1.4220287	-1.9300964	-1.277758	-0.23480614	0.61253595	0.14222051	-0.30449292	-0.4053669	0.22347844	-0.19946824	-0.42722023	1.0731924	0.3312815	0.2973962	-0.27884272	-2.046953	-0.16980182	-0.07204261	0.30388537	-0.95848805	0.09506223	-0.67918885	-0.2042084	-0.39491802	0.36216542	-1.0924526	0.11461539	-0.16970523	-0.56079835	0.19742392	0.0052018496	-2.088753	1.0925122	-1.3118938	-0.4533001	0.2643286	1.4597948	0.20775427	0.72992027	-0.01811171	1.4469777	-2.6989918	-0.97897345	-0.56735	0.9327616	0.18900378	-0.39152595	-0.5230808	-0.098185994	0.21023542	-0.038750324	0.67115086	0.10376478	-0.13603826	0.004927084	-2.2116003	-0.24707408	0.004792252	0.12172393	-0.76688933	0.19483879	-0.197484	-0.09732665	-0.66709775	0.52746415	-0.95207393	-0.10551809	-0.023395587	-0.40710884	-0.3731688	0.7525666	-2.9399896	1.1311607	-0.65441597	-0.65377563	0.80753374	-0.14897056	-0.17216408	1.155877	0.9185001	1.0966737	-3.832054	-0.5232994	-0.8389475	1.3332579	0.33174014	-0.12727296	-0.82390946	0.118777364	-0.2293791	0.13425614	0.84602225	0.118448555	0.13816395	0.029057419	-2.5579343	-0.28801054	-0.0024056039	-0.05809768	-0.83040667	0.25673872	0.54059815	1.2223346	-0.8480036	0.36956906	-1.0329443	0.092979	-0.17151392	-0.28988567	-0.35861254	-0.15752959	-3.0007582	1.1689467	-0.40365034	-0.62357354	0.38038865	-4.9396925	-0.25850493	1.2589192	1.2023169	1.3584998	-4.2815266	-0.7184423	-0.657617	1.3157918	0.06471878	-0.29439694	-0.34969646	0.27271262	-0.077560954	-0.054048393	0.8238293	0.1014397	0.19412173	-0.10098593	-2.7891917	-0.3197125	0.01586775	-0.017591191	-0.91769874	0.08233223	0.3879841	1.998054	-0.66915727	0.36745527	-0.8249912	0.17108656	-0.20558015	-0.24628265	-0.057981018	-1.2489002	-3.1140196	1.0945491	-0.4576941	-0.54086274	-0.27378514	-6.7999935	-0.14950165	1.0998857	1.8145951	1.1115478	-4.3574605	-0.32277292	-0.78257936	1.2300496	0.16700003	-0.3206314	-0.2305154	0.14338858	-0.19528987	-0.058204036	0.60426795	0.26310518	0.19523594	-0.113773	-2.5085318	-0.27949426	0.038448457	-0.05896626	-0.7679897	0.036823697	0.0429653	2.6861315	-0.6783997	0.20134708	-0.88475597	0.302996	-0.15579203	-0.34759712	0.07767373	-1.6577537	-3.0105512	1.1808991	-0.57406044	-0.60476184	-1.1064029	-8.0526705	-0.0373985	1.0697116	2.489952	1.1407295	-4.308169	-0.086514376	-1.0156682	1.1472576	0.104393035	-0.025518509	0.12052604	0.42165348	-0.23893756	0.03475937	0.60768205	0.32025465	0.18261583	-0.07866511	-1.3198638	-0.16785179	-0.08449573	-0.15735324	-0.7303806	0.17101589	0.08945692	2.5990055	-0.8089022	0.12805027	-0.9913072	0.22111641	-0.1534707	-0.2482199	0.13416909	-1.3293737	-3.0150602	1.2171841	-0.50655645	-0.65745974	-1.7127118	-9.620332	0.001198086	1.0510725	2.5887341	1.064256	-4.285738	0.089923255	-1.1580268	1.2312702	0.06772653	0.06779372	0.23078914	0.3483994	-0.007577674	0.16639043	0.6943075	0.2783919	0.37728846	-0.03279214	1.667661	-0.19505942	-0.028184269	-0.20719294	-0.77115893	-0.1440095	0.059202533	2.485268	-1.0601503	0.2510727	-1.0454428	0.34215847	-0.12836793	-0.28717643	0.012085462	-1.5334054	-3.1486647	1.4525851	-0.48028803	-0.78827757	-1.6404706	-8.03405	-0.07952375	1.2861036	2.7992413	0.8729125	-4.2045016	0.4295666	-1.4412993	1.324659	0.32438287	0.14868008	0.10622181	0.33255887	-0.15320113	0.36020362	1.0600585	0.19420582	0.30597824	0.02494873	2.9816241	-0.25088525	0.040250327	-0.17839438	-0.7674531	-0.6046946	0.54531187	2.3728201	-1.7289197	0.14081852	-1.2528007	0.23451687	-0.20910248	-0.27767542	0.09335839	-1.9181416	-3.3491137	1.643166	-0.38189974	-0.866496	-1.3223385	-5.473222	-0.046117123	1.5801895	3.292903	0.6589651	-4.046982	0.775683	-1.5412834	1.3361986	0.63905853	0.175723	0.40102598	0.34107	-0.18620817	0.27909312	0.5212977	0.4055657	0.48071745	0.07171141	2.4604752	-0.060879383	0.05449336	-0.13428555	-0.45383373	0.24235071	0.91516393	0.9565737	-1.6597217	0.20135704	-1.5226967	0.42744112	-0.20504372	0.03691935	0.025806872	-0.51358294	-3.0651364	1.5760013	-0.33924076	-1.070443	-2.320959	-2.0594172	0.25871688	1.5827072	2.982443	0.43847686	-4.441617	1.4314052	-2.1684594	1.3443279	0.5050204	0.6478982	0.5237759	-0.13563566	-0.63140774	-0.032150317	-0.00015402972	-0.1451063	-0.29372403	-0.23851238	-0.11363862	-0.038525134	0.005489672	-0.13395168	0.07354571	-0.09773464	0.18370974	-0.16706513	-0.07114711	-1.0300092	0.20685168	-0.18312049	-0.027668366	0.022730518	-0.24944237	-0.050458938	-0.12654537	0.034750484	0.03643407	-0.05489794	-0.019055676	0.0063612713	-0.21715373	-0.15193392	0.012306958	-0.03772238	-0.0078213345	0.03094274	-0.8158468	-0.027662465	-0.026506001	0.012702354	-0.8380672	-0.16116543	-0.5841687	0.012363805	-0.002830539	-0.27050176	-0.17054157	-0.28928372	-0.12389093	-0.042751476	0.007506074	-0.054605134	0.005704854	-0.11154202	0.15119822	-0.15923104	-0.08085091	-1.1069684	0.20091558	-0.084821224	-0.041565534	-0.054481	-0.29974532	-0.06373985	-0.09745636	0.008889266	0.030094704	-0.038470045	-0.011675803	0.0026055789	-0.15112531	-0.10829378	0.011038033	0.020345444	-0.01519832	-0.03261365	-0.979335	-0.015832335	0.00015558966	0.08136941	-0.736456	-0.14677748	-0.562099	-0.010774575	-0.003355349	-0.099003375	-0.19658113	-0.32890671	-0.119060256	-0.018612135	0.004438115	0.04030055	0.0077279783	-0.12425171	0.15922673	-0.17578696	-0.10899815	-1.1377282	0.13181353	-0.2209225	-0.060724936	-0.0021115467	-0.38058057	-0.06198081	-0.053310838	-0.018604917	0.07051164	0.012367004	-0.015281999	0.0008064243	-0.23014468	-0.14680515	0.0020794105	0.06867216	-0.030049054	-0.036605973	-1.0109292	-0.015720103	0.03005337	0.13659933	-0.7237017	0.0095306095	-0.5440263	-0.09825553	0.025354424	-0.26361912	-0.092175126	-0.36283034	-0.10418176	-0.015638292	0.00602023	0.054334547	0.06633656	-0.11027269	0.1753808	-0.15055966	-0.1293925	-1.1965356	0.10813168	-0.24218787	-0.04938594	0.0033039213	-0.47659117	-0.03356935	-0.022521408	-0.0437577	0.02942595	0.013162287	-0.048539322	-0.00868371	-0.13320051	-0.14987837	-0.014975179	0.051737905	-0.053984553	0.006282393	-0.98970276	-0.021977622	0.006228961	0.09116164	-0.7010247	-0.048892792	-0.48626536	-0.17188299	0.05786069	-0.22948952	-0.025940102	-0.36992398	-0.118250154	-0.013926232	0.0068853535	0.04945062	0.098478094	-0.13433945	0.16114081	-0.1768176	-0.14097545	-1.1926405	0.103885524	-0.08413688	-0.031534683	0.0131622	-0.53721666	-0.04560816	-0.028590443	-0.06129805	0.018713329	-0.018714776	-0.05092471	-0.011286716	-0.15472034	-0.11511003	-0.022111738	0.025711967	-0.06793381	-0.015272113	-0.983852	-0.020024596	-0.009227587	0.08801336	-0.6954657	-0.0736331	-0.4179614	-0.31176412	0.0703761	0.0018082049	-0.059586897	-0.3725031	-0.103550866	-0.008025374	0.004326889	-0.0049943533	0.16244026	-0.11875403	0.1799361	-0.1598617	-0.12895973	-1.1221914	0.099906184	-0.25750694	-0.024613155	0.034579225	-0.5536552	-0.036589254	-0.027153173	-0.08789277	0.029126368	-0.10865968	-0.050945718	-0.017746888	-0.041784935	-0.08381403	-0.025939	0.026798164	-0.072081275	-0.027880784	-0.980904	-0.022416333	-0.061993446	0.08427803	-0.75066936	-0.08972208	-0.32571143	-0.45031983	0.060667697	0.023194663	-0.028721387	-0.3521203	-0.13848981	0.0059279473	0.0016592656	-0.08701389	0.2294816	-0.11389106	0.14070328	-0.22585358	-0.1527687	-0.74088293	0.04830297	-0.033693973	-0.014551415	0.0181487	-0.40416774	-0.07395372	-0.025434567	-0.10861588	0.068123505	-0.26798093	-0.03859288	0.00031547307	-0.17377858	0.0019181507	-0.018389104	-0.019877456	-0.057936728	-0.08225515	-1.0401529	-0.027556367	-0.1958059	0.07580536	-0.93612266	0.07635797	-0.11810954	-0.83769596	0.015914736	-0.12950376	-0.03378179	-0.38813853	-0.09389115	0.028718917	-0.006703833	-0.12831748	0.29272276	-0.08251347	0.05421245	-0.16509661	-0.19872439	-0.27613178	-0.10418863	-0.098624855	-0.025661869	0.019450529	-0.37916818	-0.050153296	-0.009764938	-0.0669162	0.12828022	-0.4655542	-0.080989785	0.0001897913	0.018752666	0.19614352	-0.016889563	-0.12033497	-0.036245894	-0.13025698	-1.0141824	-0.015103891	-0.34543756	0.05651561	-1.1578035	0.02652033	-0.26127076	-2.1785963	0.18798369	-0.111626826	-0.041497294	-0.7169389	0.041592844	0.071375966	-0.06872751	0.37040228	0.441031	-0.10781096	-0.17755312	0.012566259	-0.4163271	-0.14396243	-0.73607665	-0.11316122	-0.09830546	-0.033273805	-0.4278891	0.06228752	0.25757328	-0.57206213	-0.14536154	-0.4761124	-0.27576742	0.005232861	0.06509131	0.409211	-0.051730715	-0.3155632	-0.034804452	0.39017057	-0.4263635	0.018815767	0.14105831	0.02000718	-0.69976705	0.10073907	-0.61550623	-2.4747493	0.7609048	-0.067624845	0.02052699	-0.815689	0.12484196	0.07435633	-0.20282584	0.5650479	0.3400505	-0.37364954	-0.24360362	0.13452275	-0.7290369	0.12036604	-1.2485789	-0.085163005	-0.15956904	-0.042143255	-0.0461263	0.04489684	0.48117402	-1.1376313	-1.2678636	-0.47325882	-0.4388388	0.022886848	-0.037210062	0.9729127	-0.0057404493	-0.5955198	0.11532686	0.77019525	-0.5422852	0.074097544	0.32159954	0.3507917	-0.20491897	-0.14296518	-0.81230974	-2.1549745	1.1564695	0.091880225	0.065283515	-0.7128584	0.2019238	0.16448015	-0.2926095	0.45854357	0.15834515	-0.64614236	-0.5243307	0.29681662	-0.8774669	0.3304946	-1.3433137	-0.05219464	-0.13043757	-0.07927332	0.36252347	0.042295333	0.4062067	-1.3110448	-1.9431804	-0.5050266	-0.46534392	0.04159936	-0.08572998	1.3749515	0.058832824	-1.0126804	0.26819336	0.8760824	-0.7664278	0.12114226	0.35973436	0.60021514	-0.16447219	0.027546663	-1.0163294	-1.6509908	1.4797872	0.091835976	0.059652165	-0.5554704	0.26152727	0.20828648	-0.43099448	0.14145322	-0.22591414	-0.9660856	-0.88391703	0.45044097	-1.2013196	0.6795121	-1.4026132	0.14569402	-0.049900755	-0.45583537	0.8532656	-0.020475967	0.12508881	-1.5036885	-2.4687085	-0.603301	-0.41517994	0.049980897	-0.15380073	1.7648818	0.16116256	-1.509043	0.5148728	0.83389133	-0.87156975	0.18540719	0.40783867	0.95696694	-0.19939326	0.16126668	-0.89869666	-1.2015321	1.6661222	0.22326005	0.0425364	-0.36841407	0.26068777	0.48673114	-0.55565494	-0.09797391	-0.36268544	-1.1078612	-1.370729	0.5277093	-1.3877437	0.8735547	-1.1963068	0.21719854	-0.079305686	-0.61108595	1.1119759	-0.015954116	-0.17388333	-1.4543339	-2.8907075	-0.8187661	-0.47734177	0.047355656	-0.06526126	2.0388963	0.21225527	-2.0915098	0.64639485	1.0362613	-1.2504363	0.18195103	0.3494595	0.92779064	-0.4167766	0.21950263	-0.9505447	-0.71791184	1.3573977	0.17699134	0.16026446	-0.12497675	0.22658348	0.83179945	-0.6280442	-0.050480485	-0.361127	-1.0598696	-1.899716	0.55876195	-1.6411209	0.9449483	-0.8224309	0.26571262	-0.107097454	-0.999116	1.1087644	0.021659039	-0.3952371	-1.2860776	-3.0385442	-1.2443973	-0.5577137	0.028483171	0.34815848	2.2392657	0.20663075	-2.445699	0.637182	0.95368695	-1.5751276	0.11484955	0.36337236	0.7689976	-0.44842482	0.35646558	-1.0491403	-0.26238224	0.862324	0.21555811	0.23579365	0.05349276	0.17039435	1.2359245	-0.6527122	0.10014196	-0.3879278	-0.8520259	-2.0566397	0.42423272	-1.7360542	0.7812862	-0.70532775	0.391226	-0.15949291	-0.8279139	0.8643652	0.055227216	-0.36896846	-0.99870306	-2.9088707	-1.5919875	-0.67446125	0.063952096	0.3145787	2.3917944	0.21102586	-2.3269994	0.6007031	0.80169314	-1.8311827	0.02404883	0.31280753	0.5296293	-0.36506337	0.24739292	-0.83538306	-0.226307	0.13163854	0.24815726	0.32593033	0.25042605	0.17214124	1.0123888	-0.7851488	0.39581305	0.11008626	-0.58023983	-1.1284443	0.28273422	-1.4938121	0.52324647	-0.56783426	0.36070836	-0.1409654	-0.058533125	0.539189	0.08736804	-0.59456646	-1.1071417	-2.1591368	-2.2065675	-0.7377801	0.08190159	0.26053178	2.0180788	0.22462013	-2.1300159	0.60472304	0.97494996	-1.9305537	-0.029358262	0.18774725	0.17792483	-0.37365803	-0.1231323	-0.8840172	-0.20979317	0.068602815	-0.24040818	-0.27531084	-0.22501202	-0.20929302	-0.035050113	-0.00500704	-0.047122948	0.0004993541	-0.26781258	0.15265553	-0.22854796	-0.06367479	-1.0093764	0.036043134	-0.20109047	-0.04335476	-0.029964434	-0.20595194	-0.22752465	-0.06450122	-0.0071903644	0.055366356	0.061371095	-0.110900156	-0.022576956	-0.310457	0.12036704	-0.0020210864	0.32599774	-0.014075593	0.02159529	-0.52312404	0.033928074	-0.04767584	-0.08188553	-0.53493255	-0.02504496	-0.95240724	-0.44114706	0.33302325	-0.010732251	-0.17200942	-0.22349806	-0.39573455	-0.041205984	-0.014945778	-0.2300546	0.05413455	-0.84823096	0.21085042	-0.19272095	-0.1560147	-1.0796511	-0.1491334	0.0027390402	-0.123122916	-0.052103404	-0.24610153	-0.53960013	-0.17807351	-0.13927455	0.11591641	0.092061564	-0.5145885	-0.027286975	-0.09619397	0.47151503	0.015848426	0.8799275	0.021198472	0.023344094	-0.14194421	0.16762641	-0.18808335	-0.341318	-0.59322625	0.13279784	-0.93794173	-0.55473155	0.25724262	-0.037876505	0.071067914	-0.22480325	-0.6402684	-0.037146777	-0.03680569	-0.42125294	0.11812016	-1.8519176	0.3425416	0.020020064	-0.059608202	-1.0553769	-0.21592914	0.072498284	-0.11404254	-0.014498286	-0.22887799	-0.96082526	-0.3904041	-0.1605841	-0.007759515	0.32273322	-0.92551607	0.062177453	0.17385508	0.9162102	0.11063193	1.5500125	0.10247947	-0.05630722	0.0994783	0.20581578	-0.44690552	-0.2715395	-0.64931107	0.14882669	-0.8048479	-0.70191973	-0.20685549	0.15222049	0.090520196	-0.24953379	-0.83605903	-0.00685587	-0.03461974	-0.67032343	0.1538178	-2.8491168	0.47595868	0.2782159	0.19860654	-0.89817363	-0.16673175	-0.028225062	0.054924447	0.108504124	-0.24946953	-1.0827103	-0.58727396	-0.057093814	-0.24016641	0.70339316	-1.0240767	0.3858544	0.0919433	1.2559032	0.25083616	1.9304687	0.12438178	-0.026636614	0.31809032	0.12177727	-0.714796	0.22561102	-0.8134483	-0.022411283	-0.6103625	-0.8476909	-0.5483124	0.034159247	0.0726951	-0.3155864	-1.1183243	0.04734564	-0.023076992	-0.9182189	0.21534157	-3.501037	0.6622496	0.44063362	0.31866008	-0.67613375	-0.10381536	0.06982219	0.14875883	0.19026515	-0.122844465	-0.86716896	-0.7399743	-0.045280926	-0.4191205	0.98787004	-1.2086736	0.9559811	0.13165605	1.3993801	0.5099102	2.1691651	0.20994659	0.11010431	0.33851328	0.06745456	-0.92437726	0.6253797	-1.0277896	-0.041905038	-0.44901443	-0.9077846	-1.0714763	0.039987322	0.103273116	-0.34129113	-1.5680342	0.14134094	0.039231196	-1.0246284	0.32651407	-3.8920214	0.91182286	0.336023	0.46240222	-0.49344948	0.008785286	-0.14349262	0.28667948	0.33113712	-0.063858435	-0.3327628	-0.81328326	0.057534054	-0.47424233	1.142828	-1.2525703	1.5356789	-0.0828626	1.5461848	0.715549	2.3088977	0.18692964	0.12628058	0.16908231	-0.03079158	-1.0885521	1.0512159	-1.1401035	-0.038459286	-0.32820183	-0.90434587	-1.5215381	-0.0947754	0.027157921	-0.30028728	-2.2160146	0.20468391	0.089398846	-1.0505455	0.5167556	-4.0747933	1.179519	0.0022581797	0.53835094	-0.28323537	0.11765343	-0.092785686	0.42433342	0.51622456	0.0016949911	0.51190895	-0.90070444	0.16038342	-0.55560964	1.1470841	-1.5228971	1.8837849	-0.26584622	1.6512276	0.95657265	2.2727473	0.20799214	0.021587282	-0.12954593	-0.11072389	-1.2397189	1.5774812	-1.1807245	-0.14857389	-0.039716985	-0.7714269	-2.1952004	-0.028311014	-0.0023502973	-0.20013599	-2.7457108	0.24537584	0.114049174	-1.0750498	0.6035853	-3.7903457	1.5215054	-0.621231	0.67952716	-0.023226049	0.036385115	-0.14582138	0.5695201	0.6968627	-0.1632714	1.9093393	-0.904199	0.4892579	-0.5189195	0.94423735	-1.9592506	0.6952973	-0.070299126	1.7045492	0.7405189	2.1530209	0.11217373	-0.21428548	-0.4996944	-0.17568515	-1.2765046	2.1953092	-1.4675653	0.21396782	0.042459615	-1.1898959	-2.6750677	0.3594721	0.33884344	-0.17873009	-1.9127566	0.28270227	0.11136743	-0.6994474	0.80645776	-3.3579934	1.7770518	-1.0957366	0.6014439	0.3725844	-0.45563564	0.2530717	0.6182745	0.81504476	-0.43044305	3.6285613	-0.75360125	0.38621032	-0.2788641	0.95789295	-2.6908886	-6.3901067	-0.049481384	1.5609006	-1.4792615	1.9082785	-0.6201906	-0.22490981	-0.34174076	-0.108734906	-0.9009669	2.5421255	-2.0103128	0.5058026	-0.4354547	-1.8480972	-2.439369	0.48722073	0.52518165	-0.5345205	-0.52849567	0.43290547	0.12053175	0.14550021	1.2486149	-3.5986006	1.7785476	-0.9878745	0.11781901	0.67610496	-1.1049167	0.39043197	0.5598734	0.92897457	0.15172344	3.691909	-0.447035	-0.8191648	-0.3154589	1.3107924	-3.5006242	-10.828977	0.2682297	1.1341665	-2.77901	1.796825	-1.0652897	0.12625541	-0.1661888	-0.021564353	-0.03136851	2.6920266	-1.6198684	0.54873306	-0.43024945	-1.9075177	-2.3358157	0.42687163	0.5165772	-0.59041077	0.047819447	0.462464	0.111614466	0.28009605	1.3284836	-3.7478774	1.7629261	-0.9855392	0.007927995	0.8399831	-1.3018123	0.39507273	0.58982253	1.0679203	0.40520173	3.6317213	-0.43590146	-1.1294432	-0.30612415	1.2841763	-3.68858	-11.533693	0.47064164	1.1279591	-2.947556	1.6857753	-1.0739999	0.049922578	-0.20399135	0.017296884	0.15736184	2.8508368	-1.630592	0.6188704	-0.6037952	-2.0734353	-2.2085779	0.5523379	0.5656859	-0.6743663	0.5587471	0.5798154	0.1318527	0.8110204	1.6428014	-3.8816395	1.8106902	-1.1371827	-0.058664754	0.76259714	-1.2775489	0.47537547	0.6201935	1.3595148	0.45394862	3.608536	-0.43490458	-1.6527243	-0.4066186	1.3549924	-3.7942686	-12.035696	0.31404638	1.10309	-3.0967193	1.6864827	-1.1449885	-0.2966362	-0.09720797	0.024735056	0.2850681	3.0026581	-1.2774229	0.688282	-0.8964395	-1.5128745	-2.2980182	0.5810829	0.56068736	-0.31185275	1.1084554	0.58109784	0.12237238	0.7224922	1.5273471	-4.2193766	1.6952511	-0.95877564	-0.3034425	0.96151847	-1.1961547	0.50202674	0.8152586	1.3392212	0.37480783	3.5956664	-0.8172971	-1.7856023	-0.46106675	1.0998125	-3.8140905	-12.322537	0.5904031	1.4312258	-3.0429883	1.2313985	-0.9885668	-1.2730411	0.017884653	0.103544466	0.17994104	3.5183437	-0.9117478	0.6264805	-1.0150526	-0.5400602	-2.5315096	0.77766204	0.6230879	0.11290825	1.6244304	0.6898003	0.091827035	0.12635379	0.7454397	-4.509288	1.1312356	-0.75561076	-0.79203415	1.2629212	-1.325914	0.6945258	1.011388	0.8586941	0.9080393	3.6068146	-1.2876219	-1.7999188	-0.45173618	0.5930529	-3.7274182	-12.289803	0.60268044	2.2046967	-2.7782335	0.4381554	-0.5553311	-1.7733798	-0.12642652	0.15362768	0.43337744	3.9122822	-0.9083266	0.7213594	-1.2220117	0.3736937	-2.6263838	0.6321619	0.7354682	0.44166595	1.9025524	1.2146008	0.1816016	-0.2661717	0.01922243	-4.111507	0.5374308	-0.80566245	-0.88729334	1.20616	-1.5091237	0.761897	0.75555056	0.8856288	0.841617	3.6192548	-1.2393059	-1.3288974	-0.49745962	-0.32968768	-3.9011023	-11.646003	0.72696805	3.062786	-2.2477436	0.12385721	-0.17139651	-1.5885103	-0.8342956	0.0361338	0.52009135	3.2193067	-0.46423793	0.51510763	-0.72894603	0.16726123	-2.218003	0.57086015	0.530291	0.26352346	0.7553446	1.475	0.103134364	0.009113823	0.43421906	-3.4581075	1.1951346	-0.5725428	-0.916102	0.6554246	-1.1086757	0.51434374	0.33814558	0.9278562	0.6091514	2.0066988	-0.8320897	-0.9945677	-1.2634866	-1.4614621	-5.006219	-4.6462436	0.6708488	2.5726295	1.4203691	0.08638711	1.0597687	-0.5346224	-1.8452811	-0.2495208	0.40794832	2.0883386	0.13376966	-0.29548848	-0.7787198	-0.057336397	-0.01819735	-0.16211824	-0.27655217	-0.066799685	-0.16633728	-0.035558123	-0.013376806	-0.37259158	-0.09687168	-0.1781575	0.11711665	-0.21011433	0.020609098	-0.80648786	0.1794581	-0.25635836	-0.0028536033	-0.034728877	-0.07178051	-0.09975125	-0.14196712	0.04426659	-0.01131413	-0.2548437	0.056919355	-0.0037641695	-0.34236896	0.0043231347	-0.025808176	-0.07884593	-0.069322586	0.19094048	-0.24904285	0.004147199	0.022876399	0.009565916	-0.8701865	-0.3264315	-0.7599585	-0.15444863	-0.022881558	-0.18533286	-0.2927328	-0.026828015	-0.12663645	-0.040816225	-0.01632172	-0.35803676	-0.0005060458	-0.21819611	0.14131683	-0.1325777	0.020238118	-0.7323146	0.20918989	-0.35377654	0.003985299	-0.034228455	-0.019759072	-0.09935484	-0.18472672	0.011850383	-0.0024859847	-0.31530514	0.036440004	-0.02244271	-0.1497653	-0.0049059135	-0.022155883	-0.08616729	-0.04733741	0.13188137	-0.28453863	0.0057117483	-0.01937069	-0.0071340078	-0.89690346	-0.11913334	-0.7065506	-0.20055345	-0.016406627	-0.27912506	-0.30766034	-0.028630747	-0.15209877	-0.03812456	-0.015699781	-0.3218325	0.04535307	-0.26752242	0.15987557	-0.16719067	0.022295786	-0.67858946	0.23597322	-0.3185837	-0.0006589154	-0.016663915	-0.043353103	-0.15156026	-0.20788558	0.003677683	0.022943912	-0.34644037	0.028034545	-0.038870454	-0.16195047	0.023603853	-0.023635022	-0.03364966	-0.04746415	0.0747781	-0.3514466	0.0006390844	-0.08167892	-0.01921095	-0.8881161	-0.24515088	-0.73048437	-0.24088435	0.024806764	-0.10667304	-0.2791019	-0.008854866	-0.15184365	-0.036689784	-0.011984468	-0.24536417	0.074217916	-0.3585996	0.14695537	-0.14087754	-0.022251675	-0.61257315	0.14800581	-0.2879222	0.0026240197	-0.0041171457	-0.04176699	-0.18270123	-0.19845034	-0.05337729	0.0463571	-0.3879004	-0.018740458	-0.058442965	-0.1642699	0.025858315	-0.040225174	-0.0023941174	-0.052931882	0.04444361	-0.31625584	0.009014261	-0.07905744	-0.022922633	-0.8858737	-0.26893064	-0.7613854	-0.28661805	0.10212344	-0.1599262	-0.150972	-0.024452686	-0.18381506	-0.021869108	-0.009340072	-0.106361054	0.10028278	-0.5031515	0.13026503	-0.15334707	-0.1042941	-0.5049896	0.080313	-0.06495589	-0.012056786	0.0026855776	0.05591305	-0.25453085	-0.20852014	-0.18606922	0.0828614	-0.38757518	-0.08875764	-0.08223108	-0.2616255	0.029925514	-0.057928883	0.05536619	-0.0517728	0.004523451	-0.35499224	0.013116952	-0.08399726	-0.052797686	-0.91032237	-0.2263648	-0.6701096	-0.29676	0.23945314	-0.2160177	-0.21572432	-0.028855337	-0.15328301	-0.009904202	0.0065254546	-0.039325204	0.124454565	-0.71900076	0.07655241	-0.013270453	-0.2339358	-0.3125137	0.005848941	-0.08807668	-0.030330656	0.010826632	0.062454276	-0.28106296	-0.26829475	-0.26374453	0.13528793	-0.44087586	-0.23641635	-0.1163374	-0.0138069475	0.082134224	-0.07656717	0.074924	-0.038895957	-0.112023056	-0.41716203	0.013620753	-0.12029708	-0.113534905	-0.97759897	-0.14340079	-0.5570263	-0.36220807	0.44188252	0.06131408	0.1009593	-0.05072564	-0.26327807	0.013412319	0.045699865	0.16559812	0.1612722	-1.0379355	-0.014476075	0.06313995	-0.5183301	-0.14932638	-0.15946856	-0.08571212	-0.08346106	-0.025520282	0.029220361	-0.38039663	-0.33281612	-0.4130625	0.2565532	-0.49595097	-0.5451532	-0.12835066	0.029074192	0.14136331	-0.105441675	0.19629984	-0.044379156	-0.29616973	-0.38468224	-0.01821764	-0.13075565	-0.2856811	-1.1204709	0.17979437	-0.6319118	-0.58692384	0.8030804	0.16879924	0.026698312	-0.16451262	-0.50443256	0.05913792	0.06340265	0.8208417	0.29938236	-1.5622456	0.021232177	0.20652394	-1.126703	-0.02606524	-0.43774092	0.20672776	-0.19691135	0.066583805	0.066145994	-0.42463604	-0.43030134	-0.96447843	0.30516398	-0.42096072	-1.313185	0.055894688	0.21934238	0.096168354	0.004538085	0.42638186	0.040831648	-0.73880005	-0.15267213	-0.055154234	0.0722707	-0.45850283	-0.98334527	0.2077012	-0.60819364	-0.27069747	1.2636032	0.34044483	0.34521708	-0.0058742044	-0.41138464	0.19247931	0.05082253	0.6597132	-0.19482514	-2.0315058	-0.46195805	-0.02537966	-2.1450398	0.57170904	-0.65298754	0.39983588	-0.24324463	-0.17700724	0.59205997	0.79026747	-0.79343116	-1.596897	0.26914442	-0.65036964	-2.2482226	0.7372336	0.28114223	0.5643497	0.43535957	-0.087377265	0.34459502	-1.1845253	-0.39245027	-0.060510624	0.33896226	-0.52419764	-0.80825067	0.457532	-0.4784933	0.051213212	1.3349373	0.2760062	0.39989272	0.33395952	-0.004720427	0.80769116	0.118243836	0.053171247	-0.93794906	-1.9246914	-1.7596993	-0.73636967	-2.6525931	0.8241635	-0.5555127	0.3858422	-0.24186134	-0.35769117	1.0309267	2.6848044	-1.2236006	-1.6814827	0.4536996	-0.9952691	-2.4945147	-0.016563592	0.3110618	1.4311774	0.16246957	-1.1509402	0.3494617	-0.94368696	-0.6823326	0.07526852	0.6519021	-0.73236156	-0.9539897	0.3435743	-0.5469939	0.13349056	1.1053813	0.31709087	0.33707228	0.46571988	0.1715104	1.182376	0.22540061	0.109981425	-1.0406345	-1.7882317	-2.1422784	-1.0961121	-2.6931405	0.7258785	-0.4109671	0.42850438	-0.24986246	-0.13180462	0.88241667	3.3550668	-1.3225896	-1.5337015	0.57786256	-1.0302393	-2.4149363	-0.6233596	0.28685838	1.6275423	-0.123782635	-1.46302	0.18473515	-0.93323594	-0.68654794	0.106640145	0.75484914	-0.88233954	-0.8769637	0.45501858	-0.5939329	0.3359032	1.1342939	0.26612955	0.22306454	0.58508515	0.44745168	1.6862472	0.43680182	0.15986131	-1.1975187	-1.6161536	-2.3798165	-1.4058311	-2.6929867	0.4568021	-0.36889827	0.2247139	-0.37897372	0.4519346	0.6015951	4.0151353	-1.3642958	-1.3513857	0.8258784	-1.0860095	-2.379629	-1.3597971	0.16395263	1.8070529	-0.40529004	-1.4337549	0.062781915	-1.1247741	-0.6568624	0.22333317	0.77779454	-1.3236454	-0.7216212	0.28098214	-0.8062205	0.4417398	1.4576929	0.31670824	0.30169493	0.561643	0.54799515	2.1368554	0.676455	0.31806973	-1.5406793	-1.4084309	-2.3431313	-1.6324245	-2.6602635	0.23236738	-0.37866473	0.34436947	-0.63815385	1.2210116	0.28213418	4.471625	-1.3275893	-1.325264	0.9971131	-0.81677145	-2.5730283	-2.2872226	0.24389249	1.8416356	-0.7426795	-1.1056705	-0.052756462	-1.3815659	-0.40297368	0.3162182	0.5893092	-2.0749412	-0.5684253	0.22357883	-0.6113783	0.43624678	1.1873049	0.1683998	0.29635453	0.52472657	-0.09076188	1.5816952	0.885667	0.40124184	-1.6592222	-1.3903048	-1.8737296	-1.6514668	-1.8975276	0.15006304	-0.63668406	0.20112309	-0.71373165	2.8169603	0.23852657	4.4856963	-1.1605844	-1.0033177	0.8165984	-0.9975785	-3.3260255	-3.5840135	0.1693742	2.0824509	-0.94403046	-1.5617298	-0.14309895	-0.4319558	-1.0154719	0.36628452	0.9569402	-2.242995	-0.32021242	0.47575626	-0.76968765	0.6973943	0.28653538	0.4798446	0.5539393	0.56122786	-0.5334395	-0.5886136	0.661498	0.40914977	-1.5747557	-1.1730975	-0.56965804	-1.5990084	-1.4789467	0.10881688	-1.1725754	0.45266652	-0.5425005	2.98267	0.1881181	4.2453504	-0.94825315	-0.5905795	0.31039906	-1.392574	-4.149644	-6.854475	0.52751344	2.5467958	-1.513567	-1.9568615	-0.03315581	0.6232414	-1.8087329	0.19680375	1.2063957	-1.4166067	0.07137805	0.2371531	-0.81271726	0.30724204	-0.5973373	0.44371128	0.3292112	0.28701672	-0.40669984	-1.6372256	0.3536401	0.39481544	-0.7164059	-1.1791722	0.43978325	-0.52105683	-1.4575187	0.1446716	-1.1110619	0.32097474	-0.4231206	2.4027205	0.052388832	2.0919323	-0.4404978	-0.085178584	-0.56494796	-1.7084792	-4.997393	-4.69834	0.49019927	2.3541358	1.7746873	-2.090519	0.9125772	1.2274054	-2.3694563	0.11868007	0.86411715	-0.5153176	0.4423536	-0.20792682	-0.22465092	-0.82314306	0.2342364	-0.02271361	-0.053838782	0.17113541	-0.18600643	-0.0027132018	-0.030218728	-0.5842136	0.4219838	-0.4705805	0.25939304	-0.1980133	-0.33964238	-0.31119487	0.3672619	-0.18991718	0.4218293	0.09199649	0.13911793	-0.11189689	-0.43069336	-0.3611323	-0.031669825	-0.80348384	0.094012186	-0.04590929	-0.18467252	-0.54240483	-0.0883314	-0.6877133	-0.1366644	0.23581976	-0.2225514	-0.033983696	0.10493192	-0.1715009	-1.1224765	0.054779053	-0.2768498	-0.48659334	0.10339817	-0.042164695	-0.07176053	-0.44518134	-0.07573249	-0.027335865	-0.036378067	-0.5202471	0.15073201	-0.47766727	0.08010632	-0.075237736	-0.31553116	-0.26961058	0.15499164	-0.025831606	0.21208239	0.14262645	-0.089956306	-0.028734123	-0.4045998	-0.35139292	-0.034649104	-1.1893277	-0.085583486	-0.02167201	0.041802812	-0.1617579	-0.04822187	-0.9035997	-0.08264649	0.51539886	-0.18462843	0.039254084	-0.2886908	-0.08022396	-0.67290694	0.046022054	-0.19943908	-0.30660456	-0.3131302	0.18739752	-0.011766875	-0.49473652	-0.08565714	-0.23180689	-0.04768767	-0.39414868	-0.45870474	-0.48532283	0.21488105	-0.084884904	-0.25097993	-0.4248817	0.03400159	0.17851897	0.09457063	0.35774487	-0.31681582	-0.018063782	-0.4225779	-0.30427572	0.0063909115	-1.603761	-0.24199541	0.0058267177	0.03990129	0.0072916304	-0.03018585	-1.0776962	-0.084459476	0.82158655	-0.1703269	0.07147616	-0.29276228	-0.093890384	-0.19604814	0.3012902	-0.0088139335	-0.14743038	-0.643117	0.24914601	0.25122607	-0.75789225	-0.057087615	-0.42409915	-0.13214578	-0.2126892	-0.6078395	-0.62571186	0.29433316	-0.023423344	-0.30040437	-0.38740483	0.015559481	0.08799532	-0.083041936	0.45057714	-0.11166873	-0.023828974	-0.5458427	-0.2923707	-0.08947619	-1.4288632	-0.4013068	0.008126196	0.04562765	-0.061624076	-0.00823176	-1.3498687	-0.043395903	0.90102434	-0.13349128	0.14710641	-0.13111037	-0.00019363205	-0.61626726	0.29460058	-0.007857272	0.0962342	-0.9868913	0.19727583	0.25937888	-0.8743111	-0.048301097	-0.6036452	-0.25048938	-0.036823407	-0.6655575	-0.7843709	0.38740286	0.023295961	-0.2455477	-0.27647814	0.006667885	0.22097915	-0.37185565	0.5721749	-0.00065462204	-0.08329897	-0.6726982	-0.335101	-0.16183548	-1.3474543	-0.49684107	-0.0022271278	0.18820003	-0.0022721393	0.019458964	-1.4275644	-0.019357365	0.5540221	-0.12881729	0.26516047	0.04823435	0.40543216	-0.7421745	0.3745729	-0.050937403	0.20644595	-1.339564	0.23349565	0.37426394	-0.99124277	-0.073494256	-0.7715801	-0.40452093	0.38560498	-0.39178428	-1.0007278	0.4802185	-0.02374647	-0.13049358	0.05081262	0.1654409	0.20523474	-0.92496556	0.62934107	0.1789591	-0.18680222	-0.81699675	-0.5166089	-0.31280553	-1.1242603	-0.5457529	-0.045886423	0.32456726	-0.091344364	0.026386285	-1.509145	-0.04481876	0.12536262	-0.2095	0.4063379	0.19132566	0.954742	-1.0035664	0.32261327	-0.23687212	0.23768732	-1.5805944	0.47136036	0.42636496	-0.943269	0.013006748	-1.0795206	-0.6510241	0.5737788	-0.020724675	-1.2763207	0.5665074	-0.03182664	0.019523686	0.36599037	0.2911582	0.30320293	-1.7974614	0.50803006	0.22153367	-0.13689321	-0.940339	-0.5447386	-0.54819643	-0.93787724	-0.5383973	-0.011724225	0.36193955	-0.034161136	0.053924717	-1.7780997	-0.072941825	-0.2708547	-0.17853561	0.58959246	0.14291845	1.5589337	-1.0765725	0.5704636	-0.38034037	-0.19539277	-1.1689218	0.4105679	0.4858651	-0.5662637	0.21991037	-0.72802943	-0.9382562	0.22356945	-0.0049683847	-1.8122778	0.028223472	0.06479253	-0.020234808	0.7087252	0.5007341	0.50466365	-3.2024887	0.5237199	0.39327398	0.102936074	-1.1934985	-0.66461027	-0.5327233	-0.72995746	-0.50914544	-0.01588615	0.48558727	0.4206027	0.058873557	-2.5044515	-0.046286542	-0.7674832	0.1063011	0.81393623	0.22771734	1.7777832	-1.0164963	0.579946	-0.4066109	-1.3898169	0.4505188	0.5968842	0.36259568	-0.34588915	0.2538114	0.039073594	-0.9352658	-0.16386032	-0.49002478	-2.44683	-1.1424322	0.26887783	-0.21380483	0.8158497	0.92295134	0.48371863	-5.0086684	1.2666993	0.54212666	1.0339574	-1.5212169	-0.64188516	-0.09773876	0.002833631	-0.27028972	-0.14689597	0.20051397	1.1731399	-0.37238893	-4.1414094	-0.27505976	-0.48738137	0.8771168	0.67797583	0.679685	0.57915914	-0.91027945	0.5128107	-0.31691557	-2.399575	1.3866066	0.33657765	0.33092368	-0.46029058	-1.0562662	0.040573753	-0.33949468	-0.025026765	-0.70944965	-2.5832407	-1.6192211	-0.05903748	0.45809552	0.5717916	1.3461001	0.52226514	-6.600739	2.4359696	0.3347774	1.7496865	-1.3637781	-0.09711452	-0.3525383	0.3826189	-0.12771769	-0.19178914	0.16174625	1.6480944	-0.76043946	-5.7326574	-0.47664294	0.42958122	1.0586379	0.34474206	1.0675211	-0.03705681	-0.54286194	0.50487703	-0.53369373	-2.5030055	1.2379017	0.60153615	0.4912269	-0.37863916	-1.299963	-1.4665971	0.37341934	0.13981527	-0.9576944	-2.6293273	-1.3422705	-0.251628	1.0762591	0.31516954	1.2533184	0.3685691	-7.4599147	1.9017625	0.1853083	2.370642	-1.2473588	0.3158431	-0.69920564	0.5513885	0.27445176	-0.5722186	0.16368493	1.9382504	-1.0413072	-6.2512355	-0.4129154	0.60445005	1.2369326	0.12356458	1.2826889	0.32612568	-0.31645003	0.5116441	-0.6590762	-2.3348093	1.2445515	0.71046317	0.520724	-0.34345376	-2.3786259	-2.1974845	0.65657055	0.2570048	-1.0859762	-2.5768352	-0.98374283	-0.6375601	0.8825911	0.2049826	1.112301	0.69467837	-7.039037	1.7364112	0.08458906	2.8748434	-1.31949	0.44416183	-0.7455262	0.45282438	0.4690079	-1.4252958	0.57967246	2.1938226	-1.8851217	-6.347548	-0.44307432	0.80107987	1.1672184	-0.08523096	1.5032028	0.15075731	-0.132503	0.586105	-0.7337483	-1.7687527	0.6474225	0.8320162	0.59698194	-0.23944728	-4.02044	-2.9879763	1.1970835	0.29436946	-1.0135491	-2.4974043	-0.88402146	-0.9612	0.7392608	0.03572952	0.6423381	0.64507574	-6.002458	1.3043878	0.068628624	3.382494	-1.175368	0.60447615	-0.89774835	0.18398474	-0.029582722	-1.4849486	0.6402588	2.2181134	-2.016116	-5.8291373	-0.3416415	0.92583555	0.65743256	0.69724	1.629785	0.3404237	0.025083428	0.7486826	-0.69686854	-1.3714255	0.30972007	0.5771601	0.7806209	-0.26426256	-4.7864094	-3.2569745	1.4102478	0.24109936	-0.60185456	-2.6280265	-0.5325594	-0.034778867	0.014349239	0.2309027	0.48611233	0.70448214	-4.283244	1.2699844	-0.11185838	2.8420916	-1.2249795	0.44054857	-0.7606634	-0.07596394	-1.0645608	-2.8700228	0.475618	2.1553352	-1.8937833	-4.9232383	-0.53476334	0.9511445	0.09083452	2.135786	1.4057963	0.06368417	0.08524386	0.71958995	-0.81508815	-0.69340336	0.23709923	0.5588505	0.60035807	-0.25659034	-4.393025	-3.340069	1.158842	0.11129537	-0.42165515	-2.6711142	0.045119774	0.7968873	-0.6223232	0.24010712	-0.049701832	0.71425194	-3.0663285	1.4796157	-0.15748207	2.3004246	-1.1221124	0.3558038	-0.5342073	-0.32312536	-1.8735249	-3.9468195	0.29416564	2.0207922	-1.473037	-3.7959213	-0.43333003	0.84836805	-0.39024302	3.4247167	1.2569506	-0.35905427	0.22631358	0.48706838	-0.6030133	-0.06557387	-0.65998113	0.4586427	0.38156283	-0.4252335	-2.0633194	-2.7510185	0.5940295	0.13404967	0.31897116	-2.5938387	-0.16826722	0.24911526	-1.0692837	0.3919452	-0.66270006	0.527673	-1.8347279	1.66107	-0.47499114	1.5404434	-0.6824488	0.5210178	-0.48535773	-1.0731196	-1.6008863	-2.5833	0.47005782	1.9557626	0.94087744	-2.2561092	0.43967602	1.2487807	-1.797775	2.929858	0.88624984	-0.09334572	0.5741571	0.18355325	-0.83896923	-0.05196911	-0.5048199	0.18721311	0.1256226	-0.15156773	0.19060363	-0.20149317	0.020691022	0.25531477	-1.0344676	-0.27891043	0.77772033	0.2244793	-0.5871968	0.16360903	-0.6554838	0.31250325	-0.3783678	1.8071722	0.058156617	0.25528774	-0.19236176	-0.74972254	-0.21935782	-0.12107999	-1.0687065	0.01132384	0.24942502	0.032141216	0.0026773699	-1.3613209	0.121419474	-0.80237955	-0.32036775	0.1260298	-0.14376003	-0.8101223	-0.63479155	0.13925384	-0.8303929	-0.11629462	-0.56179696	0.26340348	0.2524311	-0.14255548	0.17530245	-0.60998434	0.018415835	0.34066093	-1.1258613	-0.2971165	0.998387	0.2059513	-0.29684693	0.15215503	-0.63250095	0.22010686	-0.425829	2.3642988	0.07067648	0.2556064	-0.21715578	-0.74378264	-0.28096947	-0.13215573	-1.1483802	0.009405112	0.18136458	0.08286157	-0.0020844075	-1.5186231	0.10322646	-0.72588307	-0.28092664	0.1348861	-0.044498626	-0.9513827	-0.61062187	0.40357998	-0.81237584	-0.14579369	-0.64973015	0.23689218	0.33006972	-0.14509735	0.13304713	-1.0719221	0.019566063	0.39987293	-1.1157211	-0.3528255	1.1337497	0.15695974	-0.11053396	0.13875991	-0.6338079	0.24924329	-0.44239265	2.6084874	0.019181138	0.21261802	-0.2389149	-0.6912499	-0.3223145	-0.06330362	-1.1888922	-0.00038558565	0.064293005	-0.017682519	-0.012051704	-1.6141578	0.07648577	-0.6802395	-0.23341581	0.15282519	0.009605527	-0.9849721	-0.56371766	0.23434189	-0.81022924	-0.18352668	-0.697306	0.2613005	0.21270849	-0.14736187	0.2059222	-1.4911433	0.018910434	0.4224012	-1.1088116	-0.37183726	1.1795864	0.26582974	-0.0021457896	0.163557	-0.63413435	0.34957966	-0.4384284	2.7030683	0.066464655	0.26621148	-0.25906566	-