4
21	40	40	256
-0.9234689474105835	1.7537137269973755	0.9385405778884888	0.47826358675956726	-0.24277850985527039	0.6306449174880981	0.17790378630161285	0.7377981543540955	2.005073308944702	-1.006829857826233	2.1546380519866943	2.209120750427246	-0.6858470439910889	0.23387227952480316	-0.3035435080528259	0.7874181866645813	2.369398593902588	2.4815375804901123	-0.8753604888916016	1.4480082988739014	-0.968869686126709	-2.1009743213653564	2.633307456970215	2.361449718475342	0.009430180303752422	-0.007567632477730513	1.3118979930877686	0.03216380253434181	-0.022489430382847786	0.49506646394729614	1.7625272274017334	-2.396937608718872	-1.4907013177871704	0.8901308178901672	2.554234266281128	-0.3305959701538086	0.6953279972076416	-0.011269615963101387	0.5318223237991333	-1.4135050773620605
0.11017481237649918	-0.3087664544582367	0.0073600527830421925	-0.2544460594654083	-0.24994124472141266	0.0018985698698088527	-0.15943777561187744	0.18182986974716187	0.009013076312839985	0.13271473348140717	-0.002276180312037468	0.1286678910255432	-0.21617306768894196	-0.04679637774825096	-0.009865769185125828	-0.0035427871625870466	-0.132096529006958	-0.21405039727687836	0.10170716047286987	-0.010367264971137047	-0.22777989506721497	-0.1553221344947815	-0.08456376194953918	-0.14254525303840637	-0.2980920672416687	0.28434786200523376	-0.20794185996055603	0.24341841042041779	0.09356942027807236	0.08172222971916199	-0.14360375702381134	-0.3429504632949829	-0.2673605680465698	-0.004067535512149334	-0.009362401440739632	0.12421995401382446	0.4680553078651428	0.09098296612501144	-0.38542476296424866	0.05227014049887657
0.14555293321609497	0.15500780940055847	0.14243070781230927	0.15933012962341309	0.20651409029960632	0.23036254942417145	0.18645595014095306	0.08727094531059265	-0.08680062741041183	-0.14072993397712708	-0.12935252487659454	-0.13297110795974731	-0.12931643426418304	0.00446863891556859	0.5104305148124695	0.9599133133888245	0.3293468654155731	0.28034287691116333	0.1934822052717209	0.15409579873085022	0.1343560665845871	0.1587812304496765	0.1516588032245636	0.1845504194498062	0.11597985029220581	0.039964333176612854	0.04002505540847778	-0.0051602814346551895	-0.04626605287194252	-0.003964792937040329	0.3647153675556183	0.841898500919342	0.23645280301570892	0.28993627429008484	0.29989224672317505	0.3364170789718628	0.2597784101963043	0.2793370187282562	0.2905464172363281	0.3648527264595032	0.27898862957954407	0.07485204935073853	0.06569023430347443	-0.01236744225025177	0.03138381242752075	0.2770968973636627	0.44949856400489807	0.6336607336997986	0.146429643034935	0.0466606430709362	0.04328399896621704	0.02475178800523281	-0.046366188675165176	-0.024253077805042267	-0.09434466063976288	-0.20428571105003357	-0.3375132381916046	-0.22103513777256012	-0.09505025297403336	0.20174774527549744	0.40967240929603577	0.7120305299758911	0.8529662489891052	0.8229079246520996	0.04472896829247475	0.07302282005548477	0.13641716539859772	0.1414509415626526	0.14549975097179413	0.10921579599380493	0.15126986801624298	0.1767285168170929	0.04766696318984032	-0.20110777020454407	-0.3032068610191345	-0.2741146683692932	-0.18512339890003204	0.11430326849222183	0.1749027520418167	0.3950582444667816	-0.17412543296813965	-0.1406155675649643	-0.1201808899641037	-0.11441224813461304	-0.035469964146614075	-0.004591056611388922	-0.0013152306200936437	0.007764761336147785	0.12846767902374268	0.01822233945131302	-0.03287624567747116	-0.030475767329335213	-0.07035484164953232	-0.024565743282437325	0.02486204355955124	0.08988121151924133	-0.198347270488739	-0.11384963989257812	-0.03216718137264252	-0.02543305791914463	-0.07953423261642456	-0.10645569115877151	-0.1269332766532898	-0.08509957045316696	-0.04647703096270561	0.07193993777036667	0.09361542761325836	0.16352853178977966	0.31765130162239075	0.4714778959751129	0.551293671131134	0.3823375105857849	-0.23016543686389923	-0.23043669760227203	-0.19519418478012085	-0.2065785974264145	-0.18974900245666504	-0.2002045065164566	-0.07262497395277023	0.03715625777840614	0.1141858622431755	0.19166360795497894	0.2320234775543213	0.1812680959701538	0.17817679047584534	0.001212377566844225	-0.15222276747226715	0.008100062608718872	-0.10182371735572815	0.0539008229970932	0.17909468710422516	0.27372726798057556	0.3559006452560425	0.286106675863266	0.2789354920387268	-0.003727014409378171	-0.1893220841884613	-0.425744891166687	-0.38627704977989197	-0.387528657913208	-0.4105817675590515	-0.2954140901565552	-0.11624528467655182	0.2809579372406006	0.10648108273744583	0.11832065135240555	0.04353008419275284	0.044016074389219284	0.08366866409778595	0.042309682816267014	0.13184836506843567	0.18758270144462585	0.11972099542617798	-0.11665459722280502	-0.11202118545770645	-0.227117121219635	-0.1354731023311615	0.06078672409057617	0.26094210147857666	0.5220716595649719	0.1640966534614563	0.1618373543024063	0.15568797290325165	0.12463945895433426	0.14886082708835602	0.19953787326812744	0.10514498502016068	0.011131123639643192	-0.13605844974517822	-0.22768434882164001	-0.22658516466617584	-0.20581814646720886	-0.03251170367002487	0.15680032968521118	0.32946306467056274	0.5784948468208313	-0.08459437638521194	0.07100506871938705	0.2061198204755783	0.198736310005188	0.1530502438545227	0.07770992070436478	0.10504037141799927	0.07927781343460083	0.191578671336174	0.21080514788627625	0.30277884006500244	0.29379817843437195	0.29373905062675476	0.3550122380256653	0.35143694281578064	0.6876261234283447	-0.4374878406524658	-0.3107907474040985	-0.22584472596645355	0.025989800691604614	0.22490964829921722	0.2865138053894043	0.2992226183414459	0.24035273492336273	0.44235384464263916	0.5281657576560974	0.5484307408332825	0.4643610715866089	0.5793953537940979	0.5676445364952087	0.6598644256591797	0.6718629598617554	-0.12375486642122269	-0.03950553014874458	0.02009330317378044	0.018874604254961014	-0.1244366466999054	-0.1932893693447113	-0.2778146266937256	-0.2936774790287018	-0.01705404929816723	0.12401413172483444	0.19796019792556763	0.20244941115379333	0.3461935520172119	0.6057863831520081	0.742188036441803	0.7227307558059692	-0.8015065789222717	-0.680560827255249	-0.573569655418396	-0.5339028835296631	-0.3259497582912445	-0.16968147456645966	-0.13028667867183685	-0.03504187613725662	0.09815385192632675	0.2017824500799179	0.26267290115356445	0.2866657078266144	0.3259925842285156	0.34064704179763794	0.3367067873477936	0.24411268532276154	-0.7429222464561462	-0.48757821321487427	-0.21640634536743164	-0.06700853258371353	0.09576094150543213	0.19711658358573914	0.2754218578338623	0.17616796493530273	-0.1562301516532898	-0.32826995849609375	-0.39757826924324036	-0.42957165837287903	-0.3429269790649414	-0.15422753989696503	0.02035721205174923	0.1764923334121704
1.1451633	-0.018630167	0.019580143	-0.2765159	-0.27310216	0.07528079	-0.37959775	-0.55136657	-0.35269025	0.23992158	-0.43022662	-0.57802314	2.2903442	-0.7163347	-0.56876636	-1.2911493	-0.327685	0.71529126	-0.32597575	1.4365474	-2.080658	2.3483458	-1.2197462	-0.2210804	0.21548997	1.8959435	-0.79382473	-0.049107518	1.3659557	-0.9468757	-0.78374565	-0.42687094	0.9634453	0.95235527	-1.4832373	-1.4840198	-1.8223894	0.80537295	-1.7153316	0.14860623	-0.8862013	1.0029023	-0.948956	-0.1456579	3.1993074	-0.15166213	0.5651812	0.07682492	-0.9360589	1.0892804	-0.8644846	-1.5326312	0.46136883	0.15591393	0.90034986	-1.0813172	-0.46918625	0.67460746	0.60361904	-0.74794227	0.770797	0.30414438	-1.0492162	1.8823582	-1.3760749	-0.25241563	-1.7747363	0.20452906	0.601873	0.2299009	0.4391516	0.15317954	-1.0683459	1.2135506	0.7871827	0.4426699	0.41958207	-0.39529663	-0.2372097	-0.8128264	0.054859642	-0.18546847	1.4957235	0.38507366	-0.18755594	-3.9710248	0.058001917	5.6045656	-0.3326159	0.006987097	-0.24107544	-0.52084166	-0.26815233	0.04451219	1.305968	-0.4760595	1.3901237	1.4468316	-0.48409182	-2.4213958	0.12819368	0.18949118	-0.3247447	-2.0657885	-1.9607115	0.22344719	-0.008858477	-0.06527498	0.52851087	-0.425567	0.09589827	-0.19587104	-1.2902386	0.38009876	0.42208552	-0.4190039	0.34754205	0.6913033	0.62904423	0.021196803	-0.21834184	-0.52146214	-0.508525	0.08158223	-0.095741324	0.06681663	-0.6351352	0.28129798	-0.03930136	0.29956374	-0.04074187	-0.061959904	-0.17931549	0.3422097	-0.15272576	-0.0633611	-0.9491042	0.59974027	0.956408	0.32816562	-0.45339146	0.46372166	-1.0780388	-0.24906942	0.3854798	-0.45629004	-1.1571037	-1.719712	1.3726108	0.21433917	-1.642583	-0.48525628	0.75024754	1.5455263	-0.73484993	0.87007004	-1.3777039	-0.61417973	-0.44464973	0.3020922	-2.0039477	-0.3347776	0.75046116	0.734616	1.4531822	1.203452	-0.22219531	0.64572954	-1.4146978	-0.3739148	3.8593023	0.0031024932	-0.88176256	-1.015305	-0.15849417	0.6552955	1.2455354	0.4314346	-0.19249167	0.41112283	-0.791753	-0.69106764	-0.29806226	1.0685067	0.26243833	-0.74778193	0.7014897	0.18807632	-0.043126345	-1.1078393	-2.2231593	-1.9637861	0.06612539	-1.0012383	0.05434586	-0.24948101	-0.7112268	2.1899323	0.042192508	-0.047000133	-0.65107536	1.010778	-0.8808924	-0.9416731	0.2888305	-1.0400132	2.224983	0.3801757	-0.058886267	-0.24658895	1.5442543	2.858149	-0.018496562	1.4164542	-1.7834635	1.2818042	-0.8274793	0.17939949	-0.40486524	0.5028016	-0.35022113	-0.57279986	0.46712282	-0.08882415	0.48259562	-1.5437446	1.2461371	0.6353649	-0.14349978	0.060595542	0.05623011	0.048397716	1.1739846	0.13045086	1.4280695	-0.5886427	-0.2868846	-0.50500447	-0.115435414	0.56336385	0.14750636	-0.6200155	1.3690904	-0.6985319	0.3513114	0.21877117	0.28127137	0.08650244	-0.4673014	-0.37863347	-0.17649077	1.8762351	-0.92013496	-2.9649062	-0.44529507	-0.1926709	-1.1085613	-0.33874267	0.35875496	-0.73360705	1.4229693	0.80636597	-0.038334433	-0.051895823	-0.17841096	1.3398594	-1.1286094	1.0202267	-0.67457503	-0.42996383	0.47334903	-0.36824593	-0.69358665	0.34367266	-2.6764226	-0.16569884	1.7372221	-0.17659208	-0.10255831	1.1289107	-1.4109324	0.20196956	-0.15296665	0.55930746	0.9456275	-0.6319904	1.084516	-0.615414	-0.07716113	-0.8521885	-1.3850008	-0.67270523	-0.4170174	-0.22349784	-0.8318727	-3.451209	-0.1087709	-0.86950773	1.176997	-1.0632826	0.0051778588	-1.4434949	1.2201489	1.9032966	-0.3352486	0.76761854	-2.5190384	2.587881	-2.3527064	0.55547225	-0.5019142	-1.036396	0.9485067	0.047078297	0.7757404	0.46484944	-2.0096734	-0.18307285	1.2644367	-0.33698022	-1.6976744	1.2662842	0.3760473	-0.414854	0.745298	-0.1829186	0.07895803	0.12230481	-1.2713535	1.6011475	-0.4825655	-0.0074242298	-0.15350787	0.6652679	0.061838016	-0.40107122	-0.023979012	6.0765014	-0.07630108	-0.9129044	1.6032091	-0.6077261	0.6682201	-0.74744284	-0.22777705	0.022493556	0.7997168	-0.6452346	0.7318913	0.59874976	0.23711829	-0.41754895	-0.005038106	-0.30531573	-0.9038679	0.043115806	-0.2877304	4.6271925	-1.6017884	-0.008195147	-0.27334738	1.1231966	-0.34941968	-0.2644987	2.5547445	1.8336673	-2.3215578	2.3023548	0.8167487	0.11245626	-0.8306581	-0.6922005	-0.66699886	-0.8270125	1.1673772	0.34866607	0.99030256	3.0928845	-0.05828917	0.096320756	-1.6759913	-0.24781024	-0.37192208	-0.16533759	0.4166574	0.13477968	-1.2527163	0.4679636	-0.23564167	0.53569615	0.7316787	0.15158832	-0.18237787	-1.9040564	-0.48395005	0.7998112	1.6642683	0.5305561	-0.7508639	0.12704624	4.035386	0.09114501	-0.30821216	-1.216287	-0.5621079	0.9018382	0.36695802	0.038453463	0.68202835	-1.3181463	1.0244793	-0.9056714	0.2369834	-0.031187478	-1.3125004	1.4162773	-0.14911428	1.0053941	-0.2037669	0.5415247	-0.8637782	-0.50519866	2.0034418	0.60725427	0.79911065	0.47752213	-0.39565986	-1.3870093	-1.8196331	2.7298415	1.2441316	-1.2603867	1.7047119	-0.16513547	0.5271923	-1.2079566	-2.8745253	0.48545706	-1.216998	0.6836074	-2.853564	0.25358507	-0.16986518	-4.9186735	-0.06431028	-0.53457874	-0.3553352	0.5246406	1.2794243	0.89950734	0.5589339	-1.099116	-2.0749824	0.7231908	0.7986921	0.9879216	-0.9134587	1.6219288	0.7940275	-0.7961005	-0.09004611	0.0036360936	-1.589782	-0.32600975	0.90489167	0.14279042	0.09930411	0.8834236	0.90907335	-1.2859919	-1.6054168	2.3360703	1.3709452	-1.1366009	2.80905	-0.5837818	1.1261758	0.08860829	-0.65632343	0.9923083	1.3180935	0.122733966	0.2179903	-1.6800982	5.199604	0.029159693	-0.36030415	0.2841407	-0.017030245	-0.5466698	0.36113334	1.2314963	-1.5325514	0.70028365	1.091347	0.33550063	1.3513288	-1.0661752	0.54753125	-0.969132	-0.92094916	0.42440233	0.13722497	-0.26774573	-1.7293296	-1.0863258	-0.08780394	-0.23288675	0.60169166	0.58859575	-0.66219044	1.3880762	0.39953464	0.006111802	0.981916	-0.6375672	-0.4006388	0.017836086	-0.2674895	-0.32922557	0.7367881	1.0287195	-1.1074733	-0.19872116	-0.0067597413	0.9786007	-1.8387573	0.8155081	0.02329729	0.014904007	0.8925523	-1.8678256	0.77341807	-0.39973184	-0.8002399	1.232196	-1.5790646	0.96450746	1.184402	0.863625	-0.6308213	-0.6232086	3.0669425	-0.81830573	-0.27407092	0.38788384	0.96947587	-0.28944075	1.239555	0.12109941	0.058060672	0.03356507	0.6927813	0.40889543	0.8592047	-0.3859488	-1.6625286	-0.76890427	-0.30293217	1.2028505	0.4653069	-0.39953864	-1.3815836	-0.2996027	1.0675807	0.20923729	-0.020774718	0.8941365	-1.411763	-0.19777328	-0.43155947	-0.8470359	0.15635543	-0.28208315	0.26333863	0.680559	-1.2513305	-0.25063542	-0.9043172	1.216341	0.04485261	-1.1634692	-1.8408607	0.57473814	0.9130782	0.0594735	-0.7802845	-1.0162253	-0.0063215853	-2.905417	0.013372274	3.324523	1.4826586	-0.14131126	0.061754562	-0.8939375	0.32698342	-2.0578387	-1.5383307	0.8775068	0.9891687	-2.0419405	0.7589852	0.6070704	0.78692317	1.0184872	-0.3969515	-0.94224226	0.71973073	-0.4169812	-0.48085696	-0.09855498	-0.9615609	-0.20257367	-0.119099155	0.7693976	-1.1929536	1.7119313	-0.84287477	0.6482559	1.443271	-0.7170108	-0.08436532	-0.36669338	0.23340066	-0.7170698	-0.056412444	-0.21536136	-0.5342433	-0.22768897	-0.63398683	1.057269	0.22664396	0.24652876	0.41157863	-0.48209396	-0.91054124	0.49903047	1.4230363	0.41434193	0.074773096	1.1802311	-1.123192	-1.1017183	-0.4383422	-0.66921264	1.754168	-0.28839406	0.35075364	1.1685265	0.47879326	0.77621585	0.23678984	-0.16721034	-3.4895532	0.7769413	0.09327822	-1.0347798	0.22055224	-0.5177677	2.4460788	-0.1823505	0.01803868	-1.1003245	0.040549424	-0.4218199	0.68552667	-1.6368992	0.47502533	-0.45609528	-0.61086977	0.7309089	0.12278056	-3.944197	0.24504231	-0.20844074	0.4426102	-0.60798347	-0.55388516	-0.22627018	-0.5042492	0.06157468	-0.15394045	0.8603554	-1.2786465	1.0035114	-1.2882993	0.14714725	-0.06767553	-0.5583671	1.4946882	-0.06988233	-0.23102245	-0.18201426	-0.03022013	-0.270998	0.1212384	1.6677756	0.70579916	0.3357738	0.32590783	-1.088667	-2.2212946	0.5712185	-1.0398238	-0.09170151	-0.8004963	0.050977923	1.0936131	0.091347255	-0.0344915	0.61071116	0.3067097	1.8333863	0.38158053	0.043470066	0.26788655	-0.21033525	0.20856838	-0.31583333	0.24762224	1.6221985	1.1491402	0.90942657	0.50547785	-0.1987194	0.5729168	-0.56015575	2.9659095	-2.3890994	0.37787926	-1.3419995	-0.611787	-0.28822228	-0.10453259	-2.2460446	-1.301055	0.512146	0.33224714	-0.99007934	0.27599713	0.24961786	-1.0625678	1.6336237	0.83163834	-0.0044923895	-0.5811251	0.40616545	0.78328794	0.10515409	-0.58475965	0.91864985	0.58406514	1.2758516	0.11544026	0.51619595	1.5257121	2.9211447	0.1064174	-1.3444521	0.98268163	-0.3856018	0.26883423	0.5572035	1.4734216	-1.2827836	0.5605837	-0.23104276	1.2286401	0.67170155	-0.65135634	-0.00471428	0.6907566	-2.8880675	0.19168192	-0.55015916	5.8338447	2.0630875	-0.72036016	-0.45962423	0.38419774	0.9507825	0.2118305	0.073635906	-1.6409639	-0.3607387	0.028587094	-0.9205182	1.10387	-0.47908482	-0.16473436	-0.49812853	0.8650671	-0.99637073	-0.20426723	0.5680001	0.8576189	-0.50075376	-2.2003412	-0.61297774	1.488948	-0.64135784	-0.53335136	1.1117209	-0.38259777	0.7012152	0.7002	1.0647124	0.46015194	0.19138551	-0.7863841	-0.595394	-0.1109665	0.124673314	-1.2349442	-0.47433734	0.47385567	0.50815266	-0.904867	0.0053858534	-3.3272743	0.076951854	-0.069903456	-0.339469	0.2686805	1.1048039	-0.4136552	0.7495265	-0.3566693	0.69097483	-1.3493575	0.9453049	0.8289258	-0.43156052	-0.41128403	0.4016584	0.03919529	-0.8715898	0.49467736	-0.36796543
-0.6769437	0.20657651	-0.2220596	0.07706166	-0.98438436	2.3857872	2.3618832	0.251182	-0.0028673438	1.152515	0.18839629	-0.35251784	0.2315258	-0.7479403	-0.022826748	0.34786406	0.12279183	-0.468376	-0.28604326	-0.5054497	-0.30754834	0.434708	-0.30717742	-0.18756744	0.8153139	0.06964951	-0.5448848	0.16533093	0.3187404	1.1529568	-0.06630924	0.16606751	0.3538736	-0.36915624	-0.5470421	-0.07068012	0.2619489	0.026189554	-0.22571622	0.1243837	0.9616984	-0.66047645	0.4698266	-0.27847692	2.0673633	0.35207888	0.5482266	-0.5983703	-0.08825541	0.17901997	-1.1976247	-1.713774	0.44791117	0.5686758	1.2039514	0.29165855	-3.2377455	-0.8945924	0.58522844	-2.077633	0.8750022	0.18917501	-0.4307042	-1.6897318	-0.031069368	-0.23201728	-0.60407555	0.29422754	0.9873594	0.65909034	-0.608813	0.22749123	1.2895982	-0.9159515	-0.5068506	0.12367812	-0.99885654	-0.08631999	0.375185	1.5957853	0.37426668	-0.03603388	-0.06146095	0.23694007	-0.83141637	0.53705084	0.80984646	-0.036057323	0.0747092	0.1862481	-0.79880035	-0.90539235	0.25365475	0.09944645	-0.17200783	0.36106467	0.14898902	0.1624465	0.11183225	-0.505464	-0.15647292	0.014889865	-0.608391	0.047432017	0.3825152	0.038146786	-0.08811166	0.33985677	-0.66961735	0.47884825	-0.19856817	0.7342522	0.21305265	-0.31451386	-1.3014525	0.6153507	0.012825223	-0.8297966	0.51550406	0.45270023	-1.5602258	1.0392714	2.803483	-0.56286633	1.0770037	-0.54354167	-0.8120858	0.72806	3.9600186	-1.0857784	1.4292525	1.787059	-0.18844147	0.021321226	-0.5634807	1.1292689	-0.7739686	4.4514275	-1.496283	-0.77383655	-0.7016882	-5.330541	4.541849	-0.9046991	0.09224001	5.270577	4.166536	-0.61197233	-0.57698786	-0.39299217	-0.024263531	-3.907335	-0.42579836	2.4254408	0.87979347	2.4412336	-1.3842138	-0.050489455	-0.7702154	-0.17857929	-0.48484167	-0.7983999	-1.8236533	0.0771965	-0.74676114	0.56303704	-0.20658095	-0.9422453	-4.3143625	1.3755198	0.18481967	0.2590833	0.07728936	0.16713478	0.506927	-0.19971032	-0.59737176	0.05491085	1.9787059	-0.5680507	-0.32905418	4.2987914	-0.8890422	-0.31675145	0.07916136	-1.5136659	-2.683079	-0.09672709	0.5453386	0.4574001	0.61230415	0.55659455	-0.26960498	0.14169382	-1.7954657	0.23284131	0.35512644	1.5414351	-0.94856244	-0.16738881	-0.3358303	0.28250632	-0.048842795	0.022899171	-0.099375404	0.30191153	-0.08835049	0.31407943	-0.30308402	-0.61428785	1.2660226	1.2247697	-0.31111163	-0.13824724	-1.0070766	-0.5079087	3.2522821	-0.13704862	-0.27111986	1.9130443	0.41100726	-0.58168036	0.5466423	3.2665517	-0.4042296	-0.0116122905	0.66194206	-0.39670098	-0.30754495	-0.97572553	-0.005431561	-0.6563681	-1.0005041	0.25513673	0.39072508	-0.4806822	0.27605665	-0.69283026	-0.009188925	-1.1261352	-0.17777558	0.59932107	0.12713104	0.06567112	-0.36624962	0.13441761	-0.0016854404	0.11043069	-1.0754696	0.4641439	-0.09718818	-0.019405749	-0.27199817	0.062141698	0.16934879	0.09837058	-0.25512886	0.20463629	0.55655044	-0.6196283	-0.05981148	1.0840522	-0.38480636	-0.40511847	0.639404	0.20982204	-1.1875665	0.076502904	-0.20558058	0.008948486	0.38449168	0.22963102	-0.01823801	0.16367216	0.07771552	-0.2379029	0.4362723	0.27085307	-0.7513811	-0.13801117	-0.3998588	0.15398893	0.28894764	-0.14570446	0.6070358	0.258679	-0.3538357	0.98503727	0.17358251	0.5267202	0.56933415	-0.0973973	0.29985443	-0.17002824	-0.03127595	-0.15684496	0.5441519	0.31301695	-1.3244008	0.35793722	-0.040304366	-0.6065337	0.23127027	0.3428672	0.5262657	0.96892726	0.30802757	-0.3507906	0.50234723	0.31018618	-0.48219717	-0.44255865	0.07040633	0.18295804	0.5008894	0.20700417	-0.23637544	-0.17751166	0.5915429	-0.5808768	-0.33456925	0.15276004	0.33472976	-0.5745298	0.82456654	0.12593792	-0.24404778	-0.31893092	0.29853413	0.018643042	0.34283197	0.77131724	-0.20547657	-0.2577769	-0.22983937	-0.43995047	-0.009528834	-0.20337513	-0.2143448	0.902442	0.28840044	-0.05272348	-0.054307386	0.6955284	0.044437427	0.15131845	0.14995775	0.24445757	0.5964234	-0.6966373	-0.033255912	0.3796266	-0.19688502	0.13292046	-0.22612911	0.013631102	-0.10431032	-0.7903784	0.06671691	-0.5592242	0.54830617	-0.37186795	-0.0041898983	-0.2086929	0.25826296	0.71742386	0.16862641	0.028814863	-0.021789776	-0.026643313	-0.026029235	-0.29386485	0.09464417	0.06760341	0.5911119	-0.41470465	0.075915575	0.4690581	0.9660547	0.50228953	0.009011487	0.14947453	-0.40516046	-0.16855223	0.07882816	-0.21209109	-0.3588915	0.02507259	-0.6652512	1.3410124	0.08274293	0.69863266	-0.101338565	0.0754548	-0.7772644	0.117068306	-0.10084736	-0.21017106	0.17705497	-0.4741101	0.38554913	-0.079061516	0.14555722	0.30309802	0.73578495	-0.82150924	0.51073045	-0.4719404	-0.17000239	0.30161926	-1.6594508	-2.0552154	0.62775517	-0.09419618	1.3891902	0.991372	-4.071967	-0.34606975	-0.06369289	-2.726823	0.1164918	0.41743657	0.04119406	-4.0408735	0.86642116	-0.022408763	-0.05041763	0.79296887	0.66647804	0.7186521	-0.56057274	0.22253326	2.1134605	-0.83296835	-0.93085974	0.71924937	-0.15598233	0.43951625	0.30243242	1.805768	0.9678796	0.082337044	0.06468745	0.69128126	0.17392226	2.4089108	1.0737659	-0.21051957	0.52499616	0.6973229	0.20232558	-0.4258616	-0.8441058	-0.17795466	-0.058724333	-0.0748571	-0.28177458	-0.17111456	1.6160553	-0.36946818	0.037830412	-0.06229112	-0.6572254	-0.48973948	0.75352275	0.09231005	-0.10428205	-0.34493515	-0.45014822	0.3063553	0.25146428	-0.3881532	1.4168538	-0.48226827	-0.8439609	0.0807434	0.0011278659	0.9157227	-0.119117185	1.1046884	-0.5493775	1.8920968	2.4529603	-0.8170445	-0.19199951	-0.49170634	-0.75191706	0.79207295	2.8105376	-0.9285273	-0.21163855	0.72739315	-0.3762752	0.046065174	-0.57727426	-0.016244387	0.3380608	0.93439025	-1.266129	0.13441294	-0.54920745	-2.7961974	2.3471992	-0.09542772	-0.40704834	2.0896976	3.6251788	-0.23671034	0.16978008	-0.6794612	0.8015356	-0.22742522	-0.64944017	1.7490393	2.4228444	0.09274722	-0.4151165	0.19209564	0.09353873	0.40789774	3.282862	-0.71674395	0.39158785	-3.9514499	0.946348	1.7659719	1.0154246	0.6159185	0.06893023	0.38121894	-1.0723202	-2.0021513	0.13118173	0.77465236	1.8265786	0.66287476	1.1889497	-9.628469	2.5101316	-2.2726138	2.0402868	1.0362391	0.6024682	0.886788	0.03358291	0.020881679	-0.42381895	0.7567833	1.1246198	-0.8045387	-0.8637413	-0.32890344	0.67676926	-1.6160878	-1.2653241	-0.97299355	-6.8849497	0.88883865	1.3393748	1.2327867	-0.62439734	-0.30877677	-0.2135573	0.08316324	-0.6680231	0.35897738	0.6279028	0.51404977	-0.2547148	-0.81270146	2.4633918	1.4576789	-1.0996385	-0.53350836	-1.8350697	-1.3239146	6.143933	1.1036811	0.40116474	3.176416	-0.5234088	-0.20574802	0.284611	5.9839373	-0.8804208	-0.55498326	0.1460124	-0.24329516	-1.5718114	-0.5272728	0.45514256	-0.47684646	-2.1660495	0.32166368	0.20084725	-0.8366485	0.7030838	-0.82336867	-0.7076892	-2.2428484	0.035913378	-1.6985692	-0.58685875	1.3071169	-0.7541621	0.6424254	0.48760894	0.28238183	-0.73720324	0.58514094	-0.3077349	-0.5932308	0.32182953	-0.151653	0.86916476	-0.19751047	0.061828997	0.19289045	0.5769817	-0.11603104	0.4820878	0.61786854	-1.4949154	0.018218536	0.1622114	-1.1498929	-1.5266922	0.21297081	-0.4904771	0.5661924	0.4122216	1.1970127	0.5968337	-1.731649	-0.92075956	-0.35163572	-1.6868951	-0.43431324	-0.088251635	-0.18029281	0.45955774	-0.22778977	-0.5409209	0.39848518	-0.4652323	0.2434122	-0.26639003	0.38096178	1.6187046	-0.90781903	-0.92291987	-0.20427328	0.67947054	0.003972806	0.29764026	0.4876587	-1.2731484	0.54836446	-1.2028157	-0.5194493	-0.18165691	-1.5574536	0.88149905	-0.94894606	0.34074754	-0.021352906	1.763075	0.6225882	-0.15773986	0.6483152	0.1139267	0.24225697	0.685953	-0.32542342	0.9808632	0.19026957	0.050796926	1.167245	1.0729439	0.23647323	0.34024182	0.28497866	-0.20144297	-0.3536518	0.56751704	-0.36678225	-0.562982	-0.07257027	0.09791092	0.7632017	-2.3661923	-0.855909	0.664239	0.017388167	1.7829254	0.65072995	-5.030117	-0.54347414	-0.66306686	-2.5499063	0.09783046	0.47372833	-0.37704667	-4.4450183	1.1742084	0.76166743	-0.50890756	0.7203012	1.0561315	0.34738746	-0.50625837	0.36621436	2.5193746	-0.36914036	-0.53802156	0.88490087	-0.3100508	0.17174327	0.38971296	1.9811502	-0.18370415	0.9425892	0.4226572	-0.049064178	0.20211628	0.29823968	-0.33087555	0.14122395	-0.12334189	-0.045263574	0.08443785	0.56493574	0.065256655	-0.0023413186	-0.5561468	0.17586206	0.37999833	-0.1572519	0.09044776	0.5674184	-0.17929517	0.55470544	-0.23863488	0.10589683	-0.35706523	0.16286951	-0.07891372	0.16154094	0.45114246	-0.16385044	0.1855289	0.12448287	-0.077503175	0.018249854	-0.5074818	0.1814449	0.57328427	-0.20016211	0.08432394	0.14890495	1.8005825	0.32193738	-0.093762554	1.021852	0.27293524	2.266299	-0.16469945	-0.69750196	0.54535025	1.2247819	-0.9016814	-0.4357384	2.4345315	0.35297027	-1.3624312	5.2711396	-0.5019559	0.566498	0.12946172	-0.518845	0.1182686	0.27420244	-0.4727096	-0.48535797	1.0469298	0.46130225	-0.2801983	-0.6118732	4.4526496	2.0907617	0.22806591	-0.12406482	1.9990356	-0.26579082	0.016910832	0.9808946	-0.18412225	1.5424954	0.49086577	6.545072	-0.7949293	0.33647263	-0.051901452	0.18029134	-0.110960096	-0.30693865	-0.6330412	0.12937438	0.03814117	0.2477631	-0.72202766	-0.22097424	0.63235295	0.13539343	0.91928285	0.3988389	-2.9368546	-0.3139499	-1.1803932	-1.406829	-0.2574705	0.13639814	-0.22578421	-3.0337713	0.6935988	0.1267331	-0.20584492	0.39915964	0.39015603	0.35116512	-0.41459924	-0.1389226	1.3684704	0.24394114	-0.50329936	0.5629461	0.1004568	-0.055403274	-0.33682242	-0.036441866	0.18624386	0.38772565	0.5365865	-0.1201035	7.0119424	-0.7857791	1.4927471	-0.22160265	0.13027292	0.32859161	0.01823669	0.43296874	0.5156838	0.06034469	-0.3488907	0.5899089	-0.5254467	-0.065109566	-0.76896465	-0.65703285	0.53831047	0.4796549	0.25660792	-1.1221764	1.1673825	-0.01922877	0.19547535	0.42373294	1.1235458	0.3857491	-1.1017265	-0.4001347	0.5102906	-0.22632971	0.103980124	0.28837606	-0.31834927	0.82369053	0.36562747	-0.13333751	-0.70879453	0.1892825	-0.3599428	-0.4276319	0.01707556	-0.7366378	-1.2896432	0.30412224	0.8491495	0.05078794	0.25053954	0.6356764	-0.48580417	0.0067610196	-0.1148362	-0.5804931	0.39969534	0.5907275	-0.057883397	2.0029757	-0.39868566	-0.8616617	1.0476882	0.20087473	-0.49305066	0.42204264	0.73963684	-0.09889617	-0.10279318	0.035796475	0.43945694	-0.033698063	-0.7755906	1.2453587	1.5396389	-0.63978636	-0.13981107	-0.34025648	0.03282572	0.04592599	0.08668969	0.14151122	-0.16833428	0.3307698	-0.19928123	-1.1008703	-0.044193584	-0.35873625	0.42664042	-0.06331845	-0.8875818	-1.2200222	0.22029306	0.17232676	0.1820033	0.60699964	-1.0779914	0.19029932	0.85318774	-1.1162195	0.33657607	0.42255086	0.009298389	-1.2987102	0.8549806	0.026065052	-0.17581403	-0.1496676	-0.41107097	0.9891439	-0.3570271	-0.059022177	1.036127	-0.8588529	0.37705058	0.08817036	-0.032165606	0.31985784	0.70707774	0.90342116	-0.035190836	-0.19902274	-0.04529417	0.759204	-0.81141585	-0.6209791	-0.6981812	-0.17753051	0.67369646	-0.3204003	-0.4068417	-0.032155607	-0.40858677	-0.03546632	0.17218895	-0.0121854255	-0.62039167	-0.016039222	-0.28610548	-0.1522876	0.1641225	-0.3091406	-0.11075573	-1.0676435	0.3097965	0.18460047	0.31920895	-0.103209555	-0.35430825	0.40356702	0.0033363341	0.33606198	0.54675126	-0.25662452	0.08469294	0.22027521	-0.0795858	0.022616843	0.6489915	0.12959953	-0.57867116	0.05880866	0.13576175	-0.115083106	3.602163	1.1378194	3.8222103	-0.10423806	0.30016032	-0.009012699	0.07761847	0.110010386	0.1023882	0.38179	0.04754484	0.3877774	-0.34793624	-0.31196842	-0.78802305	0.1115526	0.18763874	-0.013348831	-0.0064606112	-0.40004465	1.1774468	0.1851381	0.36623138	0.23288424	0.14027281	0.86360544	-0.20858978	-0.54279035	0.5178579	-0.19077434	-0.8042354	0.07819506	-0.097480215	-0.43222085	0.1293946	-0.14740056	-0.29188386	-0.036775753	-0.26709345	0.08452139	0.37002745	0.02328455	-0.45891064	0.29334846	0.3789163	-0.07769428	-1.6831284	-0.62774664	-0.16687347	0.14435369	1.3980659	0.51023823	-4.1953325	0.3087431	-0.12320332	-2.0024617	-0.07396215	-0.18882515	-0.32816333	-3.7670326	0.50710905	0.03755117	-0.20751977	-0.101924144	0.09242009	0.1815691	0.2557434	0.5407893	1.7822311	0.3532249	-0.65939325	0.77090627	0.16915543	0.09049658	-0.24243963	1.7970754	-0.17094754	0.24764839	0.031881418	0.39459422	0.65280527	0.22166164	0.68602234	-0.05088074	0.84595275	-0.6074862	-0.6187024	-0.3877976	0.36488932	-0.2658459	0.24566413	0.41008672	-0.40003157	-0.64192265	-0.59499925	-0.09535746	0.35196102	0.03887486	0.004590576	-0.734322	0.841227	0.4943401	0.5809698	-0.22301131	0.20746052	0.9449837	-0.23504391	0.4797302	0.094211504	-0.18593286	-0.8720761	0.18850805	-0.07005337	0.32988855	0.8258263	0.45002127	-0.49884427	0.23609392	0.31020376	-0.40727502	0.33431968	0.52025974	0.667176	-0.2899091	-0.9281728	-0.024302913	0.45625997	-0.14913037	0.15309446	0.15835395	-0.48723993	-0.2558949	0.9575618	0.098254025	0.5872916	-0.21074726	0.115411974	0.55536807	-0.45009163	-0.2727024	-0.109202206	-0.33423868	-0.9664719	0.49018866	0.08252048	-0.11632316	-0.7577389	-0.3669361	0.12955171	-0.28386033	-0.201819	0.36023358	-0.19781174	-0.049280558	-0.41806132	-0.36352047	-0.17781484	-0.44562256	-0.119936034	-0.16615981	-0.3241387	0.003723058	0.57040864	0.22608802	-0.063755825	-0.18574053	2.4279628	0.8645798	-0.550272	-0.26179942	-1.7429582	-0.7888746	5.3396955	0.075686194	0.6935899	2.4216313	-0.18584816	-0.23335028	0.38542527	4.7630773	-0.7804347	-0.64905936	0.5498941	-0.35348678	-0.38727126	-0.55760145	0.35591564	-0.6899066	-1.735158	0.022589207	-0.3512015	-0.795964	0.37966692	0.05904144	-0.022101486	-1.1708984	0.3497057	0.13452639	-0.17269532	-0.18823422	0.18612218	-0.6063675	-0.8409421	-0.313683	0.083250545	0.4717573	-1.7060963	-1.0293674	0.6949427	0.6301606	0.8555656	0.63468516	-3.7260036	-0.39416358	-0.598798	-2.235278	0.6494917	0.03238546	-0.29691347	-3.7153456	0.77847	0.11475108	-0.3717147	0.64806324	0.22175004	0.4168909	-0.18260233	0.32699704	1.9817896	0.21299642	-0.13954256	0.8763852	-0.4835256	0.57295495	0.42359057	1.42157	1.0249602	1.1388024	-0.3076534	1.2046204	3.774847	0.12072383	1.2604393	-0.5753404	0.2567202	0.7458387	-0.56007105	-0.583791	2.4845426	-2.0181668	0.26757094	0.5922177	-0.67441994	0.9656942	-0.007983537	-0.72364426	-0.18346608	1.0775145	0.4838368	-1.1258571	1.5221351	0.47979388	-0.23568372	3.0797992	1.8456095	0.5648223	-0.21696593	0.09193891	-0.97260904	-0.7642804	0.8871988	0.13789745	0.2527644	1.46761	0.32460484	-2.211713	0.12279886	0.80525166	-0.24984707	-0.0034410458	-0.0269053	-0.94104016	-0.69658965	0.29740167	-0.09442304	-0.32292378	-0.015679734	0.90052897	-0.7861828	-0.11880376	-0.28931418	-0.37571824	0.46388695	9.111383	-0.2589982	0.6623643	-0.22846697	0.7519933	1.0229669	1.3820885	-0.32401344	0.5912316	-0.101281	-0.336744	0.10286759	-0.029658992	0.86410123	-0.8883782	-0.6991835	1.4024874	2.6156404	-0.69056326	4.269392	0.9223688	0.017361319	0.035402946	1.0214573	-0.16866858	-0.18498929	-0.46807173	0.32405978	1.0261555	-0.24994838	0.040807966	0.36215928	-0.08456052	-0.54996234	-0.19319044	-0.2974204	0.1489051	0.28342727	0.2736702	-1.0343767	0.25889048	0.16328773	-1.0470511	-0.3213912	0.13436863	-0.40584394	-1.1843301	0.6226977	0.29645756	-0.19168073	0.17902543	-0.106393255	0.30854192	0.35157958	-0.2908762	0.797347	-0.20370409	-0.9896893	0.28991756	-0.048643842	-0.041750636	0.17077498	0.48823765	0.032536138	-0.40994585	-1.8613	0.5915943	-0.1910249	0.83067036	0.40807655	-0.65047777	-2.728176	0.67765594	0.45899948	-0.4213476	0.5462108	0.015627775	0.19232003	0.16008487	-0.2569419	-0.7533126	1.0672929	-0.4060421	0.04137037	2.4674363	-1.472461	-0.15586422	0.1643066	-1.0698339	-2.714041	0.14734408	-0.037640236	0.07303714	0.1644741	0.086603664	0.03402376	-0.8709863	-2.3625085	0.48748955	-3.4162247	0.26362887	-0.4982481	-0.4911492	0.7451404	0.076423235	0.16751496	0.6856278	0.88941795	-0.142936	-0.11146589	-0.008945041	0.6144116	0.19669516	0.25946516	0.33664298	-0.12415833	-0.17730743	-0.41389483	0.21186446	1.0695542	0.54450154	-0.34493175	-0.18312484	0.0044259597	0.101385124	0.2268165	0.75354093	0.19823363	0.5130286	0.4829206	-0.058552198	-0.40087357	-0.5995604	-0.31946218	0.64079666	-0.10887275	-0.43599552	0.6417123	-0.125855	0.2628409	0.3494321	-0.1778586	-0.12865402	1.2349153	-0.38301414	-0.022064641	-0.15359706	0.2684489	0.2728388	0.36953753	-0.30854332	0.53344923	-0.0877609	0.6226536	-0.3899413	0.22579867	0.2932626	-0.34472436	0.33528712	0.69115245	0.008310101	0.34929022	-0.44927436	0.012323118	-0.068932965	-0.060252503	0.6837471	-0.43292844	-0.046149604	0.2640125	-0.11169903	-0.17252044	-1.2404429	0.23385009	-0.3380854	0.27040824	-0.1106439	-0.6142945	0.068697795	-0.3079828	0.6349306	0.14879966	0.0074920226	0.01842751	-0.20100856	-0.02425139	0.16333182	0.4622902	1.2455302	-1.1178483	-0.07830179	0.34504315	0.02712861	-0.10270767	-0.2040785	0.32065	0.19454971	-0.15691037	0.23043592	0.32317296	-0.15840788	0.8490942	0.62605244	-0.02029258	0.71764696	-0.68952554	-0.37796158	0.6434381	-0.21992648	-0.4795125	0.11414566	1.0400949	0.76712227	-0.30800298	0.17110576	-0.2762275	0.027048027	-0.50634235	0.18708745	-0.58185273	0.18380824	-0.12944354	-0.0005912378	-0.044532035	0.690262	0.25796738	0.7216733	1.5773642	0.41719723	-2.0188813	-0.5150477	0.8309036	-0.247459	-0.40128142	-0.54684347	1.298366	-0.76260257	0.474154	0.5532946	-0.9942611	0.5613559	0.5488479	-1.056667	0.540787	1.0590912	0.392004	-1.1478287	1.5096307	0.39340046	0.2660659	0.14017136	1.1374836	0.49761128	-0.56899744	-0.6919764	-0.60029155	-0.23529263	0.6856523	0.14135328	-0.14273667	1.800897	0.69606745	1.6672499	0.50129074	0.21954499	0.23618348	0.6884818	0.6230867	-0.122927904	2.2858071	-0.25853643	-0.12641793	0.12887047	0.15035942	-0.88604283	-0.008619366	0.259336	-0.216948	-0.40747732	-0.28625944	0.085324615	1.1507412	0.6455252	0.18496138	0.67878854	-0.27746615	-0.66348827	0.12465639	-0.10477864	-0.31031665	-0.22394182	0.8974845	1.4689443	-0.24086182	0.7889207	-0.25449586	-0.4620934	-0.51157147	0.019346071	-0.22812603	0.48165387	-0.1103431	-0.75115055
-0.24750867	0.6672252	-0.7984939	0.1197008	-0.018455409	0.5843492	-0.5755561	0.116160065	1.0115378	-0.24201952	-1.1247764	-0.9575165	-0.20271234	0.20844969	2.0378258	-0.55265707	-0.20695798	-1.6764553	0.13837129	-0.53636765	-0.83150345	-0.61387306	-0.4446129	-0.7958437	-1.0833843	-0.6283975	-1.8811736	-0.072911486	0.50457203	1.756385	-0.9074734	-0.35366544	-0.5356386	-0.21819024	0.5701433	0.19868433	-0.3716305	0.28013524	-0.48499697	0.3084087	-0.3585998	-0.08747742	-0.94556	0.09813069	-0.0011589351	0.6999072	-0.5836876	0.3206811	1.1335547	-0.14481413	-1.4512212	-0.8740833	-0.13409713	0.3053796	2.4668694	-0.58279544	-0.1883044	-1.7583678	0.17602691	-0.5887997	-0.80518436	-0.61306113	-0.35524365	-0.64840376	-1.2340183	-0.7862427	-1.9481502	0.05689004	0.6864126	1.9849204	-0.87745863	-0.28186095	-0.375646	-0.0012224583	0.6497242	0.05646184	-0.23612922	0.36782748	-0.4700289	0.18201269	-0.4367275	-0.47415876	-0.9991933	0.08985441	0.03657959	0.7766506	-0.58446056	0.24155663	1.163385	-0.021711392	-1.5571029	-0.8278347	-0.14666966	0.33555308	2.535975	-0.59179115	-0.14505592	-1.827223	0.19101636	-0.6119636	-0.8621843	-0.59377205	-0.20179522	-0.5916843	-1.3140591	-0.9122357	-1.9351695	0.16211234	0.8692319	1.9422662	-0.9583138	-0.22005668	-0.1676238	0.122869566	0.62559247	0.2815928	-0.19575071	0.38287464	-0.47608203	0.071899004	-0.46568403	-0.7919513	-0.9945634	0.061798807	0.022724124	0.75647587	-0.61408144	0.28732672	1.2183393	0.0013716196	-1.6615607	-0.83413774	-0.1544056	0.33204153	2.5578566	-0.60132957	-0.15346576	-1.8106569	0.17384362	-0.60931724	-0.8767709	-0.5383303	-0.14934501	-0.54578197	-1.3909271	-0.9109985	-1.9895239	0.15974581	0.91117483	2.0183852	-0.9465976	-0.21515185	0.0821483	0.15371056	0.64086986	0.34252638	-0.22535233	0.3847083	-0.4509089	0.0986956	-0.5513221	-1.1280493	-1.016903	0.047421977	-0.0014197413	0.78256327	-0.6155531	0.3158617	1.2222923	0.057333857	-1.6882658	-0.81042874	-0.24115962	0.31872094	2.6369352	-0.59396195	-0.12892991	-1.7667975	0.20106597	-0.65389466	-0.96378607	-0.49873593	-0.055326547	-0.508302	-1.4313613	-0.9528382	-2.0120041	0.20755164	1.0065367	2.004801	-0.9646262	-0.14326894	0.44512606	0.16989209	0.5352798	0.24424517	-0.12688483	0.38067907	-0.4453173	0.11618439	-0.5912356	-1.4734815	-1.020773	0.017088838	-0.066678524	0.777801	-0.6379781	0.38788733	1.2502347	0.06229558	-1.731905	-0.8252978	-0.30734596	0.2967092	2.676114	-0.5405447	-0.13889524	-1.7538719	0.16439255	-0.6667346	-1.1245439	-0.45318162	0.048802905	-0.4578579	-1.5328194	-0.92504865	-2.0778556	0.24634705	1.1141782	1.908958	-0.98346025	-0.11385974	1.0853273	0.20590854	0.4246538	0.22542386	-0.12077339	0.35213056	-0.43564233	0.17934427	-0.7111256	-1.7282358	-1.0461422	-0.038685743	-0.15265714	0.8376257	-0.6513453	0.3391954	1.2301965	0.0698495	-1.7825899	-0.8187192	-0.40957412	0.30493626	2.7294014	-0.4896928	-0.10812732	-1.6974614	0.15177114	-0.7210064	-1.2385769	-0.4132965	0.20049728	-0.38567084	-1.6108681	-0.89072853	-2.1712081	0.331767	1.3125218	1.7110308	-1.0495046	-0.0400015	2.030469	0.15488048	0.14531823	0.11758533	-0.047332972	0.28954983	-0.4262011	0.34074688	-0.81139946	-1.9973161	-1.0103695	-0.3052595	-0.3179675	1.0287755	-0.6710904	0.17572445	1.0959971	-0.121209875	-1.5909654	-0.8175653	-0.37156072	0.28827718	2.896722	-0.73436314	-0.14447203	-1.5809654	0.025946336	-0.7418294	-1.0568848	-0.43556917	0.24612819	-0.22404458	-1.802887	-0.6459895	-2.6037152	0.31203675	1.5259295	1.4727852	-0.9522583	0.020312058	3.488704	0.016856387	-0.27602455	0.042316172	0.13813196	0.063894786	-0.3350428	0.59920794	-0.9137577	-1.8665106	-0.96973854	-0.70535475	-0.43130106	1.349116	-0.74250436	-0.27725643	0.8198017	-0.5180969	-0.691248	-0.78307426	0.42667112	0.1658448	3.5368247	-1.9092416	-0.21810818	-1.5607836	-0.13997567	-0.7887541	-0.44235393	-0.5245663	-0.033177182	-0.08822246	-2.0171366	-0.21832891	-3.2055457	0.28960615	1.6243736	0.96474975	-0.8345491	0.08418934	5.0888925	-0.3216083	-0.19294196	-0.10134137	0.4331973	-0.29357374	-0.22723848	1.1410555	-0.97525585	-1.6076952	-0.9376871	0.0512334	-0.09558968	1.3374542	-0.78604436	-0.6472274	0.5961388	-0.63210046	-0.2907543	-0.7959372	0.88311774	0.15131983	3.7143319	-3.1685712	-0.24102136	-1.4691547	-0.15152353	-0.8150665	-0.2553924	-0.49577108	-0.23704967	-0.048695184	-2.0587056	0.07635259	-3.3707383	0.2182838	1.5209475	0.70735383	-0.92770433	0.13544354	5.3420043	-0.6899222	0.26170796	0.016931534	0.66389376	-0.5376145	-0.20459588	1.4672345	-0.92875445	-1.5353928	-0.82218707	0.87220424	0.07041561	1.2797582	-0.8081716	-0.7056389	0.5791776	-0.71361494	-0.056664333	-0.849813	0.8826654	0.13452353	3.6759155	-3.5676138	-0.24560365	-1.5302948	-0.19168311	-0.80790496	-0.2630896	-0.4820039	-0.39138868	-0.048095904	-2.0880783	0.07293016	-3.453874	0.19304392	1.4133967	0.66510713	-0.8992282	0.16361108	5.3075185	-0.7938951	0.47904852	-0.07023941	0.7140247	-0.6041245	-0.1854742	1.5428845	-0.9889537	-1.2579125	-0.61964005	2.1432183	0.22766985	1.2068878	-0.7934531	-0.7479327	0.4244435	-0.7999235	0.0020162915	-0.8124182	0.70147324	0.15412335	3.520627	-3.937618	-0.29862255	-1.5180871	-0.20387842	-0.7527706	-0.25719318	-0.3882702	-0.5985432	-0.088150196	-2.077364	0.21033958	-3.4856672	0.032661486	1.1981378	0.7037648	-0.99496394	0.12601408	5.0589447	-1.0527405	0.712317	-0.0822729	0.8669346	-0.7322296	-0.16700417	1.655807	-1.0019429	-1.2284954	-0.41251627	3.8708987	0.26581684	1.106898	-0.85008365	-0.99005836	0.29878625	-0.93834424	-0.032339334	-0.8502477	0.3808994	0.22701223	3.282657	-3.8570123	-0.30031726	-1.4464701	-0.18173414	-0.7451427	-0.306973	-0.35345757	-0.81725216	-0.06767589	-2.1039298	0.32293832	-3.3871427	0.0149487285	1.1533034	0.93682206	-1.0278817	0.15069969	4.550221	-1.2997673	0.7444505	-0.23200317	1.0709553	-0.9006235	-0.1596413	1.9558991	-0.99608886	-0.9099553	-0.20414163	5.080083	0.35110757	1.0087833	-0.81866246	-0.9192018	0.12533946	-0.91017133	0.15585175	-0.97205955	0.33252385	0.19224767	3.0927289	-3.1161866	-0.3267564	-1.3902436	-0.12365585	-0.6893438	-0.54160476	-0.2015352	-1.106028	-0.22810668	-2.0147955	0.40432674	-3.0747771	-0.19531769	0.8750803	1.1621331	-1.0050454	0.17855144	3.6923375	-1.4232037	0.6913312	-0.039423563	1.2280833	-1.0074316	-0.14122815	1.995664	-1.1126895	-1.001637	-0.25284702	2.5608997	0.005022159	1.264042	-0.6782627	-0.014844535	0.3019571	-0.5044796	0.10899305	-1.1692532	0.79292846	0.36230412	3.117419	-2.0365298	-0.2342945	-1.2324488	0.31608382	-0.7502469	-1.0209712	0.087742716	-0.8073162	-0.13484776	-1.7534345	0.29056317	-2.2655773	-0.074886866	1.4329276	1.5598077	-0.92807424	0.19430113	1.9528428	-1.4257768	0.7153503	0.49027017	1.7382678	-0.75898343	-0.13393211	2.048978	-1.3795366	-0.9341026	-0.47445488	1.3408339	-0.34984148	1.1644753	-0.06291194	0.83630884	0.44725809	0.23736237	-0.39171088	-1.0478026	0.9278212	0.60568833	2.3007796	-0.60323656	0.08728419	-0.9823075	0.8929205	-0.46707928	-0.8786576	0.5099963	-0.13092925	0.090506256	-0.9806076	-0.73953724	-0.99303824	0.10698006	1.4814377	1.8691149	-0.81444085	-0.0015965014	0.10143315	-1.4949523	0.44082093	0.8384002	2.170317	-0.4324365	-0.18051207	1.3652976	-0.27859125	0.12895368	0.07156892	0.08125068	0.24571557	0.11826996	-0.18624231	0.41176704	0.34560812	-0.19103949	0.5995618	-0.7462031	0.18873459	-0.04221983	-0.12064255	0.19046271	-0.34687865	-0.66254467	0.30401054	-0.37822908	-0.97282684	-1.298107	-0.12488085	-0.9090608	-0.36701116	-0.6706091	-1.3766278	-0.16389662	0.022239594	0.52890944	-0.735756	-0.8441123	-0.12888958	-0.8790984	0.068070054	0.40958348	0.31070447	0.07472376	-0.8921177	0.045660224	-0.44388366	0.7217662	-0.002585303	0.024711573	0.20812698	0.5289848	-0.09766378	0.38773465	0.3749182	-0.16514646	0.5148825	-0.56589276	0.0328541	-0.05194473	0.2621786	-0.25681075	-0.28330693	-1.0006123	0.3584484	-0.4367304	-0.8557791	-1.1551677	-0.16863978	-1.0600288	-0.4336061	-0.9824013	-1.6050735	-0.08619173	0.112897575	0.97041374	-1.1834178	-0.69199115	-0.2501069	-0.8039243	0.19138044	0.17751703	0.44943532	0.18117093	-0.7532026	-0.24758798	-0.5580773	1.3819915	-0.1965368	-0.03621623	0.17987998	0.83501905	-0.088240765	0.28067726	0.47573724	-0.14641196	-0.13302934	-0.48466152	-0.15079147	0.013065236	1.0419562	-0.8604948	-0.2491389	-1.4574264	0.30311933	-0.45588234	-0.567311	-1.0178272	-0.2190076	-0.9817933	-0.6563303	-1.1434088	-1.8320465	-0.02688612	0.27230123	1.4593943	-1.3357975	-0.5244392	-0.5105795	-0.55643034	0.33075243	0.16285673	0.4710234	0.22100887	-0.59959	-0.44239795	-0.5140888	1.419088	-0.4592	-0.02893308	0.15743403	0.8330907	-0.23290056	0.2554689	0.679531	-0.18362719	-0.8889398	-0.56932074	-0.2246661	0.12686622	1.7830344	-1.0668645	-0.2600678	-1.6616583	0.23377436	-0.48449486	-0.42765412	-0.94334567	-0.31617245	-0.8045245	-0.88910896	-1.0258332	-1.9494454	0.009565875	0.38915583	1.8427196	-1.1137258	-0.4682613	-0.6845755	-0.3633155	0.41883174	0.12477215	0.2990225	0.24736078	-0.53139585	-0.27363518	-0.6025958	1.1837417	-0.6202959	-0.024395917	0.1917068	0.87995577	-0.29190058	0.18729588	0.7482984	-0.12242697	-1.2996958	-0.52257997	-0.27959403	0.24762075	2.2266169	-1.2000676	-0.23291276	-1.7984849	0.22683883	-0.5387231	-0.31827784	-0.9122373	-0.31656167	-0.65616834	-1.0317982	-1.074743	-1.9994637	0.06594495	0.5310234	1.9300011	-1.0147421	-0.3804745	-0.78250027	-0.22112787	0.400971	0.25510556	0.34557635	0.25000235	-0.45740584	-0.25709802	-0.70748675	0.7969882	-0.70059085	-0.07250933	0.20455165	0.9451801	-0.26398844	0.276547	0.7655157	-0.08320597	-1.6414188	-0.45604402	-0.25398836	0.3590803	2.548136	-1.381475	-0.22327976	-1.881042	0.22455308	-0.5670917	-0.21106371	-0.94081867	-0.27990544	-0.51031095	-1.1289518	-1.1907014	-2.0965714	0.13026772	0.64721584	2.1028674	-0.898989	-0.2816625	-0.8461622	-0.08851896	0.43918028	0.24656922	0.5290291	0.24885699	-0.38712397	-0.36273506	-0.7126018	-0.1541671	-0.8977429	-0.08034742	0.1273642	0.9574601	-0.37874988	0.22444381	0.8602989	-0.06448177	-1.8445952	-0.49647117	-0.2051319	0.4593864	2.8455758	-1.256998	-0.19023587	-1.775105	0.2568158	-0.64522713	-0.4068884	-0.8772052	-0.22293687	-0.37272492	-1.2767254	-1.1734583	-2.0690625	0.24199452	0.8806367	2.2241979	-0.8492893	-0.20683953	-0.66428363	0.060542632	0.478006	0.18414132	0.61125696	0.24272582	-0.35553423	-0.1755356	-0.7966379	-1.0523173	-0.9914805	-0.1324517	0.04725865	0.90689176	-0.42751864	0.42727995	0.89990544	-0.028544778	-1.952618	-0.52771366	-0.27435967	0.46130946	2.8990777	-1.1903678	-0.21207641	-1.796047	0.22323297	-0.69154763	-0.8051767	-0.76330805	-0.12734577	-0.3053636	-1.4737335	-1.1208485	-2.0588477	0.2936697	1.0280329	2.148803	-0.82143164	-0.09285782	-0.03171902	0.24291623	0.41538095	0.31542382	0.71574354	0.20206942	-0.32982093	-0.07887513	-0.89346254	-1.7339536	-1.0159401	-0.33218917	-0.20757653	0.9416754	-0.48765594	0.45688602	0.8361082	-0.19760214	-1.8793136	-0.57738	-0.5887712	0.41218406	3.1300974	-1.1884931	-0.25737083	-1.6261151	0.10420403	-0.7227507	-1.5496805	-0.63708645	0.049182933	-0.18621029	-1.8046486	-0.9248308	-2.1483967	0.34996653	1.3548063	1.7666583	-0.7621119	0.030388013	2.1295571	0.31289354	-0.28071547	0.12960593	0.95157546	0.005525795	-0.26822582	0.19199263	-0.9415148	-1.8460882	-1.0290688	-0.73491186	-0.3383439	1.1837285	-0.5302583	0.13805197	0.6409682	-0.51333696	-1.410814	-0.5571629	-0.23329045	0.36423424	3.5356536	-1.7456131	-0.2852679	-1.5207483	-0.031667102	-0.7515013	-1.4660037	-0.70985764	-0.16477397	-0.08917579	-2.0066686	-0.58376205	-2.422558	0.33556062	1.5089457	1.4045036	-0.7041733	0.078992106	3.900911	0.1535019	-0.69727623	0.09855464	1.1208206	-0.24363792	-0.22138742	0.52412426	-0.93106705	-1.7902464	-1.0313326	-0.8484657	-0.26036692	1.2305094	-0.5642105	-0.0995025	0.5645586	-0.62288445	-1.0175979	-0.5680761	0.08716316	0.32510853	3.74834	-2.2781293	-0.3110246	-1.4931694	-0.038955223	-0.74452364	-1.3683478	-0.71507275	-0.3058497	-0.08928968	-2.034095	-0.49100175	-2.544772	0.28423926	1.465354	1.2967336	-0.64141697	0.07216505	4.4451017	0.053853933	-0.69979566	0.11372461	1.1967095	-0.31115994	-0.18329506	0.6150098	-0.921823	-1.6167792	-1.0253496	-0.5441068	-0.12145746	1.2294054	-0.6093036	-0.27374652	0.4409179	-0.6813945	-0.8018616	-0.56344527	0.43179882	0.32275578	3.835377	-2.9242833	-0.32601044	-1.5167949	-0.06352516	-0.74498534	-1.271089	-0.73857224	-0.4500418	-0.09976824	-2.057734	-0.2732804	-2.6126812	0.1937219	1.3948816	1.1708745	-0.7238779	0.07333521	4.7780213	-0.039316315	-0.40204152	0.112902835	1.2677679	-0.44282576	-0.17288305	0.7667247	-0.94006413	-1.3624123	-0.9458019	0.89699954	0.1300305	1.1217475	-0.5741033	-0.4108427	0.33680883	-0.7919052	-0.639144	-0.61351985	0.43259075	0.32197192	3.7922966	-3.4103806	-0.34731308	-1.452409	-0.050292894	-0.7160459	-1.2243617	-0.69171387	-0.7752926	-0.22522718	-1.9783651	-0.2549097	-2.572212	0.14006557	1.0523491	1.3347379	-0.71030116	0.10848572	4.73647	-0.27210468	-0.069281146	0.029259516	1.2563939	-0.48939544	-0.1996348	0.847837	-0.8093461	-1.1505815	-0.77695644	3.2264903	0.3459923	0.98740214	-0.62901497	-0.8777016	0.061219018	-0.91355366	-0.42994016	-0.7274548	0.48874646	0.33789152	3.4375167	-2.9212189	-0.35149843	-1.3953323	-0.035180535	-0.6466538	-1.0170482	-0.5862337	-1.1920545	-0.3754237	-1.8644669	0.033702176	-2.554272	-0.1685478	0.67447037	1.5236096	-0.8619421	0.109056935	4.2887926	-0.58627653	0.110685684	0.0025005324	1.3911433	-0.73293847	-0.21541214	1.0431658	-1.024748	-1.1519835	-0.66105217	2.7680492	0.10861448	1.0496584	-0.48508057	-0.31848115	0.05345119	-0.6736266	-0.55021185	-0.96557695	0.8101712	0.450858	3.1052675	-1.8326584	-0.23722155	-1.311208	0.21733978	-0.7057142	-1.2978287	-0.3102441	-0.954048	-0.2944275	-1.6474018	0.110444106	-2.0453691	-0.08701814	0.96416044	1.8095611	-0.8798265	0.16587166	2.823135	-0.85419077	0.28061306	0.276237	1.8866202	-0.74034166	-0.19880696	1.4967171	-1.3561883	-1.073815	-0.61431664	2.1145058	-0.4113304	1.1558999	0.06523257	0.53411365	0.1520779	-0.09910306	-0.5049197	-0.8611617	0.9312796	0.6447941	2.2313838	-0.9795312	0.04309177	-1.0419252	0.70702136	-0.49701446	-0.9083602	0.28545484	-0.16257107	-0.092785455	-0.93145907	-0.62650543	-0.9264635	-0.12049898	1.2335651	2.024216	-1.0617522	-0.08236244	0.36677065	-1.2059599	0.27613136	0.7552799	2.3050797	-0.47395438	-0.12909505	1.1539826	-0.23641764	-0.20829645	0.11143568	0.021868268	-0.18620384	-0.3148673	-0.19032973	0.211102	0.32673344	-0.23607926	0.2743607	-0.86281407	0.2834761	-0.02768163	-0.19861344	0.17945993	0.07054515	-0.29978338	0.08701398	-0.24510974	-0.5754181	-1.1954911	-0.1531748	-0.38263395	-0.40141732	-0.38372234	-1.0302495	-0.19971715	-0.044727273	0.22320797	-0.2396595	-0.88477236	-0.05107563	-0.750988	0.6198272	0.21452929	0.19881512	-0.12134806	-0.9114842	0.027801251	-0.46427092	-0.016140398	0.025428666	-0.007853151	-0.3737988	-0.21535923	-0.17846861	0.16689253	0.23551713	-0.07397731	0.43436968	-0.7695659	0.22487585	-0.032945015	-0.06107603	0.08815664	-0.37463418	-0.39372978	0.21174088	-0.25727683	-0.44369173	-0.95476305	-0.069402315	-0.60761815	-0.3896441	-0.69430536	-1.2376465	0.10319138	-0.041378915	0.47305918	-0.40248397	-0.7951356	-0.042172022	-0.7344631	0.50824016	0.19357866	0.35167775	-0.14898881	-0.683615	-0.2981693	-0.66737556	0.2648681	-0.08331679	-0.06833446	-0.6007221	-0.10468587	-0.15247445	0.16902989	0.14934115	-0.015747912	0.41277474	-0.6070364	0.09712611	-0.042445976	0.054778244	-0.20970634	-0.45600152	-0.54300207	0.26738966	-0.25402483	-0.28410125	-0.6570484	-0.10169335	-0.70652616	-0.22393714	-0.8429633	-1.4518522	0.2654139	0.02721249	0.758654	-0.6820504	-0.5775101	-0.07705711	-0.687648	0.6600102	0.19609267	0.452591	-0.13853617	-0.70415545	-0.73552555	-0.73702157	0.3839656	-0.3248535	-0.06211586	-0.65304184	-0.21725255	-0.35083914	0.30108356	0.23321123	-0.13641413	-0.067775674	-0.3928418	0.09375393	-0.009863787	0.24306297	-0.24354872	-0.69787776	-0.6090625	0.31152222	-0.33993012	-0.3106849	-0.63213634	-0.09690124	-0.40742123	0.28179416	-0.7857794	-1.2736601	0.056922186	0.24118246	0.9139667	-0.8578489	-0.3707875	-0.17332406	-0.6030691	0.6916376	0.23183635	0.48317274	-0.10495982	-0.56655794	-0.90014964	-0.8461652	-0.09166267	-0.6383366	0.014436885	-0.6776132	0.34922972	-0.5329797	0.3790959	0.32387418	-0.14001279	-0.47929868	-0.24856164	0.22417615	-0.027866889	-0.13538095	0.19743842	-0.8738297	-0.3810846	0.40280774	-0.457891	-1.1512282	-0.77181816	-0.017522607	-0.046052918	0.9618689	-0.5799295	-0.21857755	-0.2808551	0.33343217	0.5162419	-0.9584109	-0.25992432	-0.16128701	-0.6056392	0.93048036	0.3537374	0.5129209	-0.073288746	-0.32867357	-0.8233205	-0.96683717	-0.32968363	-0.78334403	0.02933327	-0.87473524	1.124883	-0.56820697	0.41368797	0.3301642	-0.1383431	-0.5351481	-0.22568381	0.22159122	-0.0771949	-0.3272005	0.37971583	-1.0914395	-0.15199813	0.4221887	-0.44790307	-1.8552159	-0.76368415	0.36025214	0.02219492	1.16528	-0.50697345	0.47203508	-0.32596186	-0.058370475	0.1959905	-0.82437235	-0.2545745	-0.10527718	-0.5355307	1.3858823	0.18945661	0.5506362	-0.108648404	-0.18109651	-0.709606	-0.94873226	-0.26899788	-0.83564574	0.018528957	-0.86702496	1.1231676	-0.7162928	0.5136318	0.3097865	-0.2797014	-0.5906971	-0.22541942	-0.13127522	-0.047768112	0.010711111	0.23248746	-1.3664311	-0.1741174	0.49856612	-0.43072656	-1.9283277	-0.60770863	1.070085	-0.014666524	1.1760385	-0.5203192	0.3883445	-0.39801705	-0.5318638	0.014699485	-0.43527484	-0.18703026	-0.13058288	-0.4080808	0.8466938	0.38867363	0.71087646	-0.104351014	-0.0737128	-0.6267919	-0.85124475	-0.38878733	-0.69683397	-0.121109165	-0.49438423	1.2361718	-0.864713	0.72011054	0.332422	-0.777924	-0.4910912	0.06304419	-0.17488107	0.0038915325	0.19850467	0.010507981	-1.4033533	0.04407522	0.53909534	-0.67798764	-2.257451	-0.7226704	1.5251999	0.09394602	1.173493	-0.4592536	0.37161008	-0.73494726	-0.8677974	-0.043071188	-0.4034194	0.007743136	-0.11140784	-0.54558307	-1.0319133	0.45097452	1.0028605	-0.060242303	-0.09103585	-0.24093762	-0.5503833	-0.43081576	-0.15567477	-0.41500938	-0.40834716	1.0922481	-1.1704583	0.62663275	0.5123807	-1.5779204	-0.46142662	0.10132953	1.4685627	0.04172616	0.12040523	-0.7278363	-1.3751416	0.23179021	0.23335764	-0.7963146	-3.2833946	-1.2217158	1.9124231	0.49650612	0.7474047	-0.37200662	0.57119066	-1.0786774	-0.9565281	-0.066038154	-0.5649096	-0.022918668	-0.038614634	-0.47096005	-4.0522833	0.5045632	1.2462665	-0.33090147	0.29650754	0.6251083	-0.40056223	-0.39444453	0.32282364	0.7468667	-0.6581963	1.0355293	-1.3790371	0.3976602	0.52545506	-1.9919685	0.0033447521	0.118968025	2.394691	0.04867862	-0.079244	-0.68967736	-1.5385667	0.36053836	-0.01588965	-0.7854078	-4.179497	-1.3027776	1.9769082	0.28396437	0.36869484	-0.4916934	0.68470067	-1.0808827	-1.3051307	-0.16135137	-0.50254583	-0.05350408	0.22383063	-0.38040668	-6.200943	0.32690302	1.2050347	-0.60090643	0.4769158	1.0818777	-0.3541435	-0.10867763	0.47761428	1.3768989	-0.8089441	1.237828	-1.3401098	0.17946498	0.41366577	-2.097943	0.4828356	0.17160621	2.7529173	-0.012026798	-0.03615856	-0.5177098	-1.6063076	0.2794486	-0.056123447	-0.7413095	-3.9058197	-1.1768295	1.785388	0.05857941	0.37639436	-0.5493031	0.5587544	-1.079998	-1.4543124	-0.11764831	-0.50090164	-0.018439436	0.20252553	-0.46530113	-6.9787245	0.095682025	1.1892532	-0.637386	0.35643554	0.94391876	-0.42386314	0.45946205	0.5795332	2.1241772	-0.85524434	1.287093	-1.3480856	-0.08642901	0.3375312	-2.193408	0.525468	0.30776477	3.4438767	-0.058685992	0.10341601	-0.34474957	-1.5881182	0.074334696	-0.09297898	-0.75656825	-3.369039	-1.0554816	1.5173995	0.0015982575	0.44675922	-0.54039323	0.35249078	-1.3160189	-1.6778246	-0.09121406	-0.44158822	0.12637857	-0.1991482	-0.6046665	-7.405919	0.02800648	1.1519914	-0.64834535	0.24982904	0.8853898	-0.5741556	0.5148658	0.43276322	2.8974311	-0.9004614	0.9555471	-1.5264251	-0.18546937	0.26390937	-2.1209376	0.054668557	0.41217014	4.2127705	0.042356335	0.021795888	-0.12213562	-1.5139986	0.24702945	0.1150244	-0.88189614	-2.833671	-1.1001517	1.1613467	0.09705853	0.993124	-0.33145425	0.5823926	-1.7263601	-1.8551277	0.12035346	-0.4961666	0.2900092	-1.1501645	-0.7973679	-7.1366878	0.008879617	1.2002405	-0.6362352	0.2454475	1.2706577	-0.4707194	0.065519266	0.54265285	3.2542243	-1.2931296	0.91244775	-1.6437503	0.051853478	0.47975588	-1.9884844	-0.008477688	0.3572845	4.439366	-0.029000374	-0.42417023	0.58583266	-1.4362848	0.3082353	0.22676273	-0.9719416	-3.3113725	-1.2884516	1.0627499	0.28085524	1.153303	-0.41017574	1.1931236	-1.7743065	-1.7741116	0.42237237	-0.5310577	0.31975168	-2.4272785	-0.7313085	-6.0886517	0.40555096	1.3011965	-0.50886875	0.27970353	1.5619773	-0.5606562	0.09699013	0.9163964	2.5183425	-1.997115	1.7334547	-1.6309664	0.22344327	0.64202106	-1.7049232	0.11474091	0.21001332	3.500648	-0.0006224815	-0.23740886	0.4774058	-0.9410211	0.17916825	0.25805464	-1.1338866	-3.077654	-1.0686599	0.90181166	0.26975143	0.42664567	-0.8728119	1.2178541	-1.5051862	-1.8322442	0.9544483	-0.4619147	0.55091375	-3.1468194	-0.6026062	-3.7921953	0.53818935	1.8886626	-0.47308818	0.3165779	1.841638	-0.6671531	0.0028707706	-0.0038401717	1.7233628	-0.8459739	1.5532055	-1.6913056	0.3947846	0.5238181	-0.5865335	0.18525766	-0.16611657	1.2025398	0.12622738	0.45780903	-0.40851933	-0.2629415	-0.110721715	0.4230344	-0.4745069	-1.3553371	-0.24983951	0.32806948	0.5663493	-0.17032294	-1.1401792	0.5428923	-0.58639246	-0.84945977	1.128692	-0.280951	0.2887878	-1.7207745	-0.7429101	-0.2685435	0.65805364	2.315575	-0.50543016	-0.33360237	0.8862048	-0.8003759	-0.6213388	-0.8965201	-0.30718517	-3.6886654	0.2941723	-1.2214276	0.20970444	0.4621004	-0.44170254	-0.5860536	-0.68500465	-0.81728953	-0.014226991	-0.19397317	-0.27807653	0.018506119	0.043139383	0.2890643	-0.074712485	-0.48325464	0.09208837	1.6919793	0.049094774	1.5501904	-0.1594255	0.2778428	0.440612	-1.3789376	-0.17218485	0.32253084	-0.29434654	1.0463078	0.077292286	2.225072	0.21340534	-0.094371065	-0.26381323	-0.04710175	-1.129431	-0.6412455	-0.5440214	-0.7590094	-0.65371424	-4.0378313	0.33708027	-1.340025	0.08730885	0.49465784	-0.72864676	-0.21521015	-0.8216462	-0.5512678	-0.07457768	-0.045827873	-0.7033104	0.4516455	0.16943505	0.20031935	-0.08146251	0.16761465	0.02736469	1.8308061	0.081272304	1.5054549	0.07631426	-0.06429202	0.38074428	-1.4543682	-0.11412063	0.20865111	-0.28744608	1.4691024	-0.03321518	0.4313687	0.16770253	-0.22220616	-0.3444019	-0.003116942	-0.7751404	-0.57740575	-0.5460189	-0.7299055	-0.7593315	-4.186756	0.33250922	-1.4829754	-0.14387259	0.6064795	-0.6981383	-0.036814615	-0.9016664	-0.006858964	-0.08884226	-0.06903376	-0.73145944	0.53807837	0.16455811	0.15259457	-0.08612843	0.43911552	0.10073945	1.9076264	0.0766885	1.4724125	0.1800903	-0.19734816	0.39558345	-1.406584	-0.23810333	0.07628841	-0.32975963	1.650469	-0.08480718	-0.27139327	0.18479049	-0.5506482	-0.36139506	-0.0005204619	-0.57646394	-0.64145434	-0.48184472	-0.6354301	-0.9330832	-4.1881056	0.2864243	-1.4936554	-0.08205823	0.5612478	-0.7457444	0.01035034	-0.83655137	0.67819774	-0.08515031	-0.040043887	-1.1270388	0.4563018	0.23509663	0.15822324	-0.094252974	0.31119883	0.13870123	1.8420386	0.067229606	1.4522953	0.1753691	-0.14475198	0.32828507	-1.4774265	-0.20907536	0.037970502	-0.3125128	1.5957669	-0.110968925	-1.0968548	0.1591638	-0.42734668	-0.3913976	0.019310351	-0.53044176	-0.70790195	-0.4586066	-0.5608046	-0.8784581	-4.254965	0.3010453	-1.4708494	-0.10947245	0.5147294	-0.7590132	-0.043060344	-0.8426862	1.3808361	-0.074314125	-0.1074224	-1.5345236	0.5242686	0.24389094	0.11026406	-0.10411062	0.25855592	0.14465974	1.8248781	0.1160817	1.4028594	0.18419118	-0.20871547	0.37317947	-1.4361818	-0.26334724	-0.006317351	-0.2606245	1.4997584	-0.16384305	-1.8015982	0.16799065	-0.32668328	-0.46885556	0.028130148	-0.47835007	-0.7039877	-0.41593567	-0.4934555	-0.35781595	-4.356786	0.23329107	-1.4993211	-0.07248926	0.52900267	-0.77027726	-0.1305506	-0.9077966	2.089012	-0.07437433	-0.18451796	-1.7618642	0.43002775	0.24225982	0.04193967	-0.0719424	-0.015859256	0.23034437	1.7589549	0.11292144	1.337556	0.25777134	-0.1968468	0.38652167	-1.4438667	-0.34993017	-0.020761238	-0.25822806	1.3244233	-0.195162	-2.475308	-0.06484666	-0.36258987	-0.53349864	0.038695022	-0.37951815	-0.7566291	-0.425759	-0.3896816	0.8925666	-4.430881	0.16801491	-1.4995631	-0.13439816	0.5337953	-0.81884354	-0.37537032	-0.9571793	2.5791728	-0.022755576	-0.3821726	-1.8559079	0.40975124	0.20785914	-0.054041844	-0.026253236	-0.1432629	0.30577433	1.5931069	0.14522657	1.2446566	0.3050094	-0.2494847	0.39754778	-1.491716	-0.4508883	0.009292769	-0.27719325	1.0103035	-0.3332486	-3.1397574	0.019462539	-0.43963757	-0.60689366	0.0765591	-0.30553547	-0.99942327	-0.52306294	-0.08671507	3.206939	-4.7419515	0.082090355	-1.5147525	-0.21801412	0.3238529	-1.0037854	-0.5082309	-0.94781226	2.8129635	-0.08753534	-0.7546547	-1.5238457	0.43940553	0.24152204	-0.15602522	-0.0014267971	-0.07902331	0.4363732	1.3603054	0.18654117	1.1220862	0.52576226	-0.46349144	0.3090406	-1.6252731	-0.5565773	-0.2511838	-0.23700383	0.6025144	-0.67531705	-3.473739	-0.2736626	-0.1654311	-0.9195872	0.16711614	0.1623926	-1.0429745	-0.3009264	0.3525607	4.7525086	-4.9597135	-0.15179503	-1.7457151	-0.453604	0.14353919	-1.3218923	-0.25811404	-0.9319291	3.080211	-0.119240664	-0.88028693	-1.0398593	0.3497976	0.23718041	-0.4037734	-0.046623245	-0.006649591	0.57637984	1.4664774	0.41604736	0.7576908	0.8947711	-1.1731697	0.20216562	-1.6056768	-0.86244947	-0.2003183	-0.17413951	0.67728686	-1.0579015	-3.5139165	-0.24865742	0.25000358	-1.4596934	0.32012707	0.8942635	-0.69192564	-0.06931574	0.6053244	4.7335954	-5.086355	0.20420341	-1.7232128	-0.23569822	0.35236216	-1.566088	0.52610683	-0.9167987	2.9879482	-0.13973685	-0.55155146	-0.81120765	0.5137673	0.122867554	-0.5271283	-0.07535002	0.18434113	0.23793729	1.2938876	0.54177666	0.62651384	0.7462631	-1.0823336	0.2826628	-1.3646685	-0.8268103	-0.03293556	-0.20850374	0.8364761	-0.91413534	-3.8955455	-0.10602304	0.16522422	-1.3193817	0.29714155	0.46112138	-0.77982116	0.27620977	0.52585155	4.4000373	-5.1035876	0.4446638	-1.5760622	0.027788257	0.35596344	-1.5052968	0.61303896	-0.9375105	3.2608998	-0.14087467	-0.25878185	-0.5260906	0.6139013	0.1673162	-0.39349347	-0.06670227	0.3598643	0.29475206	1.0872542	0.33162943	0.8771409	0.59148	-0.79582435	0.30397913	-1.4105476	-0.6893346	0.08561891	-0.17671981	0.44064263	-0.9840986	-3.9989917	-0.12998874	0.037995208	-1.1093069	0.22555009	0.2896424	-0.78687066	0.27616647	0.20093521	3.3821926	-4.9442706	0.47569904	-1.6457996	0.08073717	0.3755723	-1.3119938	0.49504787	-1.009399	4.11311	-0.08734465	0.013270836	-0.48724794	0.69629663	0.30086166	-0.17038558	-0.18732144	0.41728926	0.34306812	0.92282784	0.3341358	1.0748934	0.67613655	-0.56938815	0.3586009	-1.4054201	-0.5510548	0.15087132	-0.14881547	-0.39239705	-1.0305431	-3.6311312	0.09104045	0.081113	-1.0124995	0.17699617	0.5437269	-0.74870515	0.15201984	0.20635909	3.217543	-4.837651	0.3467739	-1.7389767	0.4216383	0.50256526	-1.1275755	0.48695576	-1.1612998	4.2805514	-0.15382582	-0.10870937	-0.67493254	0.7150773	0.46617654	-0.009817227	-0.25552174	0.015463126	0.5654487	0.76141405	0.34480453	1.1165434	0.7084049	-0.2698236	0.31741154	-1.5216482	-0.14115562	0.15354566	-0.084757276	-1.460869	-1.0265659	-2.9308462	0.31282958	0.16039407	-0.9292327	0.16714422	0.753165	-0.8314065	0.19266385	0.3390153	2.5479853	-5.140823	0.39237905	-1.7820386	0.9429212	0.76835984	-0.9457718	0.25659606	-1.229295	3.744775	-0.07877697	-0.035111304	0.107706755	0.7455623	0.54670566	0.14748959	-0.34731323	-0.6717919	0.80808353	0.92963845	0.4546363	0.9738245	0.51151866	0.2898875	0.47447065	-1.2296288	0.21826437	0.2708728	0.0111342985	-2.6439419	-0.89295495	-2.618126	0.7914979	0.26626706	-0.746493	0.17166065	0.79299885	-0.70709866	0.29433113	0.42336726	1.9999112	-4.9440465	0.57155854	-1.940108	1.0851251	1.0617301	-0.84926105	0.48904547	-1.2224042	2.9958367	0.0038793252	0.20381127	0.00894424	0.96432465	0.42536595	0.38288218	-0.5595579	-0.5585789	1.0546122	0.7724648	0.60183775	0.92928976	0.13356318	0.54361254	0.50036573	-1.1360629	0.587055	0.33289045	0.16825502	-3.1098332	-0.9087047	-2.2157369	0.87264127	0.52180165	-0.45884156	0.1822446	0.75202817	-1.00711	0.035163917	0.11990572	1.5918005	-2.2713213	0.62416685	-2.1335921	0.9414336	1.0555501	-0.4040503	0.8142108	-1.0387883	1.4495281	0.23096606	0.5151485	-0.81945527	1.2203637	0.46337706	0.5681744	-0.37498572	0.03520299	1.4385676	0.40957576	0.9095241	0.71493274	-0.4772166	0.6694559	0.77694577	-0.963088	0.76168084	0.2503378	0.25847983	-1.9356699	-0.76892495	-0.36027345	0.9483703	1.0379543	-0.5752279	0.1129529	0.3922483	-0.018032245	-0.06670203	-0.08410155	0.0063214935	-0.054629985	-0.3134285	-0.09855522	-0.14756842	-0.0044135265	-0.16101992	-0.045861114	-0.5524934	0.020130377	0.016122056	-0.059511803	0.016253542	-0.4171036	-0.08658129	-0.13391912	-0.5369666	-0.19128774	-0.21824259	0.055425655	0.13968936	-0.2640767	0.12988546	-0.3088342	-0.28536475	-0.047455873	-0.1781772	0.037107304	-0.8077893	-0.12886763	-0.041808277	-0.20641135	0.07731232	-0.109491624	-0.34153947	-1.2679536	-0.09219096	-0.49637765	-0.09754126	-0.0879014	-0.003035475	-0.15792042	-0.51139504	-0.11108468	-0.019843172	0.061482843	-0.111765005	0.019399311	-0.42182198	0.12595043	0.0208795	-0.0029515382	0.09815938	-0.62978035	-0.14491853	-0.10490858	-0.36659318	-0.0627431	-0.1717371	0.09182658	0.14183751	-0.36789143	0.028170558	-0.46263826	-0.13872312	-0.07835978	-0.11862945	0.12076404	-0.73583496	-0.093132116	-0.13938358	-0.14236556	0.20778324	-0.008664706	-0.36336824	-1.0731546	-0.5298452	-1.0909942	-0.09106598	-0.09449877	-0.02490753	-0.3141624	-0.7129534	-0.17900865	0.15342754	0.12655504	-0.1335515	0.038880274	-0.07333385	0.18188827	0.0038527488	-0.03725928	0.16975762	-0.8013642	-0.037423115	0.020254795	-0.25775528	-0.028857488	-0.05932672	0.07538923	0.14540365	-0.19452305	-0.20006555	-0.53014594	-0.10968627	-0.027614664	0.096864715	-0.04372293	-0.48768562	0.0027308993	-0.39222065	-0.058696106	0.1620119	0.2380134	-0.34645516	-0.74505854	-1.2088363	-1.2555832	-0.17789127	-0.4286958	-0.03722992	-1.0475165	-0.3317225	-0.40806955	0.07272879	0.1003029	-0.18223205	-0.35141465	-0.097454466	0.16978195	0.014174211	-0.3021165	0.27353892	-0.68251586	0.19786464	0.16266733	-0.1395681	-0.68349975	-0.09240396	-0.0315755	0.15035947	0.6145244	-0.32463977	-0.023353318	0.13545692	0.40754867	0.23878175	-0.55272347	-0.30573374	0.1737901	-0.46467718	0.7291552	0.1369942	0.46315268	-0.4470183	-0.36954495	-1.7844834	-1.2277948	-0.41303012	-0.9265224	0.018459184	-1.9427346	0.1918823	-0.73284835	0.21564797	0.1329698	-0.0586239	-0.730333	-0.22228578	-0.14570418	0.0002614099	-0.48189807	0.45484084	-0.7385722	0.20090353	0.36696208	-0.1623939	-1.0564022	-0.024335308	-0.0814514	0.101247534	1.5505089	-0.21674758	0.7740505	0.21746252	0.12095388	0.050901197	-0.46843153	-0.27326316	0.41152358	-0.3610273	1.7434337	0.081656985	0.38809696	-0.34746054	-0.24574083	-1.6323355	-1.1432021	-0.5049727	-0.9491102	-0.06226133	-2.516595	0.5326323	-0.8032661	0.3170798	0.15593666	-0.25309983	-0.7201596	-0.2560075	-0.48704496	0.0077088093	-0.33758953	0.1407442	-0.49023682	0.09737261	0.36527357	-0.1750829	-1.109689	-0.14775126	0.13721007	0.08076615	1.7107534	-0.2784994	0.9575347	0.17478068	-0.3119329	-0.05044749	-0.11397595	-0.2101238	0.61257505	-0.26770866	2.18231	0.076364286	0.5309284	-0.30081227	-0.13871665	-1.5253055	-1.1233492	-0.49599636	-0.9715399	-0.2949877	-3.1388364	0.6722433	-0.85725826	0.3201362	0.078286044	-0.39279655	-0.63096124	-0.3881412	-0.6253146	-0.029031608	-0.10092056	-0.38247356	-0.37742537	0.1287592	0.388123	-0.11014799	-0.8604522	-0.11183117	0.46646792	-0.008461955	1.7796421	-0.23497954	1.0012277	0.26131785	-0.87583977	0.044059783	0.20410858	-0.17931063	0.75160855	-0.12906188	2.2373314	0.14417146	0.6129984	-0.3342347	-0.069442645	-1.4473693	-1.1718873	-0.34407854	-0.8476632	-0.6403915	-3.4685209	0.49375665	-1.0046005	0.23319602	-0.032873597	-0.6054114	-0.53597	-0.4431852	-0.029742043	-0.056822237	0.15137169	-1.1216475	-0.4887139	0.19145872	0.3761994	-0.06861228	-0.8492018	0.026910078	0.8999709	-0.08409747	1.6343652	-0.15816532	0.9666749	0.30972296	-1.3933891	0.06758921	0.3192686	-0.14287433	0.7121048	-0.025871646	1.6846151	0.33585092	0.7610311	-0.49199522	0.012022744	-1.1058521	-0.98529905	-0.20199145	-0.46542424	0.021156149	-3.612364	-0.2671149	-1.4374467	0.027182808	-0.049660407	-1.0860925	-0.4741661	-0.4638087	0.93521816	0.055314824	0.27522093	-1.737696	-0.9771286	0.4418841	0.20213525	-0.038906462	-1.4636501	0.24357682	1.8109783	0.09217853	1.1299926	0.013595519	0.36593825	0.31426144	-1.7609311	-0.063300565	0.37665707	-0.18563099	0.80783653	0.03304332	-0.48247403	0.21753046	1.0070659	-0.894051	0.2222612	-0.46913922	-0.819731	0.038508322	-0.117808774	1.7771044	-4.0092926	-0.23698182	-1.4817156	-0.026490638	0.07199488	-1.36196	0.077252194	-0.5438893	0.8454558	0.06540745	0.28833756	-1.4748261	-0.652874	0.07429062	-0.098647505	0.008849192	-1.4255116	0.29466566	1.6370978	0.029756801	0.85599643	-0.099621646	0.060800772	0.29116675	-1.8502108	-0.3143264	0.50476867	-0.08857233	1.254288	0.16504002	-2.9780238	-0.047647387	0.78590864	-0.9687818	0.26208022	-0.6780037	-0.90151894	0.3886731	-0.12535037	2.385203	-4.2151313	-0.16501981	-1.4168404	-0.1768348	-0.04296059	-1.4216844	-0.17486206	-0.5894959	1.4651508	0.08124962	0.37563553	-1.147453	-0.54257333	0.14679946	-0.15632063	0.088658795	-1.2065246	0.31041005	1.2972621	-0.013252426	0.8807786	0.04049744	0.089565225	0.29496285	-1.9892772	-0.29877296	0.5485835	-0.15854974	0.92610073	-0.042685825	-4.016156	-0.09146948	0.7014843	-1.056018	0.29451552	-0.61322176	-0.847391	0.10933159	-0.14663546	2.8015	-4.3841047	-0.175739	-1.4845055	-0.33202618	-0.099237494	-1.5051075	-0.22396044	-0.68093497	2.6968467	0.13313276	0.16011438	-0.74999785	-0.37436524	0.20295091	-0.17648244	0.09121544	-0.98278546	0.3284157	0.8340713	0.017153123	0.8940195	0.24986301	-0.031368982	0.13318962	-2.145017	-0.14050762	0.49744803	-0.17588642	0.3456107	-0.16720793	-4.5090876	-0.29009807	0.72463405	-1.1563616	0.37663785	-0.4134262	-0.8280441	0.29397878	-0.076777495	3.5654655	-4.362646	-0.34503332	-1.5884706	-0.4853554	-0.13001241	-1.440723	-0.13345926	-0.73782945	3.5155087	-0.016701119	0.042894714	-0.41925713	-0.41422787	0.24897523	-0.124119766	0.07806121	-1.0857017	0.44242677	0.4203671	-0.08933416	0.93397963	0.29402947	0.16287044	0.07711007	-2.4664867	0.10823753	0.44031745	-0.18287545	-0.55917156	-0.273885	-4.534951	-0.260489	0.7157993	-1.219905	0.40314373	-0.20743029	-0.97417665	0.2608357	0.094870925	3.2078953	-4.514681	-0.46543673	-1.711681	-0.07825985	-0.021758216	-1.2232108	-0.41221002	-0.80752367	3.4422135	0.07270512	-0.15575701	0.40497762	-0.6899445	0.21739024	0.06410742	-0.012442212	-1.5930973	0.8136631	0.5951215	-0.0040030763	0.88756317	0.17560516	0.43513933	0.1432206	-2.3447251	0.41995245	0.45870164	-0.13935801	-1.7250905	-0.27635598	-4.307406	0.22301003	1.083808	-1.1990558	0.50656486	0.15076582	-0.9464349	0.31348497	0.40333745	2.421802	-4.667815	-0.12639458	-1.8246703	0.09735232	0.24179412	-1.437033	0.051550604	-0.7670653	2.8175678	0.06408475	-0.002762553	0.3669675	-0.2952222	0.19909015	-0.07054558	-0.2286522	-1.5265254	0.9940017	0.75393355	0.43533432	0.50560445	0.10140692	0.24052311	0.1963647	-1.9990667	0.5206276	0.38120168	0.06482618	-1.5021048	-0.4350873	-3.5028183	0.13732143	1.4904253	-1.2202481	0.5319276	0.4934879	-0.9858725	0.18385944	-0.15137617	1.8083581	-2.319261	0.3365591	-2.053685	0.36160496	0.33660227	-1.1231828	0.6665243	-0.66809344	1.2740122	0.18860829	0.3055913	-0.7224587	0.6929104	0.17117664	0.09849566	-0.36435142	-0.50007373	1.1506776	0.08452108	1.051694	0.53557634	-0.44399366	0.39780775	0.44966125	-1.4895159	0.50227755	0.2417745	0.16930725	-1.2769473	-0.6663201	-0.78027695	0.3353635	1.9109447	-0.90740246	0.23403543	0.49211	0.13656455	0.0070454	-0.07661828	-0.018677693	-0.08685869	-0.10303353	-0.05506608	-0.2651135	-0.09054494	-0.09137034	-0.018558443	-0.4665469	-0.12367554	0.0056142453	-0.057406	-0.14408657	-0.28414974	-0.083438195	-0.20207718	-0.7553161	-0.17096637	0.03947857	-0.01331302	0.063283175	-0.2747953	0.09593167	-0.17202206	-0.17422621	-0.07662174	-0.21580537	-0.103764765	-0.828352	-0.089736104	0.0052284608	-0.21502979	-0.28913474	-0.0939269	-0.32356635	-0.97044575	-0.036896523	0.108349636	0.013072079	-0.115749866	-0.019983264	-0.035918072	-0.12561728	-0.015044732	-0.23701629	-0.13167666	-0.044622753	-0.068669885	-0.5337897	-0.14955041	0.027685542	-0.11320874	-0.16685802	-0.26241526	-0.14767565	-0.17147265	-0.6730543	-0.1689796	-0.0487825	0.0016110499	0.102329805	-0.24604665	0.12800454	-0.08056979	-0.1744062	-0.04842017	-0.27264437	-0.06828151	-0.83788925	-0.127913	0.013020085	-0.30168325	-0.08747627	-0.070321105	-0.38145694	-1.0685385	-0.040546272	0.124153994	0.016523868	-0.11871058	-0.014870592	0.0008991265	-0.12762982	-0.046746828	-0.22129428	-0.07681025	-0.0653276	0.0027495723	-0.52154726	-0.1226014	0.02004809	-0.11573677	-0.1439606	-0.29184744	-0.27881506	-0.15074149	-0.67250055	-0.13283996	-0.050699394	0.0078084883	0.16329907	-0.29368663	0.07921348	-0.10116771	-0.16424495	-0.023596056	-0.28363273	-0.07726223	-0.81805307	-0.11585889	0.008421928	-0.30108413	-0.067819074	-0.09418459	-0.37937838	-1.1237731	-0.051794834	0.12120676	0.0014174497	-0.09023256	-0.010252646	-0.014930394	-0.17476669	-0.06678634	-0.16369593	-0.07821997	-0.10818193	-0.038966097	-0.49802142	-0.06183407	0.012736672	-0.0878718	-0.08967912	-0.3456661	-0.1344292	-0.15108338	-0.6744571	-0.18011291	-0.047607187	0.007466457	0.12572888	-0.2885028	0.07419233	-0.17098044	-0.22249241	-0.057365697	-0.21885712	-0.06398335	-0.796618	-0.114813134	-0.019657236	-0.25730556	-0.077110805	-0.088787295	-0.36670506	-1.1616377	-0.06830016	0.047871046	-0.009772368	-0.09469841	-0.0056955954	-0.051650748	-0.21146093	-0.06733667	-0.11430173	-0.06978844	-0.14155062	-0.040612403	-0.4634537	-0.005018264	0.012103333	-0.030728003	-0.040829502	-0.39398098	-0.05626995	-0.18260698	-0.6318105	-0.18856403	-0.07921371	0.023944054	0.13727409	-0.29319662	0.089241825	-0.22119601	-0.26973313	-0.076194905	-0.19855498	-0.04700144	-0.78234226	-0.11630866	-0.015347803	-0.20899348	-0.17101014	-0.08030864	-0.37029758	-1.1708355	-0.089393474	-0.110210836	-0.010291194	-0.06933796	-0.012273725	-0.05805929	-0.26517817	-0.06524161	-0.08288341	-0.032874916	-0.14296256	-0.02550961	-0.3689027	0.0168571	0.011754987	0.001063549	-0.046533152	-0.47122946	-0.057705786	-0.19527207	-0.63475025	-0.09492761	-0.08529539	0.02376577	0.17831264	-0.3323013	0.026110614	-0.23140292	-0.25870427	-0.114640616	-0.16277857	-0.02279093	-0.7556548	-0.10887042	-0.05991007	-0.20630372	-0.11857849	-0.041722003	-0.35506058	-1.1146655	-0.18350522	-0.4860423	-0.008255799	-0.018323716	-0.03447892	-0.121960804	-0.34836426	-0.06330123	-0.09422245	0.028539084	-0.08027763	0.023876648	-0.23658173	0.03650684	0.01636157	0.07878315	-0.0753854	-0.6043813	-0.070854306	-0.17994224	-0.5439797	0.12926668	-0.07002096	0.0471342	0.21598636	-0.45141765	-0.09063902	-0.25795835	-0.22825404	-0.18408263	-0.092497244	0.022607	-0.74204034	-0.0814704	-0.14164604	-0.19434665	-0.113593064	0.07725964	-0.3636134	-0.86583906	-0.35244912	-0.94028825	-0.004334222	0.052674405	-0.0669445	-0.123348296	-0.53602993	-0.13873512	-0.057785213	0.10199775	-0.018965818	0.03308945	-0.02049949	0.08306347	0.011846123	0.10278591	-0.08982856	-0.86313003	-0.0711032	-0.09500286	-0.46237674	0.3657664	-0.03284304	0.044922832	0.21141513	-0.51966244	-0.27266496	-0.42027918	-0.23464406	-0.2434682	0.07891242	0.035551943	-0.6171387	-0.056797378	-0.3602012	-0.25441122	0.102550924	0.24007426	-0.3875096	-0.59893996	-0.59719133	-1.2774556	-0.078425296	0.17861778	-0.07016595	0.16033192	-0.5593353	-0.38349554	0.08232095	0.18790683	-0.18097714	-0.07006819	0.56838775	0.23824236	-0.04945977	-0.1777414	0.011193004	-0.75341517	0.12981966	0.15856345	-0.75685203	0.10120172	-0.03773627	-0.060170937	0.24233854	0.022762414	-0.5612021	-0.57208675	-0.83140165	0.0486326	0.2801963	-0.51155925	0.024835112	-0.04743933	-0.8676778	-0.27593383	0.02435941	0.5894846	-0.24338433	-0.62020653	-0.7771853	-1.2006437	-0.11407517	0.028734732	-0.07232153	0.32494545	-0.03910358	-0.615487	0.012639784	0.3660371	-0.3267048	-0.47242376	0.48395607	0.42680484	-0.1654126	-0.37932482	0.15440975	-0.5611955	0.20295273	0.25284687	-0.7909228	-0.4517423	-0.6825695	-0.23208499	0.596874	0.60062826	-0.6745972	-0.110521324	-1.3137411	0.5933466	0.34721175	-1.036928	0.084329836	-0.057704166	-0.9610902	-0.16568646	-0.08731923	0.8514798	-0.23639251	-0.23747225	-0.24545571	-1.2683941	-0.20240413	-0.06321912	-0.035853364	0.4253556	0.38824263	-0.6987237	-0.21970816	0.32144767	-0.1921403	-0.6879789	0.42864054	0.37651497	-0.25324628	-0.5001449	0.25932577	-0.44712576	0.40053493	0.35729313	-0.89379144	-0.7935193	-0.98950416	-0.37069023	0.6176376	0.7658854	-0.61151224	0.35528812	-1.3740321	0.7694902	0.22845264	-1.1824815	0.0004768006	-0.05324329	-1.1873027	-0.23824464	0.024900634	1.0198429	-0.32763174	-0.017225217	0.24607518	-1.4731789	-0.442024	-0.09338526	-0.0024313442	0.37664166	0.98432356	-0.560781	-0.27901477	0.143625	0.019340027	-0.64177203	0.3640441	0.37067887	-0.40542212	-0.7401544	0.42119563	-0.32019	0.7944236	0.4693426	-0.9933	-1.1882339	-1.3258067	-0.5235579	0.49765897	0.94458246	-0.6753286	0.90095115	-1.2335236	0.7401095	0.10836053	-1.1726906	-0.054001108	0.0002817951	-1.5324358	-0.15839712	-0.16046378	1.2619257	-0.437586	0.16302353	0.66181356	-1.5788387	-0.58091486	-0.07209674	0.026404789	0.37521347	1.6389619	-0.56189275	-0.45908105	0.020309992	0.2120159	-0.5674265	0.29971302	0.37126145	-0.6066267	-0.92303497	0.48484552	-0.2737596	0.9124639	0.5150398	-1.0064143	-1.4742023	-1.3508704	-0.6754348	0.32296818	0.9080347	-0.70168406	1.0570678	-1.0799705	0.76631725	-0.04975295	-1.2477075	-0.16641292	0.046503883	-1.827146	0.0025311587	-0.18099687	1.4799813	-0.58387446	0.2630766	1.0735273	-1.6835706	-0.72040945	0.08610707	-0.001700199	0.3711602	2.2048395	-0.4226098	-0.4823595	-0.1552062	0.30787146	-0.3070773	0.26338172	0.3577941	-0.8266319	-1.1329597	0.3703061	-0.20314014	1.0393347	0.52375853	-1.0393723	-1.6022764	-1.3812962	-0.7674145	0.0695635	0.7144755	-0.7784262	0.902282	-0.8381409	0.57053334	-0.049837817	-1.2095513	-0.22935127	0.039822906	-2.1543877	0.26051092	-0.19266425	1.7202102	-0.70845175	0.2707547	1.3076085	-1.5163252	-0.49421662	0.18156607	-0.114067145	0.49793172	2.3555987	-0.42288968	-0.39477214	-0.11126981	0.089623116	-0.036733292	0.1347545	0.23383605	-1.0010586	-0.7549259	-0.10210998	-0.31643385	0.600466	0.29764423	-0.9104454	-1.3828217	-1.3081775	-0.61867124	0.10554128	0.09477622	-0.8412701	-0.013306829	-0.6952674	0.38848415	0.09225453	-0.9874796	-0.27791312	-0.09962329	-1.9603037	0.35003015	-0.0725609	1.8582608	-0.84423864	0.35627425	1.2577934	-1.0994817	-0.03276642	-0.0904986	-0.006340411	0.2411745	1.2510562	-0.6695493	-0.070990026	0.091183975	-0.117106654	-0.008708697	-0.08468124	-0.08316087	-0.93573	0.09823633	-0.33197832	-0.7484794	-0.1955528	0.15254742	-0.4621638	-1.059157	-0.6837747	-0.092517994	0.056688294	-0.6571878	-0.9498265	-0.65438825	-0.52505547	0.15718932	0.37819695	-0.7238265	-0.08845692	-0.36284465	-1.367908	0.14613679	0.0026235206	1.9156057	-0.8978974	0.050055083	0.7208586	-0.059732262	-0.0080412505	-0.035415392	-0.02220341	-0.12128094	-0.14305097	0.01946605	-0.3105517	-0.10518228	-0.26882416	-0.13661525	-0.29494438	-0.17448974	0.0073013236	-0.14767085	-0.14967376	-0.2256426	-0.056915324	-0.21496421	-0.69630486	-0.41826713	0.12630033	0.015952572	0.035198364	-0.28138238	0.17880963	-0.013254016	-0.28393522	-0.0019236405	-0.28757772	-0.08417261	-0.6932351	-0.078275785	0.02535582	-0.29227325	-0.24924895	-0.046883546	-0.29409453	-0.77947974	-0.27242562	-0.07914648	0.016852682	-0.08723066	-0.016629716	-0.13999397	-0.27118346	-0.025392113	-0.102409	-0.07420889	-0.71392417	-0.2609271	-0.04924477	-0.14586535	-0.00530063	-0.044762578	0.024405863	-0.4074817	-0.08036647	-0.26165476	-0.7373796	-0.8440723	0.31250632	-0.06322519	-0.022822069	-0.5117989	0.14012724	0.3294209	-0.40271086	0.06328531	-0.34339306	0.015455376	-0.59433204	0.093327686	0.0033648098	-0.42217937	-0.12751475	0.0599618	-0.24394317	-0.6596778	-0.5687834	0.036757298	-0.03855938	-0.5669621	-0.029504329	-0.18686949	-0.29880548	-0.087945625	0.03770704	-0.06174102	-1.2492738	-0.53062797	-0.026925582	-0.12903345	-0.03329071	-0.119033255	0.39534768	-0.538062	-0.1614547	-0.28110114	-0.6732469	-1.0285282	0.421456	-0.06625127	0.020130701	-0.78872126	0.21649146	0.61547124	-0.44207	0.28852114	-0.3081565	0.026818927	-0.59842175	0.2584245	0.13326226	-0.60625833	-0.16304904	0.2901643	-0.19768515	-0.41812676	-0.72002196	0.1492433	-0.15804073	-1.3871553	-0.09631	-0.1709064	-0.26513413	-0.20435481	0.035962876	-0.053601645	-1.6293193	-0.7305609	-0.04040253	-0.08688173	-0.042029906	-0.34426135	0.76358795	-0.6799922	-0.25578514	-0.27100196	-0.6336525	-0.77871615	0.50767326	-0.027056638	0.18848205	-1.0571882	0.3482876	0.56292826	-0.4160218	0.46346298	-0.12614767	-0.13305119	-0.5902451	0.36262745	0.35581833	-0.7528843	-0.08539404	0.40672293	-0.15315096	-0.17701332	-0.70310944	0.16546667	-0.13588634	-2.1036286	-0.23109916	-0.11883355	-0.20700386	-0.28746927	0.012313917	-0.113620214	-1.8490038	-0.711469	-0.055412147	0.019837562	-0.050013334	-0.41573974	0.8244721	-0.7798508	-0.28735214	-0.21791151	-0.59901816	-0.45811757	0.58330995	-0.083237864	0.29347202	-1.1804497	0.5690878	0.48891813	-0.4330382	0.467676	0.0048852363	-0.28776026	-0.6019852	0.45119214	0.48225582	-0.80166805	-0.021941964	0.5162304	-0.13856839	-0.028831877	-0.6131065	0.13343143	-0.07548735	-2.7410152	-0.35078123	-0.111053765	-0.15925768	-0.33689955	-0.16339165	-0.19765098	-2.005763	-0.5548851	-0.08644498	0.20465423	-0.025183074	-0.44458285	0.61736095	-0.8131848	-0.34954685	-0.2105932	-0.54193103	0.010777173	0.58973795	-0.0684567	0.4450292	-1.4099256	0.7837702	0.21060382	-0.323388	0.46602592	0.1319073	-0.4123751	-0.58146197	0.5477207	0.62777376	-0.63840884	-0.034422774	0.67308295	-0.19115227	0.021819476	-0.5498114	0.01729	0.113846846	-3.159885	-0.35703272	-0.09677458	-0.12878177	-0.36058044	-0.30643135	-0.27628562	-2.190533	-0.26165113	-0.098415114	0.46627048	-0.01929968	-0.3207592	-0.015556418	-0.82490766	-0.37338334	-0.22274303	-0.4609203	0.6513592	0.4221211	-0.2578575	0.655216	-1.6094505	0.96126306	0.00021443848	-0.20122795	0.3013898	0.3208654	-0.47011173	-0.6063821	0.5441917	0.6543586	-0.2533882	-0.090768434	0.88583136	-0.27843696	0.088254385	-0.41492975	-0.06268469	0.39766783	-3.4743114	0.2915863	-0.19010901	-0.1961228	-0.43167955	-0.52678686	-0.3621114	-2.285778	0.14615962	-0.14016265	0.7000666	-0.027350556	-0.20344967	-0.7855233	-1.0617344	-0.4163654	-0.17602809	-0.35719544	1.2929775	0.28972262	-0.4793604	0.78246397	-1.6811876	1.1245866	-0.28247648	-0.11669522	0.05142328	0.5678221	-0.47660628	-0.670787	0.24396667	0.62080634	0.4266944	-0.1656486	1.1094613	-0.37768093	0.15177518	-0.36316252	-0.24588381	0.67680556	-3.3959148	3.3789818	-0.18223532	-0.5670682	-0.5670058	-0.48613703	-0.4188222	-2.4289572	0.41313484	0.19855407	0.059676785	-0.014854005	-0.6056731	-0.71127766	-1.361252	-0.700818	-0.07316185	-0.60596776	1.6635892	0.27087933	-0.87006915	0.6588618	-1.4881911	1.0462852	-0.6647892	-0.13376756	-0.42432755	0.81641906	-0.5167614	-0.33204478	-0.72506917	0.35347903	1.3307453	0.041118637	1.2387508	-0.32552597	-0.26046452	-0.40086064	-0.22540897	0.618111	-3.055601	5.4315605	0.055311274	-0.6530916	-0.65325636	-0.34215117	-0.39862546	-2.7551546	0.43150157	0.47525087	-0.52804077	0.00050042744	-1.1771927	-0.0991519	-1.001716	-0.75065166	0.007107333	-0.746094	1.6266286	0.0018564583	-1.1787988	0.65543103	-1.0749351	0.8590485	-0.7508673	-0.5960753	-0.47328985	1.1123716	-0.6913657	-0.035531726	-1.5822037	0.10462242	1.6188735	0.007767312	1.3757379	-0.16043068	-0.7278871	-0.0073737954	-0.32454538	0.64692444	-3.0152905	5.81738	0.13385531	-0.78094745	-0.7241779	-0.1921682	-0.33377212	-2.7747686	0.27804124	0.52191466	-0.6083724	0.045768213	-1.23861	0.12012219	-0.9781697	-0.8159091	0.057156984	-0.7089019	1.605023	-0.2677043	-1.2061996	0.7361835	-0.98492837	0.857698	-0.6449042	-0.74924463	-0.42800638	1.1021225	-0.75695723	-0.11384477	-1.9485805	0.084551	1.7147838	0.18887198	1.4560683	-0.13414966	-0.6553298	0.25064313	-0.2635781	0.57074773	-2.9628603	6.007776	0.21708278	-0.7666419	-0.72506124	-0.10641426	-0.25376335	-2.8618782	0.18176417	0.54299325	-0.64285004	0.08421889	-1.3106883	0.20262095	-0.7946668	-0.77336437	0.101761	-0.687284	1.4613714	-0.73598427	-1.1856996	0.9769702	-0.8990219	0.8079972	-0.5286498	-0.8226274	-0.2756628	1.1183577	-0.82857853	-0.12974304	-2.306626	0.076469965	1.8611684	0.27028352	1.624674	-0.061588686	-0.7130872	0.35061786	-0.20635676	0.41552582	-2.8055058	6.0495977	0.2233257	-0.7813159	-0.61705184	0.07612063	-0.18711856	-2.9495077	0.1623106	0.24256612	-0.601022	0.136107	-1.445507	0.19847484	-0.6592834	-0.6091203	0.12936941	-0.6852475	1.2402818	-1.7209074	-1.145869	1.1924514	-0.838062	0.6121903	-0.18969089	-0.7677097	-0.14547779	1.2303035	-0.8658678	-0.14665541	-2.5590065	0.0914798	1.9829192	0.43924117	1.8732452	-0.0642751	-0.39340678	0.54465383	-0.5289078	0.1830834	-2.4815257	6.009382	0.14893116	-0.49155802	-0.47681475	0.09002408	-0.3349229	-2.6475646	0.39687666	0.13880777	-0.6029901	0.12860565	-1.8139291	0.13282493	-0.5539894	-0.45924807	0.2964137	-0.71833026	0.71818995	-2.1303797	-1.0936601	0.6950448	-0.8721864	0.41245174	0.12727408	-0.5468584	-0.07029243	1.2799615	-0.9143419	-0.21532479	-2.672812	-0.26693586	2.1121209	0.5019672	2.2396722	-0.17929488	-0.08354826	0.9192087	-0.8211613	0.32030633	-1.7610357	5.644876	0.085632265	0.121396005	-0.28905106	0.22507556	-0.5762198	-2.4196222	0.6993269	0.0072922558	-0.6195628	0.075644664	-2.1321054	-0.5807042	-0.5315135	-0.41536078	0.33637816	-0.7521167	-0.08351965	-1.7264874	-1.1436126	-0.18867084	-1.3210893	-0.017566077	-0.022553165	-0.33713004	-0.08924113	1.5684519	-1.2095122	0.0034394537	-2.5380013	-0.56842333	2.0928729	0.5534888	2.7294986	-0.3910917	0.12914452	0.8585851	-0.7636309	0.61007607	-1.2416074	3.7197056	-0.24443011	0.0760256	-0.4220366	0.22833642	-0.21104422	-1.9428301	0.32759702	-0.25404918	0.461016	0.11664277	-0.99277794	-1.5420849	-0.56431645	-0.3977227	0.17157292	-0.15434915	-0.6491544	-0.7923265	-1.5953455	-0.13252436	-1.6227903	-0.96910393	0.1894278	-0.16426136	0.4031936	1.2481024	-0.6636992	0.05397635	-2.0175645	-0.37336388	0.6454505	0.3344829	2.9843113	-0.30492222	0.055669688	0.30962762	0.3017622	0.078263596	-0.14707099	-0.017226245	0.05071268	-0.1476931	-0.13171394	-0.19826674	-0.082362995	-0.08656419	-0.17584948	-0.25976855	-0.18013696	-0.0051764157	-0.18866554	-0.1314285	-0.34097275	-0.25948015	-0.18714309	-0.8624468	-0.2731588	0.23254955	-0.061068214	0.10515841	-0.35935324	-0.14605306	0.074285805	-0.16857383	-0.043143436	-0.27740258	-0.22247963	-0.6918631	-0.09882219	-0.055856712	-0.3972102	-0.41388533	-0.10310899	-0.39819473	-0.51713806	-0.14349939	0.17586936	0.054493032	-0.14939442	-0.02320238	0.05559652	-0.14091198	-0.11805533	-0.26106882	-0.07867544	-0.07751705	-0.21622145	-0.25964412	-0.2093631	0.00023587463	-0.18419471	-0.16829558	-0.3257178	-0.29251447	-0.26430184	-0.81416357	-0.24242452	0.227944	-0.04584234	0.11014275	-0.40458524	-0.13670376	0.052641835	-0.148151	0.0009573323	-0.3084646	-0.14992018	-0.7057269	-0.09207911	-0.040028036	-0.41830757	-0.18898454	-0.085771866	-0.38850576	-0.5157495	-0.18203093	0.06374758	0.05074102	-0.13029239	-0.0203765	-0.008002807	-0.17018351	-0.08246733	-0.17019577	-0.04926574	-0.12588419	-0.20746647	-0.25864756	-0.17636842	-0.005517341	-0.15356107	-0.14266509	-0.33574542	-0.30313596	-0.28573626	-0.75725996	-0.2155282	0.21179658	-0.033483107	0.13295853	-0.42343378	-0.14120428	0.040093847	-0.15728366	-0.022894036	-0.29674742	-0.100169435	-0.70885175	-0.0653165	-0.052650273	-0.35042533	-0.34726572	-0.022213606	-0.3544879	-0.49250025	-0.2200206	-0.004335917	0.046001792	-0.1151361	-0.016877295	-0.02445158	-0.20949064	-0.0883159	-0.13769893	-0.022376074	-0.17582354	-0.23465367	-0.23424745	-0.1920039	-0.0031889512	-0.13498706	-0.13824645	-0.34750354	-0.31835634	-0.29761824	-0.7295912	-0.17902456	0.19743477	-0.0337821	0.14483944	-0.4402611	-0.19310376	0.037624806	-0.20246856	-0.017769866	-0.2790136	-0.052031334	-0.6883515	-0.03434545	-0.06752617	-0.34909388	-0.2859339	0.015091636	-0.32974368	-0.46397743	-0.2325915	-0.097573556	0.03797678	-0.10664801	-0.0053362404	-0.044612497	-0.22660033	-0.07189864	-0.10682329	0.0054457933	-0.23667859	-0.23111539	-0.21043672	-0.21658982	-0.0040813903	-0.09922242	-0.11907747	-0.31067595	-0.34419337	-0.2930123	-0.6901174	-0.13994911	0.16950047	-0.040303443	0.16156079	-0.4593172	-0.27402416	0.059265018	-0.22075202	-0.0010978711	-0.2877257	0.0045772586	-0.6657061	0.01072473	-0.110923246	-0.3459353	-0.2639686	0.0965862	-0.29438174	-0.48695996	-0.2659744	-0.20637524	0.033563185	-0.09559796	0.00800573	-0.0872188	-0.2723617	-0.086361	-0.09239479	0.03179895	-0.33076096	-0.19019	-0.20254953	-0.26324186	0.010086795	0.031985182	-0.097879745	-0.37542933	-0.35956973	-0.28985566	-0.6068891	-0.0424363	0.103515334	-0.057967484	0.165969	-0.5373725	-0.38992828	0.07823587	-0.22967783	0.0042597963	-0.28257465	0.10688441	-0.6371635	0.10149584	-0.17007951	-0.3925055	-0.12875764	0.20101464	-0.29051873	-0.44111836	-0.30160674	-0.2591058	0.017723337	-0.08440988	0.025210476	-0.18894915	-0.31868374	-0.089594446	0.0077892924	0.057486948	-0.56067747	0.0074126665	-0.16772452	-0.25072452	0.018367797	0.26546055	-0.02355856	-0.50270975	-0.32950985	-0.25989813	-0.5097605	0.039188784	0.008239438	-0.120843165	0.13810326	-0.60736644	-0.5053325	0.006868709	-0.2755766	-0.037731394	-0.2579617	0.23123568	-0.5812909	0.22991042	-0.34098527	-0.41327062	-0.14784084	0.38845044	-0.26524374	-0.4718114	-0.43355533	-0.18352722	0.09413684	-0.054300662	-0.068202354	-0.14891584	-0.40422344	-0.1646395	0.11292866	0.17105052	-1.1193172	0.25352296	-0.073505886	0.07231618	0.005845449	0.6519202	-0.13304381	-0.50323975	-0.41228583	-0.24389255	-0.4622433	0.17753652	-0.5039576	-0.31070045	0.2432712	-0.58738726	-0.6063674	-0.14811301	-0.4960149	0.008493009	-0.1660356	0.28981856	-0.4547085	0.2179227	-0.59669286	-0.19631489	0.11929035	0.6101387	-0.17166482	-0.5414477	-0.47530633	-0.4285305	0.06383743	-0.094479494	-0.12310689	0.058953673	-0.2877165	-0.3138098	-0.07564468	0.10063919	-1.3953907	1.1835711	-0.07137799	0.75206465	0.009190827	1.3184297	-0.6392979	-0.3787043	-0.33402875	0.07529394	-0.59184074	-0.10018474	-1.4380813	-0.62642777	-0.21902803	-0.32934126	-0.76616216	0.17854424	-0.56504476	-0.0054386375	-0.15910299	0.036641657	-0.39645234	-0.062530205	-1.0751925	0.5349745	0.19077334	1.0345848	-0.1722608	-0.17317288	0.25077555	-0.87692267	-0.07781169	0.30404618	0.41109324	0.2007419	0.12890883	-0.23599264	-0.27955788	-0.32227254	-1.2339759	2.3058686	0.13681495	0.9390355	0.0066787596	1.1034231	-1.4315903	-0.28800446	0.08130943	0.45670283	-0.743085	-0.80023515	-1.3798501	-0.8590403	-1.1339432	-0.13396376	-0.85381037	0.5814165	-0.524733	-0.2934693	-0.063335635	-0.82451975	-0.33739197	-0.3878836	-1.8954881	1.460779	0.20081362	1.496721	-0.29209638	-0.110709324	0.63752407	-0.9243206	0.067577586	0.46536472	0.6972849	0.18061373	0.31478316	-0.19189604	-0.43955657	-0.45630112	-1.1992372	2.562957	0.16714546	0.88459617	0.01773808	0.9354246	-1.8284271	-0.23611538	0.07344372	0.46882161	-0.76785177	-0.96757174	-1.2868099	-0.76816225	-1.381622	-0.24070674	-0.8466369	0.47118363	-0.4450062	-0.26772627	0.06266832	-1.2754854	-0.2996879	-0.5138487	-2.0281382	1.9138317	0.24988438	1.5941857	-0.39061105	-0.1811718	0.66098034	-0.8870664	0.37061086	0.7759863	0.9499931	0.11509603	0.4280504	-0.16067666	-0.4174183	-0.43227917	-1.3484789	2.7768395	0.18595633	0.96945906	0.13198173	0.84034735	-2.3248968	-0.25821546	-0.18027994	0.3506429	-0.66688335	-1.1728247	-1.1676674	-0.6463878	-1.562936	-0.5306531	-0.92597306	0.31528455	-0.38326034	-0.26921764	0.33040294	-1.7824197	-0.29275474	-0.50094473	-1.9698317	2.5711737	0.13028699	1.5831838	-0.44910544	-0.23157345	0.52840143	-0.71431875	0.920411	1.0276936	1.3048737	0.113521494	0.59545666	-0.10735341	-0.40176907	-0.27684125	-1.5310395	3.0053477	0.11362325	0.7605376	0.27199435	0.9865245	-2.792925	-0.23208609	-0.60421985	0.29025856	-0.6134979	-1.5110627	-1.0427108	-0.70180684	-1.8831483	-0.6683457	-1.2026353	0.35605645	-0.30597854	-0.25346348	0.6506281	-2.1897876	-0.2656119	-0.35773265	-1.8295028	2.8085716	0.19252054	1.3251191	-0.29124936	-0.31156453	0.1707718	-0.9225483	2.216634	1.1040719	1.688501	0.21585996	0.6553664	-0.19553596	-0.4985875	-0.30033708	-1.6834458	1.9021411	0.06828106	0.6603475	0.53095704	2.0145838	-3.9926078	-0.34695393	-1.355021	0.16276047	-0.53949636	-1.0119598	-0.6931353	-0.8571028	-1.7793536	-1.140238	-1.1122152	-0.20024526	-0.29387876	-0.21996383	1.0654215	-2.2417321	-0.14664944	-0.89698243	-1.6903955	2.9351234	0.12820524	1.6109586	-0.504519	-0.21038474	0.4884322	-1.0515543	2.0149372	1.1408925	3.0127077	0.56658655	0.8189401	-0.42737773	-0.65346193	-0.3229732	-1.7499704	0.52354467	-0.1469308	0.68025255	0.8110472	2.7944808	-4.3747616	-0.45309284	-1.8497151	-0.014041354	-0.55120784	-0.7952424	-0.44215578	-1.2384975	-1.159229	-1.6710415	-0.79793614	-0.90813893	-0.31134105	0.3280928	1.026316	-1.7408214	0.020147508	-2.0175767	-1.7469975	2.1847975	0.081001945	2.1219585	-0.93505037	0.018472265	1.050183	-1.1856587	-0.13527045	-0.05794354	3.3373616	-0.4645854	0.69679934	-0.4201632	-0.097598575	-0.24853796	-0.80913657	-0.36332756	-0.38132963	1.0766097	1.2619756	1.6719851	-2.7855513	-0.8251288	-1.2573214	0.19478878	-0.30483842	-0.95941025	-0.2884314	-1.7762175	-0.7522034	-1.1633935	-0.92388713	-0.82997715	-0.16596633	0.7328563	1.0791652	-1.4772146	0.04478036	-2.2179744	-1.101529	0.4235545	0.12625532	2.0567932	-0.7626293	0.05006523	0.6835504	-0.22156547	-0.108103864	-0.11382583	-0.036881674	-0.066465914	-0.07604455	-0.14584681	0.030010574	-0.086768255	-0.050950613	-0.05477245	-0.3699176	-0.042812668	0.042059176	0.06644486	-0.19336359	-0.28939807	-0.013917037	-0.9777756	-0.70290816	-0.16391401	0.13291003	-0.06086896	-0.015250622	-0.18942754	-0.27513337	-0.08239327	-0.45909563	-0.033826295	-0.36680147	-0.22915658	-0.6417326	-0.013461641	-0.0907918	0.044796865	-0.11761563	0.064002	0.0012806123	-0.52120966	-0.041999236	-0.5720352	0.09497843	-0.27450976	0.010491244	-0.14291194	-0.1811149	-0.29984528	0.08536848	-0.28050053	-0.020014375	-0.35144222	-0.33029103	-0.04567086	0.007947834	0.24359982	-0.0706436	-0.299747	0.19502597	-0.31976125	-0.52818096	-0.21202762	-0.019300923	-0.14149494	-0.07501361	-0.34019962	-0.68934125	-0.29818502	-0.46455497	-0.099648476	-0.094001114	-0.19976315	-0.5904004	-0.15207909	-0.47330713	0.15626101	-0.0023395284	0.08658922	-0.115313925	-0.27963275	0.06635609	-0.80473775	0.41499734	-0.49525172	0.02390764	-0.32800445	-0.048116505	-0.32771972	0.050761588	-0.40438104	0.024245292	-0.5182207	-0.3062261	-0.10849284	-0.017509013	0.38380754	-0.18044145	-0.19432022	0.0727761	0.065660276	-0.4226552	-0.355014	-0.028784372	-0.16109239	-0.3147825	-0.35522845	-0.9740073	-0.6449198	-0.40703782	-0.02311123	0.28698426	-0.417767	-0.56646144	-0.364319	-0.73785686	0.44740164	0.08101122	0.09549361	-0.22699487	-0.07530151	0.20689751	-0.7955874	0.38860637	-0.62892115	0.03533392	-0.3145573	0.021305649	-0.3088603	0.19826469	-0.47478276	0.08438792	-0.5785639	-0.38770148	-0.11772673	-0.03571066	0.30080426	-0.17923163	-0.38594288	-0.055338386	0.29052415	-0.42036492	-0.6017306	-0.06776571	-0.098652795	-0.4577414	-0.21772987	-0.8664602	-0.6824266	-0.35247827	0.009272325	0.51146245	-0.49526554	-0.6652239	-0.49677145	-1.0914222	0.3922584	0.25261632	0.2958197	-0.15317805	-0.13304985	0.24615459	-0.75678	0.2605572	-0.7658931	0.04173695	-0.25306332	0.039040294	-0.25578484	0.35208714	-0.4995582	0.023438493	-0.6853115	-0.4330814	-0.0055874237	-0.07714479	0.19003837	-0.16190204	-0.40296757	-0.29605988	0.36679065	-0.51553226	-0.84741306	-0.371994	0.13399209	-0.29717827	-0.1094789	-0.69779736	-0.5647584	-0.25466874	0.22582333	0.5799375	-0.4849288	-0.6030163	-0.63787025	-1.3084182	0.46253031	0.3153296	0.4921007	-0.08145861	-0.27516565	0.2720636	-0.7649964	0.16482313	-0.8777692	0.046354406	-0.036441036	-0.039133415	-0.21568002	0.543023	-0.4828105	-0.05932315	-0.7823234	-0.3863358	0.0192141	-0.1431814	0.04610024	-0.18318978	-0.36421967	-0.64156175	0.4583772	-0.6471334	-1.0005472	-0.65895236	0.49561197	-0.0010697931	0.0073640198	-0.5215579	-0.33119726	-0.1836031	0.45956647	0.60234296	-0.41930592	-0.4936123	-0.69507027	-1.5709614	0.40247923	0.47114766	0.6896789	0.062144607	-0.5305531	0.29330856	-0.7255223	0.010991868	-0.9601764	0.029296175	0.066838115	-0.13306814	-0.2699227	0.40870902	-0.3581528	-0.23817508	-0.7057755	-0.3665731	0.011489268	-0.15148865	0.11479992	-0.22203991	-0.26439625	-0.9921315	0.4269467	-0.7531345	-1.0767888	-1.0479286	1.1805893	0.37721166	-0.057297613	-0.38357636	-0.20227891	-0.06700633	0.9216195	0.69941235	-0.3023371	-0.437146	-0.5162155	-1.6915535	0.3413405	0.23875836	0.8125885	0.06134509	-0.5926941	0.47405124	-0.7801022	-0.41100022	-0.7826029	-0.033236206	0.2903573	-0.13919948	-0.2890673	0.22093366	-0.15189967	-0.42852712	0.1938491	-0.38868392	-0.12556374	-0.10981742	0.008768865	-0.20162691	-0.07451148	-1.4858388	0.3761272	-0.8472641	-1.1232109	-1.6243986	2.1403577	0.49902004	-0.12785193	-0.23890197	-0.012643515	-0.104965225	1.5945083	0.74488753	-0.19149783	-0.41626877	0.2114891	-1.9501455	-0.4007471	-0.0067734066	1.018047	-0.038422547	-0.36476755	0.71862054	-0.91734093	-0.21212359	-0.42198914	-0.3751284	0.5146935	0.49543816	-0.19378431	-0.45679918	-0.04065592	-0.58821744	2.091506	-0.26203215	-0.02819934	-0.047362108	0.28205788	-0.8017423	0.11138809	-1.9552816	0.19035949	-0.93857586	-0.92667156	-1.7787781	2.76387	-0.07293311	-0.38365608	-0.17186631	-0.11179854	-0.10062275	2.1968544	0.8409877	-0.5448912	-0.42830643	1.4026036	-2.358375	-2.1373916	-0.32680696	1.1307712	-0.3834242	-0.06436089	0.82349235	-1.1764544	0.5065033	-0.06981996	-0.3371722	0.6622922	1.121937	-0.14804472	-0.83673865	-0.17945458	-0.7046896	2.819603	-0.007967565	0.94844997	0.07899805	0.7227988	-1.8185148	0.09706119	-2.1846302	-0.026302308	-0.9113241	-0.54675955	-1.3097486	2.4735594	-0.6353291	-0.85724026	-0.14543904	-0.568194	-0.17584872	2.122967	1.1454281	-0.99982816	-0.3106625	1.5356926	-2.58445	-2.6067607	-0.43864626	1.193371	-0.76304567	-0.033357322	0.7955811	-1.2040902	0.6151044	0.118571445	0.1705207	0.73500174	1.1985924	-0.15819022	-0.8966064	-0.21731025	-0.69892323	2.9540746	-0.0030085074	1.2553489	0.30634817	0.7148261	-2.2511358	0.04285091	-2.405558	-0.08324405	-0.83951104	-0.669236	-0.9434283	2.2623053	-0.876024	-1.0357864	-0.14963172	-0.671994	-0.3247681	1.9088138	1.390289	-1.1910661	-0.22785623	1.1904104	-2.5423172	-2.5697086	-0.4280743	1.203339	-0.8440896	-0.06884823	0.66697645	-1.2854033	1.3684814	0.2198944	0.7978082	0.6612232	1.0196779	-0.17711987	-0.7356794	-0.18908677	-0.7348964	2.2833793	-0.030059261	1.4004709	0.38507012	1.0346261	-2.5663862	-0.052416634	-2.596667	-0.16359982	-0.80944115	-1.1536227	-0.6563916	2.3697107	-0.9033501	-1.3375423	-0.13308783	-0.5119639	-0.36579826	1.8297094	1.654761	-1.2189097	-0.1430755	0.43927407	-2.373087	-2.2634375	-0.65422344	1.3871733	-0.9483484	-0.021468498	0.69722223	-1.287583	2.074395	0.23847806	1.0796655	0.60076016	0.74187505	-0.34150952	-0.7107361	-0.05260059	-0.7568422	1.3340648	-0.0899558	1.2386333	0.5340456	1.7124208	-3.0741131	-0.21687827	-2.7735512	-0.28493387	-0.70898217	-1.7630273	-0.3040066	2.4047365	-0.7679923	-1.850508	-0.016649721	-0.5281113	-0.4173305	1.76113	1.953719	-0.91293925	-0.092317395	-0.07812598	-2.0202608	-1.8176386	-0.4956873	1.4605678	-1.1037594	0.050699953	0.7995328	-1.1591188	2.1713672	0.21656592	1.2804742	0.49621952	0.5758047	-0.5098998	-0.3968106	0.09602822	-1.0325592	0.61461484	-0.16339855	1.2381264	0.6642164	2.60086	-3.1585836	-0.26832587	-2.5973945	-0.37102494	-0.740521	-1.8842728	-0.24744917	2.1610448	-0.53930503	-2.1766224	-0.10622069	-0.80868536	-0.3739161	1.7108526	2.0098557	-0.9502799	-0.014467792	-0.6415278	-1.6469909	-1.9172417	-0.42754877	1.6819313	-1.1179415	0.12571375	1.0037184	-1.140912	1.3338482	0.25069696	1.5138971	0.03274538	0.83160263	-0.6239969	-0.12959212	0.075770944	-0.84710246	-0.19097804	-0.34579098	1.7377164	0.8684304	2.581929	-2.9828632	-0.27653903	-2.2421503	-0.22172856	-0.80716336	-1.5758201	-0.13509417	1.5103915	-0.45381382	-2.1979804	-0.11952361	-1.150654	-0.34107563	1.5393519	1.9306188	-1.1232977	0.12198157	-0.91281897	-1.5033892	-1.6743588	-0.3579801	1.8536588	-0.97928244	0.083272144	1.1321998	-1.0789391	-0.4334348	-0.47414565	1.7583325	-1.0614777	0.9464509	-0.5005587	0.41780806	0.06492243	-0.4495887	-0.57157964	-0.49462497	1.366593	1.078649	1.8003436	-1.880867	-0.32439488	-1.1661389	0.22931212	-0.39306366	-0.8717736	0.045421023	0.4122938	-0.24797747	-1.423932	-0.7407903	-0.95608693	-0.16542728	0.7907343	1.5095468	-1.133903	0.009263439	-0.3151971	-1.380588	-0.9172904	0.32201806	1.6809971	-0.51994234	-0.14007124	0.77959275	-0.3985907	0.971051	-0.1531566	0.0055994457	-0.029987093	0.6226733	-0.16912341	0.23184371	0.5457829	-0.16959572	0.22925147	-0.7233924	-0.09398903	-0.03393236	0.6195771	-0.48777276	-0.19670983	-1.3251035	0.23510826	-0.43031663	-0.7738656	-0.7783915	-0.28464845	-1.0407541	-0.61167675	-0.98311466	-1.7286028	-0.25440642	0.1683477	1.1678367	-1.1251527	-0.37948012	-0.31504467	-0.5865036	0.4291197	0.12900141	0.15467227	0.20740378	-0.47976613	-0.2992117	-0.47167444	1.2908219	-0.27620083	-0.0021737376	0.0055975434	0.7583753	-0.19988918	0.21038695	0.60758626	-0.1635905	-0.18834597	-0.6754838	-0.18774188	0.02109437	1.1305794	-0.7740384	-0.19334126	-1.5763263	0.21492477	-0.45508847	-0.6490232	-0.7531664	-0.30911395	-0.9874679	-0.7545715	-1.0286161	-1.8385377	-0.17825335	0.27996922	1.3949869	-1.201903	-0.32757363	-0.46126974	-0.45137075	0.4614413	0.09178799	0.1862239	0.22109315	-0.46527117	-0.30928808	-0.45172703	1.3583441	-0.40050727	-0.007029051	0.027218578	0.7970184	-0.2710501	0.1769524	0.70930403	-0.19348611	-0.5688786	-0.70063883	-0.22561999	0.08127906	1.5463766	-0.92804503	-0.1985668	-1.715415	0.17314735	-0.46979165	-0.5726483	-0.7483749	-0.35056737	-0.8950721	-0.90187144	-0.99930143	-1.9165841	-0.12968418	0.37540987	1.6138618	-1.1350472	-0.29951647	-0.5611089	-0.3267171	0.49787188	0.17311795	0.11165134	0.23143266	-0.43832162	-0.2617287	-0.48380503	1.3255819	-0.473839	-0.017368792	0.03249128	0.811632	-0.32951373	0.1449665	0.78564626	-0.20516768	-0.8716676	-0.6728304	-0.2325971	0