4
21	40	40	256
0.7343749403953552	1.7018638849258423	-1.0309759378433228	2.3412256240844727	1.0296651124954224	-0.7996893525123596	-1.533048152923584	-1.7510900497436523	-1.517651915550232	0.7108818292617798	1.5258557796478271	-0.147109255194664	-0.8388360142707825	0.29973772168159485	-0.593693196773529	-0.6132592558860779	-0.9429830312728882	-0.06751025468111038	0.6961309313774109	-0.593839168548584	0.2696782648563385	-1.4500672817230225	0.09983362257480621	-3.206418514251709	-1.129338264465332	1.022573709487915	-0.4894859492778778	0.4568174183368683	-1.2464011907577515	0.1736057549715042	2.2938387393951416	1.299522042274475	-0.17875806987285614	-0.7651194930076599	0.20648542046546936	0.01196039654314518	-0.46142587065696716	1.8944851160049438	-1.0447874069213867	-0.5048050880432129
0.5284231305122375	0.3800090551376343	0.014217342250049114	0.379810094833374	0.2108115255832672	0.4581507444381714	0.30294233560562134	0.10740039497613907	0.511343240737915	0.034259576350450516	0.23859994113445282	0.2877715229988098	0.032108526676893234	-0.26360857486724854	0.4937053918838501	0.22752118110656738	0.291394978761673	0.08234907686710358	0.2060302197933197	0.3124718964099884	0.27607035636901855	0.3362484276294708	0.5398222804069519	0.1933513581752777	-0.020944714546203613	0.04555516690015793	0.5509849786758423	0.1949257105588913	0.3597377836704254	0.2271353006362915	-0.05564320459961891	0.4211563467979431	0.12793424725532532	0.11342499405145645	0.26842930912971497	-0.0446745790541172	0.18735960125923157	0.14663228392601013	0.18963535130023956	0.15189191699028015
-0.14740778505802155	-0.1416008621454239	-0.1373477280139923	-0.1243271604180336	-0.1027173101902008	-0.11519302427768707	-0.08955811709165573	-0.08081723749637604	-0.08191858977079391	-0.05448635295033455	-0.08591674268245697	-0.07979000359773636	-0.03915184363722801	-0.05625903978943825	0.046302322298288345	0.122441865503788	-0.1745602935552597	-0.17252537608146667	-0.1899430751800537	-0.1779218167066574	-0.15242880582809448	-0.1567303091287613	-0.14457014203071594	-0.07631514966487885	-0.04337296262383461	-0.04286639392375946	-0.05261081084609032	-0.07280101627111435	-0.05459437891840935	-0.09126302599906921	-0.005953610874712467	0.09355968236923218	-0.17694102227687836	-0.1724299043416977	-0.1801231950521469	-0.16372273862361908	-0.11275561898946762	-0.09918761253356934	-0.09076587110757828	-0.04279785230755806	-0.06639634817838669	-0.0821656733751297	-0.09513957798480988	-0.12623277306556702	-0.142826110124588	-0.10111095756292343	-0.035519789904356	0.02289094775915146	-0.04706662520766258	-0.04880588874220848	-0.07102126628160477	-0.07409286499023438	-0.09512561559677124	-0.0963037982583046	-0.11116070300340652	-0.0566224604845047	-0.10437964648008347	-0.06822093576192856	-0.03600466251373291	-0.007832380011677742	0.02337753213942051	0.1098698079586029	0.14699192345142365	0.13358137011528015	-0.1790866255760193	-0.18078306317329407	-0.15340934693813324	-0.11892352253198624	-0.1172141432762146	-0.06693074852228165	-0.02638547122478485	-0.03326667845249176	-0.03593852370977402	-0.08857660740613937	-0.11614644527435303	-0.11621293425559998	-0.10745743662118912	-0.05583232641220093	-0.023162437602877617	0.04884791374206543	-0.20950186252593994	-0.1660618782043457	-0.15553376078605652	-0.17152449488639832	-0.18759126961231232	-0.18836365640163422	-0.2133958488702774	-0.1675790697336197	-0.19111870229244232	-0.17273806035518646	-0.19025316834449768	-0.1973651498556137	-0.17307515442371368	-0.16159074008464813	-0.19091448187828064	-0.20684213936328888	-0.1595088094472885	-0.12838277220726013	-0.08960099518299103	-0.09675229340791702	-0.08660697191953659	-0.07041468471288681	-0.07167352735996246	-0.08616086840629578	-0.10763157904148102	-0.11423298716545105	-0.11144047975540161	-0.08957155793905258	-0.08567402511835098	-0.06959142535924911	-0.08164998888969421	0.01989402435719967	-0.1696671098470688	-0.17027756571769714	-0.16421689093112946	-0.1521548181772232	-0.11925961822271347	-0.139164537191391	-0.1148628368973732	-0.12054581195116043	-0.09884991496801376	-0.1128748282790184	-0.09327476471662521	-0.09109537303447723	-0.03912373259663582	-0.016363048925995827	-0.06493692100048065	-0.13420364260673523	-0.15572525560855865	-0.16383834183216095	-0.16817525029182434	-0.15217646956443787	-0.1548316329717636	-0.17648781836032867	-0.14739491045475006	-0.15541355311870575	-0.13285920023918152	-0.16135910153388977	-0.18439500033855438	-0.17331337928771973	-0.13000696897506714	-0.15185986459255219	-0.15318293869495392	-0.0065099154599010944	-0.1638766974210739	-0.17837220430374146	-0.17842860519886017	-0.19095967710018158	-0.16699358820915222	-0.1472686231136322	-0.1311768740415573	-0.09389491379261017	-0.06501136720180511	-0.06602908670902252	-0.07246249914169312	-0.0969323217868805	-0.07779194414615631	-0.0635974183678627	0.008974703028798103	0.012241763062775135	-0.17915260791778564	-0.15449178218841553	-0.15489906072616577	-0.13142381608486176	-0.14095816016197205	-0.133358895778656	-0.09871447086334229	-0.07809054106473923	-0.07232262194156647	-0.1064533069729805	-0.07823017984628677	-0.09680148214101791	-0.061296459287405014	0.02611454389989376	0.03883742541074753	0.059896692633628845	-0.17571718990802765	-0.18563349545001984	-0.1919167935848236	-0.19290654361248016	-0.17204421758651733	-0.17402377724647522	-0.17669431865215302	-0.17289623618125916	-0.17149198055267334	-0.2127319574356079	-0.19840483367443085	-0.17874383926391602	-0.19236597418785095	-0.17993102967739105	-0.19190667569637299	-0.1870795339345932	-0.18254229426383972	-0.17507660388946533	-0.1656140238046646	-0.14032815396785736	-0.14101222157478333	-0.1258806437253952	-0.12628327310085297	-0.08340445905923843	-0.006316223181784153	-0.04972796142101288	-0.1970476359128952	-0.2923987805843353	-0.15122830867767334	-0.17607960104942322	-0.18705801665782928	-0.20198534429073334	-0.07789739966392517	-0.06505846977233887	-0.08365944772958755	-0.09114382416009903	-0.0881093442440033	-0.12130574136972427	-0.1272173374891281	-0.0933331698179245	-0.0473734475672245	-0.024139560759067535	0.01629558764398098	0.022830486297607422	0.0748695358633995	0.16953633725643158	0.19336329400539398	0.19832608103752136	-0.18381580710411072	-0.174109548330307	-0.1850268840789795	-0.17529655992984772	-0.1789087951183319	-0.18025709688663483	-0.16802367568016052	-0.17474089562892914	-0.19365951418876648	-0.19705459475517273	-0.17163869738578796	-0.2001981884241104	-0.17417339980602264	-0.17432861030101776	-0.1919376701116562	-0.18850405514240265	-0.19564557075500488	-0.17923606932163239	-0.19095082581043243	-0.1728004664182663	-0.17676256597042084	-0.16927675902843475	-0.1569114625453949	-0.1783086359500885	-0.17468176782131195	-0.1795472651720047	-0.21595683693885803	-0.27539387345314026	-0.2865763306617737	-0.29586297273635864	-0.2434333860874176	-0.12690339982509613
1.7816515	0.715191	0.30776685	-0.25511575	-0.4442449	-0.15306316	0.073230654	2.5210176	0.1752898	-0.3394639	-0.21407044	0.23453087	-0.48962003	-0.36299756	0.0619667	0.4030752	0.16261232	0.007130306	0.29650146	0.19930123	0.696782	-0.52733976	-0.42769983	-1.5232143	0.14127754	1.4126215	0.114737615	-0.37055054	0.7326264	1.5115767	0.3392653	0.6150525	-0.09549256	-0.09298524	-0.62269276	-0.005175703	0.7235939	0.027844127	-0.120459184	0.8426016	-0.26219183	-2.126436	-0.33775863	1.7632444	0.6760718	-0.12290338	-1.508095	0.5199222	-1.4407616	1.0947808	-0.3299375	-1.4432516	-0.49785063	-0.049602672	-0.3653776	3.67993	2.5463316	0.4968164	-1.5082322	2.289348	-0.08047945	0.037849233	-0.89854205	-0.35062444	-2.4854386	4.983504	1.9689013	-0.5017715	-0.4582424	0.88645416	-0.3395991	0.3010401	-1.4186138	-0.060874596	0.18604773	-0.04953319	1.765332	1.5326644	-1.4686258	1.4822316	-0.13839628	-0.06366095	0.090253636	0.00068471546	-0.8783491	-1.3681711	3.5820172	0.23479195	-1.027843	-0.09500837	1.3495328	0.9595374	-0.7032496	-2.3335302	0.8695217	1.384501	0.8662845	0.49799278	1.706688	1.0758528	-0.8867589	1.1337543	-1.1024293	0.52650964	-1.1587785	-0.62040293	1.9519807	-0.074931845	0.088460624	-0.25127536	-2.2791445	1.4730774	0.062259648	0.26439035	-0.21726356	-0.51198274	1.2742854	-1.0369704	-0.9291911	0.31538486	-1.2877611	1.020709	-0.58013463	1.3589888	-0.3845609	-1.4518722	-1.363682	2.9981158	-2.7225146	-0.052242488	1.495908	1.809247	-0.31854722	-0.8963332	-0.6582764	-0.8130854	-1.5018574	0.39600453	1.7293739	-1.3529061	-1.5059859	-0.23422052	-0.18236855	-1.436384	0.36621138	0.18116601	0.47801912	0.2881552	1.3655621	-4.729109	-0.1513062	0.2505576	-0.4590084	1.6231115	0.73778784	1.0050688	-0.110539645	-2.49356	0.30358228	1.084152	-0.4777996	-0.33309132	-1.9201893	-1.3238167	0.2849016	0.53848577	-0.30165735	0.40547085	1.7518702	0.9783442	-6.4605193	0.08241623	-0.86111414	0.7890094	1.4159851	0.20804365	-0.43661743	-0.187047	0.38934466	-0.45438623	-0.6703483	0.12707035	-0.6296574	0.868422	0.6494734	0.09080977	-0.28992712	0.3915913	0.37863427	-0.6394733	-2.1843684	-0.09674238	0.03238942	-0.19293149	0.3518067	-1.2373128	-0.8728505	-0.29669967	-1.0313233	2.3936884	1.0629559	0.57219917	0.18350577	2.7511518	0.1795625	-0.09231798	1.5341946	-0.2709661	-0.2590143	-1.1681232	-0.5066524	-1.2066617	1.1925123	2.6427934	-1.7603828	-0.5152297	-1.3519841	-0.8102165	1.9782242	0.30328214	-0.54500616	2.4098833	-2.8701882	1.5295551	2.9575791	0.47851437	-0.973934	1.1980219	0.6869523	-2.0660546	-2.1009219	-2.2772434	-0.22514462	0.23584484	-0.2478118	0.6128048	-0.30089584	-0.494005	-1.4386656	-0.25156918	0.02528571	-0.02569005	-0.074472755	0.031130785	-0.024966344	-0.2099699	0.21868083	-0.41963094	-0.08413421	-0.11056971	0.48583418	0.12402185	-0.55633485	0.89604366	0.05774846	0.29253867	0.8906191	-0.09860644	0.17315517	-0.8874169	0.1392313	-0.00695365	0.05367466	-0.07271953	0.4353062	0.1374847	-0.02595661	0.09567062	-0.4688902	-0.050705515	-0.17073244	-2.189358	2.2856941	2.6284366	-1.048555	0.60983783	0.5119225	0.11819694	-0.2659341	-0.48759717	1.0438092	0.16285385	-2.269284	-0.31451428	-0.44834548	0.4259623	-0.3033827	0.702061	-0.6708632	0.08427394	-0.3467655	-0.50068635	0.38457614	0.39749134	-0.9912885	0.53992647	-0.8773102	0.31366548	-1.4098651	-0.65476036	-0.44081774	0.255506	-0.17414361	0.23355651	-0.97977746	0.7087084	0.35303953	-1.1620355	-0.22660285	1.8255556	-0.12601377	2.082211	-0.27761966	-0.3418839	1.0980718	0.15108414	0.95113146	-0.0748798	-0.46874058	0.08467837	0.60756284	-1.5048927	0.6720193	-1.7601814	0.30311155	0.32683045	-0.66070116	0.47998855	0.25117666	-0.19448593	-0.9087081	0.6088736	0.08941547	-0.21902607	-0.68772274	-0.867108	0.43394974	0.8753769	1.1514437	-8.255699	1.3124764	0.007509552	-0.90795475	1.8930168	0.46698678	0.160525	1.8768594	-1.1386569	0.01500015	-0.080901116	0.7819063	-0.8989117	0.24418417	0.4444627	-1.0870494	0.3410043	1.1663992	0.1661572	-1.7578752	1.8144058	0.47534475	-1.7441621	0.5461471	0.35985732	-0.10050457	1.0202577	-1.2244349	0.3314691	-0.13005978	0.57842416	0.267504	-0.6767105	0.32224178	-0.7057523	-0.2931355	-1.2100533	-0.27629837	-0.12191597	-0.8977542	-2.607225	0.99859047	3.1572654	-0.378923	-0.12913026	1.1238257	-0.4167312	-0.021700058	-0.9031752	-0.11883394	0.5461209	-0.31396377	0.92308396	1.3761115	-0.50639254	0.8508636	0.9267703	0.5010111	-0.8876111	-1.6045796	-1.0708331	-0.91670084	-2.347269	0.2513545	-0.49970022	0.67333275	0.7610336	0.09149349	-1.2255493	-0.81749797	-0.004563864	-0.30939913	0.34947503	1.562718	0.51903206	1.189263	-0.4217995	0.09267407	1.0088326	1.5583751	1.4184781	0.49235702	1.1328241	1.0930504	-0.16528568	-1.2368318	-0.49607518	-2.8353298	-1.2356881	1.706727	-1.5732386	0.6856046	1.6670809	-0.28796655	1.8843099	1.4071094	-0.98128617	-0.79190457	0.55609	0.48900408	0.47221678	-1.4458951	-2.3330095	2.880169	0.16892253	-1.9656271	-0.2713018	0.7301978	1.1618127	-0.9742024	-0.8304693	-0.6752459	-1.0989823	-0.4482875	-0.49518952	-1.5926379	0.1649554	1.2035874	1.1615148	-0.22732104	0.39977816	0.13837309	1.0479635	0.39869732	-0.06756238	-2.4386375	0.064590715	0.47025788	0.66389966	-0.80721354	0.32128635	1.1122622	-0.933018	0.10157203	0.063956305	-0.13605879	-1.281811	-0.87377983	-0.27467927	0.37481382	0.6628655	-0.42719215	-0.23948814	-0.95266074	0.8006963	1.1777781	0.19001897	-6.891796	-0.89243644	0.078347735	-0.101019636	0.4073852	-0.8552736	-0.13610317	0.08447616	0.11905006	-0.5338484	-0.13370943	0.1050906	0.007852504	0.4049249	0.10346011	0.13120988	-0.37172088	2.4312024	-1.9345982	0.17817774	0.7389082	0.23077385	1.1604472	2.2098365	-0.19154504	-1.7595608	0.48713124	-0.20600192	0.5675461	0.31246552	-0.641203	0.54878044	-0.5830606	0.7457268	-0.3429996	-0.7840766	-0.5715697	-1.2026306	0.49737093	0.6310768	-1.7514956	1.1963278	-0.189197	1.5374848	-1.0753058	1.9897135	-0.78748554	-1.6356652	1.8259358	-0.57293427	-0.8833195	-0.42517123	-0.76633686	-0.048470076	2.0762486	-0.7563705	1.5472913	0.07622498	0.2838838	-0.9400207	0.5027892	-0.33929724	0.9616909	-0.23435657	0.7057352	-0.11489674	0.8762102	-0.7321185	-1.5476481	-0.6464485	2.3562033	-0.29453436	1.3245724	-3.3805878	-0.1642272	-0.98858255	0.88773954	-0.14957525	-0.3238983	-0.29028568	-0.93162644	1.328069	0.7809002	0.87804896	0.10370877	0.395509	-0.71531856	0.10029764	-0.5988069	-0.14091982	0.13299797	0.3950448	-0.8517785	-1.301479	1.5266936	-0.87128025	-0.2443098	1.3915244	-0.48431858	-0.14388336	0.5182475	2.3082726	-0.9226856	0.22607085	0.26676244	-0.29483157	0.11768923	-2.288415	-0.9561855	0.00950048	0.09857579	1.2194957	-0.024014829	-0.28427437	0.2364603	0.6713799	0.09305404	-0.19573924	-0.77771646	0.661077	-0.1916476	0.15029486	2.077209	-2.1341321	0.5462078	0.15169346	1.4385237	-0.4854632	-1.3690406	-0.06191593	-0.08712425	1.4408283	1.2081982	0.1663491	0.68657404	-0.99016714	0.2669752	0.5897051	-1.0198226	-1.5499774	0.27627814	1.0103737	-0.32881168	1.8728838	1.1615484	-0.4551685	4.367964	0.036939893	1.1375027	-0.3107932	-0.5287644	0.9456287	0.52016544	-0.4305029	0.1559374	-0.6154781	-0.68944263	-2.5927525	0.8454955	-0.8171347	0.7479186	0.18453279	-0.6024555	-0.1646908	-2.1577454	-0.28667808	-0.71118414	2.8372614	0.10044569	-0.67731297	1.5083253	0.8375444	0.5313763	0.096191056	-1.4754738	-0.32477385	2.303584	-1.523438	0.16153538	-0.970954	-1.7114749	0.3139549	0.37802774	1.2486335	0.22843958	-1.1541665	1.0685817	-0.7092228	-2.8453624	-0.044551153	-0.85021895	-0.022892632	-1.4748417	-0.54548144	0.8341441	-0.49052894	1.4071482	0.81903636	1.0725361	1.0402409	0.48956198	-1.1683565	0.5695739	-0.3384903	-1.2653439	-1.4991409	-0.37234637	-1.7722331	2.0009584	-0.4381511	0.080068745	0.3896068	-1.3880413	0.10090852	0.3888617	-0.37625018	1.2619005	1.6322793	-0.03397972	-0.67104775	-1.6616379	-1.2910557	-0.80727786	0.57482237	-0.3727344	0.10494039	0.24232392	0.7325369	0.11894681	0.23379663	-0.13557479	2.1715891	0.39233345	-0.9005087	0.05637464	1.6617593	-1.3742273	0.41459537	-0.3526085	-0.075674675	-0.2310014	-0.039645545	-0.37918136	0.55503637	0.2999515	0.097279236	0.22547968	0.6501429	-1.5110377	0.33208266	-0.109202504	-0.93096244	0.7553978	0.3397629	1.0536629	-0.65391433	-0.5378134	-0.416886	0.007338778	1.554307	-0.30797276	-0.6439258	-0.06533493	0.8929386	-0.95983624	0.11496803	-0.27602687	0.32386762	-0.583257	0.08789402	-0.85461265	0.35867453	0.30295634	0.33069482	-0.67504114	0.39625856	-0.6229312	-1.4216576	-0.86702526	0.021532562	0.503991	-0.20312354	-0.11373964	1.0750473	-0.2284491	0.4633319	1.4754058	0.29795495	-0.6919131	1.206466	0.20989011	0.45334172	-1.1219391	1.5231167	-0.15630992	-0.0042957487	-0.013089646	-0.39192283	1.1132867	1.5963396	0.04323594	0.21760656	0.3597741	-0.2558211	-0.36755985	-1.2588058	0.40976286	0.4454428	-0.2866707	-1.0091137	0.12958649	-1.4430977	-0.49499667	0.6717055	-1.4151249	-0.37659886	-0.93180186	-0.3437284	0.31032684	0.44752195	0.2206059	-0.12112718	-0.86199456	-0.36603045	-0.5928671	1.3533773	0.46016774	0.22813761	1.2477585	-0.15844901	0.46711397	-0.7151456	1.1314151	0.32645875	-0.14945015	0.0147616705	-0.12335051	0.16349149	-0.881533	0.52653384	-1.0668228	-2.4180174	1.0426775	0.60078645	-0.56552434	-1.770726	0.4864116	-0.28378782	-0.51022524	0.33628735	-0.57395023	0.10578775	-1.01282	-0.49951863
1.2727714	0.7261384	0.32596773	0.5556002	0.50039405	0.53502893	0.39324725	0.36187255	-0.03471111	0.46234557	0.3222626	0.49184337	0.70321715	0.23456693	0.7094056	0.5380902	0.16222982	0.7509833	0.4910931	0.24075851	0.25658765	0.24338458	0.2266308	0.3138512	0.3314691	0.9411753	0.30123037	0.6343982	0.3635473	0.573959	0.98287195	0.57911366	0.37390453	0.10861291	0.7919742	0.49854407	0.42805824	0.6532556	0.23889792	0.55338275	0.68254167	0.9213876	0.4529872	0.09141574	-0.14452642	-0.0541027	0.9550454	1.9266851	2.3639133	0.35556215	0.103415914	0.33369988	-1.0618279	0.3220903	-1.2439576	0.2293451	-0.011446536	-0.6851049	0.18666545	-0.30515167	0.2903947	1.1546937	1.341737	-1.8114905	0.68674475	-0.43612394	0.6199548	0.11265495	0.037815817	0.04263341	1.0293354	0.032794964	0.6930146	-0.41366726	0.117225215	0.65189195	0.19041209	0.5753633	0.23773834	0.24170244	4.8000855	1.33181	-0.35540938	0.5976208	0.27423954	-0.40746585	-0.81492394	-0.62266994	0.8441138	-0.11539514	0.357764	0.06401556	0.3133584	0.19965842	0.107930034	-0.24593024	-1.6543524	0.040539134	-0.03174186	-0.074053176	0.27059197	-1.1201047	-0.42403352	-2.910267	-0.22645132	0.7547095	0.039310034	0.8992654	-0.832311	0.35725287	1.5719222	0.6152201	0.051857606	-0.5756817	0.8776642	-0.004245623	-0.21604772	1.7518808	-0.28133368	-0.01792511	0.2940295	0.3428463	0.09807066	0.04792287	0.64862305	0.28043213	-0.17295359	-0.18337768	0.60082984	0.35087568	0.25615564	-0.34098488	1.1790754	-0.4098063	0.45791093	-0.09075951	0.49824312	0.3417931	0.2510193	1.0190121	0.06677548	0.05719763	-0.057737175	0.94461817	0.46438038	1.5747634	0.34389374	0.9064862	0.12478155	0.0550616	0.25676495	0.38020864	-0.14371581	0.23714627	0.29507276	0.04399916	1.0295612	-0.30681798	0.16928856	0.38983753	1.9868572	-0.061525583	0.020159848	0.6973269	0.687756	0.11044002	-0.058894996	-0.5317776	-0.4502916	0.24581745	0.39575964	-0.013568854	0.97041166	0.040931705	0.51470023	-0.010022844	0.52420956	0.21757089	0.5540584	-0.0810811	0.11704007	-0.40770382	0.16146114	0.60217535	0.2845548	0.6022246	-0.078467466	0.6931469	-0.029347554	0.16738234	0.8202119	0.0715267	0.037390284	0.2396281	0.77040374	0.06774767	0.14570506	0.28366384	0.071324185	-0.113751225	-0.2573047	-0.70827913	-0.19882105	0.0828176	-0.02784036	0.39643043	-0.03399664	0.5412075	1.0596305	0.2877577	-0.10159358	-0.7546499	0.3147034	-0.1175578	0.02108055	0.12399024	-0.0076991264	0.4612256	0.079030484	0.33096543	0.28470725	0.92168623	0.49761412	-0.21163408	0.14209673	0.12323125	-0.1150434	-1.3528471	-0.10464311	0.03499082	-0.53059506	-0.38926163	0.45974013	0.23378402	0.016701845	0.50236416	-0.06728854	-0.56284446	0.17082155	0.6127616	2.1747494	0.31237254	0.34904683	0.4831283	0.46513417	0.010055094	-0.24766062	-0.5328316	-0.40171257	0.026315037	0.059760246	0.37084106	1.5963627	0.5021139	0.31403282	0.12810186	0.5820802	0.49284798	0.77200663	-0.26317236	0.36788842	-0.20470573	0.14107542	0.5328183	0.4591739	0.6460366	-0.15321	1.2439314	0.3095076	0.5607962	0.89349073	0.13795446	-0.08120437	0.10738167	0.63598645	-0.009822178	0.13256784	0.6271595	0.06571568	0.4705288	-0.8658378	-2.0746734	0.26928034	-0.18279962	0.34045622	0.42189702	0.39015725	-0.17574292	-1.5964837	-0.08885332	-0.34880173	0.44675156	-0.044913176	0.049212206	0.29861477	0.0014621965	-0.2454866	0.006952926	0.06991475	-0.10311039	0.04147196	0.5601332	0.101044275	0.53929526	0.22470315	-0.7427079	0.5777477	-0.2826058	0.35647172	0.38246575	-1.6022254	-0.34168187	0.06570774	1.0347751	0.29169762	0.093726926	0.39233315	-1.5831276	-0.21026134	0.05369221	0.20554705	0.5729197	0.38664094	0.6388866	0.6616068	0.31920928	-0.063665375	0.04138115	0.23464273	0.70977557	0.48348063	0.27980605	0.7577214	0.411518	0.520884	0.2558255	0.37247536	0.31289503	0.5638568	0.16301078	0.21629971	0.034573596	0.59760004	0.25341296	0.5087249	0.60303384	0.43967783	0.67209494	0.45890576	0.42388317	1.5247419	0.31276906	0.42983204	0.17738675	0.9069569	0.5681875	0.6010616	0.9704576	0.47102982	0.33127755	-5.715721	-1.8009714	0.64013463	-3.346105	-3.309111	0.45757613	2.190799	3.2562335	3.0818954	-0.08955519	-0.76738954	0.17140496	-0.73662424	-0.6355343	0.52851075	0.62160945	0.3846166	0.29796892	-0.31848982	1.0964798	-0.3511922	0.23810405	0.71762824	1.2042602	-0.28911722	-2.2141445	-0.5202598	-1.7582908	1.6371399	1.0398691	-4.6389904	-4.0904613	0.10325337	1.3520837	0.99211365	0.14325026	0.23358561	-3.039752	1.2670646	0.09619767	-1.4599363	-0.05128663	0.17043258	-0.11292382	0.15798949	0.11684268	0.4479712	-0.21954006	-0.095481426	0.098247156	0.117791556	0.30491304	-0.038504303	0.107678324	-0.108974606	0.57256925	-0.18085264	0.1812048	-0.00853234	-0.5199238	0.48933974	0.52545756	0.1089607	-0.0061989757	-0.062196255	-0.028443769	-0.33786887	0.20529674	0.61366373	-0.1568167	-0.50191563	-0.41044998	0.14746395	-0.02717659	0.29049513	0.22065942	0.30807233	-0.27300334	0.07798673	0.33706737	2.6138275	0.092746854	0.4508237	0.56579393	0.2517647	0.21283558	0.22930937	-0.22610953	-0.021349462	0.22957066	0.35419294	0.13496527	1.0468631	0.51601166	0.4046799	0.138067	0.6270456	0.2751627	0.61077666	0.1599868	0.17799927	-0.28573823	0.21704033	0.4269249	-0.19020784	0.32694998	-0.06444875	1.5848812	0.22182295	0.21121228	0.9500706	-0.08693877	-0.15691198	0.17487209	0.7377987	0.36035797	0.054078314	0.65093976	0.1846028	0.19325386	-0.45320004	2.093129	-0.07634591	-0.016302994	-0.14185563	-0.4542964	-0.4565588	-0.26335332	0.26733395	-0.17095777	0.29202318	-0.36711708	-0.12167889	0.39617804	0.13189475	-0.26020327	-0.17252079	0.044302694	0.20856407	0.05138976	0.05465557	-0.5131554	-0.55904293	0.4591075	-0.38446528	0.16553406	-0.7305831	2.4337816	-0.5246732	-0.23310925	1.3758602	0.26076418	-0.2680194	-0.4022215	0.09581802	-0.041240398	-0.10315023	1.2438799	-0.34700418	-0.009555735	-0.48408714	-0.10968091	0.20960294	0.06786933	-0.10244324	-0.2404552	-0.6900097	-0.45140186	-0.5503131	-0.4357636	-0.17537428	-0.7254337	0.66847205	0.18190679	0.13999446	0.30977136	-0.040265065	0.114503026	-0.029561423	-0.32176864	-0.06879185	0.03370907	-0.37504852	-0.31946102	0.19565877	-0.22465289	0.21397083	0.83463657	0.30448812	0.09154079	0.35374174	0.12120626	-0.1859802	-0.23929186	0.30333614	-0.009067941	-0.25229886	0.072729304	0.00598409	-0.30620152	0.9250773	-0.8571016	0.42206657	0.3533943	-0.43713596	0.2664089	0.7164995	0.8958035	-0.027801402	0.7069511	0.15289804	0.17854404	-0.4153852	-0.4636082	0.20045397	0.080680914	-0.123865016	0.28802055	0.014170356	0.04975032	-0.28446192	0.09225998	0.33602592	-2.4375455	0.11027481	-0.30127484	0.3094062	-0.71624714	0.21949601	0.10928917	-0.79874474	-0.4587976	-0.112913325	0.8029446	0.5275578	0.40029946	-0.17960651	-0.59027433	0.1296384	0.35331678	-0.11621629	-0.87070644	0.0024275563	-0.1223763	-0.059002493	0.63300806	0.39809462	0.6468256	0.39525017	0.115306	-0.07542087	-0.039598115	0.17880036	-0.22875535	0.26718375	0.6168504	0.10035373	-0.15387271	-0.30189767	0.2936982	0.383277	0.4843962	0.55704546	0.761809	0.5211452	0.0012031215	0.31487268	-0.5497801	0.14057977	0.07478695	-1.185592	-0.56403834	0.40818316	0.37789208	-0.11897874	-0.09204991	-0.34636423	-0.6328074	0.32111433	0.62751275	1.9774315	0.061888408	0.25009853	0.714006	0.45278513	0.28459635	-0.046203863	0.09663991	-0.08587953	0.25786647	0.02849615	0.08903505	1.211382	0.5208544	0.43509686	-0.06814737	0.52115554	0.17221227	0.7142372	-0.16178842	0.09912396	-0.24576281	0.44689685	0.71807784	-0.12736045	0.5910406	-0.28881693	1.4258449	0.10308393	0.77154404	0.9952031	0.52794355	0.1732461	0.13179007	0.68527156	0.2710465	-0.023377234	0.75244075	0.08693874	-0.012795376	5.121526	1.9882385	-0.41198334	1.5591877	1.595469	-0.07383419	-1.4610406	-1.8735645	-2.8743482	0.12812081	0.8990302	-0.30481026	-0.11760681	0.30589634	-1.2355843	-0.26494378	1.9533541	-0.32179213	-0.3648097	-0.59519297	-0.07127953	0.20499179	-0.8488056	2.115747	0.026873901	1.3558888	0.21848637	2.849933	-0.7866616	-0.7635204	3.8491395	2.755412	-0.33392838	-1.0411907	-0.63570154	-0.2437032	-0.57012564	3.4425406	-0.18389258	-0.044685073	-0.23597693	0.74528676	0.25462288	-0.19156614	-0.35931343	-0.05102915	0.19904014	0.291182	-0.15756659	0.38131562	-0.1070054	-0.23216811	-0.59032637	-0.27876967	-0.14345637	-0.58612734	-0.011477518	0.38743344	0.3225083	0.43150923	-0.30435616	0.4370559	-0.024470733	0.9280136	-0.26710126	0.12337125	-0.116256885	0.49014473	0.009006435	0.07708834	0.32780507	-0.070978954	-0.43693	-0.105897516	-0.57734805	-0.08770667	-0.0021397604	0.61522454	0.094920516	-0.24839948	-3.5598602	-1.0327686	-0.012860285	0.021225158	0.4150203	0.4545365	-0.032051522	0.27749363	-0.16474439	0.05243465	0.056244172	0.4263597	0.19336694	0.119251326	0.296705	0.27371687	-0.13348992	0.24690643	-0.16684298	0.07281489	-0.018168923	1.148351	0.049973097	2.4376223	0.48225322	-0.29519433	0.20871513	-0.43120813	0.27757865	-0.05085217	-0.6096357	-0.2253106	-0.051044576	0.68207926	-0.08197745	0.22477624	0.06513998	-0.9096229	0.15428533	0.24762301	0.9380285	0.22002424	0.032582637	0.48740125	-0.29225656	0.0025286698	0.20138459	0.46875712	1.3665788	0.27098998	0.3861193	0.3515559	-0.8624122	-0.009738212	-0.4290086	0.3902278	-0.63088006	0.07995694	0.07437639	0.6811127	0.011260597	1.2905976	0.15637518	0.7337389	0.12819819	0.52886146	0.4013251	-0.5649537	-0.15971215	-0.13009836	0.36792225	0.45508727	-0.011407646	-0.10413315	-0.34477162	0.14212194	-0.09756368	0.12385568	0.3604816	0.4117696	-0.55655724	0.059420303	0.06968199	0.29060686	0.49108142	0.39798498	0.24870439	0.3660909	0.5088389	0.2601237	0.17837031	0.13277222	-0.23882787	-0.33550584	0.008471168	0.14261693	0.25630498	0.28702456	0.4068477	0.33320463	-0.09715609	0.32151175	0.28521398	0.18149541	0.25495514	0.71507	0.558115	-0.8466294	-0.34671265	-0.26892152	0.23325065	0.27990708	0.06839939	-0.1559873	0.4156936	0.07569316	0.32814845	-0.061089065	0.0018679993	0.2613095	1.4102268	0.77704775	0.0064891055	0.42285007	0.37449455	0.6636364	0.2673493	0.2183154	0.42776003	0.6382396	0.5032009	0.12837288	0.48562106	0.10679569	0.05710897	0.09577921	0.17612408	0.6150311	0.53481907	0.36754444	0.6231192	-0.03924893	0.63457906	0.31281593	0.6895502	0.30143192	0.27711055	0.7831437	0.3103496	0.34893358	1.1120843	0.66373366	0.2379481	0.18671867	0.85977495	0.4244735	0.36792594	0.5888968	0.25887993	0.60726357	-0.6098729	-0.33487356	-0.11100308	0.11399185	0.033407442	0.12473867	0.077592574	0.5312226	0.21977583	0.28551385	0.089349344	0.5072619	0.06934134	-0.15000892	0.17466593	0.08295459	0.028327012	0.05888981	-0.18015668	0.2175209	0.46643034	0.3126409	0.3866994	-0.13014661	0.26580256	-0.6752068	0.14242046	-0.44992945	0.06416057	0.047831185	-0.032597955	-0.41780788	0.2194123	0.717062	0.05419421	0.048103385	-0.086879514	0.5338827	-0.50681335	0.17120837	0.58066297	-0.69976455	0.620436	0.0019026346	0.053368695	0.23674832	0.27946422	-0.12615946	-0.42953387	-0.37461904	-0.41837087	0.5047421	-0.46297598	-0.46338576	-0.36885485	0.6925338	-0.0035536767	-0.118211105	0.0050808457	0.626475	-0.035787243	0.028214501	-0.06569935	1.636577	0.101449706	0.029757442	0.5188729	-1.4598665	0.6358011	-0.27437863	0.3555661	0.015942616	0.05692693	0.31182787	-0.7596697	-0.14858107	-0.32116866	0.6822521	0.7469051	0.46470067	2.028487	-0.35962343	-0.26112476	-0.051790472	0.2000826	-0.18729188	0.45518973	0.20983219	-0.31452852	0.12851344	-0.16547154	0.35334814	-0.1753685	0.0023341111	-0.17511776	-0.10481965	0.18398423	-0.19032587	0.24152622	0.06645871	0.2808431	0.37487653	0.07667189	0.61512953	-0.151011	0.052589774	-0.069228776	0.14113304	-0.15197544	-0.0011339501	-0.26513386	-0.021588275	0.28000048	0.06498703	-0.21933855	0.022501035	0.026334262	-0.1762634	0.14081477	-0.05924794	0.7788217	0.75695294	0.5524642	0.39000276	0.63101023	0.27371642	0.08778148	0.1603995	0.11979516	0.73300976	0.4171587	0.45479852	0.4420715	-0.05820808	0.5606893	0.3138557	0.22181776	0.73511344	0.7221367	0.24357946	0.17918073	-0.012770726	0.46803272	0.1663125	0.39549005	0.6484674	0.6144561	0.80895996	0.4790057	0.24211206	0.7786673	0.5577976	0.34892693	0.12719342	0.7397201	0.67090446	0.19520365	0.9982155	0.51609796	0.5211147	4.122676	-0.19934179	0.387362	0.29398927	0.49502105	0.5812163	-0.48664787	-0.61882925	-1.7280701	0.08906823	0.06992138	0.22098935	0.68026155	-0.19481541	0.3640309	-0.13611276	0.23793596	0.36337188	0.2859895	-0.29437777	-0.08735993	0.023437519	0.33016577	0.15050074	0.173247	0.87284666	0.33163798	1.2615023	0.44928217	0.3957733	0.3284798	0.49400324	-0.1653748	0.56498253	0.41214463	-0.045762274	0.35413578	-0.0065717925	0.20683086	0.2198496	2.1368568	0.39153984	0.7993732	0.47696167	0.94152904	0.36970642	0.3356493	0.09439817	-0.099108666	0.11796953	0.24153729	0.36796793	0.514037	0.2736359	0.44397902	0.08476849	0.78721064	0.43072018	0.19740197	0.40483156	0.33356103	0.038147755	0.12465088	0.23093797	0.61485857	0.60006016	-0.077363014	0.7535861	0.24514914	0.040704463	0.86278224	0.49748293	0.1093493	0.22881292	0.4264199	-0.1418452	0.06523435	0.1590781	0.1242685	0.36433828	1.1289353	0.70908976	-0.11433286	0.0011983508	0.009438904	0.41063625	0.3974175	-0.12824367	-0.13022661	0.05890811	0.27718475	-0.1619024	-0.4180532	-0.2970051	0.05176844	0.31915015	-0.1467409	0.23210213	0.052143637	-0.037504558	0.28148127	0.28047407	0.12026872	0.0033976224	0.077219695	0.52240735	0.16171852	0.32100397	0.21478148	0.0012337706	0.051461164	0.22607441	0.117382236	0.006236699	-0.0512257	0.0945332	-0.22373752	0.02844485	-0.22234745	0.09924895	0.19411153	-0.83696645	-0.53476435	0.062455967	0.7259997	0.4796628	-0.2751896	0.2189394	-0.6536129	-0.453104	0.21436723	0.15738471	-0.4969266	0.14416355	-0.17200984	0.26094756	-0.21888568	0.02170738	0.2709645	0.52210575	0.096853994	-0.31641704	-0.39402255	-0.2519556	0.52925795	0.7294904	0.586761	-0.96395075	-0.4817777	-0.12622519	-0.07600021	0.45459938	-0.44722036	-0.20960754	0.26965758	0.15900792	-0.13394152	-0.1297349	0.80664307	0.22366026	1.2736512	-0.12109952	0.25429738	0.19169307	0.47974116	0.21836016	0.23107581	0.22463377	0.14806399	0.47692975	0.32610825	1.4534626	-1.1562374	-0.41308922	-0.11546375	0.91061574	0.119407065	-0.22645317	0.12888536	-1.277071	0.45608264	0.57839614	0.86471844	-0.62698954	0.343018	0.39538684	1.267038	-0.8490971	1.1411788	0.037853137	0.90852374	0.049303286	0.8564715	0.76620257	0.16345723	-0.34777164	0.7442833	1.5103108	0.10357424	0.30052224	0.8139879	-0.08370598	0.2954587	-0.19547802	-0.04822423	0.08554654	0.2946509	0.20173572	-0.14093016	0.299477	-0.070281595	-0.26456663	2.63414	-0.3598622	-0.45688236	0.81894344	0.7635922	0.16511269	-0.18205877	0.40786648	0.011151363	0.5119768	-0.026858613	1.6272922	-0.17355593	-0.00846069	0.45753706	-1.3488691	0.5927702	-0.093473636	-0.10724292	0.08616778	-0.14607014	-0.2674336	-0.48934624	-0.5900425	-0.3934042	0.88220006	0.86302876	0.54927355	2.161977	0.5591967	0.03944198	-0.05461117	-0.13490726	-0.19036755	-0.32558778	-0.28705388	0.6455149	-0.16118355	-0.12581627	-0.084250145	0.62233096	0.0045782337	0.09243073	0.044726357	0.45703995	0.030295746	-0.19775544	-0.8132303	0.3408612	-1.0133163	0.0024529037	-1.2834287	0.11842293	0.03687169	-0.36265463	0.6893608	-0.41227114	-0.020049285	0.7196387	0.06197065	-0.11647435	-0.43702847	0.13976565	0.23550801	0.23602527	0.2079566	-0.08606952	-0.047906872	0.29288274	-0.21762058	0.26543662	-0.12166977	0.5670079	0.36432084	0.275284	-0.59069616	0.37374207	0.11468528	-0.12754475	0.47991988	1.0193726	-0.21304898	0.7848777	0.33192334	0.3480529	-0.07212241	-0.24635077	-0.21372294	0.16522764	-0.17486021	0.2694744	-0.11786452	0.48220432	-0.082569376	-0.356201	0.61049026	0.76937264	0.07950212	0.3565945	-0.13242935	-0.004445743	0.15870558	0.5543879	0.36791363	0.27161416	0.74289566	-0.5679091	0.07612402	-3.5697095	-0.10081273	0.39998034	-0.78114754	-0.898955	-0.29413614	0.4013076	1.2441972	3.7470942	0.29153773	-0.57532483	0.084624335	0.27636313	0.15402581	0.5672075	0.3373077	-1.7119516	-0.20909578	-0.13323261	0.5110055	-0.007572888	-1.5672929	0.725689	-2.0477664	-0.27526775	-1.3452249	0.11593016	-1.7095789	0.11950768	0.23545867	-2.0310564	-2.0775704	-0.2894528	-0.27396566	0.5812087	0.1149039	0.1975012	-1.1819673	0.49330634	0.049428005	-0.40040952	-0.3753259	-0.12489777	0.5019953	0.68516386	0.5376602	-0.0028507966	-0.09338791	0.47150347	0.05194477	0.25562605	0.10061906	-0.21445844	-0.5955778	-0.1861092	0.1929368	0.22389694	0.3300509	0.110461	0.40251943	-0.27566844	0.664057	0.02496205	-0.521635	0.94644415	0.3636554	0.071996644	-1.4735473	0.2648976	0.054430198	0.24138953	0.0494283	0.26988187	0.27267188	-0.05233278	-0.11390942	0.44562104	-0.104751274	0.007724239	0.7569742	2.762036	-2.51345	0.18278787	-0.880083	-1.1474359	0.6727211	1.5067494	1.5932794	1.1371276	-0.13943529	-0.37221432	-0.08689186	-0.2999614	-0.39706752	0.5648441	0.37676448	1.1107826	0.27772436	-0.2877092	0.67671555	0.07498653	0.5122572	0.16345179	1.8323776	0.36526793	-1.5215368	0.4710891	-1.022598	1.0562699	0.41926774	-3.3488064	-1.8901566	0.3726777	1.2316993	-0.29134655	-0.04395462	0.79426944	-2.8818362	0.6615674	0.11231447	4.56293	0.2820521	0.43817607	0.25202963	0.03257099	0.24351348	0.12499992	0.1526524	-0.6389823	-0.059295937	0.3814074	0.32106826	0.7395288	0.510327	0.46670648	0.36692694	0.11528713	0.07723731	0.53526664	0.07166748	0.38687932	-0.21008989	0.12926191	0.663318	-0.214134	0.24467878	-0.3877227	1.3231821	-0.02383711	0.23794168	0.32820216	0.1586685	-0.18535331	0.43281582	0.4780839	0.1325582	-0.27345827	0.39548528	0.06414075	-0.12776834	3.1074347	0.14385964	0.29468486	0.516083	-0.022828182	0.01358624	-0.04603192	-0.27014908	-0.123273924	0.28115085	0.4312577	0.069304235	1.0562977	0.39100242	0.38587952	0.18002658	0.7148868	0.25090444	0.3714615	-0.24609442	0.14885752	-0.91528445	-0.09404372	0.48017552	-0.044238362	0.49668163	-0.043441847	0.90299195	-0.093701705	0.30789387	0.796646	0.13633186	-0.18648463	0.24397615	1.0181278	-0.18427908	0.17643028	0.2580573	-0.2551333	-0.05964481
-0.18835475	-0.29459342	-0.15908653	-0.08425844	-0.25595018	-0.024072653	-0.2782166	-0.10817864	-0.11968579	-0.022543062	-0.26106894	-0.26514658	-0.14037177	-0.09730517	-0.07720931	0.04493975	-0.1471223	-0.13318379	-0.35778683	-0.26848856	-0.31698588	-0.20772812	-0.10111416	-0.18425359	-0.0045420695	-0.02671235	-0.0538142	-0.2648413	-0.12476677	-0.111083835	-0.15620147	-0.21244669	-0.048459392	-0.19116604	-0.15904857	-0.12331284	-0.2548125	-0.13859059	-0.07989466	-0.07545063	-0.21715821	-0.25930452	-0.14207986	-0.06483577	-0.15234834	0.050848417	-0.15248449	-0.080379635	-0.26043472	-0.019230722	-0.36810046	-0.20296912	-0.24291627	-0.08098144	-0.09030545	0.034288872	-0.07384478	-0.13344325	-0.3979425	-0.6038228	-0.36188856	-0.26790377	-0.17173111	-0.25638324	-0.05680438	0.058585152	-0.044462375	-0.045372605	-0.13153902	-0.1992383	-0.25561044	-0.050329737	-0.01971758	-0.22039682	-0.044104155	-0.17416881	-0.2803177	-0.12408395	-0.05719188	-0.061021052	-0.18610676	-0.16927408	-0.13500401	-0.043975726	-0.2590066	0.19468689	-0.18685918	0.0152486265	-0.030709913	-0.012779966	-0.39839575	-0.08806329	-0.2580993	0.019249761	-0.19008791	0.06329091	-0.084669665	-0.12583037	-0.37909582	-0.9096671	-0.2816345	-0.16401033	-0.14090253	-0.27875468	-0.08754445	0.10519202	-0.11926244	-0.15289858	-0.18794629	-0.024072569	-0.32561675	-0.2375211	0.006950983	-0.20313917	-0.044253785	-0.19417463	-0.29792506	-0.14051594	-0.012233475	-0.17333819	-0.05088685	-0.2707114	-0.14121634	-0.04588736	-0.2647278	0.33484384	-0.030637283	0.07877553	-0.1556646	-0.007114804	-0.37223873	-0.08105638	-0.25790977	0.065422006	-0.32487047	0.11257734	-0.02998777	-0.13230951	-0.27776605	-1.2162417	-0.4076976	-0.26365018	-0.04709615	-0.23055315	-0.12505127	0.08308104	-0.1128055	-0.23469104	-0.20503837	-0.00408898	-0.3290705	-0.1205049	0.06309077	-0.19964851	-0.042270232	-0.20080452	-0.25921494	-0.15501449	-0.06295053	-0.120946795	-0.21908654	-0.10530045	-0.14661314	-0.13366368	-0.004972336	0.40532184	-0.17687547	0.033640515	-0.25284943	0.0015650437	-0.32759774	-0.004086728	-0.30152872	0.07916035	-0.3522479	0.048598517	-0.11418596	-0.15569475	-0.12179348	-1.5406587	-0.29610118	-0.10954985	-0.20507504	-0.21083024	-0.19502205	0.08803015	-0.044019766	-0.21132317	-0.22710684	-0.12875216	-0.43183464	-0.04578894	0.17135248	-0.17900035	-0.18788342	-0.24194455	0.0036133402	-0.17302467	-0.12670705	0.003442039	-0.089188755	-0.045210186	-0.19127858	-0.15270518	-0.08295541	0.5325769	-0.05601905	-0.15009007	-0.21645421	0.019746013	-0.30759227	-0.068670064	-0.33652228	-0.13923669	-0.4649322	-0.18552276	-0.039080672	-0.17998894	0.070940115	-1.941491	-0.12862663	-0.26120225	-0.15635172	-0.19671771	-0.27439192	-0.044622347	-0.070753	-0.09006906	-0.0026286223	-0.12842838	-0.5724626	-0.12145394	0.42731214	-0.19697653	-0.052041855	-0.24528891	-0.11808603	-0.23795725	-0.0008253662	-0.0640835	-0.2256204	0.0076550897	-0.26538244	-0.14284305	-0.13380226	0.7036236	-0.06165698	-0.67170125	-0.008089042	0.017340677	-0.21329503	-0.18909182	-0.16446511	-0.3139682	-0.5127043	-0.51476806	-0.11164374	-0.18274611	0.5304976	-2.3587835	-0.253546	-0.11786322	-0.20146097	-0.08319113	-0.3486406	-0.15192588	-0.029196557	-0.21809472	0.030465841	-0.04595352	-0.7255602	-0.0965804	0.82127494	-0.16972114	0.014484364	-0.19915688	-0.080105186	-0.29353175	0.11452631	-0.001547708	-0.12343577	-0.08387601	-0.5175713	-0.10341349	0.055144418	0.7197932	-0.022125022	-2.2679243	0.0026203515	0.0040772296	-0.23577891	0.001064543	0.41748336	-0.47865382	-0.34531528	-1.0713427	0.00013406055	-0.24855827	1.0724136	-2.3603208	0.061337285	0.06931935	-0.120086774	-0.015419568	-0.3444865	-0.35083762	0.0033991255	-0.2156986	-0.05301406	-0.036170796	-1.1095393	-0.2365828	1.2715015	-0.14313804	-0.21089402	-0.12214233	0.09462751	-0.41718513	-0.075900055	-0.11200724	0.038070537	-0.046492904	-0.5500699	-0.07169968	-0.1538724	0.358361	-0.047182783	-5.436836	0.033624146	0.46921092	-0.7023867	-0.14813049	1.5695988	-0.6425977	0.5406558	-1.6906921	-0.06690619	0.34384415	1.1413382	-1.2032369	0.012510115	-0.09910838	0.09890061	-0.29877657	0.22168441	-0.35915685	-0.13961603	-0.052729342	0.06384735	-0.17279813	-1.4151558	-0.19494326	1.162788	0.60029733	-0.27790678	0.59621274	-0.06727812	-0.5393961	-0.06983905	-0.05522634	-0.17566104	-0.16089167	0.43376175	-0.061992545	0.024474949	0.30119067	-0.18954577	-6.5562134	-0.028901132	1.5893656	-0.86830074	-0.11051683	1.6104523	-0.69497484	0.9511631	-1.9422829	0.070751786	0.72952294	0.8238937	-0.5838269	0.09463361	-0.20214134	-0.042795166	-0.4634312	0.7030197	-0.35082853	-0.21094929	-0.22765036	-0.17348821	-0.04411383	-1.3450699	-0.064928494	0.700283	1.4069155	-0.13570994	1.3752699	-0.27074528	-1.2321384	0.042075787	-0.043231092	0.029503126	-0.27293056	1.4563241	-0.055969868	-0.026100175	0.2116174	-0.1218832	-6.6916537	0.03154361	1.9428778	-0.8128171	-0.17288323	1.3084842	-0.83863175	0.9702893	-1.9467183	-0.0761708	0.72050685	0.6963091	-0.44525567	-0.060192898	-0.14024177	0.0594374	-0.46067408	0.8251956	-0.41104257	-0.19816168	-0.13789433	-0.027109096	-0.22982238	-1.2899704	-0.16170289	0.5157704	1.6364812	-0.3472911	1.5017904	-0.1986168	-1.4049859	-0.0051971613	0.02969472	-0.018392475	0.0011502653	3.1608417	-0.13722464	0.036418904	0.18419068	-0.031716682	-6.756513	-0.012225815	2.1155097	-0.89378214	-0.11238436	0.87290883	-0.92815083	0.95951045	-2.0360897	-0.1660381	0.58908087	0.50464547	-0.11581563	0.058015194	-0.29883984	-0.030447602	-0.4804139	0.92023313	-0.37335315	-0.068331234	-0.10411659	-0.065896474	-0.3098665	-1.3145609	-0.18147732	0.3734407	1.6313915	-0.373063	1.423382	-0.4061282	-1.3540361	-0.19193949	0.034193918	-0.18037921	-0.1354798	5.746927	-0.09542011	-0.22113553	0.058809467	-0.16107576	-6.5787773	-0.08283684	1.6672329	-0.78900915	0.05337549	0.32889026	-1.0857761	0.9697113	-2.0788586	-0.1820023	0.52736926	0.41521716	0.2395278	0.077795416	-0.37894645	0.032730747	-0.43826857	0.90159875	-0.3792977	-0.21146002	-0.3267862	-0.13627721	-0.4704927	-1.2874701	-0.16340984	0.3817365	1.3866378	-0.32444528	1.0746593	-0.3665677	-0.5736065	-0.124015205	-0.1417733	-0.11780245	-0.069836006	8.1238165	-0.17119166	-0.15129133	-0.29992732	-0.2858234	-5.5827484	0.013103984	0.056915898	-0.8784076	-0.06156365	-0.13188566	-1.2331172	0.947229	-1.7696928	-0.26122048	0.9294864	-0.18420859	0.4277687	0.10326432	-0.34885803	-0.063751124	-0.5736392	0.8472897	-0.3187651	-0.017178088	-0.12307775	-0.22250803	-0.72010684	-1.314343	-0.04350953	0.23012574	0.92680943	-0.33598018	0.61679715	-0.19838883	1.3680636	-0.54036814	-0.3262592	0.08703994	-0.07621309	3.6528244	0.082489334	-0.13956375	-0.3115876	-0.05732725	-3.3598182	-0.013866043	0.56822515	-0.36919633	0.17712776	-0.19916897	-1.1242799	0.96859896	-1.610699	0.080685966	0.60173184	0.20140657	0.5227299	-0.017277649	-0.054102972	0.18209603	-0.052734036	0.6751842	-0.036311667	-0.078545436	0.04747969	0.009350126	-0.14699864	-0.6536948	0.013145335	0.28714678	0.90037036	0.037361987	0.87881637	-0.053569242	0.01217478	-0.0057762824	-0.061554454	0.14103629	0.12041388	0.95192623	0.21820606	0.11114084	-0.081422135	0.10022183	-0.65765333	0.23857652	-0.055998147	0.060258225	0.19655961	0.06226483	-0.34381092	0.46270812	-0.58564264	0.1978185	0.16476752	0.32354736	0.011448452	0.28907782	0.18044475	0.060993828	0.23639423	0.15167229	0.14175856	-0.004106413	0.20157173	0.0051117907	0.26203185	-0.03617854	0.082590915	0.10442045	0.54299325	0.16830616	0.65193355	0.16524044	-0.28600284	-0.0029626775	0.08042798	-0.15727423	-0.30622607	-0.17496929	-0.28298855	-0.20544606	-0.09073019	-0.06923524	-0.15658371	-0.27573866	-0.019973597	-0.14438333	-0.29776907	-0.08405354	-0.13956411	-0.076953076	0.0495657	-0.1581643	-0.15177156	-0.30470368	-0.047668938	-0.10769199	-0.26887685	-0.059514243	-0.11754033	0.01582451	-0.13399889	-0.2216387	-0.099805035	-0.20000014	-0.26171654	-0.072520055	-0.25490287	-0.056878448	-0.18358399	-0.06570778	-0.08786628	-0.17496271	-0.1480223	-0.14320667	-0.2844451	-0.301564	-0.03525352	-0.17247534	-0.25981417	-0.33057898	-0.08187886	-0.21426022	-0.13550524	-0.0674614	-0.015658999	-0.1390215	-0.27251285	-0.06921537	-0.13509165	-0.05915743	0.03411305	-0.28472248	-0.13182871	-0.265284	-0.027701696	-0.2632832	-0.20160563	-0.2828821	-0.12103057	0.022245904	-0.11943631	-0.13576701	-0.18516594	-0.13073327	-0.13610831	-0.057067193	-0.11416334	-0.047628917	-0.15549894	-0.1462403	-0.06504615	-0.20357211	-0.15467264	-0.22240835	-0.23256147	-0.081896946	-0.25458345	-0.1782147	-0.12868904	-0.29897407	-0.11933845	-0.08207237	-0.17355518	-0.22119741	-0.022674117	-0.16071543	-0.16336425	-0.10552398	-0.17049706	-0.07913812	0.053018976	-0.14037882	-0.14819083	-0.34195167	-0.06532777	-0.2283532	-0.22634818	-0.15716648	-0.13625431	0.01469255	-0.15013999	-0.15202256	-0.12049644	-0.16078287	-0.26411834	-0.08871656	-0.19288129	-0.056422967	-0.20494868	-0.3283389	-0.09867357	-0.2142463	-0.14445446	-0.19927466	-0.122351244	-0.19692005	-0.086063266	-0.14272436	-0.23504369	-0.22179107	-0.08515402	-0.2892158	-0.12876965	-0.122396186	-0.017258279	-0.15009142	-0.12428249	-0.10588477	-0.13502795	-0.03986816	0.021928696	-0.3013947	-0.10765678	-0.25721827	-0.08740376	-0.27066118	-0.19290924	-0.29209593	-0.12611306	0.008195684	-0.09695604	-0.17567405	-0.23697688	-0.2763014	-0.16040006	-0.07845733	-0.2499135	-0.042044487	-0.14818186	-0.1687551	-0.079107	-0.16995923	-0.12258068	-0.08207326	-0.13115825	-0.16851313	-0.06346478	-0.15181318	-0.28281316	-0.2564128	-0.09253543	-0.30055106	-0.15222885	-0.058234714	-0.02236948	-0.1970638	-0.23534109	-0.15300967	-0.14414796	-0.05311792	0.016151417	-0.104835965	-0.12214756	-0.34080327	-0.14172918	-0.12739643	-0.23553753	-0.2021721	-0.17918947	-0.0016316809	-0.10361605	-0.067651644	-0.26407662	-0.26643476	-0.21876998	-0.13803518	-0.2408617	-0.056483656	-0.18238358	-0.24814315	-0.11802195	-0.18164219	-0.12640962	-0.087326474	-0.06316585	-0.15430485	-0.057508912	-0.14573616	-0.2838436	-0.26210216	-0.075246714	-0.29189247	-0.14886776	-0.04312277	-0.018528951	-0.21168008	-0.119296774	-0.19127515	-0.11985237	-0.0034832912	-0.019662911	-0.2533009	-0.114795856	-0.2796476	-0.202677	-0.14955105	-0.1799796	-0.22002041	-0.18115053	-0.014649618	-0.05596018	-0.23121217	-0.19580504	-0.09504485	-0.20418513	-0.15516506	-0.31624347	-0.05673624	-0.1419298	-0.12094077	-0.11898732	-0.16287568	-0.13341527	-0.12419668	-0.20959307	-0.23300675	-0.1447549	-0.10793988	-0.18514544	-0.13309598	-0.08834139	-0.09054265	-0.18175988	-0.038387552	-0.014345299	-0.2847076	-0.19467811	-0.36924237	-0.21002032	0.06409066	-0.14266534	-0.22753708	-0.06550044	-0.26270375	-0.4166172	-0.13104399	-0.09116235	-0.18599644	-0.2573934	-0.059339643	-0.056537203	-0.03410156	-0.22411586	-0.072875544	-0.28830174	-0.2561067	-0.21563087	-0.025420886	-0.1264574	-0.13743807	-0.15718184	-0.31296688	-0.10541882	-0.10425176	-0.1735025	-0.07979782	-0.22270733	-0.027130194	-0.122844525	-0.15867403	-0.021397356	-0.20101549	-0.22854507	-0.17436069	0.014939361	-0.24689479	-0.08766985	-0.66252714	-0.3516949	0.20109183	-0.46923134	-0.18438093	0.046387438	0.11728435	-0.9196144	-0.12798509	-0.2140323	-0.062248487	-0.24256796	-0.17945841	-0.02865567	-0.08766577	-0.13755094	-0.20249356	-0.2385735	-0.417239	-0.15509509	0.10891503	0.050229162	-0.13979535	-0.17649004	-0.1140701	-0.08479302	-0.051570497	-0.21246238	-0.0869728	0.09401257	-0.28257054	-0.08525507	-0.047806963	0.12885687	-0.06873248	-1.5255446	-0.05337296	0.08551271	0.03763828	-0.019833112	-0.6650694	-1.2898314	0.2678092	-1.7262988	-0.082001224	-0.064467736	1.2598711	-1.6132385	-0.01150376	0.008532607	-0.1446185	-0.018240733	-0.36570996	-0.28594646	-0.038052134	-0.08069442	-0.1513305	-0.2780378	-0.93072176	-0.14838096	0.8426294	0.15891583	-0.23256795	-0.13558744	-0.000540867	-0.40304524	0.00028204737	-0.14642015	-0.03397112	-0.06018709	-0.74198157	-0.020243004	0.040059995	-0.025060022	-0.17677948	-3.8040397	0.08374522	0.2643121	-0.09958883	-0.12443163	0.7439136	-1.947652	0.77346116	-2.7004988	-0.049980365	-0.11962439	1.6969272	-1.0731317	-0.015780684	-0.013199313	0.0054971497	-0.04622058	-0.141949	-0.19698371	-0.056872535	-0.078610845	-4.4320914e-05	-0.092185274	-1.3685548	-0.043498024	1.1917995	0.18353564	-0.20652652	0.22393744	-0.03204127	-0.72944856	-0.118945375	0.00062670093	-0.0780257	-0.100912645	-0.8009176	-0.12716272	-0.13103189	-0.117158934	-0.18958148	-4.662579	-0.15287422	0.65520173	-0.16925181	-0.0002114421	1.442993	-2.0233939	1.0027378	-2.8495626	-0.06108138	0.05872069	1.6496239	-0.7699394	0.15478702	-0.07335449	-0.0861509	-0.09732693	0.080649026	-0.16756852	0.035738014	0.012401467	-0.032419305	-0.15675792	-1.3913201	-0.09256806	1.0339121	0.2974942	-0.1732279	0.61152387	-0.0852395	-0.9807546	0.114840485	0.08012833	-0.010890149	-0.10895226	-0.4754523	0.04827783	0.06281314	-0.13140428	-0.205066	-5.346054	0.022001093	1.4213226	-0.29437917	0.01006699	1.9950715	-1.8172295	1.2482818	-2.861813	-0.07061617	0.27860782	1.5528907	-0.54341614	-0.01715126	-0.13568091	-0.10251004	-0.10593676	0.35846573	-0.108860195	-0.11379243	-0.1936092	-0.21196726	-0.16772686	-1.3236697	-0.063971035	0.7565533	0.31335446	-0.11936967	1.135438	-0.0508468	-1.4984571	-0.07121529	-0.040275656	0.045976285	-0.16737504	1.3308628	0.08325802	-0.122907735	-0.25395834	-0.006914045	-5.6284885	-0.16809395	2.1610668	-0.3889243	-0.10954222	2.1005838	-1.7974365	1.3224999	-2.8451807	-0.2095832	0.3365544	1.4265736	-0.17961095	0.023267912	-0.2574137	-0.12595095	-0.104204856	0.52769625	-0.09566744	-0.08813072	-0.008383034	-0.22798611	-0.3699413	-1.3060011	-0.20312868	0.5241019	0.1253818	-0.032060064	1.385027	-0.1002142	-1.7850646	-0.21264149	-0.07792603	-0.050427433	-0.044579506	5.580013	0.028906472	-0.28855327	-0.68414265	-0.09848043	-5.5245023	-0.21478729	0.9541443	-0.7033776	-0.12105678	1.8798325	-2.0011108	1.3218068	-2.6209788	-0.34230036	1.1949533	0.8953526	0.33524182	-0.16797476	-0.3778692	-0.00087721046	-0.35388225	0.6294995	-0.330505	-0.25862125	-0.17046252	-0.2360982	-0.81291205	-1.4442434	-0.24053411	0.37137458	-0.4603949	-0.102667995	1.0947819	-0.3830418	0.54482657	-0.50887686	-0.093617715	0.04538094	0.084609896	4.467453	-0.15011069	-0.14959502	-0.55885905	-0.03734103	-3.7584805	-0.11633608	0.09150559	-0.417053	-0.15958269	1.6238475	-1.6094272	1.168263	-2.1986516	-0.0709827	1.0935745	0.7970527	0.18749541	0.016531575	-0.12048095	-0.05317521	-0.080029786	0.54841435	-0.076219365	-0.061364114	-0.08838588	-0.056842014	-0.47611448	-1.0456015	0.023360293	0.13308845	-0.69297814	-0.031498976	0.96256095	-0.13488379	0.9023208	-0.48873293	-0.18791896	0.13158678	0.19353862	2.1494925	0.024808178	0.032205828	-0.083255306	0.004590105	-1.1439943	0.041187525	-0.87882143	0.1189967	0.16340725	0.90764606	-0.5913224	0.4255875	-1.0328221	0.123784155	0.18348585	0.8206517	-0.1756702	0.05843066	0.21567751	0.074001856	0.42897964	0.09629036	0.0414475	0.09377303	-0.042217053	-0.020835632	-0.047568977	-0.2043009	0.13852581	-0.481133	-0.30192477	-0.023486804	0.727108	0.20659812	0.12780985	0.020698773	0.0132104345	-0.1423021	-0.21063395	-0.17527027	-0.097020574	-0.23671706	-0.109360844	-0.11267427	-0.14925204	-0.1692483	-0.019239198	-0.12896192	-0.28723764	-0.08578512	-0.13006142	-0.08616598	0.06314027	-0.31911346	-0.15274157	-0.32140356	-0.051773883	-0.055801984	-0.114672646	-0.29546088	-0.12598498	0.011760646	-0.13782069	-0.27131224	-0.12213618	-0.09398369	-0.27728406	-0.08820435	-0.1421058	-0.06166708	-0.17531233	-0.3218584	-0.096386634	-0.16637038	-0.153154	-0.10989342	-0.31677964	-0.059330642	-0.15079567	-0.17781799	-0.2067686	-0.27441004	-0.11878087	-0.19722359	-0.14982188	-0.26190475	-0.022499109	-0.13991103	-0.16521014	-0.08719279	-0.12536311	-0.075030446	0.05875633	-0.3171709	-0.15325071	-0.31572258	-0.04136096	-0.0777525	-0.07908645	-0.15547135	-0.14401375	0.011953837	-0.1338852	-0.26508853	-0.26724982	-0.2780879	-0.2453835	-0.09252592	-0.086740166	-0.06102172	-0.17517164	-0.27590883	-0.10314444	-0.17488663	-0.15266885	-0.16278726	-0.13908878	-0.20786488	-0.28958398	-0.15002911	-0.09325014	-0.12601621	-0.183059	-0.20871246	-0.16107543	-0.15288334	-0.02314474	-0.16007377	-0.24982508	-0.10309757	-0.1686143	-0.060898468	0.06709179	-0.15298289	-0.12543264	-0.28595436	-0.042205438	-0.25581488	-0.2642937	-0.18152188	-0.14134297	0.0049669384	-0.16994074	-0.17550479	-0.121549934	-0.19352752	-0.23240408	-0.061697777	-0.10985027	-0.049956065	-0.1888743	-0.3041755	-0.086164795	-0.2685888	-0.11664458	-0.045490544	-0.19108187	-0.21848013	-0.10106412	-0.1252554	-0.21953519	-0.059830062	-0.45342213	-0.061624493	-0.1327293	-0.09530913	-0.019760696	-0.19054526	-0.22133853	-0.12698372	-0.13252153	0.01681102	0.11444079	-0.20929718	-0.118730105	-0.1437065	-0.030636877	-0.2642328	-0.22096148	-0.16616343	-0.2306614	-0.05691177	-0.19143812	-0.25901964	-0.19989821	-0.27456477	-0.21526654	-0.030122602	-0.15102285	-0.024100302	-0.14996497	-0.17771238	-0.08754505	-0.3390156	-0.09936763	-0.07801233	-0.16549727	-0.10483103	-0.13151023	-0.015150084	-0.21687181	-0.13803361	-1.3415419	-0.22982822	-0.062100876	-0.12736695	0.01806625	-0.26063305	-0.17064139	-0.27533656	0.08072874	0.184926	0.17030984	-0.16385715	-0.007146103	0.26279628	-0.016262958	-0.30574846	-0.31956446	-0.22363824	-0.42663273	-0.27178353	-0.116605684	-0.16427487	-0.14636071	-0.050382618	-0.015046674	0.09491791	-0.27088487	0.055271562	-0.034288425	-0.11436418	0.0043082642	-0.35603976	-0.027773015	-0.049933527	-0.031050615	-0.19115202	-0.105408624	0.016162844	-0.2574633	0.0006822387	-1.9187349	-0.040997922	-0.15777974	-0.026835866	0.10813909	-0.22353236	-0.060559455	-0.6050744	0.3272368	-0.05457552	-0.16941082	0.0088567985	0.15575327	0.36306432	-0.1738083	-0.19515924	-0.41713864	-0.1405426	-0.4813311	-0.41624108	0.12511037	-0.06606882	0.022092842	-0.15660211	0.018036477	0.20981386	-0.248089	0.112285115	-0.07116765	-0.18948032	0.22458434	-0.02534837	-0.044967867	-0.12073051	-0.11109507	-0.11258358	0.03974992	-0.006347005	-0.05512549	0.026080517	-1.9606265	-0.21887839	-0.24186626	-0.08626594	0.12198374	-0.004682836	-0.17611194	-0.67269164	0.12842514	-0.3535338	-1.1162286	-0.14802592	0.05087124	0.45329833	-0.23466098	-0.011546561	-0.26746	0.01417106	-0.3498982	-0.30943355	0.10743867	-0.030067213	0.06706807	0.063896835	-0.0009520927	0.4037001	-0.21632448	0.31936073	0.06635077	-0.12210437	0.15013178	-0.2596504	-0.048362695	-0.11422888	-0.040671602	-0.0056269136	0.02763548	-0.01890831	-0.20262924	0.00880163	-1.9340107	0.08026462	-0.23869221	-0.026596688	0.36254117	0.060984652	-0.010389629	0.0006860028	-0.1814225	-0.3494529	-2.0236661	-0.114358775	-0.32475352	0.42852077	-0.076849595	-0.054588597	-0.37284425	0.04629453	-0.29677144	-0.059619635	0.13508806	-0.08501039	0.10107693	-0.10688907	-0.014283431	0.5244339	-0.2008159	0.45958275	0.28797367	0.072928034	-0.7896164	-0.33931175	-0.24452904	-0.110589005	-0.062060345	0.0749409	-0.1160157	0.23172662	-0.0012450702	-0.023646798	-1.9397004	-0.07572373	0.41311485	-0.10152896	1.3572235	0.02124807	-0.061758198	0.9617215	-0.08950648	-0.35260233	-2.3127782	-0.09538159	0.97200996	0.34327912	-0.32895377	-0.2101992	-0.3782062	0.04224755	-0.3593059	0.15034261	0.1456316	-0.12768377	-0.06667825	0.034537766	-0.020702021	0.63275164	-0.121503405	0.28025773	0.08094078	0.16087185	-2.4363453	-0.34613198	-1.6633387	-0.15278591	-0.20143063	-0.12519561	-0.027881598	0.45115206	-0.1823062	-0.12526071	-1.4812467	0.013224985	0.3292106	-0.23871022	-1.3392826	0.346999	-0.17799312	1.567486	0.26663384	-0.83980465	-2.7312887	-0.09663302	2.2066123	0.4510124	-0.49360478	-0.18292241	-0.27091846	-0.09935047	0.09686284	0.19510737	0.27085382	-0.1881306	-0.16458173	-0.041795664	-0.012920859	0.8075439	-0.20484668	0.17961392	-0.9497636	0.17814216	-3.200747	-0.022386836	-2.1153386	-0.16441825	0.055493277	-0.06487417	0.023950519	0.751339	-0.25983828	0.038436234	-1.7963943	-0.17739294	0.10910214	-0.12516387	-3.7758605	0.18525422	-0.18826628	2.382228	0.23678946	-0.615193	-2.5790727	-0.27752534	2.65691	0.16879141	-0.030206636	-0.28773737	-0.26486045	-0.13334963	-0.082569644	0.2464086	0.284499	0.03213549	-0.181364	0.012246827	-0.14282008	0.8128452	-0.21579559	0.1502845	-1.0913554	0.0037918955	-3.5486956	-0.02566387	-1.1482762	-0.34733984	-0.054390065	-0.102463156	-0.025157735	1.3345935	0.0012768806	-0.14237545	-2.2241924	-0.25333875	0.031036597	-0.077640146	-6.2461667	-0.091854885	-0.2596764	3.0366206	0.32133943	-0.29784808	-2.281688	-0.21308358	3.755279	-0.22261195	0.47739437	-0.43678412	-0.40451878	-0.1811212	-0.3192947	0.3943758	0.15556869	-0.07339506	-0.1572689	-0.18270016	-0.34834802	0.8908972	-0.14467438	0.011690458	-1.2334086	-0.11871709	-3.6146712	-0.13950673	0.052252427	-0.27701992	-0.25032756	-0.20504384	-0.1692059	1.6355525	-0.26594692	-0.07321911	-2.5576541	-0.24790737	0.4793388	-0.31223625	-9.382372	-0.11071069	-0.1798441	2.855187	0.211913	-0.06603667	-2.0166245	-0.17393927	5.1976304	-0.7699398	0.7910075	-0.46548772	-0.4219656	-0.14107025	-0.4725886	0.65915996	0.05858858	-0.06027467	-0.007303755	-0.29459694	-0.7724527	1.1963327	-0.20658365	-0.45276892	-0.76822245	0.068050325	-3.245849	-0.113953546	1.3687181	-0.43151933	-0.2902568	-0.20276022	-0.038779452	0.7349808	-0.25964293	0.005067106	-2.5362933	-0.096962035	2.42645	-0.065195985	-12.336227	0.07750189	-0.098873205	1.7552236	0.29467005	-0.15283161	-1.7100581	-0.18465501	5.515885	-1.1134527	0.66757286	-0.2793587	-0.33201784	-0.11504738	-0.372825	0.64904934	0.55508	-0.11857546	-0.10766123	-0.18981378	-0.4170117	1.5604184	-0.09425169	-0.92113626	-0.38328812	0.12403735	-3.4322507	-0.1791574	1.8394659	-0.28607872	-0.23001827	0.056096453	-0.061104827	-0.40164557	-0.05297491	-0.111429304	-2.555818	-0.112305835	3.8038893	0.081261866	-12.028839	0.46192104	-0.16972807	0.36284527	0.3735538	-0.3041629	-1.7746283	0.02365004	5.1980724	-0.18821572	0.90258795	-0.28662166	-0.11316276	-0.09306439	0.12601267	0.334193	0.76345223	0.07804553	0.122449376	0.07404296	-0.20436251	1.7839676	-0.1195768	-0.7628516	-0.5948124	0.08879238	-4.0201373	-0.008463252	1.0587839	-0.2903404	-0.007130876	0.1260653	-0.038751055	0.57722354	-0.06656384	0.009924666	-2.4198444	-0.08686728	2.1801183	-0.11011461	-4.040703	0.64085454	0.11931531	0.22562766	0.6300549	0.081138	-1.7287215	-0.10871624	3.2758	0.6162481	1.7028036	-0.12239042	-0.19870348	0.11737365	-0.09292475	1.7312981	0.28652665	0.11770087	0.1619568	0.0942294	-0.19849506	2.3914652	0.07134904	-1.4056515	-1.4930658	0.024776746	-4.1796446	-0.09090118	-1.2505419	-0.06925178	-0.08861021	0.09492376	0.041063678	-0.09912581	-0.18568476	-0.017463434	-1.0057784	0.08948302	-0.88239783	-0.09549984	0.0140018575	0.14494269	-0.13689207	-0.012659598	0.9904588	-1.4149222	-1.8279663	0.0627521	-0.8966578	-0.03447851	-0.8929336	0.010456392	0.0063177245	0.005715696	-0.12232044	-0.027431015	0.098533355	0.009266969	0.02836732	-0.014576537	0.16538222	0.73135996	0.051708132	0.30255902	-0.018303394	0.0613987	-1.2468692	-0.12707643	0.11148081	0.04733508	0.036644693	-0.15155663	0.026681168	0.30048582	-0.12457967	0.12552236	-0.9166591	-0.016916882	-1.389117	-0.18629318	0.5431051	-0.09167964	-0.09406189	0.9061124	1.4714344	-1.384493	-1.5426518	0.1056847	-0.9189141	-0.27310994	-0.7693905	0.09682774	-0.1442988	0.018555908	-0.29472938	0.24393123	-0.15808837	-0.14127396	0.10744577	-0.043189216	0.0025486525	0.78182006	0.06042724	0.19452815	0.37163872	-0.055655748	-2.86234	-0.13340661	0.2200676	0.07518264	0.14389703	-0.16857693	-0.16173778	0.4529938	-0.21167332	-0.021938263	-0.65937334	-0.093028046	-1.640089	0.0013310288	1.1124609	-0.29598	0.081910826	1.3133813	2.3811028	-1.4920578	-0.93964356	-0.14305124	-0.48883417	-0.29894572	-0.8743752	-0.1400179	0.028425012	-0.14671187	-0.264062	0.44342184	-0.19963753	-0.024700813	-0.0071233227	-0.0021567096	0.033363093	0.8928763	-0.08127887	-0.05671711	0.41577974	0.02671669	-3.3849022	0.036217302	-0.09833889	-0.051282223	-0.13628547	-0.0042372495	-0.17554647	0.43546525	-0.14244989	0.009726343	-0.727497	-0.065385565	-1.6531355	-0.0766463	1.9226348	-0.3092782	0.050669216	1.3592008	2.2234347	-1.4527166	-1.064112	-0.06327581	0.18837614	-0.38853183	-0.74159217	-0.055478323	0.010730598	-0.06347473	-0.31035057	0.51802474	-0.24586357	-0.146494	-0.06513673	-0.09994388	0.08140631	0.8735988	0.04857345	-0.1607684	0.43838316	-0.20747624	-3.6470888	-0.16620699	-0.9248195	-0.15705442	0.10234391	-0.17909844	0.013876204	0.3492915	-0.10799744	-0.00551996	-0.7235465	0.03244007	-1.6815916	-0.023852402	2.5122302	-0.22820647	0.058774453	1.3564662	2.1557567	-1.4167196	-1.1785758	-0.0021069795	0.8551715	-0.2918901	-0.6922869	-0.13598321	-0.2162255	-0.14085624	-0.22898436	0.51452786	-0.23563363	-0.14890923	-0.057694986	0.012222726	-0.021786569	0.92960185	-0.11750664	-0.04445012	0.46243578	-0.10860495	-3.822469	-0.07000491	-2.001937	-0.24574292	0.025703851	-0.061187666	-0.18200585	0.29308692	-0.10656955	0.08337951	-0.7308677	-0.018946562	-1.6070707	0.023097694	2.3588746	-0.19792399	-0.16294476	1.2887832	2.205602	-1.3440984	-1.2901396	-0.1610233	1.5197752	-0.1459687	-0.57985944	-0.20747103	-0.10791709	-0.16050501	-0.11486041	0.5135328	-0.13313308	-0.02637574	-0.1793827	0.02151072	0.0005800233	0.95611537	-0.18553512	0.037627876	0.38690537	-0.15150361	-3.9027696	-0.035457876	-3.1362884	-0.004679336	0.016619256	-0.18940678	-0.21053302	0.6154183	-0.15437376	0.074040085	-0.7821907	0.017462747	-1.5896258	-0.13013934	0.44141483	-0.17824572	-0.07594694	1.0708414	2.1655748	-1.2782896	-1.4808222	-0.048431646	2.3078763	0.030954033	-0.35815427	-0.123016365	-0.05263613	-0.04709595	-0.033794302	0.49670202	-0.11870402	-0.07272791	-0.2615922	-0.07557203	-0.094666526	0.9315193	-0.10330873	0.18618657	0.3530553	-0.12133723	-3.9089506	0.04280347	-3.6192248	-0.13828206	-0.07911491	0.006267665	-0.014853026	1.6763387	-0.036410663	-0.05997911	-0.9414372	-0.111561686	-1.3762851	-0.15683293	-5.242949	-0.294524	-0.03487487	1.0148278	2.0325608	-1.2543336	-1.4200779	-0.040970914	3.1242652	-0.1502476	-0.09746846	-0.20935574	-0.26935259	0.0060189334	-0.1634746	0.57084686	-0.093723536	-0.21148454	-0.16402693	0.057059687	-0.020412797	0.90037173	-0.2273809	0.12717602	0.43726996	-0.39212447	-4.053497	-0.08438768	-1.9909192	-0.30673462	-0.091653764	-0.15878356	-0.26127523	1.588319	-0.17934778	-0.05118936	-0.72852635	0.07099203	-1.1970794	-0.0072800056	-12.245406	-0.13568954	-0.03207193	1.0374702	2.376206	-1.093838	-1.2459707	-0.13723804	3.8333375	-0.24248822	-0.39619932	-0.16319245	-0.29767615	0.060208958	-0.18090424	0.8512148	-0.38456914	-0.14838359	-0.017500028	-0.021082366	0.14117205	1.2484965	-0.23741291	-0.21542498	0.99859565	-0.12873499	-3.805179	-0.015998434	0.64768	-0.26943806	0.09081428	0.04399874	-0.0041819415	0.75104576	-0.18786067	-0.0040562833	-0.800507	-0.084466875	-1.6499933	0.021650191	-13.273355	-0.05688284	0.038843516	1.2117167	2.3025959	-0.9285198	-1.5732595	-0.0128642395	3.5286505	-0.011137464	0.32288575	-0.05908829	-0.009209791	0.041796736	-0.022579663	0.80684483	-0.33518773	-0.12839405	-0.107157096	-0.10707925	0.22233501	1.2980521	-0.108533055	0.15113328	1.0244827	-0.05527567	-3.850871	-0.033691857	0.53899354	0.13060601	0.18261157	-0.06967717	-0.08010296	0.17316529	-0.13303329	0.11219564	-1.1093584	0.048088852	-1.6337708	-0.004773844	-13.568887	-0.01992962	0.118845575	1.5662632	2.118733	-0.692143	-1.5577631	-0.102184944	3.5811515	0.019446973	0.8877517	-0.055220224	-0.16940749	0.080021895	-0.044164423	0.81741565	-0.26408994	-0.019755539	0.06387092	0.011487423	0.22307573	1.3806031	-0.02427432	0.24489474	1.2812182	-0.18817627	-3.8491118	0.1399675	0.65379834	0.0117683085	-0.054435633	-0.09307536	-0.13981813	-0.9973453	-0.10242123	0.26633805	-1.3980587	0.051226813	-1.0709525	-0.059267566	-13.189337	0.03206462	0.09274938	1.7549073	1.926269	-0.49432352	-1.3815886	0.08619093	4.329235	-0.44630066	1.1834593	-0.106437765	0.11356372	-0.11871876	-0.14780042	1.0140607	-0.1995226	0.03396639	-0.055572055	0.096675314	0.093707345	1.6831878	0.051807836	-0.044286966	1.7060275	-0.12426694	-3.2586682	0.078145884	0.49481723	0.16676053	-0.022548977	0.07602881	-0.035015367	-1.4844021	-0.10209777	0.096760854	-1.3138081	0.13099611	0.27697498	-0.04313515	-12.467628	0.19405103	0.1294626	0.8567766	1.9042469	-0.5825302	-1.2270471	0.22052497	4.42554	-0.9201102	1.1273997	-0.15530802	0.033970963	0.03411239	-0.028565235	1.1253963	0.19896792	-0.013355149	0.13741025	0.1221603	0.26311705	2.0656006	0.008651923	-0.5234002	2.0158038	0.18193829	-2.9794664	0.029075038	-0.28246707	0.14966251	0.23167193	0.21143888	0.15335281	-2.790495	0.023914995	0.47976643	-1.2247919	0.2119476	2.2010684	0.06832759	-12.629417	0.5743247	0.22422749	-0.3269774	1.9304922	-0.7309676	-1.2495342	0.09456593	3.7733977	-0.4258524	1.0383726	-0.07500616	0.07049892	0.1309623	0.35415342	0.8160821	0.5589958	0.111226454	0.14550357	0.26913851	0.7079766	2.2695184	0.050975006	-0.3531899	1.9846838	0.037083298	-3.5859017	0.43078074	-0.76360554	0.36877915	0.15947273	0.13820785	0.13013448	-2.7166262	-0.011297386	0.5363917	-1.5290326	0.2777505	2.7508714	0.09593368	-10.822881	0.73302823	0.21219106	-1.4025701	1.5875597	-0.82889706	-1.3874576	0.17992288	4.0122175	0.012299728	1.4720697	0.0007607351	0.2906828	0.11022419	0.49134538	0.50589687	0.50588775	0.22368158	0.14215478	0.32354635	0.45423713	2.2953935	0.21597344	0.016359972	1.7176139	0.26496768	-3.963267	0.28493837	-1.397268	0.5338532	0.4402292	0.16731527	0.22973524	-0.15812327	0.2123427	0.30975536	-1.8302491	0.10777079	1.835024	0.07440138	-3.6765258	0.6445437	0.16913235	-0.47913235	1.5182276	-0.33966687	-1.1190395	0.039171804	3.4441385	-0.31911093	1.841618	0.10394562	-0.028190887	0.1513975	0.057356704	1.5902911	0.13119571	0.25631323	0.16112326	0.21639737	0.25288805	2.6337287	0.06134643	-0.019981418	0.19053316	0.2436944	-3.9727256	0.030605812	-1.9925834	0.19937564	0.23667102	-0.078618035	-0.2433535	-0.16841756	-0.0923531	-0.18421714	-0.13167445	-0.24928267	-0.15988481	-0.09649525	-0.01749267	-0.15028094	-0.15190011	-0.089426905	-0.1415713	-0.071001716	0.06315331	-0.3355412	-0.13829972	-0.28412345	-0.048938874	-0.26277545	-0.1343511	-0.1802641	-0.11774757	0.009018485	-0.1548363	-0.21498741	-0.07775212	-0.31834352	-0.20742732	-0.07193536	-0.115694724	-0.053943712	-0.18658805	-0.26743132	-0.08235615	-0.19859199	-0.1414367	-0.28854272	-0.17223585	-0.1573481	-0.20741908	-0.15360706	-0.11220912	-0.32590523	-0.16149268	-0.27478254	-0.16894978	-0.3126621	-0.016334252	-0.14044054	-0.0641299	-0.13591714	-0.12560086	-0.07067501	0.06256633	-0.08487902	-0.12587418	-0.23210634	-0.055882648	-0.26391736	-0.30229086	-0.22535236	-0.10953899	-0.021833166	-0.17971064	-0.15035346	-0.16109963	-0.10883069	-0.25078	-0.06612562	-0.21734282	-0.0692796	-0.17939883	-0.28027454	-0.09563354	-0.13179646	-0.13073376	-0.061091814	-0.13721286	-0.19375712	-0.19870493	-0.12087117	-0.08849744	-0.15006733	-0.27457684	-0.035254013	-0.17877904	-0.08684901	-0.0063233105	-0.13349363	-0.15543178	-0.23814185	-0.076223426	-0.0527084	0.026312513	-0.2155094	-0.10406912	-0.024697354	-0.01677267	-0.2822062	-0.23444384	-0.25080326	-0.0939108	-0.10260693	-0.27292052	-0.16825078	-0.23877276	-0.2041684	-0.3065819	-0.029685551	-0.13351299	-0.08683769	-0.14056592	-0.17716955	-0.10303507	-0.32918325	-0.11793331	-0.24017332	-0.11290364	-0.1356599	-0.08580353	-0.012714864	-0.28055912	-0.012338365	-0.8517645	-0.19142413	-0.21945481	-0.08833172	0.031564154	-0.08159922	-0.121663205	-0.54281676	0.09318777	0.04111903	-0.09898251	-0.06384554	-0.010137381	0.5464446	0.038117502	-0.36147302	-0.25433162	-0.1978885	-0.08070348	-0.38418227	-0.45416307	-0.0031796182	-0.23672235	-0.06264241	-0.40443358	0.10037245	-0.18272942	-0.05142959	-0.06299242	-0.1514741	-0.07124698	-0.5055346	-0.060881857	-0.08734121	-0.09363122	-0.05175435	-0.0038391503	-0.031956986	-0.121853516	-0.057441454	-1.4640993	-0.2434855	-0.40887132	-0.17207392	0.13403808	-0.13519536	-0.021868324	-0.75067085	0.3556951	-0.104076356	-0.44080275	-0.15309417	0.03243081	0.66520226	0.06028222	-0.14307791	-0.39097595	-0.07063981	-0.18089016	-0.6886334	-0.06769467	-0.0406614	0.011925096	-0.13166758	-0.22635236	0.08572044	-0.149085	0.07391369	-0.1444149	-0.07129218	0.050123062	-0.099009745	-0.16379786	-0.19162819	0.0020831302	0.03886099	0.041963615	-0.10008653	-0.19068266	-0.0081210425	-1.6859004	0.035800926	-0.6709413	-0.042005025	0.16211729	-0.09439574	-0.060968027	-0.76550937	0.2399409	-0.31193602	-1.2134001	-0.043985266	-0.13669871	0.6629675	0.20622928	0.18327771	-0.28089693	0.0061335764	-0.19631742	-0.8046379	0.06956805	-0.15890144	-0.055011123	-0.08426045	-0.0997125	0.048876196	0.0045619914	0.2415592	-0.13820606	-0.12580675	-0.10139844	-0.10467924	-0.25211373	-0.1577482	-0.044306006	-0.1385363	-0.11385067	-0.1583003	0.029519003	-0.026145084	-1.9831487	-0.08707279	-0.7708817	-0.0910145	0.27573878	-0.07466547	0.047592483	-0.27518517	-0.11373294	-0.4672632	-1.8622265	0.058759455	-0.32320678	0.43473372	0.31483978	0.15832573	-0.16636895	-0.032317895	-0.316584	-0.7629539	0.33812365	0.046240017	0.11324933	0.00828362	0.06064283	0.078411706	-0.2054174	0.40825847	-0.040945787	-0.082913145	-0.47014853	-0.040304255	-0.332678	0.090606056	0.09152268	0.045659445	-0.06874255	-0.1694393	-0.19212596	-0.014019506	-2.204829	-0.0105342865	-0.40654442	-0.17933246	0.8931275	0.0040743533	0.00012622544	0.4994159	-0.5423114	-0.7031403	-2.2520742	0.111505315	0.009099036	-0.04696335	0.16864645	0.18613863	-0.09332379	0.029145533	-0.49855292	-0.6041893	0.50390804	-0.0033353353	0.18203875	0.0643822	-0.03883301	0.23646785	0.040739194	0.35707802	0.027177034	0.041722137	-0.941514	0.001977612	-0.83216006	0.16358417	-0.026324347	0.05418148	0.12654777	-0.023232613	-0.00048924156	0.13533166	-1.5216156	0.13992944	0.35755235	-0.05222964	0.8798039	0.6131887	-0.027451782	1.2146078	-0.6598764	-1.2521937	-3.0741265	-0.018829694	0.74401873	0.103913955	-0.63499063	-0.16419394	0.052961968	-0.13711506	0.049120273	-0.17704879	0.18904589	-0.15474872	-0.065000474	0.04697564	-0.031982105	0.79829216	-0.17808725	0.5544249	-0.43749073	0.06442525	-1.6409851	-0.18575461	-2.3800678	0.006992614	0.116872996	-0.02760365	0.059875157	1.1891861	-0.26527208	0.07846533	-1.5691291	-0.105897695	-0.031777285	-0.0066865217	-2.70366	0.4578624	-0.040078353	2.1813805	-0.3270353	-0.95707196	-3.2364767	-0.19597735	1.1761122	0.55490005	-0.2211634	-0.1122129	-0.06958034	-0.05344152	0.15752326	0.0653113	-0.12050616	0.049382772	0.026224395	0.002426915	-0.30476987	0.72673243	-0.26376644	0.7728313	-0.92876303	-0.036235783	-3.100367	-0.047667366	-1.546031	-0.09844123	-0.1196131	-0.033943143	-0.122963965	1.6271309	-0.1105982	0.015607267	-1.9704379	0.033270083	-0.29093775	-0.05992118	-5.4269524	0.2131174	0.00704684	2.7402282	-0.32979462	-0.61526155	-3.0402956	-0.23741487	2.1887202	0.43163726	0.25700453	-0.3159689	-0.1586205	-0.07875709	-0.07786914	0.19237229	-0.28294063	0.0043137195	-0.055707116	-0.1450907	-0.5046339	0.6754938	-0.112583674	0.7170916	-1.076545	-0.0648464	-3.5793417	-0.09880318	-0.41165084	-0.37413922	-0.076574236	-0.10654978	-0.17760177	1.6196162	-0.200797	-0.0038796107	-2.2860506	-0.05430152	-0.32587788	-0.29378223	-8.670082	0.042284545	-0.022963634	3.1303606	-0.24714458	-0.29509324	-2.8104384	-0.11016071	3.8301675	0.08039038	0.76351464	-0.30066645	-0.36675805	-0.10029119	-0.24456763	0.43649307	-0.3438811	-0.26169246	-0.15975927	-0.08283172	-0.6304686	0.8377672	-0.28973696	0.3631273	-1.0344292	0.053466596	-3.4600363	-0.22799873	0.8161128	-0.3763167	-0.05439929	-0.22224607	-0.26211238	1.8735083	-0.11598782	-0.13486758	-2.5340214	-0.29762596	0.43310034	-0.13669054	-11.5638895	-0.06420814	-0.21904838	2.9002333	-0.14390343	-0.15883057	-2.446685	-0.21344976	5.278213	-0.6437152	1.0141828	-0.35878915	-0.38204825	-0.17789286	-0.3677751	0.6118789	0.046501957	-0.057807345	-0.19048972	-0.23555386	-0.6138372	1.048058	-0.116805255	-0.21507965	-0.95026815	-0.09573346	-3.2353325	-0.08461761	1.8596448	-0.5041471	-0.007834318	-0.044252735	-0.18215364	0.59907186	-0.21008463	-0.13425767	-2.369882	-0.20060843	2.3224509	0.011752332	-13.600838	0.32559222	-0.115307465	1.8615451	0.13258484	-0.31340185	-2.1917312	-0.14032556	5.4721746	-0.41845122	0.62411135	-0.19206561	-0.32499358	-0.1633148	-0.033732034	0.4780236	0.28348497	-0.12224646	-0.06096163	-0.11210265	-0.40663192	1.464035	-0.14369737	-0.42272687	-0.91822135	-0.006061314	-3.4947977	0.110678494	2.283132	-0.28434375	-0.005329557	0.0543797	-0.11395696	-0.23879106	-0.16498578	-0.06678789	-2.094987	-0.12750821	2.3042686	0.091848604	-12.478941	0.51816833	-0.05134948	1.0036404	0.4611648	-0.59739023	-2.3626528	-0.003904109	5.046558	0.5349946	0.77700347	-0.09178355	0.00014112066	0.08148689	0.37894773	0.139468	0.36626634	0.12570377	-0.090852626	-0.10132538	-0.0991283	1.4492581	-0.038506694	-0.015523227	-1.2253846	0.1401874	-4.0970645	0.032063443	1.3243155	-0.07317632	0.020339377	0.11616298	0.18196988	0.6262623	-0.052152913	-0.03027188	-2.09019	0.12150062	1.4887066	0.096392356	-4.1205277	0.6204955	0.059508592	0.6125003	0.77246404	-0.12595169	-2.0319989	0.011755724	3.472438	0.8244317	1.7731458	-0.06797717	-0.010347448	-0.07983721	0.05128899	1.3670715	0.1838642	-0.057454344	0.11579059	0.12513724	-0.1335926	2.156438	0.07682286	-0.821601	-1.2904595	0.022120822	-4.2180824	0.06101537	-1.3705832	-0.18227589	0.13099188	-0.10844773	-0.109472685	-0.17165545	-0.15146169	-0.2070595	-0.109949164	-0.20339544	-0.16316287	-0.2675634	-0.023091618	-0.13717428	-0.18290764	-0.08467548	-0.157359	-0.10066081	0.08266154	-0.12723681	-0.14348793	-0.31744066	-0.06843081	-0.26556045	-0.40476727	-0.10709591	-0.17059964	0.013443755	-0.1729816	-0.16245326	-0.12007364	-0.2571845	-0.18567806	-0.070089854	-0.23781873	-0.060900345	-0.20524809	-0.19547795	-0.09146782	-0.0559557	-0.1373503	-0.1809937	-0.21331476	-0.21068594	-0.24403624	-0.15187272	-0.27725396	-0.24037993	-0.1480313	-0.10251693	-0.17864713	-0.23042549	-0.027737001	-0.16630131	-0.2375181	-0.10670527	-0.18763213	-0.09197518	0.07120804	-0.17444515	-0.13295732	-0.33826092	-0.06803421	-0.20920782	-0.31285256	-0.29099503	-0.17603824	0.003958195	-0.19929884	-0.24412522	-0.08635308	-0.05857742	-0.14988995	-0.100314036	-0.19668746	-0.061508037	-0.22300562	-0.18430525	-0.10909171	-0.061076723	-0.11045398	-0.07546291	-0.07366406	-0.26725522	-0.051299483	-0.17714234	-0.23778579	-0.10506323	-0.143948	-0.29380965	-0.14913313	-0.16053167	-0.027292596	-0.21351765	-0.30400404	-0.0627906	-0.18672952	-0.0943586	0.07322336	-0.2710966	-0.1586187	-0.34093332	-0.05615988	-0.22727954	-0.23690811	-0.26143095	-0.18672912	0.018307304	-0.22066529	-0.19343336	-0.22552411	-0.290437	-0.040437013	-0.10647883	-0.04438045	-0.0401841	-0.23112583	0.0024556085	-0.10246051	-0.14324163	-0.1393414	-0.12981053	-0.13656832	-0.32136256	-0.2591216	-0.17476536	-0.08123158	-0.29795521	-0.11066048	-0.1923834	-0.1375655	-0.26006022	-0.027095983	-0.17615995	-0.3272404	-0.07106261	-0.13861808	-0.09448957	0.06461105	-0.24602444	-0.1507768	-0.31769502	-0.040755212	-0.08031627	-0.32293513	-0.04820976	-0.15402238	0.021094644	-0.19403133	-0.13829936	-0.2625876	-0.09599047	-0.06098956	-0.09934063	-0.09894583	-0.06293932	-0.18846007	-0.1419073	-0.100406416	-0.13820243	-0.14324506	-0.30850953	-0.07293261	-0.1570018	-0.22225662	-0.19174114	-0.123091325	-0.32411242	-0.12778856	-0.07229263	-0.15496415	-0.26001945	-0.022102028	-0.14542162	-0.08143394	-0.08250084	-0.1449211	-0.09086177	0.07378766	-0.14103042	-0.17142542	-0.34044793	-0.06295937	-0.0646872	-0.18614964	-0.081420325	-0.16150385	0.008908987	-0.16789477	-0.2458318	-0.09148972	-0.24699013	-0.20165828	-0.10530821	-0.26935735	-0.064202346	-0.19257876	-0.24759533	-0.10881878	-0.086092815	-0.16586521	-0.25677723	-0.32756472	-0.19561265	-0.27876502	-0.16739318	-0.25775015	-0.33224118	-0.11636799	-0.07244852	-0.13571545	-0.25712723	-0.020210082	-0.11984168	-0.30411306	-0.07179746	-0.13659804	-0.08094356	0.070306115	-0.1655342	-0.14714271	-0.29668313	-0.058764618	-0.12087749	-0.14589769	-0.24452312	-0.15894899	0.006909253	-0.15149336	-0.12084465	-0.096720554	-0.23489992	-0.19969855	-0.08661165	-0.074708566	-0.050914444	-0.17326438	-0.24746066	-0.09511883	-0.077625155	-0.14098619	-0.2739689	-0.14871068	-0.16170514	-0.1667428	-0.18549676	-0.12971714	-0.17595977	-0.11366596	-0.24126911	-0.13417013	-0.08673488	-0.023615154	-0.12682992	-0.12509258	-0.07079912	-0.14097601	-0.091589965	0.06372196	-0.2588542	-0.16014758	-0.3287985	-0.042500217	-0.07118565	-0.18758784	-0.10738822	-0.20175034	0.013535776	-0.16470914	-0.12914467	-0.34225228	-0.31913695	-0.17282802	-0.10062204	-0.18296015	-0.055253077	-0.17826821	-0.28906015	-0.10556873	-0.12352888	-0.16139765	-0.22943307	-0.2204719	-0.1591878	-0.19328386	-0.16397919	-0.15926886	-0.3401725	-0.088355266	-0.09079155	-0.12466824	-0.29602772	-0.020177322	-0.104332395	-0.33220297	-0.06749175	-0.1306663	-0.08501065	0.05201675	-0.078211926	-0.13918525	-0.29018775	-0.038434397	-0.04400056	-0.34693617	-0.26090723	-0.19368257	0.010391516	-0.14741144	-0.07093365	-0.24025251	-0.3239627	-0.17445369	-0.079915084	-0.26554722	-0.05076877	-0.16204558	-0.16271366	-0.08871379	-0.08719901	-0.14273304	-0.068501264	-0.21765243	-0.071854934	-0.0703291	-0.18271999	-0.08415919	-0.37592185	-0.09263618	-0.26873034	-0.114229925	-0.07798285	-0.015522713	-0.08744333	-0.2903708	-0.054649025	-0.12416357	-0.06862364	0.053895272	-0.14562063	-0.14575407	-0.25761124	-0.03244963	-0.19742934	-0.20885709	-0.22740163	-0.1881204	0.014685057	-0.13246079	-0.2900713	-0.21000175	-0.13194896	-0.14615604	-0.063886836	-0.11614138	-0.047979694	-0.13533483	-0.31040484	-0.07360747	-0.109572805	-0.17018634	-0.3506652	-0.2870186	-0.279466	-0.103015706	-0.1752196	-0.08145096	-0.28682083	-0.100215375	-0.1767379	-0.12848927	-0.31037754	-0.017624175	-0.09616222	-0.20664446	-0.06399758	-0.13691118	-0.07635563	0.061151545	-0.17802994	-0.14674474	-0.27103263	-0.040817566	-0.17789355	-0.20036477	-0.077728756	-0.1868299	0.0141271	-0.14402583	-0.23614717	-0.17131415	-0.21675865	-0.22125673	-0.06473789	-0.11214429	-0.048135504	-0.15589131	-0.25802252	-0.08144941	-0.14266337	-0.15446037	-0.26456115	-0.23610124	-0.0994457	-0.07206887	-0.17332768	-0.11914339	-0.16188914	-0.11592306	-0.2386454	-0.14159693	-0.09949319	-0.021680793	-0.1062771	-0.19270356	-0.07337023	-0.14667103	-0.09198487	0.06806972	-0.30070972	-0.15508215	-0.31053796	-0.043205384	-0.09381401	-0.15113288	-0.21939318	-0.20065515	0.011797902	-0.15932113	-0.30041423	-0.16336615	-0.09795067	-0.26075226	-0.08597031	-0.3408555	-0.05214542	-0.17962326	-0.3021778	-0.10013138	-0.16902371	-0.14408307	-0.2990937	-0.12016142	-0.31226233	-0.2977553	-0.18193606	-0.24042834	-0.31778798	-0.10392195	-0.08184159	-0.13490142	-0.17872708	-0.021903979	-0.101685	-0.15267883	-0.06792621	-0.13101223	-0.07137538	0.062413562	-0.08916318	-0.15957636	-0.2781535	-0.04533546	-0.12742233	-0.2053518	-0.16523403	-0.18182075	0.010745576	-0.13886055	-0.110393964	-0.18303786	-0.1389383	-0.23153056	-0.073634654	-0.26689976	-0.052646443	-0.16130415	-0.16995901	-0.09441778	-0.10751979	-0.15762866	-0.30905953	-0.18940353	-0.047425196	-0.28433135	-0.16638057	-0.2628033	-0.16978756	-0.0971233	-0.2210006	-0.12369671	-0.21448809	-0.018960262	-0.09741157	-0.33247933	-0.05958235	-0.13214274	-0.060984198	0.052653898	-0.2354795	-0.1383085	-0.24935476	-0.036000002	-0.21048136	-0.22476454	-0.20405887	-0.16430582	0.014024541	-0.1309699	-0.053973228	-0.19920845	-0.09549744	-0.17387068	-0.05758456	-0.32924384	-0.044924464	-0.14814624	-0.15961577	-0.07621582	-0.121791296	-0.14587258	-0.23043093	-0.2496987	-0.30184934	-0.20882331	-0.13346753	-0.2856401	-0.29987615	-0.077052385	-0.098476075	-0.102773145	-0.28793478	-0.01651738	-0.079037815	-0.056899022	-0.053387046	-0.10804512	-0.061202895	0.04286832	-0.21861814	-0.10393507	-0.22132832	-0.023664815	-0.14782856	-0.20807648	-0.24697265	-0.15276833	0.014063462	-0.11634789	-0.24759716	-0.20166458	-0.31655383	-0.11492044	-0.052772317	-0.31568658	-0.044591606	-0.12389431	-0.19124718	-0.063027315	-0.111506104	-0.11799532	-0.1448695	-0.18472543	-0.10661688	-0.1395483	-0.15716054	-0.22259378	-0.14384218	-0.08302298	-0.16422784	-0.12521102	-0.2600549	-0.017508108	-0.096069	-0.2972916	-0.06616394	-0.114385426	-0.08307792	0.05358334	-0.109716594	-0.1316508	-0.289132	-0.034955703	-0.043399736	-0.28921652	-0.32502848	-0.18132307	0.012038659	-0.13130386	-0.3341987	-0.23714235	-0.16236855	-0.20168737	-0.07960279	-0.11602425	-0.05644805	-0.15524271	-0.28400028	-0.08463794	-0.0915585	-0.13969722	-0.08229699	-0.33563253	-0.14394362	-0.18011324	-0.15688513	-0.32061118	-0.090356596	-0.091626234	-0.33342105	-0.13813381	-0.2881086	-0.021924138	-0.101743855	-0.13151215	-0.061159227	-0.15259317	-0.091058426	0.05708539	-0.2110506	-0.13406444	-0.295697	-0.030544627	-0.1845046	-0.2421997	-0.3269862	-0.20981552	0.012577143	-0.14578557	-0.09528865	-0.16823822	-0.09900382	-0.22355098	-0.06418222	-0.17987736	-0.037346285	-0.18634617	-0.22293647	-0.079472795	-0.20242709	-0.12534548	-0.13208707	-0.11002842	-0.2872833	-0.10917692	-0.13376981	-0.09851866	-0.080727145	-0.040627368	-0.27596772	-0.23770598	-0.04562997	0.00014134898	-0.17466652	-0.25780383	-0.2629807	-0.11421812	-0.12733631	-0.12174443	-0.06584357	-0.11075793	-0.078989305	0.07751826	-0.12783675	-0.30668366	-0.07508623	-0.039033264	-0.16270545	-0.1988491	-0.15483177	-0.280716	-0.062021386	-0.34169644	-0.14731285	-0.3252334	-0.14055608	-0.121333696	-0.05753411	-0.1417936	-0.27860457	-0.15138333	-0.21404439	-0.25248858	-0.019662447	-0.17167996	-0.054452825	-0.025064873	-0.23206103	0.08204982	-0.17232907	-0.43780124	-0.036749724	0.0059783715	-0.22311725	-0.056289583	-0.45173445	-0.05822361	-0.15695962	-0.5294076	-0.036943868	-0.039836694	0.33151525	0.42829233	-0.10475354	-0.3422327	-0.22799411	0.14015272	-0.638265	-0.18184872	-0.25222242	-0.07819332	-0.2652608	-0.40323812	-0.34435397	-0.28706688	-0.2800732	0.016272122	-0.08136402	-0.24663068	-0.27701977	-0.11176825	-0.118320234	-0.305288	-0.013659035	-0.009930574	-0.12418105	-0.092623904	-0.12962776	0.28351855	-0.054927535	-0.708742	-0.17532562	-0.047688276	-0.31894457	-0.013443452	-0.45830798	0.23791364	0.012113158	-1.0351484	-0.16029255	-0.028810885	0.5151606	0.7465915	0.032571036	-0.20871404	-0.14760092	0.19816072	-1.4374788	-0.16297458	-0.17010449	-0.11368771	-0.2274981	-0.32296237	-0.61307055	-0.08278288	-0.31547472	-0.075429045	-0.028343849	-0.39511287	-0.3892002	-0.0781024	-0.2705693	-0.1605578	-0.11470269	-0.07985773	-0.35903636	-0.03088878	-0.1134006	0.57281274	-0.13276646	-0.92587125	-0.050564785	-0.16420734	-0.27425012	-0.031187093	-0.11145221	0.8854601	0.36266285	-1.2451715	-0.036637094	-0.013438862	0.4014952	0.651734	0.034031495	-0.2557544	-0.06457862	0.22656296	-2.1021984	-0.17547786	-0.049586095	-0.015027225	-0.21254984	-0.1090734	-0.6566448	-0.17428811	-0.34670508	-0.3581826	-0.11067975	-0.36960265	-0.22542359	-0.01583582	-0.22800465	-0.29277858	-0.21773545	-0.062234942	-0.5952639	0.03893275	-0.17441529	0.67294425	-0.082975864	-1.0583855	-0.04041217	-0.26082823	-0.17517506	-0.1022789	0.37319085	1.2214388	0.74858886	-1.3473535	0.011131242	0.069545984	0.1367395	0.5368714	0.05317749	-0.12178834	-0.23424944	0.14275749	-2.5090716	-0.22289294	-0.09913074	-0.23874031	-0.12540755	-0.10677275	-0.5773458	-0.2046724	-0.41996333	-0.41524807	0.062003173	-0.20991947	-0.1212128	0.08179545	-0.203253	-0.145616	-0.048998367	-0.14449358	-0.8720649	-0.14651757	-0.15160097	0.71822435	-0.16603391	-1.2218282	-0.09432134	-0.23070891	-0.0335091	-0.17791021	0.97455615	1.5609127	1.1367987	-1.3106656	-0.19031206	0.091692105	-0.21360286	0.3459211	0.00034628937	-0.017521467	0.06463242	0.03830296	-2.7750516	-0.35763532	-0.24565624	-0.12827274	-0.14399576	-0.087444596	-0.41857356	-0.0019737317	-0.5456118	-0.48667324	-0.08590351	0.07001032	0.08729407	0.029589348	-0.17555736	-0.016608376	-0.18523648	-0.191467	-1.0328251	-0.0914103	-0.07547081	0.66832167	-0.14197542	-1.4103875	-0.19021164	0.009303261	0.08137172	0.031867504	1.6144284	1.6863576	1.518934	-1.2523869	-0.1508779	0.0808747	-0.6990141	0.42119524	-0.11751521	-0.10487464	0.052435897	-0.07201676	-2.8447688	-0.4447113	-0.2278353	-0.08239803	-0.18529955	-0.1067307	-0.17374691	-0.060553655	-0.80272853	-0.33775902	-0.1712795	0.47773913	0.19906098	-0.21265213	-0.009586347	0.008749678	-0.25272912	-0.0016548391	-0.6096723	0.035457864	-0.18679446	0.57374823	0.022172231	-1.4872035	-0.23922768	0.58170724	0.17491701	0.041324273	1.9334726	1.7888248	1.9695587	-1.1967679	-0.17838196	0.009258955	-1.2024673	0.7455434	-0.423744	-0.036295973	-0.045811314	-0.15819871	-2.7354012	-0.42550558	-0.25522068	-0.12200805	-0.1989083	-0.15892333	0.20514508	-0.0798629	-1.1852813	-0.045275155	-0.13362278	0.99952006	0.051786095	-0.7553319	-0.010936363	-0.021593	-0.25677368	0.030800294	3.1852498	-0.056305666	-0.082872964	0.33636504	-0.18707126	-0.7080024	-0.21060982	-0.014017954	0.20424367	-0.09284052	0.7596916	1.6483479	2.2305336	-1.1670063	-0.32674274	0.05519803	-1.7727779	1.1726208	-0.25725397	-0.3316654	-0.033062235	-0.29991063	-2.7252045	-0.37384945	-0.24876723	-0.19672458	-0.25970587	-0.5159643	0.35716575	-0.30430657	-1.5403583	0.18733034	-0.41901472	0.7384028	0.08260485	0.35991904	-0.13454644	-0.17397982	-0.13845207	-0.20166141	6.29773	-0.08653839	-0.4354882	0.16748883	-0.22397165	-0.20626132	-0.20029947	-1.1375463	0.1359667	-0.065514125	-0.62239456	1.4260283	2.249952	-1.1739728	-0.13474192	0.11240302	-2.12925	1.6174701	-0.22657442	-0.36823678	-0.12889363	-0.41953784	-2.7882187	-0.30889717	-0.2626802	-0.35176083	-0.17599483	-0.63226235	0.3004493	-0.21580422	-1.7620448	0.29431847	-0.39971405	-0.06165802	-0.07385864	2.116909	-0.16995393	-0.38469103	-0.035571855	-0.022459157	6.7297907	-0.059472	-0.2836667	0.15966696	-0.11144103	0.029529719	-0.06554378	-1.3530627	0.17568094	-0.0721131	-1.1424623	1.3410355	2.2063854	-1.1878599	-0.1966996	-0.020783188	-2.2366436	1.7101444	-0.15710767	-0.5654802	-0.04166241	-0.41141462	-2.8227644	-0.2536926	-0.3407241	-0.21031629	-0.15339018	-0.6373044	0.31409532	-0.34794044	-1.8209511	0.3916711	-0.47271562	-0.28906935	-0.049130455	2.3172774	-0.33200288	-0.3959512	-0.029715888	-0.10614229	6.8943043	-0.19051896	-0.14964718	0.2056279	-0.16890518	0.36624247	-0.20776822	-1.507017	0.28173485	-0.1510023	-1.594474	1.3316714	2.2549403	-1.2177529	-0.218665	-0.13695514	-2.1872284	1.7589507	-0.20190457	-0.5459946	-0.16951199	-0.35028076	-2.8289793	-0.17277415	-0.31281307	-0.18525667	-0.21786584	-0.540115	0.43413442	-0.16131248	-1.8769827	0.6073204	-0.3817929	-0.3951565	-0.105322324	2.3825	-0.1906492	-0.28786263	-0.028951166	-0.04671873	6.852411	-0.1418741	-0.3676294	0.26026538	-0.14069422	0.59170437	-0.052652013	-1.6119493	0.33637643	-0.2215758	-2.0272648	1.3680958	2.304549	-1.2570064	-0.28558066	-0.31928158	-2.2307663	1.7969213	-0.17989556	-0.5380141	-0.10415198	-0.31723374	-2.8309512	-0.057732925	-0.1115331	-0.29233745	-0.22101006	-0.47310308	0.48705664	-0.16972558	-1.9611666	0.7702306	-0.20673506	-0.5002301	0.021834875	2.2747042	-0.11589819	-0.3428561	-0.0076874904	-0.18637809	6.723361	-0.11238246	-0.2872833	0.3245975	-0.009157999	0.9070719	-0.08907374	-1.6682757	0.38284487	-0.13159777	-2.3169732	1.3522425	2.3173032	-1.2851619	-0.10174936	-0.4751971	-2.2772584	1.7987865	-0.2459711	-0.47299036	-0.031879727	-0.28059337	-2.8226087	0.04640761	-0.12515569	-0.14453927	-0.30770963	-0.2917573	0.57284266	-0.10340994	-1.9787939	0.9399275	-0.21307045	-0.5125288	-0.1667754	2.1285796	-0.22991623	-0.38086334	-0.06540583	-0.08251112	6.2320285	0.055806488	-0.24129905	0.45626327	0.059055686	1.0187702	-0.13305408	-1.9704188	0.39980224	-0.09248536	-2.5402036	1.3623993	2.3378556	-1.4936169	-0.1941639	-0.51675916	-2.3538935	1.6516622	-0.24161834	-0.44371936	-0.18693231	-0.19280972	-2.740579	-0.002278281	-0.17694554	-0.16771553	-0.08773093	-0.22477944	0.5945234	-0.094082244	-2.0047429	0.94991285	-0.12096926	-0.21623644	-0.08194507	1.90279	-0.086067244	-0.09994063	-0.05018721	-0.055374064	3.7211652	0.047500324	-0.16596337	0.10416951	-0.0028634185	0.9417541	-0.026794516	-2.197834	0.44249588	0.12605783	-1.0278285	1.0627791	1.5981921	-1.3823714	-0.0969621	-0.539069	-2.0243037	2.0974762	-0.21665367	-0.18209335	0.00035312676	0.07320707	-2.5545695	-0.49186602	-0.074786566	-0.1716851	0.10101067	-0.07377962	0.7941743	0.06822892	-1.6095899	0.07211836	0.15199532	1.5797807	-0.18050213	0.037633818	0.09160092	-0.13585931	-0.24670666	-0.21389514	-0.15994726	-0.13755383	-0.2466412	-0.054997724	-0.2590641	-0.17245124	-0.11039157	-0.019862073	-0.103255734	-0.23140745	-0.13186218	-0.14165947	-0.10602766	0.05189167	-0.282313	-0.12556474	-0.26743382	-0.101450935	-0.28654313	-0.09897782	-0.30090192	-0.25904772	-0.019087046	-0.22864103	-0.155433	-0.14263344	-0.15313865	-0.07936273	-0.102873445	-0.10515695	-0.07106242	-0.19847584	-0.003005016	-0.106318824	-0.04222559	-0.13806199	-0.2754803	-0.27727243	-0.13093685	-0.0542199	-0.15371154	-0.08184723	-0.14849229	-0.0511355	-0.11524227	-0.20926987	-0.2367156	-0.0131957205	-0.09885787	-0.20183438	-0.1700823	-0.13616388	-0.12909488	0.04530985	-0.24568924	-0.122663684	-0.254752	-0.109374166	-0.37247953	-0.1392954	-0.23195831	-0.24731271	-0.06595761	-0.24549799	-0.25246355	-0.109708674	-0.16903196	-0.15628627	-0.1195577	-0.26854447	-0.07839832	-0.22649816	-0.13604578	-0.12514994	0.013421379	-0.13619937	-0.21792746	-0.28568342	-0.1557569	-0.22844934	-0.18060291	-0.04119438	-0.28350008	-0.022756645	-0.18996093	-0.21884048	-0.11111633	-0.008910005	-0.11906503	-0.17471716	-0.19107458	-0.11410069	-0.15480155	0.015618147	-0.16260064	-0.14424303	-0.24244064	-0.08250776	-0.30569115	-0.11237179	-0.2593481	-0.24174179	-0.10902589	-0.27423766	-0.036290873	-0.27723083	-0.12568113	-0.12653112	-0.14527614	-0.11678653	-0.08697628	-0.23557678	-0.09214431	-0.14556977	-0.0556004	-0.17529571	-0.27407128	-0.2695496	-0.07853706	-0.12587048	-0.15207517	-0.19570082	-0.06471108	0.026917389	-0.24184757	-0.22358003	-0.07709383	0.00035958525	-0.11861305	-0.18566658	-0.2045868	-0.062385544	-0.18149814	-0.026612345	-0.1027651	-0.12562895	-0.18253705	-0.045314193	-0.22592176	-0.07203365	-0.29780683	-0.21934184	-0.18116012	-0.2851355	-0.2891244	-0.26800215	-0.2314579	-0.096408114	-0.16829929	-0.26116753	-0.08564242	-0.24563931	-0.023896746	-0.1551208	-0.091635875	-0.1559113	-0.3168434	-0.18170393	-0.26364	-0.23197275	-0.13193524	-0.081994176	-0.25084302	0.08110804	-0.012909717	-0.23820409	-0.15626286	0.015462871	-0.106211916	-0.2860516	-0.22678931	-0.02041305	-0.23183395	-0.07852562	-0.29001483	-0.10728801	-0.09451703	-0.0041114576	-0.2449217	-0.17286061	-0.14354104	-0.14229915	-0.29880142	-0.3150297	-0.23000173	-0.10439585	-0.12905659	-0.08409668	-0.18874456	-0.18835817	-0.08235187	-0.2531267	-0.17003	-0.16277549	-0.07077415	-0.15365857	-0.22958572	-0.13408759	-0.28616077	-0.034344275	-0.15056007	-0.27495006	-0.06738864	0.1257978	-0.2364049	-0.3101376	-0.15523918	0.027304206	-0.12537257	-0.08104877	-0.25959018	0.032183062	-0.30427206	-0.1387595	-0.3049186	-0.13936563	-0.02211199	0.06233199	-0.30359522	-0.039500054	-0.07423212	-0.09192007	-0.49312243	-0.3660136	-0.065782815	-0.07342114	-0.19944482	-0.23429677	-0.24948427	-0.14602259	-0.08393709	-0.3112097	-0.2171077	-0.21741699	-0.067739844	-0.18400107	-0.12658237	-0.17223889	-0.2255859	-0.16070402	-0.17751136	-0.2126988	-0.16095194	0.21324965	-0.26842445	-0.36179549	-0.120753124	0.0119069405	-0.11050152	-0.09443863	-0.17299584	0.085849084	-0.34326568	-0.303085	-0.24839176	-0.18636851	0.14828059	0.27383593	-0.24603021	-0.13796197	-0.04665212	0.029566782	-0.80506235	-0.3602968	-0.18936591	-0.16887031	-0.25972912	-0.24445525	-0.3156656	-0.14233635	-0.04410865	-0.26424873	-0.07180062	-0.27273005	0.044839412	-0.20649211	-0.028532438	-0.20694654	-0.23809388	-0.21883647	-0.22848566	-0.01664158	-0.15304294	0.17349967	-0.10230461	-0.43931946	-0.080191776	-0.09795381	-0.2130896	-0.12426116	0.21252042	-0.012547542	-0.34087095	-0.47200826	-0.2666774	-0.19895318	-0.038971666	0.77293116	-0.12749878	-0.06967199	-0.06288578	0.0042852988	-1.2037147	-0.2548852	-0.10243047	-0.1561406	-0.26558265	-0.24081318	-0.4486278	-0.17579885	-0.107005455	-0.10996974	-0.09766439	-0.31141892	0.021604525	-0.09741136	-0.18847577	-0.3168966	-0.18857706	-0.15264934	-0.17783459	-0.226269	0.014034512	0.05419113	-0.05474317	0.078456044	-0.17127362	-0.016166033	-0.32158858	-0.16004007	0.8224118	-0.18283698	-0.36755985	-0.24590756	0.0032746834	0.08725188	-0.9280676	1.2293756	-0.33225453	-0.041838277	0.045997415	-0.23926891	-1.4869864	-0.07542171	-0.27843925	-0.22282653	-0.24404584	-0.16018528	-0.28961006	-0.08831607	-0.7872531	0.42367664	-0.15038477	0.040124405	-0.049401347	0.04410481	-0.24376056	-0.23846641	-0.18334946	0.010162276	0.106845945	-0.094079204	-0.14603391	0.16547394	-0.24797231	1.0711025	-0.10306662	0.36395073	-0.18247773	-0.046867177	0.9028555	-0.3342462	-0.73340154	0.17346713	-0.08099597	-0.16039065	-1.5575167	1.105397	-0.4528243	-0.046547227	-0.192762	-0.33739245	-1.4685001	0.033147164	-0.086756594	-0.12689915	-0.13205412	-0.122751765	0.048781913	-0.1383519	-1.438861	0.9308471	-0.13078895	0.35095933	-0.003785026	-0.43309152	-0.0064374283	-0.20478705	-0.25126192	-0.10700361	0.3163588	-0.19525182	-0.15543911	0.21606669	-0.19949673	1.6069123	-0.06882257	0.3986492	-0.09475668	0.047820907	0.8593762	-0.51405483	-0.9508909	0.35226837	-0.16353129	-0.4296867	-1.7908666	0.90868914	-0.2719016	0.15257215	0.034147408	-0.48081434	-1.4810202	0.107849486	-0.2836987	-0.24851385	-0.088657185	0.07294402	0.09502569	-0.16776629	-1.5559111	1.1868861	-0.1154567	0.2969015	-0.05428844	-0.57994473	-0.048741683	-0.032196417	0.029063558	-0.1745181	0.63499856	0.057722926	-0.02168909	0.38460806	-0.18165049	2.165723	-0.1516036	0.48436713	-0.13211896	-0.006384159	0.7270613	-0.5766329	-1.4930176	0.65168715	-0.030780498	-0.6236828	-1.6980189	0.66905963	-0.24856666	0.009889033	0.056300465	-0.4922273	-1.5167526	-0.07601243	-0.2567868	-0.18352835	-0.22539458	0.12230973	0.10884854	-0.082897104	-1.856009	1.3573879	-0.2380026	0.22747369	-0.15338393	-0.7262648	0.066774294	0.08204506	-0.1539453	0.026630858	1.1363671	-0.0006378705	-0.035179064	0.39869434	0.040982414	2.418596	-0.011060815	0.43772796	-0.18038248	0.045000914	0.37334326	-1.0333256	-2.0200858	0.6330817	-0.15859449	-0.8032174	-1.4731994	0.7204637	-0.4196579	0.09100702	-0.044432882	-0.44441685	-1.6578279	-0.06326811	-0.13188326	-0.12558784	-0.13414606	0.1131045	-0.09099612	0.015304484	-2.019586	1.7701094	-0.22782883	0.026997527	-0.1254132	-0.7584895	0.27605307	0.036536694	0.040345147	0.0051097437	1.9101392	-0.08550163	0.035421476	-0.13964279	0.0042041712	2.3728526	-0.063542075	-0.12294048	-0.50848955	-0.07882586	0.29716352	-1.3836094	-1.5285412	0.40083793	-0.059021126	-0.5285788	-1.60817	1.2759497	-0.46128958	0.31155217	-0.123551846	-0.69511175	-1.7279302	0.3602556	-0.10535291	-0.08884424	-0.21962693	0.119249396	-0.34632537	-0.11323474	-2.1393147	2.2216675	-0.2980609	-0.043058224	-0.25908756	-0.33881575	0.22853182	-0.012075864	-0.1890765	0.020592708	3.4893866	-0.12102749	-0.034916423	-0.47650084	-0.060685214	2.6221406	-0.1859028	-1.438189	-0.73078877	-0.19056518	0.018958991	-1.7988945	-1.490218	0.49745587	0.04225477	-0.2907362	-2.5294104	1.8971828	-0.40106276	0.019595938	0.064816296	-0.8059228	-1.7063483	0.7911421	-0.03204766	0.04853402	-0.17892201	-0.35982925	-0.3398951	-0.006213646	-2.1479025	2.5558531	-0.11459699	-0.04672588	-0.42967635	0.71475077	-0.07330438	-0.056552608	-0.17943569	-0.16148718	2.232001	-0.07893772	-0.1960174	-0.12628503	-0.06317542	1.2712785	-0.18847921	-2.2605958	-0.26752028	-0.19200037	0.29561263	-0.4292794	-0.7896921	0.33358932	-0.2587458	0.41524225	-1.8800533	1.90459	-0.29907113	0.0052571567	-0.23539524	-0.16547884	-0.8997389	0.19303098	-0.2259953	-0.05064226	-0.17901872	-0.41730133	0.37689626	-0.065008774	-2.1343212	0.9532117	-0.17557362	1.5320144	-0.14474075	-0.2888786	-0.14049666	-0.018361298	-0.21819787	-0.08147576	-0.16515703	-0.06662158	-0.26533642	0.122351654	-0.24747187	-0.18957144	-0.09089406	-0.027073827	0.17195335	-0.16435444	-0.08855136	-0.09752408	-0.102889284	0.046067733	-0.32088596	-0.14419551	-0.29490274	-0.108171605	-0.17867412	-0.2775297	-0.18114123	-0.7020466	0.010290929	-0.078145266	-0.16355084	-0.18417147	-0.08017467	-0.4458429	-0.093689814	-0.34184244	-0.060351606	-0.15564026	-0.25025085	-0.112952136	0.13980725	-0.1380271	-0.32883805	-0.06281165	-0.2831553	-0.30008274	-0.13600853	-0.2144258	-0.07147646	0.03273245	-0.19884704	-0.15325901	-0.32115442	-0.02508088	-0.027048532	-0.16038422	-0.07781189	-0.14031069	-0.08660889	0.027447777	-0.08068477	-0.107608564	-0.2838538	-0.047879834	-0.10467845	-0.11897303	-0.30239135	-0.48594123	0.024334447	-0.15258692	-0.30796376	-0.23883285	-0.16021357	-0.2529849	-0.08071929	-0.10810847	-0.052074153	-0.16394627	-0.17084432	-0.084831305	-0.13291144	-0.11031931	-0.046052482	-0.26957738	-0.24309555	-0.2528933	-0.13038617	-0.16391915	-0.19971013	-0.019281443	-0.20291828	-0.12595743	-0.28014287	-0.027240058	-0.08697179	-0.16723645	-0.08934122	-0.18180294	-0.078265764	0.032105014	-0.14540401	-0.11068598	-0.26391077	-0.0754283	-0.10301145	-0.118733354	-0.2722128	-0.4242123	0.01250759	-0.20717292	-0.20572236	-0.10448472	-0.1300346	-0.27896798	-0.08175889	-0.2790534	-0.036672	-0.15699211	-0.32720885	-0.092624284	-0.060166363	-0.09626306	-0.11028913	-0.12446812	-0.042198427	-0.24966212	-0.1527097	-0.15600501	-0.27426153	0.008165558	-0.24121028	-0.08883324	-0.1642362	-0.03203669	-0.20750606	-0.09008062	-0.06991143	-0.23295142	-0.0683217	0.007985654	-0.24841163	-0.12220834	-0.22684874	-0.06262744	-0.13219443	0.033348627	-0.16658883	-0.47284627	0.020848477	-0.278133	-0.16946544	-0.22668925	-0.15682916	-0.20498098	-0.05165548	-0.30124718	-0.0051379064	-0.13871956	-0.32101747	-0.080893934	-0.19303617	-0.11427176	-0.2731546	-0.09448781	-0.13240154	-0.28674954	-0.15123117	-0.042234782	-0.19270238	0.07607328	-0.22397538	0.007940908	-0.10530159	-0.034909964	-0.32871744	-0.31017363	-0.012801212	-0.30927798	-0.07806077	0.00996574	-0.28905463	-0.13367853	-0.10952872	-0.11166877	-0.084420055	-0.013591659	-0.057538513	-0.5471268	-0.0061970167	-0.3856222	-0.12607875	-0.12048224	-0.26512048	-0.18144396	0.033720292	-0.18429242	0.08294949	-0.08817645	-0.41435078	-0.06266152	-0.12978214	-0.104670964	-0.27222207	-0.23479241	-0.060634125	-0.28017446	-0.12852584	-0.14336082	-0.23174824	0.24919373	-0.38042185	0.15890005	-0.19553155	-0.040847704	-0.5674163	-0.14910842	0.07384037	-0.47174183	-0.182277	0.040316787	-0.11237543	-0.1157824	0.018844608	-0.24479863	-0.093552545	-0.023877764	-0.29812652	-0.71559966	-0.065981776	-0.62084585	-0.057130363	-0.10206372	-0.21223699	-0.031880196	0.1986649	-0.16760674	0.2622092	-0.06989864	-0.5591437	-0.03309923	-0.075762324	-0.055249017	-0.07835267	-0.23614052	-0.08857732	-0.07214457	-0.16438325	-0.15315695	-0.30317414	0.52589226	-0.09282045	0.27891836	-0.06557994	-0.055509426	-0.94090676	-0.21657443	0.13872586	-0.9240796	-0.39962313	0.15427639	-0.114741534	-0.17153196	0.3494841	-0.52636784	-0.15394889	-0.14546035	0.016639205	-0.9330485	-0.2591899	-1.0486833	-0.054776765	-0.119390495	-0.2053996	-0.20374481	0.7019645	-0.20852661	0.606649	-0.01685947	-0.5915584	-0.060697056	-0.119365625	-0.020769145	-0.09241159	-0.21908149	-0.20642726	-0.22719567	-0.1217523	-0.24504729	-0.03659776	0.98604137	-0.16199699	0.12772828	-0.26626498	-0.06960044	-0.9577568	-0.07397267	0.13132215	-1.9459918	-1.0488278	0.57298154	-0.08184067	-0.22413754	0.9373622	-1.2279203	-0.109751165	-0.05243467	-0.23221524	-1.0524375	-0.97643644	-1.4544986	-0.22376733	-0.18184106	-0.09630078	-0.13675752	1.9008222	-0.26423514	1.3729897	0.11113346	-0.4688857	-0.3347828	-0.08884332	0.14487047	-0.058428746	-0.09470175	-0.25548685	0.10766535	-0.2242358	-0.09584988	-0.2095016	1.7210513	-0.28475812	-2.7607245	-0.061610535	-0.28423393	0.14998664	-0.027867537	-0.5686061	-3.9653678	-2.846313	1.6741563	-0.15517376	-0.4143952	0.40958104	-2.3777416	-0.04132845	0.09325958	-0.13607778	-0.91178435	-2.8608274	-0.74376005	-0.23133081	-0.19381431	-0.19902533	0.34208474	4.2207856	-0.18437642	2.355128	-0.22682299	-0.20837799	-1.3332864	0.0011380104	0.45941174	-0.028883083	-0.27849653	-0.17954333	-0.0148913	0.43294317	0.0085164085	-0.25316718	1.7773123	-0.42820558	-7.2030344	-0.22069968	-0.5818932	1.41068	-0.26306468	-1.3582429	-4.370115	-3.7127845	3.4869235	-0.018553557	-0.71203715	-1.4717813	-2.8898706	-0.09495451	0.0686911	-0.17827007	-0.9182581	-4.328012	1.6540322	-0.22253165	-0.060075436	-0.31265858	1.0184864	6.1030965	-0.0018697792	2.050658	-0.3816157	0.019473113	-2.4796274	0.04106516	1.618858	-0.27068064	-0.24500598	-0.3177001	-0.19933563	1.23673	0.012159749	-0.27015275	1.5248053	-0.28607157	-8.670925	-0.22111481	-0.18063067	1.9227855	-0.15556982	-1.8695363	-4.114013	-3.859334	4.044262	-0.26008347	-0.95210224	-2.138682	-2.9092765	-0.30148378	0.18494424	0.06909393	-0.9361365	-4.808576	2.608738	-0.07243743	-0.09371844	-0.14625938	1.1602622	6.320258	-0.08016952	1.9537786	-0.295224	-0.106192835	-2.6339042	0.122961916	1.9983132	-0.40425113	-0.20595011	-0.23606408	-0.07686304	2.142545	0.07333463	-0.34588557	1.3268517	-0.23747943	-9.684952	-0.15037514	0.5286601	2.0646768	-0.10684344	-2.337068	-4.050055	-3.701785	3.611404	-0.19359219	-1.5573269	-2.0965497	-2.2461965	-0.13893452	0.11977394	0.03267685	-0.9845433	-4.941929	3.1134818	-0.10810923	-0.2912117	-0.27426305	1.231349	6.039665	-0.1568703	1.9647	0.3017572	-0.08092676	-2.2867281	0.012313156	2.2665982	-0.24348831	-0.2775446	-0.0066653257	-0.15754677	2.737182	0.06267612	-0.18051392	1.0848862	-0.33204344	-9.155852	-0.06773611	2.2234712	1.7898738	-0.11390519	-1.774727	-3.6457152	-2.9140835	2.6705835	-0.19683538	-1.8058752	-1.3922124	-1.8345611	-0.19562417	0.0884954	-0.01073735	-0.93859404	-3.882104	2.3904717	-0.10471719	-0.19663592	-0.23826078	1.331869	5.360698	-0.16729589	1.0401788	0.5206397	-0.10212822	-1.2204067	-0.0073915333	1.8078278	-0.43213227	-0.280328	-0.21621059	-0.045718882	2.9645195	0.093769826	-0.19253069	0.7400388	-0.29584986	-8.047358	-0.15324552	1.8697661	1.904459	-0.30621332	-0.6439835	-2.5233307	-1.9689229	2.2880747	-0.03589493	-1.5705628	-0.020823287	-1.6903431	-0.29645476	0.05856336	-0.064972155	-0.9818782	-2.4530032	1.5881763	-0.031784255	-0.03547751	-0.2550719	1.2618823	4.4014416	0.00020880261	-0.8492703	-0.44624317	0.039803423	-1.3200669	0.14871572	1.2607318	-0.23240346	-0.33339146	-0.1444971	0.013883565	2.6158175	0.08317908	-0.2116647	0.24246795	-0.30927938	-5.867889	-0.14797333	0.19260792	1.6