4
21	40	40	256
0.08887260407209396	1.590813159942627	-1.7860229015350342	0.6754220724105835	-1.3597800731658936	4.689393043518066	-2.390977144241333	-3.1222469806671143	2.757889747619629	-1.5314440727233887	2.2615439891815186	-1.0204787254333496	-2.669074535369873	0.25098633766174316	-6.8275322914123535	4.651024341583252	2.858656406402588	2.6354410648345947	1.9117316007614136	-2.371863842010498	0.05658780038356781	2.995081663131714	5.170303821563721	-2.152864933013916	-4.396601676940918	-3.491856336593628	-1.8058485984802246	-3.9432497024536133	-0.734207034111023	-1.6727896928787231	-2.4621057510375977	2.5952773094177246	3.85132098197937	4.618767738342285	-2.4400787353515625	-4.602797985076904	-2.9766833782196045	2.4544143676757812	1.194334864616394	-1.88945734500885
0.3065139651298523	-0.42418819665908813	-1.838715672492981	-1.5156559944152832	-0.8688867092132568	0.19175899028778076	0.7655511498451233	-0.6875419616699219	-0.1654280722141266	-0.4719484746456146	-0.6634368896484375	0.5773392915725708	-0.10353614389896393	-2.2296760082244873	-1.656153917312622	0.2333538830280304	-0.5120226740837097	1.3896197080612183	-1.3008736371994019	-1.1741652488708496	0.007652254309505224	0.39060282707214355	-0.7400211691856384	-0.19659852981567383	0.3072468936443329	0.9863581657409668	-0.659708559513092	0.3161812722682953	-0.1748037487268448	-0.02228238806128502	0.056241028010845184	-0.7291032075881958	-0.010846717283129692	-0.896324098110199	-2.5703213214874268	-1.1614737510681152	-1.0041753053665161	0.4583026170730591	-1.8977210521697998	-0.20137593150138855
0.4991920292377472	0.8072090148925781	0.9976106882095337	1.0892788171768188	1.2195146083831787	1.3432576656341553	1.469096302986145	1.3439255952835083	0.34928396344184875	-0.7836123704910278	-1.0062700510025024	-1.1377516984939575	-1.238002896308899	-0.8673846125602722	0.1503267139196396	1.23775315284729	0.6885183453559875	0.6577664017677307	0.523025393486023	0.4687426686286926	0.5254279971122742	0.6083961725234985	0.7192105054855347	1.1049840450286865	1.1975648403167725	0.7258194088935852	0.25411558151245117	-0.28524765372276306	-0.6132397055625916	-0.30573558807373047	0.3301587700843811	0.9338945150375366	0.14576533436775208	0.3809622824192047	0.49560797214508057	0.39012056589126587	0.4834100008010864	0.6829928755760193	0.8990260362625122	1.1002614498138428	0.7813186645507812	0.7221564054489136	0.5204317569732666	0.1873554289340973	-0.45065924525260925	0.017600325867533684	0.7049254179000854	0.8704098463058472	0.8222164511680603	0.8968441486358643	0.8433549404144287	0.5562183260917664	0.18525175750255585	-0.43761855363845825	-1.0724321603775024	-1.4713436365127563	-1.8056249618530273	-1.5750656127929688	-1.639331579208374	-1.784301519393921	-1.8406606912612915	-0.4227672219276428	-0.043696608394384384	0.08999083191156387	-0.029874097555875778	0.044057440012693405	0.20118798315525055	0.4209277331829071	0.1298794150352478	0.1542956680059433	0.20186085999011993	0.22963301837444305	0.09428557008504868	0.06885255128145218	-0.5756229758262634	-1.0976355075836182	-1.4688047170639038	-0.7858515977859497	-0.33933261036872864	-0.59049391746521	-0.19250209629535675	-0.28623372316360474	-0.20270545780658722	-0.11205802112817764	-0.14427049458026886	-0.0014488338492810726	-0.11439640820026398	-0.09127569943666458	-0.0062557607889175415	0.05569233000278473	0.00123835529666394	0.04735363647341728	-0.013017473742365837	0.11355102062225342	0.15972045063972473	0.09454535692930222	-0.30671510100364685	-0.021621666848659515	0.27784863114356995	0.5401979684829712	0.540599524974823	0.3806673288345337	0.10024422407150269	-0.5068665146827698	-0.3315538465976715	-0.13266824185848236	0.014698929153382778	-0.0717460885643959	0.35541975498199463	0.7484086155891418	0.8889184594154358	0.7227404713630676	-0.21755391359329224	-0.14676132798194885	-0.2673935294151306	-0.2853721082210541	-0.19430671632289886	-0.2712468206882477	-0.25164416432380676	-0.24199049174785614	-0.20850759744644165	-0.28700655698776245	-0.2314765304327011	-0.2702254056930542	-0.05018668249249458	-0.611903965473175	-0.7739777565002441	-0.8342005610466003	-0.23581573367118835	-0.14134974777698517	0.20980095863342285	0.31099221110343933	0.36553195118904114	0.4726228415966034	0.6929951310157776	0.7877079844474792	0.643708348274231	0.3272191286087036	0.5022518038749695	0.8133500218391418	0.8636956214904785	0.8952189087867737	0.666721761226654	0.5839762687683105	0.3721659481525421	0.29609861969947815	0.35217908024787903	0.3353617191314697	0.39401477575302124	0.5351908206939697	0.7419430017471313	1.059745192527771	1.234439492225647	0.5787935256958008	-0.002410584595054388	-0.48187804222106934	-0.3970128297805786	0.10534147173166275	-0.18043848872184753	-0.3259755074977875	0.4408818185329437	0.4972728490829468	0.5251790285110474	0.6130627393722534	0.7799037098884583	0.8483842015266418	1.1138626337051392	1.3450604677200317	0.9873228073120117	-0.023459477350115776	-0.6204222440719604	-0.7004788517951965	-0.33512017130851746	-0.11834372580051422	-0.19458049535751343	-0.5546109676361084	-0.5379229187965393	-0.33980706334114075	-0.029758678749203682	0.17998996376991272	0.22939005494117737	0.3928954303264618	0.5088195204734802	0.7409728169441223	0.9420831203460693	1.0466316938400269	1.0585458278656006	1.0547809600830078	1.135884165763855	1.1061757802963257	1.1403909921646118	1.1434147357940674	-0.7596815228462219	-0.6829203367233276	-0.45138388872146606	-0.02345476672053337	0.3559330403804779	0.5292642116546631	0.5716680884361267	0.6104276776313782	-0.36316779255867004	-0.558946967124939	1.0450280904769897	2.816377878189087	0.8230250477790833	0.6564375758171082	0.5054482221603394	0.5690944194793701	0.3342573344707489	0.6734071373939514	0.3713403046131134	-0.36323386430740356	-0.8326136469841003	-1.0458784103393555	-1.2559850215911865	-1.340818166732788	-1.2806119918823242	-1.1614608764648438	-0.8926019668579102	-0.7179718017578125	-0.7530874609947205	-0.2891906201839447	-0.3894818425178528	-0.3318203091621399	-1.2272701263427734	-1.0894410610198975	-0.8947935104370117	-0.8292655348777771	-0.7389541268348694	-0.5169633030891418	-0.44173336029052734	-0.5902998447418213	-0.40987664461135864	-0.10593154281377792	-0.1471429318189621	-0.09068648517131805	0.18074239790439606	0.48017582297325134	0.26692017912864685	-0.01857832632958889	-1.113526463508606	-0.8867576122283936	-0.7235880494117737	-0.41237205266952515	-0.15423032641410828	0.10113344341516495	0.38791269063949585	0.5276730060577393	0.5479294657707214	0.4415823221206665	0.3495892286300659	0.6362786889076233	0.9991205930709839	1.2871109247207642	1.9132031202316284	2.0900704860687256
0.27558663	0.20762159	0.030717112	1.0134109	-0.10187453	0.027433425	-0.0014282947	0.069765225	-0.045903143	0.0024347086	-0.015902547	-0.020084903	-0.022657625	0.012419536	-0.012043349	-0.031245653	0.051287595	0.0058110943	0.035824485	0.37930855	-2.1520689	-0.36502627	-0.05110131	0.05982056	0.15703696	-0.08513687	-0.036618587	-0.025101082	-0.04288748	-0.32630524	0.01694451	-0.024294093	-0.015266877	-0.027380506	-0.027866457	-0.008943206	0.039881267	-0.016705876	0.0020779604	0.0117532695	-0.2937503	-0.99340045	0.047360662	-0.48011672	-0.06464098	0.20250653	0.10321756	0.041959353	-0.061188027	0.12370147	-0.3509624	0.01888347	0.067416236	-0.031546604	0.07699736	0.08808521	-0.013703889	-0.048903372	-0.053426508	-0.016711624	-0.05218917	-1.6279187	-0.49918136	-0.24150568	-0.06783458	-0.2388503	0.9833592	-0.08199589	-0.027351016	0.009349555	-0.15459646	-0.11762103	0.033850476	0.045803078	-0.032461535	0.032184403	0.05875988	-0.022529975	-0.045201093	-0.006590089	-0.0140728615	-0.053519115	-0.078919865	-0.054106213	0.15669563	-1.6847687	0.010088577	-1.6139139	-0.089880124	0.0318229	-0.052075546	0.20523557	-0.14760245	0.0002614395	0.0052170684	0.030198326	-0.011050883	0.0033605515	0.0036192595	-0.01932679	0.021121992	0.004679763	0.028895885	0.36183095	0.029804148	1.0604104	-0.89898956	-0.55763906	0.03586348	0.31489992	0.20280667	0.12284436	1.3792636	1.3512868	-0.076509655	0.10118093	-0.068087794	0.16921252	0.10869302	0.060956895	-0.107151695	-0.03607949	0.032096896	-0.11637173	-0.03982024	0.38630688	0.103752665	-5.1575904	0.24945	-0.28976327	0.11955864	0.022542711	0.121230796	0.18215798	-0.29280815	-0.018093372	0.032308485	0.054222114	-0.090909936	-0.024371667	0.028048964	-0.032417145	0.073170625	0.02519338	0.0009543466	0.31243157	-0.07998661	0.22277017	-6.514242	0.02996137	1.3013237	-0.17857829	0.0031936006	0.08162033	-0.24718955	-0.21293913	0.030348357	0.0044897483	-0.02699005	-0.080699675	-0.030652639	0.006499735	-0.048283603	0.06443876	0.02039417	-0.025232473	-0.5029033	0.08937123	0.32683805	-0.53400356	0.14736092	3.3672605	0.24471489	0.00019271047	0.019738868	-0.22356012	0.19695857	0.009020575	-0.003931702	-0.009325823	-0.01053648	-0.00507299	-0.003795748	-0.017736362	0.024229674	-0.0033285117	0.010030426	-0.103632435	-0.054086223	0.14000249	-3.4591477	-0.0070859604	0.10863101	0.15057583	0.069563374	0.14555724	0.30514318	0.5889072	-0.034853425	0.036149047	0.022006484	0.07410255	0.011467681	0.05119197	-0.11065256	0.0096706245	0.008104107	0.0062166727	0.36357588	0.8257994	0.23409997	5.335239	0.10472336	-0.08222246	-0.13180922	-0.017020486	-0.13111538	0.1405256	-0.036730368	-0.048440747	-0.100442134	0.009789723	-0.08020965	-0.07456548	0.009273525	0.10615508	0.042836685	0.0068842275	0.0602209	-0.25706196	0.19023927	-0.04440151	-1.4923892	0.15714295	0.060447942	0.21212424	0.01593852	0.08350428	0.29678088	-0.11651717	-0.031601477	-0.019432692	-0.012859948	0.018374704	-0.011168955	-1.3811956e-05	0.029226042	-0.031986415	-0.0054205544	0.0018369872	-1.3816494	0.5916373	0.060654644	-5.0411744	-0.17896982	0.14658056	-0.63153857	0.013770749	-0.083385475	0.20626551	0.12874976	-0.049893465	-0.04205646	-0.016180795	0.09515376	-0.0074232663	0.009238415	0.04470227	-0.0894792	-0.005255521	0.05822309	-0.13166994	0.00023291049	0.8170088	0.16868141	-2.1045346	0.008581695	0.025496319	-0.26464355	-0.7380646	0.6490111	0.8535558	1.1204078	0.29920232	-0.80824953	0.610866	0.58260804	-1.004326	-0.42073745	-0.33161053	-0.5417722	-0.35218912	-0.04880914	0.004119175	-24.277359	-7.0226874	-0.34746957	0.73938817	-0.09491315	0.38355166	-0.35190225	-23.946426	-24.318293	0.14883219	0.028543731	0.84459686	3.67751	0.15132998	0.7846954	-2.0381129	-2.269546	0.30173132	-1.1054332	-1.7215775	-10.3667755	0.78396076	-0.23253265	2.4568834	-0.010510725	0.7779054	-0.1494317	-0.5213633	0.46758497	0.85410887	0.1371435	0.05123536	0.048666816	-0.40728146	-0.07024513	0.23070955	-0.29889306	0.435377	0.23955981	-0.09334358	0.02188146	0.018205402	-0.22999702	-0.23941214	-0.76330537	-0.04378826	-0.14675483	1.1076343	2.8047762	0.27083623	0.22319078	0.12475854	-0.020933107	-0.20494294	-0.076721065	0.107296646	0.014251535	-0.13490924	-0.0069727157	0.07577449	-0.03812519	-0.008231835	-0.14537676	-0.1133767	3.6468816	-0.02712251	-0.00084116455	0.0061520636	0.03895992	0.105036065	0.20518194	0.4267925	0.04317551	-0.080696315	0.0292598	-0.32352588	-0.11763193	-0.034631383	0.06366335	0.26827654	0.019886268	0.029387014	0.24182698	0.36978558	0.22793455	1.7404549	0.33588076	-0.09506278	0.378359	0.020985404	-0.13741805	0.65692014	0.45680267	-0.09392664	-0.18631221	0.049966883	-0.06489385	-0.21859117	0.07450371	0.14932474	0.01099114	0.050008994	0.14468321	0.47193924	0.6727827	-0.31822684	-4.7714286	0.024323195	0.10818857	-0.012868788	-0.26178825	1.0334272	0.009174901	0.07270758	-0.010545175	-0.034311287	0.04112776	-0.09596095	-0.08564049	0.00038300094	0.060633253	0.06524491	0.00497826	0.008553978	-0.23415986	-0.23999499	0.10675888	-0.14987959	-0.10282376	-0.37222633	0.033950843	0.0039212136	0.0025756508	-0.005425908	0.25490722	-0.0037039635	0.035715215	0.0007329601	0.04513782	0.039199073	0.0032667203	-0.04000714	-0.010124571	-0.006926741	-0.037555225	-0.5835954	0.38197047	-0.09967768	-0.5574944	-0.08247064	0.07662842	-0.4217963	0.029731853	-0.004441304	0.28719774	0.021055462	-0.0632018	0.037339553	0.0554042	-0.07556966	0.0135233905	0.023054149	-0.03723276	0.07891739	0.015082524	0.0044072866	2.1523619	-2.056605	0.11630297	-1.6682969	0.005438234	9.199666	-0.21396007	0.0005966906	-0.062431987	-0.049089856	-0.1652487	0.018614607	-0.052518323	0.029846828	-0.100231335	-0.091275014	0.030873112	0.018712092	0.03829935	0.038098518	0.030354736	0.20268843	-0.8046493	-0.044778474	-7.4070106	0.20258707	2.395801	-0.047548663	0.006707604	0.07315278	-0.053579718	-0.018102009	0.019711291	-0.029229652	0.0012337993	-0.07571322	-0.01643113	-0.016540933	0.014197953	0.045381036	0.0076435544	0.020340102	-0.16123067	-0.6114059	0.39592665	-0.040466648	-7.966521	-0.16341895	-0.0009240922	0.3805492	0.6579948	0.38678566	0.568211	0.721642	-0.9456964	-0.37675625	0.2996547	0.120896146	-0.99157155	0.7217328	-0.48478976	-0.8616999	0.2958224	0.10127924	0.30310062	-1.3118502	-9.080513	-0.18572584	0.9970755	-0.8409934	0.48166847	-0.13074273	-1.5135735	-1.8237594	0.1513819	0.4900309	-0.09841982	0.227626	0.25545076	0.17322117	-0.8080957	0.08579259	0.032370366	-0.353953	4.660162	-12.7217045	-0.068235606	-6.2037516	-0.1297715	-0.2302456	-0.116906665	-0.025101885	0.23794171	-0.07651116	-0.20701945	-0.02333666	-0.06836653	0.01707392	-0.09675115	-0.055416014	0.0025962768	0.087408714	0.010858696	0.019193344	0.054355208	0.78317684	-0.44652763	-0.42223054	0.9494516	0.07980374	0.17274325	0.18581028	0.0014265755	-0.004026784	-0.115719266	-0.52183276	0.096514486	0.075483225	-0.071036525	0.106218375	0.051001403	-0.009681875	-0.026467035	-0.1565293	-0.0025222735	-0.12955968	-0.39187852	-4.293476	0.44773144	-0.20286006	-0.31960887	-0.7249439	0.26057664	-0.040093962	0.03921467	0.31541103	0.10378626	-0.017028539	0.0983165	0.013046353	0.18619372	0.13875026	-0.010220527	-0.07190738	-0.06777418	-0.052604612	-0.13755904	0.63135904	-0.04363368	0.1461307	-6.208546	-0.032106716	1.0455742	-0.031521622	0.05994961	-0.12579228	0.027163839	-0.18243724	-0.05263529	0.009678643	0.024967097	0.015864642	0.023399532	0.011083255	0.01458971	-0.0017893729	0.0021772194	0.036057796	0.663288	-0.051188365	0.11890897	-4.43654	-0.16056432	0.15150416	0.030423278	0.0993847	-0.36850527	-0.34252355	0.03576442	0.15789104	-0.044406652	-0.09724842	-0.14401652	0.08641461	-0.12430539	0.05245673	0.07666889	-0.029863851	-0.06754275	-0.29626885	-0.14252114	0.12435424	2.2762444	0.29543838	0.8775568	-0.2942317	0.06967642	0.10028541	-0.19064908	0.06905939	0.10082851	0.10057347	0.024103522	-0.05798899	0.06255132	0.0058423732	-0.13326554	0.06056199	0.036817167	-0.04600963	0.0048428955	-0.0036052458	0.32040367	0.69547933	1.9302766	0.35635176	0.47848535	-0.216798	-0.98131776	0.24156669	0.1838254	-0.09641621	0.006228237	0.2623742	-0.2910825	-0.89137566	0.83872783	-0.4212759	0.5833604	0.21102265	-0.30679297	-0.224194	0.38421336	0.24339701	-0.029420603	2.3051455	0.16356562	0.47716457	0.5124817	0.68462604	0.07643088	0.23362753	0.48791647	-0.11087315	-0.29881707	-0.6209231	-0.046855234	-0.34072042	0.112728044	0.41820607	-0.0077627893	-0.105421476	-0.35625812	0.113476075	0.44213018	0.32092485	-3.5440154	0.15061954	0.43638018	-0.49745828	-1.6067379	0.060223557	0.26915863	-1.4761142	0.7694426	0.9322957	0.14950293	0.6389301	2.006308	-0.4779826	-0.25068504	1.3230284	-0.06882258	-0.17684011	0.015891708	-0.24210401	1.0445006	-0.1976636	-0.20301226	0.24976796	-0.09080775	0.23524414	-0.7311668	-0.70727843	-0.07836811	-0.016044145	-0.020060822	0.20728438	0.038003374	-0.030300174	0.039444577	-0.12563169	-0.044859923	0.024959266	0.3549955	-5.30297	-0.2782326	-4.803933	-0.09067428	0.5377465	-0.38242427	-0.088971384	0.14695165	0.011264336	0.18207619	-0.0023550435	0.01457375	0.015732635	-0.07724702	-0.03544296	0.013131014	-0.009987796	0.06529609	0.026371881	0.04165118	-0.35799006	-4.5466475	0.14553878	4.0548015	-0.16376969	0.10620873	-0.16587082	-0.061203305	0.9638893	0.0027423375	-0.39543965	-0.01741648	0.14509062	-0.0021703625	0.19455849	0.14971803	0.020564875	-0.12831366	-0.16176902	-0.0039930544	-0.053250983	-0.16179417	0.22015597	0.0987922	-0.5963387	0.030943444	-0.48442268	-0.01968205	0.0037646233	-0.018428449	0.038047038	0.059664365	-0.0070648002	-0.026983822	0.0028069017	-0.05933085	-0.04708444	0.00990522	0.032357078	0.021395262	0.017182121	0.036173157	0.37353754	0.018456684	-1.2162391	-1.9743004	-0.46320724	-0.022444861	0.07312227	1.3237578	4.036977	-1.2821658	-1.4743668	0.58676267	-1.032202	0.13978025	-0.6268786	-1.1787772	0.08084274	0.25147435	0.48179904	-0.1562278	0.66523117	0.17644781	-0.5899571
0.0037856756	0.4690075	-1.1735439	1.888148	0.49904665	0.6862447	0.9300239	0.579987	-1.0430088	0.21202251	-0.82462376	-0.857039	1.4032897	0.72560287	-0.044009466	-0.5435544	0.41306517	-0.649114	-1.4205874	-0.5740932	2.5718844	-0.24632008	-0.10275231	1.1571493	0.691886	0.37980947	-0.5414392	4.2950974	1.0215465	-1.3228252	1.1386206	-0.9286539	-0.44022745	-1.746386	0.3806583	-0.30997875	0.9926799	0.78581715	-0.71827585	-0.07604343	0.55504835	2.0121613	-0.70690733	-0.7337296	0.94578946	1.7845321	0.0865032	0.51542956	0.9896768	0.034210745	-1.0980808	0.5070295	0.029045798	0.3182119	-0.046990365	-0.35301346	0.20185333	-0.5935287	-0.32585123	0.057947285	1.9447999	0.14079423	0.15724075	0.7538567	0.3533937	0.3677266	-0.57037014	7.1245995	0.73066974	0.20524344	0.878784	-0.4365127	-1.4218622	-1.2972718	0.13682503	3.065129	0.6284455	0.0140865715	-1.0868964	-0.026148979	2.4979498	3.0034144	4.1981783	-0.47495422	-2.5884874	-3.2200758	3.0257654	-0.81911594	-0.7320532	-1.4383801	-4.057065	-0.26250795	-1.6123999	-0.5583772	13.217774	0.08756336	0.040527232	-2.67099	1.1720113	-0.41905817	-4.6353345	-0.43809745	0.71334064	-0.39228103	-0.0146229435	-0.013558092	-0.73985964	0.6473873	2.2461095	-0.71787745	-3.4351327	-3.111807	-3.147524	-1.5258014	-0.24955224	-0.33238608	4.2736216	-0.5537465	0.7940623	-0.5253396	-1.0811611	-1.85372	-0.28076887	-0.538197	2.1085997	-0.3036696	2.7872214	3.1842396	-0.2919227	1.7137579	-3.9395542	1.1847432	3.5198898	-0.14033803	0.13933991	-0.19597419	0.17534396	-3.6785574	-1.1097591	3.446567	-0.13401689	-0.5366742	-0.64989763	1.96363	-0.08146655	0.75665945	1.5320346	0.54530394	0.78161055	1.9254234	1.6769421	-0.7241851	-0.8096344	0.06464845	0.024661677	1.0934265	-0.47230384	-3.6743941	0.035163045	0.14938177	-0.5633991	-0.22401291	0.82015574	-0.69018066	1.6994845	-1.0074422	1.9732002	1.3405995	-0.4432583	1.5989524	-1.9701827	0.7876102	1.2909399	0.28019533	0.10849121	-0.32899123	0.05825038	-1.7529906	0.07845181	1.8262739	1.0711584	-0.8878132	0.007467618	1.1385926	0.22887395	-0.28483102	0.5731318	-0.52676225	-0.048242696	0.5689391	1.33676	-0.4855824	-0.56520945	-0.3553684	0.10645738	0.22958669	0.85201377	-2.110035	-0.09300325	-0.04551824	-0.35260162	-1.6805747	0.61271846	-1.2407367	1.626467	-1.7008921	0.4359888	1.804408	0.27264234	-0.15133563	-0.14354348	0.85040987	-0.0160298	-1.9263426	0.02929166	3.7926087	-0.45191026	-1.0792488	-2.4022627	-1.6555595	-0.93693256	-0.27115452	-0.07985749	2.9429688	-1.0446994	-0.60082364	0.31340995	3.131659	-0.030163838	-0.40814275	-1.6199602	0.7391253	0.13810953	2.931543	-0.6021446	2.4116426	-0.28981236	0.68257403	2.350788	-0.040939428	1.1867005	0.8834985	0.46888116	-1.6868113	-0.23812424	-0.37817588	0.74413115	0.21883407	-0.79949784	-0.32019207	1.3361814	-0.51693606	0.63516027	-0.13252747	-0.0002544108	0.027397983	-0.12515019	-0.20900804	-0.8800104	0.25793472	-0.6700732	0.06024138	-0.064194396	0.045773644	-0.12397463	0.13207644	0.04452061	3.7139125	0.04081064	-0.09023532	-0.25462267	0.9317173	0.59601384	-0.14162445	-0.08154832	2.8549592	0.0676926	-0.20095766	-0.25238955	-0.060939588	0.1649076	-0.5731156	-0.9954545	0.5243322	1.4868073	-1.4188359	-1.9298515	1.1783502	-2.640487	1.0520382	0.39181834	0.06551619	1.5343686	0.82520074	4.9171095	-3.9304209	0.40202647	-0.9302867	0.34967673	1.6723702	1.3835713	-1.523784	0.77422327	2.4696312	0.2686302	0.7161265	0.9160288	-1.1859715	1.5106324	-0.60666126	1.9972088	0.31996703	-0.27544963	-5.099229	0.17820895	2.381659	6.475817	-2.9158144	0.061925676	0.6496554	-0.7595444	-0.6359999	0.11985094	-1.3811978	-0.4520445	3.4677453	-0.09603048	-0.16671805	0.7074062	-0.46199363	0.6351568	-0.6183602	-1.4472846	-2.4472919	-0.5847607	5.704818	-0.64142054	1.7983003	3.7707224	-0.81318265	1.3395325	0.14833319	-1.0458517	-0.53719586	-7.411123	-0.46929938	-0.2347683	-0.9248007	0.6477812	-0.022134313	-0.60587645	0.63591635	2.432027	4.5522227	-2.844839	-0.19979824	-0.32665363	0.21623746	0.7230418	1.0583936	0.40008378	0.03235984	0.49332708	0.69409573	-0.93980014	-1.9613223	0.63197356	-0.34273002	-0.4630208	-0.35155144	-1.2106149	0.57486844	0.06497271	-0.031629078	1.0930915	-0.55221033	0.12373825	-0.8806147	-1.8323662	0.61801296	-0.013679083	-0.06822462	0.04908829	0.315722	0.14217299	0.55633485	0.9395643	1.2322916	1.3243524	0.20943365	-0.06376651	-0.7708188	-0.43851525	-1.0213915	-0.0020412628	1.0416207	0.5817924	-1.1077125	-1.2213496	-0.276971	-0.54384077	-0.82361203	-0.30056265	-1.7287308	-1.7254827	5.6769366	-0.6266983	-0.12775251	0.25958034	1.0570539	0.80791235	-0.24368457	-0.27204672	0.9897067	-0.86019576	3.5751543	2.7772813	1.78853	2.4573781	-1.7358704	1.7932067	-0.8348925	1.6078033	-0.098585784	3.7466202	-1.1536378	-0.4446797	-2.0729203	0.16068172	0.8562797	-0.8274599	0.5468964	0.052372575	2.5309844	-0.5924897	-1.0357577	-0.8123133	0.4020422	-0.0043348647	-4.327084	-0.53954285	1.5165766	-0.084967986	0.9839662	2.5986605	-2.876389	1.8180606	-1.2452093	-3.5708413	-0.39980546	-1.1093731	0.5549525	1.8695996	1.4948246	1.0106062	-1.791232	-1.3238969	-2.3124287	-1.2689941	1.0578676	2.300932	-0.12556876	-6.5848966	-2.4067662	-0.97334814	0.85991496	1.8092351	1.3037109	0.8697917	-0.36041227	2.1951773	-1.8765426	-2.1075904	-2.324579	-0.2392931	0.9395885	0.5459297	-0.90508944	1.416302	-2.2557454	-1.236994	0.8976511	0.74003863	0.13248436	2.5991802	-4.617632	1.143469	2.0665615	-1.0657265	-0.21951303	-1.2925215	-0.36551967	2.7972856	1.6427692	1.0795153	-0.61364394	-9.131229	-2.3399603	-0.9675337	-2.578374	-0.27513424	-0.20515788	-0.5352873	1.1985239	0.58095187	1.0831115	0.5137463	0.88686156	1.8088964	1.3493482	4.431765	-0.69974023	0.8836758	-3.5153532	1.187925	-1.1046698	2.609531	-7.225665	0.9185709	-8.998585	-1.2844857	-2.8943093	2.9342365	-2.3700302	0.8509153	-0.7626706	2.5087276	2.3960197	1.2172416	3.1648812	-7.4639845	1.8014344	2.580866	0.50026596	1.4314845	0.1724773	0.29809177	-3.0269275	-0.57925653	3.6635268	0.39573276	-3.1567974	-0.3450902	1.472101	0.0456148	0.73529553	4.230361	1.4833648	1.4611063	1.3960663	2.8553677	-1.6519933	-1.9890535	0.8161604	0.35070696	5.9398613	2.6334476	-5.297261	-0.89199835	0.17878075	-2.1232114	-1.0045158	-0.5846681	-0.7988014	2.092624	-0.07430268	1.5921499	2.9299812	-0.19227259	2.6449683	-4.652722	1.2636989	3.0530815	0.1982871	0.48664105	-0.44431376	-1.9421909	-3.7657726	-0.9572173	-0.04842993	0.79307646	-0.4902479	-0.08095227	2.194152	-0.16424246	0.7535834	1.1930621	-0.3952871	0.54757077	1.6209577	2.7736952	-1.1531286	-0.9070149	0.39818013	0.27260524	-0.69333225	0.7179497	-4.8738174	0.047649723	0.031835884	-0.7377868	-0.52950907	-0.2545061	-0.105907336	0.70240605	0.54008573	0.20856895	-0.015138339	1.0747675	1.4123735	1.6270617	0.8218332	0.0034714662	-0.10234895	-0.90265334	-0.94286406	-0.20433328	0.85444486	0.56766605	-0.30381542	1.3611501	-0.67040765	0.702545	0.63646406	0.3601912	-1.1228623	-0.35939154	0.05499231	-0.9911226	0.034272484	0.12009238	1.1576118	0.25357535	0.5236748	-0.042683065	-0.69105846	-0.7064433	0.4058912	-0.10836482	0.1867797	0.3467307	0.1031833	-0.420566	0.57786065	0.19168776	1.3792816	0.07594135	0.39698544	0.32840732	-0.3440076	-0.6376077	0.034824606	-0.7037093	1.6063011	0.03431101	-1.9778757	0.7486439	0.49210027	-1.0683327	0.45021588	0.013824918	-0.1782138	-0.08777732	-0.527056	0.68306386	0.03589551	0.12428496	0.20076811	-0.44351703	-0.3683515	1.0163189	-0.08945093	-0.7500516	-1.8027997	0.7859523	-0.5201583	0.1395597	-0.22038758	-0.07238742	0.08836617	0.11710799	1.0020212	-0.08557334	-1.6861974	0.05509121	0.6375732	0.9803511	-0.52537024	-1.9506816	-0.6165756	0.57701534	-0.21342073	-0.84863394	-0.02288191	0.004923216	-0.14861657	0.0851376	-0.042777915	-0.8364441	-0.3778615	1.8093438	-0.15173514	-1.1262285	-0.6766793	0.046293665	0.094328344	0.51301	-1.136125	-0.3554556	-0.37473956	-0.39144528	-0.102761604	1.0218226	-0.41771197	0.0017189883	-1.8506377	-0.26366028	0.10382841	1.1258227	0.11117488	0.568935	0.9616012	-0.97762597	-2.117969	1.6219465	-0.80865836	0.6285949	1.1380023	1.0065985	-0.06034722	-0.9057259	0.93109345	0.10703453	-0.43217027	-0.049760222	1.0561076	-0.012851655	-0.91096246	-0.30311203	-0.26015803	0.5064916	0.12818876	0.4712648	2.1236758	-0.33473825	3.3553445	-0.2995837	5.1942606	-0.049024176	-0.32822618	-0.062484182	-0.7747805	-0.11341387	1.8390359	-0.098909535	19.557846	0.39246124	-0.15766314	0.66698456	0.08855649	0.61548245	1.207089	-1.4306558	-4.524499	2.1236815	1.2656608	4.2795076	7.3451715	0.6671348	-0.3075828	-1.084194	1.220211	0.9649407	-0.28458565	0.011472691	1.9215716	-0.2527515	-1.1093253	0.3073997	-4.492278	1.213466	1.0022181	0.26166835	1.9478408	-0.20272651	-4.9841204	0.570335	-0.9559113	0.31212494	-2.012285	-4.6759496	-0.041706126	-0.27488077	0.88393116	-0.18669677	20.33589	4.9220614	-1.6371455	1.5017366	-0.16219212	0.4538166	-1.1348456	1.3506496	-0.3893846	0.25901192	0.96788126	-0.5641464	1.5057048	-0.26416108	-1.3629904	-0.1733023	2.5013466	-1.6696317	-0.11541258	-0.039643474	-0.09502488	-0.14392388	-0.061428115	-0.059280213	-1.027616	0.01069201	1.1989615	-0.062378142	2.605985	-0.031394143	0.95139736	0.3055202	-6.7335253	0.79447657	-0.036919635	-0.9043725	0.27802578	0.18022943	-0.20900601	-0.11749832	5.1863613	2.4549775	-0.17977452	0.47755718	-0.14773613	0.6091265	-0.095038325	1.0802115	0.26853934	0.0089616	0.1755933	1.2894783	-1.0791718	0.2938087	0.27069107	0.184273	-0.5588878	-1.4725376	0.14456125	0.077270396	0.18182348	-0.17117842	0.6288898	-0.0863054	0.6810179	-0.0977774	-0.2478337	-0.6435098	-0.5833013	0.35128587	0.55016214	-0.18049796	1.0040077	-0.3399417	0.7989785	-0.49106073	0.36670843	0.5876131	-0.15215534	0.20441638	0.64441854	1.0834134	1.0382305	-0.1374491	-0.15776202	1.0421326	0.92330754	-1.5086349	-0.9273143	1.0136951	0.8056612	1.4962451	0.61675763	-0.38927475	0.72689253	-3.0875962	1.5017107	0.44880393	-0.14662561	-0.14324072	-0.38971832	0.08506694	-0.9454885	-0.13345048	0.2667161	-0.61456513	0.14219837	0.1368401	-0.048099037	-0.1661889	-0.18687087	0.17805791	0.7679034	0.59142816	-0.23010942	1.1865834	-0.66403896	-0.5854374	0.61420685	-0.056087315	1.7016208	0.981934	-1.3196539	0.098277755	-0.151131	0.097834036	-0.71732724	-1.2006422	-1.2170951	-0.8178497	4.5770197	-0.831739	0.7616851	1.3902249	3.6852365	0.6158997	0.39928913	-1.0408255	-3.6350808	-1.0314702	6.7324114	0.64652705	2.4020338	4.1855073	-0.0323524	-0.7315598	0.69782096	0.25819424	1.1044012	-17.624779	-0.7212244	-1.1020206	-1.6427085	2.0658574	0.6152184	-1.2986095	1.5243139	4.3442287	5.1837325	-2.902646	-1.0847694	-0.6985677	-0.39611003	-1.1964281	0.8042697	1.6598411	1.0999812	1.2882807	1.2658863	0.46727288	-0.28920123	0.3518983	0.20392872	-0.88864017	0.06948226	-0.71071523	-0.68163097	0.24894811	0.085438184	0.01553433	-0.5422746	0.14521694	0.48990947	-0.16803388	-0.25891998	-0.560931	-0.11491947	0.28436556	0.023909079	0.005918252	0.14923555	0.28820744	1.361058	1.1422137	-0.5137725	-0.34984735	-1.0661852	-0.82729024	-0.21878831	0.064331375	0.936272	-0.0053153145	0.12870863	1.6444383	0.1187831	0.5260631	0.5778403	0.27411234	0.8288135	0.21306089	1.076714	0.42346126	0.5766297	0.7083465	0.34167314	1.1345836	0.3437399	0.49894628	0.6260172	0.4107341	1.2114807	0.7135048	1.3078876	1.5251197	0.16259381	0.25132748	0.6121961	0.624267	0.31934777	0.90930367	0.38033876	0.337347	0.47065267	0.33331755	0.39873192	0.55239105	1.3830463	1.2763679	1.1561986	1.0358158	0.37790373	0.37501633	1.4112623	0.7090078	0.16135111	0.3116079	-0.3339949	3.3761678	-0.7691011	1.0339247	-0.06395607	0.8359778	1.7925394	-1.1350731	-0.5451524	-0.11358956	0.6731356	0.6623673	-0.23038223	-0.011064909	-0.034133654	-0.0031785127	0.047114648	0.40209204	0.71738595	-0.40260273	0.1598943	0.107630804	0.8526652	-0.17046447	2.981322	0.125912	1.1500319	-0.18149291	-0.46339282	-0.16900155	0.04706827	-0.024120022	-0.15027298	-0.11582098	2.2384946	0.11704599	-0.26881889	1.2739761	-0.010956501	-0.17294426	0.087431245	0.2846598	0.6307783	-0.52607805	-0.53093463	-0.19430214	-0.962122	-0.066240616	-0.18981704	0.62651205	0.077982925	-0.3245028	0.22350025	-0.037229437	0.6541632	-0.007576895	0.4802326	-0.05729084	-0.40895623	-0.39917427	-0.14845546	-0.5228103	0.22588086	0.11945375	0.54204774	-0.11192273	1.9872961	0.55092216	0.338189	-0.11623425	0.0070196916	-0.19968452	-0.09906544	0.075652674	3.975515	-1.0488639	-0.087518424	-0.4329213	0.0032766154	0.23428895	0.062612824	0.05153328	0.83391595	0.61209124	-0.3765553	0.5983335	-0.13046062	-1.1720213	-0.093534224	-0.11418507	-0.20160234	0.52520543	0.05382094	-0.016332528	-0.13180727	0.056984037	-0.44100696	0.09853324	0.028542245	1.0943379	-0.04318511	-0.19919254	0.46628806	0.054712888	-0.00820027	0.3202186	0.1875868	0.20685555	-0.94348884	0.14268216	-0.32553756	-0.40039143	-0.3398742	0.01910405	0.613062	0.12904012	-0.41334182	0.99338174	0.026396839	-0.31979024	-1.8334199	-3.549245	-1.5060513	1.6462325	1.0962007	0.95490223	4.895437	-0.8699393	0.009562144	-0.5394619	1.1129729	0.25408813	-0.09711653	-0.10742655	0.38042971	-0.076841116	-0.9590873	0.77093124	1.1128339	-2.7490928	1.4017195	0.5173659	0.3158276	0.03948747	1.2447366	-0.8587544	-1.0117831	0.5375763	-0.3733995	1.352388	0.37602744	0.5112717	-0.22132285	-0.04793094	1.1302872	2.2224123	-0.37787256	1.8407253	-0.26904145	-0.4294647	-0.2547177	0.9769347	0.05137642	0.48548985	2.9879804	-0.15435427	0.11427186	-1.2063731	1.5515766	0.9168333	1.2852865	0.092670456	0.17239404	-0.70642126	1.02085	1.0665873	0.8857717	1.9798841	-0.76637787	0.5025232	1.3999199	-1.8772391	-0.86759543	2.5181172	-0.032123048	-0.07192216	-0.6641881	0.13711794	-0.21418653	-0.23998581	-0.27726024	-0.012673646	0.57676554	-0.52631396	-0.094506435	-0.48702973	0.042019945	0.44248793	-1.9115076	-0.07362138	1.6462276	-1.524281	0.9310093	1.0518849	0.2994743	0.26128712	7.3598714	1.1319362	0.14881913	-0.8826155	0.6744057	3.704405	-0.015745642	-0.00063831086	0.4237476	-0.07406436	-1.5012795	-0.751205	0.9228448	1.6279168	0.12380707	0.21845265	-3.3675315	-0.14667921	-5.259984	0.93384206	9.726169	-0.59873194	-2.0724807	2.6988437	-0.61187184	-0.7081207	0.2656417	-0.012430704	-16.407217	15.878397	-0.8766909	3.8498788	0.091076486	-0.28223208	0.04083263	1.1186751	-1.2855853	-0.4466576	1.1692095	0.68844	-0.9398595	-0.1809057	0.16597094	-1.4312465	1.1734059	2.344197	0.04444772	-0.14589062	-0.06229067	0.93193656	0.7288138	-0.70018536	1.8345298	-0.054916162	0.43915987	0.47083685	-0.20747167	0.4530527	0.011400511	-0.7418241	1.1197444	0.3540328	-0.9647033	0.63466007	0.14838456	0.5402051	-0.562089	-0.075815536	12.356822	0.09527701	1.4801201	0.36435795	2.0979712	-0.40093583	-0.38423708	-0.7335773	0.37773564	0.94375736	-0.346959	0.54781246	1.0167762	-0.2153238	-0.13194916	-0.2544382	-0.041810427	0.7922383	-0.116690084	-0.03851346	0.19293757	-0.1694658	-0.27784464	0.17793399	0.2522281	-0.0022068191	-0.008562769	0.3146528	0.039103735	-0.07392137	-0.526136	-0.63764215	-1.3330487	-0.22579187	0.19721445	0.40654448	-0.23159015	0.39047784	-0.2345982	-0.085455224	-2.9480917	-0.38171208	-0.3136912	0.39447424	-0.17659084	-3.0166762	-1.8089225	0.46487814	-2.623371	4.1735663	-0.5534137	6.401089	5.280771	-0.5523009	4.9568744	-10.344566	3.391841	6.0496426	-0.213409	0.083660595	-0.6940811	0.3145988	-6.9485846	-1.366494	6.143481	-0.105604395	-2.4319963	-0.61642754	3.941379	-0.15561822	1.28684	4.0212116	-0.75539017	1.9315727	4.8522434	4.57469	-2.6763284	-1.8967469	0.043677025	0.12863109	3.187784	0.73690474	-9.167675	-1.3540931	0.2596786	-0.7690221	-0.13467145	2.3140335	-0.79431957	-1.4099636	1.1728504	-0.8447506	0.6709965	0.24213338	0.6908613	-3.2711778	-6.0221944	1.0468546	-0.63653284	1.5162838	-0.4249964	0.0033764523	-0.530347	2.1322026	0.3903366	-1.3607196	-0.19315492	1.6717336	0.27280045	-0.4969185	-0.3986555	1.025061	-0.27929127	-1.476438	-1.4701551	0.33752644	-0.20586525	-0.49972114	-0.017810235	-0.29216072	-0.085270986	1.8158798	-0.22255722	0.7055127	-0.27899393	0.7167457	1.6065527	-0.5336911	0.2811218	1.0997776	2.5874193	-0.20769368	5.6768017	0.6954919	-0.40450597	-0.17313969	1.8944994	-1.702425	0.31680924	0.030504977	0.39043668	0.18225743	-1.8536904	-0.19207174	-0.7637926	-0.16722403	0.46813032	0.006419743	0.10209335	0.38887537	6.0743275	0.4161921	20.062962	2.3545506	-0.22232558	-1.2590224	-2.0082457	-1.605024	-0.5221327	0.11230858	2.175511	-1.3491973	-0.32520387	1.5491186	0.2503065	0.18693505	-0.37217447	-1.156018	1.37617	-0.8808671	-0.6476046	-0.26901886	-0.36159068	-0.117798254	0.31155726	0.20653771	-0.19453117	0.5090625	-0.04826439	0.08866251	-0.22164479	-0.19012171	1.3784554	-0.4761608	-0.41298714	0.8549566	-0.62516445	-0.10149322	0.1732967	-0.06901087	1.9445244	0.12008168	3.4196832	-0.7123487	0.285973	-1.0765103	0.7796499	0.72170603	-0.4110064	-0.028967574	1.7934221	-1.2704613	0.30560178	-0.39551118	-0.06127767	-2.6034052	-2.4455106	1.4927654	-2.8892386	5.2282805	-1.3319305	8.217791	6.166172	-2.2822626	4.9497814	-9.072912	2.115298	6.138987	-0.31171748	0.17964065	-0.8108089	0.24885085	-7.5976276	-1.7978616	6.5296893	-1.0382417	-4.7062583	0.29166687	4.049619	-0.16784687	0.6194261	4.4752	-1.4078919	2.0475483	5.0025353	4.8654757	-2.846134	-1.4530051	-1.0260911	0.02834994	2.7705889	3.0879235	-9.310939	-0.66439	0.14492838	0.012205513	1.3401929	0.24933049	1.7438257	-0.090584315	0.5574173	-0.6430599	-1.187254	0.12797338	-0.21461673	-0.49239352	0.8030739	0.98773444	0.16993284	0.055638805	-0.98296314	0.071607925	0.89724106	-1.36533	0.21759622	4.284602	0.11450766	0.07299401	-0.81357676	-0.0032982859	-0.37803388	0.036899198	2.3577952	-0.42405626	0.32118866	-0.38044664	-0.1516021	-0.5237001	-0.5703831	0.030291751	3.6680644	0.9574175	-0.218526	-0.46725842	-0.035097465
0.119053915	-0.40804157	0.0026745836	-1.5846809	-0.8012594	0.1246718	0.2650867	0.23579635	0.04916537	0.42616698	-0.03765783	0.1286862	-0.013145952	-0.30822283	-0.05060155	0.083772674	-0.006667508	-0.5237115	-0.50209105	-0.33858675	0.526833	0.37585256	-1.1584573	-0.017435733	-1.5233692	0.38269767	-0.11326129	1.2840073	0.47118783	0.066799976	0.14543833	-0.9938621	0.4504788	-1.8878071	-2.338152	0.027522834	-0.5521761	1.3173858	-1.2540184	-0.060430557	0.11200786	-0.52116895	-0.0141023155	-1.4701569	-0.8847436	0.1761486	0.31146768	0.34827724	0.08666422	0.4656115	-0.013818219	0.1270651	-0.016611887	-0.41441667	-0.04475246	0.08345884	0.022506505	-0.57301944	-0.54907095	-0.35670787	0.5015428	0.77738315	-1.1766878	-0.030832255	-1.4044503	0.7167279	-0.21507798	1.4119014	0.5178531	0.21708407	0.1623735	-0.97436816	0.60432446	-1.6364083	-2.7492673	0.0016911231	-0.55275375	1.2444944	-2.184956	-0.16748774	0.1119135	-0.58279365	-0.03621021	-1.5117732	-0.8987253	0.21193887	0.27747196	0.39272234	0.091198675	0.4196492	-0.017901456	0.115124844	-0.012477959	-0.42478144	-0.04930053	0.09786269	0.046259064	-0.53610176	-0.58947545	-0.35140556	0.6467203	0.9451875	-1.2119778	-0.03273843	-1.2827435	0.91115266	-0.3571431	1.2867513	0.52491367	0.25498575	0.14973809	-0.97928333	0.7039153	-1.4075234	-2.776133	-0.010881968	-0.5597248	1.224969	-2.54447	-0.25711244	0.11384376	-0.5220625	-0.038171705	-1.5493567	-0.85099787	0.24618495	0.31337994	0.394202	0.077743724	0.30911985	-0.029568257	0.10238156	-0.00991633	-0.4416405	-0.054074418	0.08846795	0.06428991	-0.4978279	-0.59111196	-0.37388375	0.7934215	0.94654304	-1.291792	-0.026608896	-1.2775592	1.1252357	-0.4170944	1.2258705	0.5143781	0.2767903	0.13551728	-0.98271275	0.72467697	-1.3666515	-2.76155	-0.010874177	-0.5512249	1.2394321	-2.9172757	-0.22660202	0.11388402	-0.49886775	-0.038522102	-1.5440134	-0.8563073	0.25160092	0.4050347	0.3908246	0.0694928	0.15175052	-0.06393726	0.06588608	-0.0050677606	-0.41999897	-0.049749203	0.11630274	0.09086557	-0.48805073	-0.57116973	-0.35178578	0.9137064	1.2730271	-1.3663384	-0.022096554	-1.181396	1.076404	-0.55731934	1.157346	0.5096389	0.25781313	0.15999636	-1.0053892	0.78574413	-1.1959853	-2.7153804	0.0026305048	-0.5339846	1.1907426	-3.3647637	-0.2659672	0.10736687	-0.41599473	-0.025206748	-1.5842551	-0.8326601	0.2844033	0.5083555	0.36854112	0.049273446	-0.21324307	-0.13189746	-0.010096846	0.005851347	-0.33900675	-0.037420407	0.16767022	0.14558712	-0.4580097	-0.5799017	-0.36811766	1.0593822	1.28894	-1.4264445	-0.010539653	-1.1425132	1.3758975	-0.7122745	1.0005783	0.44001883	0.27841142	0.2240574	-1.0128238	0.84831315	-1.1102788	-2.6350248	0.023534875	-0.54569346	1.1719539	-3.8410306	-0.19564995	0.12913099	-0.3064927	0.034902744	-1.6385682	-0.7290537	0.33167148	0.72774476	0.33470264	0.03571732	-0.987339	-0.17006814	-0.07832081	0.020398263	-0.31435254	-0.012752107	0.21521862	0.23627192	-0.41490975	-0.52529126	-0.3548688	1.1713885	1.4656249	-1.5332838	-0.0024196606	-1.026982	1.402836	-0.8984355	0.9085153	0.24988501	0.23772672	0.3730843	-1.0548793	0.86294353	-1.0150433	-2.5772417	0.03605102	-0.45853436	1.1494825	-4.1996226	-0.15220198	0.2552489	-0.23466524	0.07870113	-1.7142097	-0.68872947	0.3904788	1.1558851	0.3631663	0.22581318	-2.2444606	0.18115631	0.14520785	0.019473944	-0.4723958	0.06623408	0.22978976	0.39181635	-0.40029582	-0.44787377	-0.33148572	0.9580308	1.394355	-1.3955532	-0.054540448	-0.92123574	1.3663181	-0.8596609	1.0196767	-0.22634602	0.30304056	0.8613186	-1.0791241	0.67994994	-1.4653594	-2.7025766	0.008286772	-0.27853137	1.0084369	-4.376768	0.02090456	0.12290349	-0.019631254	0.040325373	-1.5791733	-0.7816585	0.21056241	1.4071031	0.31761912	1.5061501	-2.7692914	3.4329402	2.8532174	-0.16468039	-0.3228838	0.2219105	-0.2764989	0.4340655	-0.23240167	-0.24618953	-0.15494703	0.57647127	0.15926094	-1.018496	-0.366082	-0.7065463	0.24987291	-0.6694392	1.2255129	-0.70186234	0.2400838	2.0682855	-1.120602	0.13692822	-2.582198	-2.9855556	-0.088561855	-0.106337704	0.78914225	-4.0885167	0.07550568	0.035472862	0.14386368	0.11356777	-1.4973587	-0.9313429	0.14263059	1.6953595	0.29448408	2.3848212	-2.0275147	6.96979	4.3582573	-0.22605902	-0.25211468	0.26073718	-0.28211755	0.3738271	-0.41231775	-0.17654449	-0.08673937	0.38670173	-0.8445206	-0.880637	-0.41801575	-0.75564456	-0.77317727	-0.66564524	1.1022956	-0.42092493	0.16902973	2.336218	-1.1607091	-0.22239733	-3.4925823	-2.8865936	-0.06188226	0.06402676	0.66148096	-4.2713017	0.06618054	0.0981082	-0.0019728108	0.17378125	-1.3589282	-1.1222643	0.14016089	1.8068945	0.28349033	2.4732606	-1.6626223	8.122172	3.0770848	-0.1814317	-0.2870561	0.25769296	-0.012846828	0.36446434	-0.61944175	-0.16576381	-0.0465887	0.22820143	-1.0567629	-0.76998675	-0.32232037	-0.94634867	-0.92385316	-0.6464175	1.0559251	-0.16002353	0.1797317	2.1894445	-1.2243348	-0.38766575	-3.864648	-2.8049748	-0.034023434	0.18705584	0.4259168	-4.29019	0.14492887	0.019448536	0.10029688	0.25764462	-1.3478622	-1.1859317	0.10747197	2.0972316	0.21584573	2.3240461	-1.4595186	8.963337	-0.60653764	-0.1014248	-0.22182506	0.22061335	0.3389903	0.3419165	-0.7384657	-0.06006669	-0.026251195	0.10949077	-1.4364194	-0.6971646	-0.19562328	-0.8349198	-1.2027292	-0.65977883	1.3113815	0.09392077	0.1247629	1.7906749	-1.1467319	-0.30147964	-4.116232	-2.6763723	-0.013388556	0.1719373	0.41375402	-4.490919	0.08038782	0.021828061	0.15835609	0.11853533	-1.4233217	-1.1747932	0.059412606	2.5153666	0.37791285	1.9828999	-1.049182	9.29476	-7.8961945	-0.02606894	-0.31159246	0.15547147	0.48025325	0.15504184	-0.9352534	0.061853163	0.090979315	-0.06057568	-1.3917719	-0.54592067	-0.024936076	-0.8120896	-1.3373027	-0.65814865	1.6501975	0.41351652	0.093898475	1.5374058	-1.0880681	-0.19408956	-4.5141716	-2.566752	0.06119318	0.21106572	0.35361278	-4.724702	0.11587223	0.05524136	0.30769554	-0.19237731	-1.5545654	-1.136894	0.056435462	2.6548142	0.7072653	1.9281187	0.045025922	8.811909	-17.043037	-0.08584214	-0.2589573	0.13205418	-0.28006744	-0.15734173	-0.97043633	0.110037684	0.15938711	0.19721387	-0.7767579	-0.5335991	-0.13261007	-0.82524514	-0.9218584	-0.9694817	1.3332838	0.90017205	0.032498825	1.5971249	-1.1084996	-0.061424196	-4.5954213	-2.6233504	-0.022754429	0.19466756	0.52982885	-4.463939	0.07419844	0.029844828	0.40430474	-0.07267912	-1.5034472	-1.0155537	0.065308444	2.9571598	0.51016843	1.3741733	0.7503726	5.8976054	-5.7149005	-0.022898715	-0.3229365	0.09868401	-0.36184558	-0.26828626	-1.1031226	0.2482739	0.19324468	0.21807401	0.21114187	-0.59038794	-0.07206326	-0.7770348	0.2421528	-0.93947035	1.8839251	1.024581	0.04166647	1.4894763	-1.022595	0.20000868	-4.556383	-2.7653263	0.15443815	0.14146018	0.48336437	-4.428393	0.14370555	0.028834432	0.43731737	-0.107923694	-1.3791418	-1.0925332	0.08415906	3.4206398	0.46014968	0.8836565	1.3199006	2.172789	-2.858179	-0.006397689	-0.19031443	0.121232964	0.58948964	-0.30187675	-1.240997	0.37785637	0.27694458	0.11024795	1.1858217	-0.4150906	-0.18755284	-0.6334874	1.252086	-1.1049904	2.2817233	1.1480603	0.1504134	1.2977229	-0.99370974	0.44574502	-4.596563	-2.9527106	0.5415494	0.16575363	0.4221409	-4.5048604	0.19068933	0.24548526	-1.1285863	0.050420098	-1.0428003	-0.65205634	0.22007225	0.42144847	-0.003452998	0.05863846	0.34098166	-0.027120348	0.08844985	0.00967523	-0.23633307	-0.023393452	0.12557541	-0.004772288	-0.33421278	-0.9142462	-1.0075632	0.3869011	0.5410573	-0.659615	-0.029334556	-0.87189174	0.5404738	-0.76541156	0.107200384	0.34518987	-0.05952601	0.108541474	-1.1380816	0.056913454	-1.3981789	0.24613042	0.027763832	-1.0957783	-0.00056646357	0.005465751	-0.034302242	0.2139087	-1.1073769	0.01630108	-1.4024185	-0.9560683	0.18561457	0.2758793	0.03714748	0.06974036	0.44915402	-0.06930846	0.06280679	0.0288594	-0.12236113	-0.04443244	0.24334298	0.019465253	-0.36265308	-0.86128235	-0.8976214	0.37331638	0.54079044	-0.8362832	-0.038526583	-0.77144176	0.65154475	-0.79903287	0.26071417	0.43304846	0.21064147	0.1164157	-1.0989492	0.15237038	-1.3317821	-0.33900306	-0.009259059	-0.8908971	0.35262075	0.25276333	-0.45395634	0.1433879	-1.0173568	-0.09949851	-1.5641212	-1.2148286	0.11250058	0.11288075	0.21195501	0.06195534	0.5079508	-0.11789148	0.032033514	0.037132062	-0.03885653	-0.04697162	0.36006674	0.04117341	-0.37353003	-0.7539224	-0.66863984	0.56598634	0.55348724	-0.8113076	-0.039073244	-0.61092865	0.348045	-0.7662896	0.5696115	0.46139467	0.472074	0.10742623	-1.0471804	0.37442318	-1.260379	-1.5141395	-0.08947987	-0.78020644	0.942822	0.2585476	-0.77106714	0.07602846	-0.8083508	-0.13804653	-1.5480947	-1.1797311	0.05990755	0.12300417	0.33029464	0.053810023	0.50372386	-0.10515909	0.052499644	0.018922986	-0.09275926	-0.037306312	0.31765354	0.030206734	-0.42272347	-0.64239097	-0.51657593	0.5819845	0.33852595	-0.8180552	-0.030101236	-0.7150848	0.44779426	-0.51268536	0.9956854	0.4567898	0.47471908	0.119269416	-0.9875257	0.4793962	-1.4874008	-2.4087243	-0.10104921	-0.75572395	1.3726019	-0.34586668	-0.71467906	0.043621123	-0.8160497	-0.14731073	-1.4281737	-1.1849947	0.019138895	0.16732895	0.4295951	0.056260422	0.50408965	-0.09062555	0.06991211	0.009472993	-0.18523912	-0.02842853	0.2990287	0.026488347	-0.47501335	-0.5919237	-0.40730765	0.5407845	0.48930174	-0.81708837	-0.029752558	-0.64590603	0.42316958	-0.43005517	1.2753581	0.47099093	0.557771	0.12726223	-0.96974736	0.54400444	-1.5337114	-2.878386	-0.11837297	-0.68357897	1.4498382	-0.89952064	-0.81473273	0.0188314	-0.9205098	-0.17091744	-1.3172444	-1.2772384	-0.03435264	0.24041858	0.5561542	0.08030723	0.5475697	-0.07610425	0.06895327	0.009373451	-0.29120392	-0.017448992	0.3336996	0.041511014	-0.503365	-0.5484462	-0.30696273	0.4459742	0.5496146	-0.6620948	-0.03884994	-0.45402706	0.54575825	-0.5423016	1.4829746	0.47579536	0.76901984	0.14130391	-0.90299875	0.6725529	-1.5292857	-3.2221303	-0.16230392	-0.6966542	1.4787823	-1.5532662	-0.9782287	0.030297613	-0.920782	-0.14387624	-1.2720194	-1.2638125	0.0021157481	0.46862203	0.63858604	0.11681738	0.58701676	-0.05735936	0.055823676	0.0011762189	-0.5191095	-0.007276518	0.30273914	0.045493506	-0.5897983	-0.47338513	-0.28801593	0.36472234	0.7171344	-0.66046	-0.045357123	-0.49299628	0.73229706	-0.5749578	1.7011653	0.50099117	0.8332248	0.21349801	-0.88521904	0.7983811	-1.6363561	-3.1489077	-0.10692726	-0.64286	1.2997575	-2.7732399	-0.8680405	0.07727961	-0.89529026	-0.17375346	-1.3048801	-1.3438038	0.06851272	0.6374896	0.6891537	0.15751833	0.5314861	-0.09715215	-0.027629562	0.006034789	-0.62032866	0.0098223295	0.36390013	0.07679073	-0.6420046	-0.4563276	-0.29253265	0.45641655	0.9825048	-0.65696293	-0.0507511	-0.5212283	1.0026708	-0.7880942	1.4887323	0.53908867	0.7830362	0.3601314	-0.9409315	0.8190214	-1.6358956	-2.7668371	0.020282166	-0.5646792	1.1081123	-3.936966	-0.77345943	0.118180774	-0.7495428	-0.18278536	-1.3114119	-1.4411936	0.16560778	1.082928	0.6487657	0.19008335	-0.8518589	-0.35225335	-0.3779481	0.0568485	-0.5139808	0.08509493	0.71390647	0.2610449	-0.697333	-0.3935282	-0.278135	0.5894448	1.3014529	-0.6583949	-0.044805683	-0.38881725	1.3237991	-1.0524691	1.2733836	0.2880306	0.6402168	1.0017561	-1.051791	0.66216236	-1.6944677	-2.4284875	0.46505913	-0.37815702	0.8507864	-4.9379764	-0.59147125	0.19237816	-0.7207567	-0.26222762	-1.416189	-1.3474215	0.18126224	1.5274647	0.671916	0.8130562	-2.268756	0.86072296	0.744765	0.0405817	-0.6819892	0.16761188	0.5589882	0.4369459	-0.64347017	-0.25308192	-0.22333016	0.1906504	0.8168301	-0.38871682	-0.23038967	-0.27427816	0.6479425	-0.8602193	1.7236173	-0.31993395	0.74637467	1.9947248	-1.037912	0.4301365	-2.363902	-2.6828163	0.83976144	-0.21866149	0.63061064	-4.8626356	-0.32978484	0.18470363	-0.6727267	-0.19584097	-1.3631253	-1.3898134	0.15995418	1.5748249	0.54175115	1.4116284	-2.39952	2.385654	2.3123221	-0.030919349	-0.6174825	0.21876346	0.27734664	0.51688397	-0.5867052	-0.22292066	-0.22985832	0.040181864	0.2773544	-0.2548343	-0.40144172	-0.31577602	0.37318406	-0.7949421	1.7166064	-0.38320047	0.7891309	2.356118	-1.0366023	0.19320577	-2.8658047	-2.7328928	0.91779864	-0.13289315	0.5649069	-4.7975535	-0.33745703	0.12934496	-0.55507374	-0.03954448	-1.4178672	-1.4485558	0.17128187	1.7183692	0.34766793	1.9489568	-2.4293094	4.4869275	4.2803617	-0.060499363	-0.5188507	0.21298367	0.019125303	0.616948	-0.6220272	-0.16416858	-0.2438487	-0.1025375	-0.17360805	-0.11453397	-0.48571903	-0.33526722	-0.24564613	-0.87288153	1.5926164	-0.24808232	0.76196057	2.3136592	-1.0197464	0.0952233	-3.245083	-2.729402	0.841336	-0.11322579	0.6539272	-4.7834473	-0.2919581	0.008405074	-0.44949558	0.11312514	-1.1731405	-1.5604554	0.07786277	1.7803471	0.17674161	1.8291073	-2.371165	6.8154616	3.99117	-0.10698559	-0.32893986	0.19592993	-0.2114114	0.5849418	-0.8214356	-0.15065049	-0.09360769	-0.10183194	-0.65959615	-0.14612694	-0.06373073	-0.5159502	-0.6108427	-0.846795	1.6774981	0.19693488	0.6599135	1.8563653	-1.0263104	0.07176248	-3.5117996	-2.8691387	0.6963274	-0.027744425	0.6878213	-4.844638	-0.4140437	0.08080969	-0.3928927	0.09558275	-1.0390924	-1.7639174	0.09249757	2.0783575	0.332658	1.3479888	-1.8755057	7.97281	-5.557276	-0.15506986	-0.47070244	0.17064504	-1.1677749	0.3730149	-1.0676519	-0.12190545	-0.030246604	-0.077756055	-0.40628648	-0.051782772	0.38604164	-0.6120024	-0.5016227	-0.9167121	1.6494466	0.52591276	0.5514901	1.630206	-1.0023668	0.18039267	-3.7029037	-2.705003	0.264626	-0.05933013	0.5332346	-5.023864	-0.25269938	-0.012016201	0.028177187	0.046267502	-1.3960879	-1.524541	0.05982381	2.5688727	0.35439265	1.1352363	-0.6790148	6.4235	-4.640246	-0.15593226	-0.45501348	0.062214304	-1.6696751	0.041141592	-1.2118382	0.08169131	0.14819379	0.30980062	0.38789102	-0.22935617	0.35254163	-0.53584284	0.2731886	-1.1663082	1.6728029	1.085933	0.31938136	1.6312656	-1.0271508	0.37519574	-3.9849563	-2.1401386	0.42291823	0.0017348895	0.68775475	-5.669754	-0.23677196	-0.02394041	0.2592336	-0.102915	-1.3855033	-1.2899309	0.04689259	3.3148208	0.4586814	0.15843436	-0.00689589	4.198133	-2.1194768	0.10888098	-0.4940455	0.028115692	-0.44866762	-0.12955594	-1.3221555	0.33612457	0.27525026	0.054747883	1.007131	-0.20647733	0.37226543	-0.42788002	1.0183587	-1.162851	2.3758636	1.1327143	0.30678472	1.1432375	-0.95162237	0.498821	-4.4776015	-2.5972764	0.7612335	0.07272196	0.43989182	-5.08773	-0.023024956	0.24956137	-0.79276675	0.034350544	-0.5494597	-0.3446463	0.59910643	0.36891937	0.0030211024	0.04116372	0.2050622	1.0736447e-05	0.06176652	-0.004159821	-0.2053702	0.0040784553	0.028828096	-0.0028717062	-0.22756419	-0.8346382	-0.7450547	0.5313656	0.005142236	-0.27611643	-0.020981884	-0.7423986	0.22466859	-0.73801434	-0.029503046	0.17936674	-0.17135185	0.07052856	-1.0633335	-0.0044441856	-1.1966567	0.32176584	0.008500497	-1.4115453	-0.12951078	-0.16155362	-0.01893255	0.21196675	-1.3474414	-0.033030286	-0.6163482	-0.44834417	0.18400034	0.32860595	0.08960559	0.026157176	0.22573958	-0.024286062	0.077638745	0.00081061607	-0.17119253	0.0034418546	0.088671476	-0.015072026	-0.25011656	-0.23210548	-0.6458634	0.3353674	0.35808122	-0.30679366	-0.014476952	-0.6882867	0.2464359	-0.8586771	0.0081627285	0.20943826	-0.06954169	0.07320225	-1.0139142	0.0056792614	-1.1625062	0.14309107	-0.0049751014	-1.2731127	-0.09994648	-0.022473324	-0.26125836	0.104348175	-1.7059051	-0.091847695	-0.7223876	-0.6990383	0.074283324	0.2604071	0.17319696	0.03980614	0.3035521	-0.0478461	0.0787287	0.013888172	-0.062163945	0.0032705106	0.1985195	0.007547694	-0.27329078	0.3235611	-0.636337	0.19707072	0.29507828	-0.22871186	-0.024948686	-0.6888828	0.39697364	-0.8507619	0.03712899	0.25386888	0.15890527	0.07166313	-0.9961794	-0.07985039	-1.15094	-0.21041708	-0.071597874	-1.063051	0.044623956	0.07249546	-0.56590784	-0.28151247	-1.8243359	-0.15303342	-0.6393217	-0.9474776	-0.14204109	0.31400514	0.25034437	0.05537499	0.39353245	-0.05448638	0.0925024	0.019684812	0.16963351	0.01945863	0.34434816	0.0069990833	-0.28669325	0.44794837	-0.7265868	0.27392504	0.4131098	0.25131643	-0.0375651	-0.9370165	0.35425523	-0.5228911	0.021020154	0.24270657	0.22690935	0.08374446	-0.86648035	-0.050008114	-0.9161567	-0.7770869	-0.17880449	-0.653092	0.35795835	-0.08752633	-0.9587323	-1.0201926	-1.5559082	0.49003187	-0.30046698	-0.89206904	-0.3932492	0.5346575	-0.56499577	-0.041766465	0.37318584	-0.0505679	0.093450226	7.807826e-05	0.15814337	0.059599172	0.43723914	-0.22498694	-0.13121118	0.04868558	-0.78306603	0.37997618	0.41302872	0.66652215	-0.0036224239	-1.3322642	0.446976	-0.42552716	-0.5649813	0.17318971	0.3823181	0.18741891	-0.6712482	0.03922249	-0.57525766	-0.66737455	-0.09060696	-0.25280082	0.6706957	-0.123209	-1.1929429	-1.4436119	-1.1671749	1.3758466	-0.15395623	-0.6494501	-0.70532906	0.82631564	-1.663065	-0.52226347	0.06871503	-0.1462423	0.3109558	-0.037767723	0.07609024	0.10062833	0.5482524	-1.0094082	0.043068543	-0.18853657	-0.712115	0.42581365	0.4717211	0.5705917	0.15286402	-1.4842908	0.54384595	-0.72145426	-1.0850719	0.09602451	0.67217773	0.37127608	-0.46752444	0.3086913	-0.26450157	-0.3552011	0.25311252	-0.2495256	0.86375755	0.013329712	-1.2316363	-1.3042758	-1.1405183	1.5290642	-0.14283153	-0.591495	-1.0272597	0.87360483	-1.8310353	-1.2716961	-0.45450968	-0.36397162	0.53020936	-0.042198956	-0.023344442	0.09823678	0.7613053	-2.3915563	0.18242358	-0.031268816	-0.6411818	0.7136654	0.5717646	0.5238147	0.33599493	-1.2723836	0.7772515	-0.74190634	-1.1401024	-0.2198495	0.7778151	0.616987	-0.4404606	0.40576243	-0.10757564	-0.3712254	0.60508585	-0.18909934	1.0165212	-0.0729841	-1.3252082	-1.1657337	-0.6947662	1.3323067	-0.0018667702	-0.6448435	-1.356243	1.1615897	-1.538334	-1.133144	-1.1507511	-0.17903326	0.32548442	-0.012495782	-0.20237845	0.05764321	0.669589	-3.9888496	0.25237617	-0.38263008	-0.9190283	0.97897637	0.75315773	0.3157829	0.009173914	-1.0651625	1.1037804	-0.6484788	-0.89878273	-0.6320143	0.7598055	0.7842818	-0.32682082	0.55566245	0.11276277	-0.19068246	0.7455844	-0.00683785	0.7104243	-0.21853054	-1.5110662	-0.95893735	0.28656068	0.7475364	-0.33099422	-0.73868597	-1.3953006	1.7719834	-0.74764603	2.2242727	-2.0407188	0.6293323	-1.0430521	0.13769053	-0.36850697	0.00027178694	0.2552991	-5.506279	0.31821355	-1.5726576	-0.6734001	1.0367068	0.6972287	0.59228134	-1.2874967	-0.9095901	0.7150841	-0.6170537	-1.168066	-1.2016655	0.66630965	0.29448074	0.0026207154	0.45610175	-0.44852376	0.2880232	0.6818675	0.0611033	0.46284217	-0.38921914	-1.6367865	-0.9419543	0.5470509	0.6861903	-0.4202507	-0.6026812	-1.6797264	2.4415975	-0.67325747	4.280847	-3.569397	0.14765657	-2.2863991	0.16299205	-0.29763675	-0.00097621966	-0.01209095	-6.2192416	0.20152412	-1.7691981	-0.40714827	-0.31556788	0.48841313	1.0402769	0.089097895	-1.1827939	0.639778	-0.7306942	-0.88005704	-1.5237614	0.6955053	-0.19277266	0.23753284	0.3853828	-1.3548853	0.639926	0.6837583	0.036365308	0.17059147	-0.50036	-1.3070422	-0.82693326	0.45092118	0.6733863	-0.45628574	-0.72962826	-1.7255709	2.5135663	-0.65379727	4.9366884	-3.6714344	0.48073173	-2.7907124	0.032398723	-0.24047671	0.012794278	-0.8005277	-6.391255	0.23061112	-1.5887265	-0.5700636	-0.87265825	0.47627756	1.2355973	0.91748476	-1.3459058	0.47384226	-0.7282182	-0.8134941	-1.7306832	0.7723822	-0.014336639	0.22336908	0.35169524	-1.5882102	0.57758254	0.36102998	0.12434658	0.11535457	-0.27461588	-1.127987	-0.7409543	0.31865102	0.7610319	-0.13340555	-1.0452899	-1.7718035	2.3698018	-0.8000567	5.7641487	-3.4927452	1.1629832	-2.5714684	-0.1635293	-0.021348128	0.06868144	-1.8030417	-6.518164	0.36303768	-1.4609702	-0.7524527	-0.45662963	-0.0019655281	1.2777299	1.808897	-1.3333058	-0.008355598	-0.5777789	-0.8476645	-1.7876984	0.820103	0.013391362	-0.032684214	0.20662332	-1.4420274	0.09174243	-0.19667965	0.49297008	0.20525089	0.1731666	-1.2334334	-1.0261759	0.18840678	0.7043515	0.2547104	-0.91264266	-1.9164423	2.106194	-0.7341922	6.443179	-2.5623922	1.5528392	-1.2378955	-0.40390328	0.076635465	0.13741031	-2.5027087	-6.772271	0.40345737	-1.350804	-0.65234256	0.15440668	-0.6434071	1.1646031	3.2812343	-1.1090678	-0.6601744	-0.14731956	-0.56531715	-1.6972355	0.54144377	0.21907496	-0.31627065	-0.052668817	-1.307724	-0.12219402	-0.2926626	0.8971869	0.18135157	0.08718407	-1.5187848	-1.1355757	0.6084045	0.33850858	0.27856278	-0.81070304	-1.6383492	2.1498675	-0.47049472	6.624554	-0.8143105	-0.22925876	-1.050854	-0.4332185	0.16059786	0.13649672	-2.5018091	-7.0871134	0.20319961	-1.9784006	-0.8303841	0.521547	-0.14283739	1.0028934	4.2686234	-1.3393214	0.09495459	-0.02731991	-0.7506215	-1.1906546	-0.102884494	0.17461067	-0.11779138	-0.095457114	-1.2776295	0.25563517	0.07951754	1.1430314	-0.058594108	-0.3183206	-1.878068	-1.3079096	1.4333191	0.3871369	0.22229162	-0.68557364	-1.457657	2.78223	-0.589017	6.406415	-0.05107644	-4.001841	-2.1400583	-0.40900204	0.18950376	0.10919787	-1.794864	-7.220506	0.021703467	-2.3545868	-0.38062647	0.17703892	0.68799824	0.5373888	4.7964187	-0.92109454	0.7713893	-0.6628492	-0.15516458	-0.78469205	-0.20665647	0.11324237	-0.018391173	0.47734305	-1.06622	0.53372854	0.69168687	0.9016075	-0.24762002	-0.67440206	-2.0632162	-1.3242145	1.7378378	0.39315167	0.22164972	-0.6689501	-1.4456887	3.0586958	-0.6205433	6.489544	0.83088565	-5.246739	-4.1186457	-0.45574287	0.1187801	0.11341576	-1.6774446	-7.363681	-0.07273031	-2.2304761	-0.2871769	-0.02973212	0.8512372	0.33841982	4.9837904	-0.7954821	0.95728266	-0.93842375	0.16396292	-0.5789114	-0.26276717	0.20101486	0.03361917	0.6451608	-1.1226197	0.5683986	0.98115	0.7642005	-0.3051086	-0.7865496	-2.0409496	-1.0553242	-0.88668597	1.3386251	0.31494325	0.0044455295	0.32639298	0.53082025	-1.477692	-2.5711696	-2.6197293	-0.50350434	0.9548055	-0.05532555	0.020126414	-0.003595768	0.71548355	-5.143061	0.5929813	1.138806	0.64859354	0.20133962	0.6539352	0.37065494	0.40641218	-1.6948801	0.7766465	-0.021125577	-1.0642687	-1.3540784	0.25847793	0.45373595	0.12622108	0.25762337	0.90855294	-0.123621285	0.39583918	-0.98384976	0.663214	0.24019046	-1.134638	-0.8077322	-0.48546076	0.9174287	0.20617637	0.20435922	0.5069378	0.6662943	-0.90688884	-1.2777224	-3.7048266	0.19908822	0.5038413	-0.03435536	-0.06799122	-0.069500886	0.27979538	-6.1302123	0.7325202	1.0176346	0.9775926	-0.0682414	0.46868402	0.25400308	-0.4923582	-1.7000543	0.7672785	0.18921562	-0.7144218	-2.0820065	0.11186718	0.2335829	0.31837478	0.23266943	0.85931677	-0.13915725	-0.15124547	-1.1475767	0.4130976	0.3906348	-0.89638	-0.72635204	-0.32041204	0.8573617	0.09793406	0.51257616	0.55808556	0.65591335	-0.79132426	-0.21478419	-4.2171526	0.7708438	0.35288873	-0.019512927	-0.059231482	-0.118858285	0.04532762	-6.4652486	0.81390864	1.0253029	1.0402511	-0.12670477	0.4426823	-0.016146177	-1.1129901	-1.9157343	0.70430136	0.4383851	-0.6428173	-2.304511	-0.06695629	-0.10170375	0.34917542	0.17493336	0.85744303	-0.24612245	-0.4766805	-1.1606296	0.3662973	0.68676084	-0.66971445	-0.68893117	-0.3605244	0.7671531	0.089763865	0.5088968	0.52353543	0.72761476	-0.69023085	1.4378161	-4.2480383	1.2930478	-0.18502657	0.04047744	-0.0982822	-0.12648489	0.070670344	-6.5879707	0.8179364	1.0675467	0.97702086	-0.16962048	0.29463956	0.0041533057	-1.8430156	-1.8156143	0.24264766	0.4919376	-0.5881003	-2.3584268	-0.050413806	-0.20740815	0.28989694	0.061078437	0.68863297	-0.2383743	-0.3773592	-1.0185009	0.32220006	0.7029476	-0.7378614	-0.68200797	-0.3012021	0.77388066	0.08363137	0.44871265	0.53361297	0.8322671	-0.6651939	3.132364	-4.3763256	1.8575095	-0.6445175	0.09652597	-0.10022361	-0.12685274	0.17721923	-6.6153407	0.81311744	1.0925341	1.0798116	-0.25827688	-0.11967371	0.11458795	-2.3097765	-1.7220945	-0.123118326	0.42742452	-0.54996186	-2.403185	-0.028592937	-0.4666626	0.31807622	-0.023164934	0.44423798	-0.18888266	-0.48659244	-1.0229093	0.2852713	0.63554066	-0.7966377	-0.69635296	-0.2636014	0.78754556	0.10065543	0.4316013	0.51584154	0.9418636	-0.6871421	4.774374	-4.3811774	2.3142028	-0.945388	0.13287678	-0.072852574	-0.11268574	0.33144394	-6.5851016	0.79505396	1.1810954	1.0672514	-0.376957	-0.5637629	0.15989059	-2.1245124	-1.8056751	-0.68392384	0.46746403	-0.52554405	-2.3498797	-0.057903152	-0.74423945	0.33177754	-0.07709607	0.14602523	-0.1949847	-0.48443252	-0.97325474	0.28185436	0.6141762	-0.7172361	-0.7529682	-0.1921989	0.8622681	0.23115915	0.39735252	0.52099574	0.9862189	-0.7382689	6.034974	-4.3501935	2.3060267	-1.5871783	0.16840723	-0.084629215	-0.08856411	0.6396059	-6.5574164	0.7422301	1.2477008	1.1381819	-0.5364155	-1.1623974	0.12073747	-0.776506	-1.8566376	-1.3520052	0.60661876	-0.3307289	-2.2918632	-0.08210322	-0.8893363	0.29603416	-0.26850063	-0.19394794	-0.26202458	-0.44310462	-0.89256364	0.16247852	0.666912	-0.7305556	-0.77275556	0.12336374	0.734257	0.21980384	0.36340833	0.52185595	1.2793384	-0.63370246	6.677515	-3.937495	1.8253051	-5.3205934	0.081257984	-0.17614418	-0.03411014	0.30874565	-6.701901	0.60772145	1.3772109	1.3459857	-0.6292172	-1.8030643	0.07662748	1.9110173	-1.6727962	-1.5312389	0.5592148	-0.35579282	-2.2139606	-0.45489472	-0.6604049	0.22053829	-0.70000196	-0.8358915	-0.23267573	-0.47846234	-0.7025605	-0.14333321	0.60978895	-0.9705437	-0.7478017	0.66817415	0.7985663	-0.06070265	0.38065833	0.62414795	2.122558	-0.65696704	6.605594	-3.5603936	1.0376586	-7.030512	-0.10453779	0.05423099	0.13299732	-0.14355601	-6.8287086	0.6514435	1.5275258	1.3077183	-0.45317468	-2.0705392	0.35247263	4.3027897	-1.3758503	-2.0529199	0.1478565	-0.76622313	-2.3841305	-0.38930702	-0.2665076	0.23739594	-0.98945546	-1.9335954	-0.099420704	-0.6377446	-0.6188072	-0.07503942	0.28742483	-0.7275228	-0.52826566	0.14432871	0.8303305	0.08603245	0.15649988	0.7189088	2.202761	-0.6368544	6.265872	-4.024899	0.18942492	-4.6553464	-0.18345007	0.0034150863	0.12647988	0.25809336	-6.761641	0.47860485	1.2594637	1.2784399	-1.5317961	-1.5914397	0.98366576	5.0422816	-1.7578344	-1.589625	0.5703978	-0.2602863	-2.5073366	0.09681972	-0.13346806	0.49395156	-0.8438853	-2.2352624	-0.4899567	-0.85166043	-0.80057526	-0.2848807	0.9630789	-0.3816808	-0.5191665	0.12582357	0.8462009	0.35830063	0.18728916	0.68933564	1.9282762	-0.71498996	6.755433	-3.6142447	-0.0064955186	-4.460494	-0.24814111	0.09008267	0.09874738	-0.09943634	-6.847621	0.600428	1.3671062	1.3511405	-1.5172493	-1.6041493	0.8768265	4.9414062	-1.8584136	-1.5358567	0.5570415	0.013712835	-2.5366344	0.014719189	0.29280365	0.44707856	-0.72613853	-1.8221542	-0.85315263	-0.8166105	-0.74836355	-0.19007578	1.3318835	-0.5054753	-0.64179903	0.30973345	0.90183634	0.30818167	0.30361903	0.6201434	1.9181558	-0.76006395	7.9587526	-2.6117227	-0.36011177	-1.9783016	-0.43036085	0.08150037	0.12782887	-0.68457896	-6.858398	0.60987484	1.3975441	1.4351764	-1.3411103	-1.8366452	0.69124186	4.9612336	-1.8216078	-1.7355527	0.6205694	0.18510546	-2.6040835	-0.10707966	0.62764734	0.49826017	-0.62113863	-1.7103797	-0.78345907	-0.7929203	-0.85414433	-0.21447924	1.14379	-0.4952479	-0.66238636	0.45256642	0.7583388	0.1530677	0.4112848	0.611161	2.0759084	-0.70693934	7.9365783	-1.28295	-0.25246534	0.93374205	-0.3747289	0.007754979	0.08323653	-0.55925626	-7.0877914	0.43560869	1.4657619	1.4787639	-1.1540565	-1.5996705	0.53923297	5.269368	-1.9854758	-1.9561204	0.56394887	0.11301217	-2.0737164	-0.26964337	0.26622853	0.4858899	-0.58622247	-1.9344918	-0.5623694	-0.5310343	-0.82853353	-0.19201176	0.9082363	-0.43038502	-0.71290004	0.5285685	0.68101484	0.17845894	0.5137245	0.627045	2.3290203	-0.6329885	6.698595	-0.70397866	-2.376082	-0.22698885	0.090915926	-0.028770186	-0.08939268	0.43398303	-7.2431355	0.24452135	1.5727624	1.5353608	-0.93861574	-0.4763947	0.35183385	3.6173434	-1.9921409	-0.47804812	0.47226846	0.4428584	-1.563322	-0.37178934	-0.45150718	0.49521735	-0.19202355	-1.6079663	-0.51628023	-0.14230576	-0.8707052	-0.16297069	0.81941795	-0.41918254	-0.73762554	0.46524066	0.70728266	0.378349	0.48819518	0.57523745	2.5000148	-0.6426617	6.4576383	-0.3078092	-4.154688	-1.1735382	0.21522877	-0.041401006	-0.12235778	1.0657874	-7.29378	0.11019295	1.6875099	1.5822287	-1.1812004	-0.055974405	0.39865404	3.5461388	-2.0568042	0.021273183	0.5845926	0.92848337	-1.3673848	-0.35922563	-0.51647305	0.5257613	-0.051758982	-1.6536338	-0.66518867	0.09845528	-0.8678598	-0.2539147	0.86921775	-0.37635535	-0.74414307	0.4567518	0.6667661	0.42085224	0.4675568	0.5595634	2.5591426	-0.61232466	6.4446416	0.40901527	-4.6265626	-1.6159693	0.2373909	-0.05051117	-0.13599104	1.2342497	-7.378121	0.026308436	1.709646	1.6005424	-1.225441	0.07408376	0.41170222	3.5022733	-2.1123595	0.167737	0.58804655	1.0086637	-1.1561849	-0.36143193	-0.5802629	0.5336519	-0.014467408	-1.7320681	-0.68778944	0.23200534	-0.8646102	-0.26492497	0.8522914	-0.38064325	0.018334992	0.20076716	-0.013723055	0.06276937	-0.12501274	0.05795262	-0.012147349	0.017013071	0.03136338	0.04129466	0.010314248	0.010061514	0.008335225	0.02080756	-0.002698794	0.037566945	0.02643238	-0.042111255	0.10046691	-1.1210705	-0.012253919	-0.008734203	0.16359171	-0.016875995	-0.24343307	-0.14895621	-0.047512066	-0.115011096	0.023155423	-0.78270054	0.005848761	-1.5113009	-0.21777847	-0.13131401	-0.041402828	-0.038660362	-1.5901229	-0.017091654	0.012921551	-0.017910572	0.16438045	-0.5040227	0.033543948	0.049653072	-0.11380635	-0.09716739	0.09466083	-0.025781479	0.019294357	0.042934366	-0.013044253	0.0141993975	0.012362558	-0.051032864	-0.0040983236	0.035694443	0.00575434	-0.099763915	0.36729315	-0.9465927	0.103632055	-0.008556053	0.14664522	-0.011951638	-0.36526603	0.036931176	-0.038206507	-0.16092008	0.0111927325	-0.60130805	0.028747804	-1.2502943	-0.26474324	-0.26668456	-0.042798437	-0.012635827	-1.5003332	-0.06984104	0.057564676	-0.43375608	0.25659832	-1.3266088	0.06654266	0.16222557	-0.35480395	-0.1701404	0.34254217	-0.046392377	0.017302059	0.11923938	-0.06616094	-0.010706805	0.021031117	-0.012340041	0.007970791	0.12991184	-0.020693744	-0.2151712	0.6942877	-0.87141734	0.089692675	0.24408793	0.23862949	-0.017031178	-0.656199	0.17241852	-0.04148177	-0.26769918	0.04517972	-0.54871356	0.08721797	-0.8077173	-0.2987343	-0.20799433	-0.09580174	-0.02394396	-1.042	-0.19337791	0.04873815	-1.3103927	-0.47821358	-1.7970324	0.24124566	0.49849355	-0.9183599	-0.14189503	0.6865481	-0.17849761	-0.07842995	0.20132427	-0.22347376	-0.10267281	0.029692426	0.17283279	0.08030825	0.45458815	-0.16101098	-0.25387415	1.0170743	-0.46977648	-0.33060598	0.39065835	0.8588105	0.0027150798	-1.2827247	0.3422734	-0.22698514	-0.6440145	0.010111995	-0.38551095	0.20583797	-0.17243126	-0.25845602	-0.0331682	-0.22905949	-0.09644656	-0.7586175	-0.070166074	-0.044580154	-1.9207036	-1.4420714	-1.8940912	1.1252648	0.5234114	-0.5305002	-0.20034501	0.7503606	-1.2791349	-0.5428661	-0.23961298	-0.46569034	-0.20203304	0.024604218	0.19668059	0.09307574	0.56694824	-0.74946344	0.08488599	1.3729553	-0.27252433	-0.19141547	0.096960135	0.9595265	0.15294869	-1.5602567	0.15215588	-0.112278245	-0.86283636	-0.39943436	0.31113273	0.35032746	-0.178206	-0.060063712	0.32738575	-0.2799058	0.20248969	-0.5811644	0.5264851	0.13987955	-1.5014473	-1.5194727	-1.7058617	1.598313	0.5997644	-0.541018	-0.007945093	0.7382507	-1.8389508	-1.1320826	-0.7358045	-0.76710355	-0.26411107	0.03041831	0.12048315	0.11233724	0.7911043	-1.7238101	0.30848953	1.1244227	-0.022954892	-0.09421114	0.16730472	1.0082502	0.30841294	-1.4278926	0.058242355	-0.14430334	-0.90047604	-0.8636877	0.5879727	0.61162835	-0.16544919	0.06815367	0.5355116	-0.22627348	0.50883067	-0.49358037	0.6510418	0.16508934	-1.4783678	-1.463241	-1.587246	1.7111961	0.555124	-0.4701478	0.0072975615	0.6309832	-1.9985102	-1.3130945	-1.2023947	-0.663568	-0.11290786	0.024163838	0.05895094	0.07421462	0.81842786	-2.9162345	0.53576875	1.2366551	0.36600712	0.034359224	0.12084016	1.0303088	0.23063575	-1.215688	0.08184154	-0.18931462	-0.92035615	-1.3274647	0.6378225	0.8355015	-0.11056221	0.14418033	0.7640309	-0.13177927	0.77104145	-0.63858795	0.7235079	0.10593623	-1.4922466	-1.2642297	-1.3766948	1.4064093	0.34432253	-0.34772936	-0.13195856	0.6955282	-1.6606845	-0.42455104	-1.5368632	-0.057151772	-0.05580944	0.010534944	-0.08827641	0.03325357	0.61794937	-4.1977663	0.77055806	1.4273523	0.5954586	0.33144063	-0.17069635	1.0109711	-0.3169938	-0.8839718	-0.015045817	-0.27836385	-1.0602779	-1.8176891	0.5567699	0.8223657	-0.11322801	0.07006025	0.64499855	0.061127808	1.0124205	-0.6771267	0.74037915	0.005144856	-1.5198023	-0.9720312	-1.2487001	0.84517425	0.15962194	-0.3226399	-0.45459053	1.3631667	-0.85994047	1.2895325	-3.3147357	0.28311607	-0.1077299	0.066240214	-0.21539722	0.020226447	0.893903	-5.715108	0.6762102	1.8092269	0.5691806	0.1397209	-0.2758445	1.2538944	-0.23485483	-0.6195043	-0.1230396	-0.24904178	-0.86675566	-2.1463146	0.54994833	-0.23178914	0.0011537782	-0.098728016	-0.21647488	0.242481	0.8969982	-0.6775741	0.45947155	-0.2055246	-1.276355	-0.5970697	-1.5296626	0.6028684	0.4400202	-0.5169156	-0.22580433	1.499348	-0.5205313	2.6901343	-4.802165	-0.11697303	-3.5684266	0.112033024	-0.25301886	0.02502092	0.55948085	-6.262743	0.58204216	1.8995466	0.7203861	-1.0863072	-0.23419164	1.6871802	1.2721331	-1.0879773	-0.19559106	0.046726298	-0.47788543	-2.343306	0.6736463	-0.5003178	-0.10833234	-0.59868366	-0.9441311	-0.01966725	0.44871303	-0.2904936	0.18885355	0.10593399	-0.9670037	-0.7399401	-1.1270767	0.63358736	0.5546491	-0.4157564	-0.262563	1.456614	-0.566435	4.0367594	-4.9779963	0.012069744	-4.816117	0.06666965	-0.08355361	0.03044985	-0.46421504	-6.4365835	0.66472477	1.9525683	1.0270102	-1.048747	-0.7422782	1.5546483	2.0577679	-0.9563346	-0.842867	0.06767837	-0.1310393	-2.427579	0.53277415	-0.24986638	0.09690011	-0.4157708	-0.8332649	-0.19029294	0.19322333	-0.6369161	0.29251266	0.10759838	-1.153293	-0.75008607	-0.98035944	0.77931523	0.59908575	-0.44041497	-0.19722062	1.4861294	-0.6706237	5.5207725	-4.4325633	0.43086037	-3.7059784	-0.06797074	-0.2705474	0.048101548	-1.6630337	-6.558298	0.5227586	1.9238726	1.2675791	-1.1436616	-1.251969	1.4804271	3.142709	-0.9778488	-1.2641379	0.12949373	-0.0759588	-2.406033	0.34075814	0.09956909	0.15371023	-0.5026108	-1.0794017	-0.08564074	-0.06286369	-0.7810074	0.013743219	0.083613575	-1.1380863	-0.74714833	-0.7830637	0.6091427	0.5045449	-0.42483565	-0.20187958	1.541185	-0.6662732	6.157017	-3.1617897	0.65284497	-2.4890006	-0.28510135	-0.18920372	0.10470485	-2.528003	-6.747638	0.4637723	1.9100375	1.3300778	-1.0920985	-1.6481833	1.4541454	4.5920334	-1.1232961	-1.4843308	0.10467209	-0.30640838	-2.1237414	0.227918	0.18968943	0.17087096	-0.64104635	-1.5070013	-0.11571457	-0.10720493	-0.784344	0.04124595	0.12924205	-1.1563628	-0.79917556	-0.60634446	0.5677105	0.39281422	-0.31867197	-0.35375226	1.9209547	-0.61185026	5.914707	-2.1024075	-2.1340344	-2.0081928	-0.32621542	-0.20408131	0.10422654	-2.337334	-6.9441996	0.3276705	2.2113874	1.3075715	-0.59825706	-0.8007317	1.2611872	5.0597587	-0.8939472	-0.72975945	-0.18260507	-0.4017494	-1.7043159	0.029684767	0.059722755	0.09120889	-0.51317513	-1.5120462	-0.012461001	0.22086588	-0.7528175	0.1195494	-0.13820983	-1.2119501	-0.7485717	-0.29481402	0.63792	0.23371372	-0.19363633	-0.17530462	2.5964673	-0.6546442	5.889336	-2.4671352	-5.367031	-3.6214669	-0.37869638	-0.19689822	0.15191497	-1.3612822	-6.8679066	0.32745188	2.3259208	1.3635218	-0.6596925	-0.40822482	1.3877182	5.4343224	-0.6929632	-0.4181083	-0.31581205	-0.08444664	-1.8446274	0.031227421	0.14669093	0.17873931	-0.4082248	-1.9435321	-0.079397716	0.5161414	-0.70802253	0.087893456	-0.07464251	-1.0518954	-0.7322369	-0.21152091	0.6356368	0.24113657	-0.21245661	-0.17458397	3.05461	-0.6596424	6.254924	-1.1062995	-5.10228	-4.060677	-0.13338627	-0.21952975	0.06266471	-1.0145121	-7.018988	0.16568407	2.4615552	1.4169562	-1.038907	-0.7443069	1.6305761	5.196972	-0.7121199	-0.6016139	-0.29026908	0.29708347	-1.5934856	0.095743276	0.120560266	0.24401584	-0.45655692	-2.6553683	-0.14897475	0.5805333	-0.6288153	0.0071938056	0.059740555	-0.9964217	-0.06612538	0.7348818	0.000594111	0.027021123	-0.060507245	0.13085331	-0.018968938	-0.0020303386	0.004069073	0.012704334	0.009444112	0.005257472	-0.003278034	0.024785137	0.007546085	0.0045199026	0.0042413166	0.00822421	0.28153473	-1.052747	-0.6866575	-0.2652666	0.01724435	-0.00082382903	-0.17024317	-0.10347712	0.026635403	-0.036289226	0.020381797	-0.52143836	-0.0035876285	-1.4939308	-0.45984903	-0.30729792	-0.017325154	-0.015928008	-1.449177	-0.004732426	-0.04050345	0.05241559	-0.062180724	0.6479525	0.012041085	0.048294302	-0.04396493	0.11352616	-0.047801238	-0.016255833	0.022641962	0.01165204	0.008284988	-0.019444222	0.004325755	0.034812797	-0.010811716	0.018602427	0.01929257	0.01057423	0.23373903	-0.98745966	-0.52503556	-0.15696923	0.100720145	-0.009903721	-0.099056326	-0.14724651	-0.058443833	-0.065445736	-0.0026613148	-0.63438475	0.005243434	-1.4919314	-0.33139384	-0.1920054	0.010972233	-0.009226887	-1.5675529	0.018732566	-0.06358436	0.024665115	-0.08078056	0.62986237	0.025860729	0.07375344	-0.030499304	0.07052444	-0.07585529	-0.053167474	0.022597939	-0.009645888	0.012245872	-0.008858592	0.012227695	0.08989237	-0.026084522	0.017150953	0.02911593	0.012848621	0.18630017	-0.99648494	-0.40667138	-0.1453162	0.10487143	-0.011049505	-0.08831762	-0.1609312	-0.04197463	-0.07932629	-0.0081159985	-0.6324935	-0.012608347	-1.5163758	-0.32473132	-0.1932573	-0.0531025	-0.027563728	-1.6116126	0.02759425	-0.036187805	0.022877816	-0.04795422	0.5916033	-0.0030062408	0.0664955	-0.09866907	0.09173114	-0.07736115	-0.0026774853	0.025064392	0.015969113	0.007926902	-0.0023496475	0.007581733	0.043644875	-0.008225708	0.032272637	0.029186388	-0.0027749136	0.16267036	-1.0985436	-0.37010056	-0.15464295	0.10719741	-0.013138979	-0.13372608	-0.021319607	-0.021481635	-0.09298599	0.016641881	-0.71674937	-0.0071102567	-1.5465089	-0.33776847	-0.20204924	-0.04246724	-0.036178607	-1.5428731	-0.0060402285	0.010334024	-0.014023004	-0.013249901	0.4860995	0.005256196	0.062414356	-0.10600289	0.09669722	-0.04994552	-0.0030937938	0.026923595	0.021271387	0.00860672	0.0034638073	0.0045159506	0.022960396	-0.0006575999	0.032694664	0.027555306	-0.013528425	0.1514283	-1.1359375	-0.2985206	-0.04935039	0.12941484	-0.014543239	-0.1403135	-0.028119063	-0.02859137	-0.092633195	0.016844163	-0.7776649	-0.0052675093	-1.5425134	-0.31923625	-0.15074027	-0.041754983	-0.038543947	-1.467762	-0.014544975	0.013684494	-0.08526896	0.017660487	0.36832008	0.024213215	0.075436875	-0.09248169	0.06996166	-0.027040306	-0.025416302	0.02279526	0.008910038	0.009007067	0.014346312	0.0041702045	0.0113193495	0.003922464	0.027416045	0.023819229	-0.020061798	0.16050313	-1.1632245	-0.2827483	0.012989044	0.13025886	-0.01302039	-0.15555727	-0.06909874	1.4778241e-05	-0.093255624	0.014268634	-0.72642154	-0.010181185	-1.5363197	-0.37413326	-0.16983199	-0.062692784	-0.041316558	-1.3788441	-0.03271184	0.031152017	-0.22815324	0.10043963	0.015555552	0.07529699	0.0374389	-0.02201625	0.00891651	0.08433533	-0.078990914	0.007366425	-0.016228084	0.004755791	0.021677153	0.0052684722	-0.07043018	0.0014856601	0.00026197653	0.0064438353	-0.02456027	0.22636437	-1.0528427	-0.1464082	-0.045233544	0.057225257	-0.006612759	-0.1301213	-0.13282251	-0.044721115	-0.08700152	-5.6928453e-05	-0.4649926	-0.011345914	-1.4406743	-0.34892485	-0.24202448	-0.0136906635	-0.019827023	-1.2455918	-0.058033127	0.046094026	-0.4362996	0.26158294	-0.659938	0.11134079	-0.032072216	0.0024468498	-0.1089361	0.29932794	-0.10366827	0.0022942817	-0.011697658	0.0065367296	0.04668165	0.0052083554	-0.1938261	0.0013168443	-0.020116884	-0.008418264	-0.056280974	0.44907397	-1.0515207	0.0812522	-0.17615697	0.018224647	-0.004298197	-0.177593	-0.028995363	-0.16278888	-0.107830346	-0.006404602	-0.26156276	-0.0074651265	-1.2364476	-0.2760143	-0.41223362	0.01787923	-0.011076386	-0.9666002	-0.10381794	0.054300055	-0.825799	0.14527506	-0.96627605	0.013287708	-0.030057319	-0.4269727	-0.0021578036	0.6204546	-0.0029529072	0.06703291	0.16367684	0.026384858	0.056081273	0.013207438	-0.16862653	0.01036585	0.10329781	0.049014866	-0.095872164	-0.03842018	-1.3250786	0.6071585	0.08445583	0.046976916	-0.038958095	-0.38468623	-0.1412941	-0.045207307	-0.1744029	0.14401762	-0.13774392	-0.0109771695	-1.2259867	-0.41352156	-0.43981993	0.021114837	-0.12481053	0.13741164	-0.17522678	0.031305432	-1.7148552	-0.41434848	-0.64788646	-0.06722578	0.060210597	-0.8268612	0.07313854	0.95012933	-0.028271139	0.17695914	0.29179552	0.03381699	0.019763736	0.021048002	-0.19255465	0.044976763	0.27241495	0.18587308	-0.10213926	-1.0800955	-1.1719576	0.87078524	0.08533584	0.49421775	-0.09213447	-0.60604906	-0.08388674	-0.14562052	-0.36078	0.21282162	-0.12833802	-0.036134236	-1.0586184	-0.31864816	-0.5395244	0.021201987	-0.3015523	0.6809821	-0.084448814	0.049890734	-2.1251016	-0.7631572	-0.2594481	-0.09326425	-0.008455295	-0.58380896	0.06290878	1.3381277	-0.13248625	0.15553269	0.20201907	0.028460111	-0.0040132445	0.018871564	-0.3320389	0.04041186	0.21168797	0.1793102	-0.045618284	-1.4559885	-1.0864286	0.6722753	-0.083305545	0.5090298	-0.080150716	-0.5476957	-0.04674987	-0.42275274	-0.300183	0.1261841	0.053102188	-0.04815129	-0.9069631	-0.1631078	-0.7166083	0.14649129	-0.25487712	0.7440251	0.05235003	-0.01243684	-2.1678169	-1.1645314	0.1171369	-0.110921785	-0.1091687	0.21138272	-0.083320715	1.7991244	-0.3247485	0.05125825	-0.10908344	0.019494278	0.019722242	0.0014946028	-0.5441534	0.022910409	-0.035967708	0.090670384	0.004009474	-1.6886542	-0.81151074	0.124664634	-0.115545236	0.36987907	-0.029970216	-0.37507787	-0.09041091	-1.0509869	-0.06771661	-0.10904215	0.4706048	-0.07019895	-0.7012923	0.11265	-1.0108621	0.2844195	-0.07683306	0.6016277	0.22152045	-0.107295126	-2.073593	-1.4988055	0.47933587	-0.04918789	-0.19988778	0.5800816	-0.12435941	2.37439	-0.6583462	0.022275701	-0.24103819	0.03604433	0.023387002	-0.009969547	-0.6610086	0.0046770615	-0.19713816	0.06357581	0.022477908	-1.7108853	-0.79438025	-0.17694464	-0.13260242	-0.034553465	-0.012375277	-0.22377694	-0.13283496	-1.5312502	0.11049539	-0.1373124	0.70006907	-0.07644592	-0.5472888	0.2747486	-1.1984926	0.52678585	0.043645125	0.54197437	0.19433053	-0.17536832	-1.9454952	-1.7841883	0.66091985	-0.006247956	-0.32409847	0.8752059	-0.24472092	2.6252875	-0.881015	-0.024878237	-0.40394673	0.023154803	0.0105136195	-0.026911905	-0.96105796	0.006521721	-0.33904612	0.033046827	0.05409165	-1.7315276	-0.5681936	-0.4131112	-0.13454776	-0.59736145	0.010367289	0.14897701	-0.012136471	-1.939366	0.20782627	-0.13121259	1.1336648	-0.09489966	-0.54294497	0.3750144	-1.6262448	0.9047114	0.15793239	0.17601047	-0.0457428	0.015906053	-1.658076	-1.7922554	0.54832613	-0.009951944	-0.58800685	0.6414065	-0.27312046	2.5961592	-0.90715855	-0.03130765	-0.33253556	-0.01209221	-0.021203207	-0.013683768	-1.3257889	0.0021714321	-0.26023942	0.033066697	0.074898854	-1.57587	-0.44707984	-0.28553075	-5.0000715e-05	-0.9014707	0.009804413	0.44428355	-0.017540881	-2.1935072	0.0756252	-0.034627065	1.3661392	-0.08697311	-0.686883	0.40069535	-1.8674303	1.2297859	0.16436951	-0.12755921	-0.24151891	0.39775723	-1.3129886	-1.7812518	0.7481633	-0.056875456	-0.8062083	0.43493304	-0.19550492	2.6970367	-0.8766391	-0.052384447	-0.27520692	-0.03951845	-0.03679845	-0.011270089	-1.5804708	0.0057008704	-0.219058	0.017121173	0.07686	-1.3474998	-0.6099899	-0.06145531	0.016540015	-1.2615411	0.016708205	0.7692915	0.048452426	-2.218754	0.07863874	0.06527176	1.2996007	-0.0808767	-0.8125736	0.2854317	-2.0606172	1.3114791	0.16934393	-0.17881604	-0.29390115	0.605036	-1.3147693	0.04588798	0.638176	0.015929624	0.13418612	-0.18825613	0.103444524	0.0121517135	-0.039910544	0.016780864	0.08493563	-0.11950316	-0.21405959	0.023347126	0.020934844	0.012198348	0.054558843	0.016282095	-0.10020402	0.27798086	-0.87027365	-0.7655415	-0.26557732	0.09859308	-0.007759015	-0.20237382	-0.1755712	0.012597728	-0.10948312	-0.13905673	-0.4848124	0.14741471	-1.2578	-0.44251776	-0.15195234	0.03063584	0.07870549	-1.2876087	-0.058455657	-0.09090005	-0.20692644	0.22862072	0.5995366	0.0053660665	0.27197665	-0.32338122	0.18943006	0.1142322	-0.06825557	0.007953208	0.17490026	-0.43057325	-0.71867263	0.078142576	-0.029599667	0.00647721	0.07981558	0.033536796	-0.29346642	0.34160745	-1.2361901	-1.0102793	0.045694828	0.15195803	-0.008323484	-0.29113385	-0.071751125	0.0050067483	-0.12595677	-0.7108126	-0.530571	0.507814	-1.2216586	-0.5033776	0.032385495	0.06667336	0.34606466	-0.91225535	-0.1522654	-0.1895433	-0.4287388	0.33524305	0.6116883	-0.072579145	0.2988482	-0.35111606	0.21743098	0.19308656	-0.04332663	0.015042729	0.20318869	-0.80424803	-1.2253897	0.14828488	-0.07312457	0.0071134213	-0.101745464	0.10399419	-0.7440744	0.32567903	-1.3716568	-1.0248295	0.06517385	0.13432698	-0.033841528	-0.26598525	0.31405666	-0.05434792	-0.23737668	-1.7673498	-0.4939756	0.8970579	-1.0593464	-0.41838017	0.28365406	0.13658074	0.5072614	-0.7723261	-0.0930894	-0.34211135	-0.49456424	0.30236185	0.6581473	-0.17210938	0.21158305	-0.20235474	0.19360198	0.20010331	0.042105503	0.10751044	0.01782032	-0.9044749	-1.127449	0.17539269	-0.10373263	0.0144981155	-0.4673246	0.19908077	-1.3690033	0.32653594	-1.4618806	-0.8263282	0.26949564	-0.059588224	-0.111860394	-0.23108396	0.5391464	-0.14875504	-0.34492847	-2.7449274	-0.42333698	1.0610663	-0.9437091	-0.27118286	0.57037425	0.17093381	0.44924203	-0.6605513	-0.0018226185	-0.41872454	-0.41185945	0.25227952	0.74412644	-0.24534133	0.020566422	0.006367338	0.15445386	0.19596533	0.09898072	0.32657072	-0.049391564	-0.63306916	-0.658693	0.1356213	-0.09847316	0.025292449	-0.84170145	0.25455418	-1.7464805	0.3630241	-1.5029427	-0.6403399	0.37603223	-0.22117054	-0.21788223	-0.15836371	0.43159738	-0.17241578	-0.3676232	-3.588526	-0.36959437	1.2272696	-0.8298467	-0.18235418	0.7517251	0.23816785	0.44240308	-0.6164309	0.086903155	-0.40422866	-0.37294206	0.29805437	0.5998367	-0.17475869	-0.17645453	0.107551895	0.13999261	0.16810864	0.07171893	0.5226102	-0.25829333	-0.13858794	0.3699738	0.073912494	-0.10811894	0.03019561	-1.0527872	0.38778833	-2.1092932	0.45593357	-1.3989551	-0.40062603	0.3574771	-0.32248634	-0.30218905	0.08601349	0.4531272	-0.17104353	-0.40029916	-4.311796	-0.36925203	1.1987815	-0.8019383	-0.16700126	0.8393868	0.31950438	0.3497306	-0.66742843	0.090335056	-0.28340423	-0.3061749	0.26077813	0.40157026	-0.16098244	-0.2866319	0.21785836	0.008533181	0.2532367	0.09384477	0.7635756	-0.36543307	1.0162083	2.4788308	-0.09015323	-0.0754	0.08102097	-1.2013284	0.42533368	-2.4243634	0.37675935	-1.0750204	-0.266542	0.022850256	-0.2817033	-0.38323146	0.29714447	0.030684076	0.06360917	-0.2025173	-4.8803353	-0.24291646	1.0217261	-0.65010476	-0.097513296	0.62294346	0.22030026	0.2414997	-0.85333633	0.049185526	-0.14557984	-0.31626254	0.21314211	-0.085122354	-0.12473944	-0.307728	0.24851367	-0.27338135	0.39833578	0.056785926	0.95988816	-0.1865398	2.600214	4.176526	-0.23204269	-0.023927528	0.12326096	-0.9747898	0.43436205	-2.728831	0.5465591	-0.86881936	-0.26821828	-0.3341443	-0.07232552	-0.22500685	0.3883407	-0.50455624	0.2712102	0.108490154	-5.1371565	-0.06089991	0.5569074	-0.48561633	-0.03217848	0.19579273	0.05547546	0.17622636	-1.0632781	-0.013562745	0.06433445	-0.26442468	0.27746496	-0.86192334	-0.09373242	-0.20232804	0.01426502	-0.3418998	0.70116675	0.04652713	0.4281143	0.6440661	3.1028988	-4.1177893	-0.24497087	-0.047412034	0.11757326	-0.2764074	0.36109883	-3.107056	0.7451965	-1.2989691	-0.23261085	-0.26061565	-0.03807015	0.32379746	0.12130516	-0.35140973	0.65435326	0.43615738	-4.7774496	0.4449499	-0.34887797	-0.818115	-0.29086104	-0.38875312	0.00087132433	0.21375081	-0.5675139	-0.20270304	0.13973755	-0.16573326	0.12969579	-0.8037261	-0.12934276	-0.08588599	-0.34725448	-0.04263486	0.8471265	0.050680492	0.21767311	1.4849488	1.9734097	-15.285762	-0.16326371	0.09598598	0.09311408	0.2687051	0.2880594	-3.3665397	-0.35725138	-1.3195782	0.3774308	0.1080646	-0.20207337	0.06866447	0.13117483	0.025565578	1.3850645	0.8832023	-4.363329	0.69300187	-0.59955215	-1.3182572	-0.44664606	-0.3844916	-0.049568836	0.30529094	0.16589856	-0.4431435	0.14409176	-0.25311774	0.10782442	-0.89482474	-0.16414744	-0.13022973	-0.35899776	0.0002564873	0.94938385	0.0649634	0.15540321	1.8295119	1.4845115	-17.593618	-0.12720197	0.13358966	0.077262126	0.5050288	0.23507406	-3.4406767	-0.6722022	-1.2829025	0.6496275	0.14108048	-0.24235557	0.0024769267	0.2475816	0.075545736	1.5562458	1.0319008	-4.2716465	0.6967722	-0.6544993	-1.3334442	-0.4088458	-0.36461884	-0.071094714	0.38991243	0.28047046	-0.44905275	0.11543392	-0.38400406	0.00108416	-0.9477594	-0.19226007	-0.16172391	-0.47192192	-0.039591376	0.9669257	0.09438826	0.18664874	2.2635882	1.0931934	-19.131144	-0.10136004	0.26568338	0.07339637	0.79356205	0.21143724	-3.519642	-1.3671043	-1.0741426	1.1329279	0.2295166	-0.18878777	-0.11923617	0.36381632	-0.06512743	1.8489947	1.0803932	-4.1264577	0.77762496	-0.6858389	-1.1603861	-0.139833	-0.22784992	-0.116465956	0.45703995	0.07703772	-0.4392763	0.10834242	-0.5510381	0.028725544	-1.3420225	-0.21858378	-0.19460393	-0.26291946	-0.21215099	1.0099387	0.12338469	0.14697425	2.4818606	0.6853191	-20.153503	-0.07981099	0.21270122	0.07708469	1.04602	0.13442703	-3.645677	-2.0773466	-0.49181852	0.9048413	0.48490012	-0.012966258	-0.19157963	0.294038	0.31158072	1.8902969	1.16898	-4.1068473	0.7466213	-0.72420377	-0.9835979	0.02731745	-0.6150588	-0.049370583	0.5930597	0.018373255	-0.49864605	0.028281115	-0.6867178	0.06760799	-1.5682477	-0.25560617	-0.64696956	0.3600308	-0.26104847	1.6721671	0.13411097	0.08670632	2.7104821	0.44489822	-20.733156	-0.07365695	-0.06790658	0.05550486	1.0220718	-0.049539756	-3.773199	-2.0903807	-0.26109758	-0.14861342	0.5864224	-0.27738985	-0.18905948	0.43978685	0.9393758	1.159613	1.3293515	-4.142217	0.81537825	-0.67277247	-0.79028106	0.17218189	-1.3554089	0.5227526	0.9017339	0.15081437	-0.46691915	-0.49381462	-0.61926544	0.12427623	-1.6290963	-0.15128472	-1.0315262	0.27523136	-0.22180615	2.5255678	0.034410004	0.16762182	3.1052203	0.28661805	-21.310978	-0.05564658	-0.23958519	0.04164009	1.14898	-0.116779074	-3.8140574	-1.6906126	-0.06503054	-0.842669	0.7516142	-0.9308468	-0.2474816	0.65201324	1.0250683	0.02650606	1.3401918	-3.9248714	0.97933805	-0.5251294	-0.89781463	0.27663007	-1.6639602	1.2446312	1.1312445	0.4032835	-0.6387026	-0.902384	-0.43995714	0.137006	-1.5476245	-0.0444962	-1.1527686	0.11825064	-0.23620616	2.9230285	0.001762255	0.04031811	2.7181752	0.12223998	-21.52922	0.012801172	-0.4028339	-0.015047497	1.2135553	-0.07956714	-3.8142447	-1.2994248	0.036905214	-1.1159714	0.8707274	-1.0099378	-0.17696151	1.0628053	0.9073359	-0.3775684	1.860698	-4.101963	0.94324064	-0.5473512	-0.90989846	0.41274408	-1.5070342	1.4044843	1.0037242	0.34833717	-0.8873498	-0.8295983	-0.39602494	-0.12637237	0.8911726	-0.049321435	0.12280864	-0.118981384	0.22588134	-0.110364266	0.035391465	-0.0038145033	-0.0075120656	-0.005015118	0.0035715739	-0.0040532667	0.03888081	0.014822663	0.019527404	-0.007969213	-0.036712263	0.36320788	-1.1706494	-1.0763434	-0.22184403	0.012810798	-0.00010670228	-0.25022838	-0.21964899	-0.04208685	-0.08627388	0.027226318	-0.2677703	0.0076964716	-1.4428762	-0.62175715	-0.49188405	0.050153095	-0.03353375	-0.85780305	-0.054871034	-0.1205539	-0.028845198	-0.07792916	0.82758474	-0.022715667	0.10205525	-0.10833071	0.228609	-0.0686137	0.0071257255	-0.007569366	-0.028241225	-0.03303506	-0.03449455	-0.0027395156	-0.008561269	0.016937314	0.013952889	-0.0034251157	-0.052005954	0.3470474	-1.118921	-1.0050212	-0.25600138	-0.00976421	0.0009765865	-0.25130564	-0.26633847	-0.029061446	-0.08458294	-0.010832694	-0.2197987	0.021811223	-1.4053406	-0.63934636	-0.51776963	0.08427965	-0.021753857	-0.87700003	-0.056946985	-0.122803845	-0.1112413	-0.023301093	0.73439085	0.0053564883	0.09969975	-0.09545837	0.21321462	-0.057382364	-0.023147464	-0.017320454	-0.0510264	-0.06706842	-0.075448476	0.0017155153	-0.03644338	0.01762047	0.010802384	-0.0012072948	-0.06869068	0.33021358	-1.0448222	-0.89310956	-0.18755062	-0.013011856	0.0038114178	-0.22329128	-0.24247476	-0.028151257	-0.08683783	-0.06492316	-0.20454863	0.03541626	-1.3632288	-0.61501324	-0.4872415	0.09163976	-0.012618735	-0.89947927	-0.055204112	-0.12060879	-0.20715673	0.02021667	0.64914364	0.029946102	0.09929513	-0.0996518	0.24404293	-0.04607857	-0.046830997	-0.034254592	-0.07943431	-0.12133307	-0.13975647	0.0072716987	-0.056752313	0.021626366	0.011817869	0.0051963357	-0.08969307	0.2760289	-1.0645049	-0.8015926	-0.21082824	-0.014689177	0.008598645	-0.23096862	-0.16016197	-0.025693104	-0.07625161	-0.14438133	-0.14697966	0.052580588	-1.3817056	-0.622643	-0.5133797	0.10505583	-0.007120308	-0.7976748	-0.06969011	-0.13355309	-0.25646034	0.06572821	0.55572814	0.053567026	0.10463202	-0.109878585	0.2811229	-0.06233869	-0.07661653	-0.06693226	-0.13336457	-0.21760404	-0.2616386	0.019817114	-0.072023585	0.022821268	0.023425046	0.012769488	-0.10329338	0.16412403	-1.0360463	-0.61694133	-0.20052254	-0.037641186	0.018350706	-0.18571861	-0.23654649	0.006971363	-0.036323946	-0.27815384	-0.068187	0.081774294	-1.411971	-0.6111074	-0.49405998	0.10670369	0.010639389	-0.75325817	-0.0987269	-0.1028191	-0.3482202	0.12738733	0.30716056	0.08680836	0.11712135	-0.07842451	0.24773811	-0.05266476	-0.10459111	-0.13186021	-0.24229893	-0.38343045	-0.4737724	0.03617505	-0.09085273	0.030446531	0.036369823	0.023137435	-0.09366273	0.08204597	-0.9617752	-0.3479551	-0.14249383	-0.034569517	0.04101085	-0.10057633	-0.2418619	-0.001964302	0.060290534	-0.5491089	0.03432403	0.12634243	-1.3989652	-0.51700526	-0.44648895	0.075350225	0.042472135	-0.71619093	-0.14235654	-0.060029082	-0.41493598	0.23065838	-0.1046134	0.10566906	0.15319438	-0.13118911	0.20650107	-0.03016638	-0.095470056	-0.23101313	-0.3671679	-0.64600116	-0.8334593	0.061988927	-0.1342176	0.04453955	0.072867855	0.043465406	-0.061884027	0.003344691	-1.0228872	-0.033756975	-0.023655992	-0.025351763	0.07679189	-0.0035232822	-0.17503974	0.023697507	0.25717726	-1.0422204	0.26703173	0.22083478	-1.3798132	-0.45096156	-0.4086998	0.05213438	0.06999141	-0.6937222	-0.2993638	0.012205201	-0.4222192	0.28996134	-0.5627937	0.07168859	0.16576831	-0.41343546	0.19895646	-0.11520287	-0.03204997	-0.1421412	-0.23939873	-0.7191464	-1.1078149	0.06288305	-0.09135754	0.08095068	0.062172823	0.10621515	0.054650262	-0.61802614	-1.0596405	0.6283077	0.040074218	0.17170893	0.022515913	0.053544722	-0.34114927	0.24857166	0.49941653	-1.8577992	0.70952326	0.4114739	-1.2935503	-0.37882236	-0.44614357	-0.06942264	0.036398035	-0.6338957	-0.49545497	0.16792804	-0.47639266	0.30007786	-1.0971631	0.32849205	-0.5948133	0.09064771	0.05573606	0.3216434	-0.33457467	0.28689706	0.5407777	0.08292995	-0.27224672	-0.0039434754	-0.057763133	0.042151865	-0.24981824	0.12654173	0.38507724	-1.1683112	-0.657768	0.17687254	-0.30464262	0.22400123	-0.11843009	0.29830387	-0.27060786	-0.018878777	0.92027634	-3.2171116	1.1811355	0.42199355	-1.1372908	-0.3728288	-0.9875386	0.32906127	0.35726318	-0.24809946	-0.5016382	-0.23201066	-0.51222783	0.1279096	-0.95222086	0.8089833	-1.4390508	0.6557881	-0.050341938	1.0307933	-0.93798757	0.43002197	1.1595293	0.87828815	0.058554873	-0.08254498	0.16789477	-0.024626715	-0.092964254	0.13323677	0.6769272	-0.97386235	-0.5288109	-0.5520294	-0.38857818	-0.4157575	-0.10069139	0.7709122	-0.24902198	-0.65208834	1.3651656	-3.6673236	1.301235	-0.16139726	-0.980273	-0.3024281	-1.2680321	1.2300652	0.79563975	-0.1453064	-0.6772981	-0.89041734	-0.6411913	0.044149745	-0.8392058	0.773553	-1.8033122	0.51181245	-0.08131469	1.1315671	-0.8413158	0.38978994	1.4859058	1.0009944	-0.3737004	-0.08082966	0.3677417	-0.052547663	0.18224286	0.12563553	0.740887	-0.97772574	-0.462301	-0.48789546	-0.3320819	-0.7059427	-0.061252143	0.9228676	-0.36422428	-0.776195	1.3079319	-3.6163292	1.2715691	-0.35981473	-0.9772295	-0.23404694	-1.2027075	1.5322089	0.9327989	-0.27104524	-0.8063702	-0.9405953	-0.6096225	0.049155675	-0.8610261	1.0200677	-2.3248324	0.3013195	-0.042323317	1.0105956	-0.9402453	0.45088983	1.8334584	1.074215	-1.0708159	-0.026346592	0.68930745	-0.10645222	0.5021423	0.20396386	0.89041847	-0.92934895	-0.46826255	-0.27755594	-0.20173404	-0.79500306	-0.068073556	1.0767466	-0.32699174	-1.0386075	0.9307276	-3.6174552	1.1615012	-0.56350315	-1.0549296	-0.1768248	-0.8846497	1.6356548	1.1034817	-0.35045734	-0.70687604	-0.7334502	-0.5758667	0.11590054	-0.97245675	1.2305999	-2.5043495	-0.37001967	0.00920913	0.62637615	-0.9682697	0.4001361	2.1393473	0.83677864	-2.1434283	0.015659202	1.0944576	-0.1361296	1.0851643	0.3834571	1.0950226	-1.0417691	-0.48625517	-0.0066207275	-0.09118894	-0.5790401	0.033115	0.8420127	-0.15118702	-1.2900056	0.517506	-3.7320611	1.2634124	-0.6984672	-1.1484294	-0.11144231	-0.38294202	1.2268981	1.1611922	-0.4382922	-0.6587832	-0.070807315	-0.4254827	0.17646	-0.573107	0.8574173	-2.5780294	-0.998705	-0.036773514	0.6850427	-0.28919604	0.44721213	2.8103273	1.3132907	-2.7072308	-0.08089996	1.1159095	-0.021592265	1.110063	0.3211348	1.1822543	-0.6894292	-0.2431226	0.79671746	-0.7294666	-0.49491328	0.45392582	1.4596335	-0.73264706	-1.4309086	0.46661913	-3.8433883	0.8082146	-0.42111096	-1.2712651	-0.058661215	-0.4232629	-0.7110638	1.183259	-0.3755676	-0.047803167	0.6987258	-0.7579792	0.35692984	-0.37298587	0.30337712	-1.799103	-1.6221579	-0.046333466	1.4862418	0.62085575	0.06091752	3.3992946	1.6290603	-5.532713	-0.28854376	0.36713243	0.19286373	1.2182192	0.20991339	0.9390114	-0.31715474	-0.08552758	0.61932147	-1.1928145	0.22913122	1.166215	1.6749117	-0.81623024	-1.3908383	1.0212708	-3.8333373	0.8803543	-0.75999135	-1.2278323	-0.23982133	-1.7772479	-2.8210456	0.5299582	-0.17613392	0.065762006	0.33626637	-0.6438579	0.61560696	-0.44667485	-0.04315973	-1.6771803	-1.8023566	0.008071345	2.037291	0.9717791	-0.3151575	3.7987628	1.4840772	-6.86702	-0.2772268	-0.36281493	0.19580211	1.3915026	0.07319613	0.72946465	-0.08776032	-0.10430115	0.2112787	-1.0974802	0.7193874	1.7216891	1.6888611	-0.9173657	-1.3328779	1.3667367	-3.8172846	1.0047399	-0.9523559	-1.1881799	-0.39907047	-2.7022178	-3.0620022	0.37229076	-0.03352719	-0.0033698392	-0.11709259	-0.44242465	-0.004530728	0.70637995	0.11933675	-0.4156235	0.04797678	0.32805777	0.28028017	-0.109213196	-0.06056784	-0.1355407	-0.022635015	0.03729607	-0.03702316	-0.1422245	0.15824248	-0.043790396	-0.07423912	0.031981476	0.17365158	-1.2802147	-0.64621395	-0.20693897	-0.01197566	0.019776208	-0.5857512	-0.3398858	-0.0891316	0.13092056	-0.045455746	-0.34599927	-0.030019276	-1.3036246	-0.58844966	-0.3631877	0.41873905	-0.02781746	-0.43263102	-0.06644248	-0.12685266	-0.3931038	-0.014634625	0.23291355	-0.0038499788	-0.22474276	-0.121432975	0.42157316	-0.2611968	0.033792876	-0.05891065	-0.066964515	-0.04876706	0.015239384	-0.024228107	-0.27024597	0.09718008	0.0030689237	-0.054513056	-0.015464823	0.013440495	-1.0653394	-0.10070093	-0.124969855	-0.08602143	0.018668592	-0.22633119	-0.04367043	-0.23265117	-0.04749403	0.012260334	-0.8080023	-0.014713205	-1.3872864	0.26370853	-1.0490323	0.115992054	-0.03231857	-0.17914625	-0.07677184	0.12616289	-1.0297651	0.02722781	0.0069113295	-0.09100441	-0.37214458	-0.4881648	0.47520846	-0.77457505	0.15386526	-0.050194513	0.053198628	-0.07480876	0.032798253	-0.005549894	-0.32196885	0.05984215	0.1317134	-0.039429683	-0.07689382	0.15265751	-0.8362672	0.35035196	0.23772088	-0.104304105	0.0089747785	-0.033837344	0.14329596	-0.44274762	-0.09126695	0.10804198	-1.4018992	-0.009296822	-1.397749	0.513039	-1.60648	-0.13521545	-0.10089956	0.15792926	0.0847293	0.16285862	-1.6744769	-0.15279216	0.1196269	-0.0842589	-0.66307884	-0.48892862	0.4026958	-0.80517596	0.05402528	-0.04210788	0.09425704	-0.058745008	0.044954747	0.026341494	-0.27638614	-0.03976912	0.13520245	-0.04129677	-0.088415675	0.20708472	-1.0317348	0.48989883	0.25537494	-0.32757187	0.0045882794	0.0712232	0.24203743	-0.43811452	0.067426994	0.14206232	-1.2477938	-0.008686835	-1.2393452	0.7941227	-2.0615366	-0.15715899	-0.069965266	-0.15784031	0.32988566	-0.12942545	-1.6944515	-0.37491068	0.047431704	-0.13377017	-0.8565205	-0.4098655	0.1751606	-0.9099725	-0.030134173	-0.050897285	0.072742485	-0.046535168	0.071020015	0.08305052	-0.21437362	-0.20336252	0.14926934	-0.049435772	-0.10624868	-0.008027038	-0.8685228	0.52564204	0.34367272	-0.41389588	0.003187556	0.1813272	0.44021794	-0.017189743	0.16491787	0.113826685	-0.9428017	-0.03616935	-1.1508732	0.87164813	-2.7465236	-0.20139042	-0.06739765	-0.45774454	0.5755695	-0.50908065	-1.634572	-0.6881835	-0.0030058322	-0.15857287	-1.0080155	-0.31615824	-0.113500856	-1.0992835	-0.19503084	-0.08014228	-0.019602332	-0.04284775	0.1322112	0.17828587	-0.05711015	-0.52703935	0.19956717	-0.05236634	-0.13664196	-0.5515834	-0.52729553	0.79423565	0.29546237	-0.62363064	0.0048391866	0.3990183	0.5508853	0.94268686	0.27235365	0.084468275	-0.4731992	-0.109315865	-1.144272	0.8015966	-3.5151007	-0.21424289	-0.09897984	-0.76185894	0.8107455	-0.9606771	-1.6447397	-0.7978007	-0.31935996	-0.19776122	-1.1012565	-0.052611154	-0.30846748	-1.0288892	-0.28996748	-0.112287216	-0.21123636	-0.05992473	0.2622014	0.34561586	-0.23233394	-1.2440336	0.32522017	-0.061796702	-0.2641197	-0.8830099	-0.23785542	0.75015	0.4813304	-0.83563095	0.0030404695	0.48654854	0.71996385	1.6220194	0.3386055	-0.018503523	-0.13831046	-0.19634356	-1.1549011	0.70196	-4.2847133	-0.04986277	-0.08705693	-0.79043084	0.88621944	-1.4414442	-1.5125161	-0.6731435	-0.83809334	-0.103646725	-1.595753	0.47426918	-0.3303479	-0.2879308	-0.48029876	-0.11883661	-0.53342736	-0.102739416	0.44666067	0.61506706	-0.17300722	-2.801962	0.6342002	-0.038179457	-0.41716644	-1.0603979	-0.07614865	0.3501787	0.79578394	-1.2267598	-0.012186982	0.43573222	0.8176841	1.3156497	0.37216756	-0.2911866	0.34177256	-0.30747482	-1.1411196	0.7365116	-4.2209315	0.783031	-0.012379893	-0.56307274	0.76494426	-2.0502853	-1.1385417	-0.5168097	-0.8983254	0.31001458	-1.8450108	0.6278798	-0.11568114	0.79589957	-0.5859531	-0.0042727175	-1.1048051	-0.24171425	0.49755642	-0.08353731	0.53030336	-4.9941545	1.166752	0.27430454	-0.15459138	-0.82113445	-0.305345	0.06313202	0.8965364	-1.3732071	0.05080676	0.6002711	0.5248133	-0.41589338	0.55158645	-1.128995	0.5670096	-0.1582396	-1.0500984	1.1156334	-2.1672862	0.668934	-0.2696051	-0.47512418	0.32625327	-1.432511	-0.69451994	-0.7499048	-0.3755236	0.68125606	-0.73190105	-0.19830094	0.05117853	1.4262117	-0.6430168	0.49812692	-0.6461343	0.451319	0.80109185	-3.8407516	2.3884742	-4.904857	0.44121796	0.6420003	0.013990277	-0.6813097	-0.38521236	0.29371873	0.4110172	-1.3478084	-0.06562026	0.9955186	0.28026068	-1.5245169	0.49591106	-1.4339838	0.29000688	0.5475104	-0.99849707	1.6808126	-0.78752697	-2.4365878	-1.166153	-0.5953282	0.18092869	-0.56265575	-0.66697603	-0.8342444	-0.030030515	1.3002781	-0.03851615	-0.8287179	0.06287675	1.5231255	-0.39354953	0.6283704	-0.30152002	0.97776383	0.772749	-7.1115294	3.1002588	-3.788919	-0.36561385	0.7245477	-0.041005116	-0.72899795	-0.37322435	0.287535	0.5135904	-0.96252793	-0.21469785	0.80983186	0.5613319	-1.6905508	0.38818276	-1.1691251	0.3504475	0.6286229	-0.9086097	1.6168371	-1.1628877	-3.673104	-2.13204	-0.628752	0.40446684	-1.7971243	-0.69935274	-0.87858444	0.1605687	1.8208631	-0.32824674	-1.2556777	-0.06750152	1.7723184	-0.19912927	0.48753467	-0.3865753	0.9617515	-0.8665291	-12.245315	3.199661	-1.5872207	-1.595765	0.64559644	-0.14767374	-0.6075527	-0.1597471	0.21856293	0.79668987	-0.62261665	-0.64386046	0.83902556	0.7829148	-1.5975206	0.8246867	-0.8504236	0.5310744	1.0162549	-0.81079376	1.9324987	-1.6767857	-4.108612	-2.970557	-0.7513689	0.6420788	-2.859611	-0.7436307	-0.7632973	0.1627823	2.0045247	-0.82022315	-1.4053568	-0.055970557	2.1244514	0.4694043	0.11697803	-0.7869556	2.029855	-2.085698	-14.08154	2.1646814	-0.19052453	-1.8392787	0.5149273	-0.40500325	-0.23971985	-0.1337656	-0.0053450805	0.8881347	-0.2272008	-1.7037344	0.69938076	0.7529911	-1.4277139	1.3747874	-0.22601336	0.567997	1.0602732	-0.7271719	2.0931945	-2.6984606	-3.699211	-2.278186	-0.6557886	0.98938566	-4.2900906	-0.69501346	-0.7345872	-0.037688334	1.8188878	-1.094287	-1.3288269	0.0507212	2.5177886	0.64279395	0.8288347	-2.1987925	2.3559103	-4.605166	-10.021713	1.0372488	-0.37932086	-1.08681	0.8632373	-0.7073156	-0.02283987	-0.10040401	-0.07165203	0.9232483	0.005546202	-2.5755217	0.6244506	0.98125714	-1.4346876	1.7898184	0.24895807	0.59144545	-0.019977994	-0.7882988	2.1425693	-3.2285361	-3.0914466	-0.6208629	-0.3983301	0.9755661	-4.730451	-0.69597626	-0.5828711	-0.14274797	1.610481	-1.580545	-1.1820805	0.3236551	2.7799702	0.2598505	1.7413734	-2.873827	2.4712112	-3.5388107	-6.3822265	0.10731378	-1.2724646	-1.0673549	1.4950148	-0.61981267	0.2624186	-0.21898767	0.045892235	0.37813166	0.44302607	-2.0949078	0.5563245	0.65988266	-1.7102811	1.5792643	0.35673204	0.5107976	-0.33649802	-0.9433896	2.017064	-3.5502355	-2.3419812	0.81694835	-0.07174332	1.46344	-4.8613906	-0.49620637	-0.46922824	0.08803586	0.59276044	-2.2158148	-0.7612388	0.37880304	3.514626	0.34042898	1.9911741	-3.2828813	0.98223263	-4.589297	-9.068144	-0.8300859	-2.0662527	0.14743651	1.4746643	-0.77559024	0.8248428	-0.098255254	0.2076887	0.33833474	0.4554049	-3.2570596	0.8009933	0.5683751	-1.9077291	2.3671575	0.96664625	0.3187756	-0.24826254	-0.9836557	2.243972	-3.9792614	-1.6605475	2.6045372	0.15833563	1.7015287	-4.673902	-0.6398101	0.23802495	-0.97842795	-0.031359185	-1.4500711	-1.0594348	0.15281573	0.085134685	0.11287054	0.06332796	0.4747114	-0.093152806	0.04306135	0.031380493	-0.1386081	-0.044751626	0.28374892	0.02826031	-0.36803925	-0.7770691	-0.49864	0.5911453	0.15376903	-0.8068833	-0.03609483	-1.1331997	0.36294162	-0.674751	0.37570915	0.44694254	0.44244036	0.117977716	-1.097732	0.21406434	-1.5875026	-0.8715059	-0.038521096	-0.5550082	0.64207786	0.26819882	-0.34204662	0.20539588	-0.9064324	-0.08758375	-1.5316662	-1.155096	0.12339235	0.06808282	0.20693171	0.057282437	0.49693727	-0.11094927	0.03525921	0.029204065	-0.12033738	-0.04249667	0.32007265	0.032678515	-0.38280287	-0.7127765	-0.41866186	0.658578	0.22426236	-0.81728727	-0.033696357	-1.0087548	0.3049816	-0.6172876	0.5942645	0.4572271	0.48221663	0.116189994	-1.0828359	0.32473552	-1.5682888	-1.5784605	-0.071083434	-0.5394119	0.98887366	0.16379152	-0.5041572	0.17879824	-0.83840346	-0.11665739	-1.5064956	-1.1862359	0.09558278	0.08277956	0.2784988	0.057072524	0.5066473	-0.10842738	0.045106206	0.019233532	-0.13313434	-0.033531245	0.31640303	0.030804515	-0.42306694	-0.66572875	-0.34137374	0.63416165	0.23801771	-0.81232387	-0.031738307	-1.0416121	0.26496363	-0.50501794	0.81443965	0.4696262	0.47177163	0.124407984	-1.0448221	0.39799863	-1.6500057	-2.1090477	-0.08861944	-0.5411654	1.2020773	-0.12333739	-0.5028378	0.15375973	-0.79193103	-0.13567676	-1.4421839	-1.1857342	0.07430776	0.12356509	0.3440