4
21	40	40	256
0.42728957533836365	0.062256116420030594	-2.656986713409424	-1.09538733959198	2.794156789779663	-2.520702362060547	3.8953704833984375	0.7018122673034668	2.552395820617676	-2.522601366043091	0.4554155170917511	-1.0643748044967651	-2.047851085662842	-2.531132459640503	-1.128392219543457	-0.372018426656723	3.4504740238189697	-1.818204641342163	-2.1765940189361572	3.6465890407562256	-1.7171400785446167	-1.7361459732055664	-0.6794697046279907	-1.9175821542739868	1.8932656049728394	-1.7248836755752563	-2.233924150466919	3.6284096240997314	5.426026344299316	2.1013500690460205	-1.6427632570266724	2.971118688583374	2.55725359916687	2.3721914291381836	-1.7133764028549194	-2.9427480697631836	1.7694554328918457	-2.2259910106658936	-2.172635555267334	2.715379238128662
-1.8401695489883423	-0.7825003862380981	-2.798748254776001	-0.7333289384841919	-0.8256897330284119	0.5780999064445496	-0.4438779056072235	-0.08988010138273239	0.297380268573761	-1.046980857849121	-1.6976380348205566	0.20316648483276367	-0.5648360252380371	-1.3446091413497925	-0.7260571718215942	0.39054763317108154	0.02181730791926384	0.3352993130683899	-0.021219175308942795	0.884691596031189	-1.5098861455917358	0.06099526211619377	0.13580463826656342	0.4583735167980194	-0.4738830327987671	-0.21297062933444977	-0.8554284572601318	-0.07631010562181473	-0.12177859991788864	0.20463457703590393	-0.5136217474937439	1.2325608730316162	-0.22614842653274536	0.1930539608001709	-0.47158995270729065	-1.07549250125885	-0.25197574496269226	-0.9155053496360779	-0.3616904616355896	-1.2059850692749023
0.7205778360366821	0.9213091135025024	1.0464578866958618	1.1563827991485596	1.1423946619033813	1.2509090900421143	1.2464407682418823	1.0538854598999023	0.5635062456130981	-0.04619520157575607	-0.28500738739967346	-0.43281158804893494	-0.7181963920593262	-0.6063693761825562	-0.1444772481918335	1.222507119178772	0.771857738494873	0.8847032189369202	0.9631704092025757	0.8667925596237183	0.8582190871238708	0.8744029998779297	0.8424135446548462	0.8784876465797424	0.7912251949310303	0.1818540096282959	-0.06862294673919678	-0.27454084157943726	-0.6388607621192932	-0.662716269493103	-0.15956851840019226	0.1435219943523407	0.12024316191673279	0.42779478430747986	0.520937979221344	0.8136287927627563	0.8511650562286377	0.7164347767829895	0.4582242965698242	0.5179766416549683	0.6832109093666077	0.3031191825866699	0.1414545774459839	0.07957227528095245	0.3613215684890747	1.1134997606277466	1.2593035697937012	1.239762544631958	-0.16917192935943604	0.20750419795513153	0.6107886433601379	0.5596029162406921	0.5114454030990601	0.24803297221660614	-0.17741017043590546	-0.3919333219528198	-0.021031243726611137	0.10548201203346252	0.13579560816287994	0.21592164039611816	0.3167801797389984	2.1443004608154297	2.333881139755249	2.370737314224243	-0.44490453600883484	-0.43869107961654663	-0.15379224717617035	0.38933196663856506	0.11487001925706863	-0.255923330783844	-0.5224784016609192	-0.6352530121803284	-0.6241226196289062	-0.8418882489204407	-0.7862961292266846	-0.6132111549377441	-0.3940638601779938	0.3925207257270813	0.31116631627082825	0.1229274645447731	-0.2943936586380005	-0.3468608856201172	-0.432416170835495	-0.39797332882881165	-0.43414071202278137	-0.4129696786403656	-0.47206324338912964	-0.45929259061813354	-0.02782386541366577	0.06798967719078064	0.0738188773393631	0.04093500226736069	0.1062629222869873	0.21547119319438934	0.29595619440078735	0.25517329573631287	-0.6662772297859192	-0.6459640860557556	-0.533714234828949	-0.3350936770439148	-0.3916245102882385	-0.34336772561073303	-0.7405536770820618	-1.342728853225708	-1.3589946031570435	-0.5997651219367981	-0.3789258897304535	-0.2941490113735199	0.24586980044841766	0.843606173992157	1.7998541593551636	1.8699548244476318	-0.1817968189716339	-0.2495041936635971	-0.3495243787765503	-0.3481298089027405	-0.33089321851730347	-0.34282997250556946	-0.18841606378555298	0.13087372481822968	0.36732715368270874	0.5321409106254578	0.7434856295585632	0.9305630326271057	1.1904945373535156	0.4892166554927826	0.19913826882839203	0.55790776014328	-0.5989511609077454	-0.08976872265338898	0.016579139977693558	0.679286539554596	1.0613192319869995	1.2903802394866943	1.1825308799743652	0.4955589473247528	-0.3889507055282593	-0.27100059390068054	0.19044409692287445	0.6641878485679626	0.45537444949150085	-0.04260733351111412	-0.5214926600456238	-0.1461736112833023	0.49495193362236023	0.6212140917778015	0.6360207200050354	0.6053242683410645	0.5819500088691711	0.6482445001602173	0.6631500124931335	0.8179892301559448	0.8068128228187561	0.08883995562791824	-0.28128519654273987	-0.729392945766449	-0.6846346855163574	-0.27296826243400574	-0.33968013525009155	-0.4332563579082489	0.7422722578048706	0.7636547088623047	0.8491524457931519	0.8544784784317017	0.842914342880249	0.8154724836349487	0.9430031776428223	1.0662785768508911	0.5473718643188477	-0.06555597484111786	-0.3256359100341797	-0.49595674872398376	-0.15733571350574493	-0.024019861593842506	-0.21083304286003113	-0.4286883473396301	-1.1025956869125366	-0.5598223805427551	-0.04220360890030861	0.31544530391693115	0.5375989079475403	0.7165505886077881	0.695899486541748	0.5372459292411804	0.27712786197662354	0.2579752802848816	0.2790169417858124	0.32611796259880066	0.3372872769832611	0.3569394648075104	0.6751513481140137	0.9373618960380554	-1.2412546873092651	-0.7919017672538757	-0.17586518824100494	0.33674517273902893	0.42240020632743835	0.9271671175956726	1.4765117168426514	1.2821691036224365	-1.628777027130127	-1.8826792240142822	0.22006481885910034	2.080817699432373	0.9913507699966431	0.9202464818954468	0.9048949480056763	1.1443703174591064	-0.7146106362342834	-0.1857922226190567	0.05164238065481186	0.0114933205768466	-0.03553730621933937	-0.32137244939804077	-0.4594864249229431	-0.077763631939888	0.29034313559532166	0.18786166608333588	0.5489476323127747	0.8496252298355103	1.9646276235580444	2.185499906539917	1.9961118698120117	1.9191923141479492	-2.5908172130584717	-2.628035068511963	-2.4722745418548584	-2.3741674423217773	-2.281903028488159	-2.0125069618225098	-1.8035221099853516	-1.6809486150741577	-1.113032341003418	-0.09826477617025375	-0.029509998857975006	-0.460681676864624	-0.5168892741203308	-0.4328926205635071	0.8087798357009888	0.976142406463623	-1.9940334558486938	-0.9954352378845215	-0.3560575246810913	0.00860190112143755	0.3775676190853119	0.5725459456443787	0.7016712427139282	0.43233856558799744	-0.5845265984535217	-1.3434369564056396	-1.3943184614181519	-1.0582976341247559	-0.3518519699573517	0.12149275839328766	0.5322366952896118	0.669848620891571
-0.48799798	-1.7353191	2.3568413	2.1241188	0.214254	-0.07060841	0.26374114	-0.3424138	0.03934577	-0.86497253	-0.16593143	0.41837078	-0.30014315	-0.53007686	0.53441167	-0.23863229	0.19209956	0.060014274	-0.31923124	-0.16745894	-0.13679728	0.020576462	-0.22772214	-0.017746242	0.14261045	0.008867474	0.081322044	-0.0384962	0.2454371	-0.02396478	0.008815512	-0.0070489924	0.00203379	-0.07842386	-0.013956165	-0.0062061087	-0.022321798	0.07038052	0.0022143128	0.0010003407	-1.2689484	1.1014928	-0.115940206	-6.3078365	-0.06333274	1.8081363	0.21815142	0.0013494286	-0.17530668	-0.041515466	-0.13067515	0.09017236	-0.14051048	-0.047264326	0.0134503655	-0.0651214	-0.043522775	0.1572194	-0.10570933	0.013772056	0.09137428	-0.14484431	0.09293429	0.34353313	-5.222638	0.0958034	1.5234483	0.034066245	0.3350001	0.26038393	-0.016501607	-0.027677534	0.12499755	-0.057141297	0.031923234	-0.07083282	-0.17938705	0.11097445	-0.43109787	0.23380162	0.056838833	-0.024383051	0.2809742	-0.11745575	0.3823704	-1.8128927	3.3042412	-0.12417985	0.09026958	0.45859617	0.6577728	0.09382342	0.2196078	-0.017243546	0.03777525	0.14578283	-0.61589354	-0.0690684	-0.19586237	0.017473536	-0.012429619	0.026938755	-0.33122507	-0.13381295	-0.1344046	-0.12657852	-3.954794	-0.19002591	0.65558904	-0.11879623	-0.0057304003	-0.06788127	0.039514534	0.014836225	-0.06277339	0.06864359	0.019844543	-0.07496401	0.04093227	0.023384491	-0.035518512	0.059405513	0.00081275014	-0.033996228	-1.2137462	-0.63156605	-0.042647827	-2.9728475	-0.08481008	7.7277684	-0.38894463	-0.06936528	0.06493654	-0.35255662	0.04799034	0.022123193	0.055879228	0.025732804	-0.046677932	0.019371802	0.015888242	-0.028784811	0.054548744	0.022347614	0.021335559	-0.00058033963	-0.34380788	-0.16891338	-0.2314293	-0.080833875	-0.17942072	-0.21321608	-0.1336881	0.01741493	-0.30078325	-0.04183259	-0.052968077	0.0138353	0.04830147	-0.024369437	-0.029691115	0.042056087	0.055714954	-0.016548168	0.020229384	0.02298592	0.33532444	-0.81713337	0.20740223	5.0364366	0.064531796	0.2341802	0.03181664	-0.17280762	0.361082	-0.029388214	0.07129172	-0.11757824	0.04457463	0.078490466	0.009494894	0.00790062	0.046247818	-0.042146064	0.07911745	-0.013520035	-0.02579274	-0.049011342	0.0842093	-0.20559812	0.98350585	0.16210817	0.19708675	0.20769675	-0.20301445	-0.90691876	-0.26408818	-0.3631243	0.062779956	-0.07349234	0.013523823	0.0627221	-0.09385115	0.02536495	0.023351012	-0.045929063	0.01525165	0.013187587	-0.19799604	-2.0612466	0.3831222	-0.84260297	-0.5612927	0.15200591	0.4356147	0.4978829	0.24233072	-0.094339974	0.09446931	0.3979708	-0.21529524	0.034704406	-0.4504769	-0.5665575	-0.1720984	-0.39127076	0.5955921	-0.05597895	-0.06380217	-0.017490376	0.012375133	-0.32128784	0.29734206	0.008324493	0.030243132	0.009951734	0.013974185	-0.062109247	0.022461986	0.17957251	0.015164672	0.0015347976	-0.01736919	0.02414138	0.027624182	-0.01505042	-0.009527561	-0.022675836	-0.007146923	-0.01734709	0.26210493	-2.328246	0.56938666	1.5262934	-5.5957727	0.029033508	0.17130657	0.24449605	0.4296273	0.6717353	0.6164332	0.30193818	-1.075637	-0.039583903	0.29426327	-1.2640469	-0.5145544	0.26266253	0.28775552	-1.2263211	-0.24453703	0.14505006	0.33280835	-0.18161435	-5.8541226	-0.0156001495	0.75623685	-0.26895764	-0.10882301	0.22816512	0.2157347	-0.22151457	-0.019061388	-0.07438595	-0.0004985675	0.027640792	-0.0675784	-0.010371538	0.040352166	-0.028119436	-0.021860994	0.01966078	-0.20072314	-0.3275232	-0.00032412243	-0.9274889	-3.0785851	0.1312773	-0.14654197	0.44717214	1.341334	-0.33045837	-0.27117592	-0.47538567	-0.45072496	-0.2515675	0.44720206	0.23375155	0.6168475	0.45274556	-0.31396285	0.24414897	0.31761473	0.05377803	-0.068533905	0.012761836	-0.9040618	0.08223516	0.8058426	0.20779628	0.07234682	-0.025708359	0.26513922	0.18455112	0.065294564	0.015784292	-0.05676253	0.09831307	0.04273171	-0.030188052	-0.07918923	-0.027442535	-0.0108188335	-0.051164784	0.73674244	-0.6399452	1.0136325	-1.237945	-0.57565075	0.052732322	0.3943915	0.45342678	-0.053042218	1.0148946	1.0272306	0.17709823	-0.0052962205	-0.23852324	0.3630063	0.19262332	-0.16874619	-0.26534235	-0.07716381	-0.09960361	-0.085490674	-0.1554703	0.2961678	-1.3824046	-0.7080476	-0.18410224	0.5322152	0.13758546	-0.3179742	0.0022118895	-1.1829745	-1.134442	0.015884554	-0.35529917	0.04117303	-0.41882715	-0.34438923	0.08360088	0.47458106	0.099939354	0.10929228	0.2635903	-0.07447064	-1.0803483	-0.14758256	-4.1995564	-0.24544923	-0.28621653	0.26010856	-0.23719881	0.4012092	0.022157382	-0.113411896	0.14043464	0.086685374	-0.018019889	-0.26182663	-6.483389e-05	-0.019848023	-0.023964798	0.15348548	0.062001362	0.007108389	-0.32427734	-0.17271252	0.40528032	-0.8001854	0.79506356	0.30531442	0.1737191	0.32245088	-0.012427459	0.20098338	0.5625337	0.0043774056	-0.23071587	-0.12503338	-0.2177467	0.029266743	0.29664496	0.1312271	0.096012294	0.21590178	0.08017313	-0.30881035	1.4645371	-0.85426134	-0.70263916	0.2225913	-0.05899525	-0.37634575	-0.6545277	2.7691863	-0.8283152	-0.46493846	-0.5607921	-0.6216755	0.6597264	-0.4464921	-0.91821885	0.13864708	0.6914683	0.2235888	0.0022263026	0.81814533	0.031952336	-1.6005497	-0.028138207	-4.158896	0.09033791	0.5479143	0.21630009	0.020627106	0.04134976	0.14165437	0.3368834	0.05750407	0.0035754628	-0.020277765	-0.032215785	0.0011008668	-0.026642999	-0.041879598	0.033352423	0.0019376483	-0.023040408	0.31636944	0.8501264	0.23407519	-0.9810396	0.07314696	-0.8704997	0.57043755	-0.045515776	-0.13410872	0.07352447	0.3886528	0.073397644	-0.15153763	-0.064423606	-0.07692964	-0.09800354	-0.0694829	0.21437418	-0.03188814	-0.006315614	0.11541226	-0.20595302	-0.35314727	-0.12488121	-3.172211	0.072632544	0.8087368	-0.041896008	-0.067602046	0.57859284	-0.09195536	0.32704312	0.20285106	-0.20478636	-0.1893467	0.21331684	-0.02814488	-0.098342694	0.11348297	-0.25085446	0.016919428	0.07304767	-0.829824	-2.2885878	-0.037685797	-4.460706	-0.07089479	5.590659	0.008452774	-0.08484015	-0.20555606	0.19517486	-0.05220742	-0.097923666	0.083364025	0.012741099	-0.00017952474	0.074176185	0.034879606	0.085456915	-0.046493545	-0.015889747	-0.023549648	0.038257655	0.073451765	0.42616954	0.5004777	-2.483911	0.3389077	-0.030402182	-1.0311705	-2.1066432	0.45251307	0.7640914	0.03346319	0.7885867	-0.39877537	0.37320825	1.4873611	-0.3479948	-0.11494327	-0.5632208	0.08864956	-0.0898157	-0.34803048	0.1049137	0.019980775	-4.6282034	0.1737656	-0.681602	0.14215896	0.040856656	0.22305825	0.23036136	-0.16176853	0.0514688	0.067529015	0.009875901	0.056811474	0.010332845	0.07093149	-0.27484316	0.078534536	0.04516139	-0.120071255	0.16495213	0.2519515	0.22839072	-0.538433	0.179747	0.09841015	-0.10045433	-0.23765391	0.097115315	0.0064266035	-0.047975402	-0.018977745	-0.22836795	0.07736031	-0.20524305	-0.26379055	0.029429486	0.21928789	0.06458558	0.040498376	0.20098832	2.6339405	-2.2080843	-23.525476	0.44129202	0.17236449	-0.36645523	-0.5273008	0.15290725	-1.184742	-23.539814	-23.016693	0.34112445	-1.1942134	0.051222157	0.21448442	-1.1277717	0.2564151	0.71512824	-0.5161796	0.4055091	0.7841626	-0.4541822	-0.9385439	0.062792026	2.6332908	-0.015695063	1.7504252	0.028356919	0.058654126	0.09761851	-0.08477506	-0.12620743	0.065769896	-0.08844967	-0.029714884	0.040835068	-0.088274166	0.027685808	-0.08042911	-0.020630455	0.0218136	0.0080876835	-0.13676168	-0.045809094	-0.011415199	-4.709482	-0.077667065	0.77740586	-0.29014638	-0.102078795	-0.21078388	0.32907638	0.43455008	-0.19804022	-0.08398594	-0.014075321	0.07857621	0.01936226	-0.019289793	0.39559513	-0.25742695	-0.049805038	0.083363086	0.81331825	-0.6796725	0.39541808	-0.6922141	3.8108747	0.24266502	0.46047628	-0.39044246	-1.666774	0.29406667	0.6167909	-0.49890417	0.3925706	0.25825068	-0.11088642	-1.1362454	0.68772066	-0.9403683	1.2178715	0.123344965	-0.15875779	-0.11665788	0.13529392	0.3651831	3.4497628	0.18031853	-0.2631041	0.2903427	0.009770472	0.106982015	-0.07136681	0.372849	0.018848702	-0.21687835	0.02682458	-0.2906313	-0.22549206	-0.008700238	0.14086932	0.18149237	0.03414472	0.13227642	0.20987704	1.3110135	0.20244439	-1.9929838	3.1399786	1.6524086	0.67957896	-0.29473147	-0.81732804	-0.28012007	0.22757356	-1.0327771	0.44821888	0.59497297	0.07457165	-0.92820746	2.395646	-0.4149219	0.94403505	0.5703984	-0.6898694	-0.44881964	-0.7561348	0.6369375	-0.9555339	-0.61149496	-0.26731873	-0.10231365	-0.24588628	-1.9858246	0.221445	0.62417614	0.086086474	0.5196076	-0.21790707	0.6509307	0.5662712	-0.04804478	-0.45712897	-0.349033	-0.14404501	-0.4850646	-0.07728365	0.049701158	-0.3285299	-1.7944484	1.2462511	0.34622148	0.2857994	-0.14546955	-0.63422716	-0.63400227	-0.4139008	-0.43458667	-0.41948947	0.35618716	0.4620559	-0.5408858	0.38247684	-0.0807254	-0.22449806	0.0065857843	0.025017962	-0.35098857	-0.4931693	0.03984584	-0.27731612	0.26336434	0.6587221	0.18579036	0.1305239	0.3649993	0.25989902	0.57302165	0.19125582	-0.031425036	-0.1958144	0.032335658	0.17427248	-0.1542325	0.038813908	-0.07840094	-0.025697563	0.020131215	0.43262422	0.3479899	-0.0963076	-5.625965	0.08553777	0.095547915	-0.1959712	-0.12799257	0.27078876	0.16734955	0.17543636	-0.17758973	0.040167727	0.10364046	0.083549336	-0.00032017467	0.06116859	-0.052300118	0.073085845	-0.028067736	-0.030042257	0.4603141	0.16491799	0.1760198	-3.8957827	0.011265897	0.08707156	0.00567307	0.09530309	-0.11335547	-0.28214896	-0.30234724	-0.2146995	0.017251976	0.14470525	-0.18263133	-0.028110163	0.08418736	0.05281211	0.12758084	-0.02787535	0.06892088	0.63415927	-1.4952668	0.7790148	0.56019133	0.0030518249	0.039726343	-0.13739355	0.4130329	-0.10340677	0.17796218	0.7663998	-0.07549271	0.178513	0.06612171	-0.0043381685	0.059000768	0.07151633	-0.252746	0.063722886	0.007784361	-0.0964097	0.5002557	0.9157413
0.18467245	1.1105214	3.762405	2.731709	0.025671676	2.001272	-0.10451982	-2.8012373	-8.219469	-1.7421277	0.17371048	-0.23337764	-0.3290418	4.1978273	-0.10159564	-0.74709624	-0.977996	-0.34286898	3.9514828	-2.6764634	-0.26426092	3.7205079	1.5012496	1.577551	1.015654	0.1550712	5.163466	-1.7793753	0.70586056	-6.606458	2.2640204	-1.0126772	-4.603591	0.013558881	-0.154127	0.8502879	-0.9081085	5.4351807	3.211159	-2.574792	-0.1502891	2.2760844	0.30703148	0.36156327	-0.14511108	-1.1304297	0.05622431	0.73091394	0.0255545	1.318	0.5847145	2.172035	0.05360087	1.3868841	0.4996105	1.5143236	1.4430203	0.38934284	0.6203415	-0.97614545	0.3792092	-0.6718149	0.35711497	-0.19175602	0.30106646	0.23956677	-0.2843002	-0.40991545	0.06769015	-0.93411124	0.30034396	-0.3341839	-0.99028254	0.012656779	0.039434478	0.031561956	0.96346784	-0.89364153	0.35152036	-1.5420184	0.51151335	0.17348458	1.3177216	1.9087405	-0.576636	2.3354733	1.4032148	-1.8594859	0.2719696	-1.404321	-1.4751314	1.4895263	-0.49952522	0.34933543	-0.92752117	3.2949138	-1.9634105	-1.6833316	1.1409701	-2.791914	-0.45183706	0.17461991	2.2331111	1.7864386	-1.997111	-0.2705304	1.6134548	-0.30865452	10.657278	-1.7075189	0.48975107	-2.0113542	-3.357482	-1.8242663	-1.0724052	1.3636569	-3.544968	-0.20251878	1.8223554	-0.19396321	0.009657225	0.14160636	0.09022452	0.026299996	-0.47026178	-0.7941297	0.6247576	0.43261465	-1.6207193	-1.8184766	0.10250872	-0.7375223	0.088692464	0.9919528	0.14798762	0.7231095	-0.04189808	-0.8511083	0.30240363	0.5941908	-0.34900326	0.08552125	-0.18689224	0.024161927	0.0023567034	0.13434367	0.1285017	-0.12715457	-0.28886646	-0.8954236	-0.29119322	-0.082230896	-0.058969	0.017664688	0.50829846	-0.05624678	0.18027838	0.7101421	0.29937488	0.090224095	0.54587084	2.077823	2.7634156	0.38441274	0.24551687	1.6506438	0.27475527	-0.016287474	1.543552	0.96518177	-0.56676227	2.8439236	-0.19679567	2.5664062	-0.77122676	0.96277374	-0.19525059	0.027943652	-0.29895484	-0.418129	0.39445174	0.57230633	0.12161068	-0.46663186	-0.6269865	-0.22412547	0.040193006	-0.50021905	0.034271225	0.07133485	1.1067039	0.5470767	-1.1654611	0.12439155	-0.30122733	4.4485493	1.0617948	-0.32970956	0.84389085	-1.2756857	0.3141741	-2.2184038	-0.40190572	-0.984359	1.3370471	0.43056542	0.08967889	1.4702338	0.29490745	-0.8535893	-0.2661639	0.60734355	0.03786874	0.3144747	-0.16979706	0.34272146	0.1880077	-0.4613946	-0.85805804	-0.28593114	-0.16240929	-0.115956835	0.09854943	0.40039197	0.43608198	-0.367014	1.0180254	0.3090244	-0.56433904	-0.21288855	-1.2454973	0.49135002	1.2445573	0.0036921161	1.0772283	-0.12355318	-0.3521899	0.14538126	-0.651875	0.7315851	0.06384934	-0.25710022	3.017107	0.13164875	-0.335127	4.0518465	-0.64514285	0.7890912	-0.18241043	-0.3198899	-0.1781999	0.9159127	0.092046514	1.2186031	-0.13287881	1.8822683	0.14267054	0.3896084	-0.53880644	-0.5126527	0.12768792	0.058740787	-1.1274257	0.32833174	1.0315217	-0.08661252	-0.33561784	0.01845658	-0.06287487	-0.54978555	-0.4178472	-0.021371374	-0.3008119	-0.013858748	-0.5410554	-0.0022261636	0.24953555	0.97847843	-0.34705383	-0.12283923	0.2447868	0.4953391	-0.066727966	0.39218166	-0.5605012	0.15783483	0.6847902	-0.5812668	0.562959	-0.94419616	-0.49746978	1.5393448	0.09308425	-0.7818107	-0.42128703	0.77975	0.23326276	-0.19393453	-0.36870408	0.033072	-0.507608	0.04414647	0.5118505	0.397259	0.4815763	0.1953454	-1.889228	-0.12558964	-0.013090863	1.4126493	0.10398218	-1.143351	-0.19270933	0.17816055	-0.6937204	0.39656612	0.5861024	0.65384114	0.31422007	1.0750557	-0.14241059	0.46996015	-0.23920895	-0.42953917	0.02136675	0.79058856	1.1374664	-1.1865646	-0.3440078	0.73953164	-0.08968947	1.2408671	0.107518524	0.729859	-0.17480399	0.039230295	-0.31347153	0.7913752	-0.2907327	-0.8959237	0.5172842	-0.28309953	-1.0402522	-0.18517362	0.35922518	-0.1004142	-0.38134834	0.06532199	0.07900166	1.9779885	-0.031047568	0.10064286	-0.34753582	-0.07284531	0.2972083	0.07437668	-0.52074564	0.38639623	-0.875228	-0.42324445	0.16714251	0.51051575	1.6351196	1.1117946	0.39307773	0.8197196	-0.0993258	-1.9003017	-2.4764917	-0.9538017	-0.22539014	-0.5783716	-0.1643766	1.9376515	-0.08610159	0.1583899	-0.7911811	-0.4064323	1.9384927	-0.27046794	-0.20315231	0.65111095	1.5167674	0.070781834	0.549533	0.11373435	1.001808	-1.304973	-0.16002633	-2.9239779	1.0946765	0.042145137	-1.2687755	0.090273194	-0.7287599	0.81762	-0.2304104	1.9586792	0.98582774	-1.4892849	0.0069254283	0.48561743	2.1821258	1.3561746	0.004927347	0.4630952	0.37581518	-1.6150597	-5.888585	0.02790703	0.30100492	1.0272572	-0.12024513	2.3920298	0.11406506	-0.067984544	-0.9183649	-0.28332543	2.221481	-0.88563514	0.14690995	2.9870389	0.2736061	0.04986014	0.6200026	0.04188394	3.1141598	-0.6673646	0.66478735	-2.807069	1.805587	-0.39336193	-2.4858968	-0.018164104	-0.32907036	0.01756174	-0.70690703	4.2024155	1.7352189	-2.3289504	0.007682884	1.7719437	-0.19237731	0.025122432	-0.5277225	-0.15134424	-0.5857091	0.044368595	-1.5825676	0.43995902	0.3604396	0.07776747	-0.10330206	1.4192512	0.16068861	0.018544996	-1.2191422	0.010169966	1.4204104	-1.5213567	0.1869561	-0.20493548	0.24867795	0.033891503	0.094121166	0.10285824	2.042916	-0.6526765	0.35003155	-0.42362347	0.7002945	-0.57585	-1.7852417	0.0028730272	0.27176714	0.38224995	0.4992496	0.17746775	0.3717729	-0.65017694	0.34271526	0.82227284	0.57340103	0.3731061	-0.13739152	-0.44297126	1.065829	-0.08377745	-1.2848197	0.48495355	0.30355692	1.1910404	0.10271387	0.81025475	0.059996024	0.24618347	-1.646792	0.4460475	-0.26233074	-1.8473713	0.02839785	0.36977163	1.2963233	0.6803964	-0.44000316	-0.11764439	0.07764028	0.083516315	0.5256412	-0.14822188	0.24123049	-0.10431595	-1.4265473	-1.1540749	-0.096724	0.22884129	-0.20965365	-0.034967985	1.1642438	-1.9225357	2.9369545	-0.4619689	0.7380575	1.2011497	-5.4192805	-2.361018	0.9284939	-0.53436416	0.56744236	3.3433845	1.3939214	4.3673105	1.404387	-1.7686113	1.6093038	1.6870574	0.13528796	-0.25230372	0.41058707	-2.8808177	2.397375	2.2079766	2.4176953	5.7959204	0.5933658	0.001307735	0.88806677	-0.80315965	7.3480725	-2.1821663	1.1901329	-2.712683	-0.07818111	-0.06998925	2.0728323	-0.28530502	-4.942407	-1.4608501	-2.0588973	-1.702153	1.1817014	-0.69999623	2.9400752	3.3165784	0.46794492	0.7608436	3.724151	-1.3308724	0.3269444	-1.8901277	1.2251741	-1.4679557	4.942168	0.14432064	-0.09767883	0.24470077	3.2754602	-1.5389465	-1.1933497	2.5595694	-2.2420697	0.88981354	-2.082022	1.0434296	5.570316	-0.12296676	-2.4422464	-1.5697622	-1.3366414	2.9666083	0.44411007	-1.1018721	1.2597127	-0.38037148	-0.79630667	-2.5886755	2.2514231	-1.6556318	-1.8572016	0.47387034	-0.2291433	7.2279286	-1.1717182	1.1473469	1.9015371	-2.0083926	-1.5684394	-0.033564027	0.6438316	-0.6745973	1.3068136	-0.34939408	1.4820701	0.12657411	0.4558843	-0.105414115	1.3374968	0.0067383726	0.38574263	1.8244017	0.44501024	-1.35079	0.32608104	0.09862177	-1.4021002	-0.99442846	-0.47063082	0.3104227	-0.08619399	0.16030234	0.031416453	0.59995306	1.6397862	-1.2502733	-0.43556625	0.210982	0.6614205	-0.1526605	-0.11193651	0.17219374	3.0146258	-0.6378821	-0.681205	1.8366145	4.2091956	-0.84066814	-1.3032799	-0.5211265	1.5955595	-1.2974832	-0.49514094	-0.86911	-7.0621223	-0.5681063	-2.7059867	0.39258963	1.2293026	-0.8828798	-1.1954428	3.2116783	0.1058892	2.0449061	-0.14473869	-0.30216858	0.17216669	-3.5478039	-0.65480965	0.40405673	-0.42381918	1.6274062	-0.49703196	4.825386	3.0970008	4.5475507	-2.3573825	0.010754167	2.186975	-0.2457929	-0.56455964	2.4804723	2.9423876	0.4423754	0.30900642	0.7803627	0.35771137	1.7344902	-0.9321225	1.1166524	0.86428016	0.04176722	-0.26430258	0.08347083	-0.75437844	1.6001971	-1.0135926	1.2415764	-0.034695745	-0.76537526	1.2527367	-0.23742366	-0.44188556	0.27258882	0.4974192	-2.2584465	-0.5294898	-0.6144845	-0.30805928	-0.5795157	-0.026913706	-1.0271797	-0.49761912	1.2450652	-1.5258231	0.10379898	-0.36307943	-3.4031317	1.7320234	-0.22979811	2.1660018	0.88433915	-0.17811763	2.0306764	-0.45731643	0.35040638	0.12125032	1.1200597	-0.42218024	1.7233808	-0.20885408	0.2481024	0.38360977	1.587897	-0.033363104	0.20089476	0.29949462	-0.9607944	0.11690197	1.0015091	0.49296984	-0.6066551	-0.029665275	0.15093726	0.21162774	0.22282131	0.11744957	-0.026643282	-0.27213982	-0.057029497	0.11834564	-0.2977993	0.14967357	0.18165034	-0.064352855	-0.07009824	0.33958912	0.048047226	-0.34230095	-0.29558647	-1.1834973	-0.836331	-0.19875672	0.22115414	-1.3953902	-1.0543473	1.7535138	-0.60898167	-0.26116946	0.511166	4.457401	-0.43366277	-0.041603956	0.26401573	3.0709362	-0.5220066	1.4405558	-0.99443203	0.6127967	0.7479389	-1.0208924	-0.06032659	2.6082778	-2.692343	-1.8513851	0.6066057	-0.6714816	-0.550097	-1.1388456	0.3450881	-1.2334355	1.1588652	-0.23132837	0.7049168	3.1902618	0.29562014	-1.7267001	-1.1474077	1.6170492	-1.6281927	-1.4252137	1.3000302	0.10951101	0.8034419	2.431986	1.8254812	-0.35128054	1.516967	-0.78405076	-1.1193585	-6.102469	-0.19395158	-0.21516985	-1.3318384	-0.20926249	2.7748623	-0.2402105	-0.76538604	-0.40841526	0.23156114	1.4198384	-1.8136564	-0.1612351	2.7221882	0.8924581	0.34524614	0.5998743	0.020856228	3.3139198	-0.53462744	0.47580174	-3.914734	1.0900564	-0.6436165	-2.4676971	-0.14359082	0.14324272	0.51192933	0.09788	4.6457043	1.4931785	-1.5512965	-0.7166401	0.64489293	0.8225736	-1.1971701	-5.38848	-0.15728997	0.070340835	0.8649359	-3.8851397	3.4830256	-1.0034487	1.7197306	-1.3329694	0.497468	-3.0754805	0.6373467	-3.7387161	-1.17832	-1.0373887	-3.8538232	-4.098124	0.52361083	0.48787984	-1.1634513	-1.8488492	3.588259	0.46363804	0.40533638	0.80792296	-1.0212936	1.3576365	2.4197824	-4.375146	0.71991074	5.1990805	3.7523696	-1.7676653	1.1922652	0.9111551	-0.85807234	0.12618358	1.6701791	5.4851165	-0.34436294	-0.099937	0.04853664	-0.87465525	1.065139	-0.3944295	0.2591054	0.24483351	-2.8334296	0.019646153	1.7854112	0.2373018	4.4637938	-0.017273175	0.93145746	-5.656279	0.5990303	-0.4337156	7.119307	-2.5990388	3.9972079	-2.1203678	0.23579913	-4.64356	1.6782217	-0.012356606	-2.2118058	-2.01611	-0.03560982	-0.20539662	0.032678653	0.060448475	-0.14690085	0.9938527	1.6934389	6.936939	-0.56541765	-4.027108	0.3886798	-1.3509583	-2.3375585	-1.583891	1.2435766	-3.2101674	1.406747	-1.3233794	2.1636968	0.5604156	1.0139993	3.872292	0.7184783	2.3832238	0.36252326	-0.7711603	1.60909	2.260101	-2.7482927	0.078314275	-2.113545	1.567763	-1.5383431	-3.6221468	3.4003851	1.7723374	-0.986878	0.8583765	-3.3743072	0.07376742	-2.6880167	-2.324556	-3.933491	3.0628536	1.247039	-3.1010745	0.79886734	0.9886533	-2.515341	0.36346242	-0.8649166	1.3031579	0.23970956	0.210157	2.3999906	0.6105828	-0.20593354	-0.6629773	-0.2432544	0.44145048	2.6708164	0.044971135	-0.36765623	-0.13439089	0.48293886	-0.44308606	0.17497925	1.4283489	-1.7350047	0.52178955	-0.92181194	0.58749056	1.1411792	0.70181626	-0.1436001	0.21776457	-1.63662	0.66516864	-0.66238326	0.8020497	-0.43765926	-1.2178726	-0.35410145	-0.03093027	0.8826108	-1.0467404	-0.52386355	0.6899526	-1.2017164	-0.32964897	0.61654216	0.998607	-0.72163033	-4.12423	0.46589422	0.5730376	0.7046562	-1.0713358	1.2960607	-0.87656635	0.46549982	1.729036	0.22441678	1.5474994	0.2560244	-2.705597	0.71700805	0.5445889	-2.4912271	0.15900578	-0.09406077	-0.7599459	0.373951	0.114512786	3.2552774	-0.12290855	-0.14277874	0.0888361	-0.4501534	1.0668043	-3.6616232	-3.188416	-1.902868	1.2513489	0.57317716	-1.5763215	0.3253554	0.3625537	-1.963113	-0.025690818	0.39171496	0.509376	0.61458534	-4.1015525	0.014256497	0.79098505	0.52822065	-1.3267674	-0.40440753	1.3606666	-0.47353262	4.06349	-0.2679279	3.3552568	0.49278858	-0.60640836	0.51721114	0.3122401	-0.43983492	-0.8674252	0.26922822	-0.18750468	0.73471165	-0.1081268	2.0074177	-0.17613043	-0.5861476	-0.24824104	-0.73642194	0.35225016	-2.5269802	-1.5189483	-0.88528043	0.6237253	-0.6742088	-1.4582107	-0.5051687	-0.50633734	-0.41566148	0.30366784	-0.5419581	3.6655722	-0.17109597	0.020560408	0.48418516	-0.07083851	1.3201079	-0.4780607	0.12799045	0.9996999	-0.11969266	0.018396737	5.5924215	0.44655743	0.80446064	0.58929175	-2.1805785	0.7492245	-0.040941373	0.6544954	0.3830733	0.99911946	0.12294539	-1.0857435	0.19524308	1.540643	1.0245588	-0.046603445	-2.1412878	1.3250852	0.13937879	-0.8858599	0.09857215	0.46112633	0.91287345	1.9184415	-3.1189005	2.3910098	-0.1819756	0.16410512	-2.8162105	0.28384864	0.13463348	-0.9191559	1.3340222	0.015954876	1.3590201	-0.22707707	0.2553043	0.022976808	0.843583	-0.15169422	0.62437934	-0.18751547	-0.13294953	-0.89397424	-0.2997319	0.86147815	0.34530228	0.4412757	1.201662	-0.049159236	0.5184062	-0.93497014	0.18277407	0.41433948	-1.9066467	1.0896053	-0.23732606	-0.07004275	-0.9111473	-0.6226667	0.11187563	-0.23323919	0.43218857	-0.34585133	-0.063692786	0.8285862	-0.052569352	0.0053509288	-1.6246563	1.1642289	0.04012206	0.119689256	1.427301	0.39453262	-0.9501939	0.8147576	-0.43050048	0.018965006	1.5310843	-0.0023822787	-0.40450275	0.09091166	0.65902156	-0.08708401	-0.6215089	-0.2063141	-1.0288184	0.21853632	0.3040324	0.13287924	-0.5115218	1.7138768	0.13700208	0.09938089	0.3980424	0.015028978	0.90591484	-0.7645501	0.11102153	-0.9380221	0.0741558	0.22394943	0.20119335	1.5203289	-0.67777115	-0.44488704	-0.5412765	-0.08577068	0.010002111	1.4722822	1.3396666	0.109889105	1.1919528	-0.47430977	-0.00953765	-3.726316	2.4626632	0.77929837	-0.0004876043	-0.1570249	2.0898387	0.67767733	-0.232766	-2.2689378	0.056227002	2.0688918	-0.7364908	0.4042682	2.7948222	1.6247375	0.16365859	-0.030394293	0.06346725	1.3476868	-1.0881792	0.8131613	-2.0423193	0.1351752	-0.24929997	-2.0899255	-0.15937045	0.7148949	-0.38972807	-0.14868471	2.315868	1.2894316	-1.8656127	-0.06406761	-0.61384207	-2.053832	-1.3202243	0.4951296	-0.98110294	-0.85321224	1.2697662	5.367435	1.0654578	-0.12669738	0.87356025	-0.19988202	-2.2065673	-0.09105141	0.43664807	0.7397927	0.031108292	-1.1718879	0.8208944	0.03522488	-2.6604033	-1.0303339	-0.40398404	-0.82006454	-0.16709736	-2.2853224	1.0764049	0.28627163	3.1846275	-0.69108886	0.39366058	2.6666477	-0.1276672	-0.69570655	-0.42932898	0.059963685	-3.094361	-0.53231233	2.2921267	-0.238239	-0.0032651783	0.29333165	-0.09314249	-0.83969086	0.34162232	-0.017547866	0.06891	-0.17262764	0.1940218	1.1270415	0.4224879	0.2055494	0.09726102	0.7682411	0.30596104	0.72933966	-0.051526777	0.7357512	-1.0348597	0.21050665	0.1116632	0.15115051	-0.20834252	0.5368987	0.3474907	-0.2336426	0.0051873266	-0.028028095	-0.009847936	-0.21268013	-0.36101705	-0.75329566	-0.07794855	0.38107157	-0.805277	-0.18885247	-0.7998984	-0.28075635	0.091818675	-1.3392053	-1.2132853	-0.5737431	0.8457144	2.1549454	0.24030624	-0.72739583	-0.11563564	0.4103953	-1.1792964	0.9469752	-0.7404387	1.8194721	-0.3181529	-0.4210583	-0.7907797	5.021906	-0.34629965	-0.5903217	3.0884795	-2.5153034	-1.2132348	0.6563737	-0.11597959	-0.4077984	-0.23341788	-0.2977415	-0.8265096	-0.48546305	0.58361596	-1.2554809	1.3222768	2.8081236	0.9583779	0.5109402	-2.1521776	0.80842733	-0.46161637	-0.6247251	4.343562	-0.01315989	1.8125856	-4.849794	0.6213618	0.10213115	17.671766	1.6940073	3.6359074	-0.9800705	-0.3049879	0.34258172	0.9359207	-0.06187997	3.6299357	0.26408297	0.96020997	0.18874541	1.6388367	0.40462866	-0.15122907	-0.17562151	-0.012763447	0.41983458	1.3050308	-0.13788114	0.07111922	0.19053859	0.10647414	0.07583342	-0.41864225	0.039116535	0.3500808	-1.1834216	-0.036521915	0.059645005	-0.07095844	0.9913711	-0.5485923	-0.1929118	-0.9482354	0.37425697	2.2273688	0.55186397	-0.32109937	1.1753523	-0.15959902	0.57988167	-0.8975255	-1.8616303	0.83551407	-0.5407583	1.0455828	-0.17215146	2.3200076	-0.25845537	0.7701201	1.0291924	0.44389915	0.34469804	-1.7033396	0.2775736	0.11178454	1.4423056	-0.043187078	-0.60076886	-0.24741668	0.5515443	-0.18576574	0.18301769	-1.551312	-0.16613124	0.35685223	-1.6697417	0.31897107	-0.07126498	0.58481514	1.5165364	0.6991112	0.45529383	-1.7700623	-0.12630208	-0.38490447	-0.407357	-0.021530407	0.05420354	-0.039610483	0.21775375	0.64743733	-0.56292605	-0.30292237	0.07862261	4.277976	0.06239839	0.26475775	0.018176742	0.87826014	0.17922805	0.21333277	-0.33863127	-0.2620865	0.22762835	-0.48709962	-0.16658981	-0.23900865	0.08794009	0.06692084	0.45069158	0.43572783	0.019767553	-0.16594923	0.061866764	-0.13470034	0.12826502	-0.0031978898	0.18952452	-0.24686731	-0.44561654	-0.34794095	0.02971305	0.27161926	-0.13590948	-0.9312029	1.3571311	3.0803728	0.74246454	2.5074584	0.56688595	0.42349946	-6.97653	-2.11068	0.03520737	-0.1560013	-0.80917156	4.0888257	-0.22367463	2.125097	-0.6749693	-1.4578444	2.808049	-0.89112663	-0.28175843	2.382671	1.2744807	-0.3400452	-0.33279064	0.3895909	5.6695766	-1.6547879	1.7461705	-4.2466784	2.0279903	-1.5765495	-5.8794765	-0.46521637	0.55268764	1.1034836	-0.16314907	2.5587354	3.31488	-4.529228	-0.28475422	0.06296872	0.9799894	0.9003319	0.38698724	-0.2592523	0.7214649	-0.69382876	-0.026714204	-1.0017976	-0.024572156	-1.0678762	2.5290906	-0.89867073	-2.8480117	-0.8944667	4.375629	-1.2113558	-0.99185395	2.7877011	-6.1453757	0.68588334	0.8231638	0.021078434	1.6390046	2.4523587	-0.77738327	-0.53504676	-0.6620489	0.72158843	1.058867	1.6109455	1.183124	-0.034717653	2.479167	-2.215142	1.0303017	-0.8322896	-0.82449335	4.2000437	0.14499344	0.8223933	2.3100672	1.4515144	-0.5879278	1.526314	-0.34939474	-1.0564142	-6.7081814	-0.6623485	0.30181205	0.6158764	0.1900921	3.6241028	-0.20797727	-0.7140357	-0.8662473	-0.1052132	2.346157	-1.2282387	0.34801975	2.1351213	0.66273963	0.50187683	0.6067737	-0.08073005	3.7919166	-1.0665199	0.22764187	-4.413214	2.3010683	-0.5162691	-3.0018451	-0.3613129	0.039966125	0.70704854	-0.45677578	4.1096	1.5458962	-1.929636
-3.8320549	-0.7271296	-0.08712465	-0.8360559	-0.48848113	0.4477397	-1.82757	0.7703057	1.8506132	-0.9883564	-0.6615106	0.9347434	1.6945416	0.29401878	0.23570195	0.29568687	0.21205924	0.059270106	-0.1807539	-0.111707136	-2.2526314	0.18691841	-0.4593212	0.43253052	1.5331843	-0.10811706	-0.083749324	-0.371193	1.0090371	0.24395329	0.07957517	1.1431746	0.21159744	0.20465255	-1.105024	-0.5245423	-1.3575394	0.5309716	-0.033328548	-1.7742603	-5.1182804	-0.8160766	-0.010654452	-0.83448875	-0.65045464	0.55612075	-1.9060193	0.79432595	2.1748748	-0.85574806	-0.72717404	1.0616784	1.7238992	0.48926187	0.36824954	0.3640827	0.32069677	0.53745645	-0.42366713	-0.10459085	-2.1239042	0.24541104	-0.12766926	0.66200423	1.6485677	-0.036323756	-0.0527371	-0.404722	1.0992765	0.1623868	0.3015004	1.2721162	0.34162787	0.22697741	-1.0255455	-0.5211417	-1.2488507	0.14497963	-0.077791974	-2.336528	-5.480652	-0.871254	0.05630194	-0.8346273	-0.83301353	0.5940508	-1.956183	0.8346305	2.3598256	-0.77517456	-0.81313723	1.1603161	1.462011	0.5283151	0.46180516	0.38487682	0.38589993	0.8758752	-0.5587631	-0.100806385	-2.043722	0.3029778	-0.013175521	0.82659554	1.5586958	-0.010362233	0.03970151	-0.3311959	1.1109748	0.11710567	0.4347089	1.3365028	0.39540347	0.1625477	-0.9488323	-0.52207106	-1.1687218	-0.053701814	-0.1316804	-2.5386608	-5.831021	-0.7984765	0.0693899	-0.86428356	-0.9028748	0.62207615	-2.080268	0.8704905	2.5368712	-0.71524847	-0.85705346	1.286417	1.1932403	0.59118694	0.49489734	0.36767635	0.38202527	1.0292926	-0.5562443	-0.09794065	-1.9597073	0.33891195	-0.0015557986	0.8481282	1.441829	-0.06108622	0.14620158	-0.27935678	1.130927	0.14664574	0.5338426	1.4544066	0.44343245	0.12037173	-0.9205076	-0.42255604	-1.1396285	-0.2094285	-0.16265492	-2.6821523	-6.1335278	-0.78813064	0.08403637	-0.9245026	-0.9676147	0.6588267	-2.1569757	0.8462144	2.72384	-0.6315777	-0.9536882	1.2944388	0.95211095	0.66025317	0.559172	0.37091255	0.45372888	1.157424	-0.6571051	-0.116622016	-1.8338728	0.36279082	0.03873377	0.9864733	1.2890211	-0.09268891	0.30206573	-0.1860916	1.0646286	0.1946343	0.66096807	1.6713469	0.55721086	0.086353905	-0.9185841	-0.31637907	-1.0243695	-0.38168886	-0.19254439	-2.7710671	-6.3949027	-0.83164096	0.06755002	-1.0358841	-0.9854511	0.7158806	-2.2388794	0.82123953	2.96916	-0.56346375	-1.11225	1.1995486	0.587865	0.7809304	0.5554488	0.34402165	0.51310414	1.145873	-0.7155814	-0.15368624	-1.6594491	0.37095457	0.16252941	1.0132881	1.080029	-0.20057805	0.5843366	-0.20678356	0.86206865	0.28927168	0.87815386	2.014812	0.73600596	0.06623094	-0.90132135	-0.05529572	-0.9411257	-0.5909085	-0.23229258	-2.8198788	-6.2495575	-0.824175	0.0914103	-1.3690735	-0.86546296	0.7079319	-1.9936459	0.9044838	3.2717185	-0.9126239	-1.4611696	1.1377194	0.07912135	0.8998652	0.5616023	0.33349198	0.6078425	1.0161558	-0.9220154	-0.17908144	-1.677721	0.3422733	0.063125156	1.0790864	0.83539987	-0.13791664	0.6916915	-0.041864097	0.5610117	0.3812419	1.0549482	2.276496	0.82888883	0.30635905	-0.76214796	0.14024827	-0.9115188	-0.7664475	-0.29924396	-2.9046316	-6.1650467	-0.4151957	0.15564123	-2.2328434	-0.5101878	0.57085377	-1.0497737	0.95457566	3.891621	-1.8730986	-2.0044672	1.0084625	-0.15246284	1.0441325	0.318663	0.28033745	0.4643269	1.0284632	-0.82887995	-0.24827473	-2.5036552	0.1161542	0.15057196	0.43744394	0.7915755	-0.078732066	0.62672824	-0.0026109035	0.2854897	0.31061578	0.8257463	2.295214	0.7970453	1.3923519	-1.0323353	0.31804034	-0.5727496	-0.73511165	-0.34425446	-3.3428626	-4.8909335	0.004209225	0.4672173	-2.9296267	-0.08290472	0.33145657	-0.48962644	0.3953872	3.1611233	-2.1930237	-2.333909	-0.05005095	-0.08405255	0.69809693	-0.04830805	0.72173554	0.21762891	0.7514584	-0.83004683	-0.37190816	-2.6186218	-0.4709196	-0.2045266	0.6654025	0.92807454	-0.99756	0.6900917	-0.055706117	-0.23583257	0.42495158	0.25903028	1.7358496	0.8988207	3.832982	-1.156922	-0.08904299	-0.41666883	-0.6326651	0.7713824	-2.6073613	-4.805887	0.113995045	0.42209443	-2.9160197	0.13875973	0.4365493	-0.51393646	-0.24068746	2.2264085	-1.9644884	-1.7902079	-0.5265878	0.25835276	0.58918995	-0.22144502	1.2908101	-0.2133938	0.21085519	-0.86460817	-0.38013363	-2.2277122	-0.943154	-0.6480948	0.9363697	1.6738602	-2.8023026	1.2569463	-0.0918361	-0.3288083	0.8819726	-0.08215779	1.3192875	0.94001377	4.5668135	-1.1745185	-0.3459582	-0.51433206	-0.3662716	3.146213	-2.5622306	-4.446532	0.14884794	0.44525474	-3.1217568	0.17179841	0.5215938	-0.58157444	-0.46686262	1.8154655	-1.9665384	-1.3397932	-0.61110854	0.47757697	0.64444333	-0.041752405	1.4093884	-0.47172052	-0.039139867	-0.6577999	-0.3816264	-2.1853373	-1.1593444	-0.7119398	0.43606478	1.4554825	-3.4154243	1.4490908	-0.12291203	-0.37229133	1.1624364	-0.31858423	1.0409447	0.8846418	4.5763054	-1.3163427	-0.2978961	-0.3784353	-0.46242738	4.199607	-2.554495	-3.38725	0.13625489	0.7075887	-3.6397614	0.26211548	0.50507593	-0.65472597	-0.8891259	1.2608718	-1.9530449	-0.56905365	-0.52110565	0.5759056	0.6731831	0.47835505	1.3376594	-0.69223595	-0.40967053	-0.45831695	-0.44897583	-2.0564005	-1.558632	-0.98820835	-0.58881944	0.3466225	-3.6982868	1.5437909	-0.22585021	-0.5114366	1.5055434	-0.816537	0.93649006	0.8334417	4.469295	-1.3238372	-0.16711535	0.19234619	-1.0263594	5.3073425	-2.1630952	-2.8543518	0.20505252	0.8681689	-4.0975394	0.36494628	0.51458865	-0.6064165	-1.4386019	0.52365315	-1.9629244	-0.2464654	-0.474729	1.1204712	0.5387611	1.7438768	1.20298	-1.0016805	-0.8793277	-0.29249778	-0.4825239	-1.9429083	-1.7637135	-1.2201332	-2.4075298	-0.43459195	-3.9744422	1.6858236	-0.3704799	-0.5824079	1.9426664	-0.9525127	1.0221827	0.7586596	4.216864	-1.4290593	-0.07697791	0.6976406	-1.0405537	6.0679326	-1.7087739	-2.464059	0.2216555	0.55723524	-3.8325953	0.25831297	1.015512	-0.6170043	-1.0869359	0.27928978	-2.4597583	-0.6837121	0.00028627054	2.0064156	0.3599895	2.7846594	1.5783504	-2.3393579	-0.8056295	-0.21959692	-0.4892094	-1.9081571	-1.1716033	-1.3967276	-6.50232	0.036628038	-5.3360367	2.4446054	-0.40208918	-0.46074435	1.9154309	-0.73484695	1.4542053	0.62235713	3.5257611	-1.4226148	-0.02768182	0.788446	-0.99094135	5.847588	-1.225886	-2.8896816	0.49132547	0.7529139	-3.425419	0.10603783	1.4671918	-0.93851143	-0.53344095	1.0202062	-2.4341662	-1.0996802	0.36083457	3.146938	0.28085345	1.7295477	1.3136781	-1.0679333	-0.36876693	-0.29315045	-0.10908807	-1.9796152	0.23574491	-1.1194134	-1.5124092	0.47007188	-3.5156574	1.2811266	-0.26179016	-0.13197012	1.5275569	-0.5848647	1.1388432	0.6653416	4.0093775	-1.589479	0.26410222	1.0734571	-1.0869826	3.7152834	-1.7430128	-5.4496856	0.60626304	0.28934833	-2.6511405	-0.013320396	1.3554323	-1.6151776	0.9161202	1.7081106	-0.9495234	-1.3395298	0.5998196	3.4079757	0.563567	1.4006649	0.9673859	-0.08580934	0.39268535	-0.6080679	-0.019580144	-2.0552156	1.0459963	-0.8277043	0.13106841	2.0024297	-0.03662827	0.14463417	-0.018423924	0.30850324	0.476805	0.39141667	1.6710544	0.78989416	1.8475735	-1.7343452	0.4530501	1.984483	-0.6694798	1.9462496	-2.4328547	0.65021497	-1.3536247	-0.0006741826	-1.0044116	-0.6881848	0.16531464	-1.0691369	0.7215282	0.9753908	-0.20813027	-0.7611095	0.06196466	0.56757474	-0.03299392	0.29434147	0.08028009	0.34549305	0.038654007	0.10122986	-0.16255248	-1.7738243	0.24261312	0.07730214	0.53105164	-0.9683735	-0.0029896805	0.35627913	-1.8478566	0.21846548	0.041378107	-0.014242667	0.41621026	0.06477206	-0.0021219235	-1.5094538	-0.8521591	-0.24919042	0.56486267	-0.42368326	0.62479883	0.51308006	-1.2772309	-0.011270749	-0.85155493	-0.84265155	0.049128823	-1.1172347	0.48502082	1.1238294	-0.8488059	-0.8983859	0.32182333	0.809904	-0.10180698	0.39168647	0.22014894	0.56521904	-0.043675583	-0.3954108	-0.1685088	-2.2187777	0.1283892	0.21710378	1.0907754	-0.29597092	0.16203019	0.16662571	-1.4548362	0.4303102	0.18736021	-0.085953705	0.5545373	-0.13995226	-0.02896959	-1.3154608	-1.0961431	-0.49285153	0.5995837	-0.1899997	0.17989105	-0.8391229	-1.1026512	-0.056045692	-0.6364696	-0.93874896	0.022292774	-1.2349181	0.37884635	1.2790842	-1.3571906	-0.76801413	0.7348699	1.1504561	-0.09621879	0.45465562	0.36461157	0.6624641	-0.055474266	-0.85407674	-0.14478122	-2.495393	0.045364905	0.333039	1.4286894	1.0053829	0.24221471	-0.07977972	-1.0621248	0.7378498	0.175164	-0.12630817	0.71583474	-0.26617527	0.022045547	-1.1999978	-1.2111347	-0.6795806	0.6426981	0.054717116	-0.7360306	-2.81927	-0.9944456	-0.1128468	-0.61364365	-0.85219926	0.1690167	-1.4432869	0.52557963	1.5066724	-1.3477147	-0.53143597	1.0540535	1.4851618	0.05955677	0.44454828	0.41486883	0.5666193	5.8998063e-05	-0.8561251	-0.120345145	-2.4617689	0.072934285	0.19442897	1.27709	1.9046584	0.17739329	-0.2149245	-0.8786526	0.98962957	0.12791629	-0.06519998	0.9555797	-0.13465238	0.14952219	-1.100479	-1.0676279	-0.85114515	0.6545059	0.11761794	-1.5286108	-4.1224203	-1.0072193	-0.102661535	-0.6385593	-0.90243757	0.24938217	-1.4832448	0.55913424	1.6116484	-1.2624327	-0.41042674	1.2110205	1.6502817	0.19406821	0.44753614	0.44648746	0.5321454	0.17182025	-0.9825684	-0.101872884	-2.3716218	0.09341988	0.2195919	1.195221	2.354044	0.21790989	-0.31706327	-0.72577965	1.1124965	0.14188272	0.04126151	1.0252408	-0.047036324	0.24874519	-1.0224085	-1.0498822	-0.82487714	0.5362963	0.12387773	-1.9735283	-5.284827	-1.0249397	-0.06294614	-0.6285946	-1.0249023	0.29983842	-1.501086	0.5522412	1.681262	-1.166503	-0.263479	1.3269	1.7698567	0.3305976	0.49509826	0.49723944	0.58472645	0.48912022	-1.254367	-0.08768892	-2.3257449	0.09352458	0.53783685	1.2687964	2.673581	0.40564883	-0.45967293	-0.72277296	1.2098105	0.08238564	0.1436499	0.99259496	0.0004921035	0.3459847	-0.9825842	-1.1112446	-0.6508533	0.3617095	0.1202873	-2.3619392	-6.397358	-0.9935571	0.056542	-0.869203	-1.1065615	0.46179262	-1.6553701	0.6088025	1.939897	-0.9582447	-0.2004012	1.3353515	1.7899003	0.5363279	0.48598087	0.5163254	0.523571	0.8934747	-1.2125261	-0.08552859	-2.1900272	0.15388745	0.7303063	1.0784267	2.2678604	0.44975898	-0.44600827	-0.69749165	1.2543064	0.17865667	0.3224038	1.0613259	0.2007356	0.40473643	-0.96670854	-0.9212425	-0.49591315	0.0037559639	0.029858524	-2.6184716	-6.803655	-0.90393245	0.1454128	-1.0899518	-1.0839982	0.63533217	-1.9151738	0.6246369	2.2791882	-0.8070577	-0.25857005	1.1218927	1.4249388	0.6697708	0.55573434	0.5825792	0.5924211	1.0343115	-1.2159534	-0.10847347	-1.9348207	0.24279207	0.74564433	1.1730626	1.559524	0.33214253	-0.16978376	-0.5426261	1.1819105	0.24372867	0.5008526	1.3108935	0.468277	0.29239875	-0.9857184	-0.633356	-0.225967	-0.35645878	-0.03114658	-2.807688	-6.631155	-0.8863714	0.05103733	-1.8578637	-0.7309763	0.8075782	-1.8273567	0.5463048	2.6558537	-1.23554	-0.77264875	0.16522288	0.46958694	0.99047333	0.56628996	0.6368801	0.8603748	0.5175376	-1.3795933	-0.18695293	-1.3900177	0.20083153	0.7505094	1.2925519	0.9471337	0.3301539	0.24268731	-0.46758622	0.58305883	0.495492	0.863456	1.9267386	0.9570344	0.6914028	-0.98303	0.04470592	0.16913424	-0.77735895	-0.13275163	-2.8284097	-6.069257	-0.6094061	0.01172966	-2.990894	-0.3123977	0.759766	-0.41951722	0.38774434	3.147559	-2.4837446	-1.6935238	-0.7427145	0.7715223	1.1916223	0.2927758	0.689537	0.6686747	0.5694042	-1.2211511	-0.27809063	-2.2071054	-0.19011709	0.24251838	1.0517765	0.9137216	-0.035713915	0.27329004	-0.33006442	0.35906875	0.42824438	0.5436832	1.8737231	1.0209126	2.557733	-1.1312741	0.18043232	0.41121504	-0.7252803	0.12934013	-3.0137346	-5.586024	-0.4567735	0.17127718	-3.3224924	-0.22421865	0.73000824	-0.10982222	0.11574076	3.0588346	-2.7827244	-1.9001839	-1.1872119	0.9885911	1.0344242	0.097797684	0.7524039	0.4786832	0.623643	-1.0793009	-0.3252895	-2.423163	-0.4720241	0.06738127	1.3503253	0.8708867	-0.75242794	0.49192715	-0.35911188	0.30831632	0.4362771	0.3174555	1.7497367	1.0582913	3.4026923	-1.2826889	0.16204304	0.50898784	-0.68374664	0.7663199	-2.8454397	-4.7059817	-0.39686444	0.3372582	-3.3468108	-0.11774725	0.6814964	-0.022587666	-0.18279442	2.5508587	-2.9657645	-1.8901422	-1.5483516	1.0931377	0.7508	0.023387289	0.7605492	0.42945057	0.45095044	-1.0487423	-0.33016607	-2.2065206	-0.832158	-0.1768062	2.2768693	1.0877514	-1.6048142	0.7294163	-0.4438864	0.07797337	0.50424063	0.030684223	1.5438619	1.0454314	4.0142083	-1.2247658	-0.08733383	0.44136798	-0.6501107	1.9317281	-2.6351657	-4.2310724	-0.20004272	0.29408473	-2.9912534	-0.058496036	0.66877216	-0.16873643	-0.63100904	1.8322985	-3.2469604	-1.6157378	-1.6796575	1.5280035	0.55273396	0.5957176	0.66563404	0.49185368	-0.10286843	-1.3556907	-0.27290228	-1.7591351	-1.2808048	-0.47273073	2.9405398	1.86735	-2.518174	1.0132695	-0.38642463	-0.15052429	0.61694163	-0.073129945	1.4299697	0.8701764	4.188627	-1.2183293	-0.2798631	0.16985042	-0.57825994	3.7159503	-2.6734788	-3.923192	-0.13325168	0.033752333	-2.31978	-0.109299175	0.75052136	-0.56144965	-0.38027254	1.2987471	-3.4568021	-0.86128724	-0.8866535	2.1176279	0.60795325	1.4855076	0.6197037	-0.845811	-0.452145	-1.2588649	-0.18796222	-1.4369352	-1.1812689	-0.7821394	-1.8779418	2.0391982	-3.511674	1.4118708	-0.4905005	-0.20703167	0.91201013	-0.05571434	1.8846023	0.5057543	4.0082803	-1.1112587	-0.32386595	0.17216393	-0.53227663	4.750684	-2.7609322	-2.5458214	-0.08350862	0.589893	-2.5935884	-0.07680338	1.1153895	-0.85876864	-0.17115021	0.8834329	-2.9790635	0.109233476	-0.31023413	2.6999862	0.50623924	1.6512555	0.6985678	-0.6346532	-0.1234864	-0.66996473	-0.3550883	-1.6704903	-0.56999785	-0.8569696	-0.77760345	-0.68306845	-3.2815776	1.8146986	-0.5648454	-0.13622509	1.3015728	-0.5057577	2.5847332	0.6941454	3.1063626	-1.4243685	-0.07025137	1.0931422	-0.9320525	3.6400802	-1.8709255	-3.6357393	0.5796943	0.77440614	-2.8786657	-0.1398541	1.5190492	-1.1255732	0.05240996	1.3671257	-2.363242	-1.1460197	-0.520681	3.7452345	0.31118912	0.7429653	0.26385227	-0.4129472	0.1434651	-0.8155262	0.24388774	-1.6967515	2.0018458	-0.7056419	0.18705605	0.69875324	-1.8288703	0.90417385	-0.2576995	-0.032566838	0.87457645	0.057408545	1.539062	0.6871941	3.3640618	-1.7263589	0.3787318	1.8099761	-0.89281493	3.8877928	-2.2666433	0.1611119	-1.1687087	0.015019089	-0.9270196	-0.49242687	0.21136175	-0.83245844	0.54778427	0.70413274	0.24542323	-0.50520897	-0.16365394	0.35735843	0.07756919	0.064939074	-0.036464985	0.048625313	0.8292401	0.10896141	-0.10464963	-1.2114089	0.22651605	0.2874576	-0.2595895	-0.9446995	0.23641217	0.2312855	-2.1510227	0.021398786	-0.091527306	0.16017237	-0.0013991337	0.14960317	0.04093583	-1.7445205	-0.42435935	0.0609552	0.3541639	-0.48728052	0.6940251	0.2957894	-1.2981026	0.2571111	-0.97636455	-0.1859215	0.102231815	-0.76846564	0.5769381	0.54813224	-0.18627737	-0.5240425	0.0073805912	0.24689849	-0.21444696	0.16661	0.02134732	0.14858367	0.25551865	-0.22072016	-0.08874975	-1.4245335	0.21854247	0.36910108	0.1627683	-0.70713586	0.06376627	0.19915833	-1.8293841	0.1046584	0.044442687	0.1648026	-0.061263666	-0.013067075	0.010156227	-1.5787781	-0.6779428	-0.1158183	0.33358663	-0.41272718	0.7238553	0.29539752	-1.3210703	0.39786717	-0.87936634	0.060793154	-0.014078679	-0.7783753	0.48378026	0.4530919	-0.7459769	-0.50075376	0.20805846	0.24587691	-0.37386286	0.19378407	0.10363644	0.31634027	0.013467691	-0.7673515	-0.05413665	-1.6732619	0.103572406	0.64510375	0.5368285	-0.30137175	0.40881583	-0.17765972	-1.6825825	0.23825535	0.10896784	0.13794228	-0.20718427	-0.23109044	0.028827734	-1.3835078	-0.6632902	-0.24096027	0.25136167	-0.22765514	0.46630782	-0.35418868	-1.3139514	0.46917257	-0.7386787	0.08043885	-0.0025165018	-0.97520196	0.47603393	0.41135347	-0.98210466	-0.13920936	0.39639306	0.24892719	-0.4137074	0.22579256	0.15663852	0.39602777	-0.12186253	-1.3959796	0.0010068569	-1.7103757	0.04074512	0.8027353	0.7623238	0.17403856	0.4978874	-0.29894882	-1.514194	0.3870012	-0.101651035	-0.06870206	-0.4068282	-0.4060455	0.09474527	-1.2033448	-0.027827993	-0.1591213	0.25501382	-0.088032536	-0.20272702	-0.33970478	-1.3866403	0.7252824	-0.7772612	0.033303376	0.13122657	-1.1090332	0.3019567	0.45564553	-0.45135337	0.2482405	0.31055853	-0.30106702	-0.7412814	0.26871336	0.19173355	0.40738487	-0.105099306	-1.7671167	0.043614384	-0.68286514	0.063524306	0.84655184	0.7798416	-0.11286926	0.21079513	0.19741763	-1.2136598	0.31290922	-0.25725466	-1.1442069	-0.2037588	-0.4912847	0.009457488	-1.1477909	0.6815941	-0.01152375	0.6503653	0.0114707565	-0.7609141	0.13476804	-1.3154619	1.288407	-0.8288293	0.12766883	0.23332855	-0.98346096	0.17758003	0.4420311	0.069292754	0.11804373	0.03661982	-1.0875028	-1.338289	0.29934517	0.25291225	0.5498171	-0.40682358	-1.829442	0.10403819	0.611821	0.11646478	0.94310045	0.8423971	-0.16868924	0.23553815	0.6028879	-0.87835854	0.12836695	-0.14843766	-1.8991705	0.16125633	-0.85913706	-0.113871075	-1.220478	0.63477135	-0.027704975	0.83732784	0.100529306	-1.140032	-0.087256566	-1.0307823	1.5946842	-0.81586295	0.1153523	0.3450289	-0.93833226	0.054010734	0.47907412	0.115989186	0.19264494	-0.2798991	-1.2870963	-1.6127396	0.30201888	0.36724848	0.81290215	-0.95828426	-1.8150233	0.06719276	0.68235564	-0.10161375	0.9864703	1.2241696	-0.08309694	0.951037	0.31447247	-0.58761287	0.031309955	0.16856335	-1.5718994	0.5880557	-1.548258	-0.035663374	-1.2422419	0.52987814	-0.0820299	0.77041453	0.305907	-1.2925341	0.032673083	-0.69145185	1.2018683	-0.78486925	-0.14156973	0.4472093	-0.9253559	0.22912923	0.6547464	0.46481487	-0.2945171	-0.9260851	-1.0255524	-1.1315871	0.38812625	0.3979341	0.64610267	-1.769951	-1.9181055	0.0013504847	1.1103033	-0.47112516	0.72527	1.5544246	-0.28851512	2.0825005	-1.6118168	-0.38726828	-0.14151229	0.25250456	-1.192774	1.1905767	-1.9846199	0.4679637	-1.1258291	0.52565074	0.15492336	0.6047738	0.5697915	-1.3660616	0.35609105	-0.20248793	0.41362286	-0.83194	-0.7141888	0.6460345	-0.83274317	0.96228755	0.7029819	1.0698746	-0.71221113	-1.7016157	-0.9893753	-0.3107275	1.4972425	0.301404	-0.2994985	-1.8829621	-1.63251	-0.09498027	0.89740145	-0.16356747	0.33363834	3.470388	-0.55755407	-1.5314127	-4.021978	0.1228831	-0.06975122	-0.06606041	-1.038149	1.4634117	-2.449465	0.47980016	-1.3634694	0.55836004	0.9605274	0.6931984	0.61085343	-1.1082199	1.0367818	0.074114546	-0.12008641	-0.8118212	-1.2700504	0.65096253	-0.6643004	1.3761175	0.37502563	1.0590668	-0.81857526	-2.2359529	-1.0600705	0.19527104	2.0781498	-0.2449026	1.250444	-1.7643856	-0.9887507	-0.093878254	0.8896666	0.16308144	0.14050537	3.7509327	-0.43181178	-4.7139983	-5.335973	0.37731227	-0.2864406	0.043950595	-0.9786795	1.5399557	-3.0255318	0.46049398	-1.6941549	0.34946105	1.3480994	0.60213757	-0.19842647	-0.70705354	1.3040534	0.13961379	-0.4298476	-0.59605354	-1.3038806	0.48996878	-0.7043323	1.4641454	0.2908618	0.89272225	-0.81877667	-2.1055017	-0.6359047	0.35067692	1.5904135	-0.3588834	2.084591	-1.7508996	-0.823176	-0.12199884	0.68035805	0.14333615	0.10842395	1.9208235	-0.25392622	-5.368134	-5.8142543	0.17194247	-0.3021756	0.09981181	-0.92161804	1.8334868	-3.2824087	0.9765432	-1.653258	0.20063587	1.3418826	0.64687294	-0.5374247	-0.5180481	1.2450101	0.26028034	-0.44564387	-0.30637076	-1.466428	0.30788478	-0.71137583	1.3774862	0.4566232	0.4453643	-0.7119179	-1.3347743	-0.23936985	0.12565364	0.74330074	-0.41096538	2.6641526	-1.5856353	-1.1092215	-0.11103645	0.53717244	0.055214196	0.122775696	-0.49746603	-0.024348274	-6.647767	-6.327194	-0.053279977	-0.14638242	0.21793349	-0.8313707	2.4032364	-3.5385807	1.3838472	-1.4343442	0.24656257	1.167651	0.6979901	-0.48082972	-0.40618324	0.8705269	0.18878546	-0.17055213	-0.15116228	-1.7834915	0.5220407	-0.47270042	1.5083407	0.60427415	0.27861562	-0.60670745	-0.7631166	0.49627253	-0.09935773	-1.1593944	0.028829679	3.3013957	-1.0189878	-1.5195452	-0.00066955434	0.61584044	0.25614712	-0.02520231	-4.748418	-0.2939067	-8.145116	-6.6204667	-0.017526522	0.21824697	0.32408112	-0.7013649	2.4955323	-3.6228213	1.3174384	-1.1694924	0.58309585	0.846885	0.62470406	-0.24477571	-0.39059794	1.3010892	0.045520395	-0.16224255	-0.18961626	-2.199447	1.0376525	-0.5920884	1.7621664	0.9463353	0.56900257	-0.6556824	-0.46300355	1.1407517	-0.21419115	-2.2729988	0.35263938	4.9278083	-0.76924676	-1.3403517	0.1383401	0.43707493	1.0386461	-0.32989186	-7.051905	-1.1047086	-8.486819	-6.5823464	0.1735122	0.92001325	0.45966652	-0.47943923	2.4210773	-3.6809251	0.13808009	-0.9433824	0.87755024	1.0111678	0.4965149	-1.2778004	-0.71499157	1.4768947	0.35047013	-0.22378749	-0.51447237	-2.2859395	1.2910184	-0.78734225	1.7004577	1.3117349	0.80604285	-0.9950284	-0.45479426	1.6070218	-0.15520413	-1.3796962	0.3881786	7.1884947	-0.7513381	-1.4280298	0.30494368	0.7488548	1.9777956	-0.4528245	-4.9712534	-1.1721703	-8.295377	-6.7299933	0.57023895	1.1664993	0.52186996	-0.6051497	2.4543447	-3.5241597	-1.0925425	-1.0536911	0.6750922	1.3505768	0.50250626	-3.729542	-1.0496389	1.5724452	0.55651826	-0.26175004	-0.6780894	-2.0265067	1.4703765	-0.9290677	1.6771016	1.397277	0.91141576	-1.1496458	-0.6557665	2.4547818	-0.11506558	-1.2387677	0.5985946	8.335462	-1.0892121	-1.3845851	0.34377736	0.9056054	2.4790406	-0.69888824	-5.32025	-1.159342	-8.677527	-6.6995225	0.8239972	1.2385454	0.43612787	-0.68517834	2.4963582	-3.4211757	-1.5498483	-1.1434883	0.56227547	1.5466794	0.49730146	-4.777761	-1.2241143	0.3811131	-0.9863713	1.8458391	-0.72975796	1.4050839	0.044059027	-0.3337198	-0.15731286	-0.1559123	-0.25963512	0.36678845	-0.55136514	-2.7342064	-1.5688287	-0.5171849	0.0833997	0.3825846	0.5360059	-1.5317042	0.1694367	0.77498895	-1.1604782	0.80018723	-0.40760967	-0.28595465	5.9226503	-3.5648859	-0.25015175	-0.52466714	0.92318857	-0.66012037	-0.1282179	-3.3390944	0.6402272	-0.7876501	0.9059882	-1.2423236	0.083410904	0.59999055	-0.73187345	0.12007949	-0.70935047	1.2859797	-0.62442726	1.4476153	-0.10020515	-0.43399584	0.14114203	0.036107395	0.16889355	-0.038015205	-0.6493541	-2.6294615	-0.9032665	-0.421555	0.04775867	-0.77020586	0.69850886	-1.2650623	0.03829317	0.38359964	-1.5570344	0.52438164	-0.73074377	-0.36361086	6.20166	-5.9202223	0.022147821	-0.82387304	0.9622775	-0.2251788	0.091457374	-3.7111652	1.3704101	-0.71647084	0.8775539	-1.2992792	-0.051965516	0.7412887	-0.23989803	0.03645003	-0.6140409	1.1613313	-0.54152286	1.4786412	-0.22385849	-0.49910986	0.40867904	0.16457894	0.36813012	-0.23327631	-0.18749045	-2.9742606	-0.7642215	-0.16472775	-0.06291654	-1.5266117	0.6568296	-0.9174438	0.020863224	0.13867952	-1.5464253	0.2457184	-0.46477282	-0.36481404	5.0042367	-6.684093	0.1983099	-0.7402345	1.082565	-0.020528717	0.1310735	-3.9366055	1.6536542	-0.62944704	0.87616	-1.5951158	-0.13821794	0.8115949	-0.11383606	-0.042286523	-0.6319095	1.0003668	-0.6024873	1.4066155	-0.18201986	-0.41230157	0.37858787	0.12177063	0.3787004	-0.26172534	-0.32746223	-2.9021547	-0.64966595	0.2900899	0.09214553	-2.0421903	0.54796463	-0.94224924	0.006391145	0.13709937	-1.4405289	0.15552916	0.6832324	-0.30038568	2.9258554	-7.1800127	0.2217077	-0.5554444	1.2135358	0.07278774	0.19957015	-3.9577744	1.6168566	-0.5758946	0.85811657	-1.5154759	-0.15981485	1.1558537	-0.022920031	-0.1517262	-0.5601926	0.927031	-0.684626	1.4475843	-0.17674811	-0.3957145	0.30756164	0.06356734	0.47983193	-0.22578904	-0.41134745	-2.8156812	-0.5466476	0.8116046	0.13449576	-2.263161	0.6029324	-0.99077797	-0.0053479252	0.06300551	-1.3292983	0.20748082	2.0245013	-0.23151644	0.55023926	-7.599293	0.22644107	-0.64873356	1.2549633	0.056541182	0.09582298	-3.9776008	1.5698138	-0.64423054	0.80651134	-1.3380115	-0.14882927	1.4304974	0.0406474	-0.20221321	-0.40762436	0.9502778	-0.8121458	1.5416368	-0.1328486	-0.40708983	0.2582183	-0.029258432	0.46314186	-0.14797626	-0.44920522	-2.7843592	-0.5544484	1.4930955	0.12867576	-1.8506489	0.4668152	-0.946788	0.0224202	-0.020897727	-1.0918877	0.07732766	3.5333025	-0.16650286	-2.4342833	-7.716501	0.21911593	-0.6442742	1.2673026	0.035920013	-0.118049	-4.0407696	1.3892893	-0.6624482	0.8488767	-1.3129557	-0.14972301	1.6338199	0.07923501	-0.040221542	-0.22603689	1.0400294	-1.0419271	1.6025171	-0.14366445	-0.27966502	0.0028019194	-0.2504892	0.238592	0.0037390417	-0.3860965	-2.7533708	-0.58925885	1.9639207	0.113572925	-0.4873399	0.2556601	-0.9187102	0.09505193	0.023344235	-0.78696275	-0.10342646	3.8072214	-0.11994155	-5.348375	-7.7814946	0.16490151	-0.7233076	1.5806245	-0.065114036	-0.37738326	-4.173409	1.2128944	-0.6243708	0.80085224	-1.4021237	-0.19722316	1.7072767	-0.030226437	0.2202032	0.19258799	0.69582987	-1.3516804	1.7495687	-0.16475637	-0.39779824	-0.2570896	-0.6180081	0.18932652	0.11828421	-0.2573449	-2.5271611	-0.39583862	1.4495261	0.06766846	2.044425	0.14838703	-1.0245131	0.15053216	-0.061932143	-0.3862502	-0.37313756	-0.40096423	-0.3832943	-7.3190255	-7.728035	0.18879025	-0.63934267	1.8107419	-0.10968209	-0.5677727	-4.254434	1.1664116	-0.7704818	1.0088496	-0.8831943	-0.11362279	1.2065789	-0.25027665	0.2607291	0.45174167	0.32111573	-2.002736	2.0200217	0.1439213	-0.2578479	-0.09473276	-0.69528025	0.6241315	-0.011832705	0.07859052	-2.5501735	-0.32317176	-1.6871538	0.4745667	4.016113	0.39689857	-0.9128238	-0.03857888	0.15279242	-0.24118786	-0.40957603	-9.498989	-0.11254016	-7.647294	-7.64442	0.17619906	-0.40650818	1.9437456	-0.53698796	0.24324177	-3.7436774	1.1971856	-1.0373961	1.2552701	-0.025528103	0.19724184	0.5322598	-0.24758767	0.10591782	-0.034560278	0.35164607	-2.227799	1.8751023	0.4291497	-0.12781897	-0.11126001	-0.5690185	0.5879774	0.060934123	0.0540809	-1.981146	-0.28336814	-2.27174	0.46041015	4.927547	0.49810606	-0.5834562	0.08022463	0.055253133	-0.24080123	-0.08062245	-9.796173	0.33082038	-7.2371707	-8.011839	-0.08475523	-0.7221361	1.9318134	-0.63282895	-0.14163905	-3.706468	2.1006472	-0.8795366	1.2214121	0.0006039625	0.38189968	-0.116226524	-0.21110924	0.11665034	0.07919348	0.2521635	-1.9686573	1.8226365	0.16303892	-0.32036805	-0.2940632	-0.46217218	0.40713164	-0.0133696785	0.0945055	-1.5528733	-0.15510985	-1.6643828	0.42249638	5.809592	0.45795408	-0.7428353	0.15809107	0.011063885	0.03515074	-0.11434989	-8.098394	0.43024263	-7.4754143	-7.769595	0.14585747	-0.7077593	1.8812009	-0.49862874	-0.2946217	-3.9488554	2.6498065	-0.90007985	1.1972095	-0.31364715	0.34083936	-0.9930761	-0.26674753	0.10125643	0.0921743	0.2843423	-1.546363	1.8018439	-0.12858973	-0.35622805	0.29521766	-0.39939314	0.57620233	-0.29766545	0.15376799	-0.91977924	-0.18467724	-1.9363792	0.5502038	6.7035875	0.82496816	-0.7078937	0.08022618	0.08437188	0.4461456	-0.24353443	-6.8483863	0.25192022	-8.060027	-7.906762	0.1846582	-0.4062398	1.650495	-0.3882075	0.11584249	-3.9421551	2.5942152	-0.89247996	1.1469268	-0.34774527	0.20207547	-2.1199543	-0.12382561	0.24662542	0.15661961	0.36364606	-1.4759132	2.0034592	0.23948161	-0.49119848	0.51799595	-0.22104517	0.95735455	-0.4702981	0.16369572	-0.20195597	-0.3647399	-2.9650607	1.0291654	7.705379	0.91331875	-0.5605391	0.01173365	-0.064509876	0.5558276	-0.33185259	-7.214946	-0.030807476	-9.070799	-7.372961	0.24381675	0.21423867	1.5158612	-0.4571012	0.37657467	-3.7887917	1.4927895	-0.99333	1.2281522	-0.23094743	0.0324443	-2.336797	0.08770417	-0.25177893	0.1952403	0.7397112	-1.5427827	2.2418313	0.6568253	-0.64291936	0.5657048	0.022491593	1.34333	-0.56383395	0.038605258	0.59814173	-0.56549555	-2.456031	0.74795866	6.989182	0.5999067	-0.67314726	0.18256666	-0.3822366	1.140277	-0.349129	-4.846517	0.091028415	-5.7062097	-8.318311	0.3676717	-0.029501976	1.2015923	-0.21518709	0.04144131	-3.6701124	-0.12879255	-1.010119	1.366717	-0.016901305	0.19344255	-2.0229082	-0.021204887	-0.4893991	0.19966294	0.66114295	-1.7120974	2.3383336	0.75290984	-0.66744685	0.3528712	-0.074206114	1.4049839	-0.5024757	-0.13201565	1.1982012	-0.4588372	-1.5537655	0.74077374	7.566292	0.38355783	-0.6431235	0.21297699	-0.3490799	1.4218429	-0.36641398	-2.0438192	0.32878888	-4.8946605	-8.682261	0.32936254	-0.07862881	1.2982674	-0.25406277	-0.05849038	-3.6041899	-0.7562601	-1.0320961	1.4207563	0.024175942	0.24323489	-2.7197757	0.032327533	-0.4972033	0.23071145	0.64886093	-1.7409956	2.3629868	0.90607446	-0.68307596	0.31910655	-0.085945405	1.4509659	-0.45805475	-0.094595626	1.7239232	-0.48316577	-1.406829	0.86557573	7.71345	0.3211348	-0.6321494	0.24563935	-0.4278974	1.5696669	-0.35013855	-1.5098329	0.330139	-4.840383	-8.746622	0.31920308	0.08268811	1.2909452	-0.2731479	-0.12092294	-3.604159	-1.2036709	-1.0642425	1.4288577	0.047626678	0.2811568	-2.7682965	-0.017789554	-0.11051609	-0.2790976	0.12692964	-0.09050047	0.17254382	0.08482077	-0.22294487	0.27137452	0.2208611	0.27149254	-0.11166379	-0.075969264	0.099888854	-0.076361574	-0.02157843	-0.043353733	-0.058906782	-0.17725244	-0.13986187	-0.030485906	-0.040952485	0.05193386	-0.25168037	-0.15389718	-0.15425396	-0.123754956	0.07541372	-3.173495	-0.07768141	-0.28584734	0.020624548	0.13111907	0.21543817	0.018229619	-1.1949273	0.15802753	0.21126206	0.07530462	-0.08642246	0.039164435	-0.19145061	-0.84104526	0.23165143	-0.31613868	0.48511934	0.08560238	-0.14662783	0.40013674	0.19040667	0.27844912	-0.19042297	-0.11030479	0.03222424	-0.20612672	-0.037104983	-0.035306916	-0.06896459	-0.24425785	-0.5014751	-0.056397118	-0.15106124	0.08630556	-0.021209856	-0.21447906	-0.19973615	-0.078720324	0.059654	-2.852141	-0.11608989	-0.23842776	0.1669962	0.13625774	0.27435836	-0.027945992	-1.1216415	0.065795876	0.14523646	0.12215786	-0.15362105	0.3651478	-0.29017034	-1.4509366	0.38548678	-0.5405743	0.76000726	0.038755257	-0.21322422	0.36133537	0.22390378	0.22760335	-0.3154914	-0.29950652	-0.05029526	-0.33886236	-0.05559438	-0.026486065	-0.0045948797	-0.18597043	-1.4728353	-0.07892604	-0.26026112	0.06515533	0.21724029	-0.22780627	-0.16010411	0.20207015	-0.052802708	-2.32108	-0.19468334	-0.29526976	0.29358444	-0.016654171	0.28901508	-0.08078507	-0.7626003	0.22084375	0.1755739	0.11733676	-0.18546028	0.6709546	-0.29543176	-1.762443	0.68231875	-0.78796226	1.2149187	-0.09106143	-0.57470185	0.021040121	0.12307713	-0.007576006	0.035353273	-0.6325901	-0.4823535	-0.5290759	0.028397743	-0.030458633	0.23808716	0.34384567	-2.5836198	-0.0095807165	-0.069026515	0.0041401736	0.7857819	-0.070303224	-0.058254927	0.888201	-0.20785698	-1.7967454	-0.24237601	-0.48809066	-0.565364	-0.6981814	-0.12305659	-0.047721554	-0.5518924	0.83233523	0.25704122	0.29321146	-0.21721536	0.44046453	0.17854749	-1.8677388	1.2215866	-0.96937716	1.4204328	-0.21244518	-0.49210083	-0.17924502	-0.27519128	-0.5874806	0.6541605	-0.2991721	-1.5494589	-1.1706251	0.102202915	0.048296068	0.47609422	0.2503535	-2.3913553	0.21739659	0.9441209	-0.03582647	0.94072247	0.24024892	-0.014916231	1.5634924	-0.47908866	-1.2950232	-0.05350486	0.103397444	-1.5119869	-0.8590818	-1.0217727	0.054020613	-0.59730357	1.3008939	-0.26694173	0.36921245	0.0059762257	-0.574662	0.33907065	-1.7209414	1.4441205	-1.0170794	1.1588054	-0.3157664	-0.39525822	-0.49377203	-0.3797798	-0.68296087	0.82204235	-0.5909374	-1.8972285	-1.4127995	0.10113322	0.09988593	0.82656425	0.47736374	-2.2974458	0.23605424	1.2466216	-0.3065858	1.0367987	0.48456421	-0.06256737	2.9634724	-1.1635681	-0.8738072	-0.06411959	0.46799058	-1.6323586	-0.65394485	-1.6804585	0.25400886	-0.7629394	1.2637503	-0.37794402	0.43984574	0.17121097	-0.8934435	0.40521264	-1.5055072	1.6966423	-0.9532846	1.2170703	-0.3124828	-0.3057598	-0.6573169	-0.45881644	-0.6510359	0.77830285	-1.0269719	-2.0598845	-1.6208482	0.11768923	0.20701735	0.81112206	0.5416055	-2.2430537	0.22634426	1.3457403	-0.6121062	1.0931747	0.8120019	-0.17810057	3.7362714	-2.0243428	-0.5426027	-0.067600325	0.71743435	-1.4313948	-0.43584043	-2.317109	0.50694966	-0.8806943	1.1387097	-0.48356667	0.38360038	0.4205708	-0.95146614	0.36319417	-1.1703502	1.7865217	-0.94821644	1.3163239	-0.18921691	-0.23813662	-0.5868656	-0.43530566	-0.42923337	0.50573117	-1.5542665	-2.112512	-1.6848419	0.40804797	0.34776154	0.17645401	0.39263555	-2.2164412	0.17053981	1.247408	-0.7567398	0.92847294	1.7759856	-0.38414386	2.3308017	-2.7601368	-0.2729777	0.09130424	0.8907699	-0.99416775	-0.07844082	-2.8016334	0.5118399	-0.9241163	1.0500169	-0.32119653	0.31040967	0.83681244	-0.7204433	0.24073984	-0.74855316	1.5868424	-1.2084155	1.5743523	0.09664148	-0.038806193	-0.061890848	-0.64466614	-0.27183637	0.28377676	-2.111002	-2.2587123	-1.3455489	1.1371255	-0.0045101075	0.19874159	-0.3442848	-1.9490241	0.04772002	0.8476605	-0.87503386	0.7870175	3.5784738	-0.1325467	-1.3584138	-4.0963235	-0.3092253	-0.3301104	1.0481802	-0.35508287	0.20818211	-3.3708775	0.012894449	-0.95015514	1.051053	0.32440445	0.06375393	1.1271234	-0.20041735	0.22461253	-0.67578125	1.0317538	-1.0763679	1.6292943	-0.011650562	-0.15201762	-0.051943023	-0.7639594	-0.46680978	0.38642296	-2.2442358	-1.8725792	-0.85343903	1.1554714	-0.5634386	1.8099781	-0.37886038	-1.7714378	-0.08166362	0.30331796	-1.0744275	0.83217126	1.4305993	0.2181852	-2.2810059	-6.0293317	-0.11087115	-0.8670945	0.99608064	-0.06251876	0.5320983	-3.7538714	0.43407536	-1.130402	1.1132628	0.29749992	0.07083573	0.63221025	0.5141271	-0.15529916	-0.65891397	0.95722276	-1.015673	1.8171378	-0.023886578	-0.120178856	-0.045901127	-0.83527195	-0.39123565	0.27548435	-2.1895096	-1.4731802	-0.77565295	0.6204671	-0.62481254	2.4140038	-0.3659492	-1.9492109	-0.033198826	0.67622334	-0.6772624	0.6556197	-1.1938169	0.5300736	-3.7156205	-6.7817745	-0.17102106	-0.9720012	1.0813931	-0.09964119	0.7714862	-3.6997101	0.98325294	-0.9247582	0.99860036	0.14934902	0.15640981	0.1311156	0.6793988	0.16542065	-0.48063993	1.0979433	-0.92723143	1.8103818	0.07073245	-0.027819691	0.2617165	-0.7505466	-0.43311685	0.103661716	-1.9859198	-0.7996178	-0.7896249	-0.7027145	-0.5080435	3.0820408	-0.09188005	-1.7946702	0.083630055	0.77953297	-0.09693049	0.5853248	-4.6728697	0.12408222	-5.9324226	-7.117871	-0.18038392	-0.81912404	1.105725	-0.1272487	0.7359156	-3.7987468	1.4700371	-0.9742344	0.90182346	0.17395006	0.06567103	-0.415813	0.51745003	0.5263259	-0.31717488	1.0735073	-0.7049956	1.7978722	0.3814982	-0.10280427	0.6131417	-0.75589615	-0.4497372	0.18096428	-1.4815444	0.06825133	-1.049988	-2.1063874	-0.29785675	3.8731248	-0.03837634	-1.589355	0.16107973	0.56579256	0.34743994	0.46567905	-7.8214583	-0.012843908	-8.412451	-6.5813913	-0.2081855	-0.37381327	1.0634155	0.03760648	1.0222939	-3.979622	1.0664923	-1.0537138	0.8750877	0.2292596	0.15059523	-0.53942394	0.19544834	0.39337024	-0.1045644	1.009439	-0.75776196	1.8954964	0.8076434	-0.21188307	0.9474547	-0.4407266	-0.1874986	0.21319318	-0.9098804	0.27367833	-1.100184	-2.47391	-0.14453976	5.132389	-0.20040068	-1.5973343	0.31595725	0.519868	1.2912925	0.44986445	-8.257014	-0.14314163	-8.695077	-6.2791867	-0.37768087	0.23384367	1.250166	0.109797314	1.3050206	-4.009643	-0.24240695	-0.91010964	0.9369873	0.6005171	0.28118315	-2.2304928	-0.27679268	0.23093471	0.18241069	0.95601183	-1.0919738	2.1001556	0.8062964	-0.2466919	1.0104322	-0.49703187	-0.088300265	0.11776073	-0.9199467	-0.20712154	-1.0226799	-1.2682837	-0.15198986	7.2702847	-0.198842	-1.5234017	0.37144265	0.48256257	2.0672097	0.23913649	-5.8974495	0.21546364	-8.794307	-6.379047	-0.38091877	0.14794253	1.3280367	-0.08537096	0.9680177	-3.9575949	-0.77184874	-0.9768059	1.0606841	1.2563407	0.39324433	-4.65827	-0.20890108	0.16847152	0.25153914	1.6230905	-1.585313	2.5265982	0.83598745	-0.20816422	0.45067072	-1.0720195	0.27695432	0.3393334	-1.3222042	0.76037467	-1.6629454	-1.0532604	0.29883	7.7821574	-0.42585942	-1.3059855	0.49801806	0.48435578	3.3505857	0.28853807	-5.2903666	0.936564	-10.594041	-5.1870375	-0.3438077	0.23849826	1.337369	-0.3388922	0.16009402	-3.864273	-0.7731971	-1.5028509	1.0458935	1.8561155	0.3646935	-4.3537292	-0.5146153	0.21419522	0.16846971	0.007828824	-0.058525752	0.25026536	-0.07484127	-0.017533334	-0.2891123	0.0076887524	-0.0794496	-0.04156887	-0.056082617	0.0046916385	0.012445416	-0.21275333	-0.08189025	-0.19329073	-0.35331976	-0.0890711	-0.0012413964	-0.0068817562	-0.11338515	-0.27053094	-0.40970793	-0.005496165	-0.2300986	0.06171247	-3.1069722	-0.020541929	0.14386912	-0.096821405	-0.039499886	-0.047672577	-0.027928876	-0.937266	0.06375394	0.07506835	-0.04189787	0.13926919	-0.17074215	0.09561626	0.08008219	0.049273282	-0.051974848	0.2508666	-0.023284093	-0.05916531	-0.20382522	0.04566649	0.13901642	-0.019619094	-0.14879009	0.054906122	-0.0051819696	-0.15732923	-0.07713065	-0.16408607	-0.22560515	-0.13006666	-0.018184545	0.023232035	-0.07175361	-0.28832147	-0.359885	-0.053387113	-0.23795693	0.1184696	-3.1519904	-0.06999185	-0.009797819	-0.10330508	0.010709326	0.07969997	-0.018441694	-1.0127342	0.06147597	0.16944061	0.01546207	0.06932407	-0.11436473	0.0748091	0.032148585	0.09093307	-0.04818907	0.22850259	-0.006095368	-0.05877357	-0.12023447	0.10569975	0.2075076	-0.09149294	-0.13598968	0.08385003	-0.044126436	-0.12048486	-0.084867984	-0.13837801	-0.21390149	-0.14080596	-0.033520397	0.014134883	-0.048727114	-0.28859663	-0.29631856	-0.070259675	-0.23803192	0.13586804	-3.1809623	-0.098508134	-0.05548233	-0.096517585	0.11982197	0.1547975	-0.021197105	-1.0382745	0.083635926	0.16192317	0.020571895	0.03467231	-0.054684732	0.06568053	0.021321975	0.08263497	-0.041662954	0.17591803	-0.0040067676	-0.079463646	-0.039787028	0.11341139	0.13928561	-0.08236133	-0.06375177	0.05603946	-0.054531377	-0.09660335	-0.06229117	-0.10820371	-0.2605878	-0.15504262	-0.02164992	0.017596707	-0.041095566	-0.31616068	-0.23046777	-0.057546783	-0.17280877	0.059278037	-3.2009869	-0.050247915	-0.081846625	-0.07048797	0.10508569	0.12523623	-0.0018501353	-1.0387771	0.09249373	0.15625037	0.027925974	0.038843755	-0.101185456	0.03151013	-0.047148135	0.090970986	-0.033569638	0.15957992	0.004572215	-0.1017554	0.03990266	0.132404	0.15901859	-0.108444415	-0.04704754	0.05920508	-0.062740654	-0.08421752	-0.054174744	-0.08511587	-0.2688459	-0.21973953	-0.018426638	0.049895868	-0.030888496	-0.28213552	-0.19702128	-0.05651314	-0.10917796	0.009136149	-3.1675544	-0.05756169	-0.14829805	-0.034995973	0.11384949	0.14164689	0.0066794613	-1.0619667	0.10912635	0.20192882	0.036017247	0.028795889	-0.1063044	0.0054103564	-0.1854199	0.09449352	-0.081684805	0.1784198	-0.0073293988	-0.045126516	0.0532966	0.11260018	0.16603677	-0.13566826	-0.0088771535	0.024033938	-0.08940047	-0.09414802	-0.056358043	-0.09008161	-0.32342744	-0.318969	-0.02512381	0.08938223	-0.035626557	-0.20452526	-0.20988947	-0.04258325	-0.08368858	-0.026807899	-3.115896	-0.060552705	-0.09904957	-0.008999339	0.1618075	0.16478401	0.0008285558	-1.0704904	0.08787424	0.20178854	0.04709079	0.034715574	-0.064314574	-0.014857601	-0.51221496	0.13408992	-0.26755396	0.27879906	-0.035763457	0.11678946	0.06681847	0.053622097	0.13767147	-0.17598538	0.07734318	-0.109586805	-0.16932774	-0.14415386	-0.060711946	-0.16661663	-0.41204795	-0.4530761	-0.029054748	0.1283366	-0.028091945	-0.029990183	-0.3495269	-0.06551994	-0.11644532	-0.05419386	-2.7870927	-0.057421297	0.079355955	0.056731965	0.19357266	0.1704194	-0.022503167	-1.1080344	-0.067444645	0.18982403	0.058295038	0.031776093	0.08463162	-0.09923176	-0.9365361	0.20137559	-0.5270274	0.37185302	-0.045341555	0.16418682	0.23027278	0.028673783	0.024466379	-0.22193281	0.2418756	-0.26929048	-0.27153364	-0.19586702	-0.043539453	-0.20535073	-0.6298432	-0.7795196	-0.01428216	0.04442481	-0.014603569	0.17163078	-0.44705266	-0.11627871	-0.0407163	-0.1844005	-2.2640553	-0.0090708425	0.18916804	0.26357552	0.15363337	0.12283444	-0.017989956	-1.099554	-0.16664003	0.22802113	0.021692876	0.02899438	0.26285255	-0.04127275	-1.0304945	-0.061542563	-0.62062365	-0.37076837	-0.06206767	-0.29943892	0.050189555	0.40236697	-0.25448003	-0.2946922	0.43398234	-0.17781068	-0.044238627	-0.12819125	0.013741887	-0.037851296	-0.37745875	-1.7933108	-0.009870538	-0.3625926	-0.115481526	0.08160022	-0.057494387	-0.40731126	0.26270887	-0.29807764	-1.6901615	0.104080625	0.14944658	0.30019233	0.09003883	-0.021321235	-0.0018783626	-0.79878867	0.4897337	0.50793564	0.029812267	0.16349836	0.19735736	-0.114614055	-0.95637286	-0.7181343	-0.6850363	-1.1692169	0.0066738464	-1.0040872	-0.10368036	0.89544135	0.19518858	-0.18656005	0.4290611	0.03157756	0.44227162	0.052975446	-0.024014004	0.022596931	0.48085514	-2.3516994	-0.06315914	-0.4360906	-0.117385395	0.118473396	0.11147022	-0.7966408	0.20917535	0.027676513	-1.03481	0.18115483	-0.33059412	-0.5549075	0.17466843	0.1253987	0.05535736	-1.0444697	1.3218024	1.0386732	0.50763685	0.08276056	-0.16477777	-0.1639009	-0.93309474	-1.1677934	-0.9133951	-1.3630803	0.042099234	-1.2411575	-0.26943076	1.0727346	0.76122504	-0.25129816	0.36067423	0.033433426	0.74853224	0.044238836	-0.11746505	-0.11125052	0.85381967	-2.4127564	-0.088445336	0.120443195	-0.10686876	0.16248223	-0.23434496	-0.9136723	0.09944787	0.18638091	-0.8566275	0.13420239	-0.41594443	-1.1566972	0.39192578	0.38101128	0.11628115	-1.2225354	1.5000478	1.4059383	0.7372416	0.019849405	-0.4447662	-0.45053786	-1.1172975	-1.695535	-1.2452273	-1.3260926	0.078504436	-1.2610884	-0.38653412	0.95884913	1.8647641	-0.4439269	0.14512788	-0.12574214	1.051054	-0.027471391	-0.2721322	-0.3317709	1.1194396	-2.3447711	-0.1139964	1.3985746	-0.03141662	0.32771578	-0.90048075	-0.7835716	0.08612962	0.2546946	-0.6829209	-0.0768339	-0.30883133	-1.92052	0.7587025	0.8589352	0.2030108	-1.527293	1.1771296	1.7647465	1.0246434	-0.14535803	-0.4693033	-0.024474487	-1.0730902	-2.2227466	-1.6455182	-1.2563838	0.02369358	-1.2747765	-0.47762465	0.8530207	2.153125	-0.67630935	0.21686298	-0.4060427	1.318081	-0.0687918	-0.33080468	-0.47244793	1.0820175	-2.1867616	-0.05893627	2.4218533	0.02003504	0.32874852	-1.282261	-0.75847465	0.1337665	0.14285314	-0.656542	-0.116672814	-0.017575331	-2.5267866	0.90828896	0.9347032	0.28851002	-1.611674	0.9046426	2.052822	0.99008334	-0.16453244	-0.8097458	0.62904596	-1.1604694	-2.614665	-2.0995047	-1.0062734	-0.06155139	-1.0073016	-0.60635895	0.5636225	2.5260458	-1.1000853	0.12693526	-0.704772	1.4649997	-0.095717765	-0.39023897	-0.5555447	0.89131075	-1.9030724	-0.012593877	3.630095	0.09180621	0.4158188	-1.6016878	-0.73728347	0.30201957	-0.0847306	-0.7978711	-0.29703507	0.4868315	-3.1901073	1.0916821	1.0934376	0.37681404	-1.7051471	0.12594794	2.2515342	0.9802656	-0.22935316	-0.86240786	1.8842945	-0.9983014	-2.717835	-2.3298914	-0.81897897	-0.21333781	-0.6867338	-0.6171311	0.37845126	2.0482192	-1.4739896	0.2056928	-0.8651138	1.4060323	-0.026970744	-0.32396358	-0.46708158	0.6346455	-1.6574471	0.056949556	4.016643	0.109509535	0.61657757	-1.3934574	-0.8038783	0.53862244	-0.4298095	-0.9449448	-0.34386528	0.7565121	-3.679207	0.9979952	0.90304613	0.4124035	-1.8591095	-0.546418	2.326822	0.8573277	-0.17973155	-1.1412311	2.5352247	-0.83140385	-2.741044	-2.4985318	-0.85292447	-0.34192	-0.375799	-0.60650903	0.2842128	1.3962398	-1.6147516	0.55628437	-1.0994307	1.3281549	0.08620414	-0.19298406	-0.36387253	0.4528708	-1.7250338	0.12962791	4.081696	0.13379076	0.31624568	-1.0104947	-0.7707796	0.65008694	-0.6676439	-1.0941347	-0.21875377	1.0925673	-3.751946	0.91157454	0.59634817	0.42441103	-1.5447637	-0.91098684	2.4292715	0.6402095	-0.07928358	-1.4307476	0.17161402	0.10954686	0.043257445	-0.0202005	0.32084942	-0.1698228	0.012035472	-0.50029343	0.1850233	0.012522487	-0.09405375	-0.49325693	0.053966634	-0.017975641	-0.1914857	-0.074186645	-0.14970826	-0.21602274	-0.45290667	-0.04832389	0.008849947	-0.08515624	-0.14915374	-0.47579864	-0.047266815	-0.15496191	0.13849227	-2.7261517	-0.06661316	0.15889515	-0.09194113	-0.0072090058	0.068196215	-0.06865064	-0.75326943	0.114192	0.07474936	0.022998912	0.0754356	-0.007887899	0.23913541	0.14994399	0.060691696	-0.042961236	0.31811348	-0.4921349	0.038142566	-0.6030491	0.42817584	-0.1282136	-0.10739748	-1.0874414	-0.056375105	-0.08699573	-0.07220029	-0.039600007	0.03667458	-0.36423346	-0.88806003	-0.071987405	0.18138862	0.0075938627	-0.086407535	-0.40790725	-0.08760046	0.2087142	0.002574187	-2.7074618	0.032839365	0.3564498	0.018297309	0.08632397	0.093786135	0.01909853	-0.4548522	0.19634879	-0.02903995	0.0017971317	-0.06772994	0.0013780805	0.36597067	0.26147482	0.09814946	-0.045552608	0.33037424	-0.9728784	0.042266987	-0.51030725	0.9822171	-0.21648777	0.06963514	-1.8357476	-0.21322127	-0.13899598	0.011399889	-0.08397678	0.046615984	-0.29611272	-1.2649117	-0.0973294	0.26809666	0.24201989	0.07313459	-0.6360062	-0.21665955	0.34616145	0.059079107	-2.5420964	-0.0351068	0.670797	0.079104446	0.004047483	0.09251819	0.21634609	-0.12620299	0.21452434	-0.21257558	-0.00832185	-0.50318533	-0.27808082	0.50848037	0.40775287	0.17378421	0.07312894	0.29528645	-1.4024117	0.089490935	-0.05919482	1.5644999	-0.31639543	0.3026807	-2.2126586	-0.48798615	-0.17070752	-0.10136845	-0.18352218	-0.15101226	-0.25635016	-1.4373474	-0.093921036	0.20960847	0.44702175	0.17182276	-1.066643	-0.2795493	0.35933736	0.036708176	-2.2569106	-0.13051917	1.098521	0.13139826	-0.29134834	-0.016471576	0.5367627	0.22894625	0.12001286	-0.5516858	-0.10165177	-0.9743595	-0.7077281	0.5850656	0.44562164	0.16146538	0.15634473	0.30834782	-1.6985972	0.1589355	0.34576663	1.9181103	-0.33221513	0.38544345	-2.5668635	-0.59277564	-0.12966754	-0.34203124	-0.14859541	-0.43489948	-0.17897928	-1.4944018	-0.10938318	0.20161837	0.5160951	0.18204768	-1.4206394	-0.2844803	0.12946588	0.05420207	-2.06487	-0.15943594	1.4822206	0.15661356	-0.4616961	-0.0672344	0.83655167	0.49847567	0.043015793	-0.8047025	-0.16347171	-1.1320776	-0.87012416	0.65014476	0.41063455	0.22519378	0.19077012	0.342411	-1.9535704	0.2994006	0.7328793	2.1728227	-0.32944846	0.50675225	-2.8784945	-0.63703966	-0.13141963	-0.7280134	-0.14388208	-0.7490556	-0.0052629923	-1.4771929	-0.15437847	-0.044222493	0.41245446	0.22220303	-1.6554878	-0.21016452	-0.27287942	0.15113933	-1.9059547	-0.22789429	1.7818832	0.23801635	-0.72464734	-0.13489693	1.1105542	0.6307075	-0.124765895	-0.898038	-0.21390323	-1.0652848	-0.9468268	0.44686297	0.18680556	0.1846344	0.0888012	0.38403615	-2.126152	0.5743397	1.0937239	2.2398922	-0.117678076	0.5624065	-3.1730404	-0.36679092	-0.073665276	-1.2299432	-0.08459197	-1.0960739	0.3125107	-1.3611301	-0.24494177	-0.24623768	0.08090865	0.29916346	-1.7968376	-0.03818753	-0.8864907	0.2661123	-1.7470536	-0.2308701	2.0245774	0.19401355	-0.88353705	-0.09798038	1.4307808	0.55639374	-0.32755476	-0.8560194	-0.1534554	-0.6044445	-0.7683828	0.21076642	-0.14572245	0.27730054	-0.07237944	0.58201474	-2.1869738	0.804061	1.5360794	2.0445971	0.006139443	0.8295877	-3.2706223	0.20246291	-0.20827942	-1.595374	-0.04822541	-1.2130082	0.22552869	-1.1844199	-0.32700846	-0.68481034	-0.5647346	0.4325179	-1.5671257	0.22684239	-1.630405	0.27299038	-1.6091826	-0.15188615	2.1274614	0.1598099	-1.2430406	-0.15294954	1.6002846	0.36548537	-0.52445316	-0.7500045	-0.06782105	0.44565067	-0.52416867	0.26297802	-0.49183175	0.36578915	-0.3140604	0.49737346	-2.061449	0.93855	1.6146168	1.6744252	-0.3852571	1.34149	-3.0354114	1.1793664	-0.41885537	-0.5915211	-0.07047568	-1.1661586	-0.42614704	-1.0698911	-0.32222486	-1.2902803	-1.2673391	0.55103374	-4.208345	0.52795947	-1.6608958	-0.13709728	-1.6480091	-0.0028701024	2.478071	0.19832402	-1.729881	-0.3979886	0.72107184	0.1538037	-0.43446374	-0.69961774	-0.09381045	1.6751096	-0.5469372	0.32602417	-0.5689608	0.19225377	-0.45369768	-0.3835312	-1.8743767	0.83497626	1.2833949	1.8449677	-0.5293119	1.4700515	-3.0131707	2.1300461	-0.2384293	0.8009647	0.053258747	-1.7531518	-0.15232521	-0.93734455	-0.29247022	-1.7775329	-1.0999845	0.28921273	-8.175315	0.46840838	-1.3118364	-0.3088799	-1.5082219	0.19125608	2.7972114	0.20281681	-1.9467025	-0.4751493	-0.036208667	-0.00083807536	0.038752105	-0.5020691	-0.1275342	1.5645125	-0.84255093	0.10397815	-0.746395	0.16999185	-0.57923543	-0.6761412	-1.7389749	0.7920977	1.2719249	1.9606463	-0.33127987	1.5139234	-3.068477	2.4676673	-0.2019066	1.1946466	0.14103368	-1.8542937	0.07912656	-0.92934155	-0.29549682	-1.9633363	-0.90896446	0.19390903	-8.937443	0.46445826	-1.3313894	-0.2140572	-1.3704038	0.24612045	2.7291088	0.25039417	-2.0331516	-0.37973633	-0.33816373	-0.06710675	0.19280154	-0.3308212	-0.05303676	1.3783178	-0.96439487	-0.058853105	-1.0743861	0.22096951	-0.6898065	-1.1197851	-1.5790173	0.9040927	1.2676284	2.1720812	-0.053569112	1.4129928	-3.2181807	2.8946307	-0.20174381	1.5085129	0.25457147	-1.9063106	0.5892554	-0.9148008	-0.33092895	-2.205537	-0.69952655	0.30704406	-9.339695	0.3992808	-1.404758	-0.037088685	-1.3532342	0.24245459	2.5784957	0.1752366	-2.0334642	-0.17496969	-0.68141246	-0.158668	0.31713584	-0.17539185	0.117958315	1.1763709	-0.97930324	-0.5398838	-1.5605425	0.15056613	-0.9723949	-1.4152273	-1.3350801	0.9089333	1.3529462	2.211349	0.9925592	1.2565868	-3.8974385	3.4393327	-0.046769463	1.7043244	0.22738743	-1.8894414	1.2039429	-0.72146434	-0.4177262	-2.2986863	-0.43222082	0.5574713	-9.913569	0.40736806	-1.4069166	0.29941207	-0.8010321	0.031605594	2.1174176	-0.046111073	-2.2191758	0.28510383	-0.905294	-0.86026984	0.10653121	0.14560519	0.5184106	0.7115992	-0.72829455	-0.6374246	-1.9256382	0.0062286234	-1.4628775	-1.3361299	-1.2044795	0.7203481	1.2621189	2.2554328	2.123889	0.9934353	-4.407113	3.5672166	0.11145291	1.8056906	0.13277312	-1.8972828	1.3831422	-0.5766429	-0.47415087	-1.9824564	-0.2160562	0.70980984	-10.396365	0.24832854	-1.4342166	0.54425085	-0.3202815	-0.1437821	2.0087953	-0.34559694	-2.3056426	0.70278364	-1.0656435	-1.2499417	-0.4788733	0.6947247	0.7973484	0.36054853	-0.5386608	0.83382696	-1.653561	0.033209983	-1.8739104	-1.0563682	-1.3588127	0.32486704	0.7875166	2.2190626	1.780447	0.7510475	-4.654197	3.3735638	0.10617823	2.0248096	0.2308477	-1.609409	0.9996251	-0.6404721	-0.414163	-1.8895522	-0.22664075	0.65242434	-9.904956	0.03341053	-1.1758205	0.31300774	0.25363392	-0.21041298	2.069918	-0.6694348	-2.773706	0.47452047	-1.1834685	-1.5676203	-1.140607	1.2514157	0.56202435	0.4500865	-0.89576834	1.5539695	-1.2720772	0.068230525	-2.0063307	-0.8889795	-1.6086311	0.24405992	0.6764109	2.2197242	1.4211569	0.48456234	-4.692587	3.5694745	0.24354385	2.1731052	0.106601305	-1.3248591	0.7654872	-0.95369756	-0.36070597	-1.8577456	-0.37694514	0.48174402	-9.627201	-0.03278162	-0.4003468	-0.3189143	0.28393742	-0.39524323	2.0441153	-0.6799942	-3.1000524	0.24779059	-0.6010481	-1.4396343	-1.3698587	1.7380534	0.24900858	0.3306531	-1.1733384	0.41069892	0.47341684	-0.021878896	-0.05903988	0.14171708	-0.19923024	0.04667476	-0.6666652	-0.1677094	-0.33497348	0.18966858	-0.04846862	-0.14836761	-0.01792709	-0.40312898	-0.11753254	-0.2895706	-0.5919045	-0.23788445	0.009819609	-0.058821306	-0.268835	-0.13914163	-0.6612304	0.05039793	-0.15251799	-0.07330713	-2.632459	0.028832143	0.46551025	-0.169488	-0.18632378	-0.21801418	-0.06486326	-0.720821	0.073666155	-0.094270445	-0.09507496	0.31814212	-0.28838214	0.3926557	0.373724	-0.07502702	-0.10703753	0.15427203	-0.22518101	0.080667034	-0.6749704	-0.17458555	-0.3463682	0.21244225	-0.046062224	-0.18732303	0.0028874106	-0.3652625	-0.11401895	-0.2733859	-0.5480018	-0.23189858	0.01340635	-0.03512554	-0.23030743	-0.10480378	-0.6217601	0.054496303	-0.16937207	-0.03011485	-2.6015556	0.037675686	0.5708678	-0.13551335	-0.17979406	-0.23982519	-0.06067821	-0.75171924	0.036748763	-0.09747469	-0.068292096	0.27658695	-0.32889336	0.34334606	0.27531764	-0.07341072	-0.137147	0.16665873	-0.25082546	0.11146821	-0.65629953	-0.15614788	-0.3107623	0.21536246	-0.07571046	-0.21280508	-0.014229918	-0.31917322	-0.11532434	-0.24934372	-0.49154162	-0.27442473	0.005847123	-0.015389572	-0.1900115	-0.06569206	-0.576847	0.071630545	-0.1769332	0.013601902	-2.5297153	0.026557077	0.6030224	-0.10693036	-0.14369673	-0.21503866	-0.06265372	-0.7874278	0.003618705	-0.08597151	-0.048942626	0.22225857	-0.3173928	0.30439624	0.23486048	-0.06556761	-0.1683242	0.09368003	-0.30011633	0.11927735	-0.63531965	-0.14707951	-0.34445083	0.242584	-0.092516884	-0.2670087	-0.030507004	-0.2778783	-0.12146898	-0.21368223	-0.4646636	-0.2985675	0.009244721	0.0045328033	-0.15644531	-0.03539938	-0.53045416	0.09232841	-0.12026698	0.0004097021	-2.4296796	0.028930161	0.6606129	-0.06298165	-0.14885059	-0.23214942	-0.049224105	-0.8383225	-0.002668571	-0.09569396	-0.059837583	0.17225264	-0.33860648	0.2555858	0.15018606	-0.065226875	-0.22730237	-0.028036263	-0.37565446	0.13915175	-0.68535656	-0.10950357	-0.34689116	0.24476336	-0.18095733	-0.2941432	-0.039474424	-0.18643801	-0.13416266	-0.15576273	-0.3247699	-0.34647357	-0.0005220134	0.025228838	-0.09886333	0.0007292858	-0.42008927	0.110698864	-0.121371485	0.08461834	-2.3598	0.0025594572	0.77413285	-0.0052093817	-0.11704799	-0.2266369	-0.03617433	-0.9052159	-0.011377551	-0.10144295	-0.067919105	0.08060558	-0.33260682	0.1449773	-0.017988017	-0.009331372	-0.34033263	-0.119095154	-0.50928926	0.15792164	-0.6123149	-0.0990781	-0.32226107	0.2155102	-0.30747685	-0.36856103	-0.08634001	-0.058928315	-0.17122425	-0.075860895	-0.25803304	-0.37028015	-0.0055152387	0.1349154	-0.0014983126	0.08719976	-0.3125091	0.1687692	-0.045556657	0.102544725	-2.137473	-0.038995553	0.858064	0.09765507	-0.07929	-0.20011319	0.020757955	-1.0603654	-0.06510233	-0.07769009	-0.09332116	-0.08310049	-0.32762516	0.045995355	-0.288109	0.077254884	-0.52881867	-0.24359907	-0.75670725	0.20520802	-0.45211273	-0.11994975	-0.4099478	0.14947909	-0.49456647	-0.42903927	-0.15293425	0.0829119	-0.20493719	0.06627844	-0.29934505	-0.39197585	-0.008106978	0.18846136	0.093761	0.23740013	-0.17303857	0.18961446	0.22466981	-0.02891363	-1.972383	-0.06666418	1.02195	0.29595044	-0.05316556	-0.23103109	0.17629035	-1.1960045	-0.17187813	-0.0861085	-0.13647209	-0.29266465	-0.23142858	-0.15906312	-0.6306089	-0.0022018447	-0.72444195	-0.74586135	-1.0869995	0.08129193	-0.27933022	-0.009934293	-0.38463435	-0.06753836	-1.0152214	-0.040182184	-0.04497057	0.25758743	-0.14749183	0.18334378	0.030708551	-0.45881066	-0.06904022	-0.07454896	0.18773654	0.485977	0.011171134	0.13207766	0.3434528	-0.006975549	-1.7800723	0.010297412	1.0891069	0.5510184	-0.00033870476	-0.23575218	0.47887585	-1.4662176	-0.09903443	-0.026081448	-0.082373865	-0.5313142	-0.08255526	-0.04493067	-1.2645758	-0.27321324	-1.1506584	-1.1988643	-1.4080541	-0.45720223	-0.2526039	0.34175012	0.66478896	-1.0036817	-2.163665	1.0415173	0.28449184	0.010943511	-0.017096302	-0.13460928	0.7589718	-0.50875986	-0.2781502	-0.14531592	0.032824803	0.6828279	-0.1180547	-0.44042775	-0.57122236	0.53330064	-0.79733217	0.33385834	1.039333	0.6959812	0.45834255	0.23163423	0.5244142	-2.0562575	-0.14141154	0.5067546	0.09687353	-0.16029179	0.11865689	1.2335553	-1.6213028	-0.27519366	-1.6418184	-0.9969905	-1.5494714	-0.72143614	-0.49249747	0.43053973	1.473678	-2.2407537	-2.8908849	1.6958897	0.401889	-0.18815146	-0.008773186	-0.16720961	0.74040455	-0.79629266	-0.40117928	0.21348388	-0.47119102	0.48402098	0.14619079	-1.185999	-1.1225605	0.66019565	-0.41800848	0.5348318	1.2377907	0.8301934	0.85763335	0.6536168	-0.038361084	-1.9261057	-0.5093058	1.0940672	-0.041294005	0.869075	0.039837673	2.091764	-1.626418	-0.15006709	-1.7331097	-0.8653644	-1.563413	-0.7038989	-0.45848006	0.43144628	1.4413773	-2.7259336	-3.087306	1.7567688	0.35446203	-0.070797555	0.07802357	-0.08617439	0.6878445	-0.92559093	-0.41395223	0.23541306	-0.5948064	0.27144223	0.36694756	-1.2194722	-1.23352	0.62249476	-0.4232398	0.5674984	1.1669341	0.8698126	0.8206405	0.7263316	-0.44593108	-1.7567642	-0.74700105	1.2223432	-0.17100602	1.2051369	-0.26631778	3.32226	-1.5393878	0.11898292	-1.6685085	-0.79078174	-1.6492096	-0.689352	-0.38537753	0.5098637	0.9958687	-3.3289464	-3.3003542	1.705914	0.23967981	0.19931942	0.15360105	0.088266335	0.6448658	-1.0483052	-0.37799644	0.09221802	-0.6293445	0.2902122	0.81115353	-1.0790404	-1.3816493	0.58373195	-0.40350708	0.73083144	0.92214495	0.94050694	0.7023456	0.6411122	-0.89288807	-1.7407564	-0.9036319	1.2772143	-0.39614084	1.5417696	-0.87017083	4.2668405	-1.3466667	0.20549226	-1.3692362	-0.81659037	-1.8431793	-1.043266	-0.6503285	0.6231901	0.47284663	-3.8390765	-3.722406	1.7461244	0.2785413	0.5824368	0.3027867	0.6232656	0.6720631	-1.2359017	-0.44732973	-0.2724321	-0.84116876	0.6552579	1.4973931	-0.73947406	-1.2500645	0.62331396	-0.33396694	1.0463705	0.6102274	0.9054571	0.8214155	0.57112086	-1.4057468	-2.0040598	-0.81775254	1.0358475	-0.4487096	1.8942441	-1.2583531	3.405154	-0.6067593	0.48081926	-1.1684399	-0.8103421	-1.9413291	-1.1753991	-0.4201573	0.96455276	-0.65255433	-4.089021	-3.2493434	2.0788565	0.20231965	0.71559936	0.6971815	1.0420042	0.6985052	-1.9146333	-0.39179218	-0.6465935	-1.0356337	0.06972886	1.5097587	0.6608308	-1.5686918	0.2832725	-0.10521341	1.7322671	0.2586749	1.0121012	0.8362259	0.23652904	-1.3505553	-1.6723009	-0.81283754	1.3301302	-0.6866272	2.407315	-2.4170604	-0.35608816	0.16961361	0.36510032	-1.323478	-0.7180777	-1.8085815	-1.3869503	-0.012896087	1.1133932	-0.52443975	-3.38933	-2.070023	3.0478027	0.3574629	0.28850302	0.8756633	0.8843467	0.8994288	-2.3173804	-0.37843677	-1.4016289	-1.3057321	-0.02947637	-1.9913266	2.0841618	-1.6594892	0.034700196	-0.15831788	2.2415721	-0.10151297	0.87931746	0.72142535	0.06863334	-1.279038	-1.6889492	-0.6185055	2.233204	-0.2547363	2.9821007	-3.0958257	-1.7663385	0.44256836	-0.08053005	-1.2882011	-0.7922022	-1.6613545	-1.4212774	0.7965976	1.2183294	-0.27308032	-2.8641253	-0.9125517	3.6703362	0.49883795	-2.5597556	0.9502327	1.2746239	1.2094808	-2.207896	-0.34928414	-2.2156072	-1.2715484	0.0922956	-8.272018	1.8406341	-1.1153959	0.0042871344	-0.1412967	2.5327184	-0.3682152	0.8801305	1.1983299	-0.16474125	-1.4022408	-1.7623522	-0.60464746	2.8044643	0.32505584	3.365309	-2.9488733	0.6173967	0.13305774	-0.51429474	-0.07780265	-0.2080947	-0.24581796	-0.06936649	-0.19374703	-0.5285525	-0.7057314	0.27618155	0.65349394	-0.55630857	0.24998292	-0.13344336	0.026232665	-0.042801186	-0.61282253	0.055754866	0.11588944	0.28886458	-0.09645826	-0.55156195	-0.019620337	0.115805194	0.1336954	-0.24958415	-2.1811616	0.3404749	0.92764634	0.11520181	-0.3746638	-0.7544597	0.079500206	-0.85499245	0.037247274	-0.09955075	-0.010502599	0.1994678	-1.0828562	0.077992074	0.3231812	-0.1542348	-0.7019368	-0.678225	-0.047368724	0.25149807	0.29423052	-0.6619823	-0.73150486	0.29990935	0.47746158	-0.31276947	-0.054189432	0.15927623	0.14369613	0.11062972	-0.11537346	-0.63937485	0.110957906	-0.15465653	0.10781974	-1.2490774	0.4814413	0.117656626	0.17524856	-0.2784399	-1.4623905	0.16058992	0.45544747	0.12707563	-0.49836904	-0.4625903	0.045157418	-0.75130445	-0.35950616	-0.50376356	0.15586229	-0.04406118	-0.39379123	-0.57244414	0.5167208	0.09062686	-0.71560794	-0.8523927	0.032663204	0.033005238	0.65990424	-0.7407981	-0.7371643	0.44420207	0.55838114	-0.059999526	-0.33142152	0.41656944	0.2997285	0.39948946	0.10859679	-1.3232355	0.07514329	-0.74892074	0.18463816	-1.7087314	1.2068911	0.35275957	0.50173825	-0.4952942	-0.8877779	0.2240349	0.24070169	0.15053713	-0.44672891	-0.31074846	0.052437976	-0.53118265	-0.7386763	-0.7391285	0.5081813	-0.13745953	-0.23804651	-0.7295438	0.58738744	0.03397923	-1.1322783	-0.8830516	0.16312537	-0.042528063	0.6847437	-0.67297614	-0.6657924	0.6083708	0.47586647	0.33482313	-0.32001805	0.5147709	0.31148487	0.43569213	0.065108135	-1.4641296	0.07518201	-1.3562313	0.2786185	-1.7302892	1.3591594	0.25188577	0.18883206	-0.23729046	-1.2389863	0.2885451	0.20436998	0.13517539	-0.37587997	-0.21035266	0.09809231	-0.3164949	-0.7857607	-0.82613945	0.6984359	-0.1866984	-0.5887044	-0.88279843	0.4375453	-0.05938446	-1.6706327	-0.90003407	0.3222305	0.1286468	0.7109172	-0.60683906	-0.3251914	0.9125158	0.29596606	0.78628635	-0.2779561	0.5665333	0.24220154	0.4229885	0.13154238	-1.364042	0.06070304	-2.1467044	0.40956494	-1.6211159	1.2969221	0.0358142	-0.147393	0.14210527	-1.335698	0.30821475	0.15578204	0.033255585	-0.16247402	-0.00809689	0.11641252	-0.37728104	-0.8509567	-0.9088654	0.8855397	-0.289958	-0.83071005	-1.0645953	0.08033242	-0.20177354	-2.3730862	-1.0055621	0.47174644	0.60453814	0.6913168	-0.6022466	0.045517012	1.3859308	0.23238008	1.1186084	-0.23330812	0.59146965	0.12739262	0.33426157	0.23863	-1.040568	0.10952362	-3.0743146	0.60682786	-1.5819901	1.140563	-0.27577484	-0.59615916	0.59715647	-1.3901594	0.315845	0.37822327	-0.12279929	0.21598952	0.20207003	0.07592913	-0.4468423	-0.9423764	-1.0663031	1.0912832	-0.36704382	-0.9800966	-1.3939005	-0.35005638	-0.42786393	-2.9213736	-1.0248693	0.5983363	1.0666512	0.79054934	-0.5956589	0.66704524	1.7357476	0.08575085	1.3587149	-0.15740445	0.5491469	-0.031522796	0.20611815	0.3049582	-0.7839876	0.4277773	-3.89979	0.93032944	-1.5582113	0.85544103	-0.5766914	-0.7458473	0.6979935	-1.2114252	0.25971204	0.5432845	-0.20817123	0.6083644	0.44287196	0.017102897	-0.5493281	-1.1200576	-1.118238	1.5550119	-0.34916064	-1.0838935	-0.41117838	-1.0460024	-0.521456	-3.2927065	-0.90237635	0.4947826	1.0623279	0.7972901	-0.10486675	1.3881965	1.1126978	-0.35627013	1.4057992	0.07163411	0.3564403	-0.31204724	0.10425913	0.23483278	-0.5570798	1.1080146	-4.163525	1.1564251	-1.3299704	0.27955136	-0.7136943	-0.4405695	0.4187698	-0.5838256	-0.1484842	0.6949865	0.015054803	1.4708959	0.73113304	-0.1266791	-0.73923665	-1.2852625	-0.84948623	1.002367	-0.21165642	-1.1806129	1.1497728	-1.587048	-0.35402805	-2.8352728	-0.6415426	-0.16674219	0.14732908	0.73629045	0.6537167	1.437003	-0.6772791	-0.5584589	1.0592434	0.3980954	-0.3004379	-0.34316233	0.008215764	-0.16078836	-0.6898542	2.3526356	-2.6171305	-0.30891842	-1.0877274	-0.91004145	1.1864324	0.5109651	-0.9451829	0.29761115	-0.8699173	0.6901811	0.5763667	2.6040778	0.8468477	0.17601846	-0.8159663	-1.235608	0.038252287	-0.9698689	-0.09769262	-2.408764	0.9486885	-1.566182	0.84024584	-2.2499304	-0.6587946	-0.73220646	-0.6312619	0.58426315	1.065166	0.805505	-1.6228825	0.72214115	0.40652436	0.18950537	-0.73296726	0.30081654	-0.3187008	-0.068163894	-1.3696227	2.729954	-1.0725346	-4.941264	-1.0785998	-1.6151059	4.385093	0.3265286	-1.3218827	0.20850252	-0.74059695	0.78869534	0.8797505	3.4674232	0.7465363	0.90045106	-0.3978166	-1.1703742	0.9830156	-3.894686	-0.7861209	-3.6764848	-0.67845714	-1.6367373	2.1276765	-1.8878868	-0.7279589	-0.8754853	-0.9123945	0.39269215	1.1098714	0.60878503	0.01116342	2.3224714	-0.27168998	-0.24622266	-0.3931076	0.79480857	-0.36481756	0.25475186	-1.5997843	2.0799835	-1.7010056	-8.809541	-1.205373	-0.873334	5.2118487	-0.49640217	-0.31887943	0.023258032	-0.35979226	0.9139996	0.13653824	4.3198075	0.8310942	0.75529057	-0.28828928	-1.0665356	1.3231566	-4.9046025	-1.6245319	-3.1921284	-1.4780107	-1.787768	2.8188295	-1.5400217	-0.659635	-0.89804184	-0.9741383	0.076516666	1.1293247	0.33248264	1.1232939	3.320616	-0.30976263	-0.6229411	0.74054265	1.6026793	-0.32831132	0.3825977	-1.7130594	1.0915964	-2.0614502	-14.156704	-1.2074512	0.5306681	5.3059173	-0.9659544	0.9403457	-0.11271818	-0.18582428	1.2341968	-0.67896163	5.256046	1.0807277	0.56230384	-0.5120859	-0.89993566	1.6354734	-5.125924	-3.4327235	-2.730846	-2.8719018	-1.8682806	3.0259192	-1.1929674	-0.37588975	-0.47020233	-1.3294853	-0.22385441	1.260931	0.45463568	2.3332925	3.3342535	-0.23553933	-0.5929809	2.127968	1.932276	-0.91186607	0.40447697	-1.5516644	-0.010684255	-2.4531364	-17.82411	-1.2820398	2.7405932	4.8507476	-1.5068514	1.7356713	-0.35082102	1.0121014	1.286722	-1.6481495	6.0216517	1.685257	0.8081439	-0.96505463	-0.40941125	2.0482445	-4.8817654	-4.1228957	-1.9831675	-4.2541847	-1.7978625	2.5142174	-1.3420889	-0.11615863	-0.3465207	-1.385167	-0.23416525	1.448367	0.49484944	1.8721681	2.4846838	-1.2967188	-0.40391585	2.4021568	0.65296406	-1.0004995	0.21499161	-1.4078507	-0.22108974	-1.9187306	-14.746378	-0.9306943	2.3517776	4.321626	-0.19380459	-0.30938384	-0.4327963	3.4274755	1.4984236	-1.9182101	5.5129094	2.0544555	1.6460413	-1.223405	-0.3580721	2.574016	-3.6255102	-2.7002003	-2.1012573	-5.2203703	-1.3736964	1.6050136	-1.6758912	0.22071029	-0.27709064	-0.89033467	0.27064484	2.078224	0.0158251	0.6752965	1.8420492	-1.6616439	-0.29249093	1.3778667	-0.4622183	-0.8699773	0.23193705	-1.1283807	0.15163592	-1.7436935	-10.792193	-0.61227006	-0.21967794	3.3908498	0.6419549	-2.1817076	-0.45814967	5.311853	1.310935	-1.8198674	5.338278	2.0958948	2.0683854	-1.3592261	-0.5763996	2.7557085	-1.5429918	-1.2368779	-2.6957226	-5.8828216	-1.0807673	0.73232573	-2.9487321	0.64278805	0.06896609	-0.4295798	-0.21693301	2.444485	0.9833825	-0.67720574	0.5987811	-1.83177	-0.40217328	1.9677062	-0.90705884	-1.1312255	0.14422612	-0.81139225	1.4225699	-1.8328592	-13.467366	-0.10908468	0.7895279	2.022277	0.83330256	-3.4064674	-0.3357503	7.2238665	1.8415596	-1.531071	4.0498786	2.2641377	2.468697	-1.3833764	-1.0053009	2.9966042	0.8150875	-2.7150106	-3.12436	-0.1515758	-0.8615419	-0.042032436	-0.6959026	-0.8295498	0.04551744	-1.3313513	0.3855227	1.186856	-1.2893023	-0.7011956	0.58124536	0.9532303	-0.10241673	0.2414967	0.26546925	0.4551706	-0.059280217	-0.3413534	-0.15018158	-2.4401805	0.006768277	0.22228609	0.9113322	0.22942832	0.22070666	-0.034573466	-0.55937284	0.63320816	0.30698204	-0.15632403	0.6050492	-0.26582795	-0.048323557	-1.5417364	-0.9206673	-0.91303825	0.6284252	0.021530397	-0.19953713	-1.1473293	-0.8237509	-0.08512998	-0.6371035	-0.8567316	0.06756181	-1.4123291	0.37328824	1.3328371	-1.4480015	-0.6385387	0.81410027	1.1755096	-0.06353569	0.29320714	0.33200946	0.48521638	-0.045633607	-0.5773622	-0.14057867	-2.5449378	-0.00574267	0.2069993	1.0483323	0.98710126	0.19205306	-0.11313333	-0.48956046	0.8096326	0.26530126	-0.13699766	0.7533247	-0.2697952	0.0018555912	-1.422749	-0.96054107	-0.9464615	0.6553915	0.11851084	-0.77533185	-2.1627378	-0.7988695	-0.11522416	-0.6361063	-0.82055783	0.13361552	-1.5010568	0.43270078	1.4563603	-1.4659364	-0.5487299	0.9684577	1.3779601	0.012174473	0.31144616	0.36485103	0.4651814	-0.020740937	-0.6235304	-0.13210379	-2.5534372	0.007629142	0.1618348	1.0315291	1.5071785	0.15956241	-0.17517708	-0.4290449	0.937723	0.22657728	-0.11097858	0.88876134	-0.20597516	0.0663417	-1.3581188	-0.9273668	-1.0183129	0.66340834	0.15329367	-1.200454	-3.157346	-0.79580086	-0.13967201	-0.661149	-0.8379432	0.18589923	-1.5466274	0.4713741	1.5544713	-1.4152188	-0.46544123	1.1475655	1.4883889	0.08445911	0.32644835	0.38342887	0.43056685	0.052319504	-0.70021236	-0.12251677	-2.5336287	0.02916798	0.15953751	0.9843794	1.9530258	0.10327378	-0.1915217	-0.4131416	1.0678365	0.22896391	-0.031887047	1.0020734	-0.15617472	0.13002907	-1.2897735	-0.9002732	-0.9856006	0.64162445	0.1689005	-1.5434089	-4.237144	-0.83981097	-0.13473107	-0.6748857	-0.8447763	0.2550747	-1.6384467	0.49480388	1.664582	-1.2967343	-0.34721386	1.2402434	1.6830026	0.2067761	0.34802175	0.40429887	0.43983144	0.16514425	-0.773632	-0.1265748	-2.4872801	0.031819303	0.27983424	0.9769501	2.2640655	0.13186117	-0.23850635	-0.40255713	1.1560717	0.19435427	0.03803172	1.1247184	-0.053168613	0.21445805	-1.2504159	-0.8673911	-0.94530195	0.5520344	0.172264	-1.8515437	-5.4156394	-0.86469	-0.10798695	-0.73325515	-0.9152365	0.34823582	-1.7052916	0.48342758	1.8156015	-1.1596864	-0.28224206	1.3110523	1.8438363	0.39267808	0.37706178	0.43651432	0.45580116	0.4507543	-0.9058804	-0.12226119	-2.381408	0.047661968	0.479437	0.97311664	2.4500523	0.20264876	-0.28322914	-0.4634356	1.2224369	0.20657521	0.17302082	1.2025818	0.06399815	0.2973544	-1.1857226	-0.8319982	-0